sent_0 -0.392624 -0.699448 -0.026138 -0.555749 0.039506 0.057069 -1.013817 -0.590662 0.328672 0.670211 -0.753986 -0.584209 -0.467225 0.323001 0.152157 0.329581 1.063909 0.076794 -0.566487 -0.291192 -0.213428 -0.318105 0.506729 0.518021 0.432655 0.429275 0.320350 -0.447137 0.609943 -0.549159 0.713089 -0.411692 -0.112247 0.458712 0.075252 -0.318534 -0.122981 0.282845 0.049975 0.645316 0.253443 0.246354 -0.140601 -0.073754 -0.232462 0.410844 0.140882 -0.202798 -0.172801 0.002562
sent_1 -0.063653 0.054318 0.317130 0.129483 -0.417183 0.053890 -0.087992 0.086113 -0.120159 -0.041802 0.315616 -0.110491 -0.154593 -0.340411 0.197186 -0.084904 -0.350555 0.292216 -0.188975 -0.179985 -0.632675 -0.067613 0.435208 -0.325499 0.279599 -0.473607 -0.280553 0.140177 0.587245 -0.074768 0.323949 0.318517 -0.362363 -0.267677 -0.188189 0.051222 -0.671242 -0.081480 -0.030193 0.339756 0.615760 0.320015 -0.438805 -0.002608 -0.537573 0.007448 0.161783 -0.236574 -0.337527 -0.056413
sent_2 -0.093826 -0.080981 -0.202412 -0.335404 -0.121582 0.270025 -0.642445 -0.392057 -0.534198 0.519914 0.211162 -0.581123 0.009759 -0.103451 -0.001740 0.062973 0.353838 0.142543 -0.097292 0.161805 -0.271807 -0.001502 0.040837 0.049449 0.112460 -0.569791 0.000682 0.174549 -0.574201 0.217451 0.480935 0.150360 0.135500 0.336974 -0.389339 0.458216 0.338567 0.079892 -0.534750 -0.124390 0.353411 0.182641 -0.331867 0.060843 0.049001 0.349896 -0.448361 -0.184862 -0.072295 -0.075677
sent_3 0.157717 0.458359 -0.272982 0.040610 -0.022636 -0.090238 -0.341437 -0.247055 -0.242812 0.150575 -0.131962 -0.135304 -0.180897 -0.419247 0.164209 -0.321298 0.064556 0.072512 0.227231 -0.379632 0.132725 0.326221 0.104657 -0.114962 -0.405774 -0.534185 0.395342 -0.013713 0.110222 0.784532 0.326808 -0.137012 -0.043131 -0.036133 -0.423037 0.220178 -0.637618 0.041682 -0.154666 0.308360 0.011777 0.046795 -0.026145 -0.296263 0.090423 0.268813 -0.536969 -0.015038 0.031595 -0.147373
sent_4 -0.284129 -0.108413 0.099631 -0.057948 0.257048 -0.016583 -0.443216 -0.347535 -0.079979 -0.135036 0.266484 0.000276 -0.311482 -0.175286 0.269423 -0.117773 0.463625 -0.280772 0.065061 0.092918 0.374294 0.047558 0.233629 0.129543 -0.122837 0.112365 -0.071172 -0.200477 0.156998 0.066496 0.694192 -0.138959 0.132662 0.084224 0.184749 -0.033417 -0.096853 -0.041873 0.048213 -0.028799 -0.159968 0.039841 0.413164 0.150876 -0.127352 -0.119124 -0.232287 0.109340 -0.072344 0.163540
sent_5 -0.024380 0.144872 0.347608 -0.460206 -0.111323 0.751652 -0.084947 0.123320 -0.210821 0.168213 0.326517 0.109609 -0.135851 0.296120 -0.023510 0.166727 0.069286 -0.141574 -0.570897 0.305923 -0.149436 -0.552712 -0.245563 0.367920 0.055339 -0.458286 0.280665 -0.068499 -0.202042 -0.101144 0.376257 0.443338 -0.001973 0.290352 0.260530 0.463686 0.557809 -0.349160 -0.418803 -0.267974 -0.069119 0.443373 0.426233 0.730395 -0.057339 0.074330 -0.428567 -0.050232 -0.162802 0.282409
sent_6 0.489789 0.072537 1.084914 0.713631 0.345407 -0.831206 0.486587 0.444496 0.368015 0.193115 0.006229 0.430681 0.019434 -0.444951 -0.262090 1.108804 0.059173 0.565314 1.077100 -0.979322 0.116905 -0.324494 0.422035 0.806898 -1.149619 0.644317 0.262346 -0.225860 -1.034918 0.642323 -0.286890 0.699397 -1.166881 -0.486518 0.472780 -0.422208 -0.722081 0.028984 0.818036 0.936131 -0.880441 -0.265776 -0.083574 -0.077704 0.050577 0.130529 0.771074 0.554476 -0.005333 -0.630765
sent_7 0.415207 -0.118352 -0.382470 0.328002 -0.216705 -0.459775 0.145944 -0.449615 -0.545994 0.164741 0.160378 -0.089313 0.178190 0.165297 0.474077 0.599174 0.334055 -0.449189 0.142903 -0.780480 0.115858 -0.786343 -0.049614 -0.055097 0.245805 0.366830 -0.399375 -0.116325 -1.043264 0.496729 0.258096 0.733677 -0.418743 0.194760 0.706143 -0.836310 -0.055001 -0.122338 0.355215 -0.923361 -0.128903 -0.847458 -0.215202 -0.166392 -0.065800 -0.499800 -0.220024 0.662818 0.143580 -0.529606
sent_8 -0.292731 0.192693 -0.510434 -0.041879 -1.094388 -0.345616 -0.966637 -0.554185 0.296392 0.232395 0.335773 -0.581646 0.132672 -0.718316 0.918166 -0.215122 0.352161 0.441930 -0.150774 0.194841 -0.544378 0.727327 0.073165 0.247233 -0.184768 -0.046610 -0.431536 -0.290473 -0.097744 0.501330 0.552078 -0.010340 -0.304352 0.279627 -0.050189 0.134372 -0.878476 -0.893890 -0.084332 0.765819 0.042707 0.284419 0.027830 0.026150 0.087478 -0.151658 0.182078 0.181633 0.138244 0.050972
sent_9 -0.268236 -0.339507 -0.508122 -0.009042 -0.386289 0.017318 -0.518691 -0.368525 0.095623 0.060270 -0.186512 -0.404845 -0.090038 -0.598818 -0.044519 0.050453 -0.354707 0.125163 0.049736 -0.142589 -0.228163 0.426821 -0.436803 0.212341 -0.244589 0.119302 -0.399507 0.102725 -0.242448 -0.089525 0.254251 0.014709 0.178401 -0.024899 -0.150893 0.077018 -0.110639 -0.094451 0.119119 0.170085 -0.242643 0.034977 -0.264472 -0.330187 -0.169096 0.238891 -0.016394 0.104397 0.314558 -0.063310
sent_10 0.981965 -0.156918 0.616925 0.268673 -0.017399 -0.366676 0.444677 0.292105 0.056186 -0.379613 -0.650964 0.573494 -0.217065 0.316868 -0.285435 0.414871 -0.385993 0.464253 0.409984 -0.337197 -0.410577 -0.182454 0.664302 -0.013640 -0.600817 0.445569 0.135674 -0.238331 0.294345 0.387451 -0.506797 0.329281 -0.386131 -0.434147 0.381663 0.115677 0.277789 0.291772 1.005980 0.256351 0.329712 0.128659 -0.171565 -0.016982 0.010972 0.007268 0.169984 -0.151932 0.653797 0.106532
sent_11 0.563191 -0.533866 0.228192 0.086372 -0.379945 -0.074222 0.085058 -0.190236 -0.942624 -0.544490 -0.965589 0.392365 -0.311713 0.095379 0.519223 0.456784 -0.720335 0.483911 -0.324838 -0.260458 -0.194691 0.419970 -0.137155 -0.651471 0.075203 0.702691 0.539042 -0.259568 0.455093 0.316739 -0.158380 0.540121 0.257281 0.026028 0.431073 -0.003533 0.647013 0.801809 1.069514 -0.053736 0.084629 -0.397106 -0.134966 0.527355 -0.277995 -0.098137 0.099057 -0.289370 0.871081 0.939788
sent_12 -0.469257 0.254049 0.121814 -0.220764 0.528078 1.113979 0.521542 0.328262 0.017889 -0.096973 0.545653 0.299365 0.130617 0.184467 -0.575724 0.065890 -0.311960 -0.304088 -0.020564 0.477140 -0.062575 -0.235907 0.988833 0.395947 0.078451 -0.006185 -0.042950 -0.353636 -0.146110 -0.930024 0.373193 0.055197 0.327392 0.421911 -0.643187 0.739472 0.923456 -0.498670 -0.401419 -0.413261 -0.670995 0.213717 1.009614 0.051019 0.031745 -0.385410 -0.537127 0.083996 0.112415 -0.239735
sent_13 -0.192857 -0.255368 -0.389088 0.232022 -0.056952 0.180324 -0.019494 -0.012836 0.195914 1.192797 0.012405 -0.314242 0.140725 -0.584277 -0.296617 0.317818 -0.496930 -0.316201 0.331997 -0.473282 0.194262 -0.269073 -0.249872 0.543258 0.486005 -0.120261 -0.263678 0.343848 -1.312857 0.841877 0.065192 0.226620 -0.493207 -0.244523 -0.245906 -0.505251 -0.995470 0.371148 0.254107 -0.093827 0.052258 -0.202065 0.218605 -0.590747 0.168866 0.131025 0.677197 0.067150 -0.221985 -0.505144
sent_14 -0.527185 -0.306429 -0.188359 -0.000249 -0.019877 0.530053 0.022764 -0.326408 -0.384936 -0.107462 -0.492951 0.317691 0.812025 0.213595 0.027952 0.458447 -0.028712 0.159074 -0.442921 0.431546 -0.182767 -0.373533 -0.017118 0.568447 0.114273 0.490260 -0.165668 0.142321 -0.507574 -0.037096 -0.134912 0.253277 0.082781 0.458274 0.726255 -0.039921 0.397742 0.085284 -0.382700 -0.004107 -0.248125 -0.296284 0.331186 0.359134 -0.149634 -0.206905 -0.235335 0.377650 -0.079555 0.275715
sent_15 -0.298080 0.140504 0.143490 -0.005400 0.064342 0.555490 -0.026678 -0.197721 -0.141939 0.138138 -0.041540 0.152991 0.602991 0.008175 -0.294096 0.163739 -0.000440 -0.364502 0.070797 0.060296 -0.199117 -0.276754 0.076645 0.339996 -0.062147 -0.167534 -0.098636 0.044657 -0.380594 0.149003 0.081640 0.197535 0.110472 0.194948 0.070808 0.216014 0.047268 -0.161175 -0.636517 -0.301713 0.112251 0.299306 -0.205767 0.497296 -0.148497 0.141766 -0.334583 0.066818 -0.273057 0.205440
sent_16 0.056238 0.419612 0.051234 -0.224285 -0.220388 0.581695 0.273408 -0.033371 -0.151384 0.091982 1.048386 0.094341 -0.688105 0.186883 0.393227 -0.389862 -0.040886 0.139304 -0.438900 0.240272 0.100534 -0.117860 0.263693 0.453977 0.291224 -0.190556 0.223335 -0.178237 0.052028 -0.288589 0.182963 0.258265 0.221053 0.302597 -0.502486 0.915252 0.905150 0.224064 0.130257 -0.138497 -0.125430 0.690385 1.065998 0.366417 -0.018415 -0.001187 0.362880 -0.231467 0.116471 0.321114
sent_17 0.053233 -0.143829 0.414604 -0.401802 0.882160 0.734672 0.149725 -0.346243 0.319362 0.393721 0.051983 -0.339667 -0.018744 0.148054 -0.594482 0.555846 0.611994 -0.676085 -0.580798 0.296211 0.000747 -0.188883 0.303867 0.179868 0.392902 0.230000 0.156653 -0.205395 -0.298429 -1.052267 -0.334450 0.412246 0.392219 0.460080 -0.275908 -0.033038 0.709052 -0.131364 0.073098 -0.717474 -0.192867 -0.038587 0.595466 0.800623 -0.394630 0.069945 -0.162056 0.342246 -0.368623 0.348282
sent_18 0.751705 -0.255597 0.146099 0.039036 0.192591 0.015421 0.320288 -0.010088 -0.061064 0.009797 -0.189947 0.012853 0.025322 -0.044954 0.166864 0.438064 -0.625220 0.236302 0.189401 -0.753851 -0.177699 0.006448 -0.001289 0.067112 -0.530344 0.487668 -0.285420 -0.000875 -0.382161 0.602037 -0.295417 0.415247 -0.302920 -0.443680 0.296373 -0.039512 -0.286424 0.285396 0.952400 0.052061 -0.174174 -0.198724 -0.477606 0.363645 0.009414 -0.075709 0.653649 0.052827 0.588803 0.391418
sent_19 -0.179840 0.273780 0.124601 -0.153134 0.403212 0.629377 -0.378898 -0.336694 0.293872 0.316933 -0.125307 -0.106004 0.332179 0.277999 -0.564164 0.179204 0.102568 -0.411318 -0.215430 0.393629 0.044579 -0.124127 0.230147 -0.114721 -0.019292 -0.600852 -0.728637 0.158298 -0.392270 0.478723 -0.145075 -0.008088 0.322326 0.131571 0.030347 0.297634 -0.010225 -0.572547 -0.794093 -0.290228 -0.015074 0.249866 -0.370064 0.424527 0.183369 0.029009 -0.494841 0.132859 -0.266153 0.151824
sent_20 -0.787458 -0.777568 0.148015 -0.104215 0.323206 0.823287 -0.051625 -0.282932 -0.295508 0.413945 -0.252855 0.054199 0.058844 0.251923 -0.182214 0.397023 0.599500 -0.485389 -0.002921 0.291072 -0.321188 -0.643352 0.215446 0.315662 0.343995 -0.163132 -0.132383 -0.150483 -0.133907 -0.046773 -0.130122 0.260433 0.278710 -0.096155 -0.037119 0.105655 -0.302125 -0.555117 -0.431073 -0.134670 -0.301873 0.639550 0.353844 0.493227 -0.164058 0.494411 -0.100718 0.171009 -0.139391 0.283227
sent_21 0.070880 -0.170161 0.340164 -0.076440 -0.072070 0.093692 0.089166 -0.060687 -0.086465 -0.027000 -0.119684 -0.028821 0.004944 -0.197734 0.012821 -0.176004 0.209383 -0.204749 0.022667 -0.063382 -0.250214 -0.227537 -0.184337 0.061479 -0.113902 -0.199448 -0.027462 0.051949 0.115570 -0.134667 0.203001 0.310476 -0.001128 -0.211680 0.311828 -0.110419 -0.214900 -0.407097 -0.434303 -0.096644 0.119204 0.189161 -0.212705 0.125869 -0.175511 0.230703 -0.092112 0.106687 -0.123381 0.131362
sent_22 -0.364538 -0.922179 0.332356 -0.715605 0.595267 0.243342 -0.692493 -0.826640 0.284169 0.730819 -0.897831 -0.501311 -0.460180 0.741383 0.219773 0.387625 0.548853 0.029838 -0.390138 0.086145 0.149769 -0.450989 0.659948 0.686435 0.281034 0.558764 0.121088 -0.382176 0.400338 -0.567859 0.320751 -0.130365 0.119446 0.579990 0.078279 -0.113019 0.073262 0.178327 -0.058695 0.547036 0.031661 0.040210 -0.175963 0.375476 -0.198889 0.093053 -0.029163 -0.246951 -0.242783 0.126768
sent_23 -0.209819 -0.815974 0.025346 -0.608649 0.365019 -0.054497 -0.813794 -0.639974 0.537686 0.732232 -0.851132 -0.607239 -0.586904 0.527569 0.129585 0.270952 0.861594 0.088514 -0.672901 -0.129874 0.120404 -0.506659 0.293717 0.799053 0.331032 0.536455 0.282205 -0.291500 0.577585 -0.469146 0.367195 -0.541691 -0.228633 0.445212 0.353299 -0.340236 -0.057373 0.220061 0.064206 0.757891 0.210100 0.041684 -0.291523 -0.010061 -0.111309 0.305694 -0.045927 -0.120664 -0.358341 -0.027507
sent_24 -0.172044 -0.136184 0.216372 0.234500 0.026880 0.094360 -0.214263 -0.158078 -0.324458 0.461345 0.018266 0.278424 0.247541 -0.151803 0.137520 0.427734 0.122585 -0.234295 -0.345280 0.060805 0.147222 -0.512554 0.183737 0.088807 -0.033875 -0.105295 -0.494021 0.145196 -0.418488 0.823551 0.451070 0.160920 -0.300834 0.025096 0.534829 -0.040602 -0.022092 -0.183102 -0.389113 -0.075162 -0.306363 0.138701 -0.096662 0.367856 -0.120744 -0.114342 -0.488488 0.207060 -0.271063 -0.250877
sent_25 -0.727962 0.161809 0.488219 -0.007267 0.551004 -0.511578 -0.381745 0.043344 1.376954 -0.053678 0.210528 -0.312300 -0.022261 0.094873 -0.684680 -0.239967 -0.028694 0.148836 0.317959 0.545902 0.092221 0.500335 -0.148139 0.900958 0.288174 -0.478839 -0.264470 0.072471 -0.101292 -0.585163 -0.446124 -0.131005 -0.364511 0.510526 -0.089281 -0.203067 -0.639111 -0.576876 0.166787 0.241297 -0.101020 -0.283152 -0.175860 0.024163 0.162524 -0.282208 0.599124 0.240073 -1.133354 0.142085
sent_26 -0.141558 0.389989 -0.056853 -0.165971 0.165665 0.599930 -0.435263 -0.274475 0.270907 0.355953 -0.148472 -0.176179 0.295387 0.199832 -0.599319 0.214446 0.119879 -0.386997 -0.189524 0.397881 -0.024021 -0.162853 0.232669 -0.158589 -0.157389 -0.693011 -0.689630 0.093319 -0.490725 0.527975 -0.071214 -0.013097 0.264569 0.149903 0.007576 0.392612 0.087344 -0.616363 -1.018164 -0.306065 0.093773 0.225945 -0.501873 0.292860 0.252300 0.054703 -0.574545 0.145147 -0.176724 0.065765
sent_27 -0.146700 0.077027 -0.291190 0.152379 -0.008741 -0.065427 -0.189392 -0.589845 0.039021 -0.245144 0.120003 -0.334267 0.317732 -0.148873 0.036519 0.010573 0.230151 -0.025100 0.430765 0.058529 -0.210353 -0.022671 0.064232 0.550560 0.209408 -0.059515 -0.420209 -0.019965 -0.349389 -0.232986 -0.348347 0.309461 -0.087835 0.171334 -0.124686 -0.172214 -0.221412 -0.141710 0.168606 0.112914 0.376748 0.019644 -0.083899 -0.021827 -0.266945 -0.130023 -0.183175 0.258396 -0.423124 -0.123356
sent_28 -0.113755 -0.156261 0.075989 0.149542 0.022199 0.036062 -0.026254 -0.021404 0.287580 0.538007 -0.095000 -0.322540 -0.007585 -0.217467 -0.214770 0.076786 -0.340462 -0.316582 0.444811 -0.416443 0.443518 -0.103911 0.098878 0.477240 0.283333 0.113229 -0.202629 -0.112278 -0.748225 0.273961 -0.037444 0.021078 -0.173067 0.060896 -0.326701 -0.096563 -0.733545 0.229889 0.668549 0.228002 -0.018242 -0.004729 0.504148 -0.205280 -0.173979 -0.032850 0.510405 -0.021019 -0.119779 -0.102318
sent_29 0.081698 -0.096083 -0.313608 0.145527 -0.463875 -0.139540 -0.294131 -0.359678 0.081273 -0.184062 -0.081289 0.129926 0.202178 -0.339280 0.371252 -0.132212 0.124895 -0.278377 -0.141159 -0.001013 -0.325773 0.337741 0.054572 -0.241960 0.002061 -0.117853 -0.212485 -0.073436 0.286306 0.186184 0.264194 0.083222 -0.132344 0.075307 0.286082 -0.427928 -0.121181 -0.362752 0.135882 -0.306071 0.161009 -0.230461 -0.235631 -0.117929 0.204546 -0.324082 -0.133868 0.323059 -0.120275 -0.005811
sent_30 0.342414 0.404802 0.621798 -0.041113 0.083159 0.390214 -0.122027 0.108763 0.353142 0.128440 -0.402234 0.066289 -0.111942 -0.033585 -0.094770 -0.161888 0.576053 -0.412844 -0.010709 0.059006 -0.146444 -0.008375 0.104062 0.113665 0.323606 -0.298206 0.130583 -0.273462 0.091806 0.245956 0.061628 0.121638 -0.007895 0.138335 0.167905 0.189146 0.060514 -0.220023 -0.083651 -0.264874 0.484872 0.350061 -0.147272 0.583811 -0.118530 0.103969 0.068321 -0.206711 -0.351819 0.771053
sent_31 -0.086119 0.467046 0.637469 0.299686 -0.056508 0.530985 0.538710 -0.029966 -0.381760 -0.162751 0.553675 0.488438 -0.549028 -0.196335 -0.314816 -0.175884 0.171751 -0.235130 -0.210624 0.131180 -0.151915 -0.550578 0.611532 0.156159 0.113211 -0.148324 -0.211239 0.160120 -0.039237 0.177940 0.581292 0.261085 0.113343 -0.102425 -0.076038 0.401988 0.338472 -0.029427 -0.551371 -0.040945 0.352973 0.329054 0.817099 0.370633 -0.514415 0.043455 -0.137591 -0.277231 0.029256 0.079061
sent_32 -0.545843 0.190961 -0.048425 0.193913 -0.035516 0.487569 0.123095 -0.144539 0.244803 0.047773 -0.162494 0.420254 0.059739 -0.167775 -0.176751 0.117116 -0.019255 -0.291817 -0.202926 0.394431 0.162268 -0.123301 0.121038 0.498560 -0.238622 0.276325 -0.028553 0.092208 -0.076371 0.062091 -0.016255 -0.333461 0.211117 0.131040 0.092194 0.335191 0.315736 0.024288 -0.286170 0.321771 0.096054 -0.068365 0.347134 0.451937 -0.139950 -0.084248 -0.297002 0.063862 -0.066709 0.060903
sent_33 -0.585398 0.314599 -0.324146 0.027660 0.214248 0.508771 -0.312195 -0.497431 -0.467595 -0.189135 0.386905 0.120846 -0.461746 0.049665 0.017613 -0.053899 -0.202405 -0.044022 -0.186068 0.285107 0.545150 0.143124 0.105403 0.406885 0.048043 0.122229 0.425898 -0.131474 -0.500272 0.134941 0.538436 -0.122702 0.336636 0.475094 -0.306300 0.310167 0.787300 0.325620 0.007806 0.131607 -0.115604 -0.083053 0.847163 0.211496 0.156218 -0.023456 -0.309519 0.019294 0.227793 0.120753
sent_34 0.097198 -0.405195 0.106979 -0.596426 -0.207152 0.550288 -0.140672 0.052483 0.272394 0.594261 0.520493 -0.440726 -0.380448 0.190990 0.752680 -0.068715 0.730095 0.033778 -0.582607 0.109187 -0.201970 -0.122639 -0.018699 0.451114 0.351592 -0.228727 0.426074 -0.091393 0.746134 -1.368366 0.080698 0.010283 0.337826 0.178268 -0.322549 0.665485 0.235541 -0.057515 -0.294044 0.360784 -0.133039 0.288097 0.156735 0.075989 -0.303031 0.144709 0.152457 -0.124940 -0.408171 -0.064850
sent_35 0.308835 0.046573 -0.359778 -0.274195 0.003917 -1.378641 0.170075 0.338226 0.044082 -0.961930 -0.964672 0.384817 0.127056 0.643946 -0.490250 -0.304830 0.177458 0.842447 1.210604 -0.007992 -0.124343 -0.085550 -0.171937 0.626715 -0.524992 0.270879 0.132050 -0.747525 0.098426 -0.057548 -0.560861 0.027192 -0.770615 -0.272945 0.777232 -0.322109 -0.296842 0.361106 0.005250 -0.019624 0.112931 0.398642 -0.418822 -0.560716 0.534315 0.246210 0.834719 -0.073701 0.056315 0.148207
sent_36 -0.146674 -0.136822 -0.474434 0.136230 -0.180728 0.001029 -0.365549 -0.470829 -0.044541 0.110264 -0.246200 0.294509 -0.115563 -0.520769 0.419350 -0.066502 0.287175 -0.705348 0.370585 -0.042364 0.205653 -0.046415 0.235360 0.126917 -0.240058 0.016583 -0.183700 -0.469936 0.088710 0.642335 0.250684 0.069890 -0.420776 0.177309 0.335261 -0.165592 -0.115467 -0.373276 0.143113 0.203803 -0.397936 -0.216250 0.048267 -0.086375 0.249399 -0.329923 -0.271249 0.382351 -0.208247 0.079163
sent_37 -0.097000 0.490667 0.508084 0.041166 0.007071 0.004747 0.294022 0.250445 -0.058822 0.045987 0.918194 0.399490 -0.364804 0.017056 -0.014869 -0.294983 -0.175226 -0.060711 0.026657 0.267361 -0.002081 -0.268897 0.602663 0.113221 -0.076009 -0.242395 -0.033068 -0.136663 -0.225093 -0.260125 0.390746 0.274300 -0.027048 0.267245 -0.395184 0.427792 0.811162 -0.148525 -0.138019 -0.314627 -0.028464 0.553914 0.765695 0.121271 0.158557 -0.150883 0.237895 -0.320400 0.006402 -0.024511
sent_38 -0.725598 -0.398007 -0.219659 -0.425667 0.771016 -0.462341 -0.289665 -0.059394 -0.616459 -0.345369 0.483261 -0.028154 -0.215887 0.223723 0.345066 -0.079765 0.742119 -0.230788 0.752893 -0.193279 0.789285 -0.116581 0.076138 0.383920 0.243648 0.181747 0.399627 -0.725710 -0.042249 -0.169596 1.096835 -0.489539 -0.271179 0.194686 0.261966 -0.373866 -0.435995 0.317809 0.346665 -0.118112 0.165786 -0.299249 0.487963 -0.020824 -0.067237 -0.245876 0.008190 -0.084561 -0.369719 -0.046721
sent_39 -0.142457 -0.375866 -0.353588 0.025319 -0.637989 -0.453711 -0.396052 0.372411 -0.024404 0.546989 0.338863 -0.253598 -0.323112 -0.191888 0.213797 0.342354 0.630734 -0.222920 0.453803 0.116213 0.504987 -0.306471 0.269287 -0.963546 -0.093952 0.186734 -0.343472 -0.158174 -0.052998 -0.124801 -0.597158 -0.007333 -0.232992 -0.281144 -0.239057 0.151672 -0.596903 -0.069722 -0.209711 0.245146 -0.283692 0.367548 -0.047854 -0.563318 -0.194405 0.230378 0.051823 -0.086857 -0.100487 -0.389131
sent_40 0.138212 -0.156071 0.097368 0.660347 -0.148541 -0.176236 -0.049170 -0.550174 -0.292397 0.681426 0.493030 0.109101 -0.271245 0.064530 0.626794 0.760853 0.045435 -0.578174 0.175535 -0.457932 0.528813 -0.899063 0.423976 0.222304 0.318951 0.584619 -0.420233 0.196036 -0.934545 0.812127 0.816110 0.270885 -0.247673 -0.149800 0.372258 -0.589818 0.140899 -0.030639 0.262747 -0.096161 0.198693 -0.883247 -0.284656 -0.080149 0.210841 -0.666023 -0.100012 0.219659 0.545592 -0.972370
sent_41 0.261321 0.096221 -0.249224 0.006683 0.286413 0.169687 -0.240027 0.047597 -0.231926 0.409079 -0.096050 -0.975519 0.347381 -0.750266 -0.684246 0.250144 0.432666 -0.439903 0.014846 -0.538392 -0.037848 0.546541 0.103563 -0.494668 -0.079897 0.084385 0.485602 0.220297 -0.172735 0.227122 0.344583 -0.195594 0.017424 -0.291839 -0.523022 -0.089830 -0.584404 0.277156 -0.426570 0.355508 0.222001 0.156050 -0.194925 -0.216046 -0.216141 0.760571 -0.294432 -0.094618 -0.115758 -0.631950
sent_42 0.115338 -0.319696 -0.053098 0.083926 0.183528 -0.028472 0.099667 0.072882 0.224997 0.397571 0.095362 -0.161899 0.121160 -0.165655 0.028093 0.464882 -0.537012 0.083681 0.296316 -0.485996 0.214822 -0.283861 -0.145041 0.514389 -0.465636 0.476572 -0.298427 0.103632 -0.576170 0.168702 -0.202038 0.062236 -0.310125 -0.272620 0.072140 -0.129663 -0.457783 0.164150 0.668800 0.288205 -0.124524 -0.178530 -0.420099 0.096813 0.039029 0.073125 0.534685 0.206129 0.148257 -0.268515
sent_43 -0.339692 -0.224628 -0.641537 -0.019774 -0.215051 0.561062 0.059296 -0.173204 -0.064401 -0.157585 -0.258130 -0.430029 0.445913 -0.418941 0.090967 0.800208 0.352245 -0.106677 -0.411815 0.080385 -0.178706 -0.324108 0.131960 0.030326 0.443850 0.857416 -0.379573 -0.350414 -0.349226 -0.434906 -0.258190 0.301010 -0.116501 0.398818 0.713799 -0.254085 -0.305806 -0.277233 0.066740 0.202714 0.246165 -0.560477 0.214673 0.279480 -0.618866 -0.470775 -0.005277 0.577525 -0.409172 0.148938
sent_44 0.676420 -0.231139 -0.034897 0.035779 0.405055 0.111729 0.255384 -0.105535 -0.573476 0.024115 0.103465 -0.162648 0.348812 0.051330 0.038915 0.287396 0.629917 -0.443791 -0.052385 -0.380523 0.227304 -0.507563 0.013658 0.058793 0.190625 0.145049 -0.215176 0.007915 -0.469047 0.186044 0.255750 0.358589 -0.271482 -0.021035 0.880623 -0.476449 -0.098671 -0.219274 -0.500057 -0.948290 0.002437 -0.412678 -0.109810 -0.225971 -0.206139 -0.078551 -0.528891 0.487239 -0.476507 -0.352467
sent_45 -0.505378 -0.053477 -0.315546 0.009039 -0.845076 -0.616046 -0.845591 -0.439827 -0.222425 0.110898 0.282970 -0.557958 0.402562 -0.794400 0.936417 -0.425901 0.395438 0.621602 0.108261 0.170288 -0.411063 0.463655 0.128101 0.320198 -0.308206 -0.008892 -0.642117 -0.374805 -0.095426 0.214458 0.646890 0.092974 -0.286144 0.028169 -0.042338 -0.047452 -1.061026 -1.054137 -0.336649 1.033273 -0.175381 0.457779 0.165262 -0.227476 -0.032904 -0.058811 0.061755 0.146279 0.031767 -0.115785
sent_46 -0.294947 -0.151562 0.606617 0.079412 0.639838 0.646344 0.399049 -0.142355 -0.201995 -0.084535 0.338238 0.472767 -0.133992 0.062354 -0.539024 -0.146082 -0.036612 -0.173646 0.099768 0.050294 -0.108070 -0.219652 0.667091 0.481305 -0.235506 -0.003184 -0.218645 0.159221 -0.071394 -0.304939 0.581921 0.105802 0.480617 -0.225753 -0.328901 0.307960 0.342381 -0.277028 -0.190414 -0.301197 -0.243383 0.515553 0.659529 0.174904 -0.124569 0.241040 0.020307 -0.040151 0.350778 -0.003409
sent_47 0.083382 -0.320727 -0.103961 -0.169381 -0.169384 -0.228068 -0.089629 0.013051 0.348620 -0.009292 -0.264971 0.334960 -0.026300 -0.224323 -0.053133 -0.278428 -0.181535 -0.228078 0.355682 -0.050333 -0.037562 0.018885 -0.061539 0.245946 -0.671994 0.240993 0.189713 -0.201826 0.360297 0.303505 0.145533 -0.035648 -0.304754 -0.256779 0.271911 -0.093373 -0.377288 -0.042847 0.202087 -0.240147 -0.022209 0.233803 -0.364168 0.071936 0.035694 0.246803 0.209718 0.038544 0.265790 0.108176
sent_48 -0.186632 0.548522 0.103084 0.435743 0.222693 0.644691 0.519685 0.057917 0.072484 0.167496 0.472085 0.148989 -0.146459 -0.166613 -0.166819 -0.107535 -0.086321 -0.135070 -0.536032 0.304823 -0.028934 0.065533 0.206325 0.303006 0.461358 0.278228 0.089858 0.094895 -0.362867 -0.076170 0.081960 0.019636 0.401624 0.261079 -0.683534 0.263420 1.081671 0.197646 0.435076 0.266204 -0.087515 0.012205 1.046833 0.531403 0.034804 -0.320787 -0.107137 -0.043423 0.358882 0.089190
sent_49 -0.475002 -0.688250 0.089743 -0.206759 0.336488 0.728103 0.066132 0.021568 -0.152903 0.729730 -0.153930 -0.221121 -0.164943 -0.266153 0.058768 0.677759 0.636171 -0.605121 -0.313313 -0.018590 -0.010178 -0.713196 -0.059604 0.220220 0.145097 0.108228 -0.374852 -0.220978 0.262540 -0.426093 0.260089 -0.094461 -0.017725 -0.178581 -0.224935 0.150557 -0.278391 -0.146489 -0.603925 0.093810 -0.140972 0.186500 -0.325699 0.460117 -0.897229 0.552665 -0.227327 0.002913 -0.210258 -0.204216
sent_50 -0.027888 0.383451 0.317562 -0.253677 0.201202 0.585639 -0.079851 -0.168657 -0.180561 0.881759 0.196681 0.433933 0.541418 -0.144734 -0.482269 0.037804 -0.070126 0.259955 -0.703735 0.443718 0.102359 -0.219481 0.290097 0.480524 -0.281437 -0.354370 -0.087644 0.210776 -0.556059 0.242383 0.465330 0.394372 0.288549 0.452085 -0.188741 0.650851 0.811156 -0.248459 -0.799025 -0.163455 -0.730249 0.516452 0.680721 0.218987 0.244867 0.213671 -0.758846 0.103450 -0.056917 -0.172698
sent_51 -0.163319 0.049322 0.283457 0.015580 0.410001 -0.057347 -0.180780 -0.134309 -0.075301 0.012020 -0.621291 -0.009738 0.205088 -0.081346 0.196215 -0.074540 0.495227 -0.161842 0.084640 0.163855 -0.057874 0.047292 0.024815 0.212174 0.193434 -0.191180 0.246449 -0.226546 -0.212267 -0.135864 0.149171 0.190084 -0.089921 0.480280 0.251690 -0.413233 0.084767 -0.257809 -0.107989 -0.099258 -0.161350 -0.522914 -0.184978 0.256578 0.068186 -0.500166 -0.405061 0.061913 -0.685490 0.338461
sent_52 -0.096391 -0.255481 0.338023 -0.513720 0.058404 -0.022863 -0.032633 0.137254 -0.221956 0.169316 0.467572 0.247251 -0.542567 0.478173 0.320111 -0.165773 0.153491 0.014942 0.209580 0.233284 0.015853 -0.419065 -0.153585 -0.150282 0.032800 -0.948921 0.226988 -0.180451 0.729984 -0.390121 0.214737 0.229519 0.030386 -0.061045 -0.004302 0.292251 -0.032793 -0.620573 -0.186349 -0.052644 -0.143701 0.479866 0.456826 0.023677 0.114682 0.047764 -0.280924 -0.253094 -0.239428 0.065296
sent_53 -0.400205 0.102552 0.265915 0.182808 0.438995 -0.194351 -0.039835 -0.199779 0.598677 -0.258073 0.013462 -0.181789 -0.423307 -0.096262 -0.144350 -0.226838 0.003699 0.096941 0.475480 0.286102 0.272319 0.457098 -0.231713 0.688075 0.396787 0.043676 -0.001238 -0.024386 0.131282 -0.173540 -0.138845 -0.286201 -0.005472 0.224613 -0.148997 -0.072635 -0.342732 0.071256 0.070340 0.463681 0.078514 -0.297232 -0.149740 0.120086 0.002029 -0.099077 0.500763 -0.117543 -0.383317 0.332408
sent_54 -0.589972 -0.523192 0.111243 0.072930 -0.069250 0.416150 0.138595 0.187582 -0.680407 -0.322452 0.774926 -0.164210 -0.406626 -0.137635 0.672398 -0.101920 0.585726 -0.422140 0.116416 0.130327 -0.002290 -0.198357 -0.034372 -0.617418 0.342197 -0.435034 -0.107235 0.056821 0.556924 -0.119663 0.295901 -0.109210 0.135471 -0.219340 -0.315308 0.141815 -0.699849 -0.322509 -0.226050 0.040962 0.156605 0.165975 0.608729 -0.068252 -0.859250 0.194581 -0.100122 -0.270422 -0.101580 0.050279
sent_55 0.112167 0.217866 0.510928 -0.011888 0.283227 0.367936 0.499843 0.318015 -0.154006 0.116122 0.269762 0.440158 0.487816 0.410007 -0.096820 0.162514 0.019335 -0.062987 -0.129719 -0.181187 0.021983 -0.601127 0.444305 -0.191009 0.211236 0.140806 -0.143000 -0.270587 -0.257378 -0.323284 0.313330 0.258347 0.079979 0.171830 0.297837 0.316049 -0.063952 -0.422502 -0.296341 -0.070720 -0.646684 0.227462 0.459297 0.163258 0.233304 -0.417137 -0.158017 0.125914 0.017403 -0.192686
sent_56 0.312364 -0.035931 -0.059161 -0.092998 0.174603 0.151675 0.026027 -0.283849 0.733608 -0.158138 -0.136990 -0.408271 0.159450 0.136412 0.083539 0.357784 0.806230 -0.180409 -0.243966 0.674756 -0.313819 0.421090 0.449491 0.340336 0.285557 0.517575 0.381586 -0.084392 0.002532 -0.057213 -0.367858 0.124622 -0.286921 0.418188 0.612879 -0.383369 -0.079308 -0.626577 0.083006 -0.209043 -0.055080 -0.433211 0.231662 0.249405 0.344308 -0.478539 0.199112 0.377488 -0.347981 0.269918
sent_57 -0.370518 -0.585448 0.030008 -0.126022 -0.394724 0.400545 -0.131836 0.061833 -0.223745 0.522892 0.312651 -0.132193 -0.219413 -0.092328 0.407188 0.086301 0.066748 -0.043881 -0.048363 -0.218394 -0.101943 -0.581636 0.016373 0.136369 0.138456 -0.192573 -0.154168 -0.008821 0.304947 -0.219713 0.461901 -0.001698 -0.156730 -0.279498 -0.120570 0.260304 -0.538307 -0.402364 -0.248681 0.283378 -0.037288 0.538401 0.036448 -0.432900 -0.273780 0.388110 -0.177237 -0.114443 -0.158550 -0.439046
sent_58 0.089588 -0.364674 -0.388797 -0.150835 -0.219929 -0.083198 -0.041470 0.201027 0.020884 -0.164263 -0.324430 -0.125860 0.205486 -0.474567 -0.095478 -0.346428 -0.499425 -0.121972 0.019062 0.013087 -0.094664 0.534637 -0.100215 -0.234732 -0.354152 0.484445 -0.069691 0.186581 0.173836 0.305501 -0.096946 -0.272078 0.075300 -0.165094 -0.158408 -0.098372 0.031933 0.375449 0.375014 -0.230458 0.320601 0.045874 -0.533834 0.011023 -0.357986 0.166807 0.312185 -0.329530 0.494717 0.305459
sent_59 -0.115301 0.102528 0.204472 0.277544 0.285221 -0.140202 0.045652 -0.145693 0.315023 -0.010014 0.099509 0.133366 -0.188218 0.019087 -0.019023 0.083661 0.426293 -0.248340 0.130522 0.153181 0.341752 -0.007281 -0.138817 0.105381 0.229841 -0.057945 -0.121368 0.239524 0.102160 0.205347 -0.045047 -0.270567 0.031068 -0.147316 0.151062 -0.275444 -0.385555 -0.094509 -0.200162 -0.012084 0.078653 -0.508111 -0.246642 0.025111 -0.016119 -0.167440 0.019770 0.143098 -0.370417 -0.103557
sent_60 1.129074 -0.380544 0.942423 -0.032509 -0.211671 -0.020657 -0.103925 0.020179 -0.148156 -0.244750 -0.923151 0.323893 -0.639202 0.638189 0.079666 0.012097 -0.635935 0.712468 -0.340765 -0.216214 -0.335026 0.368207 0.070488 0.032297 0.015831 0.000233 0.533426 -0.051356 0.433644 0.635209 -0.049127 0.188568 0.125444 -0.175963 0.067600 0.349805 0.422014 0.476645 1.040196 0.293776 0.430450 0.364887 0.019672 0.401966 -0.042653 0.224031 0.137026 -0.600309 1.004829 0.652904
sent_61 -0.931307 -0.497952 0.255903 -0.020476 -0.712232 -0.317298 -0.791581 -0.497584 0.079361 0.413898 0.879946 -0.308141 -0.996498 -0.486392 0.635349 0.284385 0.330855 0.038792 0.463055 0.219507 -0.007053 -0.503219 0.619739 0.163362 -0.349622 -0.001916 -0.498530 0.123957 -0.008273 -0.288625 0.892606 -0.038975 -0.128696 -0.112588 -0.048892 -0.064957 -0.561696 -1.101357 -0.335051 1.203120 0.023206 0.074982 0.489409 0.103815 -0.216722 -0.375343 0.016117 -0.184662 -0.047527 -0.405402
sent_62 -0.283429 -0.127210 0.194566 0.178198 0.180431 0.017922 -0.035816 0.151889 0.144231 -0.193733 -0.270332 0.198911 0.081265 -0.281546 -0.507768 -0.247783 -0.234930 -0.275021 0.159748 0.146470 -0.286707 0.117669 0.002935 0.204438 0.012159 -0.198085 -0.293674 0.231459 0.022350 -0.052156 0.132302 -0.023594 -0.249566 -0.233271 -0.128325 -0.404866 -0.105048 0.268276 0.035245 -0.543226 0.426351 -0.307837 -0.545842 -0.082545 -0.346712 0.058600 0.285341 -0.150165 -0.175410 0.211762
sent_63 0.228123 0.126225 1.036796 0.874168 0.275617 -0.794829 0.586049 0.481029 0.447659 0.447675 0.405927 0.303642 -0.032762 -0.348751 0.136448 1.273725 0.175639 -0.036952 1.104586 -1.128674 0.404566 -0.881554 0.288371 0.990191 -0.832912 1.041061 0.003465 -0.313572 -1.481261 0.668515 0.160225 0.301752 -1.060351 -0.489530 0.401722 -0.497523 -0.551408 0.001690 0.952647 0.770531 -0.629917 -0.538493 0.032701 0.067079 0.026971 -0.111221 0.902898 0.538056 0.314355 -0.759235
sent_64 -0.656006 0.293140 0.305618 0.346403 0.039100 0.677601 0.020528 -0.337030 0.050591 0.068675 0.422614 0.543290 -0.078873 0.157401 -0.065806 -0.182679 -0.236326 -0.144194 -0.167070 0.257359 0.200690 -0.347752 0.264354 0.818766 0.257531 0.396737 0.392852 -0.005848 -0.367394 -0.030026 0.487907 -0.037842 0.202642 0.434110 -0.142546 0.589875 0.515697 0.144884 0.092452 0.496109 -0.503583 0.335953 0.587640 0.314781 0.205449 -0.017114 -0.158205 -0.038992 0.219010 0.083439
sent_65 0.102977 -0.338661 0.211932 -0.267088 0.615746 0.249840 0.395878 -0.008253 0.561782 0.559805 -0.154250 -0.072832 0.079009 0.147090 -0.328062 0.648987 0.269090 -0.260702 0.019716 -0.130003 -0.061406 -0.352682 0.531681 -0.023815 -0.235500 0.261002 -0.028976 -0.116301 0.355762 0.042763 -0.260864 0.001411 -0.275416 -0.150830 0.098533 -0.067405 -0.610510 -0.444940 -0.097650 0.171401 0.102991 0.155703 -0.376339 0.399419 -0.224590 0.128676 -0.195421 0.107887 -0.305134 -0.380429
sent_66 -0.036692 0.627617 -0.038936 -0.089164 -0.023590 0.999181 -0.364375 -0.121525 -0.581400 0.264010 0.607024 0.120486 0.408615 -0.053530 -0.401209 0.612843 -0.113770 -0.132257 -0.695858 0.153103 -0.081261 -0.384491 0.623896 0.039115 0.154207 -0.343170 -0.601339 -0.159750 -0.575415 0.279078 0.733955 0.303856 -0.014738 0.154338 0.011998 0.570741 0.732005 0.039078 -0.840666 -0.437116 -0.065159 0.352143 -0.340800 0.503264 0.146909 -0.047410 -0.228053 0.123017 -0.019808 -0.034118
sent_67 0.752004 -0.579955 0.479673 0.004252 -0.144896 0.184525 0.084266 -0.279998 -1.098591 -0.767786 -1.058567 0.274831 -0.428057 0.353395 0.562781 0.443935 -1.075157 0.520457 -0.253030 -0.658627 -0.195050 0.388202 -0.143485 -0.752684 0.131430 0.434454 0.461970 -0.234918 0.444326 0.535498 0.077024 0.621889 0.224726 0.017127 0.529238 0.101299 0.217843 0.753419 1.226374 0.079769 0.300905 -0.255803 -0.231853 0.720351 -0.449302 -0.132879 0.031863 -0.432093 0.818333 1.066424
sent_68 -0.762762 0.222743 0.349444 0.115308 0.607477 0.484218 0.588729 0.203426 0.030107 0.140882 0.881171 0.038323 0.014642 -0.081490 -0.866412 0.075944 -0.286376 0.591003 -0.764464 0.929935 0.318525 -0.090716 0.741969 0.886807 0.115961 1.001567 -0.078120 0.418304 -0.698699 -0.239729 0.125160 -0.114137 0.023381 0.300303 -0.543124 0.512692 1.024713 0.125546 -0.055239 0.753272 -0.458511 0.628034 1.398318 0.534078 -0.255604 -0.003137 0.140771 -0.255174 0.201190 -0.285306
sent_69 -0.206685 -0.158062 -0.192239 0.281516 -0.374982 0.538266 -0.208093 0.260543 -0.283094 -0.127634 0.400836 -0.090183 0.019170 -0.570146 0.147535 -0.168196 0.377567 -0.957530 0.093950 -0.437827 0.174911 0.201517 -0.247597 -0.137646 0.030526 -0.266820 -0.138796 0.118516 -0.017599 -0.253771 0.531438 -0.602332 0.229740 -0.430203 -0.391669 -0.026977 -0.300302 -0.263536 0.113279 -0.149494 0.180567 -0.387069 0.102666 -0.454053 -0.417942 0.160269 -0.175790 0.271474 0.203566 -0.267869
sent_70 0.627623 -0.107946 0.220655 -0.052974 -0.069003 0.094706 0.184624 -0.366986 -0.283410 -0.085279 0.250121 -0.268730 0.044704 0.011484 0.133336 0.119646 0.143374 0.119800 -0.191476 0.100890 -0.171086 -0.020107 0.232533 0.078704 0.250345 0.437273 -0.363052 0.032511 0.103576 0.266562 0.127741 0.662362 -0.126258 -0.020687 0.409728 0.000826 0.188809 -0.185746 -0.180710 -0.056986 0.216060 0.249375 0.396331 0.147719 -0.445929 -0.109373 -0.297839 -0.067581 0.343299 0.004213
sent_71 0.198440 0.074764 0.399212 -0.700836 0.943723 0.578443 0.574600 -0.087757 -0.336328 -0.367756 -0.043451 0.256352 -0.405191 0.748929 0.000892 -0.346857 0.350257 0.331912 -0.554612 0.203225 0.061867 -0.109330 0.098404 0.609315 0.652617 0.262636 0.237497 -0.519184 0.567955 -0.722713 0.652489 0.070616 0.215229 0.359564 0.216587 0.397021 0.775860 0.206935 -0.673301 -0.295040 -0.689993 0.299001 0.493150 0.537685 -0.021612 -0.227416 0.282183 -0.396035 0.247966 0.682194
sent_72 -0.406324 0.276821 0.167959 -0.416073 0.640223 0.233686 0.343750 0.103880 0.057746 -0.415550 -0.298479 0.425838 0.373788 0.589633 -0.708342 -0.254300 -0.129012 0.392726 -0.331458 0.732185 0.222538 -0.208797 0.761836 0.643731 0.014089 0.956403 -0.179712 -0.409609 -0.089939 -0.643320 0.443183 -0.189974 0.206983 0.473608 0.147972 0.215633 0.838223 -0.011308 -0.559865 -0.046018 -0.609516 0.318649 0.625700 0.308631 0.590373 -0.450501 0.321244 -0.087588 0.398053 0.148137
sent_73 0.319696 -0.251160 -0.556730 -0.314433 -0.208188 -0.471963 0.219185 0.237441 -0.801043 -0.420793 -0.457373 0.620331 0.712299 0.383935 1.046027 0.007399 -0.604448 0.316768 -0.180391 -0.442799 -0.361352 -0.413628 0.201053 -1.108562 -0.278418 0.401088 -0.275244 -0.502224 0.946738 -0.890224 0.115800 0.079635 0.355673 -0.186606 0.182672 -0.295435 0.395684 0.577036 0.890414 -0.589500 0.053596 -0.355767 -0.995349 0.601169 -0.039378 -0.828813 -0.158464 -0.022802 0.820242 0.358631
sent_74 -0.443035 -0.131261 -0.159539 0.143002 -0.421091 0.480855 -0.557036 -0.514107 0.374561 0.218920 0.038582 0.113016 0.208646 -0.766802 0.125495 -0.364017 0.090092 0.231774 -0.537726 0.864022 -1.014356 0.975818 0.049058 0.592254 0.416133 -0.868147 -0.546941 0.397750 -0.659466 0.974491 -0.230166 0.819807 -0.605652 0.594370 0.016694 -0.066304 -0.117510 -0.237786 -0.199797 -0.583814 -0.390792 0.068348 -0.001814 -0.026734 -0.399857 -0.170275 0.278395 0.062610 -0.437497 0.600547
sent_75 -0.105067 0.006453 0.128377 0.333546 0.061874 0.232422 0.172546 -0.398914 -0.130485 0.000196 -0.060082 -0.093823 0.024988 0.071091 0.383583 -0.156177 0.044495 -0.590274 0.420636 0.129322 0.167353 -0.416285 -0.427823 0.365504 0.672017 -0.262709 -0.540563 0.071269 -0.347324 0.208504 0.026260 0.104028 -0.076884 -0.072425 0.126137 -0.091622 -0.552452 -0.231080 -0.686032 -0.154619 0.143318 -0.126014 -0.345271 -0.072085 -0.330846 -0.192770 -0.206499 -0.031588 -0.074613 -0.072461
sent_76 0.362579 0.195324 0.002995 -0.437144 1.107749 0.730517 0.433979 -0.352430 0.222989 0.230488 0.286907 -0.625730 0.164126 0.145640 -1.016148 0.505111 0.615151 -0.747007 -0.208994 -0.148784 -0.143467 -0.232479 0.346931 0.237878 0.441901 0.253570 -0.152306 -0.287702 -0.434121 -1.274902 -0.120213 0.467829 0.493670 0.150613 -0.364771 -0.100029 0.847822 0.196051 -0.041232 -0.896775 0.083646 0.206316 0.536808 0.448324 -0.295313 0.132796 -0.286189 0.304581 -0.481639 -0.204576
sent_77 -0.690083 0.454750 -0.365516 0.139126 0.355193 0.690530 0.632641 -0.198394 -0.173380 0.039740 0.517244 0.204999 -0.518333 0.037492 0.097751 -0.162503 -0.207341 -0.262595 -0.109662 0.491873 0.353559 -0.134772 0.535664 -0.021465 0.296879 0.105209 -0.145822 0.081130 -0.014359 0.002138 0.141097 -0.209754 0.502548 0.403847 -0.599821 0.407059 0.729544 0.188272 -0.242220 0.060183 -0.190835 0.045888 1.295144 0.265049 -0.005308 -0.349607 -0.014349 -0.171384 0.224267 0.077313
sent_78 0.216549 -0.250234 0.323362 0.056022 -0.151687 0.122774 0.194679 0.132239 -0.242162 -0.336675 -0.045948 0.404257 -0.156036 0.045027 0.090211 -0.198033 0.064609 -0.146111 0.181434 0.043936 -0.329936 -0.046759 -0.089138 -0.125977 -0.248101 -0.229695 -0.005786 -0.025316 0.319554 -0.169520 -0.059638 0.255600 0.053993 -0.340399 0.087182 0.143749 0.313985 -0.129945 0.117867 -0.169701 0.226464 0.205335 -0.060071 0.195887 -0.203667 0.050785 -0.018312 -0.189823 0.336951 0.307560
sent_79 -0.163839 -0.128376 -0.284131 -0.017068 0.414680 0.243806 0.086787 0.036130 -0.622975 -0.353947 -0.034701 -0.074807 -0.260474 0.014024 0.190543 0.095107 0.113199 -0.107820 0.107271 -0.236106 0.589073 -0.165364 -0.048550 -0.184069 0.025271 0.067357 -0.000119 -0.199708 0.158866 0.108492 0.287610 -0.523162 0.174793 -0.162594 0.072270 -0.055899 -0.383931 0.210226 0.052542 0.025337 0.310562 -0.132792 0.021985 0.240794 -0.180904 -0.010182 -0.290281 0.046820 -0.038468 0.014071
sent_80 0.005374 0.723418 -0.078656 -0.108622 0.390024 0.955799 0.329117 -0.195637 -0.170746 -0.223011 1.067683 0.273000 0.172602 0.458909 -0.089726 -0.038608 -0.437132 0.056896 -0.501097 0.456272 0.114944 0.032296 0.447403 0.695884 -0.082248 0.086621 0.550322 0.146038 -0.485261 -0.485931 0.254512 -0.092697 0.282846 0.375874 -0.465704 0.720396 1.442496 0.085952 -0.014135 -0.380340 -0.089415 -0.141003 0.910625 0.185672 0.455255 -0.346635 -0.379032 0.097766 0.417242 -0.083911
sent_81 0.368187 0.020554 -0.470801 -0.196790 -0.011809 -0.281086 -0.035519 -0.084128 -0.009071 -0.006777 -0.189004 -0.305290 0.444421 -0.268494 0.669012 -0.289490 -0.345602 -0.144103 0.236033 -0.101985 -0.023437 0.618975 -0.184743 -0.298213 -0.402361 0.214301 0.098404 -0.098264 0.066036 0.382347 -0.014503 -0.042330 -0.153762 -0.177042 -0.139234 -0.074384 -0.062975 0.140927 0.176874 -0.170933 -0.132955 -0.425744 -0.497705 0.120154 0.202812 -0.418312 0.074468 -0.063172 0.520449 0.257078
sent_82 0.334158 -0.533943 0.287424 0.260462 -0.266028 0.186862 0.090738 -0.154133 -0.402638 -0.690725 -0.565475 0.735703 -0.304020 0.371260 0.347901 0.479146 -0.804087 0.138072 0.082863 0.199592 -0.494586 0.301075 0.230433 -0.506999 -0.424686 0.268837 0.048107 0.083430 0.599911 0.429293 -0.211699 0.094548 0.102746 -0.117575 0.374573 0.214740 0.618095 0.371493 0.612333 -0.260657 0.575363 -0.289923 -0.433079 0.497332 -0.155107 -0.207081 -0.124754 -0.338493 0.831535 0.622912
sent_83 -0.185099 0.027147 0.251466 -0.055659 -0.299366 0.456089 -0.203219 0.041994 0.192345 0.415300 -0.413013 0.048817 0.500392 0.081285 -0.126078 0.271149 -0.019637 0.007272 -0.497182 -0.042342 -0.467662 -0.289996 -0.208449 0.214564 0.114944 -0.213239 -0.019536 0.120692 -0.309368 0.176195 0.163687 0.136392 -0.000984 0.428806 0.303984 0.088180 -0.366809 -0.443177 -0.377328 0.078216 -0.012492 0.004699 -0.147158 0.321563 -0.046497 0.059355 -0.223651 0.070933 -0.214648 0.260846
sent_84 -0.645756 -0.287813 -0.480732 0.479734 -0.459036 0.072210 -0.161581 0.027494 -0.182745 -0.427795 -0.545509 -0.043908 0.542014 -0.450196 0.100382 0.733807 0.211870 -0.041215 -0.142278 0.523879 -0.042144 -0.234094 -0.120154 0.160416 0.306936 0.711223 -0.262258 -0.132685 -0.612334 -0.169540 -0.555690 0.100546 -0.209462 0.374950 0.703638 -0.394935 0.294547 -0.102659 0.240055 0.350846 0.268205 -0.444823 0.383700 -0.119132 -0.286830 -0.373981 -0.105450 0.468823 -0.457658 -0.116781
sent_85 -0.283668 -0.131421 0.007547 0.126611 -0.073738 -0.220017 -0.324634 -0.901387 -0.120475 -0.107547 0.129059 -0.112716 0.212311 -0.334916 0.469800 -0.036029 0.427746 0.294836 0.021382 0.372321 -0.610465 0.419490 0.000195 0.402121 0.098919 0.098255 0.184666 0.364938 0.027253 0.038938 0.151631 0.438798 -0.015390 0.044472 -0.164299 -0.341158 0.126946 0.306492 -0.010062 0.631696 0.128706 -0.206741 -0.015554 0.277630 -0.424037 -0.064265 -0.228160 0.021415 0.110336 -0.022437
sent_86 -0.678506 -0.384585 -0.266102 0.447889 -0.432282 0.452778 -0.124643 -0.345108 -0.619338 0.391477 0.051843 0.482037 0.224149 -0.361639 -0.051269 0.041279 0.319806 -0.251371 0.054992 -0.036026 -0.474832 -0.408088 -0.337887 0.342003 0.251895 -0.381783 0.110307 0.441401 -0.874580 0.600349 0.483341 0.317607 0.079100 -0.389412 0.046502 -0.284712 -0.255159 0.027488 -0.733253 -0.058023 -0.284346 -0.166697 -0.114582 -0.544768 0.240097 0.421699 0.025570 0.262094 0.094282 -0.393067
sent_87 0.107932 -0.524424 0.186764 -0.290783 0.387709 0.324740 0.117371 -0.015935 -0.287889 -0.522337 0.034408 -0.408187 0.492574 -0.075993 -0.632113 -0.486537 -0.012168 -0.362058 -0.044132 -0.012793 -0.101104 0.108415 -0.399251 0.248885 0.016097 0.318085 -0.035764 0.080331 0.098987 -0.198023 0.152690 0.515145 0.193624 -0.135640 0.163737 -0.129121 0.156372 0.179064 -0.399805 -0.912691 -0.063370 0.548258 0.172870 -0.254404 -0.643138 0.869872 -0.205809 0.092854 -0.027295 0.135216
sent_88 0.306240 -0.373413 -0.586265 -0.250842 -0.211900 -0.056069 0.238946 -0.522950 -0.637619 0.040691 -0.218813 0.195860 0.534004 0.189631 0.616387 0.064185 0.174595 -0.179362 0.495661 -0.342505 -0.338590 -0.279480 -0.202190 0.195908 -0.331112 0.019161 -0.163070 -0.129851 -0.114976 0.094296 -0.019563 0.788821 -0.074311 0.054548 0.450135 -0.198302 -0.106657 -0.201186 -0.003884 -1.275849 0.067754 -0.438676 -0.580226 0.006962 -0.418209 -0.149240 -0.329498 0.255867 0.333417 0.160673
sent_89 0.322740 -0.113513 0.026760 -0.136109 0.122277 -0.108467 -0.383148 -0.151024 -0.107569 -0.316858 -0.268095 -0.558554 0.221126 -0.210698 -0.426890 -0.241329 0.209975 -0.398437 0.290991 -0.265329 0.042516 0.408633 -0.467630 -0.043774 -0.020473 -0.231246 0.198363 0.233169 0.145510 0.177782 0.424282 -0.061281 0.069902 -0.082694 0.234862 -0.318333 -0.247093 0.244850 -0.546882 -0.585147 0.350048 -0.114475 -0.460856 -0.455753 -0.351007 0.556470 -0.502830 -0.004119 -0.118933 -0.070472
sent_90 -0.334255 -0.484754 0.298425 -0.004325 0.396474 0.373026 0.161298 0.219081 -0.657395 -0.090770 0.541467 -0.193159 -0.411828 -0.093257 0.213330 -0.301421 0.259332 -0.299546 -0.061616 -0.218838 0.268675 -0.284876 -0.097626 -0.210639 0.319273 -0.163496 0.110096 0.023930 0.083581 -0.506480 0.458211 -0.079500 0.147605 -0.084029 -0.401567 0.177583 0.268391 0.135463 -0.163775 -0.187791 -0.368816 0.471391 0.635382 -0.083845 -0.499868 0.459089 -0.025317 -0.247356 -0.016516 -0.056363
sent_91 -0.184620 -0.355738 -0.027799 0.099967 0.478471 -0.008217 0.343287 0.175830 0.004109 -0.115471 0.106613 -0.236568 0.322319 -0.200725 0.026083 0.220000 0.215888 -0.098261 0.165591 -0.281484 0.162186 0.129772 -0.138541 -0.018303 0.405521 0.348863 -0.298068 -0.254690 -0.014695 -0.269147 -0.265546 0.092119 -0.209642 0.036415 0.082031 -0.065005 -0.198510 0.091301 0.211691 0.241296 -0.320541 -0.025794 0.076040 0.032604 -0.397132 -0.107390 0.099986 0.163083 -0.447308 -0.111176
sent_92 0.227590 -0.151278 -0.566644 -0.185168 -0.429559 0.327089 -0.302601 0.357878 0.186448 0.627792 0.584795 -0.434389 -0.600205 -0.207468 0.712837 -0.125206 0.724882 -0.657154 -0.301154 -0.214523 0.063640 -0.194398 -0.014317 -0.028341 0.202092 -0.348718 0.139662 -0.138442 0.342681 -0.047548 0.044176 -0.496049 -0.164370 -0.182345 -0.692164 0.411997 0.058319 0.185532 0.339145 -0.310481 0.400079 0.320734 0.169723 -0.201891 -0.262412 0.351989 -0.180227 -0.026716 0.025371 -0.230467
sent_93 -0.377966 0.060041 0.210919 0.009491 0.291656 0.599499 0.356209 -0.120103 -0.066338 0.386319 -0.039875 0.146936 0.205506 0.197841 0.204794 -0.039599 -0.142732 -0.267431 -0.078459 0.526989 -0.043101 -0.448303 -0.160520 0.182656 0.194950 -0.229113 -0.009061 0.059281 0.093661 0.161071 0.126750 0.251937 0.483109 0.043180 -0.180075 0.122561 0.020088 -0.319356 -0.508005 -0.061753 0.062291 0.258805 0.277550 0.460645 -0.009449 -0.008693 -0.207149 -0.119409 0.117548 -0.025472
sent_94 -0.123043 -0.213985 -0.353908 0.248818 -0.210438 0.334555 0.266649 -0.717833 -0.392577 -0.062764 0.136144 0.293531 0.013135 -0.175506 0.206816 0.037288 0.313824 -0.250406 0.351108 -0.136312 -0.438652 -0.107771 0.168228 0.157078 0.361003 -0.192630 -0.286807 -0.009072 -0.117989 0.614469 0.234651 0.607251 0.012282 -0.223061 0.125501 -0.242592 -0.407707 0.017936 -0.519983 -0.716227 -0.221766 -0.204808 -0.035029 -0.470310 -0.072481 -0.021137 0.174145 0.352532 0.048495 -0.045202
sent_95 -0.073522 0.027439 0.331702 0.073147 -0.180347 0.246853 0.053836 -0.598390 -0.202044 0.193561 0.448236 0.259236 -0.198537 -0.121559 0.080637 0.011598 0.213652 -0.298536 0.325660 -0.084181 -0.193379 -0.517432 -0.175645 0.660851 0.082090 -0.236541 -0.167475 0.094757 -0.288098 0.501012 0.517586 0.646072 -0.102193 -0.122485 0.210795 0.111334 0.047970 -0.048776 -0.328101 -0.164983 0.016955 0.414588 0.310274 0.121046 -0.238415 0.317990 -0.256087 0.010071 0.054948 0.022456
sent_96 0.378398 0.219628 -0.037958 -0.093810 -0.687923 -0.338136 -0.279402 -0.120040 0.124642 -0.397742 -0.013699 -0.177311 -0.083526 -0.346101 -0.132679 -0.228284 -0.148455 0.572288 -0.149530 -0.136635 -0.200561 0.689221 -0.023716 -0.018659 -0.163737 0.348501 0.319384 -0.062903 0.354293 0.572766 0.227626 -0.073691 -0.027457 -0.022798 0.266950 0.386123 -0.616664 0.030018 0.090675 0.537837 -0.037162 0.761059 0.447218 -0.051852 -0.190466 0.428572 0.228056 -0.075585 0.380611 0.279204
sent_97 0.360514 0.074207 -0.222794 -0.064697 -0.045424 0.282550 0.264145 -0.161445 0.010270 0.068294 0.153039 -0.453480 0.276496 0.104967 0.051815 0.384532 0.863005 -0.298862 0.059092 -0.239989 -0.335822 -0.047184 -0.334731 -0.363137 0.090946 -0.430271 0.020831 0.068533 0.007119 0.021204 -0.425337 0.113925 0.159435 -0.048954 -0.007313 0.230914 -0.075456 -0.450830 -0.382493 0.248542 -0.041296 0.043223 0.359243 -0.132566 -0.317276 0.059799 -0.989902 0.195950 -0.073516 -0.255402
sent_98 -0.418533 0.241208 0.043886 -0.600172 0.941179 0.281321 0.452976 0.147315 0.099343 -0.190624 -0.300044 0.443923 0.459217 0.549356 -0.589966 -0.116810 -0.068519 0.504324 -0.544291 0.619242 0.204383 -0.101834 0.417110 0.716227 -0.138799 0.754622 0.125487 -0.277523 0.038674 -0.614081 0.276906 -0.386074 0.179093 0.361889 0.054958 0.275588 0.673488 0.302996 -0.427212 -0.066190 -0.605758 0.144599 0.452171 0.585191 0.291890 -0.315765 0.171286 -0.122574 0.159685 0.351341
sent_99 0.077246 0.017888 0.308187 0.053433 0.195833 -0.197042 0.107053 0.105120 0.045915 -0.017883 -0.019665 0.088468 0.077515 0.031248 0.111530 -0.061013 0.155650 -0.275134 0.358392 0.187263 0.136295 -0.033594 -0.230670 0.047408 0.025243 -0.070502 0.179736 -0.007379 0.054857 -0.111168 -0.016791 0.104512 -0.062953 -0.058619 -0.018028 -0.194749 0.125519 0.136075 -0.044037 -0.179818 0.141879 -0.372785 -0.164037 -0.147503 -0.079054 -0.054929 -0.063304 -0.087654 -0.086858 -0.070529
sent_100 -0.463631 -0.115434 -0.347799 -0.272888 -0.594383 -0.443488 -0.633480 0.241541 0.237489 0.494939 0.010437 0.351370 0.187018 -0.186487 0.522559 0.008045 0.148811 0.005569 0.021514 0.417850 0.120059 0.025610 -0.176901 -0.503279 -0.743451 -0.247772 0.430338 -0.132704 0.064155 -0.091587 -0.322946 -0.071468 -0.322717 0.119428 -0.062079 0.250607 -0.238611 -0.387897 -0.030945 0.083031 -0.534779 0.351417 -0.528147 0.181906 0.291130 0.128486 -0.340120 0.061476 -0.199799 -0.021998
sent_101 -0.216528 -0.309831 0.322494 0.044754 0.125793 -0.053270 0.035157 0.240298 -0.107363 0.132535 0.191476 0.116714 -0.025433 -0.322322 -0.058138 -0.282170 0.328872 -0.473682 0.145254 0.097795 -0.198802 0.094647 0.065464 -0.073505 -0.045770 -0.311937 0.198898 0.417889 0.006476 0.085190 0.650626 -0.399201 -0.200568 -0.377271 -0.270137 -0.178612 -0.208493 -0.287476 -0.048138 -0.181705 0.046509 -0.254192 -0.049013 -0.017245 -0.149194 -0.051657 0.027742 -0.320775 0.128595 -0.102113
sent_102 -0.329836 -0.259914 0.317786 0.428048 0.176340 -0.178572 0.226873 0.244378 -0.149374 -0.019308 -0.175777 0.106526 -0.004524 -0.208318 0.223214 -0.072474 0.312892 0.007500 0.223384 -0.037135 -0.367900 -0.105947 0.029750 -0.022116 -0.031462 -0.435480 -0.221379 0.298829 -0.052608 -0.401248 -0.285931 -0.059993 0.026409 -0.305840 -0.368267 -0.387992 -0.054360 -0.416442 0.176864 0.207815 -0.100163 -0.384042 -0.291877 -0.027375 0.012547 -0.228794 0.121667 -0.011899 -0.238152 -0.032996
sent_103 -0.239183 -0.502026 -0.043984 -0.207142 -0.966542 -0.648198 -0.534389 0.037170 0.054270 0.287930 0.268962 -0.181242 -0.405763 -0.841134 0.583690 -0.220113 -0.074390 -0.302611 0.267312 -0.027540 0.056648 -0.320643 0.453421 -0.190638 -0.596671 0.230337 -0.761238 -0.074599 0.344322 0.208655 0.949661 0.025309 -0.905277 -0.306372 0.675799 -0.403440 -0.966415 -0.840523 -0.333116 0.259065 0.358912 0.063234 0.157502 -0.526461 -0.362498 -0.221023 0.245273 -0.179800 -0.284171 -0.337873
sent_104 -0.128072 0.139823 0.262577 -0.120475 -0.045512 0.534966 -0.208553 0.114097 0.024627 0.297567 -0.230738 0.168798 0.447766 -0.045968 -0.307278 0.121288 0.067397 -0.180438 -0.274570 -0.044937 -0.185778 -0.356776 0.005448 0.077439 0.041974 -0.308900 -0.249451 -0.124011 -0.353651 0.115563 0.279305 0.251061 -0.009336 0.160227 0.440664 0.220925 -0.230532 -0.416893 -0.579143 -0.079973 -0.257402 0.347759 -0.151626 0.456507 -0.011094 0.052779 -0.255945 0.196006 -0.357482 0.347522
sent_105 -0.246102 -0.108078 -0.809029 -0.173767 -0.714190 -0.032695 -0.458322 -0.532728 -0.461866 0.052140 0.291776 -0.565397 0.397298 -0.668123 0.706704 -0.396943 0.074946 -0.152266 -0.233252 0.056861 -0.488967 0.194675 -0.550914 -0.097707 -0.115177 -0.249434 0.348156 0.169182 0.180620 0.220328 0.825618 0.187982 -0.101387 -0.119800 -0.059070 -0.279039 -0.148546 -0.138849 -0.132484 0.192254 0.189477 0.274210 0.096125 -0.240647 0.168474 0.298999 -0.490088 0.210972 0.196440 -0.516811
sent_106 -0.087974 0.415353 -0.806257 -0.234402 -0.294543 -0.075724 -0.525995 -0.417236 -0.404169 -0.056139 0.643868 -1.027213 0.024339 -0.665380 0.131283 -0.301146 0.075035 0.158082 -0.170166 0.070270 -0.252698 0.321345 -0.422505 -0.065082 -0.325876 -0.330454 0.102095 0.418481 0.040638 0.295357 0.689416 -0.036485 -0.073038 -0.325032 -0.227508 -0.034219 -0.177928 0.337749 -0.707022 0.152838 0.716570 0.255678 -0.386647 -0.116967 -0.277035 0.504523 -0.656843 -0.088852 -0.016190 -0.559261
sent_107 -0.073991 0.196000 0.247164 0.044959 -0.028481 0.746294 0.090970 0.001394 -0.163720 0.374567 0.154005 -0.093091 0.379048 0.016972 -0.151050 0.178310 0.051981 -0.245641 -0.279242 0.002281 0.183966 -0.179411 -0.449343 0.079210 0.184947 0.006116 0.036211 0.203573 -0.627578 0.246854 0.094767 0.159958 0.194777 0.056280 0.316451 0.371262 -0.343925 -0.326330 -1.022738 0.149104 -0.237218 0.021117 -0.159704 0.261133 0.043348 0.223194 -0.139881 0.120205 -0.108811 0.158776
sent_108 0.410997 0.062390 0.162303 0.172897 -0.106105 0.060419 0.180147 0.130377 -0.006462 0.167554 0.296459 -0.423606 0.137753 -0.459227 -0.128908 0.348513 0.157447 -0.556691 0.011156 0.083586 0.156104 -0.165569 -0.068378 -0.498660 0.050810 0.473591 -0.080530 -0.020615 -0.003733 0.187344 0.005654 0.304335 -0.181768 -0.159980 0.216706 -0.134344 -0.656853 -0.555778 -0.484269 -0.066170 0.518093 -0.077648 -0.177042 0.088658 -0.396197 0.067300 -0.340935 0.141800 -0.210133 -0.515381
sent_109 -0.483448 -0.155457 -0.066482 -0.153922 -0.131715 0.690747 0.076260 0.018743 -0.145876 0.147396 -0.228596 -0.007448 0.390109 0.203615 -0.033406 0.343603 -0.006267 -0.086676 -0.389846 0.028539 -0.269866 -0.476911 -0.177754 0.116749 0.476831 0.100013 0.051021 -0.082965 -0.067246 -0.373972 -0.012882 0.157255 0.142341 0.320957 0.134885 0.140092 -0.021571 -0.042376 -0.372076 -0.015719 -0.154237 0.019031 0.022394 0.289353 -0.281390 0.019968 -0.068590 0.034308 -0.219060 0.174346
sent_110 0.972319 -0.350072 0.277704 -0.027022 -0.214078 -0.082485 0.279705 0.264725 -0.200763 -0.669288 -0.275583 0.482275 -0.198586 0.041523 -0.046235 -0.103257 -0.591646 0.193467 -0.064180 -0.473370 -0.212062 0.480379 0.140161 -0.585779 -0.455343 0.399987 0.229811 -0.164925 0.470701 0.529780 -0.453385 0.398082 -0.092412 -0.610067 0.404346 0.192133 0.089138 0.212924 1.488731 0.042845 -0.250210 0.426810 0.334098 0.348929 0.181120 -0.008930 0.557176 0.053984 0.764694 0.887097
sent_111 0.335780 0.117513 0.138591 0.019402 -0.077279 -0.011937 -0.341928 -0.084932 -0.480978 0.091804 0.033232 -0.190299 -0.509484 -0.630709 0.286882 -0.284485 0.276809 -0.118472 0.137352 -0.524060 0.093772 0.189858 0.116529 0.072377 -0.372438 -0.260674 0.701561 0.062574 0.301866 0.308959 0.772853 0.069139 -0.160444 -0.246140 -0.377950 0.056261 -0.246880 0.491917 -0.288162 0.099229 0.160799 -0.130451 -0.290082 -0.217283 -0.245453 0.448862 -0.114406 -0.217135 0.021801 -0.013385
sent_112 -0.143424 -0.273341 0.812962 0.063180 0.642664 0.075065 0.294043 0.053607 0.154933 0.096127 0.121668 -0.210738 -0.211117 0.159327 -0.226021 -0.111720 -0.075969 -0.428567 0.110761 0.255535 0.161816 -0.521127 -0.187016 0.060203 0.444348 0.100358 -0.415560 0.107982 0.029308 -0.166239 0.141709 0.349644 -0.016109 -0.230537 -0.044691 -0.108843 -0.000474 0.064411 -0.343275 -0.191948 0.024182 0.328131 0.021455 0.113859 -0.411226 0.197796 0.099637 -0.375494 -0.048405 -0.043142
sent_113 -0.313386 0.286592 -0.783730 -0.358344 -0.654526 -0.102058 -0.539947 -0.406488 -0.453739 -0.266621 0.870704 -0.660301 -0.062137 -0.660058 0.448550 -0.427386 -0.032142 0.133393 -0.030381 -0.010683 -0.316022 0.171465 -0.513982 -0.118335 -0.465203 -0.388507 0.348147 0.135126 0.316759 0.272391 1.081047 0.008387 0.042398 -0.090397 -0.059275 -0.020533 -0.761996 -0.039252 -0.319511 0.311528 0.547012 0.275635 0.356076 -0.133490 -0.227697 0.381474 -0.493851 0.066846 0.177534 -0.385451
sent_114 -0.142142 -0.020226 0.120631 0.051408 0.136658 -0.049947 0.064120 0.026352 0.064846 -0.018549 0.015966 0.036562 -0.063750 0.065158 -0.066574 0.016513 0.140820 0.059631 0.202260 -0.106156 -0.061154 -0.006628 0.137196 -0.038767 -0.021948 -0.246699 0.085491 -0.049659 0.025666 -0.110504 -0.243733 0.152912 -0.025526 -0.032175 -0.145433 -0.058958 -0.210877 -0.139509 0.052360 0.107598 -0.061140 -0.079115 0.072554 -0.038294 0.087905 0.009952 0.102598 0.143626 -0.280091 0.067075
sent_115 0.077861 0.081297 -0.379801 -0.415640 -0.154288 -0.373438 -0.100339 0.274822 -0.280005 0.144992 0.162281 0.166985 -0.045163 0.138850 0.250726 -0.444235 0.528715 -0.069416 0.668081 -0.392216 0.457415 -0.289986 0.189535 -0.347663 -0.354107 -0.239307 0.151159 -0.492424 0.165396 -0.307615 0.020411 -0.082777 -0.103021 -0.251748 -0.215423 0.104942 -0.702465 0.059315 0.180981 -0.230891 0.113063 -0.050578 -0.346523 -0.122087 -0.044551 -0.117794 0.008467 -0.048955 -0.104959 0.213953
sent_116 0.023394 -0.149938 0.268688 0.133917 -0.043124 -0.194785 0.025341 0.040747 -0.100020 -0.063411 -0.040606 0.051637 0.079862 0.046231 0.019310 0.001716 0.127858 -0.155536 0.106183 0.041706 -0.112219 -0.177957 0.009742 0.024386 0.041738 -0.250675 -0.231968 0.247468 -0.034999 -0.155454 -0.164317 0.030360 -0.059024 -0.110561 -0.025867 -0.233776 0.191540 -0.094741 0.022585 -0.216610 0.347472 -0.132516 -0.093264 -0.289519 -0.202694 0.002448 -0.077705 -0.103658 -0.210017 -0.108237
sent_117 -0.170788 -0.759332 0.085912 0.097520 0.543033 -0.293142 0.312993 -0.026535 -0.256247 -0.057661 -0.619708 0.131741 0.237439 -0.009514 0.198411 -0.016387 -0.265842 0.118603 0.200765 0.165780 -0.017756 -0.195689 -0.309735 0.408728 -0.034833 0.235677 -0.485547 0.037652 0.254327 -0.367379 -0.063525 0.189032 -0.068334 -0.075177 0.400879 -0.469230 0.142822 -0.151036 0.140166 -0.353221 -0.234483 -0.168307 -0.194608 -0.170234 -0.197237 -0.149246 0.129898 -0.082269 -0.021538 -0.112005
sent_118 0.679624 -0.418365 0.348962 0.167345 -0.153130 -0.069428 -0.032456 -0.463299 -0.943066 -0.515523 -1.048919 0.437725 -0.443654 0.474084 0.708952 0.444693 -0.885484 0.325480 -0.098506 -0.632243 -0.009586 0.160796 -0.523274 -0.489711 0.460722 0.567804 0.267944 -0.315166 0.143831 0.260198 0.125349 0.594900 0.534383 0.070672 0.404671 -0.059813 0.660164 0.995118 1.318166 -0.238805 0.264140 -0.622613 -0.247032 0.509647 -0.209836 -0.260057 0.167354 -0.424194 1.061542 0.988190
sent_119 0.141562 -0.640086 0.439551 0.221452 0.427384 -0.389538 0.129907 0.053147 0.113923 0.979172 0.020170 -0.083158 0.282575 -0.192654 0.485009 0.673711 -0.398474 -0.146505 0.274419 -0.741589 0.577984 -0.738153 0.347076 0.661759 -0.722024 0.799444 -0.119093 0.155734 -0.586366 0.594991 0.216547 0.127815 -0.871501 -0.170016 0.314602 -0.499791 -0.369562 0.029282 0.540126 0.428004 -0.387963 -0.270608 -0.409145 0.171935 -0.059634 -0.128473 0.180106 0.194387 -0.042362 -0.872118
sent_120 0.081521 0.050913 -0.243236 0.170663 -0.117293 0.367272 0.125238 -0.298724 -0.032678 -0.125885 0.160264 -0.260329 0.279077 -0.427369 -0.035657 0.212691 0.218718 -0.578036 0.122497 -0.164577 0.130664 -0.065328 -0.375782 0.101774 -0.061371 0.397321 -0.044736 0.072692 -0.157075 0.129542 0.303605 -0.121340 -0.059960 -0.234636 0.359838 0.072724 -0.264605 -0.185490 -0.406603 0.316411 0.133683 -0.128419 -0.026644 -0.118123 -0.339597 0.054774 -0.674138 0.250327 0.106919 -0.480692
sent_121 -0.231098 -0.500615 -0.238171 0.187160 -0.292614 -0.012771 -0.235191 -0.373894 -0.243756 0.497880 0.164097 -0.317665 0.086780 -0.626115 0.213181 0.066203 0.410224 -0.173726 0.039673 -0.264091 -0.399348 0.349384 -0.202566 -0.142599 0.469411 -0.094980 -0.064015 0.378342 -0.291553 0.127413 0.306484 0.226094 -0.123112 -0.071811 -0.249124 -0.272169 0.082546 0.003003 -0.519895 -0.030506 -0.161823 -0.081349 -0.324274 -0.538178 -0.136868 0.358059 0.024327 -0.054392 -0.055379 -0.285731
sent_122 0.430889 0.204679 0.118687 -0.043211 -0.252923 -0.154049 0.312825 -0.051372 -0.090361 -0.045704 0.713184 0.177740 0.019949 0.013502 0.164388 0.408000 0.794859 -0.381403 0.345930 0.144312 -0.101199 -0.425152 0.339407 -0.201789 -0.277268 0.174148 -0.141535 -0.260943 0.437451 0.126561 -0.164265 0.462572 -0.322388 -0.526321 0.282562 0.147153 0.030492 -0.339192 -0.056200 0.470291 0.136158 0.451689 0.387184 0.321201 -0.361451 -0.171095 -0.648178 -0.026226 0.015971 -0.377953
sent_123 0.138348 -0.495851 0.096097 0.096075 -0.178476 0.197559 -0.073308 0.136377 0.065436 -0.004649 -0.113024 0.312138 0.003604 -0.062894 0.104468 -0.018577 -0.164650 -0.110876 -0.017491 -0.213605 -0.223613 0.322061 -0.102242 -0.049785 -0.294090 0.065726 -0.208540 0.098904 0.246396 0.192514 0.018431 -0.259314 0.132595 -0.407242 -0.161989 0.230234 -0.041115 0.016971 0.398369 -0.018067 -0.062359 0.208645 -0.346441 0.025433 -0.257967 0.303943 0.229033 -0.174258 0.689563 0.158880
sent_124 -0.127139 -0.020414 0.117480 -0.150579 0.453303 0.224018 0.413806 0.226610 -0.457743 0.004253 0.278619 -0.036762 -0.040214 0.010417 -0.124863 -0.137737 0.319603 -0.120321 -0.060431 -0.159403 0.235133 0.145518 -0.052066 -0.029523 0.233860 0.047683 0.331636 -0.115254 0.112882 -0.328548 0.314571 -0.264784 0.232627 -0.217590 -0.496417 0.352433 0.494895 0.601739 -0.075647 -0.054014 -0.142147 0.403449 0.790950 -0.105242 -0.398835 0.427090 -0.078743 -0.350830 0.058730 -0.036420
sent_125 -0.435828 0.069506 0.030143 0.427285 -0.276807 -0.099223 -0.283428 -0.377282 -0.298972 0.032304 0.175678 -0.311830 -0.236036 -0.353988 0.012108 -0.116144 0.074478 0.250260 -0.078448 -0.073154 -0.344969 -0.038754 -0.346771 0.211306 0.183289 -0.126922 0.155606 0.602502 -0.281084 0.072696 0.499088 -0.132940 0.299443 -0.038953 -0.355845 -0.210681 -0.031438 0.057459 -0.262521 0.542138 0.321413 -0.072377 0.045864 -0.117765 -0.064300 0.264987 -0.157677 -0.160053 0.164381 -0.248679
sent_126 -0.225652 -0.221519 -0.391741 -0.008093 -0.050848 0.356245 -0.642721 -0.514486 -0.298891 -0.176160 -0.275395 -0.445812 0.410895 -0.530002 -0.244270 0.109212 -0.068118 0.539328 -0.320790 -0.060799 -0.543759 0.439545 -0.310318 0.275340 -0.176967 -0.370026 -0.336684 0.335218 -0.433906 0.325583 0.088155 0.397736 -0.272655 -0.062459 0.391744 -0.228272 -0.538067 -0.317970 -0.398664 0.064392 -0.315242 0.179736 -0.458631 -0.131240 0.009521 0.439130 -0.333523 0.597724 -0.325320 0.063506
sent_127 -0.751810 -0.191000 -0.129285 -0.076355 -0.113070 -0.064080 -0.480216 -0.346857 -0.046872 0.382453 0.523038 -0.866049 -0.425766 -0.598835 0.495916 0.225146 0.626227 -0.447795 0.470539 0.043160 0.020345 -0.113265 0.238579 0.111163 -0.264258 0.226261 0.382435 -0.033704 -0.036573 -0.212814 0.622235 -0.321581 -0.165893 0.035050 -0.550666 0.114956 -0.318359 -0.203520 -0.361526 0.830140 0.235646 -0.078023 0.137788 0.252737 -0.428164 0.106848 -0.536099 -0.154685 -0.156265 -0.314076
sent_128 0.101477 -0.064404 -0.510313 0.085534 0.134301 0.031187 0.332311 -0.244571 0.156535 -0.279361 0.235156 -0.022264 0.152030 0.148597 0.318269 0.247878 -0.006343 -0.315494 0.347273 0.373834 0.160704 -0.430204 -0.144579 0.377184 0.123800 0.301066 -0.575937 -0.080282 0.182552 -0.178792 -0.707950 0.126758 -0.266768 -0.194927 0.408883 -0.168529 0.132377 -0.020688 0.028393 -0.103219 0.236400 -0.127932 -0.031890 -0.095931 -0.016481 -0.374599 -0.131578 0.176602 -0.197789 -0.266225
sent_129 0.186774 -0.411456 0.164309 0.106958 -0.236797 0.040804 0.145077 -0.223508 -0.822004 0.151833 0.304611 -0.229830 -0.183613 -0.274291 0.367717 0.194972 0.840903 -0.092696 -0.205613 -0.553385 -0.456971 0.069646 -0.090543 -0.177706 0.158451 0.019020 0.243192 0.384787 0.080952 0.082885 0.750101 -0.027209 0.173356 -0.298476 -0.133861 -0.138282 0.292374 -0.005335 -0.360024 -0.324732 0.405806 0.069882 0.033451 -0.042608 -0.568366 0.520341 -0.136217 -0.248912 0.314775 -0.137317
sent_130 -0.478009 0.073681 -0.748561 -0.224379 -0.290847 -0.115725 -0.709543 -0.514609 0.196478 0.190730 0.048283 -0.409315 0.168119 -0.440672 0.196320 -0.133310 0.150949 0.685067 -0.130529 0.064975 -0.619793 0.698043 -0.207455 0.521150 -0.206865 -0.147010 -0.582573 -0.180949 -0.239517 -0.078950 0.452802 0.028681 0.125045 0.197956 -0.289349 0.065693 -0.376094 -0.414439 -0.218469 0.120954 -0.124648 0.277039 -0.314035 -0.083062 -0.020848 0.129299 0.244828 0.058602 0.099902 0.109292
sent_131 -0.062140 -0.646953 0.018847 -0.270336 0.468478 0.548317 0.268573 -0.225957 -0.509645 0.114380 0.156819 -0.184268 0.041249 0.140761 0.162579 0.341781 0.609775 -0.598761 -0.190083 0.048517 -0.093580 -0.476397 0.095911 -0.098981 0.274357 -0.142728 -0.313935 -0.213534 0.124590 -0.631987 -0.026865 0.557586 0.136486 0.154419 0.152905 -0.245073 0.234660 -0.520819 -0.377500 -0.558442 -0.142198 -0.257056 0.347895 0.252721 -0.503314 -0.114775 -0.568629 0.239895 -0.421959 -0.073900
sent_132 0.262626 0.282035 -0.042289 0.332810 -0.056536 0.162480 -0.240087 -0.248448 -0.512817 -0.212993 -0.059963 -0.846523 -0.156860 -0.675606 -0.295127 -0.104464 0.591239 -0.093741 0.050630 -0.674983 -0.377805 0.733307 0.197499 -0.300540 0.299592 -0.148088 0.329196 0.138007 -0.011722 0.072142 0.603130 -0.061991 0.315532 0.047261 -0.564587 0.082487 -0.273256 0.339236 -0.469782 0.128578 0.490369 -0.064668 -0.027715 -0.294215 -0.447909 0.579919 -0.084075 -0.109373 0.001172 -0.130018
sent_133 0.040993 -0.149040 0.016192 -0.088810 -0.274912 -0.385085 -0.325873 0.164661 0.112759 -0.507482 -0.119801 0.368423 0.703105 -0.402575 -0.065567 -0.282387 0.067389 -0.508518 -0.162409 0.126571 0.002942 0.486215 -0.081582 -0.017586 -0.334180 0.500915 -0.015360 -0.134398 0.392888 0.521422 0.521005 -0.317462 -0.281172 -0.098607 0.764043 -0.112356 -0.026311 0.209736 0.283475 -0.480257 0.062011 0.487458 -0.059895 0.461917 -0.253806 0.062823 0.132666 -0.014622 0.118896 0.481559
sent_134 -0.183102 -0.044624 0.255227 0.128730 -0.110451 -0.110352 -0.114677 -0.030984 -0.184728 -0.102161 -0.453694 0.313997 0.377647 0.029242 0.176631 0.055121 0.443109 -0.256125 0.076635 0.184840 0.018746 -0.176776 -0.106993 0.173417 -0.033036 0.114150 0.046277 -0.157551 -0.141441 -0.283019 0.155570 -0.015605 0.131286 0.124376 0.272372 -0.332325 -0.031566 -0.302715 -0.037324 -0.204380 0.311303 -0.583806 -0.191365 0.075251 -0.068278 -0.326325 -0.145361 0.112743 -0.101848 0.193209
sent_135 -0.040182 -0.105760 -0.257040 0.071287 0.062249 0.316833 0.282069 -0.151506 -0.154861 -0.099404 0.443364 -0.117973 -0.135212 -0.175314 0.075107 0.306540 0.452742 -0.300679 -0.055635 -0.098082 -0.292526 -0.110593 -0.230533 -0.005732 0.201829 0.176286 -0.091964 0.014089 -0.240575 -0.182844 0.095173 0.144206 -0.080958 -0.245688 0.027817 -0.160541 -0.004415 -0.183867 -0.330598 -0.062104 -0.182474 -0.097676 0.117433 0.199617 -0.123001 0.009933 0.227445 0.088119 0.186297 -0.058059
sent_136 0.532099 -0.024707 0.117022 0.206540 -0.636718 -0.518416 -0.034705 -0.163780 -0.313021 0.103713 -0.033181 0.055639 -0.407405 -0.143870 0.122256 0.295797 0.235456 0.172277 0.276391 -0.689977 -0.066966 -0.169789 -0.190414 -0.256833 0.029985 -0.094368 0.207397 -0.100753 -0.155548 0.407540 0.205659 0.533965 -0.255644 -0.136018 0.641542 -0.360016 -0.601987 -0.169059 -0.212245 -0.071515 -0.077262 -0.272142 -0.033065 -0.654537 0.137942 0.169488 -0.009887 0.341386 -0.215713 -0.267991
sent_137 -0.218498 0.056912 -0.073035 0.352886 0.511682 -0.020365 0.308729 0.075080 -0.250695 -0.431564 -0.007524 -0.026630 -0.094421 -0.368718 -0.249826 0.014282 0.151352 0.117420 0.150417 -0.036889 0.208367 -0.083521 0.110005 0.277734 0.045970 0.281066 -0.438362 -0.153524 -0.124262 -0.039443 0.001604 -0.001813 -0.168042 -0.180127 0.157596 -0.484668 -0.274525 -0.012799 0.001654 0.052925 0.200223 -0.285877 -0.159154 0.049118 -0.176265 -0.153924 0.365205 0.247854 -0.414816 -0.175200
sent_138 0.182917 -0.445971 0.167303 -0.069325 -0.128278 -0.473312 -0.179167 0.057555 -0.201738 -0.189927 -0.457417 0.027481 0.234089 -0.041179 0.614257 -0.380284 -0.446345 0.541286 0.097811 0.292690 -0.333042 0.688047 -0.111067 -0.485118 -0.424709 -0.162287 -0.168924 0.102156 0.489939 0.374429 -0.380430 0.467880 0.237899 -0.103522 -0.231932 -0.054556 -0.091103 -0.039891 0.399720 0.175494 0.009028 0.449245 -0.111576 0.129731 -0.315966 0.154086 0.064053 -0.322749 0.591805 0.339726
sent_139 0.646392 -0.472452 0.617994 -0.158862 -0.196177 -0.113469 -0.035235 -0.084458 -0.313634 -0.211082 -0.930003 0.024094 -0.146727 0.449365 0.332669 0.031164 -0.604457 0.557971 -0.389600 -0.166424 -0.161293 0.364113 -0.007747 -0.468418 0.247784 0.473547 0.156576 -0.101960 0.365007 0.474621 -0.202777 0.570419 0.191132 0.098218 0.338338 0.177527 0.093094 0.400385 0.584608 0.151940 0.023319 0.398473 -0.001623 0.536590 -0.368880 0.081134 0.337300 -0.500053 0.701765 0.856468
sent_140 0.613644 -0.567180 0.227668 0.163215 -0.393069 -0.060673 0.096484 0.120668 0.052331 -0.690353 -0.162066 0.361644 -0.040202 -0.153397 0.147437 -0.020991 -0.980570 -0.020075 -0.190996 0.006764 -0.295860 0.821643 -0.185234 -0.376974 -0.349140 0.249122 -0.265497 0.276931 0.650622 0.682781 -0.381438 -0.098860 -0.203304 -0.457323 0.410787 0.137147 0.385377 0.194345 1.165406 -0.086738 0.292186 0.135942 -0.016997 0.121899 -0.338457 -0.022200 0.229757 -0.315298 0.725176 0.478294
sent_141 0.209550 -0.557071 -0.176534 -0.058385 -0.269505 -0.248390 -0.243432 0.252838 0.074059 -0.226624 -0.400577 0.121502 0.131557 -0.584152 -0.050984 -0.349999 -0.849935 0.031894 -0.036053 -0.060877 -0.073869 0.868872 -0.342586 -0.284703 -0.621601 0.360734 0.293106 0.085931 0.290956 0.672913 -0.156402 -0.059545 -0.352023 -0.335508 0.133602 0.004051 0.181299 0.340660 0.728219 -0.001178 -0.309972 0.221967 -0.334751 -0.058230 0.014838 0.276090 0.182492 -0.142771 0.479264 0.263463
sent_142 -0.014671 0.039070 0.196594 0.220802 -0.202481 -0.027278 0.053580 0.407913 0.873628 0.153080 -0.186521 -0.145770 0.681190 -0.482267 -0.405817 -0.007356 -0.336850 -0.316616 0.095035 -0.356927 -0.343023 0.473112 -0.075693 -0.067491 0.041886 0.131218 -0.387183 -0.026387 -0.086815 -0.072508 -0.334048 -0.067941 -0.418593 -0.116852 -0.056012 -0.094475 -0.844015 -0.305529 0.070253 -0.094311 -0.208340 -0.049164 -0.334733 -0.287934 -0.181009 0.008851 0.685628 0.109750 -0.301521 0.127890
sent_143 0.716705 0.005100 -0.007600 0.175442 0.083531 0.136034 0.485225 -0.191353 -0.538206 -0.503890 -0.637432 0.681018 0.062981 0.330281 0.219252 0.274719 -0.821080 0.539243 0.165231 -0.324609 -0.374070 0.358442 0.382222 -0.175674 0.000361 0.490761 -0.117592 -0.196555 -0.035011 0.847586 -0.499413 0.469507 -0.140572 -0.177535 0.174193 0.176776 0.181976 0.787207 0.920805 -0.201565 0.114599 -0.225917 -0.268257 0.353410 0.024704 -0.430123 0.564201 -0.319537 0.837865 0.894578
sent_144 -0.119342 0.044737 0.269090 -0.058770 0.670661 0.541645 0.284422 -0.296412 0.338266 0.303327 0.432815 -0.182969 -0.062949 0.063143 -0.923603 0.273903 0.473690 -0.795813 0.014688 -0.059061 -0.151868 -0.230280 0.265199 -0.116281 0.385853 0.059469 -0.153783 0.146683 -0.425417 -0.672228 -0.130305 0.379244 0.546985 0.087230 -0.412479 0.023456 0.657189 0.010386 -0.144698 -0.909896 -0.014082 0.055332 0.465974 0.134070 -0.326500 0.333832 -0.002015 0.158319 -0.171116 0.176889
sent_145 -0.045734 0.201462 0.306319 0.287469 -0.192086 0.354275 -0.079887 -0.021996 -0.012828 0.551867 -0.210786 0.525886 0.287685 0.034724 -0.115546 0.292878 0.520042 -0.374257 -0.368391 0.177832 -0.474275 -0.377919 0.125128 -0.245917 0.352150 -0.345697 0.143578 0.117199 -0.064260 0.321748 0.214844 0.180746 0.062289 -0.068055 0.215445 0.056989 0.036354 -0.054310 -0.780478 -0.221210 -0.034148 -0.091712 -0.485976 0.114649 0.222376 0.100402 -0.228861 -0.071714 -0.241712 0.007141
sent_146 -0.265141 0.746791 0.049633 0.465482 0.230335 0.523537 -0.009227 -0.014658 0.266431 0.170068 0.380697 0.170882 0.136042 -0.064086 -0.479217 0.128288 0.149377 -0.177704 -0.443436 0.313942 0.138208 0.206025 -0.122238 0.366424 0.161495 0.309184 0.320724 0.192498 -0.480623 0.178484 0.132488 -0.627342 0.089351 0.199471 -0.297826 0.556027 0.456384 0.206032 -0.560160 0.407216 -0.078329 0.132135 0.230613 0.123404 0.356372 0.207834 -0.149338 -0.171757 0.097648 -0.195803
sent_147 0.022782 0.208742 -0.562627 0.035161 -0.400377 0.488730 -0.367936 -0.460616 0.184397 0.363916 0.274122 -0.270782 -0.287284 -0.302626 -0.130266 0.076625 0.682327 -0.424451 0.094393 -0.555558 -0.145769 -0.131933 0.256475 0.092012 0.314967 -0.188536 -0.073853 0.021733 0.257854 -0.063549 0.537647 -0.483614 0.051067 -0.300717 -0.054465 0.166488 -0.508263 0.142212 -0.438656 0.389929 0.435142 -0.047692 -0.446081 -0.479505 -0.104171 0.311941 -0.286320 0.168857 -0.213268 -0.483960
sent_148 -0.635496 0.244132 0.088642 -0.045886 0.360857 0.513519 0.403766 0.044687 0.010322 0.141580 0.836005 0.285524 -0.401716 0.096384 -0.450033 -0.115826 -0.121974 0.407834 -0.513719 0.777358 0.063031 -0.127076 0.427602 0.723226 0.399622 0.478783 -0.167454 0.137340 -0.332766 -0.246895 0.377754 -0.097222 0.305526 0.295525 -0.730703 0.727348 1.103009 0.073159 0.078046 0.374000 -0.556059 0.516468 1.316943 0.266263 0.044295 -0.173130 0.092639 -0.371080 0.557473 -0.036819
sent_149 0.245761 0.069486 -0.260714 0.314533 0.101566 0.152458 -0.053876 -0.150779 0.261905 0.156707 -0.280252 -0.845586 0.410767 -0.532020 -0.448293 0.398181 0.119594 -0.388140 0.128305 -0.173119 -0.218968 0.053364 -0.028684 -0.197202 0.329798 0.269793 -0.588722 0.091508 -0.699859 -0.066913 -0.200127 0.466411 -0.156864 0.073669 0.060000 -0.421000 -0.074664 -0.558367 -0.315208 -0.108182 -0.196278 -0.480289 -0.357803 -0.365556 -0.067484 -0.147597 -0.443258 0.386161 -0.094067 -0.447730
sent_150 0.254326 0.135807 0.464456 0.200634 -0.188025 0.053521 0.022774 -0.040704 -0.039768 0.219528 0.371545 -0.194798 0.255554 -0.289870 0.342664 0.148259 -0.121347 0.157103 -0.207112 0.167440 0.010737 0.228406 -0.055807 -0.226957 0.164750 0.241771 0.005204 0.096332 0.013147 0.424573 0.193855 0.397666 -0.055947 -0.026480 0.007049 0.112256 -0.634023 -0.209680 -0.281992 0.356903 -0.016908 0.177959 0.045125 0.003778 -0.298413 0.104571 -0.075546 -0.037622 0.125019 -0.288241
sent_151 0.013114 -0.167929 0.125231 0.112753 0.096091 0.199579 0.267919 0.320743 0.105940 -0.074605 -0.569141 -0.347073 0.532366 -0.172783 -0.213925 0.522395 0.711531 -0.277078 0.023992 -0.040259 -0.084250 -0.243887 -0.262684 0.384937 0.444674 0.435043 -0.015444 -0.104885 -0.404444 -0.447438 -0.183451 0.023632 -0.226309 0.227372 0.724854 -0.352984 -0.127154 -0.149460 -0.025638 0.150870 0.451948 -0.345977 -0.019520 0.118140 -0.407441 -0.221035 -0.070536 0.205672 -0.681953 0.079644
sent_152 -0.262255 -0.110024 0.131911 0.000842 -0.785074 -0.333126 -0.365001 -0.106367 0.061743 0.568332 0.557116 -0.244192 -0.120817 -0.288935 0.435480 -0.055845 0.098062 0.368527 0.018973 -0.181436 -0.344654 -0.204743 -0.029869 0.349361 -0.291561 -0.026712 0.016191 0.240476 -0.135917 -0.207594 0.529081 -0.014279 0.026974 -0.008925 -0.307962 0.097595 -0.420403 -0.451079 -0.093733 0.545125 0.342662 0.215428 0.180376 -0.154659 -0.188732 0.238131 0.192416 -0.167541 0.122410 -0.279860
sent_153 -0.105827 -0.689495 -0.232382 -0.078643 -0.061325 -0.143197 -0.263802 0.120387 -0.204506 -0.294969 -0.439231 0.337392 0.235419 -0.403569 0.001282 -0.291917 -0.568549 -0.354911 0.067007 -0.106934 0.143890 0.342571 -0.154738 -0.329225 -0.401282 0.185908 -0.196353 -0.028042 0.374249 0.167459 0.012390 0.017867 0.012335 -0.107073 0.258309 -0.267351 0.115883 0.486915 0.593050 -0.552311 0.134475 0.051595 -0.619234 0.193322 -0.363727 0.198129 0.099138 -0.054691 0.183629 0.407896
sent_154 -0.091300 0.012958 -0.022547 0.100161 -0.198365 -0.101815 -0.191755 -0.088735 0.249823 -0.182018 -0.138571 0.110362 0.204959 -0.392694 0.358688 -0.163015 0.250626 -0.145638 0.236081 0.027231 0.083544 0.505102 0.149174 0.294688 -0.044775 0.055977 -0.384115 -0.440100 0.070349 0.220083 0.150434 -0.209868 -0.054435 0.129484 0.132572 0.093011 -0.711788 -0.445072 0.206346 0.228911 -0.016074 -0.120947 0.237271 0.116557 -0.152350 -0.381134 0.189845 0.196302 -0.023537 0.294170
sent_155 0.097532 0.200950 -0.208747 0.096783 -0.534377 -0.121794 -0.068882 -0.149586 -0.043317 0.043115 0.105215 -0.143979 0.111455 -0.267764 0.521074 -0.013407 0.373232 0.155154 -0.256135 -0.061888 -0.418700 0.198487 -0.059346 -0.106158 0.139205 0.022463 0.020409 -0.176239 0.010498 0.096071 0.260774 0.148691 0.038939 0.201968 -0.029637 -0.057444 -0.114661 -0.331812 -0.035524 0.065153 0.156214 -0.068374 -0.015542 0.077746 -0.012377 -0.184652 -0.043634 0.155037 0.080092 -0.002027
sent_156 0.357818 0.142191 -0.314746 0.133586 -0.126233 0.175975 -0.139005 -0.023409 0.072465 -0.111686 0.063861 -0.283046 -0.272100 -0.120598 -0.415954 -0.243656 -0.323634 -0.183874 0.322857 -0.545127 0.385987 0.230269 0.190264 -0.057802 0.156866 0.043754 -0.121465 -0.100100 -0.146035 -0.171974 0.025870 -0.339683 0.087955 -0.118557 -0.409225 0.316547 -0.267483 0.292369 0.369911 0.157051 0.081534 -0.092849 -0.069451 -0.650152 0.107383 0.119907 0.111859 0.118113 0.226545 -0.226817
sent_157 0.288544 -0.463473 0.055542 0.119357 0.090205 0.371428 0.267350 -0.232417 -0.049643 0.177153 -0.310858 -0.162914 0.201477 -0.457508 0.109459 0.248861 -0.201000 -0.283745 -0.163491 -0.524582 -0.158000 -0.011332 -0.330054 -0.227244 0.490470 -0.032913 -0.447561 0.021515 -0.187424 0.023935 -0.071105 0.543369 -0.091900 -0.120388 0.455556 -0.493420 -0.613637 -0.156793 0.115903 0.052080 -0.319511 -0.454237 -0.332035 -0.002720 -0.350915 -0.237286 -0.009009 0.368653 -0.404920 -0.048425
sent_158 -0.407018 0.419770 0.191825 -0.094798 0.349062 0.637592 0.259466 0.221240 0.058795 0.356345 0.231974 0.440617 0.519160 0.122682 -0.048001 -0.052866 -0.212828 -0.306367 -0.029644 0.246318 -0.176715 -0.286853 0.627580 0.203054 -0.141272 -0.156660 0.315248 -0.281723 -0.065659 -0.382607 0.247521 0.082024 0.096655 0.330796 -0.534564 0.477718 0.379118 -0.034841 -0.057983 -0.403765 -0.125503 0.189661 -0.038252 0.461902 0.139550 -0.202120 -0.125956 -0.037749 -0.138431 0.143779
sent_159 -0.032180 -0.302707 0.064445 -0.223224 -0.154764 -0.470469 -0.337804 -0.084132 0.142809 0.371409 0.016818 0.348458 0.352761 -0.133245 0.467689 0.096922 -0.236902 -0.225821 0.237296 0.227378 0.377784 -0.000058 0.124080 -0.124445 -0.657608 0.223051 -0.062901 -0.062289 0.387223 0.423849 0.243008 0.114811 -0.357971 -0.151365 0.503105 -0.039372 -0.487225 -0.157733 -0.137468 0.006880 -0.354087 0.039596 -0.111721 -0.029384 0.178831 -0.110684 -0.128753 0.088260 -0.019160 -0.155119
sent_160 0.289276 0.003129 0.338697 -0.252250 -0.068910 0.140255 -0.150915 -0.141159 -0.336949 -0.111290 0.171128 -0.212346 -0.623575 -0.432044 0.153963 0.004412 0.437494 -0.084551 0.151687 -0.744831 0.009443 0.153215 0.200885 -0.112483 -0.131591 -0.249507 -0.004701 -0.218380 -0.221339 0.289958 0.754326 0.389575 -0.043342 0.068579 0.255170 0.092468 -0.350192 0.007205 -0.040008 -0.205219 0.142929 -0.002110 0.225539 0.355328 -0.719237 0.055713 0.398136 -0.172790 -0.027457 0.679836
sent_161 -0.149905 -0.043316 -0.076218 -0.176934 -0.100475 0.756288 0.047189 0.010633 -0.249028 0.287645 -0.035068 -0.187868 0.443146 -0.208916 0.002741 -0.109881 0.401026 -0.268599 -0.237831 -0.079962 -0.169127 0.104683 0.558155 -0.134296 0.352199 -0.225125 -0.385401 -0.103459 0.383598 -0.223726 0.323054 -0.255873 0.246728 -0.363034 -0.310847 0.247520 -0.424662 -0.521313 -0.473011 0.422624 0.150601 0.499812 0.136213 0.049802 -0.344793 0.014503 -0.291677 0.005393 0.018742 -0.026740
sent_162 -0.591429 -0.136162 0.250652 -0.111323 -0.573770 -0.509663 -0.467028 -0.165903 0.424810 0.765258 0.865520 -0.155985 -0.667279 -0.257166 0.577758 0.453712 0.432496 -0.191794 0.390210 0.128078 0.054276 -0.574631 0.362506 -0.178323 -0.169484 0.262241 -0.046280 -0.110577 0.213154 -0.598571 0.511376 0.076080 -0.020877 0.065343 -0.238441 0.079534 -0.221948 -0.489739 -0.259722 1.159703 -0.099302 0.004957 0.195071 0.180121 -0.345795 -0.294310 -0.210778 -0.271895 -0.306028 -0.592928
sent_163 -0.246505 0.081899 0.242217 0.188667 -0.081420 0.075674 -0.134756 0.320941 -0.408877 -0.124463 0.325074 0.004112 -0.050821 -0.304427 0.543484 -0.279715 0.659026 -0.141405 -0.074758 0.049492 0.041780 -0.166996 0.377111 -0.066243 0.147406 -0.215210 -0.407035 -0.034189 0.143469 -0.208226 0.567570 -0.283154 0.039366 -0.173929 -0.077746 0.027051 -0.315049 -0.401444 -0.262769 0.152830 0.018594 0.216841 0.208540 0.167684 -0.292960 -0.249515 0.042085 -0.176754 -0.168042 0.105067
sent_164 -0.377439 -0.045290 -0.279893 0.006944 -0.018794 0.028415 -0.157724 -0.140317 -0.114799 0.047664 0.206146 -0.473166 0.021648 -0.265023 -0.270574 0.119192 0.296960 -0.087417 -0.015268 -0.316534 -0.418813 -0.241881 -0.286611 -0.119425 0.347228 -0.108693 -0.177282 0.029204 -0.159542 -0.468736 -0.045765 0.208549 0.040655 0.058903 -0.255696 -0.008764 0.028958 0.256789 -0.237056 0.050441 -0.076316 0.375189 -0.129663 0.001709 -0.473135 0.467588 -0.107000 0.005920 -0.319526 -0.064325
sent_165 -0.545877 -0.433834 -0.164600 0.066816 0.150891 0.560836 0.044545 -0.294430 -0.774649 -0.353356 0.578365 -0.293600 0.035871 -0.191329 0.288335 0.021690 0.637493 -0.561966 0.038414 -0.216747 0.071734 -0.085352 -0.719856 -0.025840 0.359697 -0.019798 0.094569 0.151601 -0.005940 -0.292563 0.445824 -0.164464 0.342838 -0.144717 -0.081848 0.225892 -0.049293 -0.053848 -0.433185 0.178631 -0.129530 0.170550 0.563888 0.073495 -0.734699 0.437426 -0.664744 -0.085527 0.148945 0.005597
sent_166 -0.003728 -0.390912 -0.448717 -0.054936 -0.032290 -0.257098 0.343192 -0.482201 -0.673070 0.245989 -0.040972 -0.125762 0.418730 -0.032320 0.677386 0.107161 0.311633 -0.528697 0.614944 0.104038 0.199326 -0.291974 -0.141979 0.062516 0.257745 0.313057 -0.087608 -0.342665 -0.111810 0.047871 0.024981 0.880539 -0.182633 0.138725 0.212472 -0.573104 -0.064209 -0.104047 -0.153973 -0.734827 0.192461 -0.651203 0.064665 -0.432788 -0.265650 -0.366041 -0.307288 0.154768 -0.136559 -0.399097
sent_167 -0.615804 0.068032 -0.342603 0.173556 -0.700822 0.173925 -0.943579 -0.618582 0.498654 0.678125 0.002287 0.147957 0.612000 -0.655180 -0.048214 0.032146 -0.026704 0.404218 -0.559858 0.652598 -1.027294 1.000245 0.113549 0.346598 0.284479 -0.540589 -0.475224 0.366778 -0.937047 1.165376 0.078157 0.734014 -0.401173 0.670908 -0.139454 -0.015492 -0.303096 -0.234125 -0.732764 -0.636670 -0.352449 0.016424 -0.536988 -0.218477 -0.161948 0.085962 0.317466 0.086519 -0.311588 0.342646
sent_168 -0.191241 -0.046770 -0.146789 0.311249 -0.385588 0.162295 -0.635790 -0.676075 0.288275 0.499431 -0.045187 -0.010289 0.475867 -0.551992 -0.221405 0.074999 -0.151439 0.277467 -0.645820 0.398381 -0.570899 0.876866 0.213292 0.070509 0.389507 -0.257922 -0.678281 0.346048 -0.576399 1.265542 -0.071074 0.624648 -0.467013 0.502595 -0.035158 0.081153 -0.266410 -0.208243 -0.487699 -0.335241 -0.345950 0.379371 0.028810 -0.235245 -0.457939 0.259448 -0.207208 0.098138 -0.056310 -0.028199
sent_169 -0.621773 0.430965 -0.032015 0.214565 -0.032174 0.419314 0.551285 -0.047618 0.030821 0.489325 0.543166 0.521322 -0.402882 -0.279779 0.009165 0.005793 -0.046222 -0.021530 -0.127375 0.692891 -0.073635 -0.192550 0.799455 0.334011 -0.144836 0.158171 0.049326 0.180040 0.012823 0.188327 0.146667 -0.034774 0.146032 -0.039594 -0.845621 0.446843 0.965051 -0.011778 -0.024169 0.551803 0.032734 0.160891 1.204994 0.144634 0.149916 -0.263097 -0.043024 -0.254415 0.465587 -0.272270
sent_170 -0.379113 0.343197 0.537602 -0.118875 0.153575 0.116598 -0.509798 -0.842597 0.822299 0.297812 -1.624702 0.449356 -0.070865 -0.021621 -0.829693 -0.208042 -0.132976 0.543638 0.197366 0.144429 -0.531818 0.262514 0.323702 0.904219 -0.266029 0.067678 0.154510 -0.226596 -0.161121 0.977845 -0.038267 0.675325 0.003416 0.623270 0.108432 -0.170462 -0.128323 0.507037 -0.143188 0.892202 -0.057145 0.056724 -0.321555 0.697637 -0.004052 0.246488 0.367540 -0.069014 -0.119861 0.981772
sent_171 -0.333214 0.175637 0.477367 -0.063661 0.208316 0.479192 -0.077652 -0.326377 -0.115921 0.314041 -0.057037 -0.011065 0.142136 0.256048 -0.153876 -0.127235 0.443895 0.069471 -0.031861 0.434900 -0.312718 -0.434909 0.193737 0.591521 0.140609 -0.362480 -0.046079 0.047927 -0.290545 -0.299625 0.053082 0.646832 0.281953 0.088503 -0.057579 0.152876 0.206971 -0.236076 -0.601919 0.160325 -0.047979 0.556465 0.294534 0.477797 0.084560 0.171945 0.009034 0.039362 -0.376092 0.262425
sent_172 -0.360836 -0.213324 0.126611 0.278521 -0.216098 0.173471 -0.280288 -0.157456 0.218681 0.043428 0.007918 -0.127035 -0.148345 -0.238176 -0.020027 0.068914 0.523312 -0.771474 0.794065 -0.004381 -0.088606 0.026196 0.286269 -0.020331 0.233195 -0.018510 -0.087339 0.004235 0.010983 0.017296 0.325427 -0.224193 0.027129 -0.412193 -0.173805 -0.057604 -0.937838 -0.329370 -0.417475 0.306223 0.386670 -0.394786 -0.391955 -0.409283 -0.178254 -0.086309 0.110159 -0.125734 0.090415 -0.177240
sent_173 0.453452 -0.087961 -0.145664 0.101731 0.118162 0.345120 0.398585 -0.165156 -0.528712 -0.550783 -0.567025 0.744504 -0.029867 0.332385 0.089987 0.311389 -0.944955 0.202164 0.137058 -0.340228 -0.158954 0.236795 0.306719 -0.271921 -0.016919 0.405425 0.052566 -0.205364 0.108429 0.792044 -0.263263 0.218000 -0.062425 -0.068876 0.196614 0.218697 0.244909 0.783337 0.964928 -0.362488 0.258907 -0.243764 -0.330001 0.466263 -0.027695 -0.357775 0.227604 -0.289361 0.766402 0.789483
sent_174 0.143344 0.092990 -0.000331 0.697424 -0.065487 -0.387813 0.271648 -0.367927 -0.100064 0.361386 0.356603 0.229178 -0.239017 0.121399 0.771076 0.607835 0.257049 -0.517869 0.319380 -0.457357 0.435399 -0.994838 0.276640 -0.001468 -0.002496 0.602423 -0.342784 0.195067 -0.765721 0.899702 0.345500 0.108664 -0.308739 -0.119417 0.652186 -0.572111 0.201147 -0.064994 0.149297 -0.013667 0.121357 -0.677744 -0.305266 0.302776 0.259059 -0.702623 -0.047140 0.251209 0.485028 -0.711670
sent_175 0.125919 0.326399 0.089589 0.031252 -0.320629 -0.328593 -0.241942 -0.110338 -0.024915 0.130266 0.228940 -0.332465 0.110279 0.157610 0.517787 -0.121216 0.111982 0.253507 0.179350 -0.153436 -0.097759 0.289909 0.064535 -0.454405 0.074589 -0.504822 0.113247 0.066267 0.073350 0.114826 0.045351 -0.131121 0.264307 -0.052659 -0.560426 0.268924 -0.462754 -0.210225 -0.066670 0.553808 0.213775 -0.023806 -0.029234 -0.201324 -0.031491 -0.128716 -0.337089 -0.153208 0.303332 -0.211032
sent_176 0.569438 -0.341319 0.109873 -0.288769 -0.091778 -0.385178 -0.036245 0.276117 0.325620 0.046074 -0.315867 0.288084 0.210219 0.216680 -0.193742 -0.212306 -0.360227 0.285346 -0.106797 0.180395 0.032526 0.409691 -0.014907 0.194143 -0.316857 0.314241 0.106134 0.005197 0.401822 0.263766 -0.246439 -0.094768 -0.272968 -0.130301 0.382189 0.102351 0.191301 0.295147 0.340091 -0.407937 0.071098 0.257000 -0.217400 -0.276256 0.080336 0.229951 0.333929 -0.168671 0.233816 0.175729
sent_177 0.102075 0.198596 -0.031123 0.240124 -0.445675 0.184853 -0.212472 -0.317951 0.442830 -0.233676 0.065423 -0.394325 -0.212684 -0.362199 -0.095917 0.084226 -0.157303 -0.542120 0.290076 -0.391030 -0.325725 0.074538 -0.026855 0.198981 -0.074899 0.003403 -0.244945 -0.030882 -0.013574 -0.214416 0.115413 -0.035822 -0.048371 -0.066238 -0.227691 0.024842 -0.254250 -0.416263 0.434773 0.215386 0.586148 -0.050757 0.028406 0.067622 -0.245569 -0.140372 -0.237402 0.104563 0.046025 -0.043094
sent_178 0.623576 -0.089013 -0.121287 0.149089 0.004058 0.265112 0.410853 -0.288810 -0.510981 -0.527843 -0.603077 0.740023 -0.102567 0.384853 0.173816 0.388465 -0.834427 0.303190 0.194148 -0.460996 -0.298424 0.294460 0.282230 -0.275296 0.095985 0.432658 0.066918 -0.232739 0.069416 0.844284 -0.390933 0.404604 -0.095738 -0.034642 0.284020 0.242020 0.244070 0.876130 0.994803 -0.304996 0.145146 -0.262155 -0.286698 0.380082 -0.022968 -0.340694 0.349585 -0.281116 0.764863 0.880737
sent_179 -0.323940 -0.184524 -0.591093 0.048793 -0.060562 -0.190157 0.139892 -0.258461 0.560261 -0.425769 -0.601184 0.136467 0.201667 0.173154 0.078899 0.166256 -0.547351 0.328566 0.056866 0.226451 0.033857 -0.144583 0.315776 0.447995 0.437620 0.955064 -0.314808 -0.115509 0.363167 -0.436026 -0.648159 -0.390454 -0.589024 0.576608 0.620055 -0.345937 -0.309752 0.402079 0.451578 0.257602 0.812202 -0.394868 -0.155174 -0.092448 -0.021663 -0.818296 0.320213 0.091456 -0.699428 -0.054313
sent_180 -0.137360 -0.173912 -0.002218 -0.220450 0.221093 0.597023 -0.194839 -0.387803 -0.025631 0.514241 -0.233025 -0.276000 -0.140916 0.111664 -0.380715 0.524150 0.941443 -0.317250 0.131158 -0.556096 -0.290306 -0.068840 0.277750 -0.097518 0.250202 -0.078660 0.390638 -0.084041 -0.268500 0.038914 0.341490 -0.006309 0.352006 -0.093824 -0.177864 0.208108 -0.268924 -0.236315 -0.530842 0.514943 -0.280589 0.135686 0.104699 0.215725 -0.088697 0.400095 -0.308686 0.028953 0.095958 -0.017749
sent_181 0.581061 -0.217416 -0.024994 0.187117 -0.178387 0.270977 0.355083 -0.242875 -0.539638 -0.460435 -0.491920 0.699640 -0.123946 0.272700 0.285582 0.319869 -0.785170 0.515364 -0.146229 -0.281773 -0.318759 0.519608 0.307564 -0.216172 0.208190 0.522882 -0.111801 -0.123692 0.069978 0.904164 -0.263803 0.333269 -0.016056 -0.017506 0.252382 0.311080 0.328029 0.805777 1.044438 -0.242293 0.219142 -0.122870 -0.020348 0.407078 -0.138547 -0.327513 0.540651 -0.342040 0.894484 0.911577
sent_182 0.145533 0.131698 1.125591 0.528062 0.444494 -0.374716 0.419761 0.402572 0.686490 0.685574 0.025382 0.156797 0.067845 -0.208740 -0.262312 1.196350 0.243710 0.282578 0.934057 -0.916939 0.249340 -0.406386 0.663141 0.811069 -0.698404 1.037073 0.356328 -0.357181 -1.122208 0.258955 -0.117728 0.282020 -0.735131 -0.284316 -0.049403 -0.198663 -0.919621 -0.159768 0.701773 1.359582 -0.842319 -0.376997 0.070268 0.135044 0.098723 0.007874 0.879721 0.339453 0.108422 -0.565444
sent_183 -0.027083 0.023660 0.271979 0.083380 0.302701 -0.104681 0.162688 -0.241531 0.302962 -0.389964 -0.055201 -0.100813 -0.169666 0.073749 0.040296 -0.020306 0.004184 0.096642 -0.009011 0.078874 -0.019698 -0.195901 -0.004976 0.435191 0.229433 0.035768 -0.330507 0.095289 0.191401 -0.201742 -0.211814 0.130625 -0.169969 0.188757 0.461155 -0.424614 0.003764 -0.140082 0.235655 0.170632 0.188757 -0.254604 0.000086 0.405484 -0.047788 -0.442703 0.093765 0.207056 -0.558450 0.177716
sent_184 0.306495 -0.433666 0.361468 -0.145903 -0.605301 -0.612470 0.302551 0.370523 -0.639806 0.148699 0.134539 0.338725 -0.159828 -0.123811 0.818056 -0.280171 0.641942 0.201661 0.277084 -0.349680 0.052448 -0.383158 0.023196 -0.679713 0.004607 -0.138621 0.166603 -0.324107 0.557572 -0.373925 0.119892 0.394024 -0.314589 -0.581339 0.225028 -0.098824 -0.813772 -0.369155 -0.036624 0.411050 -0.434105 0.012953 0.177619 -0.193716 -0.137171 -0.260558 0.041796 -0.090038 0.013327 0.067627
sent_185 -0.375345 -0.205384 -0.083847 0.139246 0.073042 -0.058085 -0.046260 0.104007 -0.063109 -0.235572 0.215648 -0.049325 0.051377 -0.436770 -0.125769 -0.342243 -0.006642 -0.213645 0.138801 0.042380 0.236395 -0.076669 -0.504665 0.172072 0.148978 0.036623 -0.199159 0.034975 -0.162454 0.130337 0.265406 0.088029 -0.181994 -0.082631 0.367949 -0.387789 -0.627038 -0.125568 0.061937 -0.091957 -0.374484 -0.061483 0.214713 -0.342421 0.059314 0.093995 0.296145 0.299280 -0.410624 -0.003371
sent_186 0.351740 -0.100453 -0.008579 0.047654 -0.017743 -0.199572 0.187847 -0.096464 -0.381633 -0.169706 -0.393039 0.178652 0.174239 -0.045431 0.300330 -0.022020 -0.106302 0.329505 0.359591 -0.255925 -0.378465 0.267996 0.190943 -0.248962 -0.056817 0.103710 0.114382 -0.305791 0.187418 0.395150 -0.128550 0.486503 -0.111415 -0.264627 0.000250 -0.174634 -0.283010 0.153096 0.556439 0.097173 0.285937 0.017823 -0.123733 0.100490 0.022510 -0.128849 0.257802 -0.115481 0.263418 0.348234
sent_187 -0.288028 -0.009277 -0.378919 0.068433 -0.820698 -0.079640 -0.495489 -0.376117 -0.043739 0.404310 0.412008 -0.339012 0.135802 -0.433688 0.563406 -0.058426 0.392569 0.339209 -0.219631 -0.259594 -0.770806 0.119499 -0.188470 0.383225 -0.013975 -0.423312 -0.421531 0.158224 -0.715140 0.404408 0.432158 0.210431 -0.240023 0.092271 -0.021020 -0.049131 -0.509202 -0.764006 -0.226841 0.000313 0.009606 0.290947 -0.125863 0.028219 -0.050613 0.129591 0.117554 0.286475 0.039933 0.015104
sent_188 -0.175398 0.079242 -0.090892 0.089961 -0.030227 -0.048073 -0.292308 -0.048212 0.141538 0.194425 -0.157055 0.101964 -0.053553 -0.115493 -0.081446 0.051438 0.144255 -0.354498 0.074570 0.278911 0.210128 0.023590 0.004789 -0.104950 0.083801 -0.114978 -0.267270 -0.089719 -0.089614 0.459401 0.117162 -0.135036 -0.177451 0.032986 0.079904 -0.024370 -0.096355 -0.112117 -0.419329 -0.144800 0.069996 -0.008734 -0.176886 -0.174024 0.098097 0.027981 -0.110643 -0.037923 -0.084128 -0.101258
sent_189 -0.749067 -0.714779 -0.229656 0.038378 0.072757 0.223392 0.206397 0.015861 -0.567766 0.059091 0.516513 -0.237312 -0.390609 -0.318562 0.205707 0.159084 0.340683 -0.601800 0.326303 0.035241 0.088862 0.011477 -0.125443 -0.567399 0.262936 -0.269922 -0.083505 0.244076 0.331762 -0.126050 0.318724 -0.023380 -0.010214 -0.313850 -0.498446 -0.372555 -0.643939 -0.286969 -0.595801 -0.062969 0.067134 -0.628793 0.392792 -0.525385 -0.667327 0.030572 -0.055716 -0.212291 -0.030000 -0.427781
sent_190 0.020125 0.103584 0.321395 0.166080 0.433195 -0.655786 0.131596 0.050170 0.455619 -0.368924 -0.206323 0.076248 0.160205 0.153027 -0.112724 -0.105057 0.160001 0.067316 0.634719 0.395423 0.280417 0.100321 -0.205706 0.447884 -0.034840 0.142680 -0.324179 -0.156089 0.254125 -0.163516 -0.431503 -0.084497 -0.287096 -0.150894 0.245210 -0.239234 -0.223779 -0.060227 -0.231470 0.175832 -0.059543 -0.133980 -0.270592 -0.276570 0.020426 -0.077796 0.110156 -0.037064 -0.244730 -0.176838
sent_191 -0.154324 -0.154753 0.119457 0.214991 -0.383524 0.131535 0.076623 0.254696 0.102972 -0.176248 0.002993 0.105362 -0.062200 -0.340957 -0.387568 0.022098 0.083436 -0.551690 -0.116670 0.275920 -0.271944 -0.198019 -0.007438 -0.060781 0.290378 0.131203 0.104869 0.097436 -0.374026 0.505541 0.214132 0.252468 -0.480296 -0.022008 0.689241 -0.657797 -0.299824 -0.497688 -0.177039 -0.487639 0.059744 -0.202994 0.092499 -0.005510 0.160911 -0.148203 0.323543 0.167577 -0.363592 0.060729
sent_192 0.083710 -0.255911 0.281898 -0.089882 0.210619 0.194834 -0.138001 -0.272376 0.264598 -0.027192 0.102985 -0.690076 0.043520 -0.320182 -0.331906 -0.232698 0.287499 -0.002528 -0.534404 0.222066 -0.680490 0.257846 -0.125670 0.180209 0.229988 -0.258797 -0.462651 0.515807 -0.000361 0.073749 0.016089 0.257272 0.047891 -0.286993 -0.093845 -0.160753 -0.123630 -0.319362 -0.122248 0.055215 0.001672 0.424953 0.115813 0.194419 -0.356816 0.301408 0.041622 0.004603 -0.067826 0.229548
sent_193 0.039807 0.147328 0.117378 -0.067876 0.312725 0.194997 -0.076360 -0.318048 0.276479 -0.164259 -0.089095 0.076227 0.705476 0.014398 0.115785 -0.062119 0.612799 -0.185250 0.201919 0.588735 -0.342317 0.182639 0.473592 0.609364 -0.068660 -0.228051 -0.312506 -0.262590 -0.023556 0.102662 -0.204677 0.329664 -0.207872 0.256338 0.146825 -0.175273 -0.173905 -0.799289 -0.138278 -0.305246 0.076216 -0.207772 0.057609 0.223498 0.000191 -0.497849 -0.255727 0.370773 -0.380213 0.211196
sent_194 -0.245523 -0.060324 -0.269334 -0.201828 -0.472859 -0.359161 -0.433099 0.380512 0.240314 0.608841 -0.114798 0.359185 0.310403 -0.202491 0.377993 -0.000927 0.031582 -0.015764 -0.069983 0.245464 0.053830 0.111048 0.070624 -0.525182 -0.508495 -0.226000 0.208762 -0.247605 -0.052758 0.092185 -0.357245 -0.000700 -0.301379 0.164450 -0.246601 0.171701 -0.266051 -0.267001 0.131003 -0.210214 -0.306686 0.298480 -0.309832 0.212348 0.146810 0.064596 -0.018577 -0.004384 -0.122892 0.094689
sent_195 0.520981 -0.348687 0.542611 0.014414 0.005175 0.184256 0.139716 0.364631 -0.230273 -0.050650 0.138435 0.019583 -0.348900 -0.248606 0.172635 -0.313991 -0.196704 -0.181713 -0.182191 -0.153262 -0.067747 -0.035689 -0.082409 -0.203732 0.004836 -0.252754 -0.025278 0.195388 0.170168 -0.053817 0.047322 0.364984 -0.223950 -0.374838 0.138211 0.048548 0.231075 0.166634 0.274158 -0.424390 0.286891 0.081950 -0.156024 0.140983 -0.366861 0.023495 0.303377 -0.265102 0.029801 0.346609
sent_196 0.122591 -0.220803 0.004070 -0.010465 0.677738 0.277406 0.771126 0.206321 0.291779 0.114143 -0.882804 -0.577091 0.714110 -0.059018 -0.375510 0.662073 0.867993 -0.405594 0.254049 -0.303743 -0.224577 -0.290999 -0.126427 0.304993 0.529565 0.461253 -0.062297 -0.139140 -0.372680 -0.366441 -0.507772 0.234560 -0.084527 0.213568 0.561898 -0.449947 -0.226608 -0.054645 -0.246677 0.029235 0.228120 -0.369827 0.166092 0.232107 -0.625827 -0.184254 -0.292607 0.317399 -0.819458 0.087940
sent_197 -0.573343 -0.117295 0.162280 -0.100098 0.638534 0.869247 0.628303 0.081065 -0.272951 0.016318 0.744259 0.246754 -0.654170 0.127660 -0.465172 -0.061430 -0.035355 0.053918 -0.345509 0.479700 0.085362 -0.301747 0.218170 0.612891 0.381600 0.220790 0.140118 0.051106 -0.160176 -0.425159 0.392483 0.005989 0.401490 0.059420 -0.674514 0.647984 0.884798 0.038025 0.018194 0.047940 -0.599119 0.468632 1.278010 0.220743 -0.174730 0.162541 -0.016184 -0.226275 0.419728 0.015173
sent_198 -0.116394 -0.108483 0.096953 0.012104 -0.095477 0.085005 -0.058775 0.147240 0.235418 -0.093740 0.242075 -0.338852 0.395402 -0.240706 0.078253 0.031790 0.440040 -0.180420 -0.155949 0.380154 -0.300676 0.360129 0.038843 0.096890 0.224918 -0.176914 -0.111275 0.150777 -0.190315 -0.257018 -0.184401 0.162542 -0.152722 0.145621 0.110668 -0.499700 -0.149085 -0.628069 -0.030501 -0.322931 0.233919 -0.561492 0.108991 -0.181146 0.047721 -0.395871 0.185670 0.252728 -0.619846 -0.037109
sent_199 0.085429 0.024401 -0.283153 -0.182851 -0.498259 -0.330559 -0.789131 -0.539888 0.312703 0.580349 0.142788 -0.419721 0.483685 -0.557542 0.774852 0.046803 -0.204483 0.130036 -0.108883 -0.088808 -0.068868 0.897179 0.111832 -0.513069 -0.123222 -0.482151 -0.160696 -0.156983 0.496771 0.459542 0.246210 0.151186 0.051003 0.393254 -0.433997 0.472839 -0.656629 -0.202803 0.226910 0.624738 -0.116083 0.514987 0.055951 -0.286362 -0.544989 0.015237 -1.008015 -0.011213 -0.000578 -0.528178
sent_200 0.117945 0.029531 0.289624 0.121898 0.103226 -0.367271 0.177378 0.081534 0.365064 -0.144447 -0.498138 0.311315 0.353038 0.218489 0.251664 -0.114269 0.217211 0.143918 0.229463 0.465514 0.158931 0.237630 0.269365 0.303321 -0.017624 0.180117 -0.340112 -0.320809 0.516070 -0.006727 -0.370978 -0.242214 -0.112710 -0.015631 0.257354 0.039334 -0.322184 -0.344446 -0.270003 0.430932 -0.001392 0.026463 0.014562 -0.173976 0.044411 -0.287725 0.075197 0.025915 -0.130548 -0.049306
sent_201 0.211410 -0.781826 -0.163316 -0.116167 -0.181274 -0.217571 -0.251022 0.461012 0.111224 -0.275970 -0.514229 0.259771 0.405813 -0.552497 -0.103525 -0.349050 -1.064764 -0.279096 -0.236064 -0.157626 0.057115 0.793126 -0.432858 -0.598705 -0.503398 0.468105 -0.119768 -0.047000 0.531556 0.407867 -0.039908 -0.167834 -0.155324 -0.293877 0.369395 0.066978 0.312093 0.360643 0.952355 -0.176946 -0.510840 0.481587 -0.264418 0.020990 -0.230432 0.260845 0.033971 -0.168334 0.554762 0.286314
sent_202 0.998635 -0.493346 0.587347 -0.077445 -0.176973 -0.011171 0.176588 0.224166 -0.155230 -0.565931 -0.592782 0.422436 -0.337042 -0.003153 -0.109444 -0.132887 -0.930647 0.126974 -0.008182 -0.388658 -0.187956 0.697537 -0.004846 -0.587206 -0.335983 0.357077 0.597207 -0.171141 0.418180 0.898979 -0.304068 0.541902 -0.216138 -0.361017 0.415856 0.245860 0.174226 0.341053 1.382631 -0.067316 -0.039869 0.392414 0.117600 0.392335 0.018123 0.199404 0.424469 -0.259268 0.780617 1.014114
sent_203 -0.058144 -0.320880 -0.121712 -0.072705 0.031050 0.171045 -0.204719 -0.085454 0.053121 0.013653 -0.135100 0.345661 0.451473 -0.116657 0.397672 -0.157978 0.100197 -0.154088 0.217305 0.210857 -0.120926 0.722148 -0.140390 -0.124580 -0.388721 -0.058772 -0.277092 -0.108783 0.314858 0.658631 -0.063471 -0.209341 0.176800 -0.146900 0.007712 0.502255 -0.295687 0.102076 0.197664 -0.181617 -0.009141 0.391280 -0.211431 0.106625 -0.431386 0.202075 -0.239467 -0.262547 0.504168 0.461482
sent_204 -0.407471 -0.306710 -0.315278 -0.120634 -0.759387 -0.742867 -0.827596 0.141221 0.342092 0.313068 -0.038874 0.207451 -0.266777 -0.291379 0.585948 -0.101797 0.413358 0.187104 -0.032355 0.779651 0.187176 0.204115 0.050047 -0.500845 -0.736638 0.192054 0.251386 0.068226 0.203517 0.225273 -0.372617 -0.186847 -0.344525 -0.044031 0.092470 -0.026226 -0.207808 -0.336628 -0.022906 0.514194 -0.436812 0.298662 -0.447168 0.186004 0.307939 0.021643 0.012639 -0.007894 0.139906 0.013528
sent_205 -0.326512 0.197621 0.157882 -0.045101 -0.032958 0.664098 0.050397 -0.501454 -0.053176 0.241011 0.189024 0.138502 0.304816 -0.006987 -0.246748 0.069021 0.249129 -0.133252 -0.230839 0.442130 -0.589303 0.019741 0.317585 0.263517 0.178865 -0.168449 0.262911 0.226982 -0.109450 0.477299 0.309042 0.315266 0.199580 0.079656 -0.314088 0.306489 -0.007312 -0.293387 -0.632344 0.195896 0.086546 0.247684 0.314588 0.392900 -0.126694 0.051555 -0.508110 -0.130333 0.224668 0.027900
