sent_0 -0.190847 -0.853422 -0.273301 -0.710137 -0.004541 0.380972 -0.180935 -1.077063 0.525151 0.322954 -0.842274 -0.057587 -0.420042 0.397365 -0.473792 0.275360 0.798091 -0.633833 0.117925 0.029422 -0.358740 -0.081179 0.510897 0.571005 0.362300 0.447149 0.288792 -0.508124 0.839806 -0.435557 0.278911 -0.472188 0.240225 0.332252 0.306582 -0.528215 0.182973 0.966693 -0.222543 0.452158 0.003768 -0.121889 -0.576375 0.089367 -0.154660 -0.023084 -0.101979 -0.099164 -0.077580 -0.436762
sent_1 -0.157442 0.062630 0.110314 0.110127 0.091912 0.409457 -0.244372 -0.352867 -0.205089 0.092747 -0.345901 -0.424994 -0.024507 -0.467805 0.238367 0.177183 -0.433257 0.296825 -0.177046 -0.217777 -0.216061 0.368358 -0.002708 -0.272915 0.150060 -0.598774 0.010748 0.206394 0.680244 -0.506623 0.377201 0.422007 -0.213869 0.109560 -0.156156 -0.040287 -0.618049 0.028417 -0.077666 0.543759 0.656811 -0.106764 0.018400 -0.089610 -0.071529 0.178970 0.030802 -0.399900 -0.095069 -0.003555
sent_2 -0.105238 -0.038355 -0.063103 0.056527 -0.257002 0.204034 -0.456109 -0.294051 -0.476920 0.892462 0.246544 -0.622886 -0.063454 0.144820 -0.145153 -0.208004 0.273664 -0.048913 0.043343 0.650083 0.276653 0.037135 -0.058219 0.291706 -0.008874 -0.176512 0.423237 0.427237 -0.266959 0.066239 0.645489 -0.064754 0.161083 0.300424 -0.433553 0.103780 0.340949 0.204405 -0.409107 0.015189 0.261316 -0.060861 -0.493650 -0.066368 0.252900 0.273327 -0.522425 -0.029861 -0.005902 -0.324165
sent_3 0.155011 0.411028 -0.556130 0.127781 0.018299 0.114684 -0.159262 -0.037728 0.107854 0.029004 -0.177484 -0.167580 0.032908 -0.031747 -0.114580 -0.294656 -0.030468 -0.357868 0.244433 -0.097843 0.124211 0.343134 0.018417 0.191132 -0.327261 -0.341335 0.376921 0.120302 0.337220 0.523331 0.549768 -0.584181 -0.207471 -0.032206 -0.588473 0.268232 -0.513193 -0.103651 0.034114 0.202553 0.215397 -0.267821 -0.208171 -0.168888 0.212153 0.213261 -0.146519 0.000428 -0.181868 -0.510452
sent_4 -0.182377 -0.224202 0.125429 0.055643 0.195046 -0.070285 -0.037228 -0.147041 -0.031047 -0.093224 0.306890 -0.057934 -0.131044 -0.074050 0.077438 0.056947 0.343886 -0.530420 0.032264 0.027662 0.063777 0.150768 0.130946 0.235081 -0.091132 0.190198 0.000058 -0.233651 0.407209 0.000434 0.714086 -0.290221 0.168484 -0.066356 0.082859 -0.246859 -0.048564 -0.060198 0.215449 0.125965 -0.221180 -0.083418 0.127417 0.092944 -0.197733 -0.084554 -0.271037 0.165041 -0.041192 -0.241527
sent_5 -0.155955 -0.076693 0.480249 -0.296104 0.157297 0.285481 -0.267733 0.040560 -0.196057 0.409191 0.528392 -0.093953 -0.115998 0.437852 0.221528 0.230839 0.065758 -0.317231 -0.444745 0.479816 0.061975 -0.534782 -0.288381 0.398085 0.078544 -0.495363 0.366157 -0.117649 0.085345 -0.349362 0.298346 0.461187 0.036484 -0.025785 0.284115 0.287435 0.682258 -0.385017 -0.334361 -0.163519 -0.049365 0.387784 0.392412 0.427286 0.201467 0.219218 -0.492575 0.004149 -0.021230 0.380604
sent_6 0.875455 0.347131 0.664699 0.020660 -0.053702 -0.908584 -0.060465 0.835773 0.216698 -0.053465 -0.308336 0.642721 0.394500 -0.032469 -0.290019 1.092008 0.198262 0.567375 0.578431 -1.432543 -0.411212 -0.276476 0.449592 0.549901 -1.258010 -0.232888 0.123958 -0.524453 -1.023310 0.441187 -0.335356 0.269515 -0.649090 -0.512105 0.265893 0.255913 -1.238426 0.118183 0.778463 0.340052 -0.665213 -0.088016 -0.515118 0.088674 0.096444 0.574483 1.433938 0.268792 -0.108418 -0.576915
sent_7 0.682611 -0.406424 -0.166463 0.491694 -0.878571 -0.590942 0.065180 -0.029877 -0.593044 0.019101 0.288932 0.320897 -0.030192 -0.114894 0.672580 0.500820 0.532900 -0.144750 -0.104050 -0.640802 -0.102526 -0.569017 0.180465 0.324551 -0.328117 0.250337 0.204926 0.096823 -0.618926 0.722921 0.345489 0.723217 -0.542219 -0.050799 0.869640 -0.774679 0.013146 -0.208677 0.108183 -0.618431 0.186168 -0.192090 -0.687500 -0.348424 -0.140154 -0.452372 -0.056285 0.433700 -0.141059 -0.654501
sent_8 -0.445668 0.003903 -0.843001 0.218643 -0.699683 0.202584 -0.633265 -0.632789 0.479029 0.779827 -0.127688 -0.407794 0.214287 -0.594128 0.462174 0.182172 0.156517 0.365534 -0.374917 0.527940 -0.717480 1.019879 0.072168 0.448973 -0.097436 0.028712 0.066455 -0.140582 0.133275 0.014328 0.581589 -0.321054 -0.449092 0.127624 -0.291177 -0.318774 -0.420935 -0.466384 0.277811 0.946576 0.225927 -0.133264 0.100293 -0.147278 0.224507 0.358516 0.076497 -0.038981 -0.284409 -0.305743
sent_9 0.006968 -0.388488 -0.358824 0.063921 -0.517246 0.018924 -0.361792 -0.281775 0.091431 0.059530 -0.105620 -0.202825 -0.094112 -0.415323 -0.146805 -0.061414 -0.410061 0.370328 0.199139 -0.102069 -0.162964 0.371365 -0.429847 0.347510 -0.305989 0.228532 -0.031629 0.354251 -0.168790 -0.054460 0.090042 0.012947 -0.029473 -0.042590 -0.227388 0.071669 0.092667 0.019977 0.162657 0.442012 -0.166020 0.059112 -0.346547 -0.327579 -0.053669 0.098008 0.119812 0.058588 0.074163 -0.241581
sent_10 1.197868 0.098201 0.415376 -0.208295 0.155509 -0.507378 0.392198 0.496983 -0.062100 -0.256744 -0.597405 0.512395 -0.237454 0.275082 -0.374595 0.386341 -0.188033 0.413429 0.227044 -0.727141 -0.231829 0.126388 0.551652 -0.478637 -0.650372 -0.394881 0.159593 -0.308995 0.119234 -0.009092 -0.388855 0.365214 -0.338112 -0.482146 0.162820 0.399348 0.123390 0.323226 0.789165 -0.195774 0.233310 0.110880 0.224567 -0.140265 -0.125649 0.401424 0.274697 -0.087815 0.646017 0.219532
sent_11 0.780470 -0.175003 0.238249 -0.111182 -0.620851 -0.414137 0.405324 0.160042 -0.332648 -0.352727 -0.220233 0.629341 -0.961790 0.214006 0.215770 0.415880 -0.691092 0.472032 -0.001934 -0.042029 0.049483 0.371354 -0.209050 -0.510227 -0.693963 0.282661 1.134999 -0.082123 0.656975 0.308855 -0.268740 0.396308 0.325717 -0.255772 0.226169 0.035690 0.635295 0.772662 1.180655 0.205706 0.302764 0.047617 0.148036 0.072103 -0.371252 0.042667 -0.288064 -0.052502 0.803323 0.531013
sent_12 -0.203636 -0.102963 0.467847 -0.312512 0.674723 0.538582 0.263753 -0.042541 -0.392953 -0.267695 0.998376 0.125244 0.344654 0.476794 -0.269144 0.328086 -0.077119 -0.318077 -0.432230 -0.011054 0.011026 -0.120106 0.756473 0.148446 0.530771 0.203742 -0.303177 -0.170605 -0.072600 -0.595739 0.234194 0.280373 0.069826 0.577010 -0.529267 0.930232 1.078194 -0.753355 -0.531918 -0.363857 -0.416818 0.018558 0.963172 0.129789 -0.137313 -0.308886 -0.539028 0.428274 0.092345 -0.279683
sent_13 -0.173550 -0.553032 -0.249879 0.358779 -0.379352 0.286870 -0.233953 -0.010503 0.007553 0.793410 0.054295 -0.032746 0.117618 -0.538425 -0.303962 0.353765 -0.314902 -0.380353 0.603016 -0.596511 -0.007521 -0.532940 -0.400513 0.560373 0.465548 -0.012700 0.039981 0.342597 -0.915242 0.975705 -0.134280 0.356120 -0.396770 -0.292831 0.027965 0.067868 -0.790597 0.157007 0.182499 0.041411 0.197161 -0.245607 -0.263083 -0.432794 0.425853 0.080653 1.199239 -0.132330 -0.455070 -0.418805
sent_14 -0.362295 -0.550234 0.109521 -0.017027 -0.129436 -0.162960 -0.182484 -0.309368 -0.096237 0.023813 0.106379 0.561240 0.341895 0.430832 0.082828 0.572606 0.107635 0.018796 -0.161386 0.487290 -0.395975 -0.475156 0.240486 0.438426 -0.317949 0.295044 0.153996 0.121467 -0.359212 0.485408 -0.240407 0.368559 -0.005006 0.087239 0.589224 -0.038393 0.870834 0.131707 -0.008634 0.158690 -0.269408 -0.036863 0.135917 0.159965 -0.223431 -0.046848 -0.484242 0.406296 -0.124438 0.316823
sent_15 -0.268844 -0.112872 0.210577 -0.081010 0.379462 0.136741 -0.347815 -0.272515 -0.276914 0.408531 0.033130 -0.177293 0.411557 0.109610 0.038903 0.153825 0.001562 -0.268034 0.119886 0.012669 0.013177 -0.330247 0.062090 0.397066 -0.102738 -0.146505 -0.099148 -0.015913 -0.331401 0.290615 0.162093 0.237892 0.037689 0.165346 0.139805 0.118036 0.316445 -0.167886 -0.369567 -0.237911 0.217571 0.207990 -0.059598 0.295571 -0.017483 0.288323 -0.596363 0.013356 -0.030683 0.215284
sent_16 -0.096461 0.297794 0.229839 0.026778 0.309861 0.492981 0.387053 0.058969 0.047774 0.432951 1.027960 -0.147887 -0.558876 0.012103 0.361053 -0.208432 -0.030711 -0.109039 -0.587506 0.396882 0.297826 -0.081604 0.228637 0.396262 0.561975 -0.010578 0.441650 -0.264359 0.224517 -0.609178 0.391723 0.091044 0.030903 -0.053747 -0.348722 0.752351 0.713026 -0.148309 0.149642 0.095976 -0.139236 0.448448 1.220383 0.156743 0.251904 0.111097 0.253392 -0.157064 0.235869 0.213627
sent_17 0.150491 -0.392096 0.218212 -0.393329 0.693943 0.177993 -0.119830 -0.337696 -0.134159 0.180638 0.456547 -0.138820 -0.188496 0.158166 -0.285694 0.455122 0.729254 -0.676228 -0.212295 0.003441 -0.029711 -0.369213 -0.169540 0.142855 0.727656 0.160313 0.042679 -0.350402 -0.501211 -0.618228 -0.012867 0.400829 0.587489 0.839325 0.119804 0.040032 1.065319 -0.029136 0.012864 -0.752757 -0.413446 0.261555 0.417352 0.681906 -0.267655 -0.265366 -0.255757 0.722360 -0.222829 0.258873
sent_18 0.865675 -0.201486 0.100032 -0.173080 -0.070607 -0.147117 0.090710 0.240102 -0.121657 0.162100 -0.365060 0.185001 -0.280524 0.047500 0.160437 0.250261 -0.522026 0.425716 0.289556 -0.728633 -0.252621 -0.045629 -0.108575 0.128253 -0.671585 -0.028724 0.059657 -0.056864 -0.487683 0.544244 -0.269603 0.341081 -0.173798 -0.425853 0.211152 0.114392 -0.356561 0.140264 1.105095 0.224056 0.044881 0.071870 -0.252544 0.210905 -0.091952 0.175860 0.386097 -0.049336 0.692225 0.221572
sent_19 -0.217270 -0.138312 0.156481 -0.068446 0.272705 0.191237 -0.723511 -0.264159 -0.130137 0.386022 -0.116271 -0.288821 0.270018 0.392207 -0.158537 -0.199679 0.112714 -0.406329 0.020772 0.154722 0.041974 -0.245862 0.241948 0.130912 0.076142 -0.516090 -0.815620 0.228792 -0.357259 0.672880 0.115662 0.096093 0.053145 0.387984 -0.123746 0.281908 0.433471 -0.580944 -0.296432 -0.175025 0.127785 0.255436 -0.378038 0.460673 0.011635 0.070764 -0.562086 0.024972 -0.170359 0.139901
sent_20 -0.455702 -1.026835 -0.257999 -0.162899 0.271135 0.177660 -0.571686 -0.540606 -0.627373 0.240940 -0.332697 -0.017138 -0.057157 0.348099 0.052249 0.375596 0.600970 -0.480300 0.159439 0.025264 -0.195206 -0.500853 0.153949 0.321538 0.292813 -0.078640 0.087812 -0.157581 -0.031869 0.025210 -0.055957 0.313692 0.422975 0.225233 0.072489 0.388516 0.195734 -0.296875 -0.449475 -0.036531 -0.354708 0.235921 0.251659 0.261811 -0.338880 0.582199 -0.238184 0.194619 -0.002472 0.115171
sent_21 0.004375 -0.179681 0.126142 -0.084127 0.040103 -0.026477 -0.155616 -0.160977 -0.145215 0.115681 -0.279811 -0.126666 0.262071 -0.127681 0.281355 -0.068395 0.135862 -0.174725 0.047336 -0.065091 -0.142889 -0.110191 -0.251204 0.015444 -0.096773 -0.386795 0.108627 0.015802 0.102679 -0.263369 0.362317 0.208592 0.143563 -0.131912 0.229952 -0.136293 -0.200632 -0.249560 -0.321376 0.003148 0.095564 0.056326 0.013396 0.057232 -0.077089 0.328173 -0.093221 0.099402 -0.048581 0.168528
sent_22 -0.174920 -1.010741 0.189340 -1.025216 0.321860 0.026973 -0.239789 -1.121220 0.429070 0.302606 -0.658349 -0.043055 -0.482340 0.764381 -0.259338 0.319952 0.593351 -0.668943 0.251064 0.122698 -0.202444 -0.366702 0.741440 0.465830 0.313434 0.356481 0.143663 -0.674075 0.524110 -0.141377 -0.271053 -0.097679 0.324147 0.599322 0.368320 -0.349004 0.325821 0.679092 -0.158566 0.327292 -0.260110 0.030957 -0.480015 0.491749 -0.084608 -0.206190 -0.506699 0.068352 0.033009 -0.273664
sent_23 -0.038248 -0.824167 -0.193577 -0.913062 0.235161 0.089330 -0.149043 -1.050497 0.854944 0.250355 -0.866289 0.007075 -0.460838 0.509490 -0.489839 0.240203 0.807956 -0.735060 0.056713 0.074998 -0.359512 -0.394837 0.408959 0.643476 0.312857 0.372818 0.149405 -0.482790 0.747442 -0.292152 -0.110759 -0.494296 0.046173 0.244692 0.579524 -0.535850 0.049496 0.853183 -0.165254 0.351456 -0.187910 -0.091170 -0.743853 0.188079 -0.028645 -0.132004 -0.195654 0.045405 -0.253254 -0.310506
sent_24 -0.113373 -0.343651 0.240496 0.192164 -0.158901 -0.210816 -0.487610 -0.037053 -0.218402 0.523090 0.090426 0.144219 0.203834 -0.005880 0.323228 0.464533 0.058062 -0.392692 -0.071377 -0.000053 -0.014560 -0.429672 0.361599 0.349630 -0.464185 -0.311393 -0.170952 0.200022 0.120994 0.772905 0.377030 0.369062 -0.377344 0.024531 0.275106 -0.046714 0.099525 -0.098584 -0.211072 0.073625 -0.116128 0.286130 -0.335223 0.137156 -0.069403 0.097244 -0.514498 0.132870 -0.204478 -0.365476
sent_25 -0.742660 0.349778 0.322966 -0.383085 0.611146 -0.465756 -0.403689 -0.360003 0.766426 -0.302388 -0.066980 -0.600262 0.239352 -0.142985 -0.409968 0.075174 0.082152 0.527161 0.262662 0.131679 -0.385320 0.422745 -0.205442 0.644637 0.678053 -0.170343 -0.749368 -0.217259 -0.195699 -0.297888 -0.247605 0.430147 -0.031271 0.991931 -0.205579 -0.120745 -0.560846 -0.188567 0.320102 -0.348525 -0.042256 -0.229930 -0.279862 0.609264 0.528832 -0.347323 1.065492 0.107812 -0.573710 0.444670
sent_26 -0.244551 -0.049215 -0.006741 -0.052251 0.037386 0.223415 -0.820629 -0.214750 -0.103727 0.517600 -0.120230 -0.367804 0.281615 0.383840 -0.246334 -0.218244 0.086314 -0.391724 -0.073866 0.271714 0.040167 -0.281472 0.263574 0.104517 0.009562 -0.613524 -0.764366 0.213536 -0.410142 0.646047 0.170781 0.000442 -0.090487 0.413886 -0.169384 0.353122 0.573353 -0.723277 -0.498770 -0.171822 0.284628 0.168944 -0.502655 0.375446 0.083875 0.188028 -0.637543 0.015750 -0.218932 0.125166
sent_27 0.006487 0.065958 -0.150822 0.353107 0.402361 -0.182587 -0.280108 -0.381897 -0.179669 -0.107864 -0.004635 -0.468369 0.250811 -0.270441 0.170475 0.259171 0.228042 0.210740 0.276485 0.076939 -0.106688 0.131586 -0.002500 0.512740 0.192763 0.052743 -0.110639 0.034109 -0.687887 -0.160889 -0.024306 0.259479 -0.088709 0.331285 -0.105054 -0.169024 -0.079995 0.006879 0.271883 0.067059 0.404326 -0.281065 -0.023196 -0.158105 -0.069681 -0.012407 0.054656 0.166329 -0.355110 -0.153545
sent_28 0.116559 -0.302042 0.055910 0.189801 -0.026039 -0.051630 -0.015218 -0.077751 0.134789 0.220044 0.066685 -0.240776 0.009433 -0.245063 -0.214567 0.273816 -0.253346 -0.265911 0.561568 -0.624281 0.054248 -0.179103 -0.058798 0.437320 0.410712 0.152419 -0.004894 -0.142716 -0.598490 0.395882 -0.183171 0.183712 -0.156820 0.072392 -0.211806 0.222648 -0.523404 0.224794 0.583323 0.335609 0.010805 -0.131105 0.156240 -0.076879 0.052612 0.080936 0.849474 -0.096588 -0.205450 -0.413407
sent_29 -0.019918 -0.134043 -0.239664 0.345543 -0.312592 0.025244 -0.185181 -0.088954 -0.045624 -0.135902 -0.313011 0.109910 0.217752 -0.316730 0.387005 0.014756 0.016941 -0.217742 -0.072822 0.168931 -0.273908 0.366184 -0.064814 -0.102031 -0.053490 -0.044192 -0.012963 0.055347 0.226327 0.135229 0.295822 0.096633 -0.152312 0.177012 0.015905 -0.564050 0.114418 -0.403896 0.257642 -0.269202 0.340062 -0.164673 -0.174905 -0.030237 0.114632 -0.169589 -0.251196 0.342027 -0.141502 -0.021142
sent_30 0.116508 0.367642 0.258394 -0.243085 0.174086 0.121758 -0.183707 0.114803 0.104115 0.402775 -0.343261 -0.328151 0.096508 -0.055263 0.452092 0.088061 0.338318 -0.510029 0.044890 -0.019997 -0.128552 -0.064838 -0.188905 0.062752 0.373567 -0.640226 0.022623 -0.411084 0.083688 -0.067675 0.359046 0.101564 0.355242 0.027198 -0.071836 -0.002218 0.173058 -0.063653 0.098319 -0.367226 0.449779 0.147360 0.045115 0.563812 0.048273 0.513657 -0.122103 -0.246930 0.085895 0.665036
sent_31 -0.132075 0.360043 0.909254 0.117804 0.543322 0.165982 0.251534 -0.163279 -0.381737 0.355774 0.381104 -0.053005 -0.143654 -0.058865 -0.073867 0.229214 0.144317 -0.418657 -0.405966 0.050134 0.111373 -0.342079 0.364193 -0.117131 0.162636 -0.551145 0.031389 -0.013028 0.070706 -0.188819 0.929779 0.233404 0.051404 -0.225078 -0.170630 0.310121 0.223668 -0.357173 -0.435892 0.263160 0.206222 -0.024914 0.915785 0.219614 -0.341484 0.505148 -0.491147 -0.163326 -0.072719 -0.011706
sent_32 -0.508869 0.034662 0.299334 -0.031471 0.334961 0.015997 -0.002084 -0.241382 0.362874 0.179724 0.233854 0.204419 0.050337 0.005247 -0.191809 0.345065 0.059845 -0.270701 -0.149354 0.160392 -0.148020 -0.289129 0.126189 0.249416 -0.059854 -0.075886 -0.044552 -0.129134 -0.062129 0.132451 -0.092699 -0.259028 0.048494 0.072077 -0.002838 0.208248 0.426956 -0.199252 0.019967 0.303418 -0.100306 -0.128217 0.293662 0.310859 -0.136931 0.133597 -0.474069 0.117799 -0.144258 0.152646
sent_33 -0.543644 0.092210 0.063685 0.293203 0.298496 0.237864 0.222265 -0.171291 -0.063563 -0.167377 0.980196 -0.051920 -0.445387 0.283817 -0.297097 0.076338 -0.165063 -0.479084 -0.212728 0.531385 0.341214 -0.070692 0.064042 0.516041 0.025949 0.554818 0.456857 -0.097848 -0.123291 0.184512 0.504219 -0.296559 -0.021399 0.021721 -0.279050 0.219905 0.876258 -0.044371 0.157217 0.331604 -0.202210 -0.063212 0.345209 0.127141 0.152774 -0.015680 -0.279109 0.114267 0.011222 -0.179125
sent_34 -0.085563 -0.136786 -0.122052 -0.499277 0.191545 0.715582 -0.032021 -0.470355 0.268491 0.467355 0.337716 -0.206573 -0.173452 0.040304 0.522682 -0.107177 0.640098 -0.046656 -0.416210 0.446132 0.009060 0.014649 -0.101470 0.279787 0.838467 -0.081112 0.347712 -0.203186 0.704855 -1.412938 -0.203101 -0.236723 0.600174 0.366193 -0.065685 0.224672 -0.018997 0.353735 -0.536799 0.300039 -0.358778 0.028611 0.313827 -0.024100 -0.019038 -0.154360 -0.009673 0.064716 -0.106589 -0.001116
sent_35 0.327398 0.298151 -0.611543 -0.450524 0.045452 -1.009477 0.371327 0.506554 0.116503 -0.851840 -1.272577 0.180727 0.468007 0.161940 -0.560949 -0.392305 0.161558 0.830021 0.643058 0.029212 -0.163920 0.214443 0.398134 0.239899 -0.953432 0.079994 -0.262957 -0.689088 -0.182437 -0.404587 -0.316208 0.036820 -0.570273 -0.605834 0.647263 -0.148669 -0.091443 0.397299 -0.026857 -0.572678 0.220737 0.009988 -0.029210 -0.480738 0.205845 0.217438 0.759849 -0.489012 0.391868 0.611705
sent_36 -0.033263 -0.182400 -0.305363 0.289143 -0.365462 -0.423642 -0.315283 -0.044502 0.028809 -0.130175 0.039637 0.261082 0.175350 -0.297796 0.522969 0.335930 0.256540 -0.905862 0.385218 -0.006844 -0.196700 0.018342 0.190325 0.385189 -0.143865 -0.049466 0.035001 -0.506822 0.246374 0.584267 0.147683 -0.147813 -0.427379 0.138543 -0.092565 -0.230632 0.022551 -0.537320 0.385932 0.170763 0.071467 -0.367780 -0.248709 -0.157350 0.074423 0.122484 0.002832 0.345506 -0.257870 -0.359953
sent_37 -0.288733 0.280826 0.659221 0.136820 0.284819 0.113484 0.455621 0.135625 -0.063981 0.280919 0.858605 0.101397 -0.125126 -0.177297 0.079082 0.043954 0.000030 -0.119301 -0.358900 0.094085 0.105371 -0.128688 0.576033 -0.054303 0.325385 -0.137624 0.010658 -0.248117 -0.011487 -0.602718 0.398925 0.186801 -0.223364 0.029889 -0.427505 0.357028 0.498648 -0.511384 -0.267692 -0.154059 -0.128328 0.266269 0.848571 0.009626 0.318402 0.176713 0.186762 -0.206778 0.226012 -0.098227
sent_38 -0.627526 -0.484378 -0.248219 -0.227784 0.360299 -0.478972 0.416258 -0.064572 -0.252818 -0.595521 0.620212 -0.255885 0.090317 0.095480 -0.059560 0.263529 0.696115 -0.486535 0.376271 -0.018722 0.280298 0.161814 0.219525 0.377370 -0.016502 0.672326 0.274190 -0.729817 0.484473 -0.315184 0.794781 -0.499542 0.068355 -0.150258 0.527243 -0.665056 -0.545270 0.261992 0.051802 -0.075533 -0.045961 -0.399387 -0.110000 -0.039768 0.068279 -0.478439 -0.022210 -0.217473 0.017451 -0.491995
sent_39 0.097972 -0.092765 -0.598032 0.078191 -0.758460 -0.156645 -0.530253 0.302215 -0.117001 0.417542 0.079233 -0.209226 -0.287911 -0.488322 0.207802 -0.062694 0.543637 -0.003450 0.055556 -0.221970 0.516202 0.006718 0.306693 -0.534121 0.075341 0.112320 -0.147818 -0.250761 0.072189 -0.254823 -0.552734 -0.275770 -0.082584 0.149539 0.025868 0.224750 -0.672176 0.170895 -0.346574 0.548056 0.015428 0.088727 0.000848 -0.574098 -0.306531 0.194601 0.307562 -0.311065 -0.407731 -0.578624
sent_40 0.431462 -0.359884 0.599818 0.677596 -0.610433 -0.087458 0.188449 -0.201653 -0.231371 0.513943 0.685413 0.613972 -0.250374 -0.040694 0.436685 0.675730 0.333382 -0.497988 0.228419 -0.561227 0.123066 -0.672854 0.679334 0.192483 -0.060148 0.317231 -0.045145 0.285114 -0.561377 1.031409 0.338638 0.385291 -0.540671 -0.485696 0.533265 -0.582385 -0.310254 -0.079553 0.070393 0.067085 0.216089 -0.388842 -0.741981 -0.343965 0.061874 -0.592090 0.005919 0.240527 0.148965 -1.057598
sent_41 0.121633 0.172083 -0.554267 0.080659 0.116762 0.435075 -0.177586 0.077704 -0.201697 0.516286 -0.515683 -0.653778 0.374654 -0.270558 -0.759301 -0.006436 0.100718 -0.679033 0.175613 -0.389173 0.156312 0.272111 -0.383710 -0.254807 0.112413 0.392243 0.311827 0.254080 -0.467730 0.070968 0.305987 -0.472481 0.164590 0.121855 -0.423903 -0.081557 -0.552294 0.488315 -0.425089 0.348764 -0.072275 0.028888 -0.448722 0.061562 -0.201068 0.499707 -0.006574 0.135767 -0.277186 -0.728779
sent_42 0.279435 -0.354383 0.064621 -0.112050 -0.005215 -0.098368 -0.106347 0.118104 0.254827 0.233524 -0.022731 0.060591 -0.005600 -0.175269 -0.046399 0.307961 -0.346679 0.254991 0.430460 -0.704034 -0.055262 -0.403318 -0.101154 0.410026 -0.351769 0.282313 -0.109558 -0.005204 -0.597352 0.144807 -0.440347 0.089807 -0.197647 -0.248671 0.235633 0.072409 -0.642545 0.063054 0.607124 0.340308 -0.126319 -0.055531 -0.480122 0.054918 0.112459 0.031701 0.586014 0.076025 0.203744 -0.321802
sent_43 -0.059979 -0.580700 -0.533982 0.114268 -0.281710 -0.026091 -0.223346 -0.436065 0.093659 -0.034251 0.167076 0.034529 0.238328 -0.297641 0.215126 1.021284 0.315463 -0.061553 -0.354701 -0.216106 -0.603884 -0.436333 0.082034 0.190117 0.156605 0.531074 0.110962 -0.323853 -0.271553 -0.083308 -0.218558 0.379341 -0.018426 0.539995 1.093361 -0.190495 0.256462 0.104669 0.382384 0.578197 0.174885 -0.373306 -0.005241 0.051321 -0.564906 -0.361347 -0.136012 0.547140 -0.566178 0.119285
sent_44 0.607659 -0.369399 0.058049 0.103303 0.001924 -0.197932 -0.017312 0.150555 -0.704798 0.066441 0.165349 -0.090528 0.505057 0.045643 0.528740 0.286688 0.591803 -0.551847 -0.220481 -0.197642 0.005533 -0.445918 -0.057028 0.259952 0.031797 0.024472 -0.172768 0.156547 -0.317592 0.419529 0.517203 0.393680 -0.120116 -0.018744 0.801420 -0.578357 -0.000062 -0.150024 -0.518728 -0.744497 0.075252 -0.134595 -0.354764 -0.255049 -0.416551 -0.014158 -0.314602 0.508789 -0.462166 -0.265089
sent_45 -0.634289 -0.229302 -0.780343 0.200093 -0.457027 -0.081784 -0.691307 -0.668562 0.130067 0.539974 -0.344003 -0.478174 0.684667 -0.542770 0.590760 0.125195 0.203541 0.478598 -0.212036 0.391625 -0.665826 1.012173 0.145019 0.480869 -0.306976 0.097924 -0.039177 -0.164161 0.097713 -0.270850 0.491789 -0.254698 -0.365546 -0.011746 -0.343721 -0.417466 -0.693173 -0.486619 -0.151474 1.315427 -0.045152 -0.112138 0.240795 -0.329055 0.217335 0.410520 0.127658 -0.060488 -0.430971 -0.533085
sent_46 -0.161121 -0.383018 0.809297 -0.052404 0.918682 0.279315 0.199905 -0.283371 -0.465993 -0.097595 0.269138 0.111095 0.017317 0.297729 -0.362269 -0.002031 0.032163 -0.302539 0.134695 -0.278700 0.048824 -0.222801 0.432006 0.140405 0.049221 -0.113329 -0.265500 0.144359 -0.113834 -0.221426 0.646726 0.126662 0.300700 -0.245248 -0.330623 0.392771 0.131812 -0.509071 -0.244386 -0.030478 -0.411538 0.155318 0.752583 0.199758 -0.075066 0.200545 -0.210535 0.235408 0.380885 -0.108767
sent_47 0.096525 -0.307425 -0.119509 -0.285004 -0.079906 -0.200731 -0.139001 0.096265 0.318852 0.040681 -0.425190 0.264261 0.152055 -0.368484 -0.148494 -0.151553 -0.204806 -0.081341 0.498282 -0.375312 -0.094642 0.103897 -0.050526 -0.011522 -0.485344 0.049876 0.001437 -0.276584 0.315710 -0.173501 0.058584 -0.059318 -0.184151 -0.306997 0.130836 -0.016834 -0.269732 -0.204982 0.328570 -0.317001 -0.064484 0.093738 -0.083897 -0.008189 -0.081622 0.384480 0.049503 0.039627 0.443576 0.072757
sent_48 -0.202361 0.441029 0.467735 0.374497 0.431787 0.278656 0.601076 0.102766 0.114170 0.254687 0.957304 0.101567 -0.240544 -0.018140 -0.125968 0.357319 0.041460 -0.284746 -0.476367 0.008722 -0.101943 -0.205298 0.025688 0.141750 0.648270 0.233421 0.219636 -0.055290 -0.457054 0.018820 -0.002084 0.156894 0.067623 0.086283 -0.670650 0.394222 0.905931 -0.035788 0.225910 0.388193 -0.437961 0.189825 0.802534 0.478598 0.080334 -0.188380 -0.177942 0.219022 0.075861 -0.107843
sent_49 -0.321547 -0.687664 -0.082618 -0.559264 0.308920 0.265642 -0.553757 -0.379837 -0.196563 0.398933 -0.164603 -0.258997 -0.183255 -0.171904 0.319964 0.690897 0.473362 -0.511657 0.100648 -0.105694 0.012213 -0.670024 -0.273809 0.334337 0.282456 -0.063832 -0.272602 -0.342498 0.283542 -0.367097 -0.089855 -0.032697 0.382523 0.231580 0.032813 0.128359 -0.126123 -0.033451 -0.587939 0.371310 -0.248289 0.142982 -0.147352 0.344567 -0.720810 0.504229 -0.460392 0.111484 -0.162631 -0.352682
sent_50 -0.309863 -0.065097 0.467874 -0.404118 0.202228 0.291398 -0.391407 -0.127252 -0.188483 0.585348 0.672775 0.410401 0.364265 0.429989 -0.075021 -0.077059 -0.148084 -0.283241 -0.346670 0.466328 0.220265 -0.473815 0.203413 0.746313 -0.293531 -0.200324 -0.084142 0.270747 -0.276587 0.459872 0.458550 0.316488 0.109372 0.353321 -0.430113 0.739716 1.064762 -0.487625 -0.919823 0.023667 -0.667478 0.522961 0.515819 0.422581 0.276459 0.214897 -0.652194 0.398413 -0.299149 -0.270320
sent_51 -0.367956 0.053550 0.188521 -0.072300 0.169889 -0.430735 -0.146674 -0.007123 -0.213470 -0.119461 -0.153157 -0.124727 0.375468 0.050971 0.464435 0.346035 0.405536 -0.439540 0.153811 0.216174 -0.235467 -0.097301 -0.032817 0.293134 -0.007662 -0.282289 0.242471 -0.343811 -0.081543 0.133467 -0.041229 0.190618 0.156567 0.428015 0.005467 -0.509267 0.218690 0.097753 -0.056729 -0.232893 -0.013949 -0.368788 -0.544023 0.267133 0.278019 -0.329956 -0.430276 0.075456 -0.321974 0.206164
sent_52 -0.220734 -0.102907 0.110441 -0.282292 0.159143 0.042229 -0.087362 -0.163005 -0.219351 -0.122593 0.388118 -0.096759 -0.215409 0.385569 0.385714 -0.222533 0.207641 -0.016390 0.174361 0.414416 0.276793 -0.117181 -0.260177 0.009254 0.192762 -0.779280 0.230881 -0.092811 0.887989 -0.786290 0.257233 0.136050 0.256376 -0.030597 -0.090715 0.132466 -0.296257 -0.538319 -0.617191 -0.022731 -0.023686 0.162076 0.396066 0.013214 0.498911 0.006943 0.064839 -0.184136 -0.040179 0.037898
sent_53 -0.353547 0.456049 0.389337 -0.183883 0.517252 -0.280242 0.116613 -0.270026 0.452221 -0.398033 -0.051374 -0.239572 -0.238101 -0.088059 -0.101107 0.174869 0.020842 0.210846 0.418894 0.278079 -0.102981 0.223735 -0.080396 0.379373 0.455416 0.099375 -0.318070 -0.349036 -0.009439 0.060571 0.014032 -0.012984 0.101021 0.353179 -0.213428 -0.116808 -0.547240 0.046011 0.346392 0.144152 0.046344 -0.330758 -0.036635 0.372851 0.052453 -0.021442 0.591274 -0.120909 -0.100596 0.343675
sent_54 -0.429831 -0.340789 -0.044112 0.322584 0.198928 0.297058 -0.006850 -0.240437 -0.591374 -0.054625 0.485916 -0.586854 -0.212159 -0.239182 0.584022 0.207669 0.452212 -0.250903 -0.181250 0.140540 0.123591 0.099147 -0.298894 -0.395672 0.482302 -0.212880 0.214922 0.141136 0.566855 -0.471581 0.403734 -0.285580 0.365036 -0.207777 -0.086204 -0.039083 -0.739955 -0.242045 -0.309736 0.539520 0.020535 -0.113438 0.596287 -0.204319 -0.620818 0.424183 -0.152745 -0.219228 -0.184985 -0.125131
sent_55 0.271065 0.013114 0.424013 -0.109146 0.104071 0.232221 0.234387 0.118415 -0.391850 -0.029468 0.470877 0.321051 0.663490 0.444102 0.582525 0.066526 0.113814 -0.233921 -0.342808 -0.382658 -0.204304 -0.443948 0.548189 -0.017173 0.205160 -0.131614 -0.220697 -0.171482 -0.021021 -0.011800 0.154168 0.561455 0.147071 0.145149 0.241850 0.389825 0.069729 -0.198396 -0.383032 0.053336 -0.320646 0.293724 0.504396 0.212264 0.084961 -0.357539 -0.265541 0.124323 0.041451 -0.084130
sent_56 0.134235 0.018037 -0.205307 -0.030188 0.302453 0.168410 0.027484 -0.142500 0.113312 0.032854 -0.443227 0.008740 0.141940 0.190471 0.074587 0.482605 0.660755 -0.276779 -0.265846 0.666621 -0.568834 0.319726 0.279679 0.064236 0.437571 0.360370 -0.069280 -0.461386 -0.253701 0.183591 -0.217372 0.169545 -0.006251 0.587710 0.521764 -0.497178 -0.082006 -0.216243 0.405747 -0.380608 -0.218993 -0.291248 0.085545 0.416085 -0.024053 -0.204885 0.013577 0.508403 -0.251444 0.515567
sent_57 -0.245718 -0.629337 -0.113173 -0.241458 -0.031724 0.454778 -0.309626 -0.466539 -0.278653 0.173714 0.070919 -0.202067 -0.083156 -0.030212 0.382321 0.173231 0.123963 -0.146498 0.026877 -0.297285 0.108852 -0.309054 -0.025049 0.377117 0.190682 -0.134577 -0.055897 0.015633 0.675625 -0.442067 0.183535 -0.058276 0.075216 -0.153229 -0.026848 0.321409 -0.571862 -0.104049 -0.638527 0.510197 0.033381 0.039157 0.012027 -0.381995 -0.115585 0.391702 -0.103904 -0.257909 -0.121301 -0.508391
sent_58 0.020334 -0.328235 -0.117348 -0.133544 -0.054485 0.059132 0.105531 0.147477 0.137522 0.376064 -0.260586 -0.239163 -0.073074 -0.559215 -0.312092 -0.328089 -0.640706 0.037604 0.283522 -0.174535 0.122716 0.350683 -0.241200 -0.451970 -0.238868 0.553636 -0.069048 0.106525 -0.146737 0.126698 -0.216699 -0.269074 0.075508 -0.245377 -0.023949 -0.213933 0.019803 0.141307 0.544540 -0.084686 0.096856 0.108330 -0.183775 -0.130418 -0.426122 0.184644 -0.169143 -0.214134 0.618241 0.212641
sent_59 -0.079167 0.269382 0.338993 0.089918 0.145103 -0.130070 -0.046780 -0.043753 0.107230 -0.211179 0.040441 0.120164 -0.052943 -0.046635 0.046911 0.132596 0.406264 -0.099939 0.249485 0.049579 -0.024167 -0.147042 -0.089202 0.078798 0.198422 -0.161544 -0.410881 -0.029308 0.047952 0.283669 0.099878 -0.127873 0.136512 0.003721 0.111158 -0.330964 -0.605555 -0.142135 -0.010359 -0.140861 -0.014312 -0.363609 -0.274620 0.161756 -0.095769 -0.215249 0.033133 0.115279 -0.279753 -0.015377
sent_60 1.057947 -0.108619 0.642135 -0.315634 -0.048779 -0.128842 0.320995 0.156239 0.187015 0.056432 -0.586338 0.253637 -0.877531 0.742289 -0.183180 -0.077824 -0.647792 0.360474 0.130066 0.058174 0.010098 0.494381 -0.003796 -0.370392 -0.191544 -0.478897 0.649948 0.028802 0.418759 0.196410 -0.110310 0.186285 0.202795 -0.621608 -0.218924 0.312799 0.408847 0.758981 1.043496 0.245917 0.293617 0.370123 0.419666 0.289467 -0.036403 0.340687 0.102797 -0.567658 0.868498 0.580694
sent_61 -0.523441 -0.282603 0.474926 0.122730 -0.309473 -0.180048 -0.398494 -0.964467 0.169459 0.614307 0.666235 -0.191849 -0.449072 -0.446789 0.006249 0.638530 0.398327 0.122413 0.239338 0.046620 -0.248996 0.125701 0.586208 0.078428 -0.034140 -0.362499 0.065302 -0.085491 0.469154 -0.659545 0.511075 -0.163180 -0.395084 0.012897 -0.122048 -0.461244 -1.017724 -0.623776 -0.313705 1.586408 -0.292027 -0.313095 0.248278 -0.286293 0.207017 -0.083363 0.091298 -0.076123 -0.329121 -0.884048
sent_62 -0.427165 -0.139627 0.379456 0.064849 0.256691 -0.084100 -0.034986 0.078233 -0.184554 -0.205688 -0.407586 -0.136374 0.147847 -0.490878 -0.238065 0.051789 -0.282446 0.164713 0.333654 -0.141403 -0.070324 0.061055 -0.281640 -0.209201 0.079100 -0.093485 -0.446928 0.220115 -0.174549 -0.085656 0.103743 0.214809 -0.031909 0.010728 -0.140520 -0.425487 -0.101960 0.099545 0.133344 -0.409355 0.353574 -0.451433 -0.193282 -0.076947 -0.298385 0.013131 0.133294 -0.158195 0.091553 0.349447
sent_63 0.794385 0.148974 0.860581 0.194393 -0.269051 -0.891706 0.240917 0.668676 0.379225 0.206070 0.306005 0.682305 0.283786 -0.087419 0.085363 1.339812 0.346208 0.195755 0.613924 -1.714011 -0.399608 -0.856692 0.493290 0.675327 -0.875608 0.132636 -0.003812 -0.620399 -1.271320 0.572959 -0.149642 0.175148 -0.589434 -0.717053 0.430881 0.095619 -1.230417 -0.002443 0.782355 0.385841 -0.584269 -0.265181 -0.621837 0.102187 -0.002187 0.256251 1.347266 0.199921 0.086074 -0.836302
sent_64 -0.449565 0.147293 0.686994 0.326823 0.420506 0.430234 0.178955 -0.232742 0.306834 -0.059123 0.762943 0.400651 -0.019198 0.371791 -0.086013 0.207578 -0.235856 -0.573728 -0.228865 0.325612 -0.175275 -0.444208 0.540536 0.648391 0.297750 0.370620 0.272893 -0.046687 -0.098474 0.101728 0.246699 0.068362 -0.095187 -0.020711 -0.269107 0.658524 0.463194 -0.082939 0.162767 0.358261 -0.516403 0.201381 0.403152 0.243504 0.299097 0.297745 -0.237007 0.076759 0.149029 -0.010152
sent_65 0.347708 -0.244562 -0.105590 -0.577874 0.597769 0.088930 -0.240130 -0.265410 0.248754 0.254984 -0.344581 -0.144225 0.244613 0.142394 -0.183434 0.507723 0.284612 -0.146960 0.223637 -0.603138 -0.192233 -0.189405 0.243470 -0.186866 0.026574 -0.217491 -0.193543 -0.303375 -0.036122 0.117131 -0.306464 0.163355 -0.024760 0.380282 0.363767 0.015620 -0.874402 -0.098004 -0.036419 -0.188517 0.013818 0.293437 -0.153212 0.429991 -0.136962 0.059706 -0.359649 0.393852 -0.093188 -0.267277
sent_66 -0.336366 -0.008613 0.278796 0.043081 0.032337 0.810687 -0.478879 0.079830 -0.622429 0.632064 0.601450 -0.074242 0.410194 0.175117 0.078667 0.343275 -0.232905 -0.473954 -0.500305 0.411736 0.153911 -0.404519 0.523844 0.532519 -0.101949 -0.058744 -0.348548 0.035388 -0.248111 0.284104 0.867649 0.309418 -0.245979 0.238299 -0.003404 0.363341 1.063284 -0.370345 -0.442561 0.129250 0.410437 0.287244 -0.121344 0.439553 0.132216 0.049647 -0.348834 0.027095 -0.114598 -0.119506
sent_67 0.990475 -0.362341 0.312780 -0.116230 -0.478480 -0.241145 0.360256 -0.033750 -0.422891 -0.554545 -0.316528 0.256732 -1.040894 0.526878 0.461809 0.367174 -1.015475 0.316551 0.094191 -0.173495 0.047376 0.385050 -0.335494 -0.602265 -0.653178 -0.068613 1.222047 0.051263 0.781871 0.439468 -0.070287 0.585595 0.321922 -0.271909 0.347739 0.035102 0.309454 0.814930 1.375840 0.466931 0.490070 0.211053 0.107022 0.289287 -0.332368 0.077902 -0.414031 -0.268487 0.892502 0.587870
sent_68 -0.703788 0.108260 0.927338 -0.084392 1.281577 0.145121 0.503314 0.006866 0.224312 0.443249 1.025114 0.002981 0.052375 0.270463 -1.021413 0.458742 -0.231833 0.068764 -0.742317 0.370025 0.119589 -0.312323 0.861096 0.378231 0.182976 0.720458 -0.129989 0.010436 -0.685802 -0.062512 -0.149903 0.211336 -0.379855 0.104298 -0.113206 0.674811 0.467483 0.049057 -0.025524 0.730253 -1.018966 0.643499 1.305028 0.480234 0.005015 -0.163065 -0.138907 0.249750 -0.091123 -0.238620
sent_69 -0.254558 -0.290489 -0.117403 0.311118 -0.407140 0.378414 -0.074364 0.093553 -0.204621 -0.131913 0.285635 -0.089937 0.221842 -0.434488 0.255099 -0.005323 0.231076 -0.655987 -0.035037 -0.511309 -0.020824 0.172643 -0.484487 -0.133066 0.497326 0.182951 -0.115145 0.342941 -0.049633 -0.489895 0.487976 -0.832760 0.412112 -0.398216 -0.509665 -0.117138 -0.084829 -0.425815 -0.037020 0.269653 0.170866 -0.689246 -0.144883 -0.263232 -0.595879 0.172840 0.249321 0.061784 -0.189195 -0.298463
sent_70 0.629862 -0.017383 0.249272 0.003664 0.158104 -0.135490 0.043195 -0.117645 -0.337649 0.287674 0.142686 -0.268962 -0.134535 0.087290 0.315107 0.217973 0.251642 0.044977 -0.202639 0.172804 -0.022848 0.107938 0.036316 0.021437 -0.028433 0.038840 -0.108092 -0.000563 -0.058750 0.212787 0.241947 0.569578 -0.149709 -0.102402 0.406314 -0.217518 0.166187 0.062807 -0.066535 0.207047 0.087371 0.352326 0.494836 -0.028840 -0.404275 0.186793 -0.227218 0.149466 0.029546 0.011455
sent_71 -0.007139 0.110150 0.443650 -0.906777 0.781718 0.125857 0.702636 -0.063980 -0.362592 -0.365979 0.255122 0.028664 -0.155829 0.634318 0.353978 -0.103130 0.238391 -0.173614 -0.317762 0.642577 0.038911 -0.179785 0.082023 0.483070 0.299680 0.204738 -0.054144 -0.683452 0.528360 -0.238489 0.404903 0.349878 0.327631 -0.061670 0.335414 0.000472 0.796157 0.285400 -0.444505 -0.064585 -0.528532 0.504770 0.803642 0.539666 -0.166708 -0.365856 -0.366030 -0.086203 0.608083 0.659091
sent_72 -0.448038 -0.054092 0.612283 -0.774915 0.643843 -0.026141 0.576694 -0.106657 -0.000650 -0.328783 0.047640 0.591397 0.514927 0.752394 -0.431458 -0.065343 -0.051944 -0.113659 -0.291986 0.548249 -0.142811 -0.268031 1.056568 0.339008 -0.146749 0.794073 -0.446264 -0.667964 -0.169379 -0.035944 -0.002090 0.235093 -0.005233 0.112658 0.329045 0.204803 0.998003 -0.017751 -0.329857 0.103072 -0.501021 0.181889 0.826844 0.405829 0.114448 -0.623977 -0.345793 0.184062 0.321935 0.235864
sent_73 0.537867 -0.398535 -0.297156 -0.069669 -0.409063 0.067810 0.482985 0.194250 -0.402512 -0.570646 -0.056548 0.813256 0.086433 -0.334938 1.008745 -0.310556 -0.690288 0.647441 0.169755 -0.653003 0.050980 -0.003805 0.273725 -0.800568 -0.790441 0.195509 0.218166 0.054941 0.878465 -0.657452 -0.332478 0.274113 0.261570 -0.157263 0.258454 -0.438538 0.485368 0.464330 0.576274 -0.263289 0.356618 -0.020865 -0.231724 -0.089320 -0.081091 -1.258335 -0.947716 0.067073 1.196186 -0.021669
sent_74 -0.873676 -0.215174 -0.193643 0.480785 -0.401700 0.038778 -0.851229 -0.253717 -0.078026 0.574000 -0.080613 -0.182884 0.081441 -0.799155 0.300617 0.387466 0.135593 0.397284 -0.276737 0.974503 -0.612775 0.721596 -0.088223 0.424542 0.122338 -0.327675 -0.220712 0.443790 -0.624920 0.779633 0.362395 0.761385 -0.544567 0.700518 -0.448482 -0.074990 0.639019 -0.255621 0.339076 -0.521542 -0.058140 -0.025138 0.051657 -0.175184 -0.331219 0.811161 0.300509 0.035831 -0.319543 0.624662
sent_75 -0.047425 -0.042772 0.094589 0.215432 -0.031226 -0.121141 -0.229139 -0.312072 -0.061799 -0.144683 -0.045391 -0.359845 0.228682 -0.148816 0.707094 0.172934 0.156307 -0.345413 0.347115 0.221047 -0.047288 -0.329169 -0.221878 0.194544 0.450753 -0.138577 -0.386634 0.098967 -0.439729 0.442780 -0.010028 0.145057 -0.112700 -0.177971 0.079543 -0.170990 -0.341743 -0.316686 -0.427307 0.058094 0.348124 -0.149606 -0.222096 -0.175249 -0.318894 0.166360 -0.248388 -0.187316 -0.134158 -0.018972
sent_76 0.554012 -0.087017 0.057068 -0.276996 1.051905 0.387467 0.234418 -0.259347 -0.536132 0.086791 0.461585 -0.488710 -0.067205 0.143245 -0.598097 0.212133 0.718462 -0.626783 -0.132012 -0.335737 0.132575 -0.436259 -0.203034 0.389841 0.696191 0.233828 -0.145335 -0.270316 -0.879638 -0.781693 0.204922 0.469041 0.495781 0.578752 0.133111 0.065780 1.043364 0.140191 -0.150988 -0.891062 -0.087996 0.150818 0.392292 0.327841 -0.270218 -0.454116 -0.343822 0.624233 -0.210475 -0.099412
sent_77 -0.531830 0.233485 0.086249 0.322727 0.515873 0.310229 0.614746 -0.136785 -0.050957 0.047328 1.070820 -0.023361 -0.532298 0.066029 0.082746 0.189640 0.033130 -0.338831 -0.280402 0.395928 0.344731 -0.267589 0.418955 -0.157586 0.426050 0.295646 0.090678 -0.146506 0.063418 0.101666 0.121541 -0.114025 0.106667 0.291243 -0.425020 0.477718 0.650466 -0.396477 -0.186318 0.404341 -0.293716 0.005840 1.124072 0.103807 -0.003503 -0.263336 -0.299570 0.113536 0.085578 -0.295700
sent_78 0.153216 -0.042966 0.288230 0.113853 0.147805 -0.087690 0.079880 0.149332 -0.324562 -0.123293 -0.073034 0.047151 -0.000438 -0.070361 0.272004 -0.106143 0.034188 0.153715 0.054914 -0.012146 0.029426 0.064953 -0.185926 -0.396517 -0.148374 -0.508563 0.173090 0.042818 0.175282 -0.483420 0.013711 0.147351 0.201787 -0.349645 -0.036531 0.049621 0.121759 -0.039723 0.151852 -0.019408 0.183488 0.020124 0.367886 -0.088382 -0.162174 0.309533 -0.227599 -0.150192 0.394028 0.468565
sent_79 -0.088345 -0.252051 -0.303382 0.086952 0.263926 0.014180 0.147665 0.137458 -0.279153 -0.405979 0.029376 -0.274016 -0.142162 0.035922 0.082429 0.084174 0.038890 -0.336382 0.057746 -0.206909 0.320762 -0.173363 -0.125024 -0.129394 -0.170125 0.187365 -0.007039 -0.046631 0.222131 0.117005 0.251514 -0.547942 0.249888 -0.256165 0.272686 -0.179100 -0.271772 0.075796 0.080751 0.286604 0.118587 -0.103686 -0.196512 0.109456 -0.270318 -0.211730 -0.419818 -0.022727 -0.020835 -0.185424
sent_80 -0.226024 0.243096 0.409843 0.068645 0.731391 0.725140 0.632024 -0.034045 0.062157 -0.119496 1.476184 0.258508 0.042281 0.621273 -0.160415 0.055607 -0.147076 -0.303347 -0.758961 0.583292 0.091131 -0.204522 0.366742 0.404776 0.457579 0.474898 0.187376 0.104795 -0.418121 -0.330991 0.193858 -0.281752 -0.107066 -0.041204 -0.372577 0.578206 1.224280 -0.457930 0.077793 -0.390528 -0.293017 -0.100807 0.697713 0.186671 0.359665 -0.232477 -0.270153 0.381182 0.201549 0.159966
sent_81 0.238755 0.070043 -0.530423 -0.063410 -0.294271 -0.052028 0.085164 0.131924 0.040611 0.222868 -0.004511 -0.170150 0.235204 -0.369992 0.468084 -0.296514 -0.331541 0.021743 0.312888 -0.065426 0.002991 0.528776 -0.301111 -0.207479 -0.346694 0.203749 -0.041896 -0.077897 -0.032793 0.479389 -0.315248 -0.180999 -0.231180 -0.224525 -0.223390 -0.243623 -0.048640 0.001842 0.384772 -0.157969 0.076637 -0.123686 -0.286316 -0.135440 -0.015236 -0.228525 -0.328896 -0.061560 0.566090 0.039752
sent_82 0.486503 -0.234337 0.529382 0.037855 -0.164442 -0.218528 0.214107 0.039567 -0.218621 -0.270710 -0.147860 0.537090 -0.603797 0.251181 0.009331 0.430731 -0.650633 0.543011 0.208603 0.053290 -0.101586 0.374416 0.143005 -0.852892 -0.623851 -0.117972 0.359246 0.294859 0.488530 0.127658 -0.169023 0.175247 0.096223 -0.287327 -0.076048 0.156971 0.492775 0.234096 0.858794 -0.138812 0.515340 -0.073440 0.032168 -0.006760 -0.464636 0.365255 -0.568159 -0.136361 0.951903 0.593431
sent_83 -0.123574 -0.182750 0.130521 -0.220065 -0.259031 0.268741 -0.408910 -0.309954 0.197870 0.381651 -0.348380 0.081859 0.255744 0.291495 0.109687 0.246354 -0.172571 -0.017252 -0.278189 0.127626 -0.506541 -0.370866 -0.291043 0.280354 0.057652 -0.278854 -0.011941 0.234024 -0.092695 0.373455 -0.015504 0.279700 0.060670 0.267432 0.168761 -0.020051 0.118702 -0.095416 -0.226039 0.087957 0.061285 0.098087 -0.287817 0.365209 0.041510 0.226155 -0.423723 0.027104 -0.200277 0.341979
sent_84 -0.357776 -0.498431 -0.273660 0.649851 -0.453778 -0.569678 -0.189081 -0.007247 0.213567 -0.371537 0.064473 0.300743 0.306524 -0.241867 0.025140 1.064288 0.251672 0.044249 -0.230179 0.220018 -0.471285 -0.381665 0.261790 0.054981 -0.083246 0.506108 0.259103 -0.099955 -0.396140 -0.002757 -0.544344 0.120258 -0.197181 0.259291 0.795865 -0.147014 0.601711 0.224155 0.452760 0.491092 0.025682 -0.308894 -0.090740 -0.317557 -0.317930 -0.085830 0.186456 0.341746 -0.739740 0.117873
sent_85 -0.306033 0.193255 0.185895 0.329157 0.284849 -0.090915 -0.163265 -0.642472 0.042526 0.158618 0.039253 0.017587 -0.033679 -0.357106 -0.071835 0.409284 0.347629 0.359668 0.240880 0.658116 -0.353025 0.606922 -0.147234 0.150966 -0.274777 0.017270 0.554523 0.219654 -0.237627 -0.096416 0.154160 0.169408 -0.119326 0.106798 -0.327835 -0.620900 0.051607 0.479116 0.203826 0.391821 -0.189342 -0.227187 0.076460 -0.103654 -0.099051 0.154232 -0.403143 0.209180 0.058483 -0.119555
sent_86 -0.715366 -0.331594 -0.165623 0.536052 -0.701517 0.287427 -0.382284 -0.281589 -0.571497 0.090351 -0.059567 0.665326 0.238543 -0.124068 0.012917 0.137160 0.318747 -0.279820 0.245933 0.176363 -0.304273 -0.458420 -0.041631 0.346040 -0.052844 -0.013636 0.392643 0.411065 -0.625103 0.591074 0.496337 0.168880 -0.090127 -0.391624 -0.249449 0.073460 -0.127174 -0.259003 -0.825179 0.108368 -0.147043 -0.322504 -0.290966 -0.485869 -0.014683 0.667696 0.207859 0.100138 -0.162356 -0.306691
sent_87 0.124979 -0.458330 0.379206 -0.230176 0.499926 -0.053111 -0.172349 0.019071 -0.582737 -0.192710 -0.391524 -0.506622 0.421611 0.015788 -0.367231 -0.479118 -0.051555 -0.234792 0.023297 -0.103487 0.279758 0.107844 -0.651619 0.179398 -0.234215 0.558809 -0.091833 0.237409 -0.278818 -0.304223 0.493569 0.355385 0.335176 -0.302139 0.329176 -0.169367 0.427852 0.113569 -0.448760 -0.634930 -0.197083 0.357576 0.262127 -0.113198 -0.767751 0.657169 -0.219902 0.189211 -0.024212 0.256728
sent_88 0.494455 -0.396485 -0.275521 -0.128288 -0.363480 -0.398850 -0.072054 -0.370431 -0.609884 0.176146 0.295366 0.137800 0.103619 -0.168414 0.901861 0.000971 0.312521 0.449753 0.373958 -0.291509 0.121986 -0.145565 -0.076674 0.419555 -0.765341 -0.028640 0.156771 0.169816 0.034197 0.255508 0.173654 0.571698 -0.137219 -0.090270 0.489572 -0.281859 -0.043000 -0.330250 -0.054618 -0.907045 0.264405 -0.294871 -0.340053 -0.403147 -0.220901 -0.014994 -0.695019 0.303642 0.526758 -0.041273
sent_89 0.144860 0.010549 0.051408 -0.027277 -0.003741 -0.094611 -0.221240 -0.004591 -0.228232 -0.195767 -0.460997 -0.519772 0.311125 -0.158985 -0.406807 -0.304197 0.106918 -0.375517 0.438277 -0.061199 0.255739 0.311162 -0.643176 0.025047 -0.132726 0.228220 -0.068731 0.403239 0.034750 0.080545 0.720159 -0.236802 0.128564 -0.157812 0.143250 -0.549760 -0.065108 0.334442 -0.498347 -0.551821 0.256893 -0.065568 -0.581457 -0.193754 -0.452119 0.355682 -0.153611 0.027150 -0.184424 -0.008984
sent_90 -0.243869 -0.310432 0.250600 0.102210 0.372445 0.182702 0.297067 0.066703 -0.591753 -0.180708 0.535825 -0.381852 -0.281913 -0.096053 0.333475 -0.064930 0.281458 -0.377807 -0.128484 -0.089907 0.376362 -0.233562 -0.185845 0.010445 0.462638 0.098763 0.180278 0.064102 0.359281 -0.595570 0.455414 -0.168868 0.361594 -0.216150 -0.272057 0.141113 0.068653 0.210133 -0.493719 0.116288 -0.516295 0.315101 0.396574 -0.065486 -0.362060 0.384458 0.117548 -0.166418 0.107354 -0.223369
sent_91 -0.038618 -0.088794 -0.171721 0.007391 0.238486 -0.318093 -0.037928 0.108164 -0.224406 -0.283211 0.258298 -0.336387 0.228059 -0.189368 0.283566 0.379408 0.294568 0.125762 -0.011924 -0.342922 -0.044641 -0.027917 -0.116165 0.211485 0.167190 0.246081 -0.150698 -0.259669 -0.033755 -0.051175 -0.328801 0.295518 0.034600 0.256487 0.258698 0.004515 -0.253814 0.399276 0.152420 0.171073 -0.204120 0.249561 -0.029347 0.058147 -0.315869 -0.080348 0.084456 0.141523 -0.217409 -0.115711
sent_92 0.273613 -0.280380 -0.682832 0.039737 -0.156331 0.562670 -0.127410 0.344146 0.033570 0.705343 0.362971 -0.408086 -0.575889 -0.473284 0.395698 -0.096873 0.625042 -0.518939 -0.312589 -0.323397 0.412223 0.041517 -0.232569 0.117748 0.638822 -0.012723 0.214866 0.028451 0.480594 -0.582241 0.056750 -0.751905 0.088020 -0.346577 -0.358347 0.389277 0.063265 0.130698 0.153845 -0.328048 0.409866 -0.121209 0.088086 -0.373335 -0.284433 0.162172 0.127277 -0.192907 -0.019230 -0.425155
sent_93 -0.316247 -0.262416 0.197700 0.009693 0.328607 0.244480 -0.094180 -0.353183 -0.070803 0.305603 0.268732 -0.100141 0.100412 0.246852 0.431659 0.133122 0.093012 -0.305652 0.197526 0.196633 0.009032 -0.520638 -0.150491 0.055409 0.156350 -0.277203 0.057272 -0.042560 -0.011794 0.160990 -0.104168 0.372458 0.233337 -0.000827 -0.024909 0.156824 0.081517 -0.461653 -0.468489 0.017419 -0.146604 0.199233 0.308976 0.243564 0.175272 0.140788 -0.478674 0.097113 0.125173 -0.044173
sent_94 -0.018769 -0.265008 -0.191797 0.324609 -0.335295 0.118763 -0.119444 -0.391617 -0.833726 -0.090476 -0.009604 0.340528 0.054946 -0.216778 0.416770 0.138125 0.336328 0.011197 0.258581 0.059752 -0.127067 -0.034308 0.211090 0.378168 -0.043752 0.082783 -0.075379 0.063002 -0.174616 0.807256 0.622219 0.467839 -0.076459 -0.050865 0.108486 -0.033667 -0.201383 -0.223765 -0.359847 -0.428371 0.208783 -0.340475 0.057016 -0.487561 -0.459953 0.277074 0.123294 0.275217 0.025786 -0.092135
sent_95 -0.007356 0.018733 0.500825 0.061256 0.061803 -0.053998 -0.200878 -0.375517 -0.281445 0.310157 0.211396 0.082764 -0.156581 -0.009020 0.211643 0.220054 0.306162 -0.170693 0.255601 0.184122 0.097700 -0.344213 -0.158415 0.659611 -0.173889 -0.276258 0.176488 0.032452 -0.199855 0.256493 0.762800 0.355620 -0.123158 -0.378542 0.038509 0.067490 -0.065563 -0.278810 -0.350870 -0.044672 0.122030 0.139344 0.334267 -0.115303 -0.109861 0.722222 -0.113597 -0.021977 -0.017302 -0.153254
sent_96 0.472075 0.266915 -0.411041 -0.153901 -0.189360 0.046662 -0.047318 -0.137362 0.396483 0.110481 -0.442777 -0.110730 -0.039221 0.000005 -0.413502 -0.263754 -0.291422 0.183230 -0.217084 0.239185 -0.262631 0.762688 -0.057236 0.138393 -0.310097 0.109875 0.159585 -0.011819 0.366233 0.203143 0.584128 -0.271661 -0.091526 -0.328891 0.193423 0.220752 -0.419539 0.160392 0.219952 0.585236 -0.110563 0.562735 0.497705 0.072787 -0.215680 0.512734 0.257396 -0.123204 0.031464 0.146279
sent_97 0.655954 0.206724 -0.511450 0.170835 0.005775 0.097237 -0.070254 -0.308168 -0.202002 -0.026087 0.235442 -0.529636 -0.012667 0.327381 -0.022546 0.110394 0.757988 -0.078106 -0.241042 0.021402 -0.137424 -0.032472 -0.586010 -0.067227 0.316472 -0.466684 0.126822 0.261155 -0.194985 0.079673 -0.225015 -0.194718 0.032231 0.166587 -0.026502 0.111634 -0.031150 -0.136008 -0.491248 0.139235 -0.107138 0.075949 0.025402 -0.225940 -0.308923 0.166795 -0.706014 0.327469 -0.359409 -0.197108
sent_98 -0.540186 -0.027030 0.370012 -0.921321 0.949683 0.047658 0.557159 -0.068949 0.186109 -0.182613 0.168709 0.492187 0.464761 0.646270 -0.490401 0.053430 -0.083609 0.029166 -0.261493 0.446226 -0.130066 -0.312850 0.569674 0.451654 -0.269642 0.601007 -0.284228 -0.496098 -0.069097 0.021879 -0.157082 -0.003312 0.111734 0.113825 0.265858 0.209155 0.746565 0.229440 -0.227517 -0.099403 -0.637041 0.216518 0.606921 0.576750 0.047542 -0.719916 -0.613463 0.197390 0.337201 0.332267
sent_99 -0.036987 0.158544 0.302093 -0.055836 0.052877 -0.218014 0.075102 0.177437 0.001698 -0.097137 0.169138 -0.020117 0.171082 -0.107173 0.185147 0.068394 0.183125 -0.031426 0.275985 0.030549 0.105380 -0.028846 -0.288532 -0.137248 0.073838 -0.007577 -0.038332 -0.168628 -0.102305 -0.167463 -0.142016 0.049380 0.077353 -0.070041 -0.042422 -0.211899 -0.061327 -0.028754 -0.082148 -0.366338 0.073179 -0.233794 -0.059161 -0.080736 -0.027427 0.041739 0.064838 -0.046889 0.052465 0.070422
sent_100 -0.500497 -0.074061 -0.731205 -0.226519 -0.620218 -0.117593 -0.738649 0.259703 0.501925 0.326034 0.031466 0.267396 0.225808 -0.322730 0.289766 -0.163259 0.152977 0.191170 -0.013689 0.147244 0.080299 0.207431 0.101979 -0.129374 -0.488142 -0.233052 0.342155 -0.127002 0.269976 -0.367829 -0.464177 -0.394872 -0.222430 0.241917 -0.203358 0.288995 -0.229143 -0.415777 -0.088360 -0.112348 -0.299900 0.347455 -0.400959 -0.053303 0.567144 0.214046 -0.259008 -0.058126 0.061956 -0.145259
sent_101 -0.387595 -0.240253 0.311638 0.033243 0.078501 0.017165 0.184798 -0.021875 -0.275655 0.207311 0.049772 0.089842 0.159446 -0.413780 -0.082747 0.073020 0.218462 -0.288383 0.243028 -0.049486 -0.115475 0.115002 0.055337 -0.312961 0.289341 -0.150737 -0.105881 0.233344 0.202795 -0.180953 0.401272 -0.244929 -0.043328 -0.208464 -0.442372 -0.300924 -0.569470 -0.188330 -0.170973 -0.130263 -0.288739 -0.388970 -0.067032 -0.137451 -0.144196 -0.002776 -0.014756 -0.165423 0.284711 -0.136212
sent_102 -0.337460 -0.195886 0.202513 0.248279 0.103761 -0.307348 0.055032 -0.009776 -0.265985 -0.197770 -0.361470 0.090348 0.029440 -0.133257 0.307993 0.200207 0.301201 0.271772 0.076409 -0.189406 -0.328235 -0.156464 0.072127 -0.197204 0.099925 -0.567466 -0.049335 0.219262 -0.130994 -0.333012 -0.400551 0.014839 0.208660 0.042771 -0.420686 -0.256600 -0.282680 -0.201615 -0.027251 0.200521 -0.239262 -0.420419 -0.302278 0.009252 0.121192 -0.174282 0.169916 -0.036905 -0.034805 0.069654
sent_103 -0.367092 -0.510344 -0.122578 -0.136949 -0.699176 -0.388681 -0.362554 -0.404749 0.223772 0.577907 -0.292471 -0.177698 0.104453 -0.982818 0.224404 0.221861 -0.029051 -0.217019 0.055513 -0.143734 -0.161815 0.166584 0.246033 -0.135431 -0.351508 -0.010223 -0.535894 -0.259095 0.866657 -0.286270 0.588231 -0.063135 -0.763329 -0.167918 0.605996 -0.769488 -0.963795 -0.615261 -0.237035 0.654377 0.389274 -0.352857 0.153848 -0.736987 -0.257824 0.239602 0.120847 -0.199178 -0.404880 -0.559907
sent_104 -0.161698 -0.106882 0.072904 -0.195109 -0.087915 0.171759 -0.601633 -0.090331 -0.186969 0.363795 -0.163111 -0.020295 0.512121 0.116616 0.227875 0.142182 -0.012891 -0.304904 -0.075890 -0.103966 -0.290392 -0.412756 -0.040540 0.384038 -0.105889 -0.451719 -0.124689 -0.057769 -0.031913 0.225523 0.282211 0.484646 0.030545 0.199865 0.245293 0.163919 0.232431 -0.135767 -0.384661 0.023311 -0.007236 0.350880 -0.189088 0.407261 0.075755 0.280654 -0.377716 0.020566 -0.173133 0.317703
sent_105 -0.354768 -0.277827 -0.731552 0.491989 -0.511293 0.357003 -0.188023 -0.404732 -0.128450 0.359127 -0.011959 -0.120946 0.306629 -0.508340 0.200816 -0.167487 0.008927 -0.315558 -0.013839 0.355137 -0.091584 0.364989 -0.573015 0.144004 -0.376221 0.272171 0.791534 0.460573 0.209739 -0.277423 0.691858 -0.147050 -0.313092 -0.345112 -0.171697 -0.377160 0.037629 -0.207079 -0.266972 0.230409 0.059198 -0.021545 -0.070294 -0.543713 0.317429 0.272620 -0.274783 0.243839 0.015634 -0.618160
sent_106 -0.445530 0.348480 -0.603514 0.305086 0.108965 0.351313 -0.318431 -0.353586 -0.166075 0.569663 0.030030 -0.925885 -0.019895 -0.655912 -0.470638 -0.308871 0.078728 -0.112796 -0.062244 0.218437 0.228820 0.373534 -0.554061 0.191309 -0.522139 0.026392 0.275416 0.535646 0.034479 -0.264184 0.896605 -0.404958 -0.400085 -0.363550 -0.135658 -0.399336 -0.046075 0.123787 -0.505607 0.275275 0.399365 -0.048818 -0.470695 -0.409687 0.090106 0.283482 -0.501400 -0.204974 -0.178267 -0.457994
sent_107 -0.234814 0.104978 0.092030 -0.123615 -0.216565 0.381064 -0.377713 -0.118094 -0.072070 0.494685 0.219419 -0.108626 0.359126 0.284182 0.255630 -0.010765 0.037368 -0.447014 -0.317373 0.147524 -0.082951 -0.505224 -0.293422 0.294672 0.162342 -0.007852 -0.042138 0.108325 -0.464153 0.575158 0.014422 0.103331 0.131463 0.044461 0.215278 0.292960 -0.000206 -0.203555 -0.647829 0.274900 -0.110612 0.199519 -0.242924 0.368910 -0.123898 0.473579 -0.338488 0.011632 -0.251340 0.275957
sent_108 0.410373 0.034881 -0.022266 0.019960 -0.092743 -0.079174 -0.331414 0.166015 -0.217527 0.412260 0.107952 -0.505491 0.303864 -0.416327 0.198147 0.324255 0.199623 -0.521838 -0.185468 -0.335884 0.113627 -0.110714 -0.320156 -0.496264 0.147105 0.035689 -0.269627 -0.141567 -0.165746 -0.000042 -0.045651 0.229481 -0.019188 0.056698 0.425510 -0.254202 -0.554132 -0.431469 -0.528989 0.162882 0.261096 0.052054 -0.212206 0.101854 -0.408555 0.226716 -0.485798 0.176529 -0.437765 -0.474998
sent_109 -0.292095 -0.296939 0.015867 -0.252853 -0.145700 0.376068 -0.164883 -0.341688 -0.167126 0.080529 0.074785 0.075728 0.157672 0.180939 0.162242 0.404168 -0.061783 -0.022075 -0.200710 0.051173 -0.255839 -0.503824 -0.180938 0.274424 0.286412 0.190093 0.122041 -0.026702 -0.024194 -0.031148 -0.231028 0.370339 0.187524 0.260752 0.307458 0.142261 0.290126 0.097861 -0.354749 0.079093 -0.046917 0.081795 -0.002173 0.160367 -0.259563 0.016553 -0.364112 0.078893 -0.056188 0.219653
sent_110 1.036097 -0.150312 -0.041394 -0.014220 -0.102405 -0.163365 0.268760 0.780600 -0.317788 -0.288579 -0.453134 0.446716 -0.354667 0.179186 0.097887 -0.244572 -0.692125 0.060062 -0.003832 -0.438667 -0.025034 0.513935 -0.172351 -0.561404 -0.567761 -0.121703 0.523547 -0.156986 0.241679 0.218117 -0.072340 0.334685 0.163935 -0.635113 0.121268 0.399009 0.072584 0.126473 1.478488 0.151832 -0.029433 0.475334 0.749079 0.227240 -0.124506 0.240310 0.426888 0.036746 0.759821 0.653441
sent_111 0.189839 0.375007 0.019235 -0.011285 0.021802 0.202877 0.021205 0.078885 -0.164611 0.186111 -0.172100 -0.132386 -0.182931 -0.314601 -0.011528 -0.078516 0.109039 -0.458593 0.299307 -0.130255 0.252916 0.171031 -0.169036 0.148701 -0.266713 -0.186153 0.618434 -0.021124 0.499819 -0.016851 0.760736 -0.452730 0.019085 -0.240150 -0.407233 -0.143499 -0.518670 0.420516 -0.138466 0.176693 0.178034 -0.396603 -0.318366 -0.187077 -0.151367 0.424045 -0.017058 -0.107681 -0.000600 -0.338945
sent_112 -0.110535 -0.169818 0.784418 -0.066249 0.437578 -0.180710 0.007641 -0.096689 -0.239500 -0.021614 -0.000715 -0.434800 -0.157084 -0.029457 0.113086 0.019789 0.180037 -0.269301 0.245632 -0.065634 0.174614 -0.380230 -0.209006 -0.171878 0.485878 -0.088803 -0.506557 -0.150696 -0.096746 -0.142403 -0.035004 0.475493 0.162764 -0.173491 0.092082 -0.157489 -0.307229 0.017150 -0.382948 -0.101753 -0.142527 0.267656 0.152188 0.092944 -0.270670 0.184259 0.072158 -0.300429 0.100132 0.028587
sent_113 -0.440535 0.110064 -0.828704 0.288059 -0.207370 0.450577 -0.126143 -0.507238 0.072230 0.191640 0.271853 -0.518498 0.130163 -0.497353 -0.236167 -0.340791 -0.116297 -0.138910 -0.093275 0.331029 -0.054057 0.557674 -0.611865 0.069443 -0.531402 0.174062 0.670694 0.378275 0.417165 -0.462442 1.191850 -0.434274 -0.274964 -0.336215 -0.034260 -0.320205 -0.382178 -0.362922 -0.281528 0.522836 0.330781 -0.175073 0.212975 -0.357743 0.142552 0.185060 -0.250428 0.007870 -0.158125 -0.545043
sent_114 -0.048599 0.112050 -0.050845 0.018137 0.122202 -0.085994 -0.037579 -0.015345 -0.096683 -0.171015 -0.080173 -0.044643 -0.004351 0.094903 -0.005320 0.021460 0.153310 0.112989 0.065520 -0.192723 -0.076648 0.061976 0.060509 0.013376 0.050392 -0.258390 0.111539 -0.100604 -0.005792 -0.095131 -0.059415 0.107725 0.060842 0.144919 -0.150459 0.122888 -0.208492 -0.028656 0.038707 -0.020741 0.031506 -0.121296 0.072301 0.058845 0.148134 0.018964 0.317400 0.048079 -0.141173 0.068631
sent_115 -0.020279 0.177937 -0.568182 -0.271695 -0.249529 -0.075206 -0.087215 0.242070 -0.179601 -0.028648 0.145839 -0.050834 0.131981 -0.214731 0.481389 -0.536439 0.260881 0.095027 0.282995 -0.435205 0.439909 -0.044685 0.090881 -0.014816 -0.131944 -0.198721 0.177462 -0.511673 0.282313 -0.507591 0.134824 -0.341308 0.157990 -0.030465 0.049263 0.005986 -0.638094 0.078667 0.051894 -0.044779 0.487410 -0.398090 -0.061888 -0.152962 0.192271 -0.333460 -0.050636 -0.243657 0.075285 -0.085221
sent_116 -0.060025 -0.201890 0.318542 0.119184 0.126705 -0.231272 -0.007810 -0.023850 -0.113050 -0.079353 -0.155084 -0.078161 0.079279 0.008659 0.051993 0.028959 0.147779 -0.010140 0.086150 0.062295 0.078913 -0.067083 -0.060040 -0.168750 0.089146 -0.207239 -0.140130 0.185931 -0.084528 -0.216758 -0.156387 -0.134532 0.078372 -0.107402 -0.016474 -0.233411 -0.024746 -0.127085 -0.096824 -0.182527 0.212866 -0.264052 -0.023438 -0.251157 -0.051158 0.019583 0.036197 -0.090362 -0.171882 0.055434
sent_117 -0.025991 -0.702144 0.239234 -0.100494 0.280168 -0.570263 0.238378 -0.132674 -0.258590 -0.468255 -0.308985 0.215031 0.167554 -0.080134 0.392428 0.176207 -0.132754 0.366037 0.347254 -0.085059 -0.037502 -0.243740 -0.100036 0.093584 -0.263866 0.080939 -0.328277 0.165645 0.322744 -0.065647 -0.380466 0.563202 0.056468 0.064635 0.325153 -0.357549 -0.043218 0.031218 -0.102657 -0.213784 -0.386539 0.008627 -0.066232 -0.296784 -0.124091 -0.294164 0.059589 0.186496 0.214479 -0.035898
sent_118 0.946783 -0.293890 0.463176 -0.067220 -0.791453 -0.377591 0.575164 -0.046641 -0.395651 -0.534734 -0.012903 0.633215 -1.248318 0.512333 0.580721 0.235787 -0.811657 0.417092 0.358207 -0.136393 0.192573 0.062125 -0.454241 -0.279906 -0.391017 0.299195 1.014193 0.008534 0.398228 0.517114 -0.079678 0.551356 0.598359 -0.463856 0.223823 -0.151528 0.718712 0.931878 1.260226 0.146508 0.588238 -0.081419 -0.083882 0.089275 -0.220063 -0.306054 -0.131559 -0.375769 1.045306 0.498418
sent_119 0.421936 -0.507133 0.510671 -0.157868 0.050581 -0.464017 -0.025578 0.099015 0.308263 0.484192 0.045799 0.343726 0.166725 -0.119104 0.193634 0.727119 -0.154608 -0.154749 0.523099 -1.145359 0.067744 -0.680887 0.310128 0.460454 -0.681139 0.239615 -0.050988 -0.044897 -0.288533 0.637360 -0.426152 0.140791 -0.673925 -0.325084 0.460583 -0.221110 -0.991946 0.277245 0.352143 0.259078 -0.381776 0.056677 -0.799059 -0.086059 0.026745 0.022474 0.356907 0.197713 0.094449 -0.969827
sent_120 0.221344 0.039201 -0.187831 0.065607 -0.102854 0.068058 -0.162435 -0.216594 0.020013 -0.021721 0.156983 -0.221284 0.398088 -0.160095 0.027393 0.315852 0.251559 -0.504378 -0.060272 -0.211380 -0.122950 -0.148479 -0.426185 0.122726 -0.090431 0.243752 -0.068810 0.078412 -0.263292 0.123488 0.127221 -0.201400 -0.146092 -0.227019 0.262031 -0.058904 -0.125104 -0.227711 -0.336133 0.367465 0.000644 -0.027894 -0.253161 -0.120618 -0.416616 0.351264 -0.594554 0.296648 -0.242533 -0.385860
sent_121 -0.263998 -0.089334 -0.163555 0.281689 -0.555454 0.116370 -0.209513 -0.288831 -0.316852 0.417921 -0.031660 -0.027689 0.008371 -0.637315 0.077907 0.185582 0.433993 -0.029417 0.112697 0.024653 -0.175555 0.272317 -0.240743 0.131713 0.247097 0.217900 0.194159 0.389629 -0.233618 0.111315 0.288049 0.043168 -0.115348 0.066624 -0.303561 -0.362527 -0.089590 0.263130 -0.667298 0.032840 -0.077276 -0.024639 -0.485408 -0.472392 -0.142793 0.477849 0.283610 -0.016340 -0.182862 -0.320048
sent_122 0.573031 0.432010 0.041012 -0.038991 0.133972 -0.248967 -0.220032 0.074961 -0.230003 0.354434 0.460440 -0.064798 0.019885 -0.021344 0.294423 0.411588 0.891149 -0.320313 0.013265 -0.129092 0.147731 -0.096445 0.126262 -0.078961 -0.235816 -0.451373 -0.000271 -0.442488 0.158194 -0.352412 -0.104711 0.249816 -0.293559 -0.258746 0.301108 0.119493 -0.259926 -0.293847 -0.256220 0.312337 0.189182 0.223696 0.552836 -0.118577 -0.362217 0.173445 -0.676691 0.045210 -0.154399 -0.438372
sent_123 0.223565 -0.390635 0.122419 -0.087255 -0.043944 0.089303 -0.040823 0.079772 0.037146 0.046068 -0.195789 0.210618 -0.110706 -0.126500 0.045477 -0.079639 -0.215669 0.173449 0.210520 -0.379118 0.027411 0.227624 -0.063615 -0.164210 -0.179919 0.060167 -0.220080 0.221646 0.120806 -0.016621 -0.071180 -0.264449 0.207081 -0.396801 -0.292018 0.216759 -0.013549 0.103524 0.348856 0.154531 -0.135211 0.078938 -0.034462 -0.028624 -0.531065 0.368024 -0.113183 -0.166679 0.632953 0.031446
sent_124 -0.160712 -0.000408 0.087086 -0.115291 0.467919 0.063880 0.487852 0.140442 -0.304247 -0.083468 0.384340 -0.219698 -0.048437 -0.002588 -0.208754 -0.018603 0.364281 -0.209944 -0.107764 -0.141362 0.368732 0.068230 -0.264972 0.020118 0.236266 0.182120 0.101126 -0.063403 0.147145 -0.357863 0.153524 -0.338560 0.317211 -0.235691 -0.368640 0.337676 0.424515 0.488738 -0.414932 0.002138 -0.435993 0.229133 0.626767 -0.085982 -0.388529 0.180154 -0.150871 -0.217223 0.077498 -0.142253
sent_125 -0.417720 0.216562 0.179716 0.472657 -0.037643 0.118499 0.096602 -0.452568 -0.031621 0.115638 0.028138 -0.147916 -0.322150 -0.104884 -0.257036 0.010343 -0.029244 0.071723 -0.052680 0.256590 -0.108791 -0.071670 -0.239073 0.083914 0.001449 0.033905 0.393042 0.587870 -0.167993 0.055232 0.488633 -0.243130 0.026791 -0.255863 -0.334145 -0.376184 -0.291364 0.215395 -0.335839 0.654712 -0.033046 -0.173467 -0.108980 -0.156351 0.152352 0.091770 -0.063753 -0.045521 -0.217641 -0.340105
sent_126 -0.267760 -0.382089 -0.628950 0.117558 -0.113048 0.113633 -0.818730 -0.294017 -0.328326 -0.073979 -0.450996 -0.351811 0.341927 -0.139489 -0.094038 0.181369 -0.040820 0.290475 -0.167223 0.163740 -0.413370 0.403249 -0.412856 0.619965 -0.646761 -0.069401 0.018376 0.594971 -0.342508 0.291246 0.458099 0.333804 -0.314441 0.104785 0.096438 -0.164923 0.089931 -0.075754 -0.170246 0.167759 -0.157405 0.171063 -0.614112 -0.085714 0.074535 0.426366 0.140694 0.343156 -0.475040 0.040745
sent_127 -0.593621 0.170474 -0.214150 0.062839 0.099093 -0.074976 -0.229346 -0.599173 0.045688 0.505123 0.498219 -0.642205 -0.248842 -0.458607 -0.174005 0.515267 0.630480 -0.478163 0.261332 0.038295 -0.006117 0.174623 0.082726 0.058148 0.042491 0.059665 0.456747 -0.298853 0.331247 -0.470919 0.274266 -0.612593 -0.217120 0.225435 -0.396068 -0.187825 -0.589011 0.106528 -0.295707 0.658892 -0.105534 -0.375516 -0.218868 -0.247325 -0.096024 0.177349 -0.559393 -0.102538 -0.254532 -0.655126
sent_128 0.349421 -0.002630 -0.218857 0.112805 0.272386 -0.286178 -0.024958 -0.005734 0.011769 -0.239899 0.206748 -0.034532 -0.009758 -0.000728 0.504266 0.367380 0.396436 0.034102 0.116232 0.202083 0.040768 -0.366175 0.012282 0.239770 0.131234 0.140609 -0.434653 -0.287256 -0.251441 -0.030781 -0.679548 0.227302 -0.235315 -0.091757 0.556306 -0.088305 0.031580 -0.249101 0.166798 -0.210983 0.233954 -0.045818 0.097423 -0.243457 -0.141768 -0.139291 0.000773 0.146218 -0.117459 0.088666
sent_129 0.090061 -0.231449 0.208910 0.041618 -0.118378 0.169052 0.314781 -0.403348 -0.534137 0.593094 0.070819 -0.122438 -0.364406 -0.179248 0.138529 0.223187 0.614720 -0.121549 -0.150121 -0.107088 0.064172 0.031282 -0.208295 -0.012800 -0.045086 0.044323 0.446228 0.400062 0.273185 -0.136187 0.899058 -0.329789 0.244001 -0.434321 -0.042615 -0.485923 -0.112553 0.252824 -0.588423 0.063669 -0.021918 0.062147 0.011603 -0.169818 -0.522974 0.446337 -0.483471 -0.017721 0.244615 -0.285283
sent_130 -0.514373 -0.207746 -0.695057 -0.084092 -0.181717 0.248837 -0.488365 -0.606287 0.101816 0.398522 -0.173062 -0.370308 0.098917 -0.357946 0.002751 -0.055296 0.020759 0.781581 -0.010449 0.207973 -0.484381 0.594244 -0.050729 0.831363 -0.234220 0.050589 -0.244347 0.106565 -0.242915 -0.146336 0.548927 -0.078729 -0.043352 0.179575 -0.422788 -0.158855 -0.002995 -0.158456 -0.045089 0.433444 0.027091 -0.050362 -0.242718 -0.086990 0.195733 0.115563 0.027814 -0.051170 0.033870 -0.183006
sent_131 0.099931 -0.587212 -0.034000 -0.120321 0.212307 -0.083246 -0.128759 -0.328462 -0.733745 -0.085967 0.392230 -0.232655 -0.043681 0.112861 0.507478 0.383495 0.775687 -0.418617 -0.197404 0.001833 0.008115 -0.348087 -0.265702 0.045720 0.370517 -0.030694 0.002906 -0.169209 -0.006413 -0.441247 -0.104213 0.458704 0.260396 0.414824 0.360039 -0.369898 0.427223 -0.388610 -0.530472 -0.284947 -0.162815 -0.082521 0.100843 0.087911 -0.393611 -0.133969 -0.517876 0.523063 -0.300356 -0.187127
sent_132 0.134596 0.479060 -0.225909 0.403205 0.040107 0.400801 0.158209 -0.200256 -0.390288 0.141010 -0.518917 -0.642921 0.039885 -0.329976 -0.355578 -0.127639 0.162333 -0.316015 -0.004085 -0.126388 -0.068972 0.596187 -0.182793 -0.125402 0.273724 0.154976 0.418450 0.450980 -0.030038 -0.081463 0.951089 -0.409121 0.335706 0.205798 -0.637374 -0.164828 -0.156388 0.699210 -0.362979 0.361545 0.291756 -0.258596 -0.164058 -0.081191 -0.421946 0.391983 0.048646 0.019019 -0.218729 -0.323252
sent_133 -0.085946 -0.314630 0.077149 -0.023282 -0.183889 -0.381380 -0.097637 0.380625 0.265014 0.065959 -0.364745 0.127723 0.521444 -0.490466 -0.051369 0.039120 -0.218317 -0.393603 0.176960 -0.050995 -0.133459 0.475934 -0.221332 -0.068102 -0.421283 0.394827 -0.181381 -0.155511 0.413426 0.036352 0.593252 -0.216353 0.039655 -0.303457 0.479740 -0.385732 0.222590 0.094659 0.577774 -0.402021 0.073589 0.359834 0.107129 0.276329 -0.632773 0.313882 -0.319154 -0.042502 0.436590 0.383098
sent_134 -0.277631 -0.174575 0.301503 -0.043530 -0.107077 -0.262464 -0.022285 -0.008990 -0.031086 -0.121262 -0.206483 0.250938 0.436828 -0.045695 0.393500 0.184003 0.216125 -0.126903 0.072630 0.101183 -0.163889 -0.106956 -0.156672 -0.037623 -0.075350 -0.005748 0.069570 -0.191350 -0.053922 -0.169933 -0.159680 -0.102618 0.342035 -0.031974 0.152081 -0.467410 0.073896 -0.125083 0.079130 -0.117088 0.231386 -0.499797 -0.159733 0.053326 -0.024416 -0.218098 -0.340175 0.063433 -0.096071 0.273991
sent_135 -0.003536 -0.038397 -0.164632 0.144343 -0.063053 0.172926 0.082434 0.012808 -0.258068 0.074535 0.225825 -0.016040 -0.071562 -0.213172 0.280153 0.300444 0.397329 -0.065031 -0.186319 0.082494 -0.273240 -0.237208 -0.246678 0.037116 0.273285 0.035395 -0.017965 -0.074317 -0.439634 -0.181353 0.081339 0.030228 0.021955 -0.149384 0.091857 -0.223206 -0.023723 -0.209012 -0.199603 0.177254 -0.254764 0.017540 0.080694 0.066965 -0.257108 0.103916 0.036214 0.112020 0.070782 0.073520
sent_136 0.621711 0.184303 -0.201657 0.087178 -0.849681 -0.247002 -0.088355 0.011303 -0.315721 0.072084 -0.339493 0.277662 -0.012363 0.010436 0.135642 0.062164 0.245715 -0.023986 0.010010 -0.391633 -0.023658 -0.036226 -0.108835 0.133905 -0.454580 -0.258550 0.354619 -0.043737 0.224674 0.354622 0.549804 0.196690 -0.167600 -0.126896 0.553416 -0.320843 -0.683231 -0.064069 -0.349142 0.001232 0.271586 -0.197840 -0.342954 -0.452089 0.090432 0.136676 0.359179 0.152589 -0.533556 -0.318566
sent_137 -0.320532 0.089129 0.115078 0.162407 0.402958 -0.202206 0.099187 0.178879 -0.329825 -0.391101 -0.157948 -0.206330 0.059891 -0.351961 0.114964 0.282656 0.065030 0.087389 -0.054941 -0.275959 -0.061263 -0.188557 0.033151 0.194074 -0.095346 0.153176 -0.305092 -0.291461 -0.245402 -0.078389 0.177144 0.164801 0.007562 0.097289 0.190895 -0.350987 -0.251761 -0.089292 0.197858 0.242575 0.147220 -0.355438 -0.120463 0.149797 -0.249300 -0.148179 0.311212 0.075313 -0.311303 -0.055439
sent_138 0.160793 -0.307570 -0.152798 0.104329 -0.035672 -0.328282 -0.216099 0.055308 0.100604 0.007844 -0.375708 -0.157805 -0.058513 -0.144924 0.407282 -0.363788 -0.471415 0.766043 0.347018 0.305565 0.088574 0.918401 -0.210049 -0.610085 -0.531171 -0.214582 0.275448 0.356032 0.254386 0.049841 -0.381358 0.315588 0.148577 -0.029187 -0.372687 -0.008227 0.033755 0.106945 0.488092 0.215561 -0.021130 0.388815 0.342301 -0.082363 -0.161413 0.276286 -0.145123 -0.195801 0.509137 0.202620
sent_139 0.703441 -0.311591 0.296230 -0.209053 -0.325149 -0.265205 0.067590 -0.039299 -0.019665 0.128678 -0.608684 0.080637 -0.558821 0.442402 0.307779 -0.015942 -0.619023 0.396925 0.029179 0.044717 -0.029023 0.395394 -0.091077 -0.429976 -0.347467 -0.082817 0.568334 0.069506 0.388090 0.468841 -0.276382 0.625495 0.252821 -0.146615 0.302892 0.078443 0.323784 0.788266 0.762426 0.343624 0.101516 0.641260 0.339227 0.279769 -0.334317 0.220872 -0.159618 -0.349925 0.653175 0.641601
sent_140 0.636760 -0.370628 0.317187 0.218405 -0.143548 -0.223427 0.161596 0.373428 0.175611 -0.077648 -0.243567 0.103902 -0.311026 -0.119583 -0.055488 -0.043443 -0.882892 0.321241 -0.128472 -0.015393 0.016372 0.806423 -0.400820 -0.810640 -0.408251 -0.031827 -0.056824 0.471207 0.429923 0.273313 -0.309739 -0.060441 -0.088949 -0.582707 0.068359 0.001329 0.267150 0.073882 1.260039 -0.019554 0.145170 0.344140 0.338806 -0.117841 -0.559205 0.409603 -0.032424 -0.233635 0.613504 0.552012
sent_141 0.133356 -0.236863 -0.113495 -0.084213 -0.218266 -0.299867 -0.087516 0.484195 0.121297 0.030832 -0.241543 -0.006331 -0.097239 -0.416860 -0.402074 -0.236807 -0.809911 0.155541 0.140367 -0.178863 0.156808 0.736707 -0.453743 -0.354591 -0.611054 0.311199 0.170929 0.127889 0.293887 0.228808 -0.317591 -0.080394 -0.227696 -0.373989 -0.156790 0.131759 0.133140 0.225330 0.763689 -0.132264 -0.225467 0.299827 -0.159882 -0.157696 -0.223527 0.471540 0.090950 -0.155623 0.560510 0.179311
sent_142 -0.026055 0.047490 -0.079117 -0.171196 -0.218530 0.040669 -0.361178 -0.044578 0.265512 0.161905 -0.656569 -0.173369 0.692939 -0.458801 -0.048513 0.114268 -0.384789 0.203613 0.054981 -0.770116 -0.537319 0.338236 -0.384737 0.085465 0.234319 0.051696 -0.651444 0.044339 -0.242580 0.156504 -0.296989 0.211054 -0.025051 0.194908 -0.125217 0.059444 -0.570345 0.030555 0.173241 -0.160437 0.104137 0.033273 -0.319627 0.112076 -0.307767 0.306293 0.575031 -0.101530 -0.166630 0.291089
sent_143 0.774982 0.131029 0.072276 -0.027911 -0.017338 -0.089200 0.395591 0.334172 -0.495536 -0.193143 -0.375210 0.559357 -0.421050 0.316961 0.343474 0.227285 -0.814225 0.610036 0.201424 -0.166749 -0.090285 0.289798 0.357704 -0.270057 -0.603978 0.044069 0.276089 -0.106926 -0.236860 1.042209 -0.246258 0.548959 -0.051568 -0.302172 -0.017433 0.328073 0.292511 0.517856 1.280194 -0.043710 0.586932 0.041007 0.365981 0.088519 -0.244639 0.053534 -0.008453 -0.335111 0.951666 0.717095
sent_144 0.154870 -0.023488 0.424186 -0.035554 0.562082 0.175022 0.106063 -0.291514 -0.390585 0.175979 0.557205 -0.234661 -0.246978 0.006004 -0.564898 0.030994 0.566392 -0.465738 0.046363 -0.359683 0.157786 -0.382218 -0.126571 0.020498 0.720555 0.046972 -0.226634 -0.000971 -0.536740 -0.297749 0.351016 0.351395 0.528631 0.479086 -0.135709 0.184487 0.690343 -0.088441 -0.223050 -0.896500 -0.180652 0.100805 0.334034 0.290007 -0.329580 0.098553 -0.098072 0.426327 -0.005630 0.193104
sent_145 -0.198844 0.189901 0.194284 0.066420 -0.410683 0.357141 -0.299034 -0.158489 -0.262545 0.401987 -0.207638 0.519668 0.135524 0.096974 0.141852 0.191069 0.326929 -0.426489 -0.105773 0.094397 -0.331958 -0.481671 0.098338 -0.016517 0.225404 -0.502257 0.027971 0.071638 0.153362 0.334756 0.143361 0.236428 0.168901 0.139135 -0.130778 0.059399 0.141225 0.042576 -0.634569 -0.233161 0.090245 -0.081419 -0.426025 0.132404 -0.013645 0.355155 -0.434614 -0.082903 -0.088916 0.186009
sent_146 -0.361796 0.622541 0.228739 0.120179 0.301681 0.402671 0.197209 0.044497 0.459342 0.219300 0.527026 0.202052 0.019769 0.267282 -0.501926 0.142791 0.020115 -0.476850 -0.493576 0.280974 -0.183564 -0.418573 0.174955 0.262415 0.508078 0.317258 -0.147066 0.046158 -0.514792 0.302114 0.043742 -0.562260 -0.053821 0.001916 -0.490860 0.499314 0.316844 0.061215 -0.185346 0.166101 -0.333218 0.135121 -0.065084 0.355219 0.050128 0.427719 -0.165302 -0.005779 -0.093795 0.060554
sent_147 -0.117038 0.195954 -0.574374 0.124076 -0.216713 0.788544 -0.162923 -0.519843 0.194029 0.079747 -0.104092 -0.122421 -0.058842 -0.354253 -0.262069 -0.104391 0.510388 -0.677992 0.055935 -0.319402 -0.204320 -0.040704 0.122083 0.332756 0.515700 -0.059097 -0.226384 -0.027902 0.420775 -0.245996 0.703678 -0.742590 -0.086410 0.049830 -0.173940 -0.000882 -0.157948 0.042318 -0.333019 0.286508 0.507872 -0.520224 -0.426690 -0.296632 -0.211410 0.193717 -0.060234 -0.109649 -0.392068 -0.394820
sent_148 -0.450482 0.107059 0.709380 -0.129862 0.702124 0.290553 0.589816 -0.115060 0.088190 0.240551 1.123189 0.160179 -0.412480 0.261310 -0.485894 0.207513 -0.034449 0.118236 -0.577427 0.581183 -0.050028 -0.156407 0.705316 0.393217 0.513000 0.519294 -0.074980 -0.082624 -0.292567 -0.157955 0.062628 0.170680 -0.059838 0.003792 -0.601312 0.709766 0.701319 -0.171767 0.004925 0.500702 -0.804215 0.409816 1.221125 0.205935 0.063381 -0.198565 -0.071605 0.024592 0.323952 -0.191086
sent_149 0.329740 -0.034072 -0.184809 0.270837 -0.345280 -0.047065 -0.402673 -0.057336 -0.223054 0.017586 -0.262439 -0.391447 0.347673 -0.230787 -0.030981 0.375251 0.309859 -0.259828 -0.121118 -0.203517 -0.434814 -0.135292 -0.185287 0.076819 0.377816 0.120311 -0.494795 0.244628 -0.955497 0.375712 -0.374715 0.388718 -0.295288 0.404714 -0.006322 -0.300341 0.306912 -0.268269 -0.332624 0.049887 -0.156340 -0.180734 -0.652604 -0.060800 -0.161443 -0.008521 -0.118206 0.464122 -0.510653 -0.278064
sent_150 0.165653 0.131953 0.162299 0.026266 -0.120931 0.255370 -0.242405 -0.065681 0.108639 0.385377 0.198865 -0.190921 0.277626 -0.120739 0.338353 0.199251 -0.142220 0.003002 -0.235149 0.137838 -0.085319 0.349476 -0.205975 -0.114569 0.026708 0.086021 0.068325 0.106447 -0.063261 0.365547 0.141628 0.196906 -0.040909 -0.054455 0.052780 0.011059 -0.588867 -0.068782 -0.159034 0.438172 0.038805 0.196962 0.120250 0.083596 -0.200399 0.294743 -0.137871 -0.019447 -0.227781 -0.310321
sent_151 0.038695 -0.227317 0.134433 0.069796 0.171361 -0.267854 -0.025181 0.080989 0.032087 -0.012585 -0.311665 -0.274041 0.568772 -0.032247 -0.106934 0.790981 0.553774 -0.236847 -0.019707 -0.026780 -0.397507 -0.426067 -0.336313 0.090812 0.317846 -0.010012 0.057396 -0.174347 -0.448692 -0.194259 -0.389185 0.161749 0.092852 0.206858 0.819695 -0.479706 0.026000 0.346663 0.032111 0.111664 0.126049 -0.180243 -0.201485 0.021529 -0.269057 -0.045532 -0.256804 0.220703 -0.593473 0.381177
sent_152 -0.237309 -0.134752 0.123627 -0.034232 -0.296607 0.238103 -0.098211 -0.627580 0.294784 0.793262 0.199764 -0.080577 -0.075145 -0.242572 0.045343 0.042446 -0.065095 0.374962 -0.056332 -0.125702 -0.192408 0.000579 -0.011909 0.261115 -0.014766 -0.119845 0.236696 0.228292 0.097917 -0.475408 0.420511 -0.246424 0.008232 -0.218786 -0.207255 -0.144486 -0.683236 -0.146440 -0.319239 0.720558 0.086942 -0.142674 0.168136 -0.207301 0.188274 0.256292 0.038679 -0.170069 -0.025937 -0.441641
sent_153 -0.129352 -0.531842 0.063601 0.024940 -0.178637 -0.285390 -0.198326 0.366058 -0.060399 -0.170886 -0.277799 0.138960 0.036501 -0.593523 -0.039261 -0.209893 -0.629117 -0.050196 0.477328 -0.266301 0.332517 0.278767 -0.312481 -0.342818 -0.476760 0.360916 0.043843 0.085638 0.303863 0.046564 -0.028885 0.086408 0.166915 -0.093805 0.135016 -0.216544 0.199424 0.210831 0.662694 -0.385240 0.213580 0.163250 -0.292238 0.025721 -0.431409 0.252943 -0.181554 -0.041259 0.526000 0.230433
sent_154 -0.167229 -0.059233 -0.333175 0.052395 -0.153403 -0.189085 -0.149966 -0.090850 0.299879 -0.022679 -0.113654 -0.026130 0.334998 -0.304025 0.422507 0.229675 0.112743 -0.017753 0.000100 0.039967 -0.409211 0.543848 0.130303 0.212185 0.071643 0.022970 -0.229172 -0.372115 0.108677 0.198676 0.154982 -0.249333 0.011831 0.125940 -0.118650 -0.081373 -0.250212 -0.261075 0.633198 0.329627 0.161887 -0.283049 0.255124 0.121351 -0.224120 0.020036 0.107047 0.008832 -0.119035 0.120403
sent_155 -0.009932 0.147293 -0.286673 0.210323 -0.332957 0.131158 -0.001917 -0.168901 0.090280 0.258029 -0.016158 -0.055978 0.117645 -0.225516 0.402557 0.118831 0.157061 0.148818 -0.333835 0.222964 -0.346752 0.299909 -0.028911 0.031013 0.044085 -0.045974 0.268643 -0.048351 0.016607 -0.053468 0.295193 0.036652 -0.028559 0.175081 -0.091867 -0.271607 0.046236 -0.141864 0.041986 0.132028 0.194273 -0.046844 0.067105 0.038759 0.068380 -0.071670 -0.214210 0.148068 -0.108345 -0.070462
sent_156 0.463164 0.155467 -0.253212 0.060304 -0.123612 0.285410 0.114646 0.076903 -0.010123 -0.298085 -0.027896 -0.202007 -0.005055 -0.166506 -0.306468 -0.398066 -0.277847 -0.329200 0.179867 -0.526965 0.253511 0.193652 0.066644 0.091940 0.368786 0.377123 -0.287988 0.035019 -0.105770 -0.123010 0.237595 -0.359289 0.003025 -0.072348 -0.368314 0.392106 -0.129809 0.167107 0.290870 0.225394 0.370979 -0.351652 -0.076522 -0.301693 -0.122444 -0.048085 0.564210 -0.050015 -0.095935 -0.345738
sent_157 0.356284 -0.342021 -0.145931 0.152256 -0.367835 0.033373 -0.238892 -0.202001 -0.241699 -0.204613 -0.223348 -0.088656 0.142000 -0.383784 0.513828 0.368884 -0.090655 -0.222598 0.135750 -0.415838 -0.360917 -0.149775 -0.631850 -0.032556 0.205859 -0.096719 -0.038851 0.050068 -0.254717 0.384573 -0.120882 0.693707 0.048329 0.312925 0.394475 -0.440726 -0.284548 0.014817 0.138711 0.169025 -0.059090 0.001343 -0.363099 0.049226 -0.332071 -0.072593 0.079650 0.334574 -0.353482 -0.072736
sent_158 -0.477232 0.011260 0.235227 -0.193119 0.560218 0.522635 0.075264 -0.015410 -0.081425 0.273593 0.429104 0.135995 0.510976 -0.002591 0.225952 0.111194 -0.181287 -0.291677 -0.026264 -0.161335 -0.033890 -0.261250 0.487437 0.117797 0.208510 -0.013151 0.058953 -0.268116 0.009314 -0.413661 -0.026388 0.200464 0.107715 0.361410 -0.452007 0.606196 0.444642 -0.308260 -0.113556 -0.486535 0.017359 0.009591 0.233136 0.351095 0.353852 -0.062164 -0.420088 0.033853 0.380769 0.107599
sent_159 -0.037588 -0.218165 0.031222 -0.296976 -0.315241 -0.330964 -0.386409 0.141588 0.307408 0.235211 -0.003092 0.379103 0.371959 -0.137027 0.287041 -0.012424 -0.103573 -0.230994 0.394866 -0.026467 0.192993 0.201033 0.134918 -0.041600 -0.634877 0.082153 -0.185142 -0.229437 0.629427 0.262849 -0.049573 -0.073309 -0.237850 -0.069137 0.212634 -0.070460 -0.553260 -0.353197 -0.011486 -0.032130 -0.098849 0.032422 -0.045423 -0.082842 0.024802 0.044209 -0.114333 0.123941 0.049606 -0.385121
sent_160 0.373268 0.095088 0.104686 -0.064052 -0.200181 0.038347 0.020934 -0.154990 -0.273335 0.216923 0.086081 -0.449609 -0.301824 -0.353799 0.376353 0.040426 0.258114 -0.127935 0.114718 -0.286902 -0.075451 0.144615 -0.224623 0.186476 -0.101843 -0.521583 0.288345 -0.184935 0.224357 0.064218 1.168449 0.084321 0.114551 0.034960 0.240250 -0.263051 -0.310016 0.088321 0.260554 0.252706 0.163552 0.044884 0.199802 0.220141 -0.363475 0.292005 0.147244 -0.149138 0.081766 0.256025
sent_161 -0.331468 -0.302606 -0.317041 -0.077635 0.234137 0.593651 -0.283685 -0.380370 -0.120052 0.427740 -0.284836 -0.243619 0.605396 -0.061055 0.242632 0.073788 0.272105 -0.461544 -0.061892 -0.140028 -0.150127 0.258081 0.134929 0.036796 0.361339 -0.121724 -0.194023 0.076380 0.272784 -0.224610 0.075816 -0.219677 0.188413 -0.012669 -0.260257 0.183286 0.032555 -0.087502 -0.400605 0.661546 0.169819 0.079303 0.376865 -0.021755 -0.272495 0.031747 -0.288890 -0.038873 -0.193921 -0.133762
sent_162 -0.276059 0.278066 0.362643 -0.100519 -0.274110 -0.063554 -0.246903 -0.567628 0.410210 0.648288 0.817596 -0.012272 -0.319608 -0.460709 -0.020639 0.550148 0.399301 -0.034908 0.255654 -0.167433 -0.050205 -0.032883 0.299957 -0.156062 0.184533 -0.230669 0.173929 -0.341762 0.427978 -0.863881 -0.060567 -0.093580 -0.155627 0.314800 -0.276476 -0.212323 -0.801702 -0.106656 -0.542346 1.062776 -0.308762 -0.059074 -0.008063 -0.159334 0.099802 -0.141688 -0.280085 -0.205174 -0.314321 -0.987231
sent_163 -0.443204 -0.062176 0.139656 0.207243 0.085791 0.101518 -0.007174 0.098620 -0.241774 0.187254 0.065283 -0.100069 0.216772 -0.257931 0.672533 0.118369 0.393952 -0.308818 -0.222110 0.040750 -0.136984 0.076116 0.480452 0.019598 0.172875 -0.287158 -0.194145 -0.074308 0.397436 -0.297357 0.612854 -0.302699 0.184208 -0.174371 -0.210415 -0.214513 -0.265833 -0.206963 -0.103912 0.544713 0.005456 -0.193713 0.244327 0.051895 -0.210168 -0.141960 -0.109915 -0.320217 -0.057515 -0.139086
sent_164 -0.136770 0.101806 -0.253386 0.158047 0.031795 0.051735 -0.225403 -0.283677 -0.345507 0.007404 0.029167 -0.422061 -0.178191 -0.368419 -0.160214 0.069036 0.205614 0.085623 0.029889 -0.227668 -0.038052 -0.215878 -0.274056 0.313639 0.171736 0.022722 0.046997 0.142761 -0.127754 -0.426961 0.290729 0.207246 0.052459 0.230959 -0.096465 0.077860 0.131457 0.394148 -0.413062 0.102401 0.004784 0.237923 -0.169720 -0.139979 -0.321625 0.293982 -0.005518 -0.153972 -0.095028 -0.142057
sent_165 -0.329559 -0.180785 -0.061332 0.200504 0.087411 0.130952 0.046869 -0.396289 -0.583974 -0.161684 0.607060 -0.416155 -0.135352 -0.044279 0.208813 0.268757 0.585754 -0.442772 -0.234467 0.131021 0.109709 -0.177861 -0.792776 0.349064 0.297620 0.294861 0.347896 0.247752 0.059294 -0.199034 0.454458 -0.394635 0.406544 -0.331861 -0.014264 -0.124465 0.033473 0.132430 -0.585837 0.605050 -0.302725 0.060536 0.159775 -0.121187 -0.779569 0.511828 -0.672685 -0.050995 -0.067031 -0.215144
sent_166 0.159284 -0.284385 -0.211297 0.081672 -0.364912 -0.591034 0.065421 -0.234273 -0.640629 0.055637 0.491540 -0.043817 0.146295 -0.252317 0.856689 0.300010 0.538731 -0.143878 0.339773 0.000469 0.347130 -0.166184 -0.253528 0.194663 -0.186392 0.421486 0.287399 -0.272014 -0.102431 0.295201 -0.313177 0.675186 -0.125664 0.178429 0.472111 -0.536832 -0.086148 -0.153950 -0.333610 -0.530761 0.307916 -0.505855 -0.127062 -0.636214 -0.164785 -0.215491 -0.335094 0.309052 -0.172558 -0.527139
sent_167 -0.863311 -0.136657 -0.244528 0.294547 -0.844575 0.271400 -1.091324 -0.466471 0.004828 1.011814 -0.221641 0.052995 0.322718 -0.650514 0.037073 0.282988 -0.106229 0.711647 -0.244563 0.764468 -0.639879 0.781263 0.153809 0.557553 -0.016133 -0.108242 -0.334089 0.540585 -0.666285 1.269062 0.496258 0.662626 -0.533704 0.763482 -0.514359 -0.173629 0.257647 -0.198786 -0.210716 -0.593492 0.158821 0.006715 -0.554763 -0.177643 -0.150969 0.779340 0.054732 -0.045149 -0.171997 0.336828
sent_168 -0.282419 -0.072199 -0.174831 0.402767 -0.513548 0.062677 -0.904796 -0.373067 0.052915 0.628904 -0.099003 -0.153893 0.100519 -0.416289 -0.076579 0.287858 -0.109884 0.362433 -0.358479 0.531660 -0.342166 0.731948 0.040079 0.314961 0.075125 -0.077902 -0.493633 0.661457 -0.463077 1.312366 0.345864 0.593504 -0.643240 0.587743 -0.456668 0.061993 0.254796 -0.044727 -0.184391 -0.230691 -0.037629 0.436249 -0.136453 -0.100735 -0.373747 0.882024 -0.066742 0.131433 -0.309313 -0.088379
sent_169 -0.488002 0.239997 0.425589 0.007080 0.554512 0.174801 0.459870 -0.131881 0.137860 0.613501 0.880479 0.347212 -0.327754 -0.100731 -0.311936 0.500057 0.150008 -0.110838 -0.191553 0.116278 0.125820 -0.083520 0.591850 -0.127716 0.082597 0.025392 0.275229 -0.200094 0.023446 -0.009178 -0.240405 -0.036726 -0.191167 -0.052143 -0.739616 0.687253 0.546106 -0.473518 -0.115654 0.472290 -0.212016 -0.082343 1.205832 -0.065453 0.223949 0.025938 -0.231960 0.094191 0.209835 -0.492214
sent_170 -0.525736 0.354894 0.500152 -0.391674 0.270407 -0.122589 -0.460588 -0.685000 0.583560 0.315860 -1.172933 0.294569 -0.152154 0.249592 -0.901075 -0.011250 -0.377524 0.146269 0.804212 0.184433 -0.588560 0.125130 0.116098 0.551614 -0.661722 -0.438011 0.278548 -0.518146 -0.341215 1.071972 0.039149 0.524667 0.030149 0.489435 -0.222076 -0.059304 0.508077 0.841144 0.555757 0.385246 0.120021 -0.056275 -0.029363 0.692913 0.178816 0.581658 -0.032807 -0.238740 0.148270 0.763528
sent_171 -0.500026 0.020345 0.367987 -0.065157 0.410686 0.144059 -0.385975 -0.433636 -0.211943 0.450905 -0.058478 -0.132428 0.235671 0.282533 0.156412 -0.035939 0.415277 -0.206016 0.118626 0.418997 -0.119948 -0.408033 0.131643 0.488031 0.136716 -0.488572 0.101188 -0.183374 -0.314319 -0.322014 0.075761 0.566814 0.224381 0.132427 -0.058137 0.166476 0.411239 -0.056472 -0.475969 0.181727 -0.157272 0.152041 0.408599 0.332803 0.359222 0.312728 -0.140734 0.034156 -0.160812 0.341410
sent_172 -0.155088 0.087574 -0.054409 0.158964 -0.271754 0.178230 -0.274507 -0.409101 -0.173635 0.008238 -0.312971 -0.137638 0.192982 -0.246022 -0.065810 0.181040 0.497193 -0.389652 0.529592 -0.221173 -0.247957 0.155224 0.199855 -0.192599 0.407901 -0.006724 -0.218792 -0.134158 -0.138436 0.075492 0.114167 -0.271645 0.118729 -0.044301 -0.248140 -0.167038 -0.921067 -0.117321 -0.180257 0.358965 0.436928 -0.856140 -0.460006 -0.336742 -0.365987 0.212128 0.016976 -0.196072 -0.032182 -0.156739
sent_173 0.661669 -0.029775 0.112435 -0.013993 -0.019832 0.022090 0.380984 0.294616 -0.434660 -0.313858 -0.130316 0.487660 -0.451157 0.259904 0.194274 0.230076 -0.930862 0.331339 0.244775 -0.283299 0.121378 0.208167 0.218557 -0.381432 -0.485421 0.163724 0.336952 -0.018441 0.023863 0.905435 -0.108612 0.403583 0.022931 -0.255618 0.045783 0.345212 0.295015 0.399729 1.236417 -0.206186 0.671504 0.030353 0.206321 0.126148 -0.297404 0.025069 -0.281901 -0.238982 0.964876 0.535099
sent_174 0.508828 -0.064891 0.376424 0.763962 -0.458597 -0.365395 0.378228 -0.001756 0.028327 0.369816 0.550152 0.613947 -0.194638 -0.095759 0.610720 0.553965 0.553967 -0.382205 0.186636 -0.592845 -0.027023 -0.790712 0.763076 -0.101886 -0.337941 0.039247 -0.061040 0.093565 -0.427671 1.001152 0.160610 0.161304 -0.626825 -0.521888 0.763747 -0.560314 -0.326816 -0.130552 0.222965 -0.081104 0.027833 -0.103391 -0.597355 -0.220638 0.019207 -0.470682 -0.195090 0.219414 0.309500 -0.690806
sent_175 0.189726 0.293035 -0.332050 0.206140 -0.157011 0.198539 -0.074013 -0.344433 0.063490 0.081826 0.105783 -0.356046 0.079372 0.144006 0.131748 -0.245133 0.049465 0.326668 0.018988 0.120429 0.018612 0.602908 0.010842 -0.270235 0.144074 -0.398626 0.189928 0.285008 0.126854 0.106175 0.002479 -0.315820 0.012568 0.016222 -0.505442 0.117074 -0.486173 0.034830 -0.193783 0.460273 0.256825 -0.163446 -0.009894 -0.209189 0.209455 -0.113141 -0.306886 -0.198634 0.051514 -0.355234
sent_176 0.355363 -0.205908 0.097339 -0.461151 0.012702 -0.158585 0.042353 0.283056 0.257047 0.193666 -0.340751 0.265724 0.082548 0.075101 -0.308335 -0.333550 -0.353883 0.237383 0.084191 0.040551 0.180382 0.302611 -0.004287 -0.071921 -0.267314 0.230873 -0.244491 -0.032327 0.348177 0.129158 -0.227545 0.060458 -0.079049 -0.226181 0.295101 0.132339 0.114147 0.238846 0.263623 -0.610399 0.002482 0.314004 0.132415 -0.142302 -0.150712 0.209950 0.149733 -0.116589 0.371728 0.388936
sent_177 0.341144 0.001630 0.148473 0.213478 0.013247 0.058911 -0.138481 -0.361080 0.175246 0.043641 -0.213710 -0.339006 -0.149963 -0.189222 -0.128090 0.357358 -0.099395 -0.326536 0.082414 -0.488910 -0.331937 0.076505 -0.214180 0.080677 0.254898 -0.191168 -0.075446 0.124493 -0.273808 -0.237416 0.074690 -0.100090 -0.086993 -0.096759 -0.291095 -0.034025 0.042007 -0.296225 0.432648 0.280613 0.433705 -0.194118 -0.065714 -0.014815 -0.125560 0.069035 -0.175423 0.022844 -0.072250 -0.082183
sent_178 0.852791 0.095547 0.059026 0.018347 -0.173765 -0.026445 0.379459 0.273521 -0.489350 -0.312809 -0.232089 0.570349 -0.535574 0.317776 0.271092 0.253103 -0.818721 0.450469 0.239153 -0.230433 0.008957 0.258419 0.221129 -0.269011 -0.502619 0.112448 0.434969 -0.055659 -0.012769 1.012789 -0.138712 0.523597 0.004061 -0.224181 0.093589 0.357238 0.309068 0.559355 1.251650 -0.202292 0.664708 0.063141 0.216061 0.071073 -0.293923 0.114270 -0.139278 -0.261628 0.932878 0.640226
sent_179 -0.153167 -0.090498 -0.355430 -0.113211 0.309967 -0.174145 0.293198 -0.235605 0.587291 -0.531002 -0.362245 0.231396 0.180861 -0.155178 -0.066600 0.604033 -0.255208 0.386801 -0.086028 0.092348 -0.390826 -0.087090 0.345889 0.086584 0.190585 0.630532 -0.259550 -0.459130 0.247414 0.012935 -0.719888 0.025795 -0.259861 0.371886 1.012764 -0.415890 -0.258610 0.628709 0.795963 0.002368 0.807688 -0.368083 -0.066460 -0.178101 0.086597 -0.710873 0.085259 0.002272 -0.412788 0.329855
sent_180 0.060343 -0.081523 -0.359582 -0.178581 -0.061842 0.508757 -0.248344 -0.522327 -0.226187 0.342780 -0.177105 -0.025782 -0.115177 0.382055 -0.415745 0.232705 0.709194 -0.537402 0.209119 -0.359128 -0.293816 -0.171545 0.136220 0.192375 0.389088 -0.173979 0.349237 -0.053077 -0.116196 0.160643 0.262020 -0.180095 0.304472 0.293442 -0.262884 0.203939 0.008005 0.282848 -0.499059 0.412264 -0.295374 0.077048 -0.192087 0.252920 -0.149091 0.261039 -0.318380 0.154114 -0.020071 -0.255912
sent_181 0.711345 -0.070315 0.153744 0.059979 -0.216660 0.035204 0.383117 0.205878 -0.399199 -0.026237 -0.173991 0.535178 -0.596638 0.200910 0.341274 0.300740 -0.826828 0.640818 0.011616 -0.047500 -0.037221 0.429885 0.235586 -0.303823 -0.439542 0.176657 0.410722 0.091983 0.002817 0.999449 -0.042180 0.556406 0.052185 -0.269862 0.064832 0.316631 0.374830 0.618297 1.328842 0.037737 0.594633 0.167438 0.507330 0.090446 -0.387500 0.128384 -0.067862 -0.275287 0.935850 0.682013
sent_182 0.674895 0.300008 0.647725 -0.321205 -0.060000 -0.448496 -0.046108 0.333730 0.467641 0.328137 -0.171089 0.617398 0.301062 0.272733 -0.206381 1.122711 0.280541 0.309688 0.606773 -1.504887 -0.522046 -0.525100 0.627136 0.583747 -0.519899 0.109956 0.105287 -0.764915 -1.164052 0.418314 -0.528413 0.118387 -0.190815 -0.129311 -0.003489 0.410469 -1.424334 0.262426 0.612289 0.852900 -0.731002 -0.205804 -0.453611 0.384666 0.118621 0.346788 1.301874 0.243518 -0.102940 -0.701596
sent_183 -0.014496 0.109944 0.394823 0.032251 0.411772 -0.286002 0.092938 -0.242153 0.160460 -0.324728 -0.180205 -0.139051 -0.145004 0.015006 0.220462 0.254975 0.102376 0.062863 -0.025648 0.052292 -0.243959 -0.185109 -0.008852 0.221129 0.072922 -0.196214 -0.184526 -0.075816 0.046252 -0.050689 0.031304 0.367507 -0.035220 0.222688 0.418995 -0.478474 -0.070701 0.023532 0.413532 0.042179 0.120130 -0.111612 0.016420 0.336132 0.056589 -0.392913 0.166063 0.186803 -0.312716 0.287530
sent_184 0.292000 0.109640 -0.143179 -0.135904 -0.617353 -0.363559 0.040592 0.265151 -0.495698 0.055692 -0.036433 0.408048 0.238188 -0.226731 1.015245 -0.065548 0.502766 0.204876 -0.036455 -0.248994 0.068063 0.094410 0.004862 -0.349263 -0.243264 -0.553901 0.490699 -0.389367 0.746612 -0.466923 -0.019628 0.184361 0.097471 -0.335462 0.166913 -0.108865 -0.999267 0.099251 -0.275256 0.619689 -0.024172 -0.131612 0.391329 -0.327226 0.009052 -0.193305 0.107171 -0.160255 -0.169699 -0.246418
sent_185 -0.446942 -0.239524 -0.097529 0.231999 -0.167837 -0.075976 -0.078359 0.158783 -0.176694 -0.357420 -0.002453 0.000058 0.269512 -0.362440 0.099628 -0.079514 -0.076800 -0.301646 0.076792 0.024667 -0.051423 -0.169363 -0.485140 0.271415 -0.000823 0.432801 -0.048925 0.030306 -0.087532 0.112662 0.395202 0.140023 0.050416 -0.120532 0.248252 -0.253164 -0.427709 -0.175611 0.048779 0.170369 -0.244715 -0.160384 -0.016858 -0.117519 -0.073695 0.096406 0.561823 0.196918 -0.421121 -0.083919
sent_186 0.323496 0.096122 -0.202913 0.001132 -0.037401 -0.144688 0.118490 0.015365 -0.320937 -0.031925 -0.381284 0.107326 -0.021543 -0.037219 0.241979 0.124585 -0.186055 0.332905 0.334299 -0.246715 -0.125720 0.389248 -0.002638 -0.200847 -0.376691 -0.153935 0.502620 -0.218877 0.038077 0.270223 -0.027399 0.393738 0.015923 -0.162364 -0.125124 -0.033926 -0.267682 0.294858 0.581929 0.083391 0.455807 -0.102570 0.179930 -0.074235 0.029127 0.160671 0.012639 -0.136437 0.395619 0.151360
sent_187 -0.417476 -0.251284 -0.504582 0.265091 -0.445357 0.222867 -0.517736 -0.539806 -0.106651 0.863157 -0.011179 -0.272824 0.185807 -0.400139 0.412694 0.205621 0.304621 0.414869 -0.329075 0.087520 -0.552259 0.277806 0.008975 0.618457 -0.155773 -0.402489 0.171979 0.416228 -0.345385 0.108023 0.768287 0.060130 -0.351830 -0.107922 -0.162471 -0.185908 -0.152887 -0.393677 -0.224747 0.221752 0.224138 0.003221 -0.162449 -0.180047 0.226456 0.406551 0.047103 -0.060452 -0.183852 -0.090703
sent_188 -0.212258 0.042674 -0.140067 0.028481 -0.246100 -0.123656 -0.315113 0.015378 0.075183 0.130370 0.000628 -0.073200 -0.044719 -0.079418 0.027202 0.030427 0.199353 -0.292632 0.081376 0.214583 0.075163 -0.077842 0.060471 -0.002749 0.075175 -0.095250 -0.360968 -0.099969 0.063626 0.367908 0.094495 -0.132792 -0.173621 0.073065 -0.069125 -0.050025 0.044849 -0.222111 -0.217303 -0.124017 0.213278 -0.078729 -0.290449 -0.074819 -0.045720 0.191991 -0.093581 -0.117721 -0.147510 -0.084629
sent_189 -0.505843 -0.333985 -0.123799 0.145948 -0.247592 0.064855 0.105528 -0.294634 -0.715121 -0.128591 0.486652 -0.356898 -0.305311 -0.309618 0.225268 0.354838 0.418953 -0.172469 0.115683 -0.020501 0.232918 0.131798 -0.600843 -0.574561 0.448949 0.160217 -0.071463 0.197772 0.265761 -0.066294 0.022869 -0.107779 0.193573 0.021533 -0.241932 -0.453046 -0.749987 -0.232871 -0.769839 0.354964 -0.033917 -0.626745 0.101642 -0.462519 -0.815329 0.150020 -0.000877 -0.047551 -0.303845 -0.517412
sent_190 0.036195 0.392156 0.212415 -0.127194 0.277681 -0.690701 -0.001956 0.054260 0.254076 -0.566653 -0.260259 -0.030157 0.189353 0.016155 0.145739 0.135066 0.251391 0.366180 0.383495 0.207930 -0.036708 0.112602 0.005532 0.177272 -0.047381 0.068379 -0.603164 -0.358310 -0.105721 0.079957 -0.428658 0.200629 -0.180502 0.032679 0.159132 -0.180569 -0.357981 0.040983 -0.042053 -0.282652 -0.009632 -0.106045 -0.058237 -0.099077 -0.098170 0.046882 0.442697 -0.057245 -0.177445 0.181561
sent_191 -0.269178 -0.180930 0.334700 0.272441 -0.333135 -0.073041 -0.097106 0.286143 -0.251629 0.035110 -0.389516 0.168562 0.128109 -0.331374 -0.319178 0.401334 -0.041139 -0.502384 -0.206491 0.084065 -0.414029 -0.183978 -0.115239 -0.201411 0.220899 0.051123 -0.010317 -0.167382 -0.223077 0.262654 0.384644 0.489408 -0.362775 -0.018861 0.526050 -0.589474 -0.282635 -0.659858 0.081499 -0.389658 0.036151 -0.203640 -0.004090 0.022138 -0.150802 0.299188 0.281947 0.124461 -0.319786 0.287301
sent_192 -0.096931 -0.363266 -0.037111 0.026442 0.325280 0.166648 -0.293973 -0.481002 -0.199364 0.339418 -0.532909 -0.597390 -0.092580 -0.277150 -0.240696 -0.070985 0.105643 -0.015349 -0.229503 0.150574 -0.453391 0.390531 -0.451140 0.102175 0.203709 -0.248553 -0.217575 0.407913 -0.153985 -0.094168 0.320399 0.351219 -0.032902 0.074013 -0.250461 -0.259668 0.087333 -0.089270 0.014581 0.161727 -0.255859 0.173347 0.235063 0.102802 -0.294676 0.192107 0.054129 0.053393 -0.086358 0.227461
sent_193 -0.171075 -0.144459 -0.062574 -0.029206 0.398763 -0.111417 -0.417105 -0.270580 -0.095287 0.019772 -0.186475 -0.131083 0.705523 0.093012 0.489904 0.268528 0.525597 -0.206943 0.053467 0.381265 -0.407853 0.262449 0.201581 0.363035 0.061199 -0.195747 -0.413790 -0.302964 -0.299578 0.202933 0.039720 0.187508 -0.028737 0.356602 0.012257 -0.295835 0.130709 -0.667898 0.174940 -0.369127 0.193357 -0.424109 0.102008 0.206952 -0.082030 -0.037935 -0.290991 0.376664 -0.302270 0.221025
sent_194 -0.381529 -0.141754 -0.659459 -0.182818 -0.588600 -0.053427 -0.585656 0.370766 0.400366 0.476040 -0.026456 0.275947 0.280011 -0.409691 0.330913 -0.116616 -0.008471 0.140042 -0.059017 -0.050233 0.041483 0.195794 0.107981 -0.216477 -0.227210 -0.219339 0.128668 -0.183865 0.111474 -0.143264 -0.380983 -0.206215 -0.156382 0.278610 -0.235852 0.228708 -0.053858 -0.317805 0.034623 -0.285289 -0.086798 0.312015 -0.164815 0.047954 0.357361 0.175703 -0.077422 -0.135668 0.063960 -0.044507
sent_195 0.278565 -0.119528 0.485606 0.054119 0.059063 -0.051870 0.046678 0.369265 -0.376347 0.205958 0.027473 -0.242611 -0.186364 -0.413843 0.451587 -0.129054 -0.164769 -0.050415 -0.031006 -0.181216 0.225612 0.013429 -0.447361 -0.404767 0.066061 -0.480262 0.131619 0.097021 0.257847 -0.383280 0.103748 0.367926 0.142533 -0.325916 0.147693 -0.132366 0.010055 0.165087 0.323839 -0.153523 0.225499 0.056461 0.098268 -0.023824 -0.206876 0.225365 0.162727 -0.250521 0.287833 0.497683
sent_196 0.373177 -0.179944 -0.228483 -0.127598 0.447266 -0.370342 0.093653 -0.080450 -0.168365 -0.051558 -0.408012 -0.467466 0.548422 0.031486 -0.068720 0.846544 0.803741 -0.218058 0.222505 -0.479141 -0.438815 -0.536402 -0.433573 0.142248 0.401711 -0.064414 -0.062498 -0.253034 -0.642690 0.136871 -0.574103 0.412997 0.204830 0.522581 0.747985 -0.383369 0.061132 0.495813 -0.274793 -0.185113 -0.019853 -0.083619 -0.216767 0.147997 -0.523168 -0.094471 -0.427996 0.449579 -0.577779 0.234794
sent_197 -0.307722 -0.173935 0.601541 -0.201588 0.830957 0.381365 0.557745 -0.107357 -0.301249 -0.093873 0.996129 0.052459 -0.479230 0.335076 -0.440029 0.274494 0.071610 -0.175652 -0.391050 0.287135 0.064679 -0.303349 0.252064 0.310335 0.545172 0.411091 0.185697 -0.078623 -0.156606 -0.403499 0.180830 0.159366 0.235151 -0.091966 -0.526629 0.789779 0.565074 -0.284743 -0.214418 0.246024 -0.855635 0.325677 1.100270 0.203742 -0.162660 0.097086 -0.082774 0.152813 0.304561 -0.170828
sent_198 -0.338096 -0.177505 0.085231 0.157824 -0.064373 -0.027047 -0.128732 0.010006 -0.068125 0.158113 -0.003244 -0.254740 0.445467 -0.195162 0.155430 0.318865 0.441192 0.052894 -0.364235 0.284584 -0.399654 0.305193 -0.264745 -0.116027 0.381887 0.036402 -0.060345 0.088121 -0.421416 -0.167892 -0.163830 0.160295 0.063538 0.326222 0.152077 -0.619252 -0.067079 -0.357180 0.066264 -0.290308 0.072752 -0.512771 -0.119111 -0.035203 -0.041550 -0.219278 0.273366 0.271596 -0.584245 0.252343
sent_199 0.273121 -0.091391 -0.870914 0.185533 -0.360440 0.237290 -0.715071 -0.453692 0.653968 0.282088 0.149210 -0.472754 0.380928 -0.379290 0.250599 -0.015671 -0.212660 0.154968 0.116614 0.137055 -0.013439 1.290945 -0.254895 -0.009736 -0.098291 -0.180763 0.205344 0.315843 0.702474 0.163414 0.054587 -0.336796 -0.224048 0.606321 -0.603038 0.250773 -0.364180 0.059464 0.139344 0.448506 0.183052 0.347918 -0.130223 -0.355520 0.109707 0.101026 -0.574787 0.046372 -0.279357 -1.018024
sent_200 0.044760 0.164689 -0.037971 -0.170907 0.207617 -0.346874 -0.030333 -0.103095 0.410184 -0.232941 -0.459359 0.197089 0.489655 0.205917 0.420083 0.133382 0.178426 0.121379 0.132318 0.329869 -0.221380 0.339086 0.349012 -0.003297 -0.028592 -0.063975 -0.431607 -0.410697 0.276196 0.128979 -0.465265 0.034463 -0.020772 0.147561 0.073715 0.072324 -0.163940 -0.050570 -0.013757 0.043031 0.126613 -0.104431 0.314320 -0.043354 -0.073673 -0.017596 0.095621 0.001338 -0.229401 0.220439
sent_201 0.277156 -0.583357 -0.075080 -0.062844 -0.290661 -0.310267 -0.083028 0.577140 0.172571 -0.151794 -0.237354 0.098813 0.053497 -0.514376 -0.265128 -0.347618 -1.043916 -0.024287 0.149947 -0.433744 0.172956 0.676512 -0.536200 -0.528029 -0.544884 0.435592 -0.100256 0.233585 0.604921 -0.008306 -0.355979 0.034396 -0.011848 -0.334566 -0.013323 0.160059 0.426886 0.295844 0.843169 -0.146178 -0.402974 0.604221 -0.101761 -0.156747 -0.516926 0.349949 -0.106246 -0.156584 0.727891 0.120497
sent_202 1.030203 -0.170686 0.228290 -0.151579 -0.241356 -0.243665 0.196800 0.696150 -0.210576 -0.162298 -0.477830 0.244030 -0.484935 0.173419 -0.090276 -0.122659 -0.947948 0.038457 0.120003 -0.335532 0.041767 0.729977 -0.397143 -0.688031 -0.498894 -0.160848 0.766464 -0.138732 0.366087 0.433336 -0.076463 0.446495 0.070241 -0.500760 0.060159 0.407332 0.123281 0.256210 1.443788 -0.064343 0.121376 0.521387 0.535048 0.245776 -0.170743 0.671343 0.271577 -0.158518 0.857646 0.765150
sent_203 -0.055026 -0.330547 -0.391052 -0.078774 0.110419 0.023199 -0.293946 -0.039501 0.060325 0.246737 0.053565 -0.176626 0.165394 -0.115870 0.294397 -0.115121 0.106631 0.186146 0.272083 0.106347 0.041555 0.614660 -0.156896 -0.082952 -0.354824 -0.054138 -0.194119 0.115249 0.192557 0.520700 -0.000096 -0.334705 0.202706 -0.160262 -0.256915 0.345120 -0.003172 -0.009054 0.408189 -0.221029 0.112509 0.186609 0.070698 -0.062719 -0.501149 0.551871 -0.712971 -0.264825 0.601689 0.268419
sent_204 -0.476465 -0.013334 -0.600532 -0.148307 -0.734504 -0.372768 -0.724188 0.254046 0.686282 0.498444 -0.176467 0.265128 -0.152714 -0.502091 0.123094 -0.219716 0.355337 0.235133 0.004505 0.444501 0.076511 0.422100 0.413844 -0.423260 -0.601954 -0.011236 0.211527 -0.246856 0.407594 -0.197010 -0.534477 -0.506310 -0.396694 0.065273 -0.024950 -0.119213 -0.483556 -0.254815 0.118744 0.382868 -0.466308 0.260057 -0.297456 -0.123545 0.325573 0.204626 -0.091301 -0.065023 0.069559 -0.154905
sent_205 -0.302215 0.026377 0.190328 -0.053470 0.256867 0.407499 -0.244882 -0.655846 -0.229310 0.491103 0.143604 -0.026656 0.062289 0.266898 -0.289516 0.250872 0.209156 -0.249907 -0.117966 0.445919 -0.279148 0.066611 0.107506 0.144424 0.159405 -0.159352 0.254154 0.097744 -0.277134 0.442642 0.277163 0.252335 -0.063905 0.171351 -0.344601 0.145723 0.207003 -0.402876 -0.381827 0.181901 0.015469 -0.047452 0.340285 0.224564 -0.066544 0.342509 -0.877593 0.207520 0.101311 -0.087193
