sent_0 0.039101 0.381674 -0.101135 0.461111 -0.295547 -0.002143 0.288227 -0.249783 -0.070024 -0.198413 -0.138039 0.253828 0.030428 -0.389407 0.234777 0.603715 -0.064113 -0.201985 -0.084518 -0.198165 -0.105794 -0.173035 0.439720 -0.161919 -0.148920 -0.019589 -0.019233 -0.057527 0.243435 0.539484 0.167801 0.162474 -0.175057 0.432029 -0.177780 -0.328131 -0.429897 0.607723 0.065570 0.325508 -0.158239 0.240304 -0.391489 0.500642 0.266679 -0.278870 -0.092053 0.450426 0.149734 -0.342809
sent_1 -0.418850 -0.237411 -0.091775 0.057164 0.065408 0.018597 -0.133079 0.222093 -0.603895 0.287791 0.216569 -0.481592 0.544236 -0.416510 -0.459386 0.130372 -0.233211 -0.130563 0.344429 0.088994 -0.426924 0.224220 0.775613 1.310588 0.469295 -0.033132 0.205849 -0.404537 -0.245889 0.017770 0.067681 -0.077157 0.086161 -0.184670 0.095189 -0.348762 -0.080029 -0.415174 -0.150843 0.336050 0.330952 0.473446 0.098642 0.415545 -0.262221 -0.075301 0.091932 -0.199993 0.047594 0.119968
sent_2 -0.012209 0.150809 -0.156465 -0.126785 0.413173 0.283501 0.041203 -0.244000 -0.175661 -0.144822 0.140576 -0.102817 0.314853 -0.121813 0.214362 -0.217985 -0.446553 -0.221469 0.304284 0.121366 0.035130 -0.342708 0.137146 -0.402685 0.054872 -0.025487 -0.131677 0.077463 0.171259 0.845463 0.405915 -0.091506 -0.603820 -0.002264 -0.223362 -0.311382 -0.569565 -0.250487 -0.551256 -0.915694 -0.668739 0.592359 -0.334886 0.313779 0.081015 0.053028 0.330700 0.310026 -0.158276 0.071384
sent_3 -0.186832 -0.139249 -0.103288 0.031326 0.154208 0.091036 0.071195 -0.049599 -0.420349 0.229452 0.359127 -0.008221 0.197018 -0.593733 0.028170 -0.098385 0.028793 0.127686 -0.028604 -0.020632 0.036222 0.082261 0.496699 0.437040 0.000077 0.393646 -0.181738 -0.080634 0.003548 -0.126534 0.132833 0.148922 0.228614 -0.314098 0.157875 0.012500 -0.056838 -0.258589 -0.255363 0.521881 0.192519 0.541987 -0.044636 0.055009 0.171530 0.000900 0.240276 -0.065975 0.265709 -0.203406
sent_4 -0.171931 -0.506213 -0.214921 -0.007871 0.031295 0.134769 -0.202311 -0.516047 -0.356038 0.221141 0.282612 0.415330 -0.506352 0.072512 -0.146072 -0.197564 0.276507 0.361142 -0.000998 0.330221 -0.198687 0.154400 0.171266 0.439747 0.517444 0.370950 -0.618575 -0.543679 0.583719 -0.518251 0.194433 0.452268 -0.044588 -0.222485 0.193417 0.505366 0.137161 0.066331 -0.286514 0.495468 -0.235198 0.472958 0.218458 0.546219 0.038373 -0.133026 0.499943 0.364671 0.264123 -0.272398
sent_5 0.871600 -0.096619 0.488983 -0.049198 0.027577 0.520251 -0.315761 0.190993 0.593515 0.017165 -0.052320 0.310845 -0.135407 0.963734 0.000937 0.652465 -0.377163 -0.415366 -0.341091 -0.761127 -0.376070 0.785509 -0.647268 -0.287295 0.045053 0.068374 0.040349 -0.237865 0.355753 -0.191138 0.225795 0.753064 -0.993762 0.394018 -0.397544 0.198154 0.382662 0.329853 0.409300 0.037686 -0.128762 -0.807489 -0.456332 -0.332281 0.311765 0.367694 -0.364037 0.005223 -0.049866 -0.869393
sent_6 -0.310893 0.312659 0.179617 -0.361277 -0.271584 -0.312654 -0.167692 -0.143752 0.410192 0.011317 -0.054539 -0.116143 -0.064191 0.003878 0.380981 0.082196 0.335928 0.311262 -0.064695 -0.249245 -0.258599 -0.352730 -0.445202 0.123928 -0.084988 -0.347416 0.299864 -0.139397 -0.287831 0.049047 -0.352008 -0.382844 0.436611 -0.445069 0.365209 0.497798 -0.529103 -0.408594 -0.066412 -0.155480 -0.103108 0.353197 0.184424 -0.020457 -0.704138 0.312723 0.178249 -0.214649 -0.373681 0.549214
sent_7 -0.075830 -0.435427 -0.545719 0.317735 0.800480 -0.191341 0.627589 0.403242 -1.033926 0.290438 -0.359474 -0.879155 -0.978922 -0.019686 -0.173770 -0.259073 -0.058947 0.196080 -0.071054 0.214300 0.982901 -0.273988 0.339810 0.186253 -0.191994 0.060116 0.688715 0.227491 0.073280 0.387225 -0.524194 0.421776 -0.162212 0.765389 0.001970 -0.099567 0.097162 0.431824 0.191179 -0.127209 -0.273810 0.247784 0.481691 0.250485 0.042778 -0.515767 -1.051281 0.328734 -0.275189 0.042595
sent_8 0.207484 -0.289499 -0.651847 -0.049443 0.802107 0.088994 -0.025882 -0.460649 -0.144903 -0.000641 0.016747 -0.112952 -0.321084 -0.612701 0.054479 -0.392281 0.305729 0.473211 -0.152156 0.036311 -0.446443 0.016301 0.187887 0.596686 0.444759 0.249808 0.121884 -0.447576 0.374083 -0.140673 0.418084 0.589728 -0.152678 -0.215100 -0.094335 0.022836 -0.401668 0.114275 0.036264 0.385383 -0.325900 0.722389 0.038358 0.765194 0.069833 -0.577529 0.375352 -0.513396 -0.190782 -0.113316
sent_9 -0.147022 0.260028 -0.185238 0.066327 -0.026409 -0.037582 0.148793 -0.520742 -0.418898 0.286257 0.398251 -0.612179 -0.157324 -0.095732 -0.232941 -0.120221 0.454055 0.457299 0.455613 -0.430759 0.189329 0.020226 0.663695 -0.159838 0.383117 -0.095259 -0.686282 -0.115947 0.382049 0.213677 -0.116068 0.127561 0.259501 0.286198 0.232565 0.076574 -0.250991 -0.043775 -0.293004 0.259991 0.168730 0.388447 -0.196777 1.101753 -0.054295 0.376456 0.415603 0.337764 0.518632 0.341926
sent_10 0.145092 -0.752158 -0.397917 -0.102076 0.166336 -0.469950 0.322330 -0.128298 1.100531 0.029114 -0.113978 -0.428831 -0.123673 0.011841 -0.523273 -0.696833 -0.366776 -1.008001 -0.903101 1.231535 0.366171 -0.102991 -0.389976 0.453367 -0.164438 -0.427302 0.760712 0.273847 0.315804 -0.119842 -0.214206 -0.523230 0.340314 0.379201 0.223759 0.434058 0.019169 -0.276128 0.271988 0.107524 0.652865 -0.435773 1.114231 0.208523 -0.385371 0.166296 -0.331779 -0.886481 -0.712154 0.799810
sent_11 0.082083 -0.243808 -0.012423 0.099893 -0.757604 0.220809 -0.306914 -0.191031 0.210816 -0.151751 -0.027026 -0.080768 -0.040711 0.024529 -0.093552 -0.140642 -0.277197 -0.025789 0.073543 0.040260 -0.135976 0.622630 -0.015525 0.739877 0.265605 -0.244260 -0.475703 -0.149828 0.275622 -0.292428 0.012730 -0.233886 0.514303 0.342727 -0.015375 -0.286532 0.506006 -0.329718 0.468094 0.143480 0.256757 -0.112030 0.071152 0.157842 0.259903 0.500557 0.217265 -0.338451 -0.398802 0.389149
sent_12 0.257822 0.519762 -0.050514 0.157267 0.484830 -0.280485 0.365989 -0.093276 0.282901 0.157852 -0.393082 0.017321 -0.217827 0.592224 -0.177049 0.553301 -0.008004 -0.480689 -0.354767 -1.087857 -0.211464 0.159946 -0.163363 -0.667567 -0.191699 -0.549715 0.090229 0.416884 -0.382491 0.586301 0.399979 0.874959 -0.750836 0.103319 -0.650341 0.208419 -0.382658 0.699273 -0.619516 0.153180 -0.042097 -0.650901 -0.306668 -0.599748 -0.629231 0.421101 0.014592 0.687736 0.255537 -0.646316
sent_13 0.113379 -0.136745 -0.118019 -0.003267 0.140623 0.250466 -0.524596 -0.047294 -0.669670 0.735757 0.046412 -0.599368 -0.333193 -0.441479 -0.066435 -0.219394 0.520657 0.310365 0.657816 0.085663 0.261727 -0.939218 0.654473 -0.163052 0.302735 0.378590 -0.294215 0.135879 0.278087 0.059436 -0.121809 -0.032619 -0.091457 0.842162 -0.032153 0.613778 -0.399581 -0.008421 -0.422043 -0.180347 -0.191828 0.648827 -0.036856 0.856114 0.044516 -0.060365 0.011673 0.544455 0.659395 0.001947
sent_14 0.458740 0.200093 0.298882 0.381817 -0.047842 -0.140682 0.517385 0.350011 0.826511 -0.100988 -0.246548 -0.431274 -0.129284 0.380297 -0.194075 0.217263 -0.253905 -0.286356 -0.146373 -0.101291 -0.264453 0.118287 -0.415424 -0.886939 -0.046825 -0.481431 0.072576 -0.114780 -0.066775 0.651407 -0.227780 0.720217 -0.059482 0.486668 0.049679 0.371325 -0.212020 0.073183 -0.221896 -0.000666 -0.352041 -0.251267 0.048285 -0.341632 -0.158152 0.238349 -0.676451 -0.174931 0.084042 -0.925457
sent_15 0.221630 -0.095603 0.200966 0.343615 -0.057235 0.005443 0.038170 -0.151758 -0.225088 0.301196 0.059207 -0.102577 -0.048234 -0.097727 -0.173703 0.205457 0.214376 -0.004129 -0.256198 -0.118556 -0.002549 -0.322290 -0.061031 -0.017700 0.171459 0.209739 0.005540 -0.059843 -0.071572 -0.278214 -0.115934 0.245782 -0.468569 0.472238 -0.248471 0.149724 0.018398 0.034531 0.254305 0.137735 0.137959 -0.067492 0.078250 -0.136691 -0.312250 0.197444 -0.056084 0.208391 0.343905 -0.109484
sent_16 0.968342 -0.190178 0.078560 -0.263409 0.220593 0.417746 -0.392504 -0.187418 0.657509 -0.031519 0.108403 0.514894 -0.341581 0.605352 0.177790 0.328673 0.046793 -0.252819 -0.232451 -0.461527 -0.175288 0.299720 -0.335699 -0.632788 -0.022998 0.236022 -0.186227 0.191406 0.712678 -0.190457 0.344041 0.738042 -0.908017 0.253734 -0.389550 0.307059 -0.070247 0.374021 -0.017624 0.094638 -0.266434 -0.615487 -0.354338 0.152110 0.205002 0.211485 -0.044550 0.488711 -0.032959 -0.408621
sent_17 0.203190 0.249912 0.183281 0.295563 0.093531 0.134368 -0.005857 0.276116 -0.003796 -0.155099 -0.029847 -0.102185 -0.229609 0.675900 -0.234181 0.170833 -0.227421 -0.134360 -0.169976 -0.235525 -0.055479 0.314270 -0.348761 -0.832959 -0.020593 -0.235139 0.127222 0.134975 0.045173 0.238521 0.204166 0.552990 -0.423433 -0.256320 -0.091805 0.184703 -0.125213 0.124816 -0.280685 0.131618 -0.097631 -0.056279 -0.213769 -0.631804 0.074751 -0.006491 -0.238932 0.334262 -0.155428 -0.772363
sent_18 0.525020 -0.762542 -0.464667 -0.276151 0.070206 -0.119496 0.073961 -0.338962 0.823821 -0.180517 -0.375633 -0.518246 0.089925 -0.336375 -0.386202 -0.475801 -0.715555 -0.565232 -0.484362 0.575168 0.043602 0.119388 -0.532305 0.872773 -0.154990 0.023571 0.219911 0.176166 0.256364 0.133432 0.041228 -0.307081 0.229517 0.762360 -0.074953 -0.078146 0.129908 -0.643071 0.226711 -0.016195 0.766153 -0.263091 0.478537 0.583471 -0.160630 0.385683 -0.101105 -0.482977 -0.199862 0.815049
sent_19 -0.439675 0.572004 -0.627276 -0.139231 -0.295300 -0.311274 -0.234276 -0.222108 -0.466574 0.131681 0.003559 -0.142891 0.235083 0.101866 -0.381344 -0.402015 0.343703 0.428163 0.457548 -0.495451 0.201926 -0.153843 1.081303 -0.532629 -0.205847 0.219266 -0.634065 0.394835 0.242665 1.095945 -0.047283 0.667946 1.128871 -0.319248 0.099580 0.253264 0.039893 0.111356 -1.148190 0.155525 0.269718 0.544896 -0.412907 0.220149 0.498614 0.045650 0.508892 0.435508 -0.092471 0.151643
sent_20 0.221696 -0.128908 -0.025829 0.212557 -0.044422 0.062593 0.208065 -0.065485 0.008527 -0.090806 0.012719 0.254072 -0.346935 0.506096 -0.286151 0.492205 0.050047 0.042225 -0.116793 -0.455006 -0.228860 0.120448 -0.191191 -0.218710 -0.060836 0.091833 0.066428 0.043021 0.119448 0.017291 -0.022558 0.412687 -0.462303 0.219968 -0.116577 -0.342924 -0.204780 0.080732 0.054421 0.173863 0.098666 -0.434905 -0.157108 0.352111 -0.124765 -0.253843 -0.268612 0.569629 -0.332495 -0.425275
sent_21 0.184969 -0.017648 -0.030844 0.007268 -0.118318 -0.306886 -0.159802 -0.007446 -0.100370 -0.087179 0.178581 -0.023458 -0.012954 -0.049876 0.050557 0.001974 0.095584 0.306611 0.131613 -0.033331 -0.025658 0.278118 0.031405 -0.110240 0.102564 0.114689 -0.199897 -0.176419 0.062788 -0.108519 -0.179773 0.076542 0.009724 0.205973 0.061246 -0.138047 0.103356 -0.106997 0.289960 0.117629 -0.064038 0.091410 -0.009074 -0.009286 -0.326029 0.130274 -0.051173 -0.075394 0.164193 0.404352
sent_22 0.014494 0.193623 0.625085 0.329374 0.164532 0.228372 0.267403 0.245191 0.473451 0.041415 -0.242054 0.120424 0.137325 0.321587 0.046787 0.449532 -0.448215 -0.422832 -0.159507 -0.375333 -0.138018 -0.291409 -0.334533 -0.320953 -0.084379 0.012360 -0.028016 -0.006513 0.013357 0.022499 0.031749 0.412953 -0.943352 -0.095025 -0.190470 0.231018 -0.369548 0.344909 -0.229329 0.031316 -0.177998 -0.319558 -0.267727 -0.505308 0.208565 0.214534 -0.100729 0.320530 0.188408 -0.863923
sent_23 0.072911 0.403524 0.018806 0.046421 -0.317814 0.038874 0.501883 -0.178651 0.142679 -0.500020 0.050310 0.164857 0.271928 -0.244638 0.438610 0.855007 -0.297610 -0.398590 -0.126362 0.277916 -0.077400 -0.281165 -0.233243 -0.362298 -0.442520 0.088803 0.437267 -0.277227 -0.029706 0.519844 -0.035664 -0.232043 -0.540918 0.282524 -0.104281 -0.355588 -0.353452 0.604081 0.127728 -0.163320 -0.411900 -0.156619 -0.097255 0.032475 0.065725 -0.513710 -0.460494 0.304738 0.499880 -0.143169
sent_24 -0.113426 0.322404 -0.375728 0.207769 0.115763 -0.211148 0.016519 -0.140822 -0.101755 0.333430 -0.100972 -0.312725 -0.111203 -0.123604 -0.512906 -0.349475 0.423345 0.051523 0.708157 -0.384565 0.071339 -0.171810 0.783744 -0.422403 -0.040406 -0.071163 -0.531854 0.263131 -0.055645 0.563518 -0.092570 0.224107 0.005982 0.527226 -0.327014 0.044256 -0.147303 0.595276 -0.539955 0.048851 0.097857 0.076163 -0.294555 0.814478 0.492452 -0.110546 0.303877 0.686001 0.533436 0.358588
sent_25 -0.057225 0.510482 -0.035564 -0.570073 -0.613118 -0.164765 -0.055690 0.425416 0.165362 -0.455709 0.065903 -0.137741 0.430088 0.159971 0.397393 -0.134118 -0.253089 0.373986 -0.035376 -0.222237 -0.206220 -0.094392 -0.321985 -0.624729 -0.149747 -0.023752 -0.134669 0.258840 -0.415013 -0.006621 -0.075842 -0.399525 0.093072 -0.123102 0.055427 0.239963 0.074426 -0.413204 -0.114311 0.093113 0.202550 -0.788134 -0.158334 -1.018049 -0.396375 -0.157268 0.056816 -0.089400 0.644704 0.192183
sent_26 -0.010772 0.446749 -0.305049 0.603084 0.149678 -0.312754 0.114103 -0.037808 -0.001205 -0.030147 -0.091612 0.142239 0.053444 0.211590 -0.529083 0.115296 0.736324 0.039785 0.713677 -0.712164 -0.060735 -0.007407 0.772357 -0.795238 -0.269501 -0.286516 -0.470707 0.749898 -0.011106 0.910027 -0.123039 0.596700 0.014326 0.244219 -0.247504 -0.434020 -0.539309 0.798355 -0.010881 0.076699 0.077134 -0.092966 -0.196724 0.319162 0.118510 0.226061 -0.240993 0.644463 -0.305308 -0.204974
sent_27 -0.634201 0.530304 -0.452490 -0.129721 -0.337821 -0.478918 -0.050308 0.044123 -0.502621 0.257501 -0.113932 -0.120335 0.388032 0.011086 -0.057302 -0.525020 0.274607 0.637224 0.165552 -0.612057 0.002421 -0.115522 1.072477 -0.608792 0.158226 0.367746 -0.270778 0.261465 0.008442 0.819809 0.046405 0.657256 1.121831 -0.224811 0.120346 0.521578 0.075530 -0.336065 -1.347838 0.286594 0.123499 0.261188 -0.628887 0.186610 0.114601 -0.013003 0.428083 0.390874 -0.117906 0.209305
sent_28 0.115418 -0.109939 0.173333 0.219198 0.072392 -0.099721 -0.447077 0.069778 -0.021667 0.331309 0.126618 -0.306061 -0.495203 -0.372184 -0.139705 -0.060548 0.146081 0.045375 0.455665 0.165725 0.112088 -0.201613 0.448109 -0.395809 -0.207543 0.031038 -0.227427 0.246875 0.154521 -0.196710 -0.510797 0.040482 -0.191332 0.762356 0.134516 0.399426 -0.415654 0.144895 -0.314638 0.142214 0.055692 0.471167 0.316197 0.093591 -0.122681 -0.021960 -0.264001 -0.101781 0.275489 -0.195732
sent_29 -0.142424 0.322715 0.366291 0.062533 0.128541 0.042718 -0.061036 0.014491 -0.439523 0.217504 0.172603 -0.057951 -0.130319 -0.693661 0.089575 0.171172 -0.017585 0.120661 0.242853 -0.046395 0.101638 0.002076 0.361850 0.443870 0.104575 0.055175 0.155825 -0.226954 0.069082 -0.058978 -0.090215 -0.134902 -0.153787 -0.324188 0.087983 -0.163267 -0.218685 -0.053798 0.818638 -0.105114 0.007302 0.625183 0.266357 0.044140 0.083104 -0.098144 0.248826 -0.549823 -0.360556 -0.004105
sent_30 0.031954 -0.090693 0.090463 -0.306506 0.042086 0.234051 0.092672 -0.301974 0.010154 0.137490 0.329929 -0.175395 0.013851 -0.046595 0.127753 0.017433 -0.080003 -0.020475 -0.145753 0.075057 -0.178682 -0.298065 0.370593 -0.322671 0.274542 0.202077 -0.070359 -0.228807 0.280763 0.159276 0.106571 0.320508 -0.508839 0.224121 -0.054151 0.763276 -0.383629 -0.204345 -0.339338 0.110381 -0.314424 0.161024 0.309280 0.380380 -0.459249 0.159190 0.081548 0.234912 0.444257 -0.163413
sent_31 0.771955 -0.157131 -0.181351 -0.131488 0.385058 0.238407 -0.090544 -0.426228 0.428481 0.105478 0.312551 0.068311 -0.824947 0.187998 -0.015253 -0.037782 -0.018853 0.060168 -0.054708 -0.163413 -0.682099 0.368175 -0.110231 0.101079 0.210069 0.230972 -0.155926 -0.644099 0.436211 -0.415383 0.448634 0.927022 -1.140235 0.071510 -0.302991 0.748170 -0.267060 0.657086 0.133028 0.532130 -0.622664 0.254069 -0.297021 0.005290 0.433386 -0.503031 0.157061 0.147269 0.158397 -0.512166
sent_32 0.250980 0.051874 0.438232 0.109969 -0.093807 -0.140980 -0.104512 0.067850 0.492162 -0.156421 -0.051896 0.306925 -0.060095 0.007553 0.141062 0.257352 -0.411987 -0.563833 0.287166 -0.086110 -0.063469 0.154703 -0.164911 -0.158380 -0.328332 -0.058697 -0.110216 0.370480 0.279773 0.057695 0.014090 -0.032946 -0.122624 -0.117620 0.030816 -0.167838 -0.630720 -0.286477 -0.094064 -0.121222 0.080484 -0.009779 0.010594 -0.302218 -0.397630 0.291324 -0.096161 0.029299 -0.671405 -0.106290
sent_33 -0.105178 -0.068699 -0.091905 -0.372891 0.392856 -0.036122 0.161783 -0.281017 0.042162 -0.048835 0.038541 0.042142 0.315093 0.148594 0.035717 0.394680 -0.067246 -0.082373 0.141184 -0.127640 0.055646 0.286279 0.062314 0.138475 -0.188917 0.055810 -0.191081 -0.282948 0.322586 0.429102 0.160470 0.130051 0.394457 -0.516507 0.385302 -0.177686 -0.099604 -0.190846 -0.030705 0.117677 0.061013 0.482739 0.145572 0.061695 -0.246638 0.313355 0.004875 -0.341664 -0.205077 -0.160493
sent_34 0.360364 0.160140 0.319812 0.118003 0.046251 0.401729 -0.574106 0.292410 0.123259 0.481905 -0.075269 -0.052291 -0.127881 1.085552 -0.613063 0.253728 -0.117070 -0.263010 0.129893 -0.783500 0.159240 -0.214075 -0.167226 -0.641681 -0.164678 -0.061528 -0.332822 0.340058 0.159856 0.214464 0.108481 0.654227 -0.856344 0.167763 -0.348184 0.616090 -0.054172 0.704627 -0.525962 -0.330026 0.117106 -0.432385 -0.397288 -0.199322 0.394280 0.271981 -0.002910 0.796864 0.326846 -0.554968
sent_35 -0.032190 0.082524 0.100756 0.031679 -0.156622 0.037847 0.125513 -0.028819 0.003784 -0.101164 0.062099 0.241268 -0.080926 -0.097667 0.187046 0.081794 0.107558 -0.002227 -0.009602 0.138238 -0.095543 -0.014552 -0.033418 -0.249841 -0.115492 0.010320 -0.068536 0.169578 -0.031870 -0.239562 0.092521 0.007417 0.013074 -0.071355 -0.025512 0.131252 0.075235 0.064442 0.240561 0.330872 0.297084 -0.194963 0.133021 -0.469175 -0.108952 -0.058297 -0.009277 0.082828 0.323412 -0.105032
sent_36 0.124056 -0.252065 -0.318120 -0.187900 0.275167 -0.041568 -0.179354 0.242528 -0.707641 0.167068 -0.006360 -0.305146 -0.131546 -0.222973 0.191716 0.238806 -0.022341 0.366823 0.102495 -0.532411 0.363134 0.116837 0.139961 0.113047 -0.230048 0.261135 -0.005082 0.288684 -0.266025 -0.216721 -0.034263 0.209323 0.260864 0.242961 0.239639 -0.251482 0.329243 -0.588990 0.102971 0.365518 0.423090 0.368285 0.009858 -0.068201 -0.315269 -0.009260 -0.296873 -0.212839 0.110399 -0.290520
sent_37 0.417380 0.374210 0.142717 -0.346249 0.715475 0.318593 0.437928 -0.432537 0.656616 0.124905 -0.057294 -0.360536 -0.026700 0.715033 -0.277200 0.244500 -0.422382 -0.525443 -0.403797 -0.763498 -0.326572 0.537309 -0.523799 -0.225575 -0.375176 -0.095501 0.149820 -0.378841 -0.375975 0.679182 0.547105 0.952883 -0.592431 -0.429297 -0.366334 1.030172 0.086316 0.455616 -0.932993 0.042611 -0.094716 -0.067939 -0.432520 -1.011754 0.254343 0.337326 -0.102315 0.273695 0.532274 -0.529121
sent_38 -0.173297 -0.249905 0.203325 -0.185646 0.486767 0.373495 -0.059761 -0.701971 -0.835244 -0.049536 -0.179006 0.651530 -0.413758 0.142821 0.229259 -0.084114 0.340242 0.044829 0.130562 -0.047597 -0.281305 0.343514 0.435010 -0.060620 0.397309 0.050186 -0.517044 -0.109586 0.339725 -0.340111 0.092995 0.293735 0.108385 -0.255772 -0.116958 0.446216 0.037416 -0.127944 -0.344043 0.060097 -0.297141 0.412140 0.445935 -0.397874 -0.566207 0.457752 0.347688 0.178678 0.054197 -0.675995
sent_39 -0.329227 -0.148428 -0.534507 0.087547 0.532344 -0.398761 -0.011274 -0.399440 -0.436779 -0.030599 0.123874 0.251564 -0.284222 -0.090232 0.074974 0.130865 0.478788 0.539065 0.309900 0.262635 -0.212221 0.155692 -0.410348 -0.006766 0.115249 -0.184382 0.027050 -0.528013 0.026948 0.206265 -0.103665 0.220877 0.305480 -0.373934 0.291513 -0.376800 0.003154 0.355686 -0.196737 -0.046090 -0.507598 0.936979 -0.020958 0.333923 -0.462596 -0.205814 -0.029278 0.078215 0.316899 0.468132
sent_40 -0.158024 -0.545639 -0.443019 0.179271 0.028604 0.138273 0.472489 -0.361520 -0.973313 0.091738 -0.413740 -0.556020 -0.816568 -0.221768 -0.144911 -0.200171 0.065307 0.456826 -0.031026 -0.432643 0.203830 -0.189565 0.376352 0.555238 -0.070842 0.185176 -0.479796 -0.135604 0.293388 0.303257 -0.368903 0.105324 -0.297987 1.326221 -0.077514 -0.028397 -0.364312 0.192034 0.214250 0.118152 0.120035 0.154438 0.452448 0.643499 0.177043 -0.313671 -0.225071 -0.221182 0.463985 -0.127160
sent_41 -0.150483 0.033428 0.589060 0.128595 -0.054989 0.134517 0.141927 -0.003476 0.080658 -0.107240 0.251519 0.331562 -0.067821 -0.150112 0.363663 0.075895 0.171521 0.338355 0.565333 0.215942 -0.379390 -0.245650 0.447684 -0.452671 -0.059677 0.372355 -0.309489 -0.115409 0.143051 -0.297838 -0.435182 0.187302 -0.221503 0.203734 0.071310 0.143641 -0.417652 -0.159173 -0.186181 0.033480 0.089917 0.318465 -0.164604 -0.067092 -0.280510 0.021335 -0.062628 0.476850 0.311427 0.186665
sent_42 -0.086715 -0.002141 -0.099163 -0.118146 0.123763 0.102041 -0.120842 -0.158700 -0.258280 0.183450 0.057898 -0.220591 -0.194564 -0.201568 0.043177 -0.089911 0.201139 0.142687 0.261484 0.107486 0.071778 -0.232574 0.438857 -0.120257 0.094864 0.087303 -0.071424 -0.014378 0.225085 0.120592 -0.044089 -0.012950 0.045956 0.289277 0.024551 0.241187 -0.238770 -0.050363 -0.230966 -0.068870 0.028054 0.400742 0.128236 0.466639 -0.079586 -0.113229 0.107869 -0.003594 0.204627 0.053144
sent_43 0.032919 -0.124661 0.071185 0.278669 -0.096919 -0.042027 0.304466 0.330530 0.416386 -0.528469 0.114831 0.120379 -0.118307 -0.014262 0.598573 -0.138946 0.174282 0.112146 0.102604 0.089965 0.169907 -0.232048 0.292348 -0.755123 -0.114016 0.032520 -0.010866 0.444035 0.175166 -0.086351 -0.713308 0.042174 0.065194 0.520160 0.201778 -0.091423 -0.167314 -0.106784 0.122711 0.088676 -0.663476 -0.154077 0.039893 -0.032695 -0.057196 0.185562 -0.850027 0.191236 -0.374950 0.038639
sent_44 0.155277 -0.347031 0.261645 0.504966 0.649586 0.095133 0.499537 0.179340 -0.313309 -0.078528 -0.060765 0.620239 -0.248733 0.060578 0.357097 -0.162274 0.741209 0.030046 -0.172141 0.102645 0.278562 -0.353201 0.154679 -0.982735 -0.059476 0.141386 0.204002 0.731934 -0.086898 -0.495239 -0.301587 -0.148403 -0.261832 0.450572 -0.153672 -0.441974 -0.209727 0.103083 -0.023720 -0.039926 -0.178947 -0.417989 -0.028972 -0.341164 -0.039011 -0.260660 -0.787509 0.398535 -0.172497 -0.451584
sent_45 0.154852 -0.314442 -0.578652 -0.322658 0.377500 0.095058 -0.150777 -0.407441 -0.045462 0.031153 0.193598 0.295695 0.045729 -0.704109 0.406743 0.042078 0.019933 0.269279 -0.494698 0.141354 -0.395169 0.046913 -0.126175 0.830205 -0.041989 0.305630 0.259745 -0.762901 0.431551 -0.315537 0.366531 0.408857 0.057424 -0.017828 0.266433 0.185750 0.119998 0.333150 0.090339 0.533422 -0.262963 0.555968 -0.155320 0.239597 0.282909 -0.351140 0.271800 -0.848802 0.521368 -0.398055
sent_46 0.182972 -0.185144 0.201514 0.070003 0.317860 0.270178 0.488150 -0.624560 0.185211 0.084058 -0.018753 0.355881 -0.518915 0.285582 -0.374387 0.241062 -0.436157 -0.280358 -0.046010 0.076336 -0.060967 0.476552 -0.248857 -0.047718 -0.297517 0.206177 -0.353126 -0.318708 0.179918 0.231863 0.338560 0.692599 -0.530324 0.112926 -0.327534 0.168428 0.103204 0.450864 -0.300216 -0.191496 0.031830 -0.343538 0.172509 -0.087183 0.150300 -0.157931 0.068249 0.430358 0.246342 -0.085589
sent_47 0.051238 -0.176592 0.171529 0.010524 -0.069520 0.354281 -0.134951 -0.253744 -0.208551 0.368606 0.533512 -0.524479 0.386942 -0.576022 0.009751 0.130625 -0.203544 -0.020216 0.253726 0.477748 0.139194 -0.371460 0.486888 0.105109 0.428021 0.391952 -0.270628 -0.384987 0.336898 0.136345 -0.009712 0.089523 -0.080738 0.452935 0.079939 0.009155 -0.052147 -0.482284 -0.276760 -0.197976 -0.390420 0.676822 -0.003464 0.780025 -0.353173 0.391662 -0.045203 0.417549 0.378799 0.056265
sent_48 -0.015663 -0.310088 0.125893 -0.006381 0.307320 0.001685 0.049119 0.072451 -0.048582 0.126145 0.003521 0.281276 -0.119083 -0.054278 0.143599 0.335799 -0.001661 -0.279853 0.050592 0.312141 -0.003253 0.113475 0.074422 -0.050226 -0.069507 0.087868 0.403870 0.095829 0.145331 -0.140253 0.066441 0.199316 -0.128142 0.263304 -0.050724 0.107427 0.057838 0.022923 -0.185814 0.034258 0.147024 -0.339549 0.190767 -0.030434 -0.569136 0.142308 -0.360403 0.248947 0.158609 -0.064891
sent_49 -0.098992 -0.120659 -0.058290 -0.005899 0.271461 0.066816 -0.157862 0.005174 -0.012496 -0.148438 -0.120852 0.130228 -0.052007 0.265251 0.037058 -0.201603 0.072896 0.264245 0.481588 0.129959 -0.253808 -0.451076 0.186195 -0.530232 0.098302 0.295532 -0.194459 -0.054455 0.172076 0.168418 -0.045132 0.244180 -0.749775 0.271030 -0.154075 0.156466 -0.713210 -0.074181 -0.581458 -0.542486 -0.334474 0.169885 -0.143273 0.505510 -0.137794 -0.433899 0.054099 0.404299 -0.250402 -0.072933
sent_50 0.294791 0.157832 -0.159658 -0.240405 0.008003 -0.059175 0.300245 -0.191958 0.200208 -0.298973 0.026916 0.488808 -0.464644 0.191754 0.318748 0.319469 -0.038710 -0.055404 -0.160465 -0.396823 -0.408135 0.262019 -0.125803 -0.421969 0.075592 0.012157 0.037576 0.004579 0.005849 0.243819 0.114521 0.471902 -0.639613 0.178207 -0.421259 0.107444 -0.094293 -0.039856 -0.102941 0.134926 -0.342056 -0.392897 -0.265873 0.237441 -0.332690 -0.153217 0.076746 0.795246 0.074883 -0.224688
sent_51 -0.329032 0.345745 0.326954 -0.117154 -0.111707 -0.127494 0.500344 0.426658 -0.243023 0.171877 -0.114219 -0.263618 -0.128903 0.209964 0.309405 0.062497 0.368267 0.150191 0.057225 -0.145990 -0.000836 -0.446868 -0.109593 -0.581037 0.196145 -0.482566 0.096394 -0.014501 -0.715993 -0.353304 -0.511721 -0.518323 -0.157176 0.106053 0.019272 0.458963 0.282268 -0.112202 0.428479 0.035635 -0.174655 -0.256518 0.236830 -0.590834 -0.203194 -0.033758 -0.198178 0.039803 0.614412 -0.221615
sent_52 0.370153 -0.267522 -0.548314 -0.372534 0.064971 0.154182 -0.517381 -0.393854 -0.091350 -0.276937 -0.027484 0.583431 -0.149524 0.201970 0.332401 0.058004 0.171658 0.215484 -0.459270 -0.322808 -0.147389 0.174236 -0.449550 0.126141 0.275826 0.272754 -0.325358 -0.370458 0.435178 -0.293949 0.290838 0.050185 -0.431107 0.122538 -0.179652 0.123235 0.430366 0.285259 0.273938 0.185066 -0.610056 -0.045458 -0.144470 0.452163 0.478011 -0.302803 0.442493 -0.328769 0.417730 -0.510320
sent_53 -0.128426 0.108936 0.000715 -0.134025 -0.713611 0.200711 0.012671 -0.349953 -0.203037 -0.426243 -0.031906 0.164640 0.070590 -0.163444 0.404817 0.376164 -0.242284 0.345742 -0.079572 -0.341180 -0.112722 -0.105488 0.001191 0.172953 -0.106108 0.257289 -0.548206 -0.276043 0.099104 -0.028141 -0.127537 0.099213 -0.066001 0.283268 0.064506 -0.200197 -0.033186 0.021246 -0.072348 0.166417 0.033814 -0.153522 -0.020907 -0.044048 -0.268085 0.036392 0.175813 0.148412 0.517207 -0.095229
sent_54 -0.205140 -0.370378 0.188006 -0.375482 1.435949 0.511577 0.368760 -0.127565 -0.407092 0.237475 -0.394017 0.228919 -0.014850 0.517372 0.029709 0.000560 0.327489 0.645850 0.112134 -0.309952 -0.423025 0.328667 0.412626 -0.158177 0.149982 0.519266 0.357226 -0.136486 0.616670 -0.253966 0.392985 0.925305 -0.008964 -0.543671 0.000891 0.000423 -0.352532 -0.061030 -0.626925 0.088627 0.493335 -0.347696 -0.258350 0.302134 -0.269578 -0.286344 0.154671 0.352561 -0.428070 -0.075338
sent_55 0.610230 0.472269 0.003566 0.048313 0.491765 -0.247133 0.242348 -0.066444 0.388927 0.229454 0.307044 -0.509207 -0.119633 0.755702 -0.688562 0.211728 -0.251054 -0.479029 -0.284642 -0.784089 -0.190863 0.558355 -0.183400 -0.564727 -0.356193 -0.125563 0.064952 -0.208357 -0.280035 0.894741 0.359220 1.047290 -0.512719 -0.419809 -0.168904 0.728044 -0.263227 0.543916 -0.956086 0.173396 -0.279590 0.025268 -0.463235 -0.906507 0.007096 0.231770 -0.292712 0.484206 0.201259 -0.499168
sent_56 0.079066 -0.108973 0.032094 0.041920 0.066437 0.031133 0.134034 -0.076663 -0.211238 -0.005613 -0.030992 0.071110 -0.137169 0.017790 0.078492 0.016422 0.258604 0.030973 0.097600 0.011522 0.415333 -0.072446 0.045830 -0.166626 -0.238543 0.136341 -0.357466 0.151335 -0.048910 -0.085954 -0.122947 -0.201130 0.085265 -0.044612 0.031833 -0.139901 0.294999 0.085969 0.412516 0.068854 0.004891 0.183168 0.050608 -0.116598 0.384045 -0.001317 -0.116186 0.089278 0.073518 0.047951
sent_57 -0.016866 -0.432832 -0.217433 0.001301 0.552085 0.086631 0.043997 -0.358633 0.032678 0.043182 -0.149768 0.293696 -0.271484 -0.179627 -0.020831 -0.090851 -0.083672 0.249802 -0.178401 0.016335 -0.223379 0.057668 -0.171298 0.661910 0.074439 0.440832 -0.081414 -0.454656 0.246633 -0.384023 0.297979 0.501264 -0.345781 -0.220213 -0.139861 -0.052221 0.094374 0.295219 -0.077794 0.121911 -0.212286 0.277613 -0.098516 0.242734 0.311058 -0.351263 0.378942 0.012202 -0.029978 0.007095
sent_58 -0.026206 0.203506 0.272584 0.156819 0.136400 -0.111617 0.168508 -0.104480 0.389934 0.164745 0.182093 -0.249720 0.141173 -0.413283 0.120384 0.070160 -0.214903 0.124608 -0.155202 -0.150700 0.150754 -0.052936 -0.225260 0.042331 0.034269 0.113486 -0.203273 -0.451581 -0.190484 0.162684 -0.092950 -0.039154 -0.307264 -0.188542 0.283213 0.083790 -0.145803 0.125267 0.010848 -0.038407 -0.701007 0.363411 -0.064758 0.195482 0.251913 0.036758 0.035977 -0.172303 0.175120 -0.013764
sent_59 -0.282229 -0.106189 -0.268804 -0.388847 0.269549 -0.062542 0.034903 -0.042403 -0.336637 -0.221463 -0.285394 -0.143206 0.121583 -0.112291 0.101644 -0.277201 -0.038415 0.494401 0.040756 -0.282912 -0.531001 -0.175457 0.251832 0.061338 0.147465 0.181997 -0.192644 -0.112601 0.236094 0.194317 0.073911 0.312214 0.387277 -0.139068 0.187713 0.267390 -0.402498 -0.408431 -0.570088 0.234544 0.275671 0.131473 0.077592 0.036769 -0.292536 -0.126090 0.353248 -0.327653 0.304542 -0.162509
sent_60 0.161086 -0.689873 -0.276322 -0.349560 -0.145975 0.062429 -0.118994 0.018761 0.300697 -0.587365 -0.381368 -0.265885 -0.042223 0.263020 -0.051682 -0.351510 -0.749072 -0.064581 0.160682 0.156843 -0.042179 0.241697 -0.175621 0.341373 -0.414625 -0.171477 -0.559413 0.332245 0.695948 0.140853 -0.057386 -0.083272 1.031988 0.364132 0.660278 -0.415907 -0.165744 -0.714748 -0.371024 0.021208 0.749782 -0.013653 0.184720 0.171133 -0.145348 0.447095 -0.204069 -0.613446 -0.684143 -0.008893
sent_61 0.108424 -0.476076 -0.599909 -0.049367 0.415607 0.079791 -0.298809 -0.295410 0.395497 -0.209014 0.012171 0.415098 -0.153016 -0.421142 -0.001923 -0.290015 -0.029624 0.134474 0.104730 0.363629 -0.685959 0.082914 -0.242344 0.728453 0.149225 0.375196 -0.335755 -0.729373 0.418413 -0.338682 0.368662 0.440248 -0.010375 -0.162915 0.165608 0.247134 0.208708 0.285549 -0.047849 0.758469 -0.302486 0.886108 -0.385102 0.567686 0.795952 -0.383566 0.437580 -0.098501 0.631197 -0.579521
sent_62 -0.057282 0.043959 -0.026034 -0.298385 -0.052944 0.188956 0.267795 -0.358094 0.215125 -0.281973 0.012067 -0.367730 0.491617 -0.039766 0.203094 0.201097 -0.366923 0.179478 -0.126578 -0.012665 -0.196523 -0.091532 0.090129 0.239273 0.024243 0.179839 -0.233351 -0.624805 0.163326 0.284117 -0.061785 0.161225 -0.027761 0.114469 0.166633 0.027676 -0.146044 -0.077569 -0.161651 0.120525 0.188679 0.202210 0.097784 0.014984 -0.281035 -0.012600 0.018758 -0.499359 0.339856 0.228440
sent_63 -0.291910 -0.270999 -0.410407 -0.061284 -0.103863 0.059687 0.211976 0.080087 -0.264094 0.016408 -0.395741 -0.305968 -0.539741 0.158984 -0.003921 -0.145031 -0.001671 0.246855 0.138704 0.277692 0.396962 -0.296524 0.010360 0.307928 0.193664 -0.166831 -0.021473 0.087083 0.063377 0.299635 -0.265684 -0.068774 0.235871 0.339363 0.011211 0.088855 0.023042 -0.276713 0.267001 -0.232133 -0.183338 0.163085 0.362933 0.622934 -0.047625 -0.060013 -0.056749 0.092334 -0.383250 0.014578
sent_64 -0.826807 0.253522 0.152371 -0.226934 0.570516 0.292410 -0.053888 -0.167013 -0.460467 0.012634 -0.227465 0.091573 -0.042616 0.345595 0.086140 -0.037216 -0.041377 0.555829 0.589382 -0.223744 -0.010706 -0.106421 0.537573 -0.175612 -0.070586 0.392266 0.118757 -0.057844 0.323354 0.536806 -0.054032 0.306751 0.107409 -0.503539 0.162540 0.287871 -0.483886 -0.046353 -0.777235 -0.242715 0.460442 0.356768 -0.150270 0.380926 -0.210439 -0.202463 0.431703 0.509923 -0.227189 0.304056
sent_65 -0.326037 0.492239 0.420333 -0.490867 0.462065 -0.403897 0.523682 0.063162 0.628393 -0.516230 -0.192485 0.200380 -0.249931 0.496691 0.670329 0.384485 -0.576296 -0.037005 0.263710 -0.740432 -0.293569 0.430857 0.090473 -0.609014 -0.516312 -0.188733 -0.186120 0.010450 -0.301149 0.686935 -0.191576 0.403893 -0.501316 -0.091378 0.070614 0.613984 -0.690841 -0.106588 -0.593685 -0.145685 -0.352409 -0.274189 0.042261 -0.724482 -0.875139 0.220840 -0.065003 0.318816 -0.147658 0.123657
sent_66 -0.067640 0.308136 -0.607145 0.446893 -0.029418 -0.305154 0.255570 -0.244361 -0.515177 -0.068242 -0.296841 0.088664 0.314315 -0.211190 -0.150875 0.529020 0.327206 0.145092 0.343302 -0.315128 0.164087 -0.504468 1.003628 -0.233225 -0.301603 0.058724 -0.386730 0.448578 -0.083596 0.845298 0.066349 0.385293 -0.203977 0.559448 -0.324826 -0.739262 -0.557328 0.930521 -0.057047 0.099833 0.125896 -0.141632 -0.009701 0.557650 -0.077663 -0.548967 -0.098919 0.634304 -0.009168 -0.041929
sent_67 0.101082 -0.850557 -0.418055 -0.137643 0.119326 -0.497733 0.366431 -0.084010 0.814374 -0.156282 -0.528906 -0.276368 -0.358210 -0.104669 -0.444729 -0.692614 -0.604842 -0.886007 -0.569140 1.417955 0.275802 0.008006 -0.386237 0.258646 -0.318723 -0.495901 0.467556 0.396134 0.634333 -0.040292 -0.158560 -0.492789 0.674819 0.688636 0.345823 0.171260 0.033992 -0.603846 0.502579 0.082939 0.993223 -0.186137 1.218500 0.304198 -0.169884 0.226278 -0.229923 -1.113632 -0.845020 0.446474
sent_68 0.232378 -0.042884 0.125624 0.137654 0.569584 -0.277039 0.410999 -0.317910 0.326459 0.303420 0.106296 0.027169 -0.368478 0.326520 -0.192881 0.602955 0.022362 -0.371131 -0.276957 -0.444985 -0.159411 0.424778 -0.469263 0.061603 -0.355389 0.011121 0.236288 -0.270933 -0.299043 0.241695 0.284274 0.705040 -0.451575 -0.426208 -0.174518 0.282577 -0.175332 0.227379 -0.439373 0.311430 0.024327 0.112807 -0.116224 -0.464402 -0.454391 0.282039 -0.214021 0.429430 0.056404 -0.191726
sent_69 0.261769 -0.545127 -0.526599 -0.005501 0.359817 0.073699 -0.103786 -0.188951 -0.180717 -0.205308 -0.011717 0.322398 -0.670851 0.121449 0.178360 -0.177615 0.489034 0.531133 0.107131 -0.029146 -0.535088 -0.282351 0.052986 -0.102974 0.310647 0.316195 -0.487471 -0.500924 0.440750 -0.509034 0.245919 0.354515 -0.622576 0.044432 0.069566 0.165345 -0.599868 0.467681 0.052902 0.387415 -0.901939 0.502678 -0.103203 0.527945 0.479256 -1.034568 0.117247 -0.128488 -0.134914 -0.891219
sent_70 -0.014159 -0.337586 0.032854 0.082408 0.038820 -0.214118 0.209170 0.117805 -0.086628 0.111397 -0.101334 0.411223 0.160242 0.005618 -0.054195 0.342160 -0.017696 -0.272889 -0.098660 0.309501 -0.115743 -0.025698 -0.237895 -0.102004 -0.059697 -0.071631 0.375153 0.034799 -0.114290 -0.005986 -0.011025 -0.039412 0.130946 0.497494 0.044956 -0.210817 0.120114 -0.068672 -0.086764 -0.199489 0.093836 -0.559164 0.237251 -0.245572 -0.750775 0.115001 -0.431122 -0.011894 0.298235 -0.191262
sent_71 0.279480 -0.368731 0.504702 -0.185466 -0.223592 0.861760 -0.326319 -0.066382 0.289998 -0.020456 -0.203329 0.883594 -0.203312 0.543141 0.350179 0.412826 -0.327922 -0.063609 -0.517528 -0.017442 -0.075934 -0.383546 -0.518706 -0.489424 0.151879 0.723529 -0.078024 -0.008428 0.917293 -0.195136 0.142321 0.350788 -0.946551 0.581029 -0.219510 0.673357 -0.095717 -0.067286 0.276826 -0.231109 -0.060248 -0.804258 0.236795 0.249017 0.211552 -0.294101 -0.047582 0.090608 0.075897 -1.061113
sent_72 0.334545 0.049817 0.058696 0.176656 0.059189 0.165591 -0.082280 -0.176917 0.261043 0.081968 0.101582 0.010333 -0.354208 0.370365 -0.399211 0.167092 -0.405825 -0.473433 -0.253156 -0.041725 -0.179131 0.270369 -0.535573 -0.227272 -0.183893 -0.088452 0.118376 -0.149231 0.077085 0.229182 0.278420 0.727190 -0.617665 -0.015628 -0.258774 0.601527 0.063854 0.403849 -0.322628 0.076620 0.038414 -0.023690 -0.099935 -0.407588 0.199724 0.160634 -0.068715 0.488192 0.288258 -0.558049
sent_73 0.232671 -0.378631 -0.121854 0.280902 0.095723 -0.263528 -0.624731 0.419569 -0.376347 0.827331 0.587025 -0.764221 -0.274692 0.027994 -0.463798 -0.538962 0.160283 0.197302 -0.308518 0.862893 1.591272 -0.902398 -0.036139 -0.263165 -0.113811 0.169250 0.201929 0.243421 0.236543 0.152071 -0.682611 -0.274529 -0.014429 0.085340 0.576735 0.567000 -0.158275 0.019066 0.563609 -0.496644 -0.349892 0.973263 0.803533 0.278935 -0.259655 0.010808 -0.323783 -0.227749 -0.631275 0.526607
sent_74 -0.259455 -0.139972 0.462018 0.056551 -0.142005 0.145200 0.329108 -0.269239 -0.309625 0.117157 0.006293 0.260406 -0.151849 0.095493 0.068947 0.589538 0.115789 0.115208 0.115474 -0.140016 -0.052180 0.040249 0.036662 -0.003660 -0.017100 0.429154 -0.174546 -0.306276 0.234411 -0.108507 -0.158349 0.222331 -0.127102 0.126868 0.032580 0.172587 0.155358 -0.225951 0.224010 0.276294 0.454145 -0.064414 0.192839 0.036003 -0.402442 0.278668 -0.143040 0.524622 0.488019 -0.042237
sent_75 -0.302736 -0.085152 0.077782 0.291528 0.238911 0.281444 0.333142 -0.290075 -0.267641 0.087077 -0.098030 0.333880 -0.153362 -0.499603 0.089833 0.018451 0.139502 -0.030195 0.121584 0.229597 0.139718 -0.165283 0.497412 0.365420 -0.010268 0.304111 -0.145411 0.211218 0.004076 -0.009163 0.185014 0.061575 -0.102855 0.133111 -0.244807 -0.115669 -0.031920 0.322195 0.189536 0.124010 0.130279 0.134792 -0.005673 0.187279 0.312844 -0.082509 0.143643 0.514268 0.193264 -0.050583
sent_76 0.040529 0.288173 0.215523 0.025149 -0.255785 0.095110 0.157086 0.121871 0.411512 -0.159488 -0.063891 0.139077 0.042117 0.301496 0.269401 0.229601 0.006528 0.066074 -0.164827 -0.250037 -0.163686 -0.049555 -0.181654 -0.783579 0.039800 0.168590 0.102495 -0.063474 -0.103643 0.128148 -0.136871 0.526834 -0.506480 0.468474 -0.218891 0.477016 0.087227 0.036636 -0.158007 -0.047344 -0.378929 -0.408938 -0.208386 -0.195696 -0.033388 0.052878 -0.244917 0.496443 0.224441 -0.430551
sent_77 0.557979 -0.039096 0.232744 0.151672 0.200214 0.106786 0.401933 0.182843 0.575529 -0.101719 0.073918 0.267553 -0.340085 0.766936 -0.236298 0.503357 -0.451552 -0.369723 0.126492 -0.469999 -0.341089 0.916427 -0.485904 -0.106395 -0.308709 -0.076977 -0.100962 -0.276412 -0.004873 0.051710 0.374280 0.737849 -0.724495 -0.057318 -0.166039 -0.090717 0.177761 0.565477 0.104531 0.288571 -0.058767 -0.613771 -0.593888 -0.371516 0.499323 -0.072390 -0.342282 0.634515 0.021552 -0.524302
sent_78 0.028806 -0.447094 0.401687 0.062028 -0.358753 0.445039 -0.239250 -0.195859 0.340572 -0.147175 0.130323 0.275466 -0.154030 -0.062392 0.114454 0.179213 -0.386318 -0.178273 -0.209494 0.068757 0.179957 0.251928 0.095758 0.299635 -0.248080 0.445187 -0.440723 0.059083 0.551541 -0.368488 -0.242017 -0.062024 -0.164100 0.644369 0.150181 0.158130 0.154352 -0.122716 0.127521 0.163054 0.266477 -0.327299 0.359862 0.058393 0.221296 0.358128 -0.203730 -0.151307 0.094473 -0.051371
sent_79 -0.122213 -0.277368 0.213289 0.039957 0.054392 0.305965 0.377761 -0.365849 -0.471252 -0.149820 0.024909 0.553059 -0.394431 -0.328190 0.336172 0.128490 -0.211273 -0.043716 0.122745 0.259328 -0.285355 0.243900 0.227763 0.345064 0.336462 0.054329 -0.333748 -0.130553 0.305571 -0.255526 0.121942 0.219916 -0.149318 0.053790 -0.127269 -0.119649 -0.086700 -0.535033 0.117659 -0.142378 -0.369789 0.281614 0.304905 0.205124 -0.287347 0.341725 0.246493 0.212288 -0.237371 -0.334215
sent_80 0.357154 0.400936 0.137568 -0.295115 0.043450 0.592517 0.290313 -0.457360 -0.091983 0.075356 -0.081607 0.274411 -0.376702 -0.183250 0.455655 0.163254 0.040806 -0.455733 -0.233551 -0.541542 -0.155271 0.406039 0.176735 0.109317 -0.134301 -0.193261 0.269252 0.564839 -0.133562 0.032986 0.514454 0.206706 -0.292938 0.078036 -0.642758 0.278514 -0.167846 0.251696 -0.041130 0.094962 0.193420 -0.534203 -0.196479 -0.529460 -0.193775 0.618984 0.178741 0.614824 0.165085 -0.207362
sent_81 -0.307368 -0.494103 -0.608258 -0.331874 -0.057809 -0.041478 -0.381737 0.170152 -0.151090 -0.502690 -0.460587 -0.477063 0.002017 0.305462 -0.244426 -0.162789 -0.951853 0.374491 0.126113 -0.102052 0.078298 0.665723 -0.417213 0.689397 -0.183705 0.115251 -0.135264 -0.225121 0.090268 0.411026 -0.057023 0.100052 0.815031 -0.213066 0.354917 -0.415685 0.636617 -0.977073 -0.810832 0.055604 0.517101 0.336366 -0.132056 0.256888 0.201605 0.007834 0.096363 -0.296513 -0.329807 0.356173
sent_82 -0.046634 -0.114664 0.358674 -0.176017 -0.071118 -0.024277 0.277526 -0.306352 0.194913 0.059631 -0.059155 -0.217437 -0.038235 -0.182692 -0.263848 0.114800 -0.434509 -0.283811 0.073349 0.087891 -0.010758 0.307030 -0.029671 0.231178 -0.156570 -0.040807 -0.144266 -0.359659 0.301228 0.232458 -0.084441 -0.272308 0.016285 0.200093 0.181977 -0.080965 -0.062179 -0.325520 0.245531 -0.108492 0.460092 0.049423 0.483392 0.162807 -0.108340 0.116127 0.009248 -0.631168 0.129084 0.262463
sent_83 -0.065346 -0.279819 -0.254857 0.040435 -0.322419 0.113265 -0.133936 -0.203984 -0.086988 -0.081984 0.338860 0.178346 0.168483 -0.245336 -0.044966 0.004248 0.126692 0.116875 -0.286368 0.205238 0.062193 0.006323 0.038502 0.225063 -0.046811 0.041811 -0.199832 0.128004 0.292999 -0.181865 -0.107477 -0.039256 0.465786 0.212517 0.322717 -0.036438 0.095065 -0.090105 0.059034 0.355143 0.162729 -0.111871 0.304633 0.072367 -0.239079 0.382805 -0.134255 -0.109445 0.262296 -0.029606
sent_84 -0.143357 -0.226076 0.389794 0.350151 -0.379954 0.163071 0.554752 0.571407 0.452153 -0.316020 -0.159285 -0.247853 -0.378943 -0.399671 0.522773 -0.529799 -0.133292 0.017373 0.472180 0.654285 0.308468 -0.318447 0.344396 -0.414104 -0.226805 -0.177039 -0.127208 0.290029 -0.024338 -0.114227 -0.856139 -0.382744 0.537314 0.846789 0.268768 0.123686 0.144487 -0.267226 0.148409 0.074228 -0.142622 0.366765 -0.028349 0.209602 0.465582 0.282315 -0.736514 0.329866 0.289358 0.105851
sent_85 -0.215175 -0.484444 -0.241871 -0.059674 1.178375 0.094273 0.246017 0.343237 -0.857331 0.163395 -0.631745 -0.191702 -0.110818 0.200051 0.249796 0.157973 0.240829 0.161234 -0.125780 -0.058785 1.008554 -0.298183 0.139425 0.442381 -0.194905 0.318527 0.625173 0.308890 -0.228725 0.089312 -0.202500 -0.231573 0.183278 0.126641 -0.091429 -0.524090 0.604935 0.153780 0.594059 -0.252235 0.070125 0.137915 0.057928 0.326371 0.263366 -0.269917 -0.507957 0.121128 -0.317504 0.156522
sent_86 -0.151021 0.011067 -0.574562 -0.112804 -0.224933 0.231196 0.150815 -0.202102 -0.432977 -0.052841 -0.141942 -0.033402 -0.255650 -0.028920 -0.208032 -0.346498 0.179024 0.149660 1.160771 -0.236249 0.069722 -0.151879 1.536400 -0.391245 0.095812 0.380198 -1.314902 0.593541 0.266336 0.628608 0.234847 0.043516 0.329677 0.839236 -0.340503 -0.229804 -0.109024 -0.216410 -0.612603 0.212055 0.409069 0.175818 -0.539053 1.102785 0.650417 -0.403152 0.435401 0.962311 0.384862 -0.150339
sent_87 0.232291 -0.071916 -0.037018 0.117975 -0.375339 -0.084011 -0.369309 0.192331 0.668880 -0.362958 -0.226020 0.376387 -0.074563 0.087819 -0.023204 0.245549 -0.243416 0.105744 -0.036780 -0.408561 -0.168628 0.247344 -0.808511 0.096714 0.134861 0.128949 -0.115828 0.205349 -0.040149 -0.002122 0.264697 -0.004380 -0.061916 0.118348 -0.170041 -0.337894 0.133650 -0.777976 0.318345 0.122980 0.270327 -0.360478 -0.302658 0.604999 -0.170522 0.170439 0.218271 0.366452 -0.362489 -0.260146
sent_88 -0.123681 -0.097339 -0.543069 0.154742 0.565628 -0.158876 0.295077 -0.087123 -0.699632 -0.054812 -0.372163 0.366558 -0.281490 -0.098199 0.098137 -0.042122 0.438311 0.275210 -0.531144 -0.025326 0.454648 0.043627 -0.145731 0.097358 0.141658 -0.221495 0.535657 0.195552 0.015811 0.074039 -0.143148 -0.195208 0.021525 0.341160 -0.080757 -0.566255 0.369314 0.422571 1.013499 -0.199109 -0.364036 -0.166952 0.347919 0.433880 0.017841 -0.176799 -0.197045 -0.408760 -0.318498 -0.032477
sent_89 -0.264736 0.201309 -0.038513 0.127522 -0.192480 0.361080 0.195391 -0.487803 -0.119852 -0.124789 0.014119 0.046389 0.066129 -0.142090 0.322375 -0.094699 0.191790 0.302296 -0.370175 0.184521 0.099689 -0.312715 0.425933 -0.070611 0.260052 -0.070493 -0.125414 -0.158533 0.241486 0.074834 0.020564 -0.085383 -0.188511 0.251388 -0.105390 -0.014487 -0.252883 0.369435 0.104149 -0.216994 -0.271202 0.060125 0.170852 0.364429 0.104690 -0.189220 0.185737 -0.331503 -0.197410 0.144828
sent_90 -0.179751 -0.276745 0.409738 -0.028214 0.227754 0.311932 0.040315 0.095130 -0.116763 -0.007719 -0.303632 0.323636 0.105869 0.505983 0.005906 0.265669 0.012650 0.300646 0.076267 -0.038468 -0.306138 -0.101326 0.163691 0.012581 0.379496 0.247033 0.053054 -0.081359 0.396340 -0.383945 -0.081363 0.393669 -0.303022 -0.172604 -0.001227 -0.165217 -0.422396 -0.334277 -0.121367 -0.260099 -0.028264 -0.454001 0.200720 0.240982 -0.466320 -0.039406 0.156253 0.345321 -0.780462 -0.155811
sent_91 0.495389 -0.346184 0.585967 0.068219 -0.726115 0.009760 -0.769281 0.975311 -0.132787 0.169076 0.518677 0.473499 0.692700 0.262961 -0.244302 -0.154369 0.603411 0.043287 0.063677 0.616035 -0.175954 -0.490758 0.171701 -1.034397 -0.212489 0.575629 0.028474 0.330816 -0.167084 -0.754566 -0.616811 -0.453161 0.095726 0.556916 0.125409 0.118010 0.352190 -0.323439 0.265183 -0.152703 0.351445 -0.679425 0.142984 -1.050869 -0.360456 -0.139339 -0.892748 -0.248426 0.440331 -0.407828
sent_92 0.304747 -0.317758 0.390060 -0.261004 0.059592 0.368093 -0.463352 -0.000464 0.178335 0.070658 -0.024959 0.553303 -0.315902 -0.098386 0.329578 0.179011 -0.358616 -0.287554 -0.217253 0.076629 -0.149660 -0.313123 -0.088822 -0.363725 0.166599 0.604688 0.087266 0.079477 0.560097 -0.400288 -0.040697 0.069489 -0.997868 0.813549 -0.268038 0.425735 -0.406640 -0.395993 -0.213684 -0.265822 0.050474 -0.414405 0.067755 0.606348 -0.176353 -0.308715 0.232183 0.220086 0.058106 -0.458011
sent_93 0.344576 -0.073082 0.169498 0.469165 0.355105 0.144668 0.027945 -0.043450 0.232131 0.198085 -0.044703 -0.005425 -0.360421 0.357369 -0.619035 0.055745 -0.323957 -0.553637 -0.190976 0.114732 -0.016646 0.330316 -0.366125 -0.110525 -0.198973 -0.164633 0.243329 0.016958 0.044242 0.033790 0.405676 0.595737 -0.510303 0.173408 -0.282129 0.304651 0.032165 0.603064 -0.210702 0.019589 0.383912 -0.174045 -0.015715 -0.416406 0.163724 0.035284 -0.236213 0.250054 0.102758 -0.462677
sent_94 -0.818092 0.659974 -0.671866 -0.179402 -0.133775 -0.337436 -0.029736 -0.008163 -0.822324 0.002981 -0.263652 -0.283232 -0.086418 -0.425563 0.055018 -0.612566 0.052308 0.850711 0.581876 -0.446073 0.456209 -0.026717 1.362486 -0.534502 -0.122251 0.350746 -0.581725 0.572166 0.075732 0.869859 -0.074511 0.593645 1.149880 0.148893 0.115505 0.163067 0.182461 -0.164613 -0.882880 0.327628 0.480344 0.456247 -0.406458 0.347331 0.313996 -0.371043 0.532119 0.386511 0.035004 0.145094
sent_95 -0.627925 0.220372 -0.541638 -0.222474 -0.150656 -0.352442 0.050580 -0.255409 -0.611547 0.310681 -0.452558 0.188769 0.073989 0.093888 -0.344097 -0.379569 0.438230 0.398912 0.629273 -0.316183 0.014869 -0.464948 1.294928 -0.396724 -0.006252 0.415391 -0.575446 0.414777 0.252087 0.923254 -0.044402 0.472690 1.141993 -0.007307 0.015241 0.180478 -0.161006 -0.270143 -1.092273 -0.082243 0.263234 0.448880 -0.341178 0.447782 0.247347 -0.257113 0.568554 0.486698 -0.452801 0.026550
sent_96 -0.003365 -0.249589 -0.392063 0.009071 0.042496 0.250262 0.011166 -0.174391 -0.262212 -0.312752 0.034331 0.439357 -0.159364 -0.369133 0.456702 -0.252987 0.123843 0.167821 -0.280402 -0.018176 -0.345163 -0.169489 0.130602 0.252283 0.285299 0.178185 -0.155094 -0.014578 0.276806 -0.225189 0.199814 0.162583 -0.076654 0.137412 -0.102329 0.176150 -0.197374 0.078592 0.057621 0.424020 -0.366023 0.172024 -0.074198 0.131319 0.046313 -0.059213 0.238289 -0.093428 0.335981 -0.619103
sent_97 0.215228 -0.306909 -0.164709 -0.050659 0.680544 -0.495614 0.084476 0.483220 -0.089332 0.262221 0.328674 0.110922 0.123288 0.135351 -0.190142 0.082931 0.896653 0.160317 0.650302 -0.181942 -0.364847 0.391306 0.345830 -0.185457 -0.047621 -0.149723 0.081384 0.303362 -0.285441 -0.369859 0.075638 -0.019350 0.603378 -0.345655 0.337505 -0.706627 -0.146954 -0.141933 -0.364850 0.437557 0.322468 -0.198687 -0.536775 0.196411 -0.566147 -0.005747 -0.518469 0.370451 -0.002911 0.031857
sent_98 -0.331492 0.815682 0.498660 -0.255687 -0.672724 -0.155778 0.346544 0.016051 0.747089 -0.411074 -0.215145 0.071709 -0.393837 0.751185 0.484783 0.300271 -0.721690 -0.181876 -0.232443 -0.183373 -0.466573 0.298385 -0.432293 -0.870089 0.039190 -0.767674 0.317043 -0.029167 -0.179993 0.212809 -0.130057 0.518173 -0.777482 0.169735 -0.227788 1.000055 -0.264374 0.281582 -0.036771 0.048388 0.073097 -0.893100 0.209401 -0.921306 -1.068909 0.405404 0.071777 0.334956 0.179577 0.161905
sent_99 -0.473700 0.376728 -0.590803 -0.286615 -0.286435 -0.349828 -0.271340 -0.086091 -0.422131 0.172541 -0.121233 -0.025953 0.213021 0.246023 -0.176967 -0.458904 0.209365 0.540649 0.222179 -0.448962 0.085338 -0.163655 1.000622 -0.598683 0.027152 0.155315 -0.618646 0.316008 0.236954 0.634427 0.078451 0.568547 1.113030 -0.245847 0.166437 0.344937 0.124769 -0.152932 -1.331930 0.180397 0.227733 0.278771 -0.410782 0.164634 0.205037 -0.155790 0.631361 0.169314 -0.186333 0.078958
sent_100 -0.277508 0.033374 -0.458755 0.118212 0.675578 -0.737069 -0.329214 -0.116261 -0.654825 0.208652 0.218892 0.192771 -0.486632 -0.256558 0.081632 0.107490 0.676129 0.404934 0.280147 -0.133595 -0.281235 0.298883 -0.204700 -0.135574 0.035287 -0.160488 0.016928 -0.470069 0.012979 0.022920 -0.173096 0.099181 0.268598 -0.310958 0.277761 -0.034699 -0.059916 0.062074 -0.168757 0.313796 -0.481634 1.339667 -0.089345 0.407571 -0.198289 -0.100239 0.303146 -0.154835 0.531519 -0.169480
sent_101 0.328570 0.007219 -0.011057 -0.067317 0.743863 0.580594 0.127871 -0.297086 -0.594615 0.079578 -0.274530 -0.525115 -0.418173 0.537751 -0.347268 -0.249891 -0.509338 -0.405417 0.000009 -0.026733 -0.279538 0.623457 0.046201 -0.079683 0.108281 -0.173245 0.544659 -0.170587 0.476554 0.692345 0.486112 1.029930 -0.176448 -0.123835 -0.478698 0.671316 -0.081985 0.160536 -0.673743 -0.145433 0.322856 0.262415 -0.100451 -0.553010 -0.134608 0.513816 -0.092738 0.372292 -0.005094 -0.307377
sent_102 -0.227264 -0.070268 0.277336 -0.029261 0.646339 0.340921 0.323155 0.005538 -0.836914 0.394112 -0.311928 0.122502 0.125580 -0.219489 0.227949 0.411688 0.389678 0.037831 -0.179958 -0.244488 0.110719 -0.252418 0.059054 0.097500 0.092384 0.065400 0.499900 0.114109 -0.111944 -0.115318 0.096057 -0.148020 0.091947 0.016707 -0.066922 -0.057338 0.025599 -0.088261 0.436066 0.010371 0.250628 -0.073253 0.144865 -0.039594 -0.354300 0.216028 -0.088239 0.008331 0.389027 -0.438065
sent_103 -0.058614 -0.203009 -0.203059 0.072884 0.399574 -0.073572 0.300926 -0.297633 -0.232602 -0.139938 0.110709 -0.136123 -0.669596 -0.252124 0.249782 0.065464 0.083058 0.283670 0.138325 -0.106492 0.149090 0.076118 0.011700 0.230912 -0.127963 0.214076 -0.073533 -0.021172 -0.037253 -0.036099 -0.285326 0.281978 -0.072812 0.103767 0.087900 0.042633 -0.046881 -0.050754 0.022101 0.329813 -0.247638 0.421119 0.144791 0.211749 -0.269014 0.075421 -0.190560 0.375978 0.107728 0.169149
sent_104 -0.021607 -0.160425 -0.140041 0.009728 -0.126250 -0.091976 -0.186589 -0.052917 -0.330649 0.125358 0.222334 -0.017983 -0.235073 -0.097799 -0.097532 -0.093506 0.219643 0.352446 0.375032 0.293678 0.038089 -0.026102 0.488673 -0.280355 0.130007 0.245441 -0.336089 0.107724 0.397039 -0.114303 -0.013608 0.232119 0.083366 0.229493 0.107789 0.001888 -0.106981 -0.249299 -0.139036 0.054556 0.196128 0.103809 0.196146 0.297233 -0.390577 -0.078868 0.064012 0.207605 0.040733 0.131367
sent_105 0.353388 0.419876 -0.086188 0.206317 0.272711 -0.058876 0.247947 -0.157158 -0.027024 0.115803 -0.216057 -0.462219 -0.243190 0.433311 -0.397625 0.116128 -0.265051 -0.102451 0.049953 -0.536812 -0.011905 0.444457 0.239538 -0.400934 0.038736 -0.376439 -0.135388 0.024898 -0.175628 0.475816 0.260063 0.902053 -0.413501 0.271956 -0.532743 0.038223 0.094790 0.705876 -0.603523 -0.137071 -0.136256 -0.201830 -0.396931 -0.234036 0.057160 0.157226 0.024914 0.438848 0.052093 -0.084451
sent_106 -0.283909 -0.319530 0.011775 0.253715 0.169062 -0.242417 0.326616 0.127330 -0.117468 -0.117623 0.153166 0.070305 -0.181559 0.076496 0.098892 0.120040 -0.005173 -0.128083 -0.168393 -0.137288 -0.075634 -0.165295 0.243678 0.093799 -0.066406 0.121786 0.144929 0.043676 -0.155396 -0.093044 -0.415983 0.035297 -0.385409 0.093939 0.121171 0.081417 -0.552624 -0.146935 -0.187940 0.275871 -0.078937 -0.066207 0.321528 -0.051263 -0.540526 -0.135663 -0.387224 0.211658 -0.316097 -0.161651
sent_107 -0.286285 0.190998 0.487714 0.158480 0.350361 -0.028335 0.241146 -0.075099 -0.668556 -0.019203 0.328499 0.419190 -0.267135 -0.251939 0.459782 -0.277709 0.167256 0.580187 0.450375 -0.012047 -0.339412 0.627138 1.141977 -0.417216 0.433182 -0.051363 -0.052524 0.195595 0.465775 -0.089276 -0.067265 0.485788 0.293868 -0.219686 0.130694 -0.198295 -0.534424 -0.264686 -0.045331 0.159902 0.025883 0.141799 -0.146649 -0.017670 -1.042125 0.285611 0.057132 0.420041 -0.628948 0.492835
sent_108 0.437542 -0.196253 0.077325 0.146881 0.097895 -0.083856 -0.028498 0.088914 0.002917 -0.385874 -0.099681 0.782833 0.136630 0.049559 0.455260 0.208335 0.218038 -0.368211 0.201457 0.432176 -0.213811 -0.053050 0.272586 -0.583062 -0.071368 0.029823 0.104588 0.503284 0.385402 -0.177158 0.148057 -0.116090 0.077795 0.439478 -0.213258 -0.689689 -0.360931 -0.053129 0.095981 -0.205863 0.031566 -0.213861 -0.218576 -0.240728 -0.522019 0.036664 -0.415436 0.037938 -0.451754 -0.178432
sent_109 0.042611 -0.286637 0.046813 0.261169 -0.497730 0.076538 0.143507 0.125389 0.336382 -0.263211 -0.023361 0.190715 -0.063506 -0.114328 0.151578 -0.063952 -0.100782 -0.088745 0.052678 0.506242 -0.212829 -0.017930 0.162771 0.023202 -0.043358 -0.069729 -0.077619 -0.218800 0.344744 -0.118145 -0.366590 -0.142062 0.202316 0.875022 0.230907 0.138693 -0.023397 0.064898 0.417764 0.284362 0.023002 0.036870 0.149692 0.244701 0.211731 -0.000313 -0.412652 -0.014838 0.153717 -0.169670
sent_110 0.191778 -0.803632 -0.645327 -0.577355 0.190880 -0.081459 -0.069422 -0.223455 0.530562 -0.248589 -0.058829 0.036538 -0.025826 -0.437191 -0.263836 -0.342933 -0.643609 -0.643294 -0.591885 0.811001 -0.036922 -0.001480 -0.302929 0.622250 -0.446775 0.105054 0.217995 0.340897 0.529188 -0.033716 0.310241 -0.352210 0.252704 0.288161 0.168076 -0.186820 -0.137157 -0.334516 -0.299726 0.208685 0.732385 -0.384812 0.628453 0.301563 0.029350 -0.266582 0.037143 -0.632619 -0.011079 0.155322
sent_111 0.140317 -0.183513 0.413005 0.129464 0.103257 0.351221 0.319724 -0.357987 0.487755 0.017743 -0.106038 0.432497 -0.099951 0.447548 -0.287038 0.357892 -0.308838 -0.237154 -0.305422 -0.078376 -0.246238 0.390298 -0.331706 0.089324 -0.127832 0.218258 -0.028054 -0.316980 0.103744 -0.121265 0.138286 0.574572 -0.566678 0.114586 -0.319037 0.136720 0.269867 0.347479 -0.005396 -0.013614 0.273706 -0.623537 0.068512 -0.240374 0.244685 -0.129769 -0.004312 0.215172 0.106382 -0.129195
sent_112 -0.132547 -0.001786 0.020060 0.021263 -0.149976 0.175581 0.034017 -0.240788 -0.084816 -0.010877 -0.089790 0.346936 0.008188 0.035751 0.089910 0.189369 0.111031 -0.007063 -0.187706 0.089287 -0.089542 -0.151980 -0.102765 -0.017207 0.068750 -0.036081 -0.013203 -0.125592 0.081685 -0.022946 -0.015398 0.135730 0.045125 0.157591 -0.048367 0.168247 0.103400 0.138112 0.056068 -0.037132 -0.050732 -0.030450 0.076569 -0.080097 -0.093942 0.200800 0.074572 0.130534 0.192309 -0.288424
sent_113 0.267838 -0.299381 -0.242437 0.082427 0.430068 0.112369 -0.240443 -0.077204 0.058166 0.062521 -0.086921 0.043539 0.136981 -0.341404 0.061318 -0.092361 0.256234 0.045996 -0.077322 0.072007 -0.164604 -0.355035 -0.121030 0.405801 -0.053308 0.286713 0.133132 -0.170815 0.185014 -0.140267 0.163740 0.176751 0.084505 0.077305 0.085156 0.068864 -0.110848 0.186431 0.044386 0.276860 -0.014692 0.515264 -0.260439 0.248565 0.273826 -0.044232 -0.060057 0.009600 0.189469 -0.305289
sent_114 -0.277925 -0.006735 -0.034301 -0.179035 0.210996 0.188473 0.092850 -0.208742 -0.532281 0.302075 0.042256 -0.007768 -0.161381 0.141362 -0.093051 -0.147944 0.248895 0.045746 0.245013 -0.024108 0.044227 -0.045284 0.344305 -0.069609 0.269377 -0.006261 -0.208071 0.045582 0.153366 -0.059920 0.232547 -0.012514 -0.000024 -0.208513 -0.128661 0.148980 0.059067 0.027641 -0.350129 -0.064816 0.021842 -0.059482 0.043893 0.228528 0.034192 -0.027888 0.408557 0.429593 0.298961 0.030877
sent_115 0.006563 -0.052295 -0.442745 -0.001723 0.430480 -0.263453 -0.030256 -0.134708 -0.070524 -0.273114 0.177034 0.300294 -0.034536 -0.226077 0.397203 0.303036 0.404388 0.496546 -0.009183 -0.113028 0.023673 0.189898 -0.057476 -0.003803 -0.092429 0.234177 0.227633 -0.155097 0.143501 0.037156 -0.040736 0.441131 0.076706 -0.093310 0.184129 -0.235682 -0.035324 0.239577 0.255031 0.326070 -0.235845 0.237291 -0.065857 0.349050 -0.380189 -0.144550 -0.175012 0.124098 0.092700 0.042970
sent_116 -0.187505 -0.137216 0.671953 0.286872 0.333629 -0.086668 -0.076749 0.076323 -0.107569 0.499025 0.048723 -0.075490 -0.292262 -0.055805 0.207448 0.165593 0.265069 0.153233 0.643400 0.317881 0.465709 -0.725819 0.676934 -0.742429 -0.121735 0.566158 -0.115233 0.198384 0.372679 -0.017936 -0.548519 0.571668 -0.166379 0.065506 0.153586 0.600396 -0.484357 -0.117780 -0.751857 -0.259089 -0.159303 0.661151 0.061978 -0.030008 -0.609630 0.345871 -0.387230 1.025409 -0.187436 0.411798
sent_117 -0.293882 -0.370501 -0.499675 -0.253335 0.768439 0.190589 0.086376 0.203722 -0.359945 0.050991 -0.006209 -0.010353 0.066136 0.072330 0.064475 -0.179336 0.000603 0.247280 0.119996 0.257105 -0.090946 -0.107563 0.004622 -0.219841 0.144020 0.169785 0.179831 0.027814 0.061604 0.079929 0.407788 0.213086 0.165166 -0.504229 0.133159 -0.167222 -0.110469 -0.417169 -0.892166 0.030160 -0.040041 0.295090 -0.302724 0.353652 -0.013212 -0.429267 0.155854 0.093141 0.100743 -0.471253
sent_118 -0.479248 0.128643 0.156913 -0.273860 0.090415 -0.073275 0.010271 -0.231706 -0.502650 -0.126785 0.150592 0.285179 -0.345868 -0.411047 0.372957 -0.292334 -0.220782 0.474224 0.434372 -0.391193 -0.142661 0.505920 0.606020 0.065398 0.139928 0.061602 -0.443119 0.363500 0.231044 -0.186642 -0.074528 0.106947 0.084430 -0.219543 0.072627 -0.137186 -0.341183 -0.694792 0.025848 0.129325 0.315229 0.058256 0.245043 0.037712 -0.785613 0.307325 0.505160 0.092147 -0.473759 0.427016
sent_119 -0.015130 -0.285214 -0.141913 0.127865 0.122176 0.012444 0.306898 -0.117112 -0.089668 0.035902 -0.114407 -0.054346 -0.064716 -0.119720 -0.051939 0.220412 0.247089 -0.011249 -0.102170 -0.169029 -0.016396 -0.067106 0.254327 0.347763 -0.183698 0.080252 -0.107392 0.049381 -0.030541 -0.120076 -0.048960 0.091587 0.131902 0.198351 0.038266 -0.130864 -0.143652 0.200343 0.019131 0.353974 0.136758 -0.053843 0.136296 0.011833 0.115629 -0.073212 -0.208579 -0.071435 0.041419 -0.187587
sent_120 0.073822 -0.305742 0.075328 0.130260 0.301975 -0.117274 0.319086 0.092069 -0.028102 -0.258213 0.024629 0.436583 0.122611 -0.162302 0.269896 0.409094 0.466184 0.104819 0.233554 -0.084890 -0.302429 -0.205718 -0.004812 -0.144004 -0.134651 0.243333 0.173121 0.137077 0.103292 -0.235923 -0.119774 -0.099632 0.204088 0.107913 0.232799 -0.586330 -0.604275 -0.241888 -0.003980 0.107409 0.010051 -0.122808 -0.175776 0.273097 -0.477574 -0.008921 -0.424603 0.224049 -0.101579 -0.182545
sent_121 0.153422 -0.376424 -0.274839 0.033378 0.525065 -0.285921 -0.159799 -0.188491 -0.072431 0.188319 -0.002424 0.005226 0.019873 -0.005175 -0.189312 0.114861 0.062432 -0.048798 0.095279 -0.110922 -0.267785 -0.091740 0.211247 0.554569 0.216030 0.495473 -0.142549 -0.566270 0.194603 -0.259510 0.107440 0.573162 -0.536343 -0.319406 -0.185248 -0.104198 -0.139529 0.120108 -0.474536 0.239198 -0.246211 0.548955 -0.255827 0.462805 0.151908 -0.311450 0.403510 0.127161 -0.217762 0.079644
sent_122 -0.197846 -0.604246 -0.330824 0.139677 0.380027 -0.559917 0.214162 0.005902 -0.141599 -0.055976 -0.017506 0.892986 -0.278732 0.137527 0.046205 0.478399 0.502945 0.098534 -0.033117 0.441153 -0.398511 0.161795 -0.479266 0.139174 0.319837 -0.049170 0.327909 -0.369721 -0.228905 -0.415118 0.003592 0.246307 -0.059269 -0.038939 0.024615 -0.251727 0.403435 -0.074959 0.240078 0.049226 -0.434220 -0.164312 0.190508 0.308974 -0.811605 -0.167039 -0.237511 0.284847 0.061440 -0.193693
sent_123 0.105679 -0.225419 -0.010618 -0.198527 -0.103504 0.445154 0.059410 -0.460074 0.142489 -0.046721 -0.271569 0.082440 0.029984 -0.259872 0.091064 -0.147088 -0.129368 0.091727 -0.289940 0.047347 -0.059603 -0.011427 -0.324699 0.392796 -0.181378 -0.034646 -0.112846 0.109553 0.378008 -0.069550 0.170185 -0.298400 0.107043 0.711722 -0.001208 -0.073688 -0.159507 -0.023375 0.337741 -0.117939 0.640208 -0.443612 0.255590 0.313563 0.083635 0.146932 0.185423 -0.400103 0.173604 0.142845
sent_124 0.247370 0.119199 0.193469 -0.010488 0.247727 0.067274 0.110986 -0.112242 0.036609 0.192867 -0.400794 0.288523 -0.002008 0.764285 -0.406763 0.495994 -0.240697 -0.407809 -0.096469 -0.402945 -0.610551 0.345335 -0.066406 -0.059511 0.393768 -0.264258 0.199296 -0.332959 0.064854 0.238251 0.486783 0.850715 -0.508169 -0.032317 -0.558820 0.258477 0.029660 0.318678 -0.407851 -0.194741 -0.043726 -0.489970 -0.272106 -0.081339 -0.328302 0.228016 0.240601 0.491797 -0.124859 -0.680382
sent_125 -0.051737 -0.091570 -0.305722 -0.047706 0.219077 0.249576 0.034220 -0.437135 -0.301682 -0.281737 -0.154281 0.233624 -0.360600 -0.174334 0.379120 -0.059456 -0.117692 0.306806 -0.060218 -0.328578 -0.108289 -0.063629 -0.144069 0.117983 -0.020538 0.234386 -0.510068 -0.107537 0.259454 0.302322 0.194156 0.420609 -0.075367 0.254935 -0.024129 0.394294 -0.229863 0.086483 0.048853 0.344462 -0.099746 0.413252 -0.009219 0.115425 -0.187110 0.023871 0.210892 0.003767 0.570833 -0.750417
sent_126 -0.051734 -0.001979 0.129556 0.400045 0.170555 0.082326 0.030992 -0.399077 -0.050750 0.229377 0.235949 0.218838 -0.382165 -0.519210 -0.082365 0.030524 0.134603 0.084064 0.006380 0.051048 -0.041822 -0.032542 0.357976 -0.101783 -0.053444 0.093709 -0.311597 0.014217 0.252999 -0.309007 0.033905 0.008978 -0.402953 0.368755 0.061300 -0.137052 -0.525175 0.278800 0.103664 0.398263 0.277078 0.329284 -0.034324 0.433008 0.169959 -0.288053 0.311984 -0.017822 0.120937 -0.250723
sent_127 -0.483574 -0.054642 -0.023735 0.046949 0.321085 0.254979 0.267967 -0.155289 -0.461771 -0.285827 0.023670 0.562791 -0.056081 -0.034962 0.349901 0.251322 0.030305 0.405694 0.098028 0.339274 -0.342987 -0.036071 -0.159828 -0.135748 0.213271 0.028470 0.238001 -0.532039 0.126644 -0.011433 0.046436 0.032724 -0.400372 -0.103094 0.142236 -0.307492 -0.323526 -0.001244 0.015800 -0.273647 -0.329203 0.156325 0.117392 0.527340 -0.238177 -0.571610 0.089284 0.104572 -0.001188 -0.312732
sent_128 0.038129 -0.082319 0.181727 0.072803 0.066058 0.065585 0.148448 -0.041575 0.133958 0.292111 -0.043277 0.226772 0.061430 -0.207167 -0.045252 0.127083 0.077285 -0.246182 -0.432876 0.011944 0.183085 -0.254612 -0.036517 -0.256199 -0.219069 0.111539 0.115986 0.281351 0.009000 -0.132009 0.178971 -0.089750 -0.070466 0.264513 -0.039741 0.176403 0.017473 0.073638 -0.008896 0.147532 0.413460 -0.387504 0.175577 -0.133054 -0.036154 0.031769 -0.029930 -0.095709 0.394895 -0.332778
sent_129 0.011209 -0.247147 0.351545 0.134811 0.544161 0.379598 0.977581 -0.353944 -0.081365 0.161443 -0.313586 0.514317 -0.337821 -0.027172 0.373102 0.787728 -0.062294 -0.000323 -0.534533 -0.004560 -0.324582 -0.376903 0.103270 -0.184572 0.288802 0.405963 0.307159 -0.248110 0.525251 -0.126851 0.441335 0.567412 -0.885927 0.032954 -0.219939 -0.384786 -0.694698 0.002999 0.162076 0.048086 -0.247200 -0.408986 0.015057 0.618379 -0.115929 -0.647829 0.098130 0.420167 -0.614654 -0.691134
sent_130 0.033191 0.140207 0.034519 0.003122 -0.123520 0.019227 -0.270698 -0.053255 -0.024448 0.046393 0.190941 -0.018266 0.065127 -0.003715 -0.022863 0.138177 0.257841 0.105613 0.031276 -0.138780 -0.205645 -0.197007 -0.018444 0.070426 0.062314 0.031237 0.067809 -0.169536 0.030646 -0.058016 -0.197088 0.027125 -0.108407 -0.065506 -0.003436 0.194397 -0.205434 0.074873 0.103558 0.031229 -0.030458 0.192829 -0.015341 0.105241 -0.136437 0.096199 0.098400 0.023659 0.125106 -0.030730
sent_131 0.110925 -0.504603 -0.134575 0.249829 0.075247 -0.130498 0.364590 -0.021987 -0.147891 -0.354908 -0.034538 0.891135 -0.292159 0.719358 -0.081631 0.473884 0.443024 0.192134 -0.022086 -0.036242 -0.423622 -0.100243 -0.533392 -0.690751 0.089783 0.326910 -0.004126 0.003304 0.367277 0.018910 0.023623 0.342846 -0.002064 -0.182679 0.048683 -0.497089 -0.321931 -0.231762 -0.079380 -0.123128 -0.528418 -0.443973 -0.059704 0.201410 -0.397777 -0.482860 -0.500841 0.657860 -0.530387 -0.604236
sent_132 -0.011885 -0.178428 -0.079119 -0.080777 0.104618 0.454704 0.073340 -0.184942 -0.008604 -0.187793 -0.095107 0.402494 0.113938 -0.331708 0.506203 0.269808 -0.128024 -0.113304 -0.587755 0.163062 0.022805 -0.414836 0.101687 -0.133041 -0.082050 0.221958 0.229979 0.152770 0.288582 -0.025556 0.163321 -0.151147 -0.358837 0.551368 -0.177576 -0.146577 -0.262642 -0.003528 -0.036540 -0.083526 0.006734 -0.256685 0.201013 0.181640 -0.094584 -0.200921 -0.061417 -0.247990 0.021438 -0.408698
sent_133 -0.192634 -0.633379 -0.506671 -0.236928 -0.127658 -0.001096 -0.563002 -0.065051 0.068865 -0.258103 -0.088977 0.245565 -0.215497 0.323455 0.058864 -0.206934 0.040946 0.022286 0.229294 0.091269 -0.077029 0.099490 -0.228870 0.621247 -0.038955 -0.198579 -0.332831 0.137527 0.184008 -0.230559 -0.063604 -0.260772 0.433707 0.075721 0.233297 0.205357 0.220375 -0.427142 -0.084625 0.241895 0.329380 0.375575 0.193859 0.475488 -0.053888 0.320908 0.110131 0.054122 -0.092040 0.027968
sent_134 -0.301543 0.150618 0.704175 0.369751 -0.161657 0.127205 0.485795 0.100320 -0.366089 0.309488 0.691954 0.414910 -0.578285 -0.397581 0.066548 -0.171905 0.212987 -0.008655 0.469034 0.614545 0.323781 0.004999 0.393307 -0.615503 0.059976 0.013194 -0.452239 0.228514 0.014658 -0.390070 -0.248684 -0.195044 -0.116104 -0.374579 0.116233 0.006567 0.192508 -0.297817 0.364891 -0.019492 -0.161664 0.523738 0.171902 -0.110983 0.259212 0.203054 0.114467 0.847351 0.179514 0.013562
sent_135 -0.384734 0.034996 0.689159 -0.050567 0.374252 0.115096 0.059582 -0.020295 -0.453972 0.190223 -0.204702 0.327474 -0.548625 -0.080779 0.597789 0.031159 0.193571 0.696438 0.533156 -0.212811 -0.063910 -0.076522 0.660051 -0.350816 0.287537 0.129266 -0.113852 0.416517 0.419437 -0.424837 -0.330443 0.435530 0.008434 0.077159 0.229135 0.097315 -0.608406 -0.198279 0.027392 -0.037760 0.137913 -0.040392 0.040680 0.271702 -0.918710 0.287563 0.170782 0.632609 -0.465074 0.106207
sent_136 -0.118930 -0.230804 0.071889 0.163811 0.160038 0.336012 0.117832 -0.217736 -0.546277 0.290321 -0.080620 0.127474 -0.102870 -0.054113 -0.015901 0.321834 0.119401 -0.167952 -0.206827 0.283347 0.147187 -0.210399 0.405790 0.070909 0.080274 0.091054 0.263124 -0.014590 0.357308 -0.062189 0.038552 0.104020 -0.186674 0.603277 -0.111749 -0.013273 -0.055424 0.325724 0.077822 -0.089424 0.132588 -0.078704 0.264963 0.171698 -0.083835 0.005993 -0.201442 0.001585 0.159699 -0.432870
sent_137 -0.554825 0.113168 0.079147 0.021268 -0.161552 -0.100977 0.235977 0.006412 -0.253112 0.634771 0.237692 -0.149382 -0.299157 -0.104282 -0.146357 0.084663 0.299344 0.193761 -0.114557 0.048688 0.100504 -0.246413 0.648253 -0.473369 -0.158377 0.037661 -0.134285 0.020297 -0.132950 -0.286324 -0.020990 0.183563 0.355288 -0.139446 0.201432 0.494887 -0.061412 -0.047404 -0.526980 0.672069 0.770595 0.021340 0.231635 -0.348606 -0.228002 -0.520360 0.173586 -0.069260 0.301349 -0.400637
sent_138 -0.082349 -0.322742 -0.542943 -0.344122 -0.088067 -0.366720 -0.361027 0.241957 0.415686 -0.500402 0.157517 -0.097624 0.389196 -0.127477 -0.125509 -0.307207 -0.324446 -0.300676 0.406639 0.363611 -0.190682 0.492280 0.288052 0.464108 -0.198319 -0.050180 -0.041656 0.185641 0.105686 0.198615 0.044017 -0.285424 0.641750 0.002849 0.348848 -0.166793 -0.094959 -0.295852 -0.305010 0.437597 0.294005 0.142210 -0.108311 0.358096 -0.117043 0.316242 -0.094565 -0.080633 0.150920 0.482426
sent_139 0.140519 -0.409703 -0.405434 -0.437126 0.071004 -0.388491 0.093143 -0.138539 0.590470 -0.219759 -0.195620 -0.415464 0.509176 0.169769 -0.211344 -0.242326 -0.104318 -0.129430 -0.507664 0.159675 0.213952 -0.259621 -1.122519 0.152318 -0.323790 -0.205368 0.243329 -0.003535 -0.138334 0.433259 -0.216450 -0.577314 0.814828 -0.188713 0.593455 0.137830 -0.058135 -0.843193 -0.136640 -0.361064 0.116995 0.032441 0.490734 0.048109 -0.518796 0.702240 -0.226582 -0.585710 -0.252569 0.609256
sent_140 -0.236528 -0.382813 -0.349117 -0.420144 -0.242764 -0.026287 -0.466771 0.069905 0.247270 -0.256678 -0.107807 -0.351973 0.094991 0.181098 -0.359745 -0.496699 -0.806464 -0.051055 -0.021307 0.268857 0.181113 0.643568 -0.238488 0.799013 0.033185 -0.092891 -0.240450 -0.048959 0.057650 0.029311 -0.006734 -0.450701 0.422153 -0.003483 0.110035 -0.214414 0.682560 -0.687125 -0.198947 -0.121877 0.474523 -0.171895 0.250550 0.327911 0.156817 0.143988 0.318501 -0.520644 -0.264967 0.685179
sent_141 0.216959 -0.089624 -0.334798 -0.273982 -0.081380 -0.104696 -0.340090 0.014827 0.074310 -0.082194 -0.043170 -0.662986 0.334589 0.017469 -0.105670 -0.464784 -0.148525 0.332607 0.171445 0.146731 0.124411 0.004682 0.050953 0.097427 0.314596 0.267159 -0.156177 -0.049531 0.042954 0.297311 0.075214 0.028554 0.432770 -0.086607 -0.097818 0.031578 0.243346 -0.700625 -0.282402 -0.161584 0.147523 0.314633 -0.220666 0.439022 -0.143229 0.215321 0.238151 -0.143283 -0.128784 0.836727
sent_142 -0.186496 -0.006227 0.125250 0.123167 -0.112215 -0.547756 -0.256044 0.242970 0.324450 -0.067135 -0.014251 0.308433 0.150783 0.463023 -0.202737 0.064964 0.189206 0.186304 0.555259 -0.254766 0.085679 0.443871 0.110558 -0.451230 -0.142575 0.003775 -0.449646 0.294882 -0.203851 0.189456 -0.223404 0.020687 0.510322 -0.061669 0.062124 -0.147599 0.464059 -0.463046 -0.204014 -0.063831 0.214986 -0.148884 -0.089333 -0.007555 -0.537069 0.459072 -0.219300 0.313083 -0.238547 0.439864
sent_143 0.223802 -0.875858 -0.071436 -0.391954 0.299965 -0.475882 0.255316 -0.592502 1.107083 -0.119184 -0.414881 -0.674316 -0.069590 0.146252 -0.565949 -0.470573 -1.091552 -0.648677 -0.920016 0.205423 0.126638 0.306839 -0.793279 0.963502 -0.336523 0.044744 -0.011875 -0.163341 0.326061 -0.034011 -0.212631 -0.151112 -0.047127 0.329904 0.225289 0.174359 0.041763 -0.604104 -0.363357 -0.206264 0.641753 -0.476441 0.832402 0.186826 -0.265236 0.447664 0.075253 -1.037317 -0.662514 1.238983
sent_144 0.540814 0.137100 -0.137458 0.230503 0.268598 -0.060611 0.300705 -0.445136 0.332149 -0.030663 0.175255 0.372557 -0.283304 0.045502 -0.119979 0.526120 0.073161 -0.212546 -0.165709 -0.343106 -0.149867 0.635488 0.071060 -0.249596 -0.232733 0.003310 0.119985 0.095333 0.181050 0.200039 0.276592 0.897288 -0.321267 0.160773 -0.338544 -0.241845 0.031797 0.716336 -0.029032 0.378444 -0.149049 -0.461198 -0.256932 -0.138794 -0.096355 0.061648 -0.289818 0.541303 -0.002117 -0.064931
sent_145 -0.235111 -0.382086 -0.300008 0.110212 0.301433 -0.012113 -0.593904 0.087136 -1.062540 -0.174627 0.133127 0.446095 0.148465 -0.202775 0.457502 0.004069 0.537463 0.423899 0.227666 -0.053128 0.091455 -0.051530 0.828481 0.580539 0.423227 0.647084 -0.024849 0.046773 0.215389 -0.506063 -0.199700 0.279654 -0.199324 0.016966 -0.199644 -0.166715 0.131220 0.149935 0.200222 0.042086 -0.733317 0.409351 0.046568 -0.042245 -0.255168 0.238386 -0.008010 0.384866 -0.148251 0.120618
sent_146 -0.088714 0.137166 -0.064570 0.361689 0.424101 0.017283 -0.172319 0.018734 -0.643036 -0.084690 0.235005 -0.020421 0.157449 -0.040811 0.324242 -0.320305 0.632057 0.432190 -0.088838 -0.072041 0.085672 -0.108389 0.821011 -0.033589 0.687697 0.207599 0.223301 0.100259 0.125896 -0.312099 -0.083257 0.413363 -0.191472 -0.444401 -0.257005 -0.135956 -0.220835 0.325880 -0.142376 -0.007543 -0.770274 0.339047 -0.161717 -0.015662 -0.211894 0.168502 0.006239 0.382259 -0.508537 0.511241
sent_147 -0.179673 0.404255 -0.026525 0.294232 -0.016149 0.296990 0.462606 -0.162475 -0.606955 0.019899 -0.064823 0.149328 0.294290 -0.528853 0.294914 0.541115 -0.390182 0.044141 -0.245096 0.059785 -0.090868 0.016907 0.384264 -0.124053 0.175828 0.084012 0.377597 -0.167541 -0.114727 0.257009 0.510044 0.301865 -0.477122 0.228463 -0.344202 -0.704915 -0.064901 0.282945 -0.076606 -0.140601 -0.087535 -0.265167 -0.226420 0.288194 -0.068459 -0.657913 0.109135 0.132219 0.105695 -0.251360
sent_148 0.844527 0.155374 0.079425 -0.121254 0.709077 0.154799 0.185216 -0.386829 0.785431 0.034012 0.013065 -0.335134 -0.072726 0.824526 -0.472138 0.152448 -0.153628 -0.503488 -0.383920 -0.847818 -0.410029 0.611204 -0.661241 -0.569818 -0.282735 -0.065961 -0.169845 -0.496301 0.026925 0.647401 0.497452 0.933566 -0.593978 -0.373565 -0.245342 0.798347 -0.195529 0.559784 -0.910017 0.136468 -0.238630 0.037820 -0.501117 -0.532881 0.381205 0.357325 -0.173630 0.023594 0.453686 -0.742292
sent_149 0.030585 -0.028988 0.018361 -0.080053 -0.013693 0.092209 0.135900 -0.306465 -0.239430 -0.027817 -0.025071 0.261141 -0.066601 -0.306372 0.316101 0.220671 0.080823 -0.200901 -0.077314 0.038942 -0.132554 -0.200960 -0.023184 -0.112870 0.053760 -0.204135 -0.091785 0.098244 -0.064474 -0.111373 -0.063016 -0.143319 -0.119786 0.387729 -0.062050 0.106174 -0.161300 -0.062233 0.211997 -0.018417 -0.165348 0.014634 0.381131 -0.266393 -0.520046 0.201040 -0.048766 -0.186937 0.365323 -0.404573
sent_150 0.194764 -0.621688 -0.171993 -0.128571 0.637214 -0.132894 0.291030 0.101117 -0.177749 0.149852 0.343366 -0.461216 0.332619 -0.155212 -0.187759 -0.051831 0.215519 -0.336724 -0.054550 0.223035 -0.115651 0.028263 0.599830 0.590681 0.180956 0.290672 0.206768 -0.040089 0.231707 -0.245992 0.123095 -0.067752 0.201270 -0.312005 0.158146 -0.252003 -0.338398 -0.280456 -0.492421 0.572174 0.278361 0.086088 -0.057310 0.295176 -0.299817 0.149064 -0.332691 0.034346 0.174532 0.400655
sent_151 -0.118203 -0.205561 0.804669 0.339447 0.393420 -0.175614 -0.174349 0.267656 -0.404537 0.557384 0.144925 -0.114115 -0.200621 -0.033888 0.140442 0.291834 0.167268 0.093250 0.696282 0.147826 0.460358 -0.818484 0.836702 -0.898444 -0.143588 0.637387 -0.248385 0.170091 0.372801 -0.060940 -0.740226 0.468355 -0.360332 0.240876 0.291132 0.348683 -0.580850 -0.119085 -0.963566 -0.331339 -0.287875 0.785023 -0.009432 -0.198954 -0.570998 0.228034 -0.575607 0.795218 -0.019741 0.113429
sent_152 0.072248 -0.153743 -0.539697 -0.082622 0.356260 -0.055788 -0.161730 -0.373342 -0.028767 -0.107215 -0.055800 0.368538 -0.386044 -0.187212 0.279606 -0.194813 0.175771 0.207709 -0.011074 0.204347 -0.398895 -0.234743 -0.031841 0.144031 0.294546 0.156238 -0.081635 -0.382438 0.292013 -0.100538 0.346853 0.344977 -0.257270 -0.025932 -0.223635 0.300492 -0.161260 0.277257 -0.112310 0.218924 -0.425220 0.658144 -0.276364 0.535347 0.061024 -0.377938 0.497923 0.112260 0.173493 -0.320408
sent_153 -0.430373 -0.118378 -0.305796 -0.362133 -0.791916 0.202213 -0.143079 -0.139073 0.411662 -0.356261 -0.246157 -0.120211 -0.063670 -0.198314 0.210762 -0.217771 -0.366855 0.334540 0.342063 0.183712 -0.097227 0.094691 -0.076646 0.408593 -0.049378 -0.138198 -0.443645 0.068349 0.264723 0.182582 -0.192205 -0.425619 0.853042 0.604332 0.362175 0.050533 0.151855 -0.628612 0.063848 0.128423 0.477687 -0.029647 0.116634 0.772504 0.092625 0.287574 0.273872 -0.088431 0.057950 0.301883
sent_154 0.057396 -0.022018 -0.369644 -0.337572 0.771945 -0.048941 -0.094882 -0.381192 -0.156256 -0.072561 0.081736 -0.001948 -0.399541 -0.434666 0.333162 -0.394031 0.043515 0.647191 0.044107 0.006735 -0.085011 0.285715 0.079071 0.320247 0.233620 0.102619 -0.071180 -0.437080 0.674056 -0.134405 0.301520 0.442160 0.000766 -0.534676 0.278556 -0.037756 -0.175608 0.238001 0.271048 0.135473 -0.502719 0.534116 0.076846 0.435320 0.079099 -0.526715 0.341946 -0.637359 -0.391230 0.348595
sent_155 0.032622 -0.112891 -0.163869 0.105396 0.165114 0.296578 -0.306349 0.034938 -0.330096 0.087166 0.154900 -0.266322 0.048316 -0.563551 0.096810 -0.215571 -0.406420 0.122535 0.032491 -0.092921 0.211262 0.084284 0.155617 0.091411 -0.126675 0.246193 -0.311825 0.290808 0.150596 -0.029221 0.362773 -0.011608 0.186769 0.028027 0.088951 -0.353098 -0.085260 -0.415406 -0.684037 0.224078 0.160091 0.424484 -0.275970 0.042855 0.347319 -0.165129 0.098083 -0.269863 0.142104 -0.462473
sent_156 -0.377549 0.130022 0.152564 0.239126 0.325046 0.341329 0.230399 -0.483979 -0.068025 -0.141689 0.165205 0.267616 -0.397303 -0.387629 0.330237 -0.073488 0.214595 0.477291 -0.028625 -0.090768 -0.152141 0.054503 0.383345 -0.061910 0.178830 0.081437 -0.257355 -0.137102 0.383726 -0.097327 -0.073364 0.310620 -0.249632 -0.036321 0.039086 0.029996 -0.466909 0.145822 -0.006764 0.242292 -0.071856 0.333663 0.090584 0.649074 0.178668 -0.215179 0.336140 0.011342 -0.146094 -0.127122
sent_157 -0.102616 -0.198881 0.128181 0.314394 0.215297 0.005456 0.157490 -0.112299 -0.273169 0.119777 -0.134469 0.391012 -0.396822 0.496961 -0.204090 -0.084314 0.348778 -0.043407 0.512657 0.344181 0.317332 0.062506 0.736120 -0.605224 -0.083367 0.078637 -0.214112 0.413650 0.198680 -0.073595 -0.185637 0.260401 0.110834 0.469441 -0.178979 -0.076464 0.187367 0.489495 -0.306542 -0.416336 0.052579 -0.327341 0.092190 -0.173897 -0.140073 -0.180860 -0.439950 0.396184 -0.327865 0.223014
sent_158 0.192976 -0.067020 0.017199 0.009331 0.174413 -0.137678 -0.009527 -0.030240 -0.381025 0.173268 -0.139841 0.197145 -0.509506 0.661017 -0.226446 0.286283 0.179375 0.250650 0.111789 -0.517136 -0.024202 0.413706 0.251981 -0.470896 -0.036927 -0.025960 -0.279368 0.092301 0.050891 -0.080279 0.086818 0.609644 -0.517029 0.382811 -0.183600 0.136170 -0.058564 0.394940 0.003991 -0.014881 0.010118 -0.586773 0.188703 -0.172011 -0.428187 -0.279132 -0.076097 0.266872 -0.168744 -0.364135
sent_159 0.209344 -0.130120 -0.114676 0.438520 0.240643 0.207226 -0.254024 -0.351615 -0.611956 0.151574 0.172155 -0.005318 -0.132385 -0.136062 0.028902 0.025487 0.554339 0.553681 0.420259 -0.428889 -0.345093 0.120668 0.521361 0.084435 0.480844 -0.051885 -0.525155 -0.172652 0.260709 -0.145508 0.268150 0.780765 0.432793 -0.091202 0.178697 -0.420092 -0.456896 0.100849 -0.355300 0.122683 -0.664701 0.848141 -0.255109 0.134716 -0.403442 0.035989 0.028931 -0.192217 -0.405223 -0.603331
sent_160 -0.018144 -0.510834 0.085993 0.032763 0.442374 0.223084 0.191099 -0.263414 -0.399969 0.003801 0.002516 0.131308 -0.089114 0.125963 -0.023343 0.160175 0.455364 0.001930 0.019255 0.031083 -0.051311 -0.175177 -0.316394 0.149056 -0.070006 -0.057794 -0.148814 -0.092663 -0.175786 -0.501892 -0.084692 -0.455707 -0.221959 0.137213 0.138561 -0.257300 -0.099801 0.041121 -0.030027 -0.074282 -0.096140 0.037948 0.222504 -0.209882 -0.110542 0.141780 -0.325826 -0.006284 0.454659 -0.338323
sent_161 -0.335206 0.152185 0.195531 0.122376 0.779406 -0.010811 0.646080 -0.275189 -0.387969 -0.222277 -0.259154 0.801638 -0.469102 0.042521 0.734995 0.568297 0.205408 0.272387 0.446239 -0.439743 0.028376 0.272605 0.063400 -0.373221 -0.235925 0.200594 -0.032907 0.248767 -0.028602 0.232475 0.178092 0.419199 -0.064419 -0.343250 -0.059349 -0.374075 -0.195581 0.009199 0.022966 -0.128746 -0.419869 0.183020 -0.307375 0.056673 -0.271775 -0.002790 0.036415 0.933787 -0.317371 -0.246486
sent_162 -0.322103 -0.195653 -0.718302 -0.390296 0.775320 0.087123 0.071827 -0.156668 -0.593383 -0.021312 0.011435 -0.070443 0.240279 0.008863 0.096727 -0.235591 -0.070295 0.369524 -0.066121 0.042156 -0.275625 0.012506 0.143627 -0.034477 0.261674 0.140817 0.082618 -0.323058 0.096819 0.397100 0.574755 0.354811 0.131069 -0.653284 0.126166 -0.042957 -0.144980 -0.388930 -0.826503 0.158373 -0.172634 0.631560 -0.203307 0.448361 -0.138916 -0.464494 0.371807 -0.162159 0.052149 -0.324201
sent_163 -0.425775 -0.008234 0.398032 0.041337 0.195001 0.427886 0.112211 -0.063112 -0.421675 0.126627 0.261491 0.148780 -0.000252 -0.402586 0.035140 0.136801 -0.035049 0.227684 0.236979 0.048490 0.176271 0.209403 0.481911 0.413891 -0.143036 0.480933 -0.181599 0.053380 0.077459 -0.181440 0.047029 0.053498 0.072167 -0.357594 0.121434 -0.095082 0.098753 -0.014951 0.052148 0.085634 0.209827 0.145298 0.164794 -0.183831 0.213822 0.077644 0.114622 0.244657 0.181288 0.031196
sent_164 -0.490499 0.310788 -0.585669 -0.263760 -0.338764 -0.261853 -0.157820 -0.070233 -0.476592 0.023307 -0.129665 -0.096261 0.186211 0.163577 -0.111404 -0.423043 0.103655 0.531609 0.235926 -0.493349 -0.036814 -0.074327 1.011092 -0.409451 0.020580 0.253488 -0.531822 0.219589 0.202405 0.727633 0.043901 0.550785 1.108187 -0.157837 0.146780 0.332258 -0.012510 -0.311044 -1.342341 0.249309 0.296868 0.351443 -0.444760 0.183431 0.149809 -0.175739 0.465443 0.152639 -0.178484 -0.018277
sent_165 0.010517 -0.178415 0.418305 0.055140 0.423990 0.253744 0.568505 0.008314 0.281424 0.037741 -0.412349 0.484656 0.417855 0.292763 0.301093 0.539630 0.466392 0.189939 0.044647 -0.053331 -0.312518 -0.488453 -0.288449 -0.500333 0.339774 0.186317 0.243365 -0.094265 0.222013 0.189716 0.183766 0.334526 0.248835 -0.168202 0.055638 -0.324932 -0.457934 -0.524574 -0.326028 -0.505346 -0.366427 -0.283444 -0.275023 0.680221 -0.449042 0.148431 -0.206242 0.590656 -0.590660 -0.450133
sent_166 -0.126930 -0.042388 -0.014882 -0.188804 0.511326 0.100691 0.257434 -0.001780 -0.331139 -0.185194 -0.340657 0.117368 -0.423689 0.302229 0.373171 0.036506 0.155535 0.353600 0.266302 -0.241359 0.086360 0.336954 0.016919 -0.223346 0.026729 -0.174860 0.015194 0.087297 0.343011 0.003285 0.103186 -0.003732 -0.036881 0.028322 0.074976 -0.375536 -0.086065 -0.000368 0.441336 -0.151796 -0.070948 -0.058103 0.053677 0.381472 0.064806 -0.214730 -0.092130 -0.112917 -0.483079 -0.050182
sent_167 -0.468447 -0.295858 -0.058702 -0.339063 0.691412 0.352176 0.080140 -0.364292 -0.545670 -0.007473 0.237651 0.408980 0.008027 -0.834431 0.471165 0.017111 0.124992 0.151202 0.061536 0.268426 -0.222945 0.322233 0.662723 0.891172 0.009676 0.440344 0.330106 -0.298263 0.244928 -0.313435 0.148324 0.170026 0.258417 -0.335561 0.202000 0.224281 0.068770 -0.136504 0.076069 0.384840 -0.040399 0.567214 0.279804 -0.058926 -0.270020 0.188868 0.184663 -0.191428 0.342382 -0.102800
sent_168 0.300320 -0.483481 -0.266521 -0.166664 0.759735 -0.137050 -0.179611 -0.250995 -0.274946 0.225069 0.137430 0.056255 -0.561551 -0.438252 0.262022 -0.260167 0.037167 0.279292 0.152141 0.250366 -0.146848 0.177498 0.147093 0.212017 0.253255 0.282579 0.027771 -0.168839 0.515049 -0.445786 0.291597 0.501174 -0.030762 0.075739 0.106121 -0.088228 -0.143403 -0.027705 -0.253258 0.090672 -0.456437 0.362833 -0.068091 0.548541 -0.431536 -0.320036 0.058965 -0.007930 -0.217183 0.185042
sent_169 0.300295 -0.090322 0.158140 -0.138744 0.454612 0.339510 0.205348 -0.340741 0.422401 -0.053632 -0.071724 0.269456 -0.379986 0.403842 -0.114349 0.197567 -0.472383 -0.424003 0.066371 -0.316690 -0.502730 0.866090 -0.143855 -0.034075 -0.120986 -0.103084 -0.253352 -0.209173 0.179759 -0.045581 0.447580 0.565269 -0.642267 0.033893 -0.345137 0.149243 0.053727 0.236122 -0.411722 0.241395 0.207148 -0.284770 -0.235260 -0.214811 0.194532 0.117126 0.151834 0.223674 0.212841 -0.566330
sent_170 -0.195327 0.103653 0.320743 -0.000121 -0.677055 0.329100 -0.125737 -0.210475 0.513776 -0.526971 0.233536 0.024373 0.201378 0.242455 -0.032261 0.261421 -0.492649 0.226363 0.283959 -0.121704 0.105784 0.358691 -0.382988 -0.227385 -0.278320 0.133698 -0.806278 0.111587 0.081470 0.361594 -0.302089 -0.255081 0.292820 0.255332 0.131130 -0.226714 0.238306 -0.543791 -0.332436 0.052983 0.470398 -0.157993 -0.106874 -0.065619 -0.524143 0.714343 -0.185044 0.471032 0.663006 0.212476
sent_171 0.264704 0.091717 0.180806 0.062486 0.104999 0.196827 -0.123333 -0.250464 0.429324 -0.116851 -0.187659 0.239754 -0.042992 0.549245 -0.314929 0.456669 -0.614855 -0.385066 -0.240382 -0.024152 -0.111382 0.306913 -0.558456 -0.400863 0.014039 0.117687 0.070390 -0.179174 0.339007 0.363910 0.377992 0.838670 -0.601706 0.055985 -0.336868 0.247646 0.286709 0.139992 -0.214820 -0.241818 0.165939 -0.382758 0.021607 -0.063773 -0.079728 0.020132 0.083830 0.170353 0.045460 -0.539103
sent_172 -0.228905 0.270285 -0.108354 0.122943 -0.343479 0.037925 0.067128 -0.191263 -0.400010 -0.023758 -0.106871 -0.409715 -0.202732 -0.237837 -0.033541 0.039635 0.133859 0.345681 0.777349 -0.523957 0.161745 -0.173808 0.803331 -0.202824 0.156220 0.247162 -0.765555 0.074317 0.027948 0.453474 -0.210691 -0.092743 0.071480 0.768959 -0.101237 -0.311419 -0.155592 -0.083677 -0.100089 0.075327 0.086054 0.266422 -0.252017 0.811086 0.296607 -0.211935 0.046157 0.380261 0.298661 0.152920
sent_173 0.089311 -0.667753 -0.633323 -0.291515 0.362008 -0.577514 0.459220 -0.313793 0.896519 -0.115237 -0.269526 -0.591834 -0.371620 -0.398275 -0.436739 -0.884176 -0.513855 -0.808014 -0.899061 1.133313 0.334691 0.123062 -0.454699 0.374278 -0.440556 -0.560417 0.624704 0.327961 0.380696 -0.019871 -0.153474 -0.614591 0.623180 0.438273 0.465462 0.124723 -0.097318 -0.343903 0.094788 0.155933 0.752874 -0.136448 1.072156 0.324167 -0.016023 -0.081482 -0.240781 -1.386826 -0.726466 0.799677
sent_174 -0.097114 -0.432796 -0.620348 0.527004 0.174539 -0.134291 0.746975 0.189539 -0.651414 0.512211 0.054645 -1.384380 -0.798310 -0.193418 -0.608699 -0.140694 0.049039 0.298526 -0.218603 -0.216359 0.648088 -0.316294 0.746767 0.366014 -0.035755 0.007538 0.040876 0.128652 0.129576 0.066321 -0.391713 0.701915 -0.140857 0.856119 0.210796 -0.005956 -0.443698 0.385523 -0.062358 0.406376 -0.242589 -0.028201 0.573287 0.328592 0.031159 -0.455188 -0.853549 -0.295474 -0.188181 -0.352246
sent_175 -0.599065 0.168846 -0.602990 -0.241564 -0.039129 -0.366201 -0.262581 0.010253 -0.631620 0.427065 -0.158252 -0.018639 0.698932 -0.071177 -0.392966 -0.359239 0.602939 0.557252 0.270058 -0.517430 -0.221227 -0.134264 1.314518 0.314914 0.066507 0.336825 -0.227087 0.150432 0.030343 0.385942 0.241999 0.451571 1.597537 -0.692637 0.352729 0.242991 0.016025 -0.140185 -1.211150 0.683701 0.661964 0.457911 -0.518833 0.240577 0.231378 -0.243708 0.507497 -0.022791 -0.159212 0.104955
sent_176 -0.150386 -0.455602 -0.204442 -0.331850 -0.097726 -0.500491 -0.312558 -0.042312 0.746947 -0.094313 0.019267 -0.262190 0.125628 0.321128 -0.127854 -0.421576 -0.103557 -0.099098 -0.501007 0.496402 0.287421 0.054730 -0.951265 0.140732 0.305037 -0.231042 0.241067 -0.086246 -0.043790 -0.184011 -0.337525 -0.581241 0.504799 -0.279795 0.414786 0.375070 0.407489 -1.080631 -0.203360 -0.373605 -0.283928 -0.034922 0.542771 0.279367 -0.639668 0.720464 0.039300 -0.447072 -0.448776 0.838952
sent_177 0.089342 -0.212132 -0.277383 -0.584971 -0.073313 -0.249896 -0.641214 -0.137530 -0.036730 0.155236 -0.021014 -0.218790 -0.101105 -0.203047 0.155069 0.080030 -0.542806 0.281031 -0.254747 0.235493 0.037128 -0.106023 -0.938658 0.534959 0.023816 0.153758 0.276247 -0.742281 -0.116810 0.106381 -0.053562 -0.114596 -0.413643 0.287710 0.153383 0.314103 0.281227 -0.351588 0.399242 -0.511744 -0.327060 0.390198 0.341552 0.235889 -0.637155 -0.083841 0.246332 -0.707279 0.418181 0.324373
sent_178 0.065684 -0.828129 -0.240243 -0.360683 0.149959 -0.254610 0.436494 -0.482347 0.650767 -0.056319 -0.485939 -0.976265 -0.148272 0.153480 -0.555958 -0.392809 -0.846091 -0.342039 -0.629938 0.004463 0.003076 0.519786 -0.606806 1.381950 -0.094937 -0.078289 0.018498 -0.469544 0.169792 0.198378 -0.280626 -0.078604 0.211569 0.204715 0.132072 0.053353 0.137159 -0.716722 -0.217131 -0.197843 0.334971 -0.230506 0.725877 0.325906 -0.051757 0.513727 0.035386 -0.975779 -0.665573 1.117096
sent_179 -0.148898 -0.183300 0.653366 0.303513 -0.357224 -0.199055 0.394693 0.489038 0.718873 -0.148351 0.124576 0.150445 0.341283 -0.369050 0.255183 -0.148475 -0.100516 -0.167758 -0.385568 0.463684 -0.110575 -0.414976 -0.180257 -0.290523 -0.271843 -0.027447 0.190323 0.168662 -0.132722 -0.266064 -0.657071 -0.545180 0.300266 0.177528 0.430212 0.275603 -0.417620 -0.473052 0.226636 0.145695 0.107658 -0.216726 0.609110 -0.609145 -0.473202 0.248965 -0.545942 -0.771260 0.099433 -0.137522
sent_180 0.241541 0.310487 0.268837 0.466560 0.008216 0.288282 0.651484 -0.061649 -0.293158 -0.246399 -0.306192 0.021387 -0.089115 -0.534242 0.550049 0.538359 -0.627007 -0.174020 -0.042507 0.062321 -0.112938 -0.043702 0.151546 -0.312252 0.321621 -0.044462 -0.086029 -0.152558 0.127098 0.336527 0.277876 0.408212 -0.699924 0.723505 -0.410020 -0.740319 -0.337076 0.087835 0.276543 -0.408239 -0.848831 0.102341 -0.268422 0.259480 0.097674 -0.256392 0.037639 0.027705 -0.036487 -0.846810
sent_181 0.204102 -0.788395 -0.526878 -0.152925 0.289903 -0.356982 0.181028 -0.180594 0.851924 -0.166380 -0.659634 -0.130167 -0.059705 -0.140028 -0.375979 -0.721013 -0.506971 -0.811279 -0.721686 0.993403 0.217621 -0.326772 -0.435381 0.364820 -0.492554 -0.131726 0.511946 0.493147 0.337700 0.273795 -0.162213 -0.297990 0.643453 0.691290 0.080568 0.207183 -0.028296 -0.349505 0.090297 0.088052 1.116809 -0.142152 0.721164 0.115569 -0.142000 0.119938 -0.230113 -0.914183 -0.518293 0.396936
sent_182 -0.192201 0.193244 -0.297085 -0.510809 0.032594 -0.307259 0.096458 -0.095052 0.296992 -0.559429 -0.034865 0.120526 -0.052710 0.069660 0.467757 -0.097889 -0.543649 -0.242160 0.077743 0.095155 -0.120418 0.079823 -0.198229 -0.222326 -0.399468 -0.341997 -0.012492 0.138346 -0.104328 0.462644 0.042992 -0.369307 -0.102611 0.019908 0.210292 0.091309 -0.525486 -0.055568 -0.333411 -0.294298 -0.337287 -0.037846 0.186137 -0.323244 -0.486496 -0.174074 -0.010068 -0.315457 -0.085757 0.184973
sent_183 -0.244240 0.144817 0.533228 -0.110925 -0.464858 -0.478201 0.054166 0.429232 0.019829 0.153050 0.802871 0.542068 0.530396 -0.115716 0.210468 0.280494 0.061984 -0.344672 -0.453633 0.205347 0.009621 0.031729 0.024101 -0.941736 -0.332158 -0.034954 0.307163 0.167785 -0.417171 -0.515047 -0.499426 -0.613010 -0.120671 0.162454 0.357888 0.321943 0.191799 -0.445416 0.353704 0.323305 0.229059 -0.614605 0.591987 -1.443434 -1.062219 0.260994 -0.450875 -0.478920 0.677590 -0.338216
sent_184 0.115637 -0.812054 -0.850213 0.003968 0.862811 -0.388893 -0.798091 -0.043108 -0.477526 -0.420007 0.195807 0.548901 -0.089229 -0.540030 0.645992 0.059350 0.457105 0.417951 -0.038652 0.454878 0.247949 -0.212715 0.027491 1.072814 0.168898 0.955061 0.457531 -0.180113 0.522957 -0.518213 -0.196775 0.508848 -0.021036 -0.246743 0.129225 -0.113058 0.185393 0.209693 0.783572 0.461066 -0.722750 0.967817 0.071313 0.204587 -0.508830 0.259413 -0.036679 0.180930 0.046805 0.255082
sent_185 -0.155886 -0.571250 -0.407554 -0.437142 0.010680 0.114679 0.033128 -0.010101 -0.571782 -0.265514 -0.096677 -0.016239 -0.382096 0.322195 0.407165 -0.077571 0.103447 -0.020415 0.066987 0.089328 -0.021496 -0.345837 -0.246367 0.193591 0.238081 -0.161142 -0.228518 0.022203 -0.097670 -0.306759 -0.136861 -0.489409 0.062905 -0.085413 -0.065578 0.116137 0.217722 -0.547543 -0.435252 -0.049282 -0.374108 0.276596 0.066943 -0.110971 -0.395890 0.332738 0.010465 0.332703 0.412296 -0.133544
sent_186 0.293154 -0.777211 -0.039251 -0.401300 0.087657 -0.205559 0.049111 -0.263904 0.739949 -0.035412 -0.644326 -0.611221 -0.004456 0.208318 -0.603815 -0.433526 -0.768380 -0.559346 -0.434411 0.475468 -0.162545 0.127300 -0.665336 0.795381 -0.137944 -0.061149 0.130682 -0.203324 0.039297 -0.104545 -0.263169 -0.222494 0.236984 0.574591 -0.061180 0.225877 0.350530 -0.594122 -0.242111 -0.475925 0.770313 -0.463468 0.659442 -0.103612 -0.228281 0.313886 -0.040894 -0.946407 -0.221727 0.875614
sent_187 0.070203 -0.141739 -0.000680 0.202510 -0.388981 0.545691 0.047597 -0.170430 0.078218 0.093458 -0.122366 0.197726 0.092071 -0.255772 -0.151667 0.028377 0.077798 -0.206517 -0.261095 -0.009853 0.171535 -0.634558 0.570950 0.052610 -0.087918 0.406478 -0.421849 0.511057 0.493821 -0.048284 0.223446 -0.155426 -0.340377 0.618833 -0.211823 -0.112567 -0.433484 0.252937 0.139565 0.269712 0.429190 -0.415401 0.103235 0.323688 0.576764 -0.192958 0.065405 0.003662 0.138085 -0.612412
sent_188 -0.023525 0.249656 -0.164173 0.135032 -0.404176 -0.004061 0.058719 -0.248006 -0.315732 0.062039 -0.059577 -0.409809 -0.029792 -0.117388 -0.193330 -0.020892 0.142197 0.277242 0.833462 -0.578130 0.151284 -0.224344 0.850500 -0.287678 0.064162 0.268246 -0.838241 0.191875 0.213243 0.580066 -0.210861 0.045806 0.097824 0.784129 -0.079813 -0.374911 -0.256896 0.056635 -0.148961 0.037264 0.166721 0.067576 -0.290451 0.755337 0.161863 -0.048499 -0.055487 0.502014 0.210519 0.434054
sent_189 -0.170544 -0.112165 0.029311 0.050126 0.594637 0.528669 0.132436 -0.229953 -0.229083 0.035791 -0.352571 0.905425 0.056040 0.152936 0.638755 0.290534 0.565877 0.376675 -0.157161 0.007417 -0.149483 -0.308689 0.345251 -0.077356 0.318218 0.402267 0.281563 -0.035952 0.416937 -0.122028 0.328192 0.625968 0.074533 -0.348341 -0.350931 -0.101667 -0.009297 0.264754 -0.172018 -0.034017 -0.216652 0.053742 -0.493415 0.288801 0.062695 -0.147100 0.202948 0.650017 -0.447884 -0.364702
sent_190 -0.670654 0.572375 0.151049 -0.234273 -0.765076 -0.450596 -0.072485 0.149129 -0.138167 0.314883 1.000360 0.413603 0.556404 -0.281930 -0.233280 0.311559 -0.111316 -0.070189 -0.651648 0.330839 0.245866 0.032702 0.014513 -0.494444 -0.189620 -0.014384 0.450184 -0.140739 -0.469294 -0.135315 -0.112932 -0.371525 -0.076685 -0.707343 0.326877 0.352822 0.432527 -0.278364 0.274693 0.137949 0.300630 -0.332098 0.752168 -1.027994 -0.526682 -0.328482 0.281391 -0.583979 0.207649 0.000350
sent_191 -0.098281 -0.295428 0.142870 0.111105 0.078384 0.018649 0.375506 0.069899 -0.359286 0.265501 0.044451 0.156847 0.104536 0.073659 -0.114093 0.296820 0.520965 0.019094 -0.082423 0.045495 -0.128664 -0.381980 -0.006335 -0.096989 -0.113533 0.167140 0.216585 -0.195788 -0.261333 -0.351483 -0.169980 -0.147218 0.178179 -0.057269 0.139345 0.074014 0.060584 0.149335 0.017271 0.248733 0.124978 -0.153146 0.015180 -0.430001 -0.176476 -0.115647 -0.441068 0.264178 0.545957 -0.236743
sent_192 -0.318237 -0.448464 0.395631 0.024852 0.048341 -0.071551 0.348827 -0.270070 -0.028307 -0.003408 0.070669 0.554251 0.083892 0.472696 -0.178330 0.500753 -0.037943 -0.543209 -0.306775 0.301866 0.235265 -0.029940 -0.355589 -0.068617 -0.796330 0.122651 -0.095840 -0.150732 0.103745 -0.033409 -0.331479 -0.258686 0.142596 -0.283059 0.365803 0.048076 0.040247 0.336467 -0.153993 -0.272253 -0.094559 -0.197081 0.618355 -0.919580 -0.199782 0.170693 -0.468047 -0.267895 0.008941 -0.030210
sent_193 -0.651425 -0.312995 0.622937 0.147853 -0.504462 -0.551888 -0.087284 0.514723 -0.916894 0.337900 0.300966 -0.024917 0.212411 0.301469 -0.056186 0.738090 0.453684 0.304441 0.148074 -0.710641 0.229411 -0.390158 0.123287 0.092090 -0.520484 0.295514 -0.593321 -0.231890 -0.840737 -0.971441 -1.187841 -0.529583 -0.420790 -0.241787 0.599975 0.033794 0.274686 -0.161471 -0.133379 0.546806 0.191764 -0.031457 0.598578 -1.358731 -0.624222 0.087050 -0.608836 0.086890 0.944372 -0.021880
sent_194 -0.206052 0.435793 -0.430687 -0.076518 -0.021561 -0.873638 -0.229987 -0.070231 -0.422495 0.042799 0.348550 -0.121753 -0.266527 -0.410023 0.183004 -0.116851 0.226834 0.290122 -0.158882 -0.392202 0.198350 0.093771 -0.001603 -0.073531 0.005103 -0.222066 -0.088630 -0.189089 -0.168538 0.301544 -0.242932 -0.239474 0.430776 -0.635125 0.372198 -0.089606 0.055907 -0.244538 0.056693 0.308909 -0.462964 1.110038 -0.080679 0.008944 -0.122843 0.048155 0.482346 -0.398143 -0.068651 0.142348
sent_195 0.211364 -0.549178 -0.228722 -0.276272 -0.498251 0.234978 -0.487080 0.121131 0.185277 -0.039162 -0.222911 0.100881 0.085355 0.301197 -0.109944 -0.218466 -0.222278 0.033111 -0.230735 0.110775 0.204149 -0.343658 -0.455831 0.229030 0.252304 0.222304 -0.253330 0.250021 0.372202 -0.075256 -0.231706 -0.220162 0.082848 0.584623 -0.020875 0.275170 0.518450 -0.551493 0.488023 -0.215861 0.113034 -0.459072 0.309947 0.544857 0.052908 0.392698 0.060230 0.038416 0.180934 0.187605
sent_196 0.266630 -0.160607 0.300328 0.037683 -0.276050 -0.219261 -0.306072 0.343879 -0.186621 0.123624 0.128009 0.238938 -0.043695 0.452643 0.095222 0.150463 0.537666 0.051569 -0.251312 -0.195149 0.112301 0.017116 -0.216249 -0.586504 -0.027020 -0.102277 -0.093844 -0.108446 -0.121508 -0.610860 -0.383755 -0.507770 -0.078691 0.345295 0.172544 -0.019299 0.284738 0.093825 0.211078 -0.067313 -0.158774 -0.407791 0.163748 -0.412379 0.010986 -0.297611 -0.427054 -0.644221 0.141274 -0.449304
sent_197 0.499838 0.050501 0.029973 -0.112905 -0.175024 -0.029106 0.095119 -0.214493 0.283191 -0.406118 0.010334 0.094347 -0.422140 0.659615 0.122618 0.409628 -0.322448 -0.239161 -0.431278 -0.688577 -0.401914 0.162163 -0.759026 -0.348578 -0.036479 -0.119771 -0.068956 -0.193350 0.061701 0.142546 -0.048416 0.480276 -0.838472 0.046345 -0.224942 0.409950 -0.341786 -0.083442 -0.162097 0.094600 -0.289466 -0.324766 0.078252 -0.442816 -0.462410 0.168682 -0.128867 0.226240 0.000417 -0.505421
sent_198 -0.112015 -0.071868 0.140075 -0.027585 -0.005215 0.084424 0.042585 0.168128 -0.390014 -0.009206 -0.070967 0.181856 -0.017868 0.057142 0.088129 0.052130 0.013702 0.146151 0.283721 0.034745 -0.080543 -0.108599 0.139347 -0.153232 -0.050241 0.147097 -0.160700 0.121522 -0.037874 -0.031683 -0.092364 0.009707 0.099733 -0.022126 0.015011 0.014900 0.058060 -0.122314 0.033832 0.018613 0.158512 -0.071670 0.035161 -0.417965 -0.220967 -0.018216 -0.123238 0.231026 0.238488 -0.119020
sent_199 -0.334555 -0.050173 -0.009286 -0.225799 0.142983 0.071694 -0.310332 0.316866 -0.213100 0.206452 0.216588 -0.460676 0.691796 -0.392497 -0.010677 0.012803 0.126533 -0.025930 0.234724 -0.331951 -0.290149 0.012992 0.687794 0.869967 -0.003306 0.119557 0.147058 -0.018885 -0.061595 -0.089505 -0.061211 -0.051284 0.819651 -0.489886 0.522083 -0.103324 -0.350356 -0.392574 -0.571249 0.340417 0.121274 0.532238 -0.145698 -0.124482 -0.114518 0.540531 -0.050027 -0.478567 -0.127752 -0.291317
sent_200 -0.519920 0.266989 0.166680 0.016498 -0.509941 -0.881266 0.075855 0.330853 0.002466 0.313742 0.784961 0.492712 0.030180 0.092848 -0.402737 0.355887 -0.007799 -0.210009 -0.402704 -0.008643 0.220831 0.005485 -0.248696 -0.751188 -0.349116 0.034006 -0.043100 0.011269 -0.682849 -0.180237 -0.141892 -0.286701 -0.362514 -0.639190 0.370718 0.307645 0.307205 -0.301966 0.119510 0.369370 0.185114 -0.212132 0.612614 -1.022270 -0.425034 -0.575186 0.158840 -0.250791 0.237432 -0.520606
sent_201 -0.360601 -0.274546 -0.216759 0.042245 -0.309202 -0.684234 -0.378502 0.246734 0.566740 -0.464111 0.217529 -0.345547 -0.057477 0.108340 -0.317738 -0.175582 -0.913153 -0.053143 -0.099438 0.338539 0.626897 0.045090 -0.526963 0.048235 -0.388223 0.126721 -0.467080 -0.229148 0.004158 0.789656 -0.923038 -0.373748 -0.058795 0.169292 0.580377 0.004155 0.007512 -0.831417 -0.144058 -0.224765 -0.145813 0.837764 0.675777 0.361431 -0.323537 0.350402 -0.196760 -0.378164 -0.338931 0.587196
sent_202 -0.017996 -0.570562 -0.195151 -0.212869 0.168949 -0.014729 0.273697 -0.068253 0.419170 -0.161827 -0.605936 -0.651516 0.012508 0.029331 -0.176436 -0.472238 -0.596265 -0.058216 -0.395840 0.119186 0.192193 -0.065969 -0.315974 0.664679 -0.103813 0.074771 -0.072084 0.083285 0.239287 0.117407 -0.158285 -0.135214 0.323118 0.378879 0.122832 -0.037471 0.015190 -0.530829 -0.025146 -0.061305 0.586861 -0.267417 0.455794 0.349512 0.097539 0.206578 0.006354 -0.583113 -0.381059 0.568799
sent_203 -0.344240 -0.423905 -0.226383 -0.072425 0.121512 0.084061 0.159942 0.032022 -0.290823 -0.050369 -0.238348 0.258900 -0.021343 0.006369 -0.024975 0.072102 -0.200241 -0.247501 -0.096693 0.297665 0.003816 0.131803 0.208089 0.618342 -0.038496 0.172119 0.188793 0.116647 0.041684 0.174403 0.072772 0.081364 0.381402 -0.076531 -0.040997 -0.113361 0.321916 -0.307244 -0.037101 0.178323 0.367309 -0.083652 0.203741 0.004520 0.007561 -0.006825 -0.001024 0.060355 -0.159396 -0.139696
sent_204 -0.352107 0.192637 -0.224268 0.260537 0.268149 -0.906459 -0.422503 -0.217780 -0.306478 0.200540 0.324904 0.120120 -0.105357 -0.213671 0.006294 0.136761 0.461036 0.151044 -0.240388 -0.113156 0.227754 -0.136438 0.153751 -0.428272 -0.101212 -0.029714 -0.294689 -0.245930 -0.021884 -0.010892 -0.431645 0.166724 0.225988 -0.377175 0.453356 0.033213 -0.045799 0.071241 -0.501695 0.408693 -0.395153 1.480931 0.089047 -0.185315 -0.110798 0.080010 0.271024 -0.402706 -0.014036 -0.263112
sent_205 0.269349 0.138088 0.007794 0.266569 0.435457 -0.279186 0.188334 0.046567 0.355367 0.513862 -0.001279 -0.540582 0.346730 -0.033413 -0.298491 0.191133 0.044232 -0.267833 -0.359349 -0.529788 -0.016533 0.133714 0.468815 -0.059696 -0.053509 0.116696 0.175139 -0.044671 -0.254140 0.413043 0.249470 1.008854 0.244349 -0.180265 -0.013352 0.420153 -0.079827 0.279542 -0.946035 0.539589 -0.037387 0.169986 -0.529886 -0.250064 -0.007555 0.416001 -0.232927 0.170273 0.040764 -0.315791
