sent_0 -0.076775 1.167830 0.221907 -0.314691 0.045444 0.061690 0.383989 0.179331 -0.167027 -0.504556 -0.290207 -0.467921 -0.280635 0.033980 0.063400 -0.234595 -0.220236 0.004388 0.171049 -0.168383 0.243472 0.967127 0.419746 0.188924 0.236147 -0.341424 -0.127593 -0.241197 -0.308855 -0.842491 0.382249 -0.056866 0.477413 -0.383598 0.378370 0.423526 -0.557920 0.660182 0.083572 0.424881 -0.483186 0.094385 0.196261 0.311129 -0.596974 0.436891 -0.303625 0.143475 0.133527 -0.302333
sent_1 -0.452691 0.308657 -0.199120 -0.474962 -0.302371 0.910759 -0.039467 0.580205 0.194436 -0.635790 -0.303074 0.877397 0.372071 -0.501613 0.017933 -0.365633 0.522600 -0.497010 -0.827193 0.079725 -0.318413 -0.085539 -0.693991 0.050485 0.198516 0.005652 -0.093975 -0.102918 0.144866 -0.208334 0.699913 0.152531 0.273219 -0.044245 0.436316 0.643692 -0.299199 0.137769 0.247557 0.191946 -0.273279 0.063806 -0.491953 0.245031 -0.388092 -0.644931 0.153868 0.031315 -0.324597 -0.015948
sent_2 0.082843 0.075573 0.135929 0.176788 -0.202087 -0.144071 0.175695 0.550973 0.541872 0.019799 -0.305179 0.496255 -0.321996 0.270149 0.526710 0.794496 0.402262 -0.047032 0.016779 -0.038697 0.170755 -0.166093 -0.748245 -0.016618 -0.284809 -0.281088 -0.425838 0.029631 -0.376561 -0.804953 -0.310408 -0.376734 -0.244213 -0.368452 0.417083 -0.070411 -0.129775 0.286643 -0.117187 -0.124716 -0.599944 0.320441 0.232062 0.122846 0.576211 -0.310756 -0.144159 0.139480 -0.899718 -0.127110
sent_3 0.037716 -0.067237 0.435097 0.232999 -0.310958 0.139938 -0.142317 0.310499 -0.122579 -0.459967 0.061798 0.977916 0.026116 -0.237974 -0.028717 -0.263193 -0.364051 -0.167183 -0.468779 0.248064 -0.308232 -0.131076 -0.425037 0.061283 -0.437473 0.161659 0.417548 0.166984 0.364555 -0.183511 0.579048 0.107912 -0.208718 0.107622 -0.038302 0.282771 -0.671131 -0.036053 0.309587 0.043391 0.161735 0.208012 -0.344663 0.042965 0.008027 -0.306591 0.103038 0.230811 0.085119 0.266467
sent_4 0.260187 0.179579 -0.039961 0.164682 -0.088970 0.537306 0.217520 -0.244166 0.139794 -0.035817 0.128485 0.491708 -0.226114 -0.076728 -0.008453 0.023651 0.033159 0.039728 -0.020402 0.592815 -0.069683 -0.270313 0.105494 0.052663 0.164122 0.537857 0.142665 0.147849 0.079108 -0.235461 0.983604 0.443393 0.079346 -0.190395 0.209389 -0.009428 -0.529928 -0.573136 -0.144467 0.463335 0.566395 -0.002174 -0.559121 0.276051 0.151607 0.026567 -0.008026 0.199998 0.280353 0.212168
sent_5 -0.284666 0.078969 -0.379547 0.308712 -0.050200 -0.812060 0.303586 0.932169 0.654890 0.248565 0.301323 -0.109166 -0.319163 -0.679432 0.483110 0.515678 0.098621 -1.430666 0.281430 -0.140020 -0.299182 -0.045849 -0.270773 -0.559010 0.174554 -0.392182 -0.338275 0.385821 0.033715 -0.426291 -0.298064 0.552556 0.125278 -0.625235 0.884702 -0.125568 -0.300056 0.330352 0.371953 0.647500 -0.168061 0.304670 -0.128905 -0.415814 0.642798 0.387778 -0.023040 0.417086 -0.421650 -1.015622
sent_6 0.568428 0.559726 0.408069 -0.200700 -0.119604 -0.351232 0.325308 -0.018378 -0.289482 -0.121171 0.214872 -1.316725 -0.256741 -0.529954 0.730865 -0.331117 -0.545032 0.330583 0.016272 0.189463 0.321310 -0.076907 0.066224 0.079977 -0.418190 -0.787178 -0.071433 -0.005122 -0.310912 -0.008692 0.579091 0.699210 0.071051 -0.044436 0.320648 -0.455140 -0.448922 0.277930 0.480787 -0.254188 0.028787 0.291172 0.251265 0.245827 0.186236 0.548007 -0.238682 -0.755140 0.137615 0.463072
sent_7 -0.134547 -0.029072 0.217754 0.102427 -0.593623 0.359813 0.504738 -0.279799 -0.112877 -0.440643 -0.622426 -0.038690 0.599273 -0.078238 -0.056317 -0.014819 1.039497 -0.294800 -0.472742 0.038754 -0.420249 0.511532 -0.574762 0.455192 -0.325817 -0.334252 0.467117 0.706410 0.227873 -0.411162 0.063962 0.238234 0.434033 0.406400 0.048432 0.504992 -0.659547 -0.566522 -0.002439 -0.175957 -0.139488 0.498510 -0.425644 0.506776 -0.871768 -0.405155 -0.484228 -0.317945 -0.409496 0.074174
sent_8 0.103783 -0.265877 -0.055726 0.054041 0.201934 0.277623 -0.299623 -0.260115 -0.025493 0.051210 0.051609 0.590237 0.205108 0.070756 -0.224818 0.021024 0.143868 0.146306 -0.180189 -0.011120 -0.281332 -0.327501 0.037132 0.266554 -0.171590 0.448487 0.086822 -0.415838 0.294815 0.110642 0.722171 0.225604 0.072299 -0.196544 -0.100090 0.121057 -0.099228 0.073150 -0.091627 0.049935 0.444605 -0.209455 -0.625264 -0.169909 0.118166 -0.059344 0.116086 -0.273445 0.270319 -0.011821
sent_9 -0.119698 0.020670 -0.220642 -0.211899 -0.248607 0.709820 -0.574747 -0.224118 -0.044702 0.343233 -0.054321 0.409640 -0.071165 -0.227156 -0.372024 0.313516 -0.211899 0.508751 -0.285528 -0.245877 -0.050752 0.191716 -0.158937 -0.229554 0.312019 0.210735 0.490028 0.061045 -0.223025 0.255072 0.124327 -0.132368 0.340283 0.073902 -0.096460 -0.014217 0.322556 0.244739 -0.402654 0.109980 0.159606 -0.197253 -0.174076 0.118975 0.049754 -0.210938 0.128565 0.237975 0.472347 0.011886
sent_10 0.068035 -0.063830 0.173546 -0.029915 0.023442 -0.117225 -0.105749 -0.228794 0.128751 0.273398 -0.230344 -0.769094 -0.207945 -0.394909 0.246989 -0.147294 -0.350001 0.911646 0.302102 -0.183753 -0.020950 -0.370706 0.210299 -0.372685 0.098897 -0.410815 -0.255161 0.155309 -0.132201 -0.323972 0.612867 0.862431 0.147929 0.169596 0.659326 -0.044341 0.211065 -0.773901 0.510247 -0.614312 0.052483 -0.119105 -0.161449 0.863852 0.674739 0.751056 0.341731 -0.004890 0.103138 0.433637
sent_11 -0.090748 0.135641 -0.126323 -0.050465 0.436100 0.259768 0.037021 -0.526515 0.130571 0.278198 0.218343 -0.393010 -0.373653 -0.457590 -0.275302 0.153943 -0.576202 0.469237 0.119555 -0.406461 -0.159408 -0.201702 0.412788 0.158595 0.004079 0.414620 -0.143748 -0.154670 -0.241175 0.754438 -0.407268 0.226935 -0.048073 0.431620 -0.038154 -0.047234 -0.214064 -0.019462 0.229511 -0.402363 0.016496 -0.483895 0.155878 0.901011 -0.329811 0.120472 -0.093250 0.153488 0.274327 0.354317
sent_12 -0.266816 -0.090147 -0.096363 0.337512 0.491576 -0.634799 0.563876 0.631328 0.456121 0.118833 -0.040493 0.285620 0.163643 -0.678838 0.124857 0.743948 0.043981 -1.279943 1.061890 -0.006882 0.036556 -0.182103 -0.000307 -0.949583 0.184286 -0.418407 0.097712 0.429236 -0.407675 -0.083385 -0.019965 0.103035 0.312459 -0.635881 0.727225 -0.180357 0.074091 0.236084 0.127077 0.329669 0.054534 0.128723 0.263673 -0.633790 0.472370 0.139286 0.082791 0.019982 0.199020 -0.740222
sent_13 0.117614 -0.961271 0.472704 -0.050342 -0.850325 0.030523 -0.259407 -0.460184 -0.071323 -0.314113 0.486649 0.429560 0.191941 0.226097 -0.319656 0.461547 0.167563 0.340623 -0.757468 -0.424803 0.601976 0.545009 -0.406050 0.625962 -0.283851 -0.239995 0.242851 0.492608 -0.016000 -0.105289 0.430529 0.126978 0.520186 -0.597531 -1.040433 -0.881199 0.368991 0.125669 -0.804142 0.333112 0.183441 0.718276 0.271115 0.154954 -0.562583 -0.059825 0.131675 -0.130294 -0.147187 -0.460557
sent_14 0.034034 -0.123047 -0.124405 0.087062 0.028504 -0.518471 0.468562 0.244778 0.291376 -0.314638 -0.188892 -0.575743 -0.118415 -0.301247 -0.212733 0.404640 0.206371 -0.490105 0.667169 -0.127505 0.502119 -0.235894 0.180427 -0.127692 -0.128492 -0.684039 -0.580753 0.418301 -0.134661 -0.416695 -0.296713 -0.041473 0.385765 -0.355654 0.621590 -0.010723 -0.237291 -0.237678 -0.110511 0.127910 -0.312316 0.400399 0.372379 0.296286 0.406917 0.528765 0.119152 0.324657 -0.634023 -0.305349
sent_15 0.505994 0.223237 0.430063 0.144254 0.376967 -0.113567 0.105538 0.188977 -0.335237 -0.212609 -0.264389 0.049366 0.259394 -0.338064 0.694683 -0.438134 -0.092980 -0.217766 -0.509673 0.122388 0.105710 -0.209325 -0.084104 0.038102 0.278942 0.011412 0.035881 0.100715 -0.022564 -0.417984 -0.233140 -0.788812 -0.086746 -0.091345 -0.452727 -0.061936 -0.469842 0.192679 -0.167218 0.166533 0.216049 -0.072767 0.383340 -0.560130 0.218795 -0.373764 0.285017 0.455433 0.582036 0.125737
sent_16 -0.579119 -0.066881 -0.219749 -0.024137 0.399319 -0.596982 0.481968 0.438314 0.570336 0.231373 0.327319 -0.090132 -0.237635 -0.168794 0.240024 0.148424 -0.116486 -0.339554 0.872822 0.330192 0.253342 0.009250 -0.272922 0.048775 0.129700 -0.179040 -0.291015 0.494908 -0.076124 -0.224904 -0.656543 -0.224095 -0.128223 -0.044336 0.561712 -0.365423 0.184556 0.243400 0.261512 0.320921 -0.232112 0.048440 0.192846 -0.307268 0.437270 0.045812 0.000388 0.907880 -0.202279 -0.640114
sent_17 0.035515 -0.463852 0.059071 0.049391 0.008004 -0.521425 0.142740 0.434730 0.402853 0.035762 0.056995 0.235759 0.352660 -0.086306 0.352542 0.582115 0.671197 -0.519282 0.006816 0.164038 -0.083158 0.184581 -0.585361 -0.320937 -0.300897 -0.827046 -0.337099 0.004022 -0.450563 -0.612645 0.117935 0.296692 0.568290 -0.603575 0.098144 -0.002475 0.205079 0.312261 -0.093471 -0.148643 -0.222482 0.188344 -0.286583 -0.468008 0.082783 0.045691 -0.131338 0.112393 -0.495060 -1.240641
sent_18 -0.338059 -0.023205 0.261849 -0.161877 -0.133018 0.040766 0.102899 0.169614 0.148363 0.080336 -0.003174 -0.345393 0.046508 -0.495176 0.401155 -0.390333 -0.310668 0.528808 0.272557 -0.295823 -0.096119 -0.665579 0.024768 -0.234659 -0.089343 -0.568433 -0.349293 0.322348 -0.044396 -0.075840 0.530893 0.541418 -0.098361 0.325027 0.592257 -0.182799 0.439449 -0.462641 0.837818 -0.451639 -0.353881 -0.176708 0.186690 0.720187 0.501646 0.507810 0.314063 -0.198613 -0.066044 0.530457
sent_19 -0.019167 -0.556357 0.188310 -0.030486 -0.134067 -0.003388 0.072705 0.516733 0.047466 0.329052 -0.669226 1.030490 0.527390 0.340014 0.441699 0.437715 0.699123 -0.345609 0.011994 0.391101 0.052608 0.015829 -0.752360 -0.351367 0.251542 -0.186985 -0.155241 0.096327 -0.276493 -0.669115 0.114922 -0.541297 0.279237 -0.127963 -0.086890 -0.191525 0.506043 -0.351342 -0.356449 -0.234111 -0.858591 0.664027 0.146143 -0.363554 0.536964 -0.192113 -0.296844 -0.266372 -0.541061 -0.272775
sent_20 -0.643152 -0.103456 0.460838 0.127442 0.302689 -0.102915 0.570014 -0.356060 0.107096 -0.140390 -0.090242 0.412406 0.212119 0.136794 0.167338 0.273363 0.049007 -0.331011 0.134063 -0.078435 -0.244192 0.290054 -0.132459 0.709899 0.194064 -0.001657 -0.607113 0.097271 0.438799 -0.577552 0.259398 -0.036267 0.122046 0.090956 0.255546 0.329899 0.111080 0.174070 -0.093470 0.004780 -0.382812 -0.526222 -0.348278 0.080672 -0.528908 0.196725 -0.222449 0.640698 0.102892 -0.853202
sent_21 -0.089176 -0.004411 0.216414 0.123493 0.440007 0.055270 0.110750 -0.150835 -0.133268 0.025668 -0.170679 0.006098 0.230924 -0.158036 -0.172155 -0.082273 -0.179317 0.152056 0.219936 -0.058675 -0.063719 0.018418 -0.191053 0.249140 -0.266663 0.020781 -0.058651 0.038108 0.190234 -0.054425 -0.089916 -0.306326 -0.056345 0.241308 -0.134490 0.186308 -0.184318 0.160791 0.075380 -0.165195 -0.067058 -0.252304 -0.031920 0.250025 -0.112494 -0.014006 -0.245528 -0.005187 0.059642 0.156233
sent_22 -0.113866 0.100115 -0.287080 0.219977 0.122275 -0.409588 0.448787 0.408707 0.441264 -0.051670 -0.169191 -0.216038 -0.224328 -0.143243 -0.029540 0.615098 0.151973 -0.747889 0.596838 0.042294 0.294156 -0.133841 0.221788 0.025721 -0.068360 -0.756100 -0.410694 -0.097907 -0.119522 -0.659387 -0.079220 -0.045481 0.358851 -0.537705 0.580831 -0.017688 -0.098329 0.183883 -0.148900 0.483315 -0.249900 0.023899 0.200458 0.046584 0.471274 0.456884 -0.114282 0.417983 -0.783679 -0.814461
sent_23 -0.062629 0.448271 0.037953 -0.115694 -0.071121 -0.231201 0.201029 0.269198 0.194299 -0.220338 0.054140 -0.346031 -0.033552 -0.227093 -0.027252 0.197060 -0.002950 -0.289320 0.157994 -0.196770 -0.074637 0.458758 -0.035705 0.039835 -0.162662 -0.352809 -0.675434 0.133521 -0.269171 -0.607184 0.041375 0.079387 0.256007 -0.213097 0.387201 0.342048 -0.522250 0.477259 0.115491 0.161929 -0.236008 -0.109476 0.224826 0.091176 -0.143093 0.366474 -0.467318 0.392176 -0.248767 -0.467615
sent_24 0.074181 -0.512859 0.226264 -0.193800 -0.173669 0.215894 -0.043432 -0.138176 0.065125 -0.146459 -0.399411 1.111623 0.449077 0.143456 0.007490 0.274993 0.378479 -0.154902 -0.285601 0.045279 0.247087 0.102959 -0.517159 0.080043 -0.209803 -0.291591 -0.102965 0.276820 -0.117248 -0.325277 0.218849 -0.512182 0.388765 -0.126011 -0.210102 -0.183439 -0.110949 0.088890 -0.065585 0.115843 -0.376737 0.216032 0.202788 0.519302 0.035952 -0.208729 -0.060104 -0.320808 -0.457162 -0.385688
sent_25 0.450113 0.309750 0.237631 -0.000903 0.494463 -0.081751 0.415221 -0.189471 0.011228 0.001562 -0.242742 0.290346 0.279375 -0.040623 0.290783 0.601403 -0.375200 0.147973 0.082680 0.224338 0.756893 -0.533547 0.497469 0.171598 -0.212841 -0.284457 0.090253 -0.102334 -0.399421 0.476639 0.025355 -0.755425 0.201969 -0.338714 -0.526945 -0.365388 -0.861567 0.415673 -0.560285 -0.095544 0.559129 -0.273127 0.798178 -0.794747 0.314336 -0.073741 0.090103 0.042637 0.225829 0.354104
sent_26 0.241598 0.004876 0.146948 -0.300328 -0.019611 0.495716 -0.067039 -0.317612 0.179530 0.121305 0.004586 0.636674 -0.198615 0.439236 0.234944 -0.174821 0.472981 0.178156 -0.552476 0.204115 0.002325 0.156123 -0.734675 0.208325 -0.010590 0.188289 -0.402640 0.442892 -0.413593 -0.415364 -0.239687 -0.871306 0.161259 -0.064714 -0.001304 -0.138860 0.037311 0.246482 -0.050716 0.179203 -0.272219 0.380005 0.245074 0.275150 -0.132193 -0.205567 -0.634583 -0.025376 0.014270 -0.578240
sent_27 0.659705 0.149095 -0.017223 -0.525138 0.230525 0.209238 -0.362673 -0.187237 -0.244048 -0.435604 0.357628 0.280249 0.717642 0.005198 0.212701 -0.600966 0.395350 -0.169321 -0.611398 0.366310 0.206712 -0.119747 0.414995 -0.376409 0.122458 0.266656 -0.178806 0.164207 -0.438105 0.048884 0.064271 -0.398290 0.366476 -0.259420 -0.771006 0.093220 -0.178934 -0.149362 -0.454118 0.239263 0.667485 0.135190 -0.217438 -0.455190 -0.366207 -0.254294 0.171979 0.155689 0.394067 -0.232665
sent_28 0.203782 -0.741412 0.734662 -0.001190 -0.654932 -0.056385 -0.176682 -0.398320 -0.164759 -0.137307 0.172113 0.490546 -0.003794 0.170655 0.104646 0.547174 0.040963 0.449646 -0.628353 -0.145757 0.100712 0.123303 -0.560582 0.491148 -0.181194 -0.227242 0.207741 0.510499 0.020569 -0.012702 0.555734 0.013788 0.218403 -0.335885 -0.656079 -0.656540 0.291411 -0.090393 -0.409681 -0.009074 0.002693 0.616680 0.007200 0.003576 -0.256637 0.116304 0.177591 -0.262128 0.077047 -0.107861
sent_29 0.106105 -0.526618 0.314285 -0.168017 -0.068141 0.035049 0.130514 -0.179111 -0.104182 -0.265395 0.146421 0.262809 0.141257 -0.174928 -0.260194 -0.003061 -0.235819 0.576238 -0.144214 0.009320 0.528751 -0.564134 0.242296 0.151573 -0.209619 0.143830 0.016880 -0.131872 -0.008860 0.533753 0.533466 0.118304 0.214515 0.280288 -0.252678 0.442487 -0.498333 -0.140463 -0.327571 -0.576820 0.111179 0.415227 0.246717 -0.270949 -0.307915 0.053025 -0.256521 -0.060667 0.352513 0.480474
sent_30 0.012658 -0.138716 0.408561 0.210000 -0.129791 0.006079 -0.157063 0.181791 0.057942 -0.087076 -0.051515 0.567538 0.117685 0.138602 0.161314 0.177434 -0.159664 -0.041549 -0.453823 0.011071 0.253941 0.507137 -0.313423 0.169331 0.394874 -0.092691 -0.142348 0.176707 0.163162 -0.647300 0.321006 -0.310700 0.253982 -0.205118 -0.077623 -0.244761 0.442548 0.312825 -0.749614 0.301045 -0.313089 0.070927 0.180262 -0.672439 -0.051992 -0.398570 0.245909 0.630143 0.045551 -0.678089
sent_31 -0.084773 0.067622 -0.083814 0.224818 0.315953 -0.708071 0.386811 0.963625 0.413306 -0.087490 0.365362 -0.294818 -0.409543 -0.483024 0.130554 0.550906 -0.079033 -1.420229 0.610565 0.289041 0.258800 -0.255770 -0.571102 -0.714113 -0.004373 -0.272463 -0.632029 0.238226 0.102386 -0.619207 -0.205540 0.323502 -0.167307 -0.608078 0.775780 -0.105708 -0.194577 0.286419 -0.015762 0.610091 -0.299742 0.432785 0.032618 -0.342762 0.731470 0.208248 -0.212594 0.428038 -0.544263 -0.617422
sent_32 0.467716 0.047148 0.034705 -0.404389 0.461942 -0.519578 -0.190373 -0.282189 -0.117253 -0.356880 -0.112167 -0.314068 0.151762 0.150447 0.022510 -0.345429 0.110233 -0.376641 0.051828 0.177826 -0.129530 0.785054 0.364231 0.062779 -0.184601 -0.530467 -0.519735 0.050931 -0.122938 -0.313647 0.134976 0.098015 0.375155 -0.544103 -0.208485 -0.125925 0.023364 -0.318112 0.252239 -0.093635 0.186487 -0.161760 -0.371134 -0.175082 -0.439572 0.653209 -0.193550 0.066070 0.190094 -0.469090
sent_33 -0.095304 0.293976 -0.092632 0.096994 0.124980 0.536830 0.273890 0.054552 0.476236 0.566995 0.658617 0.149371 -0.478824 -0.211419 0.033073 0.554754 -0.177195 0.245658 0.074400 0.173147 -0.074442 -0.759617 0.376178 0.416897 -0.092527 0.283118 -0.299590 0.025540 -0.112872 -0.019531 -0.122323 0.237715 -0.116983 -0.412586 -0.063258 -0.097705 -0.322672 0.048196 -0.177563 0.716466 0.259086 -0.566826 0.078783 -0.147837 -0.017984 -0.000253 -1.070599 0.552941 0.033021 0.242825
sent_34 -0.478302 -0.770608 -0.016597 0.253680 -0.160724 -0.584169 0.047130 0.157532 0.367014 -0.008786 -0.243465 0.957524 0.116413 0.620157 0.707160 -0.008933 0.211697 -0.090065 0.160951 0.510030 0.407626 -0.117139 -0.210723 0.446385 0.187867 -0.305900 -0.058986 -0.029255 0.427644 -0.431694 -0.101966 -0.232127 -0.190108 0.444653 0.199869 -0.204197 0.501350 -0.173182 0.168120 0.085447 -0.161490 0.358603 0.021033 -0.177048 0.380636 -0.054916 0.574447 0.568188 -0.492158 -0.894239
sent_35 0.218542 0.047716 0.602263 -0.169410 1.090925 -0.213441 0.509666 -0.186134 -0.044827 -0.473947 -0.167137 0.102811 0.613073 -0.393559 0.413989 -0.186503 -0.082959 0.237212 -0.123171 0.164756 -0.050465 -0.489391 0.145150 0.188337 0.043531 -0.064932 -0.282950 -0.232490 -0.108844 -0.081984 -0.099112 -0.408597 0.041115 -0.006473 -0.074211 0.078834 -0.241824 -0.018129 -0.137292 -0.593564 0.441816 -0.165679 0.120846 -0.656038 0.062920 -0.143042 0.316701 0.039287 0.248490 0.120865
sent_36 0.230704 -0.125034 0.411642 -0.240273 0.207436 0.220950 0.029466 -0.074171 -0.305565 -0.198724 0.001088 0.316413 0.437283 0.051915 -0.053388 -0.334317 0.380106 0.111060 -0.561282 0.189525 0.248604 -0.202502 0.128360 -0.240524 0.039380 -0.058171 -0.012932 0.462040 0.359038 -0.377616 -0.464161 -0.355340 -0.032578 -0.103872 -0.652962 0.326060 0.021305 -0.272455 -0.348479 0.195528 0.081953 0.109431 -0.082688 -0.557643 -0.227918 -0.359221 -0.146523 0.298667 0.180190 0.017785
sent_37 0.024291 -0.531131 -0.145500 0.231917 0.120285 -0.509085 -0.138699 0.106037 0.020512 0.092445 -0.111526 0.183123 -0.276768 0.084509 -0.151804 0.406951 -0.013541 -0.454024 0.444828 -0.037896 0.053060 0.050231 0.009990 0.117857 0.353081 -0.182828 -0.036168 0.021160 0.411037 0.221016 -0.063990 -0.170053 -0.019930 -0.508937 0.137988 -0.318472 0.345668 -0.124283 0.138113 0.495106 0.235547 -0.157067 -0.081232 -0.250899 0.414487 0.606477 0.398443 0.082097 0.086905 -0.250979
sent_38 0.279223 0.232421 0.017107 0.046029 -0.140797 0.255564 0.103149 -0.273990 -0.010772 0.001222 0.101343 0.138468 -0.146020 0.072123 0.182549 -0.147583 -0.061933 0.084508 -0.289006 0.220705 0.197168 0.021636 0.295250 0.374272 0.099883 0.195383 -0.205221 0.087039 0.476790 -0.297500 0.805936 0.403011 0.034496 -0.134848 0.265969 -0.055642 -0.229875 -0.159187 -0.186306 0.392779 0.414596 -0.297030 -0.531521 -0.062750 0.143748 0.097618 -0.253941 0.112479 0.212747 0.040460
sent_39 0.074478 0.255884 0.021416 0.018917 0.118066 0.767134 -0.451310 0.100651 -0.322454 0.313904 0.090325 0.984864 -0.125328 -0.125295 -0.502424 0.065879 -0.296411 0.171650 -0.997170 -0.398102 -0.805328 0.122803 -0.246593 0.210560 0.299695 0.744783 0.222943 -0.003100 0.184232 0.045676 0.164603 0.309584 0.101459 -0.542431 -0.280074 0.202008 -0.116077 0.082695 -0.069365 -0.229154 0.065898 -0.352504 -0.539707 -0.669616 -0.098863 -0.613175 -0.494589 0.258665 0.518808 0.161039
sent_40 -0.247299 -0.498737 0.539927 0.048707 -0.158967 0.426949 0.324474 -0.447648 -0.429050 -0.656843 -0.014394 0.486455 0.395815 -0.506745 -0.440430 0.271728 0.056673 -0.214921 -0.126737 -0.110231 -0.077992 0.632144 -0.113887 0.576144 0.062525 0.113162 0.106993 0.252043 0.419168 0.383752 0.074404 0.250639 0.238888 0.229390 -0.288063 0.087148 -0.130687 0.205910 0.432079 -0.232435 0.088736 0.216438 -0.457321 0.648672 -0.553140 -0.054761 -0.066766 -0.154919 0.509909 -0.018461
sent_41 -0.201675 0.063360 0.083395 0.064509 -0.111369 0.008064 -0.075666 0.420217 -0.259581 -0.182764 -0.258915 -0.083138 0.403190 0.352215 0.137747 -0.299409 0.102996 0.046458 -0.504417 -0.117514 0.206810 0.543281 0.084123 -0.116497 0.181304 -0.126326 0.207945 -0.370321 0.248516 -0.266641 -0.203548 0.124616 -0.024376 0.044961 -0.484429 -0.015622 0.514223 -0.150872 -0.398802 -0.419948 -0.375888 0.385697 -0.085050 -0.656535 -0.227789 -0.298011 0.365076 -0.000621 -0.338360 0.055015
sent_42 0.060459 -0.493654 0.145552 -0.030522 -0.276839 0.209005 -0.051871 -0.194236 -0.151839 0.032691 0.157144 0.551629 0.307786 0.116798 -0.098341 0.189277 0.142508 0.128829 -0.513659 -0.094335 0.297774 0.118670 -0.243436 0.198688 -0.198640 0.017568 0.101798 0.280511 -0.010623 0.121626 -0.070442 -0.148523 0.208997 -0.168567 -0.675747 -0.333685 -0.089983 0.142940 -0.355106 0.012874 -0.034157 0.176095 0.139264 0.219041 -0.211668 -0.152373 -0.147831 -0.221975 -0.306621 -0.124410
sent_43 -0.057749 -0.211713 0.681554 -0.254734 -0.498936 -0.554146 -0.166559 -0.361342 -0.063788 -0.749157 -0.124471 -1.055931 0.411487 0.038763 -0.316924 0.027691 0.252439 0.362391 0.013867 -0.165588 0.308992 0.427517 0.378194 0.499970 -0.461106 -1.331925 -0.247054 -0.066528 -0.248385 0.111544 -0.071098 0.455196 0.411679 0.703403 -0.175361 -0.125394 0.121024 -0.329944 0.211850 -0.510268 0.026587 0.367229 0.773194 0.160688 -0.650451 0.245903 0.172433 0.026628 -0.248975 -0.478584
sent_44 0.019172 0.023217 0.433315 0.342489 -0.239153 -0.297875 -0.120506 0.027797 -0.221303 -0.161507 -0.362346 -0.498422 0.234531 0.563844 0.110594 -0.316576 0.177887 -0.531447 -0.265489 0.427614 0.296257 0.470073 -0.087251 0.182427 -0.608582 -0.699730 -0.068088 0.324380 0.546447 -0.893481 -0.116630 0.136570 -0.064698 0.369314 -0.144112 0.158642 -0.161030 -0.503655 -0.277954 -0.016721 -0.274240 0.263670 -0.300339 -0.561976 -0.366439 -0.147488 -0.456673 0.257804 -0.466040 -0.198246
sent_45 0.197561 -0.168475 0.171783 -0.049548 0.027292 0.136072 -0.075103 -0.160605 -0.139838 -0.314751 0.346287 0.423815 0.238213 0.180526 -0.114248 -0.119863 0.167674 0.190036 -0.559301 0.016211 -0.461587 -0.438004 -0.115529 0.458593 -0.504887 0.444376 0.004570 -0.216842 0.444661 0.067286 0.290999 0.151275 -0.240546 -0.091624 -0.490886 0.314588 -0.658192 -0.102852 -0.071952 -0.090285 0.680351 -0.260431 -0.495762 0.298708 -0.044644 -0.314846 -0.075939 -0.023400 -0.155527 0.243449
sent_46 0.038029 -0.287248 -0.170006 0.387443 -0.092982 -0.035074 -0.532953 0.172096 0.189961 0.003761 -0.278595 0.693359 -0.030766 0.094560 -0.469536 -0.747375 -0.245203 0.030032 0.038969 0.165269 0.141657 -0.211331 -0.190472 0.093339 -0.337766 0.542207 0.434031 -0.127465 0.440386 -0.485108 0.743558 0.290684 -0.216860 0.409452 0.511392 0.294179 -0.351630 -0.346338 -0.055710 0.535387 0.179109 0.136821 -0.033065 0.089138 0.237618 -0.542488 0.260116 0.217505 -0.003285 0.202547
sent_47 -0.405091 0.472015 0.142711 -0.242991 -0.206306 0.748458 0.226287 0.347418 -0.089062 -0.208747 -0.023637 0.488263 0.112809 -0.489484 0.093142 -0.063074 0.360924 0.268525 -0.293212 0.059097 -0.300253 0.019141 0.049648 -0.118341 0.384014 0.240578 0.691428 0.026559 -0.154299 -0.316931 0.060434 0.121105 -0.000191 -0.172562 -0.254807 0.553510 0.004785 0.322124 0.065655 0.139000 0.060357 0.372112 -0.403853 -0.251631 -0.312413 -0.290269 -0.051067 0.230400 0.557427 0.300346
sent_48 0.280025 -0.098261 -0.098567 0.216172 0.399635 -0.282073 -0.260083 0.174531 -0.043355 -0.051308 -0.300160 0.062199 0.245563 -0.027605 -0.233804 -0.043482 -0.007986 -0.162075 0.294142 -0.023957 -0.270061 0.107367 0.204479 -0.052203 -0.039728 -0.189440 -0.092147 -0.245377 -0.289739 -0.121678 0.241861 0.105910 0.177843 -0.063813 0.107059 0.103426 -0.004943 -0.215454 -0.031323 -0.142071 0.183005 -0.354583 0.144976 -0.232145 0.016291 0.065158 0.052654 0.106037 -0.005507 -0.156063
sent_49 -0.509094 0.104477 0.305469 0.147364 -0.200391 0.167499 0.379654 0.078307 -0.067216 -0.337472 -0.520377 0.150920 -0.015474 0.435748 0.397176 -0.110017 0.145954 -0.144801 -0.231885 0.244329 0.383342 0.267334 -0.295822 0.555682 0.567730 -0.304402 -0.216705 -0.534683 0.145180 -0.880633 -0.301292 -0.521313 0.047795 0.371671 0.126953 0.585834 0.139332 0.188960 -0.301876 0.212060 -0.436686 0.261203 0.229638 -0.166893 -0.283790 0.037294 -0.113662 0.778870 -0.040194 -0.667652
sent_50 -0.198509 -0.522022 0.084803 0.141957 0.058596 -0.616932 0.223683 0.509739 0.157500 0.087330 -0.336861 0.369316 -0.077555 -0.006851 0.187614 0.254735 0.232909 -0.368650 0.429317 0.151572 0.021172 0.117853 -0.442978 0.278010 0.597061 -0.737675 -0.012734 0.335891 -0.325381 0.007550 -0.112424 -0.239495 0.227316 0.122045 0.635392 -0.366994 0.953331 -0.484066 0.313635 0.085327 -0.365665 0.334101 0.365081 -0.363939 -0.075874 0.114296 -0.125914 0.229992 -0.287387 -0.625353
sent_51 0.689967 -0.088944 0.300273 0.054117 0.404808 -0.044147 -0.307878 -0.455403 -0.258807 -0.433197 -0.053487 0.067448 0.432886 0.200764 0.313857 -0.732833 0.390446 -0.075568 -0.300261 0.231970 0.152855 0.450830 0.175775 0.443336 -0.250461 0.139846 -0.122061 -0.104954 0.130439 -0.573667 -0.333249 -0.996774 0.101972 -0.211853 -0.967124 0.057146 -0.166154 0.427669 -0.365145 0.262604 0.357662 0.256118 -0.180359 -0.255433 -0.295574 -0.056389 0.003609 -0.009364 0.495152 -0.409295
sent_52 -0.301309 -0.241516 -0.074962 0.118272 0.207995 -0.754790 0.345781 0.489544 0.378601 -0.053479 0.591994 0.001933 -0.279826 -0.152020 -0.142452 0.253592 0.093885 -0.548665 0.318645 -0.295957 -0.542401 -0.004705 -0.429720 0.049337 -0.019897 0.016572 -0.416800 0.481369 -0.116709 -0.119752 -0.518460 0.052702 -0.103593 -0.130246 0.405909 -0.045430 -0.224436 0.129148 0.328311 0.116512 -0.183184 -0.038080 0.159954 0.187453 0.020158 0.114328 0.000030 0.648885 -0.617365 -0.613655
sent_53 0.206360 -0.233715 -0.257115 -0.144741 0.110105 -0.648801 -0.010412 0.306675 0.335757 -0.325197 -0.168821 0.366788 0.197237 0.309527 0.256535 0.595749 0.545294 -0.492945 0.100858 -0.153840 -0.037143 -0.094863 -0.292767 0.056317 0.032246 -0.389928 -0.595568 0.124849 -0.337912 0.028323 0.000686 -0.420742 0.074938 -0.656272 0.279553 -0.338529 0.423011 0.084499 -0.091380 0.030157 0.029552 0.042605 -0.062779 -0.240859 0.259005 0.185960 0.335273 -0.179739 -0.667969 -0.458215
sent_54 -0.465427 0.464916 0.335699 0.004195 0.016228 0.506407 0.292576 -0.138013 -0.215685 0.367260 -0.084917 -0.457657 -0.065442 -0.050664 0.378526 0.201194 -0.299739 -0.006929 -0.025560 0.302701 0.554262 0.274806 -0.299223 -0.103910 0.708968 -0.055225 -0.683387 0.145635 0.069453 -0.931480 0.213029 -0.032749 0.276374 0.250982 0.255402 0.299274 0.011115 0.252188 -0.656828 0.265007 -0.491302 -0.398578 -0.010277 0.299748 0.063584 0.388476 -0.406852 0.795253 -0.022309 -0.403329
sent_55 -0.257763 -0.722775 -0.182916 0.487847 0.038821 -0.427956 0.428539 0.742508 0.346215 -0.454091 -0.136082 0.324582 0.053141 -0.538708 -0.280189 0.696437 0.650548 -1.161530 0.696010 -0.157397 0.012001 -0.057664 -0.475957 0.035487 0.056372 -0.713035 -0.477715 -0.027144 0.170776 -0.322432 -0.247725 0.166796 0.394442 -0.759204 0.938882 0.109516 0.120820 -0.083182 0.214097 0.130894 0.058810 0.472822 -0.350860 -0.256749 0.482196 0.609259 0.089281 0.202038 -0.581672 -0.685643
sent_56 -0.250124 -0.544580 0.405680 -0.010587 0.000324 0.265303 0.087672 -0.337974 -0.131942 -0.444780 0.094212 -0.166355 -0.288124 -0.377395 -0.249692 -0.136619 -0.237700 0.176843 -0.152830 -0.000089 -0.081750 -0.459192 -0.272472 0.407776 -0.187918 0.150626 -0.219924 -0.186327 0.710995 0.077165 0.243251 0.362099 -0.201042 0.070835 0.136652 0.241471 -0.309403 0.132131 0.555884 -0.191698 -0.126176 0.427045 -0.473112 0.219567 0.055647 0.564912 0.048793 -0.283060 0.487608 0.426860
sent_57 0.390701 0.202244 0.263579 0.286272 0.316015 -0.236739 0.305778 -0.197613 -0.128062 -0.132396 0.618092 0.675986 -0.203172 0.267368 -0.135775 0.213068 -0.057059 -0.025254 -0.142511 -0.090691 -0.780570 -0.368700 -0.190543 0.526607 -0.224996 0.401343 0.441021 0.087873 -0.139193 0.456104 0.408131 -0.293614 -0.167245 -0.271221 -0.083843 -0.101547 -0.354318 -0.026201 0.074053 0.018083 0.727951 -0.583602 -0.344613 0.052207 -0.383006 -0.277505 -0.203092 -0.201083 -0.107603 0.123852
sent_58 -0.134413 0.373441 0.275097 0.138396 0.249345 0.263982 0.097837 -0.245026 -0.055809 0.147364 0.016994 -0.048264 -0.061106 0.062161 -0.278909 0.079404 -0.162674 0.080516 -0.004406 0.095253 -0.002793 0.517573 0.062512 0.172950 0.137096 0.014158 -0.053056 0.377250 0.267358 -0.810802 -0.106024 -0.292607 0.271425 -0.152871 0.022223 0.137128 0.168999 -0.024461 -0.461996 0.497548 -0.135614 -0.397820 -0.436671 -0.397101 -0.263093 0.009468 -0.435116 0.771283 0.074458 -0.074118
sent_59 0.220673 0.164538 0.374116 0.076663 0.427971 -0.126260 0.561111 0.102938 -0.203359 -0.193216 -0.036645 0.109833 0.512316 -0.244482 0.467912 0.024298 0.075757 0.291274 -0.055348 -0.163051 0.041763 -0.410824 -0.106915 -0.108847 0.377162 0.140869 0.133051 0.010412 -0.121629 -0.132856 -0.316286 -0.799742 -0.038154 -0.168652 -0.225321 -0.130753 0.013738 0.343118 -0.520096 -0.325934 0.480962 -0.031159 0.455270 -0.748587 0.623494 -0.316622 0.350862 0.067552 0.464457 0.340785
sent_60 -0.206434 0.133107 0.347325 0.177626 -0.005163 0.148191 0.067465 0.040556 0.072547 0.427066 -0.228586 0.079351 -0.143720 -0.045775 0.114408 0.118508 -0.159651 0.938308 0.129576 0.040841 -0.210628 -0.127054 -0.067858 -0.030936 0.009688 0.100619 0.594127 0.065530 0.008036 -0.377784 -0.191764 0.356469 -0.293065 0.063131 -0.014529 0.049562 0.074293 -0.504570 0.323684 -0.185500 0.007178 0.284732 -0.018219 0.433524 0.196669 0.050718 -0.019033 0.014471 -0.062263 0.709422
sent_61 0.194272 -0.077998 0.600755 0.257176 0.016262 0.044466 0.252527 -0.082456 -0.033688 -0.294815 0.513591 0.781679 -0.517754 -0.116577 -0.202264 0.097869 0.032048 0.036001 -0.425511 -0.114228 -1.232051 -0.270465 -0.687491 0.826960 -0.129704 0.209687 0.324919 0.438564 -0.033379 0.182859 0.006376 -0.273925 -0.161937 -0.262709 -0.206581 -0.075540 -0.483344 -0.152397 0.583369 0.188994 0.275376 -0.264169 -0.252610 0.301520 -0.448939 -0.002984 -0.413831 -0.023988 -0.021097 0.029546
sent_62 -0.278103 0.039569 0.222682 -0.059565 0.131963 -0.261556 -0.117487 0.067337 -0.088193 -0.097724 -0.027723 -0.077044 0.031732 0.302331 -0.009450 -0.012447 0.002986 0.482350 -0.063493 -0.162217 -0.144355 0.047780 -0.263757 0.517893 -0.015800 -0.347887 -0.465235 -0.110078 -0.048180 0.008754 -0.260063 -0.323488 -0.124297 0.478570 0.192705 0.481353 0.390270 0.274641 0.238289 -0.527596 -0.218495 -0.251803 -0.191484 -0.101841 -0.368244 0.132375 -0.197558 0.332494 -0.231407 -0.134232
sent_63 -0.066419 -0.143031 0.374968 0.160467 -0.289583 -0.198857 0.084718 -0.135472 -0.030912 -0.342708 -0.101396 0.297304 0.448274 -0.223566 -0.217621 0.261960 0.057671 0.012291 0.100477 -0.193996 -0.076129 0.236259 -0.048229 -0.024984 -0.406157 -0.221623 0.370435 0.341690 0.168867 0.098349 0.398091 0.400103 0.006803 0.374724 0.042883 0.377352 -0.392885 0.115321 0.199807 -0.327874 0.332214 0.011826 -0.146295 0.161913 -0.144544 -0.187916 -0.077762 -0.033174 0.216689 -0.042629
sent_64 -0.107540 -0.137933 -0.201076 0.527308 -0.046093 -0.090486 0.198152 0.378839 -0.142667 0.261148 0.004538 0.077137 -0.194194 -0.376502 0.140363 0.156866 -0.235124 -0.914099 -0.073248 -0.177265 -0.238272 -0.197214 -0.131384 -0.060477 0.134527 0.204975 -0.188241 0.101345 0.308475 -0.333330 -0.074447 0.096351 -0.094409 -0.252559 0.279309 0.161262 -0.522926 0.208753 -0.080526 0.308353 -0.120799 -0.137817 -0.115860 0.281876 0.270117 0.245891 -0.233221 0.042476 -0.368800 -0.171306
sent_65 -0.362068 0.183711 0.383785 -0.137051 -0.323945 0.075021 0.224090 0.504479 -0.074285 -0.413904 -0.393626 -0.000525 0.293959 0.073077 0.441343 -0.017974 0.175020 -0.238708 -0.180777 0.396873 0.393586 0.531977 -0.013856 0.045808 0.426267 -0.651067 0.164964 -0.504631 -0.072632 -0.653795 0.051383 -0.381093 0.340527 -0.120998 -0.313338 0.212202 0.150468 0.384415 -0.125176 0.398614 -0.482656 0.562488 0.234840 -0.930490 -0.333081 0.353655 -0.136566 0.209799 0.048699 -0.153547
sent_66 0.136705 0.403791 0.293018 -0.560807 0.467366 0.864795 0.088448 0.092461 0.337315 -0.001835 -0.335322 0.328852 0.018911 0.226344 -0.073851 -0.190913 0.708718 0.227573 -0.678024 0.417179 0.125684 0.097477 -0.652746 0.187430 -0.084564 -0.246766 -0.619993 0.250273 -0.409018 -0.700861 -0.738735 -0.594103 0.285568 -0.137879 0.152143 -0.007447 0.213311 -0.007033 -0.062559 0.089921 -0.617205 0.689153 0.174147 -0.395017 -0.302989 -0.475500 -1.024738 -0.040791 -0.405541 -0.274833
sent_67 0.069768 -0.108690 0.111027 -0.163692 -0.544422 0.327565 -0.213283 -0.662927 0.126679 0.421896 -0.296283 -0.238844 -0.547565 -0.099926 0.536164 0.309487 -0.102864 0.828145 -0.366409 0.596093 -0.067958 -0.494439 -0.643351 -0.183982 0.015556 0.068307 0.191545 0.120646 -0.476533 -0.192195 0.464099 0.394422 -0.015794 0.561593 0.374481 0.119617 -0.127524 -0.523065 0.197218 -0.344461 0.019186 0.425680 -0.659684 1.310539 0.211723 0.366425 -0.343094 -0.230200 -0.028366 0.517665
sent_68 0.189415 -0.047594 -0.150614 0.499022 0.457752 -0.847445 0.185153 0.741552 0.348580 -0.005255 -0.284228 -0.182719 -0.026212 -0.517922 0.088078 0.399696 -0.186495 -1.426324 0.613980 -0.134901 -0.058258 0.115649 -0.297645 -0.416540 -0.066317 -0.325960 -0.419744 0.475493 0.234156 -0.410865 -0.241216 0.113726 -0.003775 -0.586001 0.617822 -0.285064 -0.369819 0.058110 -0.029578 0.232225 -0.349270 0.128122 0.174437 -0.509706 0.561576 -0.023520 0.034184 0.120089 -0.323354 -0.661410
sent_69 -0.074342 0.716359 0.216134 -0.141631 -0.476414 0.639137 -0.216942 0.463156 -0.214141 -0.516610 -0.302861 -0.310735 0.339488 0.315157 0.015313 -0.286162 -0.051322 0.207964 -0.724344 0.059583 0.763898 0.515092 -0.146874 0.283255 0.533184 -0.448413 -0.035376 -0.465679 0.640334 -0.599031 0.376930 -0.078520 0.284863 0.006171 0.083813 0.410377 0.153993 0.294819 -0.683951 0.550262 -0.006240 0.144840 0.059903 -0.732974 -0.033457 -0.088876 0.031470 0.296790 -0.125194 0.116322
sent_70 -0.052868 -0.067131 -0.104080 0.231487 0.642396 -0.124427 0.192401 0.255806 0.120834 0.084923 -0.388429 -0.162876 0.048911 -0.485091 0.317339 0.056927 -0.105572 -0.760728 0.398403 0.380959 0.018150 -0.252745 0.192430 -0.398603 0.190968 -0.223150 -0.483988 0.055466 0.109971 -0.295177 -0.115396 0.249461 0.180499 -0.285638 0.208729 0.213273 -0.322836 -0.399245 0.269549 0.183799 -0.168487 0.021471 -0.153572 -0.282516 0.170191 0.610798 -0.010802 0.257505 0.138820 -0.281148
sent_71 -0.383881 -0.780203 0.064530 0.413046 0.394413 -0.706132 0.199459 0.122561 0.620913 0.372895 0.265887 0.529775 -0.296290 0.616124 0.254753 0.177096 0.122018 -0.106316 0.280033 0.459863 0.100007 -0.403886 0.047851 0.660825 -0.071467 -0.211517 -0.425986 0.240290 0.465584 -0.780029 -0.226524 0.098311 -0.291803 0.028854 0.355751 -0.355961 0.518255 -0.549634 -0.094705 0.730062 -0.128043 -0.022251 0.055310 -0.331240 0.131997 0.127445 0.016681 1.095858 -0.787612 -1.024896
sent_72 0.011487 -0.206957 0.189439 -0.183317 -0.394136 0.343715 -0.150090 -0.668511 0.263466 0.374778 -0.132830 0.083257 -0.805723 -0.180910 0.352523 0.480577 -0.225951 0.675957 -0.302859 0.341132 -0.232287 -0.215249 -0.463047 0.055480 -0.074025 -0.013790 0.002551 0.114451 -0.355254 0.044881 0.057616 0.018990 -0.033609 0.335380 0.133353 -0.088831 0.003903 -0.131571 0.395245 -0.326272 -0.311496 0.220655 -0.563131 1.095195 0.135693 0.321726 -0.322195 -0.104487 0.113595 0.181815
sent_73 -0.388121 -0.544971 0.023486 0.136934 0.141242 0.184574 0.014795 -0.730960 -0.167587 0.238652 -0.055956 -0.707747 -0.030535 -0.148791 -0.443544 0.246033 0.079615 0.274690 1.055279 0.023269 -0.366030 0.178645 0.513262 -0.313791 -0.102912 0.312792 0.021648 -0.034366 -0.382371 0.247108 -0.315597 0.543355 0.124685 0.536106 -0.175319 0.192700 0.217641 -0.843518 0.261908 -0.687582 -0.348823 -0.099999 -0.376525 0.879722 -0.525915 0.685511 0.040703 0.049885 0.478949 0.548346
sent_74 0.165659 0.188678 0.120430 0.372427 0.315631 -0.051025 -0.081105 0.168898 -0.194736 -0.075373 -0.547650 0.222532 0.235881 0.211393 -0.342247 -0.185346 -0.220509 0.400246 0.432951 0.035055 0.134322 -0.057099 0.401578 0.979247 0.101364 0.061642 -0.092463 -0.140367 0.755443 -0.480396 0.530976 -0.396723 -0.003802 -0.245184 0.160555 0.328878 -0.074269 -0.167411 -0.152361 0.427142 0.467155 -0.605559 0.061279 -0.511263 0.497489 0.101724 -0.077248 0.421037 0.224626 0.587306
sent_75 -0.362593 -0.218901 0.316070 0.169415 0.200231 -0.051022 -0.102582 0.108329 0.003380 -0.061641 -0.289722 -0.236208 0.239441 0.310131 -0.686725 0.391599 0.193220 0.630287 0.124784 -0.204881 0.063688 0.295858 -0.305510 0.205080 0.031792 -0.417565 -0.038489 -0.397331 -0.332595 -0.133735 -0.277031 0.084040 0.263432 0.365737 0.199355 0.090989 0.610709 -0.327261 -0.337817 -0.709218 -0.177011 0.118400 -0.002431 -0.365443 -0.143272 -0.135166 0.094746 0.372137 -0.507644 0.213614
sent_76 -0.611844 -0.376426 -0.206160 0.196986 0.586406 -0.702798 0.237305 0.327333 0.351991 -0.267372 -0.071559 0.441905 0.151893 -0.008761 -0.049379 -0.183647 0.170946 -0.542393 0.876713 0.218055 0.194517 0.255760 0.247642 0.092259 0.180144 -0.463361 -0.080307 -0.232960 0.031335 -0.480587 -0.061709 0.084095 0.178100 -0.131837 0.743714 0.284540 0.414854 0.263932 0.457207 0.486962 0.161486 -0.347427 -0.089009 -0.442179 -0.170597 0.234991 0.266427 0.752229 0.053031 -0.982082
sent_77 -0.282985 0.000405 -0.337670 0.218979 0.236293 -0.566962 0.280584 1.269630 0.463698 -0.458016 0.277709 0.171726 -0.323567 -0.641569 -0.389635 0.207427 0.007535 -1.481029 0.703819 0.149345 -0.015274 0.105816 -0.304208 -0.428848 -0.006532 0.114535 -0.469100 -0.593050 0.145091 -0.422848 0.053798 0.356481 -0.259840 -0.585463 0.752959 0.136643 -0.547554 0.708649 0.405107 0.430767 -0.143676 0.573881 0.396514 -0.278382 0.744419 0.107505 0.026910 0.136269 -0.459888 -0.568516
sent_78 -0.435895 -0.053709 0.109088 0.181700 0.360352 -0.332552 0.282086 0.047317 0.105422 0.357448 -0.029198 -0.570019 -0.300845 -0.456511 -0.012632 0.172361 -0.493393 0.240296 0.052843 -0.540109 -0.248606 -0.233828 -0.264903 -0.084369 0.512788 -0.096758 0.216431 0.349543 -0.006738 -0.157314 -0.185156 0.326506 0.021978 0.235347 0.729687 -0.179918 0.196078 -0.350893 0.024611 -0.226063 0.154269 -0.256116 -0.037451 0.212352 0.192105 0.103782 0.275776 0.592761 -0.178296 0.181804
sent_79 0.093721 0.328690 0.178030 -0.158222 -0.063089 0.779001 0.269642 0.139642 0.222541 0.219152 0.749989 0.039019 -0.536363 -0.141215 0.042642 0.405228 -0.150436 0.449297 -0.217743 0.591634 0.017016 -0.725487 0.375604 0.349729 -0.126956 0.120575 -0.618463 -0.382805 -0.036689 -0.091742 0.167689 0.450194 -0.183017 -0.479201 -0.250332 0.068775 -0.276750 -0.064611 0.103060 0.549812 0.145844 -0.493304 -0.065980 -0.213132 -0.105146 0.304226 -1.164028 0.406623 -0.010552 0.631220
sent_80 -0.200296 -0.455671 -0.129398 0.340295 0.017851 -0.740812 0.440386 0.551278 -0.011410 -0.135674 0.017268 -0.106390 0.040431 -0.095234 0.077833 0.541176 0.212897 -0.696635 0.382866 -0.388873 0.016411 -0.063286 -0.501769 -0.105422 0.112680 -0.205460 -0.307062 0.088943 -0.043125 -0.375084 0.067898 0.080607 0.172742 -0.445642 0.563900 0.154071 -0.266546 0.162562 -0.251155 0.000143 -0.116268 0.103994 0.153403 0.152243 0.324421 0.322567 0.243602 0.325489 -0.622731 -0.484970
sent_81 0.174420 0.185710 0.030289 -0.159992 -0.429604 0.781753 0.165753 -0.442026 -0.172475 0.282546 0.292620 -0.598580 -0.558865 -0.730357 0.074939 0.352786 -0.600218 0.160693 -0.576962 -0.110310 0.342624 -0.493411 0.138245 -0.258193 -0.020366 -0.077496 -0.276709 0.392831 -0.251040 0.400662 -0.191007 0.258058 0.134974 0.238902 -0.059751 -0.035692 -0.566602 0.212430 -0.148996 -0.132211 -0.046546 0.090244 0.128294 0.879515 0.180391 0.288136 -0.445779 0.183491 0.400925 0.309541
sent_82 -0.282766 0.282118 0.096147 -0.418758 -0.587716 -0.031025 0.160905 -0.118302 0.475644 0.069164 0.427250 -0.986785 -0.595639 -0.390929 0.340870 0.133633 -0.696093 1.214747 -0.032877 -0.219223 0.251254 -0.741499 0.184143 -0.385542 0.435882 -0.354046 0.077368 0.198200 -0.298747 0.032640 0.689554 1.265462 -0.237219 0.266917 0.813831 -0.363937 0.569235 -0.950122 0.425579 -0.208615 0.241107 -0.078297 0.170457 1.223487 0.609711 0.412699 0.740749 0.372476 -0.332555 0.778817
sent_83 -0.076120 -0.001112 0.701974 0.000246 -0.146479 -0.322852 0.214450 0.146813 -0.550661 -0.051899 0.100967 -0.147716 0.340594 -0.341011 0.236347 0.258464 -0.399556 0.230333 -0.258353 -0.139081 -0.115053 0.044528 0.051760 -0.062375 -0.240796 -0.643854 0.156431 0.417343 0.137275 0.045956 0.286036 0.535420 0.020830 0.151659 -0.309592 -0.018897 -0.177327 0.139395 0.329356 -0.587698 -0.039580 0.040706 -0.142918 0.214775 0.046910 0.269308 -0.101894 -0.086659 -0.120183 0.174150
sent_84 0.007427 0.214201 0.669778 -0.308919 -0.758913 -0.009820 -0.485821 -0.048239 -0.152218 -0.398474 -0.267585 -0.715690 0.568602 0.185817 -0.424215 -0.099116 0.223674 1.013546 0.414992 -0.159660 0.269742 0.385827 -0.004482 -0.260512 -0.528100 -0.815900 0.085549 0.228837 -0.239868 0.025210 -0.046019 -0.038613 0.176121 0.514632 -0.317705 0.161881 0.433699 -0.398908 0.047115 -0.540160 -0.157182 0.223045 0.709357 0.307377 -0.088966 -0.099306 0.217848 -0.179724 -0.218565 0.351949
sent_85 0.106416 -0.286270 0.269861 0.297500 0.412968 -0.600561 -0.426994 0.044432 -0.175705 -0.168209 -0.423804 -0.034510 0.235306 0.219982 -0.390343 -0.136238 -0.297390 0.223519 0.075020 -0.119249 -0.194179 0.409566 0.303919 0.477645 0.033747 -0.310955 -0.048312 -0.490991 0.002197 0.002884 0.637990 0.097593 0.218736 0.526331 0.199718 -0.018559 0.352957 -0.315813 -0.216030 -0.569664 0.101169 -0.226414 -0.052987 -0.621207 0.001285 0.054054 0.434102 0.283646 -0.034702 -0.261976
sent_86 -0.003769 -0.179550 0.139623 0.022871 -0.545791 0.368636 -0.490985 -0.211676 -0.088935 0.245875 -0.496961 0.950423 0.360992 0.235568 -0.285567 0.833893 0.070119 0.320379 0.000655 0.175973 0.181151 0.775286 -0.034364 -0.086155 0.080866 -0.373231 0.938163 0.259888 -0.020168 0.082807 0.470137 -0.125144 0.526188 -0.085828 -0.305630 0.095546 0.595180 -0.120855 -0.507000 0.320041 0.023708 -0.061447 -0.320362 -0.469251 -0.428021 -0.244002 -0.134363 0.136813 0.244775 -0.122309
sent_87 -0.280038 -0.472704 -0.259486 0.205038 -0.128419 -0.180784 0.494270 0.002812 0.575676 0.009586 -0.009332 -0.061926 -0.243190 -0.152820 0.128542 0.382989 0.437546 -0.896631 0.497338 0.082450 0.105013 -0.132956 -0.239803 0.069875 0.073651 -0.087255 -0.790350 0.308968 -0.189254 -0.485109 -0.348123 -0.192329 0.180551 -0.243425 0.428759 0.111903 -0.221403 0.147130 -0.016957 0.504551 -0.504182 0.239675 0.362859 0.398611 -0.034830 0.434492 -0.355310 0.403154 -0.148064 -0.934720
sent_88 -0.139862 -0.525411 0.626343 0.361625 -0.265148 -0.087909 0.084142 -0.168421 -0.843686 -0.110878 -0.347653 -0.045097 0.527730 0.076335 -0.240972 0.029366 -0.179103 0.028109 0.330326 0.306272 0.404585 0.244203 -0.097045 -0.202462 -0.337275 -0.788583 0.748872 0.689465 0.387652 -0.091200 -0.018480 -0.070146 0.287028 0.572990 -0.196660 0.249650 -0.187328 -0.387822 0.082989 -0.020048 -0.047254 0.120320 0.022942 0.223274 -0.311946 0.147783 -0.140912 0.123345 0.004157 0.281739
sent_89 -0.010268 0.758153 0.320006 -0.198526 -0.040736 0.398191 -0.208349 0.217654 0.053906 -0.297132 0.051197 -0.117642 -0.129131 0.211627 -0.008830 -0.515641 0.330263 0.468171 -0.105275 -0.227037 -0.133775 0.576707 -0.250769 0.658804 0.269856 -0.247116 -0.539995 -0.493951 -0.120640 -1.088030 0.143382 -0.580632 0.065630 -0.398149 0.122168 0.360500 0.433179 0.463394 0.214342 0.694120 -0.018023 -0.608345 0.227918 -0.021087 -0.207767 0.314076 -0.532173 0.180594 -0.053753 0.113296
sent_90 -0.471969 -0.158707 0.247923 0.732405 -0.581644 0.239210 0.094209 0.146988 -0.529722 0.354070 -0.172916 -0.100627 -0.032302 0.336889 -0.110860 -0.177163 -0.034016 0.338939 0.140591 -0.056106 -0.024292 0.431994 -0.197074 1.368368 0.151891 0.081148 -0.289722 0.317568 1.410077 -0.962593 0.086569 -0.369267 -0.055597 0.331017 0.073979 0.864829 -0.183454 -0.020136 -0.245369 0.414759 -0.240466 -0.711761 -0.600375 0.066788 0.110237 0.269595 -0.769571 1.323730 -0.069053 -0.043462
sent_91 -0.105575 -0.462709 0.560979 0.264391 0.772272 -0.395980 0.300729 -0.068969 -0.182612 -0.544146 -0.000047 -0.404898 0.933672 -0.479762 -0.287618 -0.537491 0.124041 0.066889 0.389420 -0.307148 -0.012381 -0.312266 -0.130492 0.261731 -0.662986 -0.470433 -0.013478 0.025269 0.026051 -0.333406 0.107447 0.518705 0.073610 0.188996 0.088143 0.104377 -0.191854 -0.227017 0.068424 -0.559430 0.537940 -0.427244 0.271590 -0.271453 -0.475423 -0.235579 0.365696 0.020024 0.243798 0.321726
sent_92 -0.750685 0.454447 0.194460 0.001344 -0.053605 0.131028 0.276214 0.044026 0.230348 0.382164 -0.107695 -0.384227 -0.207545 0.186407 0.725648 -0.111485 -0.244236 0.405613 0.075520 0.380698 0.476774 -0.192217 -0.275261 0.152709 0.360343 -0.160285 -0.503063 0.042488 0.465440 -1.143285 -0.109047 0.020014 -0.345527 0.377019 0.492856 0.428036 0.043709 0.324715 -0.046791 0.378806 -0.137813 -0.144139 -0.042696 0.374122 0.481965 0.261660 -0.112110 0.928127 -0.350425 -0.598293
sent_93 -0.031698 0.260207 -0.155497 -0.447505 0.005996 0.190752 -0.376718 -0.312656 0.512255 -0.128100 -0.286524 -0.768115 -0.136881 -0.171189 -0.284846 -0.431082 0.138936 0.794717 0.488404 0.000596 -0.038060 0.028519 0.361773 -0.673718 -0.191688 -0.445047 0.187981 0.545944 -0.397757 -0.146732 0.254930 0.858127 0.234929 0.154794 0.689506 -0.163830 0.621797 -1.356410 0.889249 -0.163706 -0.122484 0.337279 -0.384234 1.127440 -0.064194 0.329968 0.492999 -0.270250 -0.145647 0.720050
sent_94 -0.149504 -0.003305 0.478915 0.250317 -0.549035 0.109793 -0.216502 0.433737 -0.137856 -0.477684 -0.406068 0.730832 0.237339 -0.210205 -0.602039 0.608738 -0.047740 0.118900 -0.081608 -0.292262 -0.051184 0.531991 -0.081549 0.318846 -0.203155 -0.500136 0.360177 -0.100353 0.493910 -0.282735 0.080727 0.231344 -0.097421 -0.122303 -0.035453 0.568936 0.142867 0.117629 0.286403 -0.035726 0.034390 0.221754 -0.375666 -0.112139 -0.098979 -0.139213 0.003192 0.376020 0.025767 0.312053
sent_95 0.270495 -0.094491 0.180849 0.397869 -0.197719 -0.401602 -0.406340 0.226559 -0.064357 0.167684 -0.127373 -0.021373 -0.041845 -0.124385 -0.257832 0.086037 -0.198662 0.233368 0.065301 -0.361902 -0.463348 0.524184 -0.192116 0.601243 -0.109778 -0.426884 0.045315 0.187942 0.281073 -0.126920 0.308203 0.093207 0.147980 0.040581 0.264977 0.019898 0.167601 -0.007684 0.316870 0.123464 0.051634 -0.436454 -0.183725 -0.002485 0.124723 0.246669 -0.191807 0.342533 -0.113807 -0.203316
sent_96 0.056926 -0.309731 0.557982 0.267265 0.304899 0.328959 -0.284182 0.007284 0.006275 -0.101013 0.030838 0.229987 0.069974 -0.037604 -0.332338 -0.006573 0.195345 0.424864 -0.221360 -0.148099 -0.619003 -0.359969 -0.490172 0.509348 0.086700 -0.050268 -0.047588 -0.423269 -0.079079 -0.256756 0.101718 -0.297366 -0.011789 -0.246387 -0.355481 0.043588 0.220329 -0.325934 -0.030415 0.087975 0.424353 -0.489583 0.048755 -0.333672 -0.039222 0.021275 -0.034321 0.156250 0.122764 0.292220
sent_97 0.037131 -0.457218 -0.219003 0.050282 -0.039646 -0.453285 -0.218339 -0.076118 -0.165985 0.251287 -0.415720 -0.589386 0.110304 0.282180 0.138961 -0.492667 0.073482 -0.012433 -0.203922 0.057446 0.039266 0.049421 -0.254298 0.058023 -0.134125 -0.331466 0.142942 0.369965 0.193894 -0.492628 0.432313 0.463444 0.185571 0.326293 0.364020 0.024300 0.031951 -0.913890 -0.310748 -0.338660 -0.011745 0.045135 -0.599957 0.122426 -0.033819 0.167801 0.120525 0.255084 -0.393534 0.085865
sent_98 -0.514441 -0.657106 -0.095570 0.513368 0.464090 -0.567198 0.626483 0.555918 0.528883 -0.313144 0.153893 0.345058 -0.067914 -0.492676 -0.143499 0.602124 0.188693 -0.964068 0.495075 -0.240100 0.094173 -0.218277 -0.285199 -0.150159 -0.125702 -0.568289 -0.315611 0.013112 0.010003 -0.573403 -0.267438 0.321853 0.243973 -0.680044 0.728418 -0.037798 0.190859 0.179315 0.192600 0.384946 -0.092858 0.029539 -0.064288 -0.244446 0.022228 0.216357 0.080704 0.234718 -0.769485 -0.742728
sent_99 0.385638 -0.189276 0.134958 0.081054 0.215520 -0.279649 -0.020567 -0.116024 -0.537725 -0.007254 -0.000333 -0.155215 0.324618 0.293671 0.169735 -0.133633 0.088501 0.227559 -0.155949 0.117002 0.156751 0.083264 0.130897 0.140668 0.288458 -0.014496 0.134018 -0.240109 0.001738 0.086168 -0.261050 -0.553541 -0.000744 -0.045950 -0.548737 -0.045904 0.291964 0.021407 -0.463174 -0.169398 0.387719 -0.215363 0.055742 -0.618611 0.071953 -0.044013 0.221592 0.205596 0.218357 0.147893
sent_100 0.244027 -0.056568 -0.376180 0.015040 -0.333730 0.631924 -0.149920 0.039242 -0.587014 0.367277 0.567008 0.644966 -0.128763 0.153147 -0.297681 -0.311616 -0.031030 -0.292709 -0.812873 0.042442 -0.163900 -0.330600 0.081457 -0.188920 0.123788 0.699483 0.280101 -0.326376 -0.213498 0.524263 0.207252 -0.089623 0.105681 -0.018504 -0.542118 -0.105873 -0.402183 0.127462 -0.616041 -0.135673 0.429184 0.027727 0.157724 -0.160801 0.174285 -0.682874 -0.246244 -0.084885 0.124431 -0.047481
sent_101 0.057950 0.323111 0.192935 0.057949 -0.167041 0.225870 0.070091 0.155100 0.151822 -0.665648 0.382216 0.873561 -0.261962 -0.254588 -0.123202 0.005722 -0.338204 -0.289364 -0.561295 0.088955 -0.030647 -0.045991 -0.320526 -0.014700 -0.390098 0.181240 0.142865 0.296557 0.143791 -0.046772 0.013678 0.002947 -0.166556 -0.169070 0.212239 0.234173 -0.711778 0.482281 0.296056 0.236978 0.210781 0.092667 -0.243392 0.113519 -0.172898 -0.542828 0.030559 0.470060 0.051544 -0.067714
sent_102 0.371475 0.164619 0.261732 -0.336160 0.041443 -0.440152 -0.053749 -0.107425 0.044900 -0.700324 -0.182768 -0.472486 0.197803 0.069644 0.156344 -0.322661 0.370216 0.212085 -0.017730 0.208954 -0.213318 0.549999 0.407153 0.233375 -0.361269 -0.575804 -0.473224 -0.238406 -0.229069 -0.379084 -0.121391 0.215698 0.147877 -0.162343 -0.184623 0.328117 -0.184325 -0.225646 0.369889 -0.528107 0.134846 0.083678 -0.067735 -0.263859 -0.561834 0.373589 -0.111924 0.244819 0.168274 -0.271825
sent_103 -0.408336 -0.491894 0.287080 0.543164 0.225630 -0.441201 0.234407 0.230325 0.167700 -0.139858 0.695071 0.661764 0.070201 -0.214964 0.045645 0.618915 -0.113923 -0.593339 0.178378 -0.033858 -0.197868 -0.023870 -0.493931 -0.095109 0.191068 0.178352 -0.017812 0.031501 0.191020 -0.074363 -0.504120 0.030974 -0.186840 -0.292431 -0.158686 -0.212648 -0.097836 0.493195 0.075317 0.350346 0.306347 0.000349 0.200298 0.033299 0.154840 -0.034137 0.308278 0.333034 -0.294363 -0.752654
sent_104 0.219910 -0.543524 0.520077 -0.055820 -0.541985 -0.123157 -0.380128 -0.441034 -0.150896 -0.307134 0.142917 0.517991 -0.028863 0.248399 -0.181877 0.381930 -0.118572 0.259222 -0.609141 0.029771 0.283769 0.506663 -0.425206 0.540792 -0.030623 -0.262461 0.316803 0.316317 0.045177 0.188692 0.393951 -0.080917 0.227417 0.095784 -0.476318 -0.430594 0.376967 0.072231 -0.259525 0.227988 0.107439 0.497136 0.010661 -0.042314 -0.541975 -0.120914 0.092870 -0.102863 0.086793 -0.341300
sent_105 -0.020055 -0.277552 0.279543 -0.027780 0.445816 0.228537 -0.143650 -0.032641 0.116825 -0.058687 0.153194 0.214700 0.158364 0.050077 -0.019043 -0.347471 0.191725 -0.157723 -0.214123 0.371243 -0.078352 -0.048993 -0.170841 0.253616 -0.196980 0.116971 -0.179714 -0.215625 0.071847 -0.228505 -0.048231 -0.120132 -0.098169 -0.060764 -0.325198 -0.295617 0.402118 0.041957 -0.221684 0.198094 -0.002976 -0.024325 -0.244870 -0.571140 -0.161794 -0.487357 0.004495 -0.054478 0.057004 -0.355657
sent_106 0.009459 -0.356367 0.405760 -0.543669 0.431236 -0.311374 0.133921 -0.472748 -0.692381 -0.456846 -0.166568 -0.283210 0.598841 0.052141 0.350513 -0.406160 -0.014968 0.532892 -0.308174 0.070098 0.806174 0.217359 0.486429 0.508307 0.052881 -1.028845 -0.544789 -0.321300 0.003514 -0.023034 -0.408982 -0.298480 0.496184 0.044574 -0.772530 0.154054 -0.090831 -0.163135 0.246858 -0.474627 0.069460 -0.216692 0.429913 0.550540 -0.605723 1.033720 -0.236741 -0.086067 -0.512706 -0.024761
sent_107 0.114662 -0.270106 0.329378 0.056526 0.216712 -0.505337 -0.143462 -0.170050 -0.204117 -0.105848 -0.513627 -0.337334 0.206665 0.546636 0.330869 -0.222056 0.383470 -0.275548 -0.301146 0.435400 0.109149 0.113560 -0.304993 0.511557 0.026335 -0.558310 -0.514205 -0.517266 0.107173 -0.331734 -0.038243 -0.094065 -0.013900 0.312672 -0.105613 0.144563 0.343675 -0.479766 -0.013195 -0.395097 -0.190678 0.337906 -0.297778 -0.538838 -0.451754 0.283256 -0.427906 -0.278406 -0.381009 -0.470982
sent_108 -0.268358 -0.275177 -0.260375 -0.551330 -0.016755 0.235512 -0.253631 -0.188809 0.119688 -0.106111 -0.026196 -0.050742 0.159586 -0.082435 -0.336056 -0.139852 0.123599 0.042075 -0.075956 0.187172 0.158703 -0.245343 0.233979 -0.832097 -0.061348 0.031426 0.353768 0.008445 -0.439000 0.584535 0.179883 0.288112 0.345577 0.641284 0.286487 0.222586 0.177561 -0.725316 0.249230 -0.506203 -0.166519 0.801659 -0.627588 0.371468 -0.561680 -0.240352 0.429473 -0.137803 0.095465 0.305188
sent_109 -0.043349 -0.283894 0.384811 -0.134049 -0.188911 -0.060933 0.050776 -0.178454 0.138213 -0.162486 -0.355378 0.258353 0.272619 0.153275 -0.203931 0.313012 0.340107 0.366757 0.053661 0.134384 0.171806 0.201265 -0.268469 0.332225 -0.035512 -0.650519 -0.131058 0.272757 -0.313776 -0.116321 0.059764 -0.319235 0.393124 0.406462 0.086045 0.014732 0.384912 -0.391108 -0.137724 -0.425865 -0.250359 0.259331 0.121487 -0.063466 -0.112856 0.070444 -0.176340 0.328906 -0.249996 -0.218492
sent_110 -0.278720 0.069840 0.389448 -0.092710 0.088196 -0.045425 0.084356 0.091294 0.241878 0.089033 -0.077243 -0.217685 0.152123 -0.484174 0.445963 -0.349099 -0.312968 0.482217 0.334717 -0.331853 -0.181556 -0.574967 0.026642 -0.213041 -0.191439 -0.581333 -0.156000 0.417373 -0.025142 -0.109095 0.600655 0.510295 -0.123733 0.288378 0.496086 -0.347986 0.511179 -0.540228 0.782059 -0.409940 -0.221605 -0.330748 0.181807 0.556691 0.358539 0.228163 0.346063 -0.254849 0.013577 0.500101
sent_111 -0.246155 -0.132152 0.464517 0.229800 -0.004727 0.082575 -0.129751 0.239448 0.046446 -0.010913 0.102001 0.496152 0.326375 0.026743 0.182825 -0.100196 -0.072907 0.348029 0.121838 0.044048 -0.402091 -0.229470 -0.277460 0.104816 -0.003687 0.182790 -0.160002 0.190930 0.260787 -0.348191 0.340255 -0.205278 -0.228036 0.233676 -0.105199 0.165396 0.205144 0.007575 0.185235 -0.188576 -0.075747 -0.054943 -0.102471 -0.121028 0.299812 -0.116972 0.215071 0.579637 0.302617 -0.060061
sent_112 -0.169353 -0.299061 0.208992 -0.033359 0.509972 -0.263035 -0.052878 -0.140461 -0.292633 -0.139523 -0.070297 0.323118 0.004885 0.088970 -0.182344 -0.109258 -0.298753 0.038718 -0.092778 0.038962 0.135489 0.248971 -0.263002 0.333020 0.342267 0.030146 -0.053761 -0.142894 -0.033218 0.156213 -0.044741 -0.503174 0.039573 0.301791 0.057975 0.138692 0.218786 0.163306 0.137259 -0.170346 0.122746 -0.518098 -0.242199 -0.302988 -0.461021 0.034110 -0.030029 0.442581 0.141696 0.061434
sent_113 0.026300 -0.421812 0.436787 0.424551 -0.287272 0.291199 -0.152723 0.306303 -0.321607 -0.015782 -0.094756 0.202381 0.293731 -0.329600 -0.236411 -0.340160 0.357047 0.339062 -0.424383 -0.405794 -0.533961 -0.220452 -0.170512 0.457463 0.336692 0.014603 0.616021 -0.000488 0.639760 -0.327936 -0.073633 -0.074056 0.123883 -0.352386 -0.311812 0.162747 -0.143158 -0.371216 0.226085 0.447237 0.369337 0.101070 -0.192109 -0.549910 0.197811 0.036001 0.029918 0.009955 0.303026 0.464798
sent_114 0.105679 0.127945 0.052290 -0.188830 0.105073 0.094842 0.095219 -0.046799 0.074440 -0.027415 -0.168629 0.330696 0.250891 -0.096510 0.423749 0.194424 0.071601 0.328868 0.067735 0.238426 0.076446 -0.186102 -0.064223 0.092954 -0.018994 -0.146188 0.100711 0.012173 -0.134431 0.199645 -0.073803 -0.485751 0.051653 -0.010609 -0.221704 0.069718 -0.020117 0.100403 -0.059116 -0.179211 0.237675 -0.406544 0.013862 -0.390658 0.128846 -0.061440 -0.042944 0.237210 0.300325 0.212435
sent_115 0.044018 -0.117380 -0.019703 -0.032033 0.150173 0.254413 -0.152507 -0.132088 -0.119937 -0.009660 0.003121 0.182505 -0.050790 0.198746 -0.501963 -0.186727 -0.041450 0.093349 -0.330957 0.041926 0.005058 0.034769 -0.024099 0.135752 0.013187 0.154960 0.095029 -0.056267 0.190097 0.026735 0.007452 0.162627 0.037958 -0.102443 -0.014814 0.120562 0.179849 -0.206722 -0.084585 0.102712 0.037720 -0.113264 -0.310220 -0.387833 -0.249436 -0.148149 -0.223257 -0.012911 -0.027455 0.132106
sent_116 0.298618 -0.892828 0.293103 0.303596 -0.335151 -0.427497 0.044942 -0.511028 -0.009188 0.202753 -0.187712 0.048411 0.254725 0.536612 0.506520 0.562770 0.540607 0.248164 -0.814378 -0.065080 0.258943 0.119783 -0.587893 0.152100 0.004117 -0.231483 0.119955 -0.148264 -0.251436 -0.343765 0.141501 0.052099 0.222063 -0.312730 -0.698444 -0.545598 0.407181 -0.172584 -0.956342 -0.198822 -0.026938 0.723932 -0.067936 -0.152915 -0.158863 0.138757 0.446610 -0.496918 -0.544657 -0.710153
sent_117 0.038137 -0.131205 0.488232 -0.111378 0.096545 -0.474380 0.055261 -0.303627 -0.168944 -0.781120 -0.050802 -0.647919 0.302779 0.152600 -0.215694 -0.436274 0.283369 0.072224 0.232239 0.147925 0.053855 0.703155 0.356218 0.411892 -0.482849 -0.700307 -0.581193 -0.304311 -0.047142 -0.478395 -0.213587 0.265199 0.176947 0.221099 -0.268176 0.396502 -0.170588 -0.214686 0.343005 -0.475832 0.107444 -0.029490 0.236959 0.076967 -0.783781 0.523463 -0.220701 0.273157 0.072333 -0.371693
sent_118 -0.544119 -0.444164 0.104974 0.094463 0.234283 0.416370 0.021727 -0.697450 -0.219357 0.450836 0.290586 -0.373631 -0.807359 -0.223717 -0.389222 0.165592 -0.890421 0.318279 -0.247737 -0.081145 -0.010156 -0.581722 -0.484205 -0.090077 0.113683 0.468399 -0.148781 0.218673 0.063268 0.839132 -0.234137 0.142529 -0.287554 1.222374 0.265293 0.053373 -0.022860 0.239877 0.311194 -0.483766 -0.471922 -0.108606 -0.308195 1.301421 -0.146753 0.188314 -0.356507 -0.232438 -0.063298 0.055591
sent_119 0.197554 0.267858 0.226513 0.234901 0.111484 0.269387 0.292997 -0.024688 0.055321 0.014700 -0.217511 0.451309 0.018797 -0.488651 0.217902 0.076894 -0.115656 0.219419 -0.059329 0.016470 -0.242846 -0.170095 0.127917 -0.015123 0.143966 0.371863 0.280951 0.472031 0.332098 -0.403872 0.593474 0.442542 0.017568 -0.616021 0.002275 0.019460 -0.450822 -0.263661 0.024793 0.259794 0.226817 -0.025427 -0.478346 0.068025 0.257794 0.061865 0.134761 -0.133443 0.411978 0.573240
sent_120 -0.074422 -0.461322 0.031198 -0.074778 0.101156 -0.165819 -0.140193 0.208221 -0.099151 -0.016349 -0.428597 0.153353 0.685523 0.501653 0.082562 -0.055692 0.585798 -0.131052 -0.101148 0.207246 0.209569 0.197523 -0.238689 -0.086565 0.035515 -0.311807 -0.142821 -0.211610 -0.269826 -0.602004 0.433793 0.374845 0.282940 0.083339 0.153027 -0.002508 0.631530 -0.342264 -0.444868 -0.187137 -0.550343 0.514221 -0.118501 -0.518826 -0.322656 -0.198204 0.043109 -0.362438 -0.482079 -0.417861
sent_121 -0.074715 -0.012077 -0.159958 0.058540 0.032339 -0.046575 -0.110969 -0.046053 0.005254 0.111786 -0.260005 -0.149316 -0.066604 0.106267 -0.213819 -0.077591 -0.112725 -0.058973 0.037022 -0.118925 0.050991 0.200953 0.006606 0.120897 -0.023699 0.028330 0.068980 0.079491 0.277076 -0.055472 0.049780 -0.019402 0.058214 0.054245 0.153349 -0.013604 0.010902 -0.124445 -0.179016 -0.037705 -0.152549 0.032827 -0.132518 -0.154472 0.018990 -0.070344 0.025607 0.139231 0.042416 0.068073
sent_122 0.018362 -0.323744 -0.245781 -0.012718 0.552573 0.202765 -0.057435 0.015379 -0.250983 -0.007591 0.010605 0.046561 0.263702 0.255867 -0.459230 -0.711546 -0.083593 -0.503276 -0.020764 0.341394 0.140196 -0.380121 0.368537 -0.418631 -0.046929 0.049038 -0.283976 -0.027405 -0.105170 -0.314192 0.059636 0.170598 0.246990 -0.039130 -0.033567 0.354005 0.007534 -0.774961 -0.389049 0.099306 0.079885 -0.477540 0.122026 -0.369472 -0.408272 -0.182089 -0.267130 0.638251 -0.035900 -0.137563
sent_123 -0.003368 -0.139692 0.174460 0.297835 0.011868 -0.084211 0.001362 -0.230187 -0.118814 0.491281 0.168981 -0.076275 -0.401868 -0.027921 -0.018280 0.083863 -0.320545 0.257113 0.134902 -0.079851 -0.470543 -0.302324 -0.190250 0.218718 0.134531 0.234225 0.030686 0.054817 0.042569 0.034407 0.221353 -0.088226 -0.146443 0.298492 0.139999 0.021533 -0.016078 -0.246152 0.165633 -0.105861 0.088099 -0.246388 -0.210746 0.624555 0.206723 0.485976 -0.226966 -0.021214 0.021450 0.194694
sent_124 -0.087325 -0.129345 -0.060787 0.206894 0.251992 -0.129247 0.145071 -0.026937 -0.151872 -0.208883 -0.005340 -0.111269 0.110896 0.271650 -0.243777 -0.339471 0.114219 -0.077182 0.035200 0.189544 0.248136 -0.092392 0.043946 0.384552 -0.012039 0.151522 -0.320383 -0.417367 0.295968 -0.418609 -0.036990 -0.103346 -0.216805 0.012121 -0.020465 0.400120 -0.297987 -0.035903 -0.238950 0.166457 0.319822 -0.378742 -0.018056 -0.022400 -0.106176 0.102416 -0.094429 0.459406 -0.201824 0.018563
sent_125 -0.153844 0.019372 0.057614 0.280982 0.156866 0.293523 -0.027241 0.250163 -0.168869 0.023853 0.045550 0.154724 0.108901 -0.139622 -0.282051 -0.470787 -0.098087 -0.178111 -0.382486 -0.550506 -0.353823 -0.293631 0.009116 0.265375 0.032261 0.246225 0.008375 0.079019 0.629213 0.024199 -0.110756 -0.290142 -0.066911 -0.055045 -0.066979 0.116775 -0.197532 0.221309 -0.079926 0.183936 0.022636 -0.075872 0.120614 -0.291365 0.102579 -0.294863 -0.037847 0.124393 0.177796 -0.103123
sent_126 0.239077 0.120194 0.317097 -0.288463 -0.114786 0.347408 -0.298444 0.022055 -0.203207 -0.383097 0.138509 -0.004496 0.543862 -0.015630 -0.470433 0.012978 0.216795 0.012807 -0.387670 0.024193 0.051989 0.055828 -0.252375 -0.116573 -0.206114 -0.353937 -0.177025 0.128633 -0.105201 -0.193633 0.400936 -0.266643 0.362183 0.091463 -0.043391 0.348090 0.020271 0.105415 -0.426102 0.178426 0.343177 -0.047559 -0.008553 -0.143259 -0.222999 -0.406237 -0.357046 0.196374 -0.062044 -0.125141
sent_127 -0.311388 -0.183113 0.123954 -0.312500 -0.849214 0.530218 0.264305 0.142645 -0.732949 -0.388864 -0.046567 0.909428 0.609306 0.204275 0.247846 -0.277382 0.533108 -0.685965 -1.048458 0.149281 0.089115 0.049739 -0.263024 -0.056911 0.424386 0.042743 -0.139837 0.086854 0.414943 -0.219785 0.892548 -0.541718 0.521692 -0.023229 -0.183996 0.641175 -0.595261 0.182959 -0.246478 0.519446 -0.000277 -0.041827 -0.387539 0.405064 -0.272202 -0.211994 0.174148 0.149339 -0.371632 -0.454974
sent_128 -0.023752 -0.006616 0.357807 -0.020742 0.142864 -0.125350 0.456641 -0.316403 -0.138173 -0.251484 -0.216414 -0.590111 0.067965 -0.033773 0.450300 -0.080605 0.357629 0.286294 -0.312596 -0.210274 -0.424370 -0.639482 -0.250896 0.353806 -0.459748 -0.318586 0.108194 -0.090531 -0.062463 -0.006190 -0.237157 0.246170 -0.397759 0.164174 -0.250649 0.049615 -0.314420 -0.539896 0.088876 -0.628877 0.175834 -0.031289 -0.116527 0.406248 -0.463881 0.000902 0.169792 -0.497636 -0.286724 0.531651
sent_129 0.078837 0.586470 0.581329 0.304183 0.272803 0.495103 0.208857 -0.101760 0.361728 -0.337431 0.561468 0.265479 -0.260288 0.202751 -0.544335 0.124347 0.383083 -0.202091 -0.051447 0.237658 -0.625991 0.196822 -0.291479 1.041131 -0.085924 0.417994 -0.475080 -0.047754 0.086495 -1.119565 -0.189486 0.024646 0.015762 -0.490606 -0.035076 0.411694 -0.354258 -0.340836 -0.331540 0.765310 0.245217 -0.283866 -0.169162 -0.137867 -0.659176 -0.258315 -1.248460 0.975243 -0.024975 -0.262487
sent_130 -0.017710 0.097814 -0.136480 -0.041878 0.140365 0.664868 -0.498953 -0.038048 -0.107161 0.297163 0.094169 0.231417 0.105794 -0.312374 -0.243938 0.194064 -0.331037 0.279600 -0.104148 -0.083040 -0.036102 0.176024 -0.078036 -0.423008 0.212563 0.197570 0.023954 -0.216929 -0.231888 0.132516 0.075337 -0.104326 0.236118 -0.106643 -0.220394 0.110290 0.274108 0.318185 -0.436224 -0.104145 0.169457 -0.387352 -0.226645 -0.031490 0.088226 -0.020441 0.030645 0.458560 0.470809 -0.046703
sent_131 -0.340029 0.007668 0.297717 0.265846 -0.713345 0.112842 0.178263 -0.155664 0.490434 -0.261652 0.128500 1.100459 -0.379195 0.244163 0.273071 0.350040 0.228076 -0.290925 -0.559971 0.120111 -0.182190 -0.123955 -0.279984 0.760367 -0.113754 -0.304138 -0.090229 0.099625 0.139361 -0.496528 0.381938 0.202848 0.121906 0.194389 0.377994 0.611764 -0.414619 -0.065218 0.103113 0.472257 0.033846 -0.389110 -0.044875 -0.036140 -0.426283 -0.183381 -0.301942 0.932045 -0.202163 -1.002947
sent_132 0.218277 0.290155 0.396943 -0.230703 0.273363 0.028724 -0.238268 -0.038352 -0.004612 -0.215014 -0.323509 0.209543 0.225609 0.176179 0.060953 -0.217117 0.066870 0.531995 0.004204 0.015313 -0.201656 0.205025 -0.156433 0.049049 0.067137 -0.068933 0.018961 0.205879 -0.088427 -0.240871 -0.237992 -0.856614 -0.064848 0.089428 -0.222833 0.035698 0.212660 0.128420 0.029522 -0.010117 0.020053 -0.092392 0.328501 -0.575669 0.199472 -0.347617 0.121002 0.270122 0.596979 -0.003270
sent_133 0.056342 -0.343673 0.197023 -0.391337 0.107231 -0.107471 -0.063788 -0.385323 -0.466072 -0.269277 0.109338 -0.665496 0.306622 -0.000733 0.307001 -0.740149 0.084179 -0.343102 -0.502614 0.316230 0.126358 -0.236956 0.087503 0.223179 -0.066835 -0.278044 -0.331816 0.017913 -0.052942 0.194155 0.080294 -0.108732 0.091939 0.572248 -0.336033 -0.059595 -0.058026 -0.038389 0.223920 -0.198831 -0.053097 0.479888 -0.124212 -0.158939 -0.463386 0.333289 -0.295129 -0.614875 0.193691 -0.231470
sent_134 0.068198 -0.141564 0.202607 0.146207 0.284522 -0.712477 0.288869 -0.204062 -0.181704 -0.112621 0.011041 -0.391095 0.124000 0.431667 0.100099 0.267995 0.382988 0.212946 0.013373 -0.184827 -0.004627 0.093808 -0.522931 0.245946 0.361171 -0.196263 0.069119 -0.656538 -0.259907 -0.300616 0.207075 -0.219278 0.119396 -0.051901 -0.003920 0.026784 0.260668 0.059231 -0.649124 -0.273064 0.493665 -0.095454 -0.058111 -0.218909 0.087602 0.324309 0.123636 -0.306538 -0.406580 -0.214146
sent_135 -0.066017 -0.493966 0.171364 0.194215 -0.218957 -0.384509 -0.093686 0.064530 -0.443132 0.115002 -0.191872 0.096933 0.259028 0.297587 0.086603 0.072265 -0.133071 -0.204252 -0.457656 -0.076233 0.133871 0.257530 -0.414055 0.246862 0.131237 -0.409556 0.391987 0.088145 0.445778 0.183744 0.398046 -0.067371 0.203049 0.128117 -0.114506 -0.374492 0.427290 -0.091132 -0.308857 0.002440 -0.020330 -0.084672 -0.257895 -0.334839 0.019006 -0.134708 0.407498 -0.306219 -0.456762 -0.176428
sent_136 0.172631 0.136267 0.516181 -0.263068 -0.048038 0.017531 -0.089200 -0.175703 -0.131087 -0.785163 -0.463792 0.068426 0.641178 0.422045 -0.484702 -0.081822 0.594776 0.045192 0.082311 0.267710 -0.013889 0.617166 -0.163426 0.195279 -0.262179 -0.198705 0.115699 0.289704 -0.098494 -0.458436 0.058387 -0.458289 0.119845 0.102548 -0.225596 0.356271 -0.091191 -0.080231 -0.113781 0.025532 -0.006691 0.550675 0.156177 -0.258464 -0.589148 -0.436351 -0.317921 0.006345 0.132188 -0.002389
sent_137 -0.066476 -0.206589 0.676302 0.342356 0.410456 -0.199991 0.742032 -0.595665 -0.270326 -0.455969 0.203854 -0.216249 0.329567 0.056462 -0.114475 0.269050 0.139483 0.749506 -0.053198 -0.150075 0.013226 -0.110191 0.108019 0.324499 -0.186771 -0.075111 0.656458 0.046644 -0.143463 -0.214053 -0.471727 0.502421 -0.405705 0.033115 -0.340839 -0.231134 0.292400 -0.234139 -0.081234 -0.473473 0.622714 0.094451 0.154275 0.184833 -0.575096 -0.331257 0.481050 -0.338196 -0.203080 0.576632
sent_138 -0.211319 -0.256552 0.034787 0.143957 -0.558415 0.287359 -0.165052 0.072510 -0.179044 -0.110454 0.001784 0.303189 -0.011881 -0.276338 -0.291717 -0.214058 -0.346103 0.567989 -0.610755 -0.026732 0.086273 -0.200510 -0.004422 -0.158622 0.259204 0.343257 0.201828 0.273068 0.142392 0.036482 0.060220 0.402567 0.035275 0.534987 0.198261 0.463850 -0.410456 -0.234824 -0.126248 -0.379211 -0.017184 0.628320 -0.140877 0.264748 0.201554 -0.015771 0.309041 0.538121 -0.028881 0.209896
sent_139 0.352753 0.372489 0.092416 -0.095880 -0.755236 0.090744 0.178846 -0.108104 0.051784 0.111936 -0.418962 -1.034513 -0.427256 -0.469612 0.569758 -0.150934 -0.206964 0.327294 -0.217315 0.027283 0.138369 -0.166740 0.124927 -0.209508 0.055528 -0.628742 0.056611 0.908750 -0.069835 -0.392993 0.203688 0.610688 0.138773 -0.005274 0.321528 -0.107052 -0.575755 -0.822273 0.368941 0.041063 -0.135891 0.305334 0.207744 0.924237 0.336305 0.467747 -0.231271 0.165721 -0.030693 0.475199
sent_140 -0.482336 -0.362472 -0.032790 -0.150321 0.053848 0.565951 0.365945 -0.658623 -0.024904 0.645031 0.582182 -0.787124 -0.657926 -0.873413 -0.028705 0.087656 -0.662194 0.600644 -0.255056 -0.177179 -0.218102 -0.392814 -0.030488 0.105229 0.200856 0.103037 -0.433359 0.356277 -0.053867 0.802378 -0.386364 0.956611 0.102736 0.902141 0.310924 -0.081890 -0.146405 -0.332014 0.713343 -0.549854 -0.219252 -0.611564 -0.271129 1.844491 -0.250925 0.551125 -0.374842 0.392224 -0.189619 0.065559
sent_141 -0.392580 -0.205392 0.010217 -0.326125 -0.048862 0.653682 0.450557 -0.550362 0.178989 0.466056 0.638552 -0.653819 -0.665391 -0.776050 0.190182 0.183549 -0.264589 0.579262 -0.375284 -0.073706 -0.289383 -0.439431 -0.221042 -0.075100 0.231928 0.158176 -0.471785 0.470957 -0.183757 0.607996 -0.652702 0.809868 -0.060271 0.522595 0.148174 -0.117119 0.026191 -0.339779 0.653703 -0.503694 -0.200801 -0.368258 -0.221653 1.603449 -0.219840 0.378799 -0.384325 0.371750 -0.226867 0.042662
sent_142 -0.256529 -0.188604 0.039269 -0.429301 0.086393 0.431762 0.316258 -0.312855 -0.334796 0.325796 0.081805 -0.316542 -0.125637 -0.441858 0.020256 0.088232 -0.540043 0.469961 -0.339373 -0.109588 0.066762 -0.313260 0.067523 0.082352 0.421076 0.077583 -0.315466 0.426453 -0.188390 0.653489 0.087505 0.102991 0.298618 0.524744 0.237955 -0.099795 -0.069804 -0.146213 0.167674 -0.503270 -0.193594 -0.083085 -0.207334 0.813361 -0.182559 0.520301 -0.288546 0.234550 -0.002804 0.327669
sent_143 -0.315978 0.047294 0.317242 -0.119163 -0.181597 0.200531 0.217544 0.239869 0.226477 0.052185 0.293887 -0.400826 0.106338 -0.535294 0.127219 -0.199322 -0.300976 0.724025 0.325347 -0.279693 -0.009239 -0.516934 0.025281 -0.650070 -0.251696 -0.323926 -0.280264 0.494589 -0.262878 -0.165212 0.386542 1.118483 -0.099544 0.128539 0.568296 -0.019601 0.401659 -0.744625 0.762634 -0.570131 -0.371379 -0.102533 0.098393 0.875123 0.133611 0.229864 0.197946 -0.021877 -0.309305 0.774689
sent_144 -0.128883 0.188697 -0.221145 0.124132 0.128725 -0.762870 0.320150 0.779847 0.371812 -0.161601 0.371004 -0.151135 -0.361211 -0.373952 0.164345 0.403129 -0.147472 -1.326048 0.567376 0.130331 0.248854 -0.118877 -0.253704 -0.860696 0.099042 -0.230384 -0.374370 0.392654 0.001766 -0.442236 -0.127246 0.409893 -0.145877 -0.511061 0.813851 -0.097704 -0.165209 0.143879 0.226949 0.698657 -0.179159 0.315967 0.132173 -0.084842 0.489350 0.245489 0.088745 0.279033 -0.467712 -0.409502
sent_145 -0.406879 -0.354715 0.080337 0.287368 -0.784531 0.466966 0.287901 0.693240 -0.507993 -0.039787 -0.356772 1.480974 0.492314 -0.134457 0.371382 0.286417 -0.163943 -0.636714 -0.794297 -0.041781 0.146971 -0.254356 -0.271175 -0.243966 0.415361 0.128920 0.736451 0.298550 0.603290 0.030232 0.935960 -0.224355 0.364712 0.034956 -0.036921 0.267569 -0.556777 0.213842 -0.437790 0.267189 -0.370854 0.242907 -0.266046 0.019136 0.252545 -0.960085 0.740904 0.309175 -0.256219 -0.242445
sent_146 0.206952 0.235229 0.183591 -0.117450 -0.206345 0.113932 0.225934 -0.211921 -0.457755 -0.061712 -0.273812 0.080647 0.196799 0.162989 0.159206 0.301203 0.438093 -0.106282 -0.605617 -0.224977 -0.289146 0.474919 -0.452159 0.257822 0.322659 0.148576 0.209814 -0.083006 -0.079767 -0.146028 -0.007200 -0.455469 0.174079 -0.221801 -0.269443 0.100430 -0.066487 0.351954 -0.384573 -0.003714 0.065621 0.215314 -0.188147 0.099438 -0.294894 -0.080370 -0.445363 -0.728039 -0.192691 0.050596
sent_147 0.219663 0.733267 0.475388 -0.302984 -0.128296 0.481378 -0.140663 0.087608 -0.154560 -0.596503 -0.234605 0.035778 0.136506 0.018968 0.156015 -0.273763 0.461801 0.254229 -0.280610 0.210038 -0.087772 0.319554 -0.011983 0.322759 0.380987 -0.245790 -0.508019 -0.332648 0.297940 -0.535818 -0.058477 -0.622849 -0.051985 -0.237358 -0.253078 0.704636 0.084390 0.257771 0.372184 0.648271 -0.010991 -0.248374 -0.079770 0.153453 -0.315117 0.288584 -0.287868 -0.070724 -0.057763 0.104433
sent_148 -0.198706 -0.560278 0.167618 0.358789 0.313555 -0.398499 0.143415 0.217603 0.193819 0.000811 0.202979 0.148310 -0.165471 -0.331277 -0.096099 -0.067250 -0.238192 -0.512487 0.481596 -0.070245 -0.102834 0.187110 0.072471 -0.055823 0.032291 -0.135233 -0.446484 0.358483 0.359041 -0.449099 -0.244229 0.154238 0.019852 -0.264314 0.308131 -0.239655 0.345591 -0.078298 0.411303 0.347091 -0.465087 -0.002416 0.084134 -0.002210 0.302017 0.224354 0.304153 0.618164 -0.027908 -0.726806
sent_149 0.107386 -0.274158 0.558807 0.223333 0.095682 -0.254055 -0.060879 0.265840 -0.291107 -0.299710 -0.082136 0.097289 0.207203 0.068933 -0.169081 0.074924 -0.162861 0.363423 -0.068987 -0.276315 -0.181779 0.128297 0.116200 0.474628 -0.035550 -0.433224 -0.112024 -0.232719 0.256639 -0.201188 -0.050568 -0.099302 -0.037353 -0.104555 -0.234662 0.108882 0.332801 0.103184 0.213305 -0.265785 0.025214 -0.009072 0.095882 -0.609002 0.140777 0.280286 -0.027106 0.170585 0.036183 -0.013038
sent_150 0.295628 -0.076346 -0.149984 0.262676 -0.246264 0.318718 0.264008 -0.164838 -0.126150 0.167511 -0.554770 0.053676 -0.186452 -0.389028 0.244782 0.166193 -0.056340 -0.233789 -0.420683 0.454530 0.208624 0.025393 -0.286215 -0.174964 0.327582 0.228650 0.255474 0.466952 0.077617 -0.129573 0.299090 0.317386 0.309494 0.050538 0.208017 0.143406 -0.843627 -0.669389 -0.410678 -0.141592 -0.103864 0.471977 -0.559461 0.260783 0.122119 0.100430 -0.109651 0.082811 -0.142141 0.418256
sent_151 0.208884 -0.996906 0.419774 0.046521 -0.345047 -0.529520 -0.006796 -0.611279 -0.017432 -0.077163 -0.141514 -0.029218 0.284087 0.679747 0.439619 0.364896 0.617065 0.120456 -0.818427 0.279763 0.341756 0.163332 -0.470383 -0.016615 -0.057424 -0.271987 0.082242 -0.094419 -0.522419 -0.506729 0.183065 0.021030 0.277248 -0.142129 -0.742497 -0.710865 0.360129 -0.343558 -1.025650 -0.192979 -0.055972 0.939027 0.209956 -0.210667 -0.286036 -0.121335 0.612040 -0.581465 -0.625556 -0.816942
sent_152 0.308564 0.338817 0.373332 0.248026 0.418390 -0.089780 0.408164 -0.204710 -0.167627 -0.261896 0.677045 0.854293 -0.290025 0.230085 -0.181592 0.131262 -0.030369 -0.001305 -0.229493 -0.137461 -1.023122 -0.225095 -0.230441 0.863163 -0.019652 0.638412 0.465382 -0.128133 -0.145381 0.509962 0.044934 -0.399127 -0.367256 -0.503971 -0.357314 -0.181149 -0.340388 0.171180 0.338653 0.051280 0.752445 -0.536265 -0.097707 -0.066175 -0.489336 -0.284672 -0.326313 -0.312652 0.063518 0.225384
sent_153 -0.581491 0.175976 0.022784 -0.267903 -0.021179 0.268958 0.335643 -0.515967 0.617007 0.338626 -0.108895 -0.312315 -0.241112 -0.606037 0.475315 0.711893 -0.182115 0.489692 0.661277 0.117448 0.178663 -0.339709 -0.428706 -0.803635 0.351425 -0.154347 0.206337 0.496589 -0.651345 -0.262816 0.156025 0.251557 0.317353 0.284989 0.643086 0.105574 0.119678 -0.125735 -0.067506 -0.037114 -0.176236 0.073508 -0.146378 1.033782 0.192021 0.460148 0.082050 0.265962 0.294225 -0.159646
sent_154 0.189674 -0.109755 -0.022384 -0.001750 0.152604 0.084738 -0.200065 -0.292324 0.217546 -0.400938 -0.013313 -0.050679 0.033021 -0.141173 -0.227934 -0.084853 0.220315 0.512779 0.062752 -0.339823 -0.240884 -0.141513 -0.077805 0.497292 -0.197548 0.417695 -0.085346 -0.304134 0.397105 -0.037286 -0.035776 -0.080688 -0.311544 -0.256292 0.001501 -0.023222 0.037751 0.138093 0.017178 -0.112132 0.587708 -0.096627 -0.349055 0.074027 0.347546 -0.048424 0.318267 -0.073436 0.505310 0.596675
sent_155 -0.158928 -0.301418 0.339346 0.051169 0.143962 0.018185 0.018951 -0.145489 -0.113658 -0.004112 0.131742 0.234606 0.101637 0.044970 -0.197068 -0.125332 -0.076776 0.333646 -0.136037 -0.111334 -0.010957 -0.370083 -0.154466 0.268385 -0.165108 -0.022471 0.057723 -0.032300 0.135451 0.112720 -0.096278 -0.092568 -0.041121 0.223758 -0.249336 0.150714 -0.243282 -0.032076 0.037735 -0.138322 0.105196 -0.010027 0.270798 0.078325 -0.139436 0.149416 -0.159617 0.005075 -0.009872 0.156622
sent_156 0.199584 0.524237 0.505803 0.135527 0.149493 0.226965 -0.150694 0.412655 -0.021549 -0.425139 -0.156639 0.123168 0.391415 0.061498 -0.140989 -0.469493 -0.070247 0.067362 -0.659675 -0.145443 0.279378 -0.057559 -0.242675 0.219792 -0.255272 -0.299576 0.096731 0.382594 0.566973 -0.807315 0.085535 -0.374352 0.023513 -0.084694 0.185668 0.487496 -0.290939 0.142720 -0.389909 0.503628 0.310799 0.157728 0.192054 -0.969193 -0.150234 -0.734278 -0.243244 0.517947 0.138663 -0.132143
sent_157 0.298351 -0.309012 0.610750 0.283697 0.317546 -0.800774 0.206807 -0.311353 -0.278616 -0.194715 -0.152613 -0.774634 0.452830 0.556917 0.460059 0.372943 0.051931 -0.078832 -0.285015 0.230489 -0.098680 0.000270 -0.072768 0.433064 -0.392069 -0.997823 -0.405479 -0.265947 -0.292067 -0.073587 0.345800 0.254140 0.244386 0.452671 -0.257300 -0.279539 0.193891 -0.639832 -0.371379 -0.734409 -0.162105 -0.096729 -0.115937 -0.185628 -0.684861 0.254025 -0.009256 -0.202678 -0.943743 -0.518048
sent_158 -0.202541 -0.698796 0.058565 0.250518 0.276477 -0.423744 0.300697 0.331774 0.237865 0.142203 -0.000128 0.384454 0.242359 -0.102160 0.091153 0.274105 0.394389 -0.610012 0.534328 0.153945 0.090144 -0.251123 -0.443761 -0.111433 -0.011757 -0.252082 -0.047231 0.472511 0.005194 -0.408019 0.014481 0.133096 0.169110 -0.256460 0.313465 -0.426223 0.388394 -0.362900 0.078075 0.141686 -0.310837 0.404988 -0.125806 -0.087242 0.251612 0.089893 0.014438 -0.173397 -0.440067 -0.310640
sent_159 0.285878 0.427099 0.306579 -0.196086 0.425987 0.298900 0.440681 0.027344 0.182805 -0.440158 -0.039507 -0.120516 0.043560 -0.414610 0.017275 0.184246 0.204175 -0.119373 -0.018667 0.013849 -0.113253 -0.167908 0.109179 0.348440 0.407891 -0.043460 -0.089449 -0.136536 -0.260908 0.086950 0.041248 -0.029873 0.114201 -0.684736 -0.024103 -0.375777 0.116312 -0.032102 0.030720 0.214442 0.375579 0.141589 0.142785 -0.537483 -0.113767 -0.029884 -0.265962 -0.469738 0.380866 0.393037
sent_160 0.242390 0.353149 0.328194 0.227676 0.105317 0.363112 -0.088758 -0.025174 0.465572 -0.580484 0.695417 0.755630 -0.379087 0.027990 -0.419984 0.073564 0.234468 0.116192 -0.520228 -0.166543 -1.026426 -0.105657 -0.479545 0.828864 0.102529 0.830274 -0.591447 -0.300274 0.146062 -0.277662 -0.168909 -0.112992 -0.280979 -0.660239 -0.132003 0.317392 -0.079216 0.012895 -0.242803 0.103719 0.575951 -0.264187 -0.261922 -0.726328 -0.050080 -0.274606 -0.485866 0.750393 0.467105 -0.169614
sent_161 -0.232836 0.226901 0.094202 -0.028751 0.194501 0.199441 -0.201552 0.251621 0.004308 -0.034842 -0.304814 0.030478 0.189737 0.376260 -0.370996 -0.705071 0.162825 0.024295 0.112574 0.157327 0.077286 0.484232 0.064300 0.250182 -0.182148 -0.133354 -0.292725 0.419129 0.074398 -1.063470 -0.206104 -0.255461 0.039149 0.281017 0.299246 0.404684 0.230438 -0.243116 -0.074670 0.402518 -0.618731 -0.357489 0.073112 -0.284111 -0.445122 -0.520217 -0.331515 0.815176 -0.287839 -0.201568
sent_162 -0.393923 -0.264336 0.526496 0.226610 0.408400 0.311313 0.144574 -0.115108 -0.009637 -0.025591 -0.004177 0.147655 -0.225612 -0.312901 -0.251414 0.368810 0.038314 0.313634 -0.098612 -0.561108 -0.439759 0.031379 -0.489827 0.418339 0.634534 0.129568 0.003148 -0.121892 -0.091599 -0.371730 -0.145431 0.069668 0.176027 -0.361838 0.276876 -0.178868 0.569013 0.000942 0.119732 0.139263 -0.191565 0.032252 -0.207567 0.087138 -0.188730 0.311527 0.104365 -0.085171 0.056949 0.209093
sent_163 -0.045426 0.087548 0.295063 0.122514 0.210735 0.030082 0.044672 0.094336 -0.167770 -0.103081 -0.162544 0.025319 0.027437 0.026745 -0.180146 0.010875 -0.143072 0.291878 -0.120374 -0.186499 -0.003817 0.133413 -0.094700 0.302186 0.105314 -0.150027 -0.085306 -0.000308 0.270136 -0.323589 0.015953 -0.031912 0.009715 -0.206187 0.160191 0.115385 0.182659 -0.150074 -0.028001 -0.075974 0.092491 -0.362192 -0.243159 -0.216862 -0.017698 0.115094 0.021523 0.213967 -0.155278 0.413476
sent_164 -0.309098 -0.492464 0.076075 0.203640 -0.700574 0.332034 0.072195 0.295473 -0.469252 -0.003934 0.036293 1.167301 0.314288 -0.152189 0.268442 0.417559 -0.065291 -0.491161 -0.792700 0.016910 0.112068 -0.336988 -0.332590 -0.551277 0.407022 0.179993 0.505177 0.281701 0.329253 0.049840 0.503160 -0.260507 0.309795 -0.006161 -0.108728 0.382823 -0.405529 0.324848 -0.409279 0.333211 0.037924 0.201460 -0.396803 0.019037 0.229546 -0.450294 0.482353 0.503474 0.030737 -0.327275
sent_165 -0.560032 -0.333019 -0.332597 0.197246 -0.197967 -0.651488 0.029355 0.563313 0.482768 -0.306222 -0.122936 -0.050300 -0.171512 -0.002806 0.340676 -0.042365 0.085473 -1.047169 0.110124 0.073600 0.129327 0.103346 -0.497647 -0.092492 -0.039014 -0.333651 -0.863361 0.120835 0.479874 -0.720523 0.064221 0.365817 -0.220682 0.219534 1.161636 0.498041 -0.206854 0.198202 0.219275 0.278982 -0.571885 -0.115184 -0.064172 -0.266202 0.108257 -0.061235 0.262862 0.919370 -0.510889 -1.218986
sent_166 -0.237744 -0.292627 0.265058 0.185412 -0.033971 0.043779 -0.105566 -0.070581 -0.169650 0.123169 -0.076969 -0.353442 0.625724 0.202251 -0.196692 -0.068642 0.274883 0.288789 0.402547 0.033769 0.015284 0.049485 0.074639 0.067546 -0.463620 -0.413819 0.100612 0.158430 0.099250 -0.203499 -0.175967 0.357562 0.147496 0.462755 -0.266375 0.317276 -0.062142 -0.440848 -0.113186 -0.204538 -0.009451 -0.272668 0.234980 -0.438418 -0.270538 0.033805 -0.365367 0.259878 0.143152 0.131951
sent_167 0.138801 -0.056398 0.606326 0.365015 0.401238 0.220040 0.189257 0.007583 -0.499203 -0.050216 -0.151199 0.325967 0.116064 -0.017015 -0.122155 0.084770 -0.301558 0.324933 0.291590 0.296899 -0.032966 -0.315951 -0.033671 -0.187345 0.029687 0.358604 0.465179 -0.246155 0.130086 -0.269799 0.390399 -0.314325 -0.099462 -0.197804 -0.252115 0.228206 -0.408553 0.146441 -0.067378 0.076589 0.141050 0.265717 -0.018755 -0.170454 0.416359 0.214861 0.141844 -0.461527 0.377087 0.640799
sent_168 0.160605 -0.269672 0.115055 0.327329 -0.079349 -0.145366 -0.101468 -0.297544 -0.326287 0.055507 -0.270877 -0.226445 0.225578 0.069474 0.320955 -0.238641 0.241124 -0.272692 -0.446740 0.018900 -0.324838 -0.075493 -0.351369 0.159720 0.023046 0.082946 0.131767 -0.074424 -0.185370 -0.611138 0.308600 0.229479 0.241040 0.043047 -0.053688 0.374384 -0.475324 -0.401154 -0.376033 -0.000994 0.114435 0.330181 -0.278116 0.053920 -0.530284 0.452394 -0.290831 -0.201597 -0.027989 -0.106441
sent_169 -0.055992 -0.259982 -0.405719 0.242031 0.640583 -0.242821 0.199571 0.397098 0.382049 0.342149 0.226106 0.161571 -0.161603 -0.356927 0.011226 -0.038597 0.187687 -0.743780 0.107065 0.027720 -0.368280 -0.110278 -0.187900 0.047548 0.057398 0.217485 -0.604164 -0.337333 -0.024769 -0.307994 -0.484073 0.038936 0.157504 -0.399449 0.379535 0.194282 -0.297303 0.280407 0.110601 0.366608 -0.181747 -0.091076 -0.085700 -0.260801 0.230769 0.157224 -0.326473 0.315886 -0.273910 -0.911732
sent_170 -0.386428 0.459647 -0.185495 -0.195817 0.042933 0.716536 0.049533 -0.207025 0.023929 0.575099 0.128906 -0.449683 -0.139674 -0.998632 0.473278 0.203149 -0.726923 0.248739 0.022387 -0.011442 0.561294 0.178351 -0.138824 -1.132635 0.836885 0.037564 0.166527 0.539580 -0.604940 0.070569 0.117736 0.293540 0.733169 0.266328 0.419211 -0.061385 0.269133 0.155627 -0.502746 -0.048747 -0.292333 -0.145335 -0.545487 0.488301 0.112924 0.393826 -0.033139 0.494713 0.560122 0.127525
sent_171 -0.530700 -0.905968 -0.330398 0.591151 0.086364 -0.740592 -0.250575 0.345120 0.440083 0.397978 0.187867 -0.064057 -0.328740 -0.039883 0.230783 -0.076632 0.181340 -0.663289 0.581958 -0.064434 -0.103602 -0.254855 -0.396325 0.185978 -0.058569 -0.169935 -0.657749 -0.171767 0.301601 -0.419482 -0.706748 0.051096 -0.440560 0.212405 0.352775 -0.159595 0.498667 0.082074 0.356153 0.163446 0.026886 -0.119880 0.055830 0.060659 0.678133 0.223587 0.203896 0.758943 -0.326592 -1.109895
sent_172 0.065602 -0.037592 0.198919 -0.020918 -0.262682 0.270423 -0.103649 -0.096591 -0.221442 -0.063568 -0.099192 0.337686 -0.052834 0.011885 0.107018 0.231441 -0.033510 0.086815 -0.349176 0.185187 0.135212 0.128298 -0.148836 0.213584 0.147849 0.074484 0.220407 -0.136873 0.226687 0.093748 0.034865 -0.080832 -0.114175 -0.132464 -0.308969 0.083434 0.031327 0.227108 -0.038348 0.201710 0.109403 0.152764 -0.228613 -0.154531 -0.220212 -0.054802 -0.198656 -0.131519 0.289239 0.165045
sent_173 0.029564 0.345334 0.375950 -0.127434 0.059389 0.273822 -0.055922 -0.165529 0.062371 -0.006699 -0.092106 -0.687844 -0.326492 -0.354381 -0.131882 -0.114292 -0.374221 0.565392 -0.172317 -0.289714 -0.141223 -0.250641 -0.393084 -0.102219 0.085097 -0.155160 -0.206847 0.131887 0.145664 -0.178130 0.410036 0.327167 -0.024869 0.185254 0.694216 -0.029522 0.302257 -0.261706 0.211583 -0.303573 -0.089687 -0.002980 -0.312455 0.154198 0.357283 0.155267 -0.016358 -0.232680 0.207962 0.623148
sent_174 -0.120791 -0.143615 1.001813 0.134658 0.264617 0.307558 0.722691 -0.865720 -0.385866 -0.621460 0.234383 0.013157 0.196594 -0.168290 -0.865441 0.759830 0.078278 0.004341 0.159314 -0.263463 0.204009 0.400036 -0.072914 0.187839 -0.289614 0.223534 0.375586 0.368799 0.102352 0.116279 -0.152927 0.243893 -0.131030 -0.222886 -0.631804 -0.195519 -0.101206 0.238881 -0.134928 0.017238 0.315281 0.426862 0.010871 0.770092 -0.825983 -0.029479 -0.191463 -0.766996 0.386724 0.536454
sent_175 -0.320933 -0.328805 -0.255029 0.338979 -0.309686 0.420412 -0.287235 0.146855 -0.107847 0.272855 0.002936 0.267514 0.081180 -0.148633 -0.253889 -0.194970 -0.139511 0.028851 -0.312447 -0.248893 -0.082252 -0.449292 -0.086637 -0.139192 0.068734 0.598558 0.347050 -0.290300 0.574841 -0.169947 0.708960 0.712802 -0.074012 0.049997 0.233709 0.294334 -0.224931 -0.258231 -0.399230 0.102523 0.336394 -0.003226 -0.477480 0.053492 0.426027 -0.250774 0.420907 0.171809 0.119000 0.229275
sent_176 0.172973 0.297042 0.206723 -0.162567 -0.471677 0.286104 0.168713 -0.055543 -0.032160 0.188644 -0.039417 -1.079584 -0.340546 -0.584358 0.308613 -0.208124 -0.462517 0.197344 -0.118862 -0.120672 0.158276 -0.496888 0.194941 -0.227892 -0.058545 -0.420029 -0.204431 0.501492 -0.239008 -0.229164 0.457498 0.621637 0.139871 0.145315 0.308773 -0.377304 -0.474280 -0.237266 0.239941 0.032330 -0.241786 0.412453 0.599732 0.888689 0.570695 0.309865 -0.199246 -0.212488 0.104387 0.233131
sent_177 -0.198996 -0.545940 0.030465 0.083009 0.249824 -0.334873 0.268104 0.009821 0.021642 0.065250 -0.339412 0.329673 0.042106 0.243894 0.169209 0.284978 0.155108 -0.294080 0.089281 -0.051644 0.177105 -0.145702 -0.166250 0.306972 0.209267 -0.294185 -0.072874 0.062198 -0.227033 0.138464 -0.038252 -0.122987 0.129781 -0.018386 0.134565 -0.402209 0.412270 -0.334839 -0.101752 -0.046943 -0.378826 0.100922 0.412116 -0.321128 -0.279170 0.060430 0.018127 -0.257538 -0.324705 -0.215389
sent_178 -0.214450 0.028780 0.313860 -0.373084 -0.431016 0.129825 0.146198 -0.009410 0.013589 0.308287 0.405582 -1.173758 -0.515832 -0.791106 -0.235439 -0.082177 -0.736433 0.916098 0.103330 -0.312399 0.339455 -0.570457 -0.237053 -0.788555 -0.096530 -0.763979 -0.122506 1.067377 -0.291110 -0.175273 0.693709 1.254335 0.279787 0.051020 0.912627 -0.462464 0.131061 -1.064733 0.649538 -0.359993 -0.068672 0.256620 0.133127 1.726380 0.583704 0.785283 0.274884 0.138242 -0.490780 1.032654
sent_179 0.487121 0.541834 0.239105 -0.143023 0.103214 -0.396098 -0.244853 0.091862 -0.432883 -0.262155 -0.386443 -1.039039 0.520587 -0.044824 0.020648 -0.072156 -0.186020 0.588591 0.325578 0.062032 0.321887 0.321782 0.251895 -0.513379 -0.131520 -0.872190 -0.126096 0.201569 -0.075016 0.056591 -0.454529 -0.199783 0.274220 0.176103 -0.040617 0.301360 0.272891 -0.198206 -0.085714 -0.683991 -0.054057 0.037500 0.032896 -0.319781 0.259494 0.352920 0.191900 0.214121 -0.038004 0.365131
sent_180 -0.048729 0.863944 0.456479 -0.228585 0.088020 0.498728 -0.213488 0.406188 0.049132 -0.281738 -0.225838 -0.227704 0.197464 0.148552 -0.294903 -0.182959 0.513231 0.373638 0.012820 -0.036649 -0.279978 0.474177 -0.262799 0.242811 0.119988 -0.415811 -0.593405 0.046323 0.000909 -0.866350 -0.331464 -0.570711 0.102085 -0.021004 0.144395 0.701416 0.497275 0.014877 0.056853 0.346420 -0.439486 -0.147063 -0.019788 -0.344025 -0.349845 -0.000644 -0.641023 0.457789 -0.183431 0.118823
sent_181 -0.227326 0.262556 0.356540 -0.237400 -0.102773 0.252264 0.104669 0.086181 0.074678 -0.034977 -0.166913 -0.438509 -0.164108 -0.427890 0.123487 -0.142477 -0.187985 0.498845 -0.234851 -0.240351 -0.160827 -0.218391 -0.434452 -0.204147 0.267955 -0.278337 -0.132299 0.381122 0.108969 -0.273950 0.376232 0.480016 -0.003260 0.089604 0.723099 -0.094095 0.445729 -0.383838 0.466698 -0.271152 -0.330826 0.190452 -0.259902 0.174699 0.321490 0.159646 0.116513 -0.218178 0.023354 0.602894
sent_182 0.133508 0.880739 0.070104 -0.328346 -0.157506 0.051096 0.209882 0.300865 0.368097 -0.396492 0.098171 0.330688 0.237828 0.061316 0.583832 0.126734 0.139192 0.065310 -0.666530 0.419852 -0.162715 -0.274023 -0.109856 -0.408460 -0.138917 0.195989 0.255115 0.244851 -0.329709 -0.485316 0.158044 -0.042721 -0.235914 -0.072260 -0.003838 0.431184 -0.899252 0.157193 -0.438085 0.194019 0.398650 0.144187 -0.124618 -0.376518 -0.082901 -0.854569 0.274459 0.634176 -0.334276 -0.064156
sent_183 -0.219745 0.180854 -0.050005 -0.449563 -0.183144 0.473266 0.192966 0.287815 0.045326 -0.440983 -0.267734 0.584650 0.488112 -0.257265 0.320026 -0.261643 0.615042 -0.083574 -0.605732 0.140066 -0.322372 -0.002996 -0.375585 -0.249137 0.385925 0.095225 -0.101591 0.371759 -0.097918 -0.402532 0.448122 -0.154046 0.405169 -0.116028 0.297690 0.770070 -0.525068 -0.111097 0.256019 0.258331 -0.224439 0.053211 -0.454956 0.327244 -0.411624 -0.067414 0.283107 0.201712 -0.245546 0.104823
sent_184 -0.198809 -0.341462 0.066466 0.425338 0.231369 0.615765 -0.101528 -0.141989 0.052072 0.113293 0.322401 0.725562 -0.023313 0.199524 -0.770121 -0.236474 -0.032410 0.409759 -0.208826 0.121835 -0.268858 -0.451845 0.567870 0.034935 -0.344360 0.610860 0.756712 -0.180123 0.003746 -0.085256 -0.139606 0.609700 -0.282838 -0.289010 -0.491077 -0.022061 0.019766 -0.535058 -0.144145 0.122291 0.299991 -0.164868 -0.088814 -0.592471 -0.516072 -0.695939 -0.015049 0.478169 0.296097 0.551503
sent_185 0.251894 -0.193910 0.037172 -0.274319 -0.371525 0.311725 -0.108728 0.019460 -0.016164 -0.516046 -0.104851 0.555142 0.271653 -0.221339 0.244597 -0.360635 0.408695 -0.247340 -0.862498 -0.035056 -0.082032 0.084921 -0.361324 0.190940 0.210005 0.107445 -0.186356 0.299975 0.253155 0.102719 0.213219 -0.426406 0.285322 0.007916 -0.259007 0.157624 -0.232776 0.151066 -0.116987 0.112433 0.029056 0.003273 -0.179227 -0.276263 -0.070124 -0.303247 0.067795 -0.093998 0.209324 -0.164911
sent_186 -0.135045 0.042998 0.277495 -0.339283 -0.377915 0.134031 0.097144 0.026423 0.024893 0.353773 0.386339 -1.193321 -0.547655 -0.782179 -0.223086 -0.051184 -0.719474 0.967445 0.099792 -0.350687 0.307416 -0.574409 -0.279981 -0.728854 -0.082398 -0.738783 -0.155869 1.026740 -0.271480 -0.166914 0.605109 1.207385 0.264078 0.021878 0.915967 -0.451348 0.234620 -1.066299 0.593192 -0.391584 -0.089913 0.231267 0.080603 1.594054 0.606513 0.720829 0.208374 0.139698 -0.471369 1.020229
sent_187 -0.164244 0.007093 0.240517 0.095505 0.225590 0.147526 -0.029251 -0.219751 -0.180046 -0.183855 -0.319488 0.332098 0.146751 -0.006801 -0.139368 -0.054591 -0.059456 0.080554 0.090533 0.001869 0.114156 0.552903 0.211367 0.489116 0.106906 -0.042890 0.191876 -0.137842 0.046155 -0.213375 -0.114498 -0.235579 0.105800 -0.003282 -0.214277 0.107460 0.057931 0.034699 0.123864 0.006842 0.087966 -0.267099 -0.119920 -0.106279 -0.495017 -0.029540 -0.085576 0.369567 0.332678 0.131468
sent_188 -0.102462 0.513360 0.058874 0.024945 -0.176150 0.201150 0.510267 0.337188 -0.064262 -0.210395 -0.259671 -0.062783 -0.036508 0.083159 0.530602 0.065673 0.169414 -0.001326 -0.325608 0.044563 0.077697 -0.037401 0.096099 0.152494 0.464247 0.099595 0.155793 -0.636197 -0.017923 -0.411905 0.249997 0.054420 -0.085357 -0.312636 0.003540 0.071016 -0.160684 0.277273 -0.387177 0.139130 -0.122889 0.322806 0.162652 -0.237533 0.014478 -0.060047 0.163326 -0.272909 -0.212417 0.285007
sent_189 -0.180961 0.197972 0.323514 0.146324 -0.508238 0.169452 0.192721 -0.070609 0.373073 -0.227621 0.247745 1.269143 -0.442171 0.023977 0.258348 0.202099 0.140253 -0.364884 -0.954008 0.080825 -0.418359 0.216534 -0.292624 0.782962 -0.078826 0.171274 -0.078391 0.337894 0.318923 -0.517274 0.127820 0.064598 0.037941 0.007998 0.137106 0.510438 -0.782195 0.125865 0.194728 0.492487 -0.030723 -0.213122 -0.328276 -0.053931 -0.466840 -0.486188 -0.445425 0.803146 -0.232299 -0.897020
sent_190 0.399812 0.038542 0.140005 0.164212 0.681237 -0.827011 0.881188 -0.304157 0.003310 -0.201845 -0.072181 -0.375255 0.340959 -0.272705 0.619250 0.203665 0.028362 0.051829 0.314204 0.297089 0.187369 -0.348633 0.172607 0.005017 0.073987 0.333604 0.711091 -0.263281 0.061633 -0.128310 -0.167584 0.113392 -0.294335 -0.194192 -0.013913 -0.072108 -1.010550 0.118490 -0.550024 -0.374761 1.210087 0.048133 0.052943 -0.694874 0.296420 -0.245018 0.643909 0.151223 0.499976 0.296748
sent_191 0.181656 -0.386865 0.423945 -0.322788 0.436588 -0.589752 0.398529 -0.546475 -0.595920 -0.312714 -0.119696 -0.569522 0.634362 -0.034397 0.566778 -0.251418 0.034404 0.558774 -0.183062 0.215980 0.338164 0.211987 0.692752 0.673927 -0.120049 -0.926252 -0.511394 -0.320774 0.101554 0.189442 -0.528538 0.048431 0.282282 0.204369 -1.039131 -0.023473 -0.243377 -0.510065 0.265072 -0.863608 0.147850 -0.160826 0.186356 0.355067 -0.538983 1.094533 -0.363504 -0.184715 -0.535247 0.093350
sent_192 0.262281 0.323188 0.578474 0.088961 0.653087 0.008141 0.135637 -0.428596 0.023456 -0.173964 -0.063532 0.025356 0.073528 0.087970 -0.172684 0.263468 -0.272675 0.374550 0.087833 0.388904 0.147470 0.116323 0.294464 0.637790 0.179918 -0.290412 -0.715098 0.018307 -0.039422 -0.675480 0.346475 -0.408459 0.364905 -0.133579 0.119172 0.307608 0.049439 -0.171646 -0.464385 0.154502 0.297590 -0.618423 -0.239683 -0.421350 -0.224076 0.500056 -0.419899 1.024858 0.117554 -0.157469
sent_193 0.653225 -0.325437 0.492665 -0.055619 0.284517 0.032261 -0.454171 -0.311766 -0.426223 -0.352813 -0.118847 0.131417 0.656229 0.042159 0.241870 -0.437083 0.394996 0.116300 -0.452621 0.128789 0.090165 0.265590 0.010883 0.306919 -0.242574 -0.322219 -0.350560 -0.021843 0.089329 -0.767946 0.029821 -0.755384 0.339464 -0.580097 -1.014598 0.148739 0.183673 0.303395 -0.502716 0.183741 0.244598 0.049528 -0.292456 -0.439641 -0.235502 0.372525 0.015356 -0.000032 0.325164 -0.253042
sent_194 0.101904 -0.093390 -0.005653 -0.058086 -0.031412 0.898940 -0.090165 -0.222110 -0.527900 0.242274 0.323878 0.608809 0.224161 -0.131778 -0.234770 -0.228188 0.057027 -0.267113 -0.748314 0.219099 -0.160669 -0.472722 0.127952 -0.148291 0.365402 0.385015 0.266091 -0.242418 -0.224895 0.256378 0.352634 0.130292 0.371677 -0.351541 -0.729140 -0.083448 -0.085241 -0.146777 -0.517295 0.093401 0.445293 -0.254923 0.010672 -0.435697 -0.147588 -0.447021 -0.376223 -0.243775 0.390733 -0.031840
sent_195 -0.195927 -0.614183 0.539042 -0.184764 0.026571 -0.442460 0.875875 -1.348896 0.099298 -0.578496 0.622628 -0.209753 -0.132197 0.386460 -0.010990 0.321473 0.491228 0.663964 -0.305838 -0.193633 0.257168 0.163337 -0.129650 0.342575 -0.458972 0.247540 0.297656 0.385754 -0.635256 -0.289382 -0.341186 0.363972 -0.218853 -0.283258 -0.733861 -0.630667 -0.169755 0.096888 -0.334274 -0.354088 0.723584 0.542527 0.148803 1.084293 -0.756930 0.077259 0.795506 -0.118857 0.121616 -0.025517
sent_196 0.515421 0.001443 0.224539 -0.537101 0.691153 -0.902811 -0.133314 -0.578908 -0.086253 -0.664312 -0.353004 -0.785601 0.277888 0.183774 0.208263 -0.769490 0.075796 -0.336601 -0.033044 0.348033 -0.082032 0.704782 0.430418 0.296479 -0.425057 -0.538605 -0.594977 -0.129289 -0.147893 -0.559505 0.152846 0.407510 0.152161 -0.163664 0.011639 0.268001 -0.217627 -0.466117 0.340244 -0.354980 0.290302 0.003621 -0.263354 -0.354657 -1.093903 0.534882 -0.207854 0.061333 0.424674 -0.621059
sent_197 -0.788711 -0.451721 0.028342 0.470995 0.091427 -1.033923 0.284970 0.472861 0.665757 -0.388175 0.020189 0.416140 0.023010 -0.220291 0.348471 0.461292 0.017650 -0.983430 0.564653 0.039846 0.006842 0.076406 -0.927322 -0.237476 -0.313547 -0.431892 -0.262700 0.385836 0.421731 -0.892040 -0.012744 0.180072 -0.289481 0.109952 1.012868 0.387784 -0.281272 0.541973 0.309986 0.245944 -0.178891 -0.048495 -0.200704 0.279792 0.166583 -0.289518 0.752954 1.052192 -0.643979 -1.566905
sent_198 0.194664 0.129474 0.006015 0.044242 -0.007780 -0.124699 0.210920 0.112274 -0.250320 -0.094628 -0.039340 -0.219325 0.216676 0.145988 0.152817 0.006352 0.176852 0.152416 -0.131043 -0.119209 -0.131632 0.072563 0.330961 0.383644 -0.149841 -0.222322 -0.161390 -0.141840 0.227447 0.073582 -0.298458 -0.062614 0.013283 -0.134822 -0.316170 0.067380 -0.078319 0.009520 -0.078565 -0.335062 -0.016410 -0.151883 -0.127879 -0.334515 0.007511 0.117062 -0.070451 -0.117064 -0.282950 0.206717
sent_199 0.065825 -0.018872 0.096089 0.235410 -0.705612 0.232696 -0.272073 0.315607 -0.370174 -0.170852 -0.137818 0.938811 0.380840 -0.245257 -0.207074 -0.365318 -0.428315 0.096899 -0.551803 -0.289932 0.001258 -0.012126 0.149637 -0.629025 0.094888 0.388555 0.474246 0.514308 0.121578 -0.070837 0.927064 0.268077 0.152398 0.249147 0.048024 0.506992 -0.458090 -0.157158 -0.213995 -0.132360 0.068290 0.155835 -0.044218 -0.007386 0.117686 -0.322929 0.383786 0.251142 0.207848 0.451073
sent_200 0.141749 -0.003555 0.283634 -0.060129 0.306302 -0.235626 0.314974 -0.200180 0.290319 0.060085 -0.291507 0.157252 -0.077201 0.016378 0.662555 0.285432 0.169050 0.411414 0.095101 0.373921 -0.059195 -0.435249 -0.194955 0.103950 0.392740 0.078331 -0.223863 -0.297372 -0.396459 -0.386568 -0.097132 -0.532103 -0.068805 0.190673 0.253928 0.135180 -0.294610 -0.000084 -0.094220 -0.300998 0.231865 0.188464 0.143239 -0.123709 0.488936 0.313384 0.002038 0.274474 0.074100 -0.122576
sent_201 -0.105131 -0.117152 -0.198531 -0.206072 0.302617 0.261326 -0.025676 -0.266308 -0.129409 0.423038 0.219100 -0.202564 -0.629835 -0.574633 -0.388208 0.116882 -0.735873 0.220456 -0.023404 -0.190205 -0.254904 -0.148526 -0.006857 -0.264588 0.064627 0.468986 -0.094702 0.434265 0.118958 0.819743 -0.260415 0.289328 -0.002707 0.409428 0.124171 0.193785 -0.446107 -0.109608 0.583882 -0.362337 -0.477187 0.010717 -0.453862 1.095486 -0.106386 0.507918 -0.207982 -0.010834 0.052344 0.372834
sent_202 -0.066606 0.101606 0.085429 -0.104449 -0.390278 0.312561 0.231532 -0.102027 0.250435 0.091442 -0.233181 -0.431811 -0.246747 -0.515468 0.292011 -0.020765 -0.164660 0.778875 -0.255741 -0.298136 -0.057810 -0.547006 -0.184581 -0.500193 0.201912 -0.057364 -0.056397 0.730966 -0.135402 -0.105099 0.460259 1.121022 -0.029194 -0.036947 0.641606 -0.088909 -0.019990 -0.935422 0.453193 -0.525620 -0.112640 0.245764 -0.119153 0.753934 0.376309 0.251472 0.296303 -0.212828 -0.088457 0.809447
sent_203 0.422617 -0.341194 -0.278404 0.068939 -0.032988 -0.316827 0.052229 -0.080910 -0.165993 -0.066333 -0.299657 -0.121737 0.266454 -0.026120 -0.021024 -0.221083 0.291933 0.118250 -0.285024 -0.067211 0.339604 -0.072737 0.445796 -0.115525 0.322351 -0.525884 0.174674 0.118375 -0.279465 -0.230733 -0.204422 -0.068693 0.743241 0.147020 0.269036 0.198143 -0.038062 -0.421750 -0.300041 0.105370 0.091363 0.173264 0.108306 -0.220515 0.071597 0.321037 0.281571 0.013045 -0.412794 -0.211985
sent_204 0.284647 0.300485 -0.247255 0.141788 0.013547 0.795307 0.116503 -0.092458 -0.637115 0.529737 0.243179 0.509187 0.184507 -0.126905 -0.069339 0.078776 -0.175808 -0.428740 -0.452995 0.065746 -0.073552 -0.408355 0.440318 -0.633331 0.319051 0.583238 0.404321 -0.091177 -0.389914 0.527698 0.249045 -0.081241 0.337161 -0.357694 -0.662470 -0.083714 -0.429430 0.144002 -0.553987 -0.039093 0.361900 -0.119945 0.147890 -0.244437 0.014946 -0.356264 -0.393196 -0.279058 0.469652 0.146301
sent_205 -0.258105 -0.046046 -0.367829 -0.063066 -0.286723 -0.266499 -0.217283 0.566876 0.233342 0.073009 -0.159119 -0.087527 0.204180 -0.493002 0.106507 -0.191612 0.209072 -0.750494 -0.096599 -0.374523 -0.211130 0.263642 -0.477673 -0.296186 0.064858 -0.074213 -0.185297 0.493592 0.232462 -0.254201 0.109001 0.301054 0.142548 0.038150 0.398541 0.187548 -0.269285 0.194467 0.111369 0.162050 -0.259620 0.180346 -0.154238 -0.112224 0.218166 -0.035305 -0.079535 -0.002650 -0.174497 -0.375427
