sent_0 -0.178429 -0.105781 -0.487303 -0.876057 0.400944 -0.900710 0.207532 0.420211 0.409925 -0.041087 -0.303463 0.473174 -0.090416 0.271512 0.448027 0.058878 0.388094 0.117685 0.000765 -1.004028
sent_1 0.854926 0.628673 -0.053773 0.088761 0.239281 0.737661 0.887284 -0.869005 0.936688 0.099899 -0.167139 0.631275 -0.142411 0.433830 0.463849 0.015857 -0.627738 0.612262 -0.156721 -0.579154
sent_2 0.951893 0.974179 0.240409 -1.156774 -0.284286 -0.630323 0.182420 -0.161069 -0.070314 0.264297 -0.046543 -0.709794 -0.040566 -0.419955 0.323741 0.132415 0.483878 -0.134347 0.099696 -0.444830
sent_3 -0.080646 0.295722 -0.243481 -0.029858 -0.164128 0.168802 0.631260 -0.275641 0.388244 -0.169284 -0.272642 0.246215 0.588614 -0.075011 0.412889 0.123772 -0.159381 0.073837 0.176554 -0.027397
sent_4 0.079913 0.572234 -0.292298 -0.678986 0.202423 -0.832359 0.583793 0.919948 0.922778 0.349036 0.248334 0.167509 -0.223818 0.633927 1.125532 0.534314 0.622298 -0.212811 -0.070549 -0.866028
sent_5 0.259395 0.046795 -0.079224 -0.491090 0.015458 0.352362 0.174744 0.434226 -0.212267 -0.058157 0.728048 0.381071 0.164517 -0.120665 -0.008696 -0.104327 -0.642114 -0.356867 0.663616 -0.040135
sent_6 0.531118 0.652758 -0.096674 -0.741574 -0.085584 -0.676549 0.737340 -1.191143 0.669475 0.580846 -0.453375 0.177340 -0.608034 -0.068741 1.287284 -0.378838 -0.017332 0.414832 0.086069 -1.536822
sent_7 0.222259 -0.656085 -0.016080 -0.241695 0.031382 -0.641738 -0.532394 0.431253 0.065605 -0.340912 0.075494 -0.326581 -0.299540 0.337141 -0.584008 -0.185293 -0.291090 -1.058478 -0.484671 0.454909
sent_8 -0.404523 -0.578062 -0.450688 0.679358 0.416501 -0.839098 0.538498 -0.454447 0.879362 0.402531 -0.330099 0.200715 -0.350505 -1.007829 1.074293 0.213095 -0.590207 -0.370371 -0.185994 -1.685422
sent_9 -0.738759 -0.130562 -0.166084 -0.777736 -0.137966 -0.112164 0.006363 0.436389 -0.420370 0.873816 0.643314 -0.363350 -1.062579 -0.599135 0.264401 -0.113293 0.026288 -0.812909 -0.375327 0.330422
sent_10 0.319633 0.951173 -0.346018 -0.050014 -0.386296 -0.223953 0.702045 0.144205 0.130512 -0.470341 0.347012 0.860100 0.150702 -0.048925 0.411356 -0.112443 -0.433057 0.653012 -0.164827 0.024650
sent_11 0.516338 0.548367 0.317872 -0.114582 -0.427201 0.330313 0.664491 -0.392346 0.672093 -0.953912 -0.307229 -0.477226 -0.315335 -1.081087 0.510773 0.305828 0.228469 -0.178584 -1.011698 -0.329322
sent_12 0.568148 0.474759 -0.054540 0.886392 0.177081 0.896460 0.570869 -0.592063 0.740022 -0.648153 0.147105 0.463317 -0.425828 -0.608662 0.254339 0.066016 0.191311 -0.392741 0.616613 -0.792224
sent_13 0.067282 -0.337718 -0.141613 0.169342 0.459817 -0.613212 0.382765 -0.143324 1.100449 -0.144451 0.424966 -0.794205 -0.989938 -0.702176 -0.359525 -1.054912 0.528863 -0.163122 -0.329817 0.058319
sent_14 0.552072 0.721529 -0.144878 -0.262071 0.221092 -0.260036 0.314360 -0.278055 0.396627 -0.121769 0.071120 0.599191 0.103996 0.212407 -0.287255 0.246564 -0.539002 0.668301 -0.628959 -0.038986
sent_15 1.027368 -0.368031 0.088163 0.566499 0.027795 -0.423456 0.214264 0.497088 -0.259465 0.662855 -0.019198 -0.298339 -0.351988 -0.378518 -0.910924 -0.225328 0.244711 -0.194904 -0.300174 0.143834
sent_16 0.223647 -0.444700 0.591755 -0.380661 0.231832 0.158273 -0.010910 0.196862 0.549077 -0.050519 0.075752 -0.152728 -0.507386 -1.458900 0.561676 0.704870 1.411922 -0.072609 0.150153 0.718907
sent_17 -0.297892 0.459493 0.296505 0.064992 -0.499195 0.282138 -0.132553 -0.519960 0.528950 0.683761 0.807440 0.135716 0.743622 0.578904 -0.051299 0.236922 -0.165733 0.214386 0.043710 -0.162651
sent_18 -0.070099 -0.625328 -0.208437 -0.036838 0.640628 -0.351915 -0.673915 0.463858 1.043304 0.159597 0.819271 0.072512 0.802286 0.103454 -0.181564 0.320370 0.120390 -0.662700 0.246754 0.882919
sent_19 0.462766 -1.289928 0.528747 -0.282007 0.478454 -0.483545 0.371548 0.118444 0.225047 0.350259 0.402782 0.084747 0.416130 -0.032056 -0.616779 -0.213308 0.047489 0.278016 0.141108 0.396989
sent_20 -0.264333 -0.236990 -1.227004 0.396651 0.031564 -0.201751 -0.117673 -0.182534 0.222144 0.194928 -0.260532 -0.099364 -0.514468 0.897062 -0.789318 1.312396 -0.461298 -0.102681 0.347361 -0.750323
sent_21 0.065705 0.088905 -0.637263 -0.012483 0.106470 0.061526 0.060418 0.441693 0.415423 -1.113164 -0.397671 0.390370 -0.508646 0.060409 -0.550041 0.308494 -0.025031 -0.116433 0.393549 -0.251901
sent_22 0.228856 0.000038 0.024802 0.364053 -0.299509 0.823176 0.238147 0.498404 -0.197428 -0.017695 -0.246455 -0.852237 -0.202122 0.487373 0.185302 0.424401 -1.245899 -0.691718 -0.762133 0.046622
sent_23 0.821459 0.405634 0.146470 -0.078238 -0.088643 0.418927 -0.078678 -0.287797 -0.567792 -0.421535 0.035209 0.112111 -0.100554 -0.428733 0.438647 -0.321128 -0.950166 -0.974952 0.083886 1.154101
sent_24 0.510849 0.316933 0.302409 -0.945921 0.677266 -0.962076 -0.034246 0.027260 0.975767 0.075632 0.140379 -0.873341 -0.322067 -1.115561 1.214882 -0.288412 0.046552 -0.336113 0.168365 -0.376123
sent_25 0.124341 -0.260982 0.312132 0.117386 -0.441068 0.215424 0.183348 -0.188810 0.221747 -0.138033 -0.742302 -0.187882 -0.339138 -0.478762 -0.127000 -0.068629 0.469950 0.995702 -0.111058 0.110165
sent_26 0.219280 0.355456 0.317885 -0.341809 -0.368627 0.091817 0.867748 -0.447882 0.743254 -0.022064 0.194249 0.231497 0.257632 0.196271 0.311119 -0.335504 -0.091640 0.149792 0.205187 0.177170
sent_27 0.005196 -1.237876 0.662369 0.000785 0.159777 -0.323985 0.581365 0.861070 0.004505 0.076450 -0.238673 -0.168808 0.413401 -0.386663 0.175124 0.574915 1.120409 0.091576 -0.599059 0.521353
sent_28 -0.925600 0.357374 0.376849 0.215216 -0.216208 0.445307 0.314265 0.195097 0.698539 0.376977 0.169911 -0.078879 0.669315 -0.340396 1.059286 0.801369 0.486426 0.225807 0.315124 0.323533
sent_29 0.109323 -0.703622 0.614174 -0.386731 0.029422 0.272064 -0.208627 -0.375369 -0.241053 0.166666 -0.139939 -0.087329 0.231385 -0.499742 -0.044602 0.270545 0.450614 -0.583398 -0.437226 0.220859
sent_30 0.889260 -0.370096 0.472218 -0.436769 -0.410819 0.061810 -0.149587 -0.361300 -0.293098 -0.489316 -0.341589 0.109249 -0.021021 -0.258269 -0.315793 -0.132839 -0.006826 -0.621457 -0.631266 0.665528
sent_31 0.270205 -0.144360 -0.325120 0.737728 -0.085326 0.800374 0.576186 -0.419305 0.535237 -0.173916 0.019355 0.513468 -0.249741 0.018412 0.380279 0.733018 -1.067416 -0.889592 -0.115749 -0.414733
sent_32 0.525174 -0.550822 0.462785 -0.576539 -0.200655 0.298087 0.606903 -0.776149 -0.460505 0.312822 -0.054224 0.037849 -0.341837 0.120740 0.058967 -0.482367 0.205971 -0.067536 -1.003322 0.102542
sent_33 -1.416631 0.570624 -0.112454 -0.152054 -0.089544 0.368175 -0.245342 0.081133 0.855751 -0.796775 -0.062448 0.532399 -0.805885 -0.714058 0.213329 -0.386103 0.762570 -0.455471 -0.015643 0.630924
sent_34 0.388488 -0.249786 -0.092523 -0.000906 -0.096665 -0.034006 0.358170 -0.780973 0.196327 0.055553 -0.184515 0.404467 -0.231686 0.244750 0.334970 -0.579447 0.273668 -0.246197 -0.442161 -0.145585
sent_35 0.157275 -0.728872 -0.323631 -0.168078 -0.324138 -0.043252 0.244255 0.332066 0.254948 0.307668 0.249891 -0.544856 -0.482961 0.436181 0.306635 -0.071250 0.566145 -1.103721 -0.445981 0.289891
sent_36 -0.523767 -0.777340 -0.227983 0.658441 0.550058 0.049659 0.842672 -0.109749 -0.122257 0.494000 -0.280270 -0.010649 -0.758253 -0.290932 -0.475294 -0.116459 0.236477 -1.342660 -0.244088 -0.511932
sent_37 0.764883 0.635227 0.275898 -0.049550 -0.638850 1.134543 -0.666357 -0.951211 -0.715124 -0.762139 -0.653222 0.742544 -0.938197 -0.130792 -0.917476 0.528781 -1.171858 -0.554376 -1.398970 1.249255
sent_38 -0.013256 0.199995 -1.218588 -0.427971 -0.299633 0.009160 0.162224 -0.157005 0.213422 0.364075 0.603736 0.406455 -0.730406 -0.130866 -0.281882 0.304843 0.148722 -0.575478 -0.537151 0.438195
sent_39 0.141890 0.014446 0.250316 -0.494648 -0.376909 -0.045659 0.441580 -0.273732 0.703043 0.417192 0.163907 -0.069223 0.046446 -0.140850 0.638312 -0.343414 -0.204741 -0.058959 -0.064924 -0.768935
sent_40 0.305536 -0.243226 -0.011306 -0.196802 0.126268 -0.110412 -0.380890 0.070084 0.356202 0.150535 0.299326 -0.459638 0.045668 0.371227 0.145148 0.200057 -0.234519 0.301087 0.158050 -0.022063
sent_41 0.284838 0.480563 0.166115 -0.664692 0.803792 0.200203 0.288774 0.345672 -0.923239 -0.511763 0.778096 0.450937 -0.721079 -0.454274 0.423608 0.191410 -0.550227 -0.805663 0.636301 0.930611
sent_42 0.199589 0.569592 0.002891 0.280428 -0.979111 0.437081 0.242924 -0.130245 0.334293 0.180734 0.186942 0.400003 -0.486904 -0.126608 0.518317 -0.251914 -0.001286 -0.104143 0.278267 -0.270301
sent_43 0.649720 -1.283944 0.081163 0.234092 0.321208 -0.135316 -0.410504 -0.204427 0.542336 0.292323 -0.413078 0.759655 -0.557406 -0.142875 -0.768354 -0.881203 0.022217 1.134625 -0.062730 -0.004472
sent_44 -0.358414 0.734758 0.230277 -0.201512 0.149591 0.716822 0.477354 0.483250 0.003293 -0.585907 -0.793582 0.169533 0.270268 -0.464195 0.573541 0.308559 -0.881291 0.607110 0.706148 0.610476
sent_45 -0.769162 -0.671020 -1.309523 0.567953 0.066512 -0.514329 0.230165 -0.223527 -0.197599 -0.116521 -0.653402 1.589342 -0.410704 -1.266196 0.687390 -0.300242 -0.044017 0.035972 0.742200 -0.421399
sent_46 0.671815 -0.712853 0.621144 -0.017704 0.083639 0.182050 -0.045113 -0.486291 -0.815669 0.034355 -0.190039 -0.364899 0.321387 -0.066101 0.026718 -0.114323 -0.124766 -0.223673 -0.883587 0.224201
sent_47 0.548352 0.375429 0.159466 -0.386947 0.025707 -0.166733 0.755169 0.097137 0.216708 -0.605542 0.190696 0.332591 -0.138448 -0.666991 1.198251 0.374779 -0.696607 -0.498282 0.135729 0.218647
sent_48 -0.672726 -0.308615 0.151889 0.399085 -0.126000 -0.399123 0.189375 0.544771 -0.173106 0.703719 0.625609 0.130852 -0.474349 -0.270691 0.125290 0.582460 -0.178774 -0.422778 -0.254399 0.220099
sent_49 0.064899 0.135444 -0.764930 0.304201 -0.539194 0.482417 1.004570 0.107209 0.363106 0.176963 0.087884 0.406676 -0.478739 -0.033654 -0.625711 -0.443091 -0.117804 0.348323 -0.487781 -0.256434
sent_50 -0.121458 0.037213 -0.409432 -0.734069 0.418406 -0.206144 0.794847 0.287848 0.732895 0.187737 0.208803 0.203083 0.109046 0.208574 0.879657 0.224931 0.286892 0.388927 -0.373731 -0.359089
sent_51 -0.727211 0.189070 -0.010690 -0.571501 -0.504668 -0.008790 -0.548820 -0.402454 0.131764 -0.059206 -0.442808 -0.426227 0.170381 0.122575 -0.339595 0.537880 0.636538 -0.149623 0.333646 0.156837
sent_52 -0.466095 0.871405 -0.440211 0.006350 -0.034544 -0.441700 0.426744 -0.533342 -0.072036 0.139640 0.169487 1.171729 0.634750 -0.253344 0.440042 0.047526 0.123746 0.226656 0.875172 -0.099074
sent_53 0.608482 -0.682707 0.183383 0.218634 0.089977 -0.787370 0.765733 -0.503060 -0.723826 0.259421 0.890434 -0.277122 -1.114452 -0.455814 -0.449397 -0.675408 0.637025 -1.040617 -0.808705 -0.089913
sent_54 -0.050140 -1.013212 0.196279 0.536771 0.347952 -0.151465 -0.464271 -0.118281 0.221862 -0.001733 0.294148 0.073741 0.323635 0.489047 -0.388974 0.190012 -0.119994 -0.293923 0.030837 0.823830
sent_55 0.102745 0.345093 -0.346193 0.523836 0.224619 0.839307 -0.095711 -0.160580 0.506308 0.278735 0.341033 0.230495 0.567178 0.974194 0.160473 0.027113 0.161614 -0.194066 0.209998 0.257498
sent_56 -0.787875 -0.061306 -0.106888 -0.619040 -0.387587 -0.116403 -0.340903 -0.456281 -0.951339 0.083029 -0.546621 0.813968 -0.148519 -0.310594 1.100580 -1.200812 0.435483 -0.325843 0.872367 0.062820
sent_57 0.137531 -0.062550 -0.429665 -0.033840 -0.642239 0.375388 0.435805 -0.567800 -0.699244 0.623553 0.801281 -0.114988 -0.764390 -0.501845 -0.277966 0.167862 0.170894 -1.582820 -0.583257 0.118231
sent_58 -0.300363 0.124323 -0.637010 -0.561379 -0.549814 0.750728 0.313860 0.163433 0.647763 0.754050 0.006630 0.828212 0.209638 -0.923839 0.771571 0.430845 0.064411 -0.125390 -0.001898 0.019029
sent_59 0.013043 0.461796 -0.143617 0.197165 0.879139 -0.978357 0.011592 -0.154330 0.806265 -0.295559 -0.015006 -0.444340 -0.090127 -0.508142 1.063890 0.026545 0.613611 0.001237 -0.235510 -0.728189
sent_60 0.169485 0.668213 0.345145 -0.958143 -0.479811 -0.516845 -0.169761 0.017773 0.613752 0.180828 0.157031 0.924407 -0.705008 -1.332910 1.148802 -0.312148 0.394885 0.226646 0.097785 0.238095
sent_61 -0.276087 0.250669 0.308858 0.319718 -0.599482 0.289663 0.312869 -0.596642 0.384297 -0.707594 0.232562 0.356439 -0.210349 -0.343840 0.574692 0.096447 0.281071 0.275022 -0.345054 0.129088
sent_62 -0.377030 0.118689 0.138493 0.533546 0.254352 -0.508866 0.453585 -0.666012 0.938607 0.656950 0.136402 0.282331 -0.081667 0.317369 1.244635 -0.005099 -0.004488 0.432243 -0.251824 -0.774715
sent_63 0.067369 -0.887811 -0.380399 0.071606 0.568545 -0.892583 -0.156532 -0.437580 0.566219 -0.020969 -0.453045 0.222598 -0.680115 -0.468156 0.093201 -0.364014 0.286550 1.084549 -0.233143 0.595409
sent_64 0.495384 0.509875 -0.595466 -0.069702 -0.351601 -0.070173 0.310236 0.279108 -0.567626 -0.161180 0.231882 0.227268 0.149302 -0.154686 -0.100065 0.140124 -0.548921 0.357777 0.940294 0.620153
sent_65 1.105430 0.495932 -0.358306 0.188524 0.235174 0.453471 0.645756 0.811889 -0.184260 -0.603666 0.611311 0.921159 0.401656 -0.061388 -0.272970 -0.415199 -1.027500 0.177871 0.401395 0.522256
sent_66 0.875213 -0.555344 0.126932 0.809370 0.610720 -1.382496 0.353539 -0.569966 0.260142 0.699262 -0.246948 0.859503 -0.082350 -1.246974 -1.042248 0.571583 -0.110500 0.612526 -0.736000 -0.427125
sent_67 -0.344064 -1.421618 0.191373 -0.117208 0.661292 0.062057 0.059756 0.108670 0.102611 0.699945 -0.452528 0.047457 0.288563 -0.353215 0.531075 0.256071 -0.163881 0.130792 -0.479339 -0.784913
sent_68 -1.292385 0.235887 -0.106668 -0.450945 -0.284596 0.255259 -0.069716 -0.164361 0.768655 0.827916 0.160290 1.242752 -0.136633 -0.205371 0.949764 0.340892 0.088814 -0.318573 -0.052209 0.029372
sent_69 -0.588119 -0.699978 -0.297991 -0.450663 0.038894 -0.024008 -0.662478 -0.727588 1.035982 0.315430 -0.097891 -0.037811 0.399910 0.397614 -0.429840 -0.716508 0.286368 -0.136493 -0.449056 1.371218
sent_70 0.216175 0.724393 -0.132804 -0.639287 -0.407905 0.714844 0.051227 -0.030995 0.167741 -0.866257 -1.045683 0.619720 -0.284341 -0.577762 -0.143593 -0.286568 0.134988 -0.088257 0.742818 0.556683
sent_71 -0.112419 -0.985456 0.065046 -1.053544 0.016500 -0.227537 -0.097987 -1.081344 -0.235438 -0.248101 -0.511616 0.198307 0.027964 -0.335077 -0.067324 0.321121 -0.013760 -0.171752 0.534071 0.907655
sent_72 0.336462 -0.272702 -0.581383 -0.973213 0.275663 -1.072626 -0.123395 -0.518374 -0.306070 0.332981 0.043137 -1.038138 -0.216001 -0.472882 0.334128 0.422739 0.004397 -1.126689 -0.332458 0.476328
sent_73 -0.029245 -0.475738 0.276392 -0.194522 0.233207 0.174820 0.030281 0.139430 -0.417682 0.336890 0.256443 -0.009635 0.358890 -0.616629 -0.020138 0.385078 0.456925 -0.059304 0.521097 0.111777
sent_74 -0.826567 -0.700207 0.151117 -1.069329 -0.065751 -0.183615 -0.833132 -0.697647 0.613310 0.656347 -0.536027 0.581033 0.068984 0.686844 -0.102684 -0.323243 0.301768 0.002067 0.477802 0.441690
sent_75 -0.187075 0.493830 -0.690740 0.356544 -0.331019 -0.251295 -0.296150 0.434997 0.555828 -0.016133 0.116204 0.559475 -0.090260 -0.464226 0.183049 0.020445 0.190395 0.164960 0.449342 -0.126782
sent_76 0.871572 1.263011 0.086414 -0.873527 -0.665445 -0.522153 0.041386 0.195920 0.434617 -0.006890 0.302222 -0.216126 0.277807 -0.464509 0.363388 -0.126918 -0.074270 0.210090 0.657879 -0.819866
sent_77 0.860399 0.200768 -0.276748 -0.376961 1.105684 -0.402984 -0.496581 1.300352 -0.277306 -0.544209 -0.040933 0.330988 0.888792 0.079245 0.736929 0.065020 -0.947903 -0.076255 0.754917 0.834668
sent_78 -0.077095 -0.310911 0.080606 -0.214357 0.336821 0.146265 0.785528 0.075343 -0.014557 -0.346973 0.328121 -0.051027 -0.481153 0.244243 -0.018238 -0.912917 0.313855 -0.149953 -0.250331 -0.498465
sent_79 -0.723330 0.343248 -0.709399 0.370253 0.458805 -0.834231 0.551013 -0.512620 -0.016839 -0.469436 -0.052418 0.546912 -0.934094 -0.031257 0.588840 -0.171257 -0.416615 -0.331721 1.302050 -0.008390
sent_80 1.306202 0.461792 -0.467101 0.626010 -0.325503 -1.016872 0.180730 0.200443 0.420818 0.772408 -0.685717 -0.297932 0.618868 -1.443977 -0.595937 -0.013030 -0.119906 0.238603 -0.088857 -0.713575
sent_81 0.504630 0.235480 0.452587 0.569772 0.488192 -1.162125 0.486824 -0.500454 0.356778 0.366219 0.004319 0.879333 -0.687487 -0.936838 -0.910599 0.641021 0.243147 0.936445 -1.033945 -0.096312
sent_82 -0.643866 -0.609232 0.142336 0.136787 -0.344622 -1.070976 -0.066727 0.037046 0.342776 0.742214 0.211413 -1.590405 -0.031465 -0.108543 -0.597606 0.349491 0.115535 -1.353304 -0.303398 0.490622
sent_83 0.011759 0.246419 -0.527620 -0.338117 -0.057598 0.086522 0.236678 0.132561 0.255734 0.036036 -0.376320 0.573992 -0.013794 0.199790 0.539747 -0.054334 -0.198603 0.296893 -0.072688 -0.611985
sent_84 0.446377 0.073570 -0.005770 0.038533 0.174936 -1.220543 0.643367 -0.496240 -1.261971 0.402435 0.338072 0.130959 -0.603434 -0.923425 -0.278893 -0.738953 0.610003 -0.941984 -0.258691 -0.175618
sent_85 0.401728 -0.040835 0.142461 -0.199184 0.014205 0.134623 0.828463 0.278966 -0.506276 -0.264280 0.265568 -0.007241 0.442504 -0.152361 0.075136 0.466976 -0.823627 0.099635 0.438970 0.408285
sent_86 0.253793 0.658757 -0.245815 -0.510506 -0.279098 0.557325 0.258408 0.896139 0.499841 0.939099 -0.081044 0.974492 -0.095232 -1.105117 0.998628 0.728892 -0.037168 0.458304 -0.255775 0.256844
sent_87 0.719297 0.986263 -0.098585 -0.326330 -0.149892 -0.057050 0.412142 -0.234789 0.487904 -0.093605 0.184526 0.117783 -0.206331 -0.238826 0.955032 -0.308526 0.833072 -0.342961 -0.062153 0.236503
sent_88 -0.330327 -0.572225 -0.560712 0.302725 -0.994709 0.081139 0.696754 -0.594130 -0.126711 0.377441 0.463986 -0.539129 -0.261209 -0.453593 -0.859731 0.262783 0.116472 -1.793562 -0.634074 0.286068
sent_89 0.189361 -0.683991 -0.017015 -0.040122 0.318926 -0.324133 0.740541 0.045833 -0.064422 0.536183 0.553137 -0.527473 -0.547570 -0.257024 -0.410015 0.480350 0.083587 -1.007601 -0.753502 0.196711
sent_90 -0.817804 -0.300301 -0.834218 0.261570 0.034927 -0.256203 -0.190383 -0.716595 0.227615 0.198515 -1.013019 0.415761 0.122598 0.163420 0.142713 -0.240521 -0.052830 -0.399738 1.514484 -0.207600
sent_91 -0.160192 0.405599 -0.100733 0.279649 0.049988 0.570797 0.228728 0.103829 -0.040939 -0.467610 -0.213407 -0.118171 -0.647384 -0.002705 -0.222226 0.295650 -0.814846 -0.463876 -0.187722 0.099988
sent_92 -0.679892 -0.076291 0.055453 0.039748 -1.017035 0.190773 0.562964 1.073247 0.609662 1.562671 0.058181 0.664464 -0.987084 -1.348933 -0.186802 0.920259 0.359501 -1.234516 -0.732781 0.416127
sent_93 0.342517 0.414677 -0.881154 -0.131148 -0.230613 0.653345 0.108167 -0.022828 0.429061 0.237071 0.309117 0.141516 0.011185 0.072090 0.097002 0.471390 -0.237559 -0.715786 0.128216 -0.284885
sent_94 0.290696 0.276488 -0.819327 -0.468854 -0.330469 -0.151061 0.682545 0.130268 0.338668 -0.155096 0.749257 0.541003 0.703291 0.314128 0.163384 0.942516 -0.186766 -0.229596 0.159272 0.080327
sent_95 -0.581251 0.033642 -0.271352 0.043297 0.091582 -0.445202 -0.782906 -0.323590 0.622485 -0.246648 -0.606205 0.830012 -0.325378 0.437678 -0.020056 -1.009524 -0.278993 0.679626 -0.873313 -0.040761
sent_96 0.511447 -1.651688 0.379649 -0.393547 0.903624 -0.330418 0.542169 0.223551 0.053512 0.807891 0.309753 -0.167505 -0.878733 -0.466616 -0.358240 -0.043095 -0.117676 -0.674263 0.179937 -0.332411
sent_97 0.117617 0.167647 -0.189675 0.093277 -0.539973 -0.062674 0.661489 -1.030688 1.571455 0.290888 0.146093 0.402136 -0.313444 0.196026 0.483069 -0.447856 0.008764 0.439560 -0.129752 -0.317726
sent_98 0.508668 -0.167283 -0.395882 0.151909 -0.076688 -1.017375 1.011622 -0.102071 -0.642690 -0.865143 -0.391980 0.123335 0.255634 -0.248905 0.299226 0.122577 -0.036948 0.020514 0.992956 0.370274
sent_99 0.398319 0.514559 -0.040705 -0.416853 0.286530 -0.602331 0.942569 -1.025892 -0.088428 0.621658 -0.289280 0.336150 -0.696350 -0.169283 1.113913 -0.273517 0.754511 -0.172845 -0.184990 -0.168762
sent_100 0.518281 0.610571 -0.436842 0.023124 -0.291811 1.099752 0.197064 0.060593 -0.502574 -0.528739 0.070460 0.332103 -0.035623 0.357984 0.259050 0.171719 -1.651105 0.072378 -0.039783 0.135423
sent_101 0.836958 0.425061 -0.187541 0.025875 0.022137 -0.891058 1.192137 0.155372 -0.624380 0.013227 0.002895 0.637633 0.615728 -0.629313 0.085536 0.421055 -0.057994 0.360215 0.161314 -0.132334
sent_102 0.057588 -0.322751 0.232554 0.198022 0.313779 -0.792610 0.564516 0.784900 0.045671 0.296357 0.457474 -0.190566 -0.840076 -0.705007 0.004979 -0.021861 0.349999 -0.969990 -0.232193 0.065245
sent_103 0.283736 0.604565 0.115658 -0.040289 0.590716 -0.692821 0.714629 -0.471928 0.538229 0.386859 0.273040 0.052839 -0.521126 -0.813193 1.121140 -0.448318 0.750224 0.412150 0.179455 -0.536125
sent_104 0.543129 -0.989719 0.533067 -0.501549 0.106842 0.973395 -0.333424 -0.048643 -0.402465 -0.772811 -1.037712 0.266633 -0.126744 -0.249018 -0.724623 -0.642651 -0.842833 -0.771206 -0.314575 1.017379
sent_105 -0.473288 -0.163477 -0.488753 0.375990 0.703222 0.401903 0.331182 0.547010 -0.142434 -0.196475 -0.599981 0.701163 0.512911 -0.135412 0.568803 -0.793971 -0.885422 0.487465 -0.095710 -1.009925
sent_106 0.416010 -0.679955 -0.076233 0.100620 0.902328 -0.485059 -1.159463 1.216979 1.325363 -0.780599 0.289236 0.024467 0.606616 1.150689 -0.521638 0.874173 -0.424045 -0.715232 0.358889 1.032021
sent_107 0.896254 0.315023 -0.156107 -0.358760 0.224812 0.291183 -0.251641 0.613383 0.110384 -0.833371 -0.530424 0.397722 0.287275 0.605035 -0.350672 -0.060028 -1.049148 -0.154203 0.043323 0.567783
sent_108 -0.229166 -0.436996 -0.238453 -0.542581 0.177949 -0.551591 0.337512 -1.273291 0.213236 0.159665 0.409778 0.424886 -0.561927 0.645440 -0.403271 0.139463 -0.800819 0.686040 0.106961 -0.429455
sent_109 0.865606 -0.097407 -0.869435 0.322944 -0.075843 0.808173 0.420097 0.538761 -0.452711 0.377230 -0.015389 -0.006513 0.068976 -0.229492 -0.718881 0.018444 -0.965616 -0.384384 -0.321571 0.175345
sent_110 -0.389233 0.359635 -0.601572 -0.467896 0.000001 -0.290279 0.281589 0.071505 0.805026 0.316371 0.350363 0.128643 -0.162299 -0.533672 0.474611 -0.745448 -0.053848 0.286342 -0.217533 -0.411600
sent_111 0.120381 -0.414341 -0.029491 -0.072908 0.037460 0.034215 0.084870 0.123799 0.326240 0.486700 -0.130576 0.167228 0.150331 -0.250041 -0.175453 0.541497 -0.171275 0.123962 0.317865 -0.208767
sent_112 -0.841305 -0.504665 -0.425360 -0.374974 -0.634789 -0.243744 -0.948498 1.325896 0.817065 0.626302 0.158414 1.195016 0.019777 -0.948499 0.875132 0.690223 0.562053 0.444081 -0.888927 -0.164533
sent_113 -0.011331 0.664147 0.104612 0.018738 -0.023849 0.640320 0.517106 0.617957 0.246003 -0.729884 0.029272 0.409229 -0.064242 0.800663 0.428914 -0.208438 -0.725492 0.424093 0.347354 -0.527490
sent_114 -0.193136 0.242568 0.054597 -0.142845 0.020355 -0.088349 0.368448 0.753029 0.987344 0.177137 -0.094839 1.034768 -0.402759 -1.439592 1.246367 0.781111 0.429403 0.006610 -1.134603 -0.134158
sent_115 -0.538278 -0.313375 0.277061 0.502407 -0.297801 -0.581201 -0.258346 0.137351 -0.104513 0.694204 0.261541 -0.041457 -0.149640 0.460364 -0.013284 -0.453361 0.057499 -0.311399 -0.251774 0.292655
sent_116 0.344131 -0.917939 0.966093 0.052986 0.579302 -0.472008 -0.292944 -0.467753 -0.157806 0.435946 -0.746231 0.082964 -0.228948 -0.745228 -0.440870 0.403818 0.747929 0.767529 0.035991 -0.158158
sent_117 0.751742 -0.957610 0.373329 -0.801736 0.512359 -0.709068 0.383349 0.176925 -0.397928 0.931492 0.587984 -1.058600 -0.137923 -0.267696 0.121089 -0.453258 0.177804 -1.099455 -0.721783 0.098812
sent_118 -0.849143 0.015625 0.294357 0.035421 -0.003242 0.226731 0.194660 -0.557183 -0.370739 0.525304 0.859341 -0.396340 -0.315819 -0.310893 -0.709068 0.413543 -0.455141 -1.025730 -0.168256 0.080797
sent_119 0.100119 -0.547155 0.112102 -0.354797 -0.157132 0.308536 0.533172 -0.145253 -0.663567 1.124313 0.518066 -0.411363 0.084351 0.081625 -0.026270 -0.251369 0.263893 -1.034347 -0.704455 0.327596
sent_120 -0.027991 0.420329 -0.412843 -0.584262 0.045682 -0.420081 -0.135272 -0.222923 0.069372 0.287618 -0.191701 -0.357760 0.196552 0.547698 0.148675 0.224239 0.735861 -0.531754 0.187274 -0.456451
sent_121 0.719795 0.087248 0.014903 0.403916 0.576232 -1.120695 0.566002 -0.387049 -0.110230 0.226721 0.110571 1.132835 -0.822374 -0.914225 -0.835925 0.864716 0.121410 0.784208 -0.900706 -0.080298
sent_122 -0.881274 -0.495823 0.146716 -0.228016 0.139527 -0.509955 -0.000752 -0.127169 -0.373282 0.431284 0.479694 -0.061781 -0.529789 0.249263 -0.490637 -0.441747 0.047790 -0.238715 -0.517927 0.178397
sent_123 0.136231 -0.249664 0.161463 -0.018935 -0.140059 -0.444624 0.381007 -0.585670 -0.294742 0.325540 0.880521 -0.695741 -0.892847 -0.270766 -0.655123 -0.443116 0.091631 -1.226691 -1.104492 0.509939
sent_124 0.911655 0.950981 -0.711938 0.229457 0.301788 0.720445 0.315364 0.719437 -0.021741 0.388068 -0.300652 0.259566 0.369739 -0.155780 -0.608529 -0.206316 -0.842956 0.728406 0.153469 0.024789
sent_125 0.168374 -0.148839 -0.288568 0.226770 -0.236788 0.861051 0.523413 -0.335810 0.767780 0.204919 -0.007139 0.023556 0.086087 0.306926 -0.388585 0.245978 0.183468 -0.015723 0.078251 -0.327560
sent_126 -0.725900 -1.198044 0.432743 0.135659 -0.267030 0.023390 0.226682 0.468676 -0.359540 0.539325 1.162503 -0.798204 -0.384661 -0.177674 -0.274394 0.243094 -0.352149 -0.817793 -0.336052 0.337018
sent_127 -0.304243 -0.281808 0.382805 -0.194852 -0.327688 -0.006466 0.076275 -0.710440 -0.252648 -0.276504 -0.142923 0.388742 -0.154060 -0.239341 -0.074198 -0.245313 -0.664201 -0.285759 -0.099488 -0.002718
sent_128 0.815026 -0.080543 0.061961 1.106172 -0.567425 -0.088923 0.233032 -0.119201 0.056042 0.117082 -0.633339 0.062992 0.356727 -0.809907 -0.464681 0.089208 -0.186639 0.274877 -0.098982 -0.553855
sent_129 0.659414 0.572099 -0.001005 0.016952 -0.163401 0.736112 0.092831 -0.212693 -0.427422 -0.748161 0.008743 -0.199706 0.793201 -0.022459 0.344403 -0.135660 -1.498915 -0.407271 0.799347 1.378674
sent_130 -0.770333 0.552270 0.039050 0.191712 0.021140 0.225303 0.694309 -1.089783 -0.053720 -0.319359 -0.824150 0.601422 -0.278904 -1.155865 0.806494 -0.491495 0.479585 -0.577335 0.219449 -0.095911
sent_131 -0.542927 -0.076327 -0.075825 -0.024067 -0.456631 0.167675 0.510044 1.125117 0.002347 1.019440 0.559491 0.421655 -0.626297 -0.631747 0.514945 0.827776 0.047023 -1.400962 -1.352313 -0.194339
sent_132 0.279659 -1.036938 0.256948 0.416295 0.211517 -0.341997 -0.388252 -0.173120 -0.106862 0.691342 0.132998 -0.338921 -0.126691 0.621553 0.122125 -0.806435 0.118711 0.697505 -0.575076 1.013747
sent_133 -0.306587 -0.036381 0.028161 -0.088523 -0.660608 0.525627 -0.106557 -0.771944 0.477507 0.259865 0.123767 0.196410 0.306069 0.817643 -0.240063 -0.349092 -0.260609 -0.527710 0.308730 0.454440
sent_134 -0.562546 -0.617371 -0.358499 0.437442 -0.348168 -0.345049 0.902865 -0.204969 0.122042 0.327595 -0.472841 1.266215 -0.048211 -0.245331 0.618094 0.157575 0.253803 -0.258617 0.377873 -0.535699
sent_135 0.033929 -0.078081 -0.493538 -0.052506 0.060653 -0.207287 0.201385 0.401051 -0.421006 0.545158 1.080955 -0.189632 -0.076127 -0.113900 -0.384844 0.287053 -0.346188 -1.022822 0.008929 0.137072
sent_136 0.269925 1.306175 0.919063 -0.927837 0.476182 -0.040291 -0.085599 -0.295732 1.057564 -0.045335 -0.376690 -0.409463 -0.122791 -1.790497 1.126924 -0.011460 0.319453 0.126112 0.710923 -0.354622
sent_137 0.204715 0.534800 0.470962 -1.079932 -0.033485 -0.375752 -0.017347 -0.158891 -0.044785 0.502136 0.256251 -0.521229 -0.805461 -1.588915 0.914983 -0.969041 0.228585 -0.487260 0.155025 0.104449
sent_138 0.358354 0.126414 0.048550 0.028154 0.438191 -0.721733 0.856626 -0.495936 0.271729 -0.460365 0.244942 0.189611 0.237277 0.133524 0.628448 0.018918 0.055490 -0.114292 -0.760946 -0.604169
sent_139 0.867503 -0.226651 0.067467 -0.431469 0.598250 -0.970140 0.903364 1.429025 0.204478 0.074936 0.512754 -0.284450 -0.006019 0.469687 0.985583 -0.175442 0.148263 0.123073 -0.359619 -0.325130
sent_140 0.195511 -0.278515 -0.087637 0.288920 -0.466796 0.166877 0.226659 0.111595 0.029422 -0.123387 0.053410 0.328112 0.040136 -0.096721 -0.016608 0.273013 -0.419198 -0.329516 -0.339763 0.630721
sent_141 -0.158077 -0.395174 -0.137053 -0.202299 0.168754 0.475288 0.235772 0.080114 0.153205 0.874159 -0.830734 0.380948 -0.410166 -0.136066 0.787250 -0.109733 -0.677200 0.956686 -0.015895 -1.665969
sent_142 0.971325 0.680787 -0.013207 -0.587308 0.376087 0.047030 0.422884 0.078540 0.093153 0.167150 -0.034405 0.617192 -0.191371 0.434569 -0.381931 0.271711 -0.738807 0.570850 0.756256 0.038666
sent_143 -0.119170 -0.683915 0.267189 0.104550 0.120488 -1.126295 0.173287 0.859803 0.354694 0.691607 0.681803 -1.115693 0.164539 0.137386 0.408504 0.628631 0.244348 -0.683356 -0.130569 0.111198
sent_144 -0.702540 -0.096439 -1.608601 0.241934 -0.002180 -0.888092 0.319527 -1.062001 -0.111179 -0.287907 -0.960652 0.931707 -1.003283 1.046124 -0.549139 0.310115 -0.802120 0.224115 -0.381367 -1.674335
sent_145 0.289081 -0.797523 0.672755 -0.021164 1.094258 -0.568958 -0.060910 0.219178 0.625297 0.114230 0.415451 -0.704585 0.443338 0.076828 0.684915 -0.051563 0.348205 -0.451262 -0.477624 0.234674
sent_146 -0.459319 -0.762158 0.117447 -0.226058 -0.055000 -0.387030 0.731189 0.184289 -0.614121 0.901318 0.796217 -1.072036 -0.923965 -0.106348 -0.266562 0.209224 0.210088 -1.063521 -0.622817 0.338365
sent_147 -0.130040 0.190947 0.019846 -0.086930 0.274123 -0.211262 0.580959 -0.571403 0.138351 0.067590 0.039377 0.280109 -0.089825 -0.067613 0.698248 -0.178400 0.085412 0.255244 0.006391 -0.603111
sent_148 -0.261336 0.188308 -0.303326 -0.128112 0.003514 -0.219166 0.434739 -0.280032 -0.567201 -0.295382 -0.241790 0.434065 -0.497542 -0.592667 1.329206 -0.860967 0.502962 -0.478298 0.522038 0.071395
sent_149 -0.031304 0.149399 -0.430871 -0.196131 -0.388876 -0.113090 0.122050 0.052549 0.413890 0.352237 0.465142 0.323741 -0.015994 -0.289710 -0.017207 0.676724 0.422927 0.280586 0.075894 -0.157826
sent_150 0.482276 -1.187275 0.271744 0.260040 0.323125 0.154164 0.389830 0.274605 0.043789 0.024645 -0.767190 -0.023619 0.569151 -0.487981 -0.277494 0.072112 0.412943 0.835796 0.119358 -0.121390
sent_151 0.556207 -0.054345 0.369198 -0.245701 -0.271509 0.473596 -0.819716 0.167446 -0.220864 -0.642639 -0.241247 0.239116 0.046968 1.102435 -0.118054 -0.252947 -1.333157 -0.240294 -0.433306 0.966034
sent_152 -0.344744 0.350933 -0.310706 0.568469 -0.040271 0.338656 0.712585 -0.780731 0.208432 -0.584366 -0.518668 0.286787 0.787715 -1.022965 0.804309 -0.323700 0.264151 0.365804 1.168468 0.206871
sent_153 0.454377 -0.762306 -0.122324 0.058137 0.140993 0.154718 0.061563 0.135476 0.781799 0.805728 -0.331365 1.395336 -0.807132 -0.730792 -0.023939 -1.042908 0.510739 1.021641 -0.905566 0.172115
sent_154 -1.099265 -0.101644 -0.302907 -0.056589 -0.440515 -0.135724 -0.158295 -0.506881 0.117347 -0.383877 -0.224421 -0.186105 -0.301391 -0.007165 -0.293360 0.010197 -0.419414 -0.066040 0.527053 0.329984
sent_155 -0.470232 0.214745 0.312595 -0.646636 -0.466435 -0.149488 -1.144746 -0.952044 -0.224039 -0.511944 -0.744856 0.129219 0.002244 0.073069 -0.249494 -0.034442 0.192732 -0.354286 0.180363 1.041594
sent_156 -0.748603 0.079787 -0.019116 0.227996 -0.435505 0.192460 0.241823 -0.259111 0.231041 -0.274255 0.023028 0.154796 -0.026448 0.902401 0.288088 0.132343 0.324479 0.109423 0.214003 -0.069303
sent_157 0.534999 -0.910001 0.535347 -0.103115 -0.246577 -0.095410 0.613789 -0.305801 -0.902462 0.544475 0.466361 -0.201265 -0.495064 -0.180562 -0.174706 -0.374193 0.442512 -0.965562 -1.136344 0.473814
sent_158 -0.701752 -0.450293 -0.028715 -0.626008 -0.234386 0.536457 0.161144 0.192667 0.363584 0.371676 0.525270 1.109500 0.424152 -0.270109 0.679386 0.122113 -0.079453 -0.653564 -0.185595 -0.353864
sent_159 0.137665 0.168508 0.218174 0.210983 -0.328465 -0.104836 0.134054 -0.630386 0.367236 0.324843 0.239129 0.430159 -0.226488 0.381093 0.092643 -0.117146 0.312839 0.332324 0.528890 -0.431046
sent_160 -0.082060 0.126847 0.045208 -0.255486 0.019663 0.275865 0.506624 0.044136 -0.127230 -0.183344 -0.371693 -0.147941 -0.209409 0.747922 0.102587 -0.255708 -0.590250 0.473602 -0.033938 -0.298987
sent_161 -0.260596 0.447393 -0.520352 -0.166980 0.315000 0.195667 -0.094280 -0.931231 0.118739 0.203043 0.156660 0.145928 -0.041341 0.135444 0.148158 0.317039 -0.008219 0.382330 0.552334 -0.414039
sent_162 0.841013 -0.178159 0.589893 -0.406610 0.327200 -0.168056 0.244839 -0.003511 0.097745 -0.019791 -0.045147 0.010031 -0.215980 -0.946115 -0.210050 -0.045032 0.596250 0.240648 0.464138 -0.646188
sent_163 0.168804 0.391962 0.544779 0.252045 0.107298 0.836955 0.117048 -0.285735 -0.316223 -0.844212 -0.582838 0.069704 0.316227 -0.887896 0.434694 0.174678 -0.712177 -0.294864 0.900943 0.873226
sent_164 -0.008610 0.001065 0.152062 -0.373794 0.455802 -0.062573 0.205118 -1.084454 0.215679 -0.099792 -0.316148 0.049143 -0.098135 -0.102051 -0.664698 -0.234955 -0.858422 0.438676 0.141682 -0.413458
sent_165 0.258767 -0.943655 0.634049 -0.044347 0.204148 0.081731 0.086810 -0.620432 0.992187 0.080777 -0.090042 0.455049 -0.289460 -0.141297 -0.497342 -0.449664 0.123430 0.424632 0.010684 0.781170
sent_166 0.441433 0.215624 -0.374583 1.558608 -0.426183 -0.442856 0.215169 -0.149101 0.682542 0.055862 0.208535 0.297571 -0.245255 -0.067939 0.292211 -0.677017 -0.025741 0.251536 0.197669 -0.399826
sent_167 0.040264 -0.166332 -0.167669 0.654222 -0.394529 0.988119 -0.046086 0.322491 0.274946 0.063910 -0.463180 -0.388759 -0.129929 0.556559 0.192794 0.094284 -1.202741 0.126695 -0.064119 -0.921812
sent_168 -0.204575 -0.536698 -0.496699 -0.000297 0.387227 0.276849 -0.375502 -0.250383 0.302430 0.413942 0.046676 0.081799 -0.246544 0.104022 0.494020 -0.236841 -0.011580 -0.512582 0.273560 -0.390968
sent_169 -0.069907 0.279492 -0.070453 -0.426057 -0.054772 0.189412 -0.558637 -0.796610 0.444332 0.348134 -0.028278 -0.073340 0.966726 -0.143007 -0.973017 -0.727328 0.103598 0.083438 -0.389950 0.626920
sent_170 -0.413480 -0.093213 0.040197 -0.154463 -0.158948 -0.203223 0.281558 -0.180111 0.725257 1.008714 0.785391 0.525004 0.400612 0.479960 0.102584 -0.018638 -0.105477 0.660179 -0.253374 -0.072587
sent_171 -0.077876 -0.189774 -0.020114 -0.036823 -0.380123 -0.426384 -0.496565 -0.217158 -0.088941 0.647811 0.153267 0.016363 0.139941 0.430772 0.242823 0.105092 0.543367 0.278251 0.703174 0.079528
sent_172 -0.157477 -0.024468 0.186755 -0.225093 -1.272639 0.406899 0.906575 0.252343 0.411296 0.532987 -0.245927 0.583679 0.269846 0.430082 0.633968 0.127139 -0.310422 0.441932 0.445638 0.605986
sent_173 -0.079272 0.980484 0.353449 -0.139564 0.503639 -1.309715 0.775268 0.228144 0.376047 -0.427220 0.909107 0.177246 -0.712005 -0.804287 0.004238 -0.870741 0.354090 -0.322863 -0.219001 0.186154
sent_174 -0.059860 0.187494 -0.484914 -0.659619 -0.466661 -0.133318 -0.076176 -0.518885 0.753341 0.292338 0.134598 -0.076205 -0.354000 0.671987 -0.050337 0.074521 0.309615 0.090651 0.424331 -0.014647
sent_175 -0.169673 0.344726 -0.138476 -0.074871 0.258955 0.310172 -0.181943 -0.172677 0.932769 0.582691 -0.163804 0.079373 -0.005760 -0.363505 0.005807 0.413402 0.327466 0.302783 0.302043 -0.230782
sent_176 0.065713 0.207902 -0.531613 -0.090992 0.234256 0.105925 -0.058182 0.561533 0.112667 0.294958 0.272494 0.156553 0.207262 -0.207319 0.558411 0.229778 -0.238137 0.071838 0.221396 -0.201584
sent_177 0.235588 1.144246 0.150780 -0.415971 -0.074885 0.626191 0.633098 -0.094961 -0.882948 -0.574042 0.148407 0.819243 -0.775341 -0.282199 0.935524 0.180000 -0.760236 -0.312764 0.347435 0.591249
sent_178 0.324658 0.620232 -0.171339 0.382406 -0.335200 0.156702 -0.331686 0.247203 -0.366186 -0.011688 0.443874 0.369308 0.099251 0.071426 -0.225381 -0.053756 -0.347767 0.379175 0.677204 0.117379
sent_179 0.356016 0.274101 -0.548844 1.147994 0.483417 0.511669 0.005049 0.320162 0.237132 0.109865 -0.692068 -0.655953 0.657394 0.471405 -0.131800 0.245930 -1.196381 0.315872 -0.295859 -0.161616
sent_180 0.380611 -0.512054 0.352920 -0.804213 0.627458 -0.586762 0.067123 0.594116 0.105701 0.356753 0.067577 0.028775 0.441333 -0.335404 1.093525 -0.163262 0.440213 -0.004492 -0.124715 -0.077167
sent_181 0.168361 0.041217 -1.061911 0.273057 0.017359 -0.029982 -0.009245 -0.321348 0.045824 -0.164808 -0.437515 -0.004088 -0.879255 0.687549 -0.721645 0.912999 -0.650737 0.058990 0.249339 -0.741467
sent_182 0.845026 -1.005091 -0.025650 -0.388554 0.369255 -0.314414 0.587726 -0.074742 0.373494 0.592866 0.161514 -0.556502 -0.802437 -0.717879 -0.919398 0.363536 1.017763 0.235566 0.166265 -0.264152
sent_183 0.329316 -1.290151 0.616869 0.150360 0.084112 -0.343979 -0.128152 -0.027007 1.207700 0.126927 -0.078251 0.375889 0.032059 -0.215827 -0.816107 -0.696298 0.743254 0.576715 0.522701 0.578168
sent_184 0.143989 -0.093329 0.098015 -0.512962 -0.629912 0.491531 0.029186 0.003979 -0.703320 -0.659790 -0.491919 -0.094908 0.103906 0.065724 -0.143481 0.117926 -0.837802 -0.924038 -0.614088 0.264368
sent_185 -0.606373 -0.656466 0.127571 0.307304 0.178668 0.184453 0.329984 0.308013 0.654036 0.474177 0.997432 -0.371798 -0.147417 0.058196 0.699680 0.679052 -0.278167 -0.895057 0.014536 0.724011
sent_186 0.132002 -1.098050 0.228582 -0.575067 -0.128955 0.574225 0.206092 0.800588 0.523225 0.743388 0.147933 0.113288 -0.391347 -0.204744 0.112215 -0.115009 -0.387054 -0.058102 0.062185 -0.232068
sent_187 0.205200 0.454315 0.167770 -0.188278 -0.272358 0.154742 -0.356211 0.267161 0.140914 -0.605012 -0.452445 0.152329 0.291307 0.397261 -0.489050 0.083033 -0.265719 -0.081040 0.458929 0.512237
sent_188 0.429811 -1.064299 0.474554 -0.303598 0.099669 -0.924250 -0.982763 -0.191209 0.131758 -0.712536 -0.358917 -0.452353 0.530939 1.028689 -0.342560 -1.698234 0.328585 0.816886 -0.288388 0.811563
sent_189 0.426999 -0.488384 0.382729 -0.143332 0.143858 -0.383931 0.658603 -0.045125 0.021942 -0.329595 -0.367043 0.441705 -0.253273 -0.320425 -0.162575 -0.338444 0.373379 0.275480 0.491167 -0.375043
sent_190 0.103463 0.193934 0.038720 -0.577264 -0.379931 -0.202700 0.405158 0.382118 0.531967 0.093520 0.469851 -0.170835 0.374997 0.316559 0.758543 -0.012436 0.544384 -0.217012 0.198618 -0.048563
sent_191 -0.109025 -0.371521 0.404303 -0.491854 -0.079178 -0.478099 -0.103278 0.083429 -0.239342 -0.169178 0.648689 -0.631936 0.028026 0.027047 -0.163348 -0.202983 0.340422 -0.521655 -0.276378 -0.206710
sent_192 0.814472 0.586528 0.268796 0.209308 -0.207582 -0.580561 0.313033 -0.593513 0.512514 0.386181 -0.803817 0.240516 -0.269039 -0.613491 0.629263 0.014502 0.683607 0.537295 -0.116174 -0.249869
sent_193 1.277304 -0.007145 -0.644512 0.549440 -0.168088 0.263616 0.403410 0.994493 -0.221650 0.242947 0.106913 0.437871 1.081512 -0.180988 -0.260283 0.061615 -0.699856 -0.053596 -0.245086 0.168093
sent_194 0.520321 -1.280587 0.059984 0.053046 0.563664 0.186793 0.772421 0.412240 -0.095843 0.149664 -1.057864 1.015237 -0.306347 -0.371186 0.112703 0.065386 -0.295726 0.090051 -0.210248 -0.859553
sent_195 0.070268 0.088587 -0.043289 -0.455950 -0.280652 -0.142829 -0.154258 0.057054 0.709488 -0.111855 0.268165 0.208149 0.516400 0.146474 -0.239142 -0.179847 0.138530 -0.421224 0.551348 -0.029676
sent_196 0.889342 1.346238 0.749338 -1.691828 0.421446 -0.700959 -0.424687 -0.227508 0.972586 -0.082321 -0.109086 -1.161938 -0.133907 -1.365829 1.137885 -0.424159 -0.111055 0.333552 0.779245 -0.244070
sent_197 -0.903991 -0.672641 -0.461233 -0.084948 -0.383641 0.259436 -0.061176 0.537382 0.123613 0.797791 -0.533094 0.339457 0.026813 -0.493082 1.255682 -0.155672 -0.140244 -0.162778 -0.406240 -1.102353
sent_198 1.299597 0.875456 0.660945 -1.375586 -0.285481 -0.554325 0.477653 -0.569155 -0.011374 0.239566 0.253053 -0.334549 -0.186412 -0.259223 0.732518 -0.036891 0.136694 0.490998 0.649921 -0.720762
sent_199 -0.067461 -0.578126 -0.079220 -0.750431 -1.092447 -0.183019 -0.146809 1.034291 0.912605 0.576144 0.085691 0.523155 -0.148352 -0.849652 0.557428 0.169162 0.394309 0.283650 -0.816246 0.504107
sent_200 -0.309899 -0.342657 -0.188964 -0.466116 -0.261654 0.111305 0.031663 1.309740 -0.546931 0.878115 0.604912 -0.132712 -1.335912 -1.233260 0.143705 0.716389 -0.012505 -1.332303 -1.077486 0.420862
sent_201 0.006797 -0.647414 0.519300 0.760208 0.714154 -0.732010 0.258425 0.270178 0.366470 0.082277 0.056405 0.248150 -0.260265 -0.628766 0.230583 -0.094016 0.892359 0.410708 0.339256 0.374220
sent_202 -0.056895 -0.793684 0.114120 0.423500 0.482147 -0.182996 0.440257 0.328741 -0.350494 1.082998 0.562552 -0.616025 -0.455951 0.558419 -0.520199 -0.565546 0.410460 -1.148970 -0.576598 0.269353
sent_203 0.711337 -0.698056 0.423819 -0.529312 -0.041720 0.105657 -0.699260 0.167968 0.518737 -0.447130 -0.823804 -0.197382 0.229271 -0.508967 0.475009 -0.060868 0.768542 -0.998419 -0.504016 0.379942
sent_204 -1.113500 0.752147 0.480930 -0.126007 -0.189363 0.409797 0.392253 -0.488447 0.464575 0.021049 -0.228735 -0.089057 0.307671 -0.420856 0.188588 0.144304 -0.066644 0.270626 0.269139 -0.353286
sent_205 -0.399005 -0.197876 -0.045864 -0.733815 -0.161996 -0.761174 0.190121 -0.475134 0.765746 0.162176 -0.181797 -0.454613 0.469981 0.202942 1.065224 0.467363 -0.035675 0.191737 0.350601 -0.525344
sent_206 0.661699 -0.023466 -0.099622 0.452058 0.005895 -1.027031 0.581551 -0.041932 0.547592 0.724765 -0.036079 1.028775 -0.525356 -0.991464 -0.289520 0.837559 0.958617 0.352705 -1.010809 -0.348075
sent_207 1.083436 -0.376018 0.255163 -0.251317 -0.457433 -0.321561 -1.329324 -0.429052 1.408183 0.060896 0.043358 0.545175 -0.075050 0.163960 -0.717620 -1.048251 -0.193695 0.404356 -0.985299 1.306547
sent_208 0.851180 0.215757 0.738160 -0.995627 0.022316 -0.618751 -0.179946 0.300150 0.304014 0.161221 -0.250983 -1.126665 0.166150 -0.735355 0.517934 0.086234 0.141023 0.197204 0.331088 -0.356751
sent_209 -0.007372 0.884882 0.019175 0.390621 0.587236 0.398774 0.138000 0.613811 0.831579 0.232226 -0.703014 0.184311 0.129943 -0.628592 0.541570 -0.106913 0.078349 0.472838 -0.101272 -0.066989
sent_210 -0.115588 0.058748 -0.363741 -0.176583 -0.413832 0.021127 -0.065215 -0.833401 -0.106796 0.359857 -0.035587 -0.382292 0.356524 0.222114 -0.194954 0.149801 0.652604 -0.249937 0.499648 0.294261
sent_211 0.072728 0.193949 -0.087145 -0.309324 0.059587 -0.036606 0.300935 -0.238346 0.081279 -0.018621 0.600335 0.462795 0.391358 0.146328 0.620277 -0.153677 -0.110028 0.362800 0.307128 0.351321
sent_212 -0.012823 -0.229805 -0.809710 -0.711129 -0.606484 -0.478990 0.035546 -0.254645 0.625660 -0.276535 0.279892 -0.293497 -0.517576 -0.543689 -0.031523 -0.027271 0.663203 0.151106 0.187735 -0.072488
sent_213 0.596162 -0.478576 1.106076 0.992841 -0.003529 -1.098521 0.298232 -0.853940 0.661116 0.268242 -0.123768 0.250812 0.266038 -0.921348 -0.022321 0.309215 0.489490 0.759931 -0.052403 -0.068543
sent_214 0.240519 0.286693 -0.460410 -0.174101 0.317167 -0.090150 -0.476704 0.169926 0.775604 1.056445 -0.369813 0.038706 0.267725 -0.306310 -0.492131 0.322384 -0.922237 0.359568 -0.248173 -0.427974
sent_215 -0.048124 -0.273477 -0.543482 0.530362 0.254276 0.980356 0.372305 1.104833 -0.088553 0.081828 -0.733088 0.448253 0.478306 0.295418 -0.407064 -0.181496 -1.240814 -0.271100 1.059906 -0.730569
sent_216 0.779923 -0.922957 -0.250798 0.582644 -0.328154 -0.145976 -0.035699 0.079074 -0.181361 0.725141 0.056120 0.004007 0.013756 0.161397 -0.458742 -0.163643 -0.590824 0.271572 -0.136916 -0.104039
sent_217 0.065753 0.403339 -0.171644 -0.665793 -0.623187 0.228055 -0.234100 0.783289 0.054034 -0.472969 -0.289808 0.686860 0.295950 0.511203 0.007836 0.555028 -0.439851 -0.344314 0.137368 0.446011
sent_218 0.401357 0.922401 -0.738920 -0.010663 0.447664 0.052667 0.538414 0.426190 0.449118 0.003748 -1.065826 0.464286 0.023716 0.464703 -0.166616 0.733450 -1.652991 -0.311242 0.888419 0.486093
sent_219 0.902876 0.708098 -0.301504 0.214637 -0.156861 -0.030881 0.975369 -0.427687 -0.081173 -0.438744 0.035126 0.169323 0.040793 -0.713580 0.575738 -0.257483 0.145493 -0.549510 1.134080 0.471606
sent_220 0.291858 0.452894 0.050484 0.420005 -0.266193 1.106933 0.052799 0.219991 0.267079 -0.509667 -0.073581 0.312296 -0.351831 -0.423792 -0.171472 0.239176 -0.647423 -0.396108 0.224899 0.224431
sent_221 0.093243 0.775435 0.161337 0.537324 -0.803479 1.211314 0.296393 0.265810 -0.271603 -0.142058 0.481299 0.287979 0.327427 0.112972 0.202372 -0.110252 -1.189149 -0.006584 -0.213312 0.194546
sent_222 0.094844 0.258369 -0.298172 -0.142292 0.219853 0.404604 1.144161 0.412820 -0.127648 -0.145159 0.326411 -0.654548 0.620722 0.253230 0.615801 0.439444 -1.064006 0.253691 0.054602 0.121189
sent_223 0.189144 0.132277 0.004038 -0.262524 -0.150371 0.204745 -0.144854 -0.500452 -0.277972 -0.004293 0.332329 0.066947 0.085637 -0.147185 -0.158183 0.032174 -1.435487 0.563119 -0.167678 -0.269433
sent_224 -0.093023 0.188278 -0.184058 -0.156970 -0.125105 -0.170369 0.294472 0.007662 0.506021 0.154036 0.304616 0.150303 0.194348 0.064369 -0.175372 -0.040067 -0.274150 0.684565 0.304060 0.385590
sent_225 0.561856 0.382613 0.017564 0.159956 -0.367752 0.867205 -0.500252 0.113399 0.405061 -0.395977 -0.724101 -0.180190 -0.531962 -0.133568 0.531322 0.038678 -0.602400 -0.829238 -0.596051 -0.090910
sent_226 0.947177 -0.074578 -0.738188 0.620050 -0.864631 1.263570 0.111417 0.317464 0.056253 -0.228747 -1.355267 -0.902898 0.115251 0.651629 -0.011408 0.212339 -1.863564 -0.413333 -0.605597 -0.631164
sent_227 -0.238490 0.297598 0.198023 -0.298273 -0.873564 -0.066673 -0.494555 -1.011622 0.092516 -0.167403 -0.126040 -0.010068 0.159453 -0.038385 -0.356253 0.562792 0.333879 -0.228833 -0.443594 1.001199
sent_228 -0.172983 0.552748 0.544431 -0.159848 -0.399653 0.984178 -0.025860 0.126171 -0.168862 -1.213627 -0.886017 0.287203 -0.112008 -0.973313 0.133360 0.849678 -0.474533 -0.661941 0.302245 1.140080
sent_229 -0.041954 -0.911176 0.361770 -0.152531 -0.368915 0.216773 0.050818 -0.517231 -0.026129 0.743524 0.138425 -0.219251 0.083581 0.670087 0.294914 -0.561177 0.036171 -0.291651 0.293217 0.196385
sent_230 0.268554 -0.166712 0.742343 -0.071343 -0.654938 0.369816 0.293972 -0.322052 0.315069 0.562960 -0.533644 0.585916 -0.743682 -0.357891 -0.053798 -0.309006 0.370232 -0.113121 0.013458 -0.018052
sent_231 -0.120832 0.099967 -0.175329 -0.698441 -0.663528 0.000020 -0.393819 0.017793 0.782768 0.229813 0.577792 0.299314 -0.235831 -0.508890 0.963059 0.111602 0.653301 -0.082470 -0.066751 0.027672
sent_232 -0.029718 0.215606 0.307389 -1.180532 -0.531276 -0.820232 -0.262953 -0.663807 0.594345 0.303344 -0.187860 -0.173094 -0.074160 0.525231 0.209087 0.243855 -0.075170 -0.235102 0.415744 -0.119688
sent_233 0.087349 0.555742 -0.350311 1.337414 0.393391 -0.492308 0.706523 -0.284935 0.813272 -0.274043 0.489716 -0.815036 -1.231286 -1.069585 0.934650 -0.420962 0.555385 -0.164398 -0.652553 0.192064
sent_234 0.316004 -0.106145 0.024296 0.324886 0.029663 -0.590084 0.690933 -0.642617 0.845543 -0.828409 -0.219454 0.209991 0.404825 -0.981184 0.889489 -0.095481 0.777456 -0.126508 -0.810643 -0.014975
sent_235 0.158181 0.381977 -0.055207 -0.295227 -0.023823 0.395868 0.456176 -0.258591 0.334722 -0.359468 -0.701456 0.285262 0.061447 -1.017118 0.053806 0.205322 0.474870 0.177443 0.008062 -0.259000
sent_236 0.510342 -0.419644 -0.237524 -0.153880 0.033329 -0.002281 -0.089436 0.311062 -0.136113 -0.417268 -0.017183 0.002525 -0.154988 0.463629 0.252969 0.108485 -0.658173 -0.080897 -0.274074 -0.118821
sent_237 -0.193147 0.238793 0.084373 -0.096120 -0.324403 0.062265 -0.114100 0.937677 0.562394 0.941489 0.093861 0.855233 -0.521256 -0.474944 0.792334 0.699856 0.357692 -0.015977 -0.190979 -0.278141
sent_238 0.316780 0.134063 0.558930 -0.600053 -0.475060 -0.221695 0.519545 -0.399070 -0.305672 0.090603 -0.206838 0.231504 -0.165532 -0.167690 0.138888 0.073561 0.397265 0.467917 -0.085604 -0.450599
sent_239 0.635885 0.502673 -0.421104 0.123447 0.405067 -0.403071 0.132921 -0.230935 1.232189 -0.685096 0.361302 0.336780 -0.556583 -0.814106 0.082905 -0.744911 -0.116738 0.055875 0.169132 0.091143
sent_240 -0.255907 0.692959 -0.514308 -0.218754 -0.064795 0.138886 -0.202287 -0.479274 -0.132316 0.188062 0.262206 0.725831 -0.152896 0.172479 0.920619 0.159471 -0.385612 0.103054 0.182333 -0.117761
sent_241 0.207244 0.425586 -0.366004 0.478646 -0.852076 0.862514 -0.166159 -0.331768 -0.081075 -0.609248 -0.631078 0.938051 -0.354466 -0.677478 0.084873 0.326328 0.358812 -0.225985 1.247203 0.123015
sent_242 -0.340163 0.643579 -0.191925 0.132413 0.234139 0.329537 -0.226033 0.271934 0.470153 0.309279 0.206699 0.861203 -1.407839 -1.265763 1.284241 -0.177361 0.383475 -0.330980 0.017482 0.218864
sent_243 -0.035501 -0.808599 0.448986 -1.122370 -0.626229 -0.798141 -0.617487 -0.155268 0.764434 -0.143661 -0.082009 0.289590 0.220486 0.789735 -0.695851 -2.046996 0.021457 1.260816 0.092816 0.683639
sent_244 0.047765 -0.242657 0.406108 0.598567 -0.175818 -0.298446 0.306275 -0.503187 0.706737 -0.012577 -0.159877 -0.060361 -0.579627 -0.641068 -0.281318 1.021016 0.242397 0.258259 0.104755 -0.286520
sent_245 -0.119347 0.157451 0.045622 -0.251099 0.056249 0.471328 0.799785 0.076848 -0.113849 0.529025 0.287703 0.082720 0.129032 0.430612 0.402890 0.253165 -0.465379 -0.046006 0.109740 0.097966
sent_246 0.025698 -0.189474 -0.145117 -0.232565 0.523184 0.357689 -0.138641 0.090494 0.060171 0.452385 0.661585 -0.407659 -0.481110 -0.108247 -0.223594 0.735211 0.293690 -1.392917 -0.346199 -0.092166
sent_247 0.288754 -0.082051 -0.256848 -0.530139 -1.029025 0.819798 0.851238 0.041138 0.502382 -0.114451 0.254829 0.057627 0.092332 0.277333 0.196457 -0.188616 -0.146141 -0.189741 -0.134126 -0.112682
sent_248 -0.032343 -0.757924 -0.049692 0.752938 -0.100084 0.527323 0.138303 0.097582 -0.013072 -0.016865 -0.218654 -0.027129 0.741081 -0.040918 0.415772 0.304373 -0.062333 0.503417 0.347818 -0.903363
sent_249 -0.115918 0.322539 -0.302742 -0.327812 -0.240883 0.273671 -0.006511 -1.028906 0.342215 -0.130412 0.221477 0.188371 0.179142 -0.004615 0.168626 0.469605 0.521166 -0.150068 0.518826 0.463395
sent_250 -0.571550 -0.597590 -0.393453 -0.228651 0.070516 -0.653246 -0.093236 -0.184918 -0.307582 0.660533 0.468392 -0.320354 -1.069354 -0.111614 -0.096626 -0.348407 0.499149 -0.910201 -0.760206 0.445289
sent_251 0.596041 -0.535895 0.527523 -0.535628 0.338683 -0.823923 0.440204 0.035596 -0.157993 0.157960 -0.033163 -0.526129 0.743179 0.182757 0.919425 -0.104539 0.640293 -0.068601 -0.236675 -0.378943
sent_252 0.432766 0.269643 -0.155267 -0.165722 -0.622366 0.412762 0.390734 0.372272 0.926577 0.689358 -0.021830 0.180848 0.076472 -0.069029 0.150504 0.266022 -0.169017 -0.184620 0.533995 -0.335010
sent_253 0.268319 -0.004911 -0.019043 -0.517249 -0.253136 -0.703160 0.462482 0.232591 0.962601 0.017313 0.262097 0.359111 -0.257279 0.419998 1.378029 0.427164 0.682039 0.092984 -0.258642 -0.744237
sent_254 0.633461 0.228871 -0.479691 -0.205911 -0.169936 0.515012 0.155450 -0.074097 0.590396 0.395078 0.293404 0.164140 0.006115 0.203813 0.120279 0.245284 -0.607528 -0.155855 0.437701 -0.204094
sent_255 0.872670 -1.165974 -0.326520 -0.393062 -0.081579 -0.222700 0.386271 0.011131 -0.610342 0.153822 -0.069153 -0.943077 -0.585412 -0.364326 0.521955 0.199313 0.103160 -1.304191 -0.095489 -0.094041
sent_256 -0.425929 -1.314036 -0.315090 -0.033793 0.020877 0.232677 0.184775 0.308133 -0.537924 0.386910 0.093846 -0.464659 -0.950752 -0.598965 -0.124761 -0.489737 -0.040338 -1.811117 -0.685441 -0.347761
sent_257 0.573571 -0.713119 -1.088576 0.594241 0.242599 1.087587 -0.034670 0.649242 -0.682927 -0.012991 -1.791693 -0.097190 0.581658 0.352870 -0.049463 -0.285098 -2.148090 -0.299488 -0.289948 -0.945827
sent_258 -0.386652 0.912777 0.189046 0.354123 -0.232599 -0.338015 0.357764 0.266653 -0.155652 -0.385268 0.198076 0.178299 -0.355628 -0.593130 0.191759 -0.778793 0.102362 0.424550 -0.036239 0.072104
sent_259 -0.201591 -0.817293 0.664820 1.321063 1.121450 0.761495 0.173370 0.469051 0.320910 0.254288 0.843396 -0.256460 0.715221 0.555875 0.082563 0.008743 0.060122 -0.672794 -0.271177 0.556210
sent_260 0.001634 -0.276932 -0.060929 -0.148741 0.169418 0.436768 -0.083786 0.143566 0.104996 0.531018 -0.167153 0.504386 -0.147223 -0.190897 0.586740 -0.666498 0.301712 -0.206633 -0.256961 -0.143892
sent_261 -0.051887 -0.411574 -0.088150 0.115664 0.331086 -0.505628 0.193722 -0.118263 -0.179419 -0.077675 -0.036125 0.814857 -0.095381 -0.359413 0.403714 -0.560407 0.374912 0.197757 0.717171 0.003140
sent_262 0.170789 0.144742 -0.290591 -0.562437 -0.543987 0.146147 0.254319 0.233642 0.445632 0.159945 0.699643 0.000550 -0.497562 -0.381213 0.556493 -0.187583 0.362936 0.456628 0.095761 -0.018066
sent_263 -0.848069 0.394791 -0.404477 0.452283 0.394603 -0.629865 0.563488 -0.959913 0.846572 -0.174093 -0.114237 0.187610 -0.427257 0.276357 1.158174 -0.660954 0.140457 -0.071385 0.025930 -0.134111
sent_264 -0.244372 0.539168 -0.308999 -0.494597 -0.982460 0.197059 0.199350 -0.009680 -0.048556 0.264050 0.740143 0.103758 0.085395 -0.121738 0.321513 0.047850 0.008835 -0.094221 0.161083 0.124180
sent_265 0.626108 -0.231379 0.056549 0.177568 0.847933 -0.047059 0.444934 -0.412184 0.734296 -0.076220 0.337448 1.019192 0.263665 1.005678 0.328405 0.084464 -0.834278 0.276788 0.157423 -0.093995
sent_266 0.509967 0.267981 0.644577 -0.810572 -0.784362 0.352804 0.849549 -0.529777 -0.006976 -0.415735 0.321966 0.956320 -0.307647 -0.145193 -0.151923 -0.621224 -1.010914 -0.204527 0.318998 0.398890
sent_267 0.044059 0.501638 -0.256072 -0.258059 -0.490440 0.424630 -0.048812 -0.201210 0.064341 0.233643 0.826444 -0.332268 0.162239 -0.291431 0.254281 -0.052599 -0.073110 -0.172015 0.093551 0.426138
sent_268 0.235766 1.326408 0.248436 -1.031762 -0.145983 0.135259 0.048586 -0.621206 0.723500 -0.105135 0.020219 -0.268446 -0.462827 -1.209021 0.826326 -0.583551 0.110120 0.086038 0.606326 -0.379615
sent_269 -0.429322 -0.012398 -0.046490 0.390965 -0.286918 0.047905 -0.626074 -0.626615 0.178527 0.354707 -0.071963 0.112738 0.519743 -0.151285 0.169152 0.631399 -0.420251 -0.128090 -0.040235 0.871625
sent_270 0.131692 -0.156266 0.240066 -0.462339 0.233436 0.670276 -0.884690 -0.123404 0.330934 -0.727173 -0.585387 -0.146777 -0.879773 0.143038 -0.214145 -1.119669 -0.654624 0.690038 -0.420971 1.222114
sent_271 -0.118688 0.975473 -0.551300 1.743343 0.768409 -0.037421 0.340371 -0.522975 0.887399 -0.749868 0.147375 -0.561495 -0.791143 -1.398601 1.080733 -0.109452 0.442097 -0.017123 0.056291 0.677778
sent_272 0.277459 -0.035534 -0.819313 -0.248405 -0.128693 -0.211435 0.115689 -0.227523 0.268719 0.258972 0.175446 0.946539 -0.198644 -0.094699 0.661671 0.481704 0.041577 -0.070758 0.140810 -0.007911
sent_273 0.700215 0.736785 -0.346176 0.382413 -0.402420 0.762880 -0.044877 0.385229 0.044511 -0.213007 0.144340 0.196484 0.475460 0.682694 0.187353 -0.056752 -0.884861 0.170637 0.156159 0.081258
sent_274 0.528465 -1.013736 0.298675 -0.174185 0.149942 0.195295 0.640968 0.302296 -0.276898 -0.232261 -0.242976 -0.087468 0.008073 -0.545856 0.583129 -0.242968 0.684646 -0.286653 -1.095643 0.393317
sent_275 -0.033852 -0.046239 -1.085826 0.309622 0.574600 -0.269219 0.095538 -0.293596 0.127636 0.146806 -0.191991 0.916877 0.187717 0.392207 0.628216 -0.441443 -1.344808 0.511793 0.117801 -0.948920
sent_276 -0.586423 0.260438 0.240787 -0.023108 -0.397130 0.549730 0.121702 -1.204952 0.409199 -0.044767 -0.173394 -0.248683 0.614180 -0.695886 0.678853 0.724492 0.801110 -0.088393 0.089927 0.874110
sent_277 0.630006 0.044213 0.039145 -0.373485 -0.365607 1.180183 -0.793597 -0.238000 -0.259196 -0.648725 -0.755032 0.785418 -0.099400 -0.681982 -0.791021 -0.203790 0.396550 -0.721557 -0.213552 1.361443
sent_278 0.057632 0.296728 0.654678 -0.464088 0.233833 0.228972 0.056138 -0.319921 -0.052309 -0.053654 -0.046007 0.301167 -0.449280 0.284565 0.218150 -0.210741 -0.146149 0.432579 0.260901 -0.266500
sent_279 0.434770 0.279379 0.098166 0.534124 -0.281491 0.864191 -0.203717 0.380414 -0.149715 -0.347086 0.019504 -0.036685 0.082231 0.625978 0.422624 0.114951 -0.359282 -0.227998 -0.080874 0.057337
sent_280 0.903612 0.579804 -0.186682 0.443215 -0.048625 0.677796 0.198557 0.378858 0.370543 -0.089863 -0.022362 0.077808 0.258108 0.453900 -0.721475 -0.387418 -0.823354 0.593286 0.352485 0.320391
sent_281 0.363551 0.192369 0.483207 -0.766696 -0.264469 -0.422655 0.472043 -0.326637 -0.193630 0.459317 -0.002924 -0.061187 -0.076111 -0.024981 0.938126 0.866631 1.077066 0.025444 0.726077 0.250548
sent_282 0.562370 0.536920 0.056891 0.108506 -0.304217 1.361414 -0.599258 0.121038 -0.078144 -1.066234 -0.722476 0.171252 -0.144291 1.083532 0.241818 -0.189602 -1.240448 -0.600589 -0.766354 0.216729
sent_283 -0.324422 -0.439504 -0.161124 0.541462 -0.964074 0.284154 0.528984 0.040415 0.016029 -0.125286 0.220415 -0.587592 -0.372862 -0.703376 -0.828634 0.412685 0.469877 -1.584358 -0.575132 0.390511
sent_284 -0.849781 -0.110532 -0.092757 -0.171242 -0.871927 0.134213 -0.551293 1.206616 0.783718 0.874017 0.467595 0.994011 -0.163532 -0.895349 0.791789 0.580113 0.578748 0.117868 -1.094917 -0.008653
sent_285 0.566660 -0.641853 -0.160560 -0.112731 -0.042333 -0.285466 0.005810 -0.137548 0.152301 0.308677 0.229371 -0.356486 -0.573869 -0.471027 -0.824985 -0.307229 0.273340 -0.632797 -0.577542 0.703768
sent_286 -0.121686 -0.111689 -0.129378 0.315130 -0.502525 0.268128 -0.276019 0.583735 0.079806 0.754373 -1.127780 1.392923 0.456638 -0.710498 0.693198 0.978463 0.124202 -0.483354 0.248169 -0.666477
sent_287 0.508375 0.231723 -0.312720 -0.614382 0.038308 -0.565163 0.142759 -0.032718 0.824917 -0.248276 0.311483 -0.008414 -0.183526 0.045064 0.447939 -0.210820 0.556898 -0.035912 -0.242500 -0.229412
sent_288 0.187063 -0.708242 0.279980 0.183350 0.058421 -0.890785 -0.302491 -0.422607 0.492462 -0.050952 -0.194198 -0.010932 0.000995 -0.279237 -0.726980 -0.447920 -0.154591 0.413704 -0.212046 -0.280390
sent_289 0.582260 0.610839 -0.317842 0.297883 -0.358926 0.742770 0.155390 -0.195902 0.112622 -0.197184 -0.043266 0.383517 0.342792 0.567586 0.180988 0.515591 -0.966156 0.278343 -0.071640 -0.209768
sent_290 0.008193 0.163822 -0.405144 0.090138 0.113183 -0.074944 0.682307 -0.156040 1.038363 0.227535 0.585704 0.023082 0.379953 0.696560 0.664358 0.350753 0.342845 0.064647 -0.387605 -0.280556
sent_291 0.003878 0.252270 0.104374 -0.057088 0.124143 0.017648 0.010269 -0.252564 0.695706 0.010328 -0.312762 0.593136 0.428745 0.606095 0.348279 0.512827 -0.254389 -0.193034 -0.006295 0.052326
sent_292 0.041613 -0.288201 0.022190 0.024231 -0.423625 -0.313665 0.383706 0.200607 0.619180 -0.053694 -0.598049 0.123010 0.203835 0.370945 -0.573392 -0.192999 -0.558549 0.410373 0.189019 0.547817
sent_293 0.780913 0.354344 0.363892 -0.783082 0.578399 -0.428850 0.098759 0.720370 -0.561394 -0.298828 0.184762 0.423380 -0.294570 -0.809487 1.578852 -0.227650 -0.416189 -0.354951 0.636099 0.315035
sent_294 -0.507808 0.359088 -0.132767 0.083396 -0.159939 0.351395 -0.844857 -0.222041 0.372438 -0.365481 0.031730 -0.095602 -0.486223 -0.208700 -0.004591 -0.975964 0.452497 0.514950 -0.682827 0.440149
sent_295 0.334816 0.604934 0.227689 -0.453519 0.042446 -0.224827 0.064136 -0.651840 0.704166 0.604923 0.356822 0.307594 -0.844048 -0.524743 0.404674 0.184423 -0.114552 0.354427 0.138709 0.094151
sent_296 0.699887 1.053482 0.856507 -1.312291 0.002558 -0.362418 -0.422401 -0.203436 0.588361 0.457813 -0.281388 -0.763800 0.088486 -0.507273 0.235349 -0.075175 0.280988 0.552310 0.507068 -0.323007
sent_297 -0.308926 -0.362858 0.162081 -0.282169 -0.075684 -0.065615 -0.342496 0.074989 0.231028 0.186348 -0.072273 0.018055 -0.128969 0.142965 0.068784 -0.519895 0.464188 0.234753 -0.031587 0.104739
sent_298 0.629028 0.589904 -0.161599 -0.320131 -0.057766 -0.427430 0.297148 0.545541 0.573554 -0.382055 -0.467231 0.695448 -0.371801 -0.114106 0.983208 -0.342054 0.045779 -0.101734 -0.378693 -0.525093
sent_299 0.915816 -0.061528 -0.199598 0.062278 0.460732 0.561002 0.559293 0.634581 0.264731 0.154841 0.504510 0.374200 0.182396 0.271229 -0.203643 0.292051 -0.752893 0.267933 0.487798 0.135222
sent_300 0.647333 -0.912109 0.284692 0.292356 0.602953 -0.376110 0.181984 -0.684781 -0.548667 0.242267 0.662751 -0.008947 -1.133950 -0.317597 -0.628567 -0.480926 0.317578 -0.551128 -0.945100 -0.057912
sent_301 0.299955 -0.500983 0.124328 -0.107440 0.562683 -0.153089 -0.148184 0.341389 -0.010056 0.340339 0.539495 -0.516645 0.216950 0.443329 0.406658 0.608624 -0.125441 -0.611904 -0.502693 -0.090912
sent_302 -0.117295 0.156490 -0.390216 -0.515915 -0.416883 -0.322650 -0.155595 -1.153623 -0.021056 -0.447382 -0.659876 -0.506773 -0.350477 -1.227750 -0.162583 0.433843 0.703945 0.214532 0.091937 0.936067
sent_303 -0.334100 0.598318 -0.334345 0.790099 0.204899 0.269920 0.903291 -0.375229 0.402540 -0.401689 -0.127776 0.067429 0.113930 -0.865945 0.405350 -0.123973 -0.052716 0.153572 0.933794 0.020328
sent_304 -0.574962 -0.331169 -0.695562 -0.094574 -0.957171 0.114337 -0.363501 -0.583319 0.011247 0.208185 0.123832 -0.518249 -0.815230 -0.328424 -0.490983 0.021985 0.449565 -1.065814 -1.186548 0.503700
sent_305 1.086453 -0.031667 -0.021546 0.371076 0.741666 -0.700635 0.409829 -0.053669 -0.734290 -0.250750 -0.225596 0.843968 -0.681083 -0.953937 -0.844601 0.658694 -0.817624 0.479769 -1.031447 0.353889
sent_306 0.465165 0.612592 -0.067316 -0.076737 -0.591103 0.863938 -0.281156 0.560465 -0.203886 -0.465724 -1.026578 0.416632 -0.360530 0.372648 0.269138 0.266464 -1.414424 0.112532 -0.245217 0.144718
sent_307 0.189342 0.276067 0.136037 0.524531 -0.036446 0.431995 0.236273 -0.201142 0.423366 -0.457863 -0.051705 -0.151216 0.077285 -0.553653 0.478364 -0.223327 -0.021491 -0.313703 0.430517 -0.174157
sent_308 0.622158 0.049919 -0.962551 0.805405 -0.436503 0.607707 0.074645 0.776543 0.519609 0.108082 -1.199845 0.718738 -0.196192 0.058626 0.209184 -0.406960 -1.044735 0.027499 -1.040645 0.047439
sent_309 0.214699 0.692438 -0.158785 0.307841 -0.036889 -0.331009 0.575460 -0.312814 0.406086 -0.203174 0.045925 0.157459 -0.638149 -0.821777 0.335033 -0.704732 0.114801 -0.749401 0.150833 0.362701
sent_310 -0.170201 -0.554508 0.297766 -0.131862 0.759185 -0.886430 0.295605 -0.010689 -0.130536 0.290562 0.406982 -0.651800 -0.211283 -0.380580 -0.594561 0.796955 -0.349547 -1.121785 -0.719099 -0.390205
sent_311 0.206305 -0.833361 0.212120 0.474898 -0.719568 0.557331 -0.346680 -0.398857 0.823896 0.169108 -0.214761 0.586832 -0.500562 0.703012 -0.841947 -0.782234 -0.180757 -0.117784 -0.175967 0.425992
sent_312 1.468956 -0.248353 -0.449281 0.322649 -0.429105 0.099442 -0.275271 0.743456 0.109137 0.631228 0.252910 -0.655564 0.087201 -0.505157 -0.464300 0.171904 -1.195370 -0.525716 0.030641 0.230501
sent_313 0.270431 -0.061468 -0.230690 -0.746398 -0.565316 -0.037031 0.185581 -0.279230 0.066882 0.721831 0.077285 0.154751 0.039154 0.152098 0.920224 0.389581 0.328753 0.120083 0.538295 -0.085240
sent_314 0.722070 -0.078063 0.241601 0.586300 -0.121466 1.875999 -0.475108 0.727622 -0.473658 -0.267377 -0.718660 -0.253290 -0.704679 0.103735 0.421230 -0.275630 -1.798187 -0.335593 -1.054577 0.506176
sent_315 -0.282674 0.152744 0.011346 -0.083037 -0.833933 0.359626 0.057784 -0.147975 0.473125 -0.238308 -0.861965 0.140777 -0.342889 -0.988335 -0.078908 -0.106588 0.296666 -0.801590 0.278487 0.677492
sent_316 1.018968 -0.203836 0.117985 -0.180982 0.457601 0.299379 -1.007916 -0.031850 0.500877 0.015453 -0.383842 -0.129997 -0.437574 -1.066620 0.987818 -0.725569 -0.560328 -0.138065 0.167567 -0.386869
sent_317 -0.411147 -0.473956 -0.556979 0.341033 0.156657 0.028889 0.396933 -0.419842 0.774868 -0.825794 -0.015699 0.558820 0.407512 0.788887 0.541066 -0.477749 0.278132 -0.089034 -0.213111 0.048346
sent_318 0.130217 0.812089 0.340828 -0.741466 0.029424 0.354629 0.301031 0.218618 -0.154075 0.374307 -0.655736 0.701636 -0.150856 0.280326 0.591515 -0.191284 0.053365 0.121224 0.130009 -0.454206
sent_319 0.473329 0.542669 -0.571338 -0.352671 -0.213377 -0.847564 0.602599 0.025546 0.327157 -0.361296 0.244622 0.529652 -0.066187 -0.258917 0.283489 -0.518538 -0.561173 0.161434 0.306332 -0.327957
sent_320 1.088002 -1.216994 0.811848 -0.309589 -0.038160 0.490521 0.213197 -0.888960 -0.269835 0.316776 -0.188986 0.140230 -0.654923 0.163581 0.407148 -0.624212 0.458698 0.133211 -0.837701 0.213587
sent_321 -0.139652 0.347458 -0.168237 0.140508 -0.644168 0.269265 0.202093 0.364363 0.028887 0.563429 -0.233278 0.660934 0.158311 -0.315231 0.266049 -0.166998 0.506147 0.135735 -0.311606 -0.054426
sent_322 0.344520 -0.266841 0.124993 0.316260 -0.136235 0.255759 0.465272 0.082157 0.039084 0.292863 -0.021019 -0.286013 -0.590522 -0.090229 -0.063890 -0.289542 0.332784 -0.135439 -0.125718 -0.048485
sent_323 -0.003993 0.263600 -0.486354 -0.883325 0.114370 -0.031240 0.446973 -0.691432 0.538641 0.227042 -0.451589 -0.068845 -0.969107 0.547652 -0.165057 0.486494 -0.518541 0.456212 0.916263 -0.338458
sent_324 0.298922 0.954976 -0.264050 0.093409 0.254223 -0.203760 0.504798 -0.389549 0.534289 0.648893 0.208397 1.113231 -1.310256 -0.640350 -0.034180 -0.869657 0.473629 0.648359 0.567213 0.206342
sent_325 0.182526 -1.009265 -0.344161 0.379774 0.450877 -0.596298 0.464077 -0.579872 0.178968 0.291195 -0.827844 0.495833 -0.049130 0.162050 0.075007 -0.258085 -0.078955 0.631839 -0.266984 -1.356721
sent_326 0.527165 0.133568 -0.173955 -0.023713 -0.017118 0.413548 0.104177 0.084473 0.172193 0.310446 -0.312462 0.933782 -0.508168 -0.743380 0.051323 -0.243740 0.885204 -0.018056 0.264709 0.292855
sent_327 0.350843 0.801800 0.015627 -0.210056 -0.013075 -0.421151 0.246001 -0.314949 0.881458 0.032087 0.526341 -0.323359 -0.465952 -0.699665 0.449782 0.030421 0.446381 0.023899 0.175833 -0.049832
sent_328 0.249538 -0.063162 0.144199 -0.737359 -0.270076 -0.319966 0.071656 0.427947 0.567861 0.394053 0.096537 -0.629824 0.147552 -0.120462 1.175687 0.424554 0.563324 -0.305665 0.195796 -0.030305
sent_329 0.511981 -0.189065 0.431734 -0.888000 0.300654 -0.700083 0.816117 -0.288672 0.179522 0.055805 0.047934 -1.068992 0.137372 -0.179296 0.734490 -0.197668 -0.106882 -0.304117 -0.293257 -0.405771
sent_330 0.464670 -0.654841 -0.728039 -0.472830 0.141000 0.221229 0.054209 0.401443 -0.472294 -0.084079 -0.709379 0.157810 -0.339747 -0.055063 0.437682 -0.473778 -1.391756 0.491785 -0.015356 -0.412472
sent_331 -0.829407 -0.192582 -0.484789 0.132812 -0.296642 -0.513389 0.384286 -0.191404 -0.423043 0.686758 0.565754 -0.302666 -0.912416 -0.624989 -0.652251 -0.381735 -0.139514 -1.439130 -0.954158 0.039871
sent_332 -0.188319 0.663207 -0.388582 -0.174876 -0.119644 -0.119229 -0.008846 0.078172 0.470470 0.322046 0.248386 0.331946 -0.033750 -0.199665 0.901943 -0.696298 0.383100 0.695629 -0.295110 0.063800
sent_333 0.147893 0.188178 -0.314660 -0.221454 -0.235080 -0.000222 0.160266 -0.620940 0.729530 -0.199916 0.310885 0.037572 0.638646 0.068332 -0.240149 -0.152166 -0.248427 -0.043366 0.802864 0.091332
sent_334 0.365848 -0.087067 -0.028885 -0.082594 -0.567980 0.512240 0.343362 0.250705 -0.426446 -0.054291 0.151311 0.150043 -0.126369 0.045371 0.874201 0.355276 -0.184541 -0.530873 0.205952 0.450640
sent_335 0.694701 0.075261 -0.581879 0.214995 0.668231 0.775231 0.521203 1.039266 0.158872 0.035778 0.043413 0.436079 0.248197 0.268200 -0.356467 0.201069 -0.818168 0.100581 -0.087484 -0.209015
sent_336 -0.343984 0.384915 0.027354 -0.179112 0.036265 0.047436 0.323945 -0.698439 0.245572 -0.181079 0.285912 0.599123 0.391420 0.147528 -0.271291 -0.206414 -0.514843 -0.088506 0.570900 0.672331
sent_337 -0.052050 -0.165879 -0.420999 -0.307861 -0.803447 0.228775 0.309074 -0.175791 0.023799 0.554895 0.330009 -0.472367 -0.349077 -0.226534 -0.264339 0.566589 0.161431 -1.715436 -0.397310 -0.030931
sent_338 -0.348825 -1.031297 0.527771 0.143368 0.255081 0.134793 0.014935 0.266550 -0.642170 0.261363 -0.179880 -0.089137 -0.597999 -0.191040 -0.519009 0.385489 0.070931 -0.290887 0.088386 0.106562
sent_339 0.815781 0.435523 -0.454474 -0.041926 -0.025905 0.361350 0.137135 0.092442 0.180723 -0.489652 0.185985 0.585122 0.250917 0.735550 0.031081 -0.055080 -0.496932 0.093955 0.752739 0.186121
sent_340 -0.380239 0.388321 -0.586885 -0.266185 -0.143636 0.125571 0.608998 0.015375 0.901089 0.621478 -0.136174 0.265750 0.302409 -0.387685 0.204338 0.116131 0.321444 -0.138355 0.310948 0.284558
sent_341 -0.755855 -0.647360 -0.395345 0.625479 -0.045887 0.124923 -0.100420 -0.890594 0.131475 -0.279934 -0.297873 0.758602 -0.121118 0.887079 0.445477 0.024681 -0.210995 0.002913 1.158186 -0.498692
sent_342 -0.684017 -0.427469 -0.539089 -0.162369 -0.252799 0.258361 0.316415 -0.581443 -0.529506 0.235814 0.341930 0.099160 -0.950179 0.392489 0.149243 -0.130831 -0.167584 -0.903669 0.845278 -0.087620
sent_343 0.617728 0.872190 -0.014993 0.085414 -0.669078 0.476022 -0.355675 0.456340 -0.427521 -1.106194 -0.309367 0.101994 -0.509194 0.073983 -0.184747 -0.029539 -1.522568 0.172265 0.422990 0.941788
sent_344 0.716624 -0.354708 -0.180537 0.342240 -0.075603 0.541123 0.122706 0.090825 0.041878 -0.255369 -0.228630 0.428743 -0.358173 0.098907 -0.209622 -0.427996 -1.618017 0.049076 0.157077 0.320191
sent_345 0.345289 -0.067443 -0.093025 0.323190 0.036443 0.144678 -0.104975 -0.348758 0.463270 -0.325568 -0.009911 0.354634 -0.645655 -0.422169 -0.128106 -0.707379 0.095842 0.240020 -0.183282 0.510904
sent_346 1.119712 0.444800 0.059147 -0.086958 -0.206306 -0.263022 0.512589 -0.760096 -0.131773 -0.273913 -0.170009 0.028888 -0.220683 -0.735209 0.522746 -0.176922 0.397608 -0.118094 -0.460992 -0.137137
sent_347 0.012694 -0.131253 0.045646 0.207103 -0.790843 -0.277811 -0.010933 0.043074 0.298477 -0.567471 0.014788 0.542872 -0.012763 0.401943 -0.168634 -0.162190 -0.329385 0.149647 0.077963 0.595216
sent_348 -0.269676 -0.350144 -0.000407 -0.091014 -0.568917 0.374744 0.378309 -0.217125 -0.086841 0.330005 0.587230 -0.355546 -0.546613 0.014968 0.103226 0.230434 -0.373320 -0.791568 -0.326815 -0.051963
sent_349 0.190469 -0.518621 0.682590 -0.461881 0.344248 -0.453085 0.335813 0.105265 -0.608774 -0.102397 -0.207458 -0.620357 0.024444 0.164105 -0.120969 -0.542502 0.558810 -0.228474 -0.722103 0.235816
sent_350 1.335194 0.391988 -0.058288 -0.242097 -0.016707 -0.150844 0.187493 -0.685164 -0.282081 0.016980 -0.338116 0.204376 0.109823 0.019673 0.191383 -0.491760 -0.257776 -0.378560 -0.624919 0.499508
sent_351 0.396402 -1.038482 -0.123048 -0.531433 0.376680 -0.447597 -0.189619 -0.360423 -0.312704 0.309641 0.151191 0.257595 -0.325772 -0.205435 0.212097 1.082415 -0.422141 0.053765 1.048321 -0.617109
sent_352 0.740356 0.233587 0.915316 -0.689620 0.099573 -0.304537 0.450124 -0.366768 -1.135303 -0.687592 -0.212654 0.834577 0.744061 -0.390900 -1.047539 -0.417674 -1.473893 0.729927 0.740043 0.667408
sent_353 0.137283 0.556788 0.253462 0.482865 -0.038593 1.357700 -0.054562 0.091495 -0.149870 -0.482720 -0.551869 0.073712 -0.152152 0.288570 0.365799 0.371034 -1.251395 -0.385770 -0.389667 -0.381417
sent_354 0.006586 1.038717 -0.633550 1.248333 0.293148 -0.398687 0.603536 -0.472321 0.811801 -0.130971 0.439999 -0.751232 -1.139027 -0.741368 1.049933 -0.469938 0.454640 -0.269063 -0.254409 0.225763
sent_355 -0.142882 0.458619 -0.366584 -0.827430 -0.669509 0.017259 -0.272221 -0.061790 0.671821 -0.046393 -0.082556 0.028774 -0.183864 -0.610566 0.311166 -0.313225 0.530472 0.102810 -0.051848 0.516721
sent_356 0.172607 -0.359956 -0.070393 -0.295369 -0.494286 0.366848 -0.652466 0.182757 -0.289432 -1.165059 0.190809 -0.642207 0.481593 0.853592 -0.672796 -0.825040 -0.950934 0.804605 -0.218783 0.721459
sent_357 0.050193 0.137596 0.015189 0.441927 -0.114139 -0.499841 0.764963 -0.568605 0.748222 0.241891 0.284760 0.243719 -0.315651 -0.895617 0.451700 -0.258126 0.605741 -0.669704 -0.065207 -0.142254
sent_358 0.781466 -0.232959 0.355185 0.676803 0.355915 -0.528935 0.520852 -0.651768 0.068428 0.188575 -0.356905 0.362346 -0.445669 -1.010090 -0.831740 0.934681 -0.031269 0.733990 -1.592385 -0.268939
sent_359 -0.574717 0.089771 -0.322863 -0.035464 -0.411282 0.539914 -0.036141 -0.645386 -0.140026 -0.645224 -1.131495 1.052873 -0.057832 -0.782662 -0.102761 -0.194658 -0.334354 -0.167995 1.133369 0.455749
sent_360 0.314017 -0.132610 -0.450091 -0.146358 -0.554162 -0.783541 -0.037644 -0.691418 0.250095 -0.077776 -0.065040 0.713086 -0.641690 -0.094317 0.132167 -0.730710 0.199473 0.264053 0.013005 0.350208
sent_361 -0.413502 -0.380581 0.171968 0.270671 -0.243756 -0.396328 0.207857 -0.100048 0.177645 0.976523 0.304942 -0.599939 -1.105006 -0.429672 -1.372001 0.007856 0.462197 -1.479439 -0.530778 0.535813
sent_362 0.209956 0.519369 -0.246858 -0.375062 -0.094717 -0.500718 0.681351 0.217578 0.009950 -0.482958 0.077588 0.433522 -0.099268 -0.220754 0.102399 -0.336365 -0.672432 0.403211 0.099928 -0.087389
sent_363 -0.038829 0.293456 -0.300650 -0.362711 -0.235075 0.169253 0.189569 0.236892 0.395286 0.316279 -0.883642 0.364841 -0.590697 -0.380091 0.680274 0.148579 -0.033124 -0.219660 0.078981 -0.044788
sent_364 -0.022736 -0.183679 -0.251630 -0.197617 -0.627124 -0.450358 -0.035860 -0.043510 -0.013358 -0.048099 0.096800 0.133930 -0.091845 -0.597629 -0.672629 -0.397410 -0.517280 -0.050587 0.337416 1.454864
sent_365 -0.026517 -0.446285 0.197398 0.469063 1.066945 -0.164462 -0.219332 -0.352978 0.985874 0.117239 0.582753 -0.143207 0.283767 -0.246047 -0.044730 0.028115 0.403736 -0.141675 0.345042 0.432765
sent_366 -0.137855 -0.061394 0.533972 -0.295799 -0.751208 -0.345151 -0.653529 0.293197 -0.025969 -0.845891 -0.296815 0.832970 -0.577396 -0.351702 -0.315206 -0.094783 0.288334 0.486437 -0.379463 0.603149
sent_367 0.046731 -0.332181 -0.237661 -0.073296 0.073811 0.378449 -0.254540 -0.012759 -0.056207 -0.089732 -0.030581 0.067862 0.178313 -0.095861 -0.084340 -0.174015 -0.332331 0.336314 0.513519 0.919508
sent_368 0.223083 -0.139863 0.904647 -1.075106 0.163578 -0.161626 0.346293 -0.142871 -0.318240 0.001565 0.094331 -0.625197 -0.206386 0.052389 0.295788 -0.417953 0.430389 0.171172 -0.371354 0.097723
sent_369 -0.306847 -0.095609 0.225439 -0.149627 -0.466709 -0.114188 -0.786987 -0.164604 0.734363 -1.278090 -0.389969 0.705787 0.604346 1.340508 -0.686246 -0.133277 -0.622748 -0.744156 -0.046437 0.545192
sent_370 -0.412265 -0.629951 -0.034920 0.389424 -0.295538 -0.300163 0.389251 0.273285 -0.426694 0.723433 0.941224 -0.384713 -1.083212 -0.052692 -0.530329 0.511171 -0.029840 -1.510547 -0.701217 0.395818
sent_371 0.925506 -1.237604 0.276885 0.142863 0.350623 0.051632 -0.275067 -0.064627 -0.000479 0.095067 -0.138163 0.368654 -0.319412 -0.439221 0.415830 -0.502655 0.049975 0.185770 -0.299729 -0.153490
sent_372 0.032414 -0.426314 -0.335038 -0.164093 -0.206182 -0.076717 0.092587 0.101776 -0.063365 -0.137084 -0.093006 -0.247003 -0.083089 -0.942496 1.332192 -0.031544 0.516050 -0.248972 0.198551 -0.087579
sent_373 -0.370831 -1.616206 0.112283 0.074242 0.205684 -0.071796 0.811572 -0.401422 -0.876110 -0.126692 -0.300554 0.591026 0.273671 -0.741371 0.531977 -0.539605 0.567940 -0.477644 0.313129 0.037006
sent_374 -0.626793 -0.298298 -0.662887 -0.205310 -0.201688 -1.604335 -0.543881 -0.727688 -0.462001 -0.959840 -1.596351 0.746150 0.617973 0.433323 -1.440100 -0.013219 -0.840391 0.175795 -1.204616 -0.438055
sent_375 -0.197960 0.982961 -0.262073 0.121201 0.000354 0.065864 -0.187457 0.124172 0.250492 -0.532183 -0.264491 0.221340 -0.619720 -0.814547 0.199613 -0.486698 0.224326 0.376212 0.033922 0.226818
sent_376 0.938676 -0.535442 -0.180177 -0.432023 0.702114 1.260071 0.155741 0.847301 0.131427 -0.016541 -1.125956 0.413438 -0.163093 0.482263 -0.349865 -0.069724 -1.383585 -0.459286 0.321581 -0.076132
sent_377 -0.577254 0.249567 -0.092192 0.158400 -0.407054 0.347640 0.190152 0.453021 0.579060 0.770773 -0.239361 0.749694 -0.384574 -0.163369 0.558779 0.195746 0.233012 -0.254626 -0.204586 0.136170
sent_378 -0.126683 0.047842 -1.028401 0.558763 0.314577 -0.935969 0.302704 -0.645054 -0.139571 0.299338 -0.792102 0.936906 -0.473448 0.099326 0.285742 -0.198345 -0.211277 0.129938 -0.324820 -1.766010
sent_379 -0.711434 -0.408298 0.128990 0.115908 -0.658158 0.098185 0.181099 -0.043121 -0.138323 0.429368 1.104147 -0.390273 -0.306871 0.220680 -0.515308 -0.407392 -0.167753 -0.558520 -0.214823 -0.091599
sent_380 -0.623460 0.270150 0.018039 -0.135827 -0.382086 0.041319 0.038586 0.565421 0.365954 -0.142767 -0.607697 0.309649 0.096678 -1.235335 0.795575 0.677942 0.454947 0.000215 0.120505 -0.037618
sent_381 -0.272184 -0.789335 0.873986 -0.058678 0.212011 -0.015219 -0.059628 0.150959 -0.499427 0.107036 0.579526 -0.637305 -0.412657 -0.272508 -0.787319 -0.422837 0.358096 -1.030969 -0.102125 -0.177932
sent_382 0.116045 -0.030974 -0.027558 0.181130 -0.316443 -0.049460 0.346412 -0.462784 0.358367 0.373741 0.252678 0.282912 -0.147831 0.118908 0.288049 -0.124710 -0.448282 -0.211864 0.008155 0.044865
sent_383 0.542449 0.168997 -0.407427 0.170746 0.341148 -0.785817 0.782770 -0.796776 0.157548 -0.349995 -0.001867 1.270701 0.115095 -0.422612 0.192060 0.369587 0.213538 0.356758 -0.221817 -0.443470
sent_384 0.216934 -0.414540 0.331114 0.430733 0.828337 0.190671 0.254452 0.011270 0.138494 0.546050 -0.141150 0.137004 -0.232102 -0.382071 -0.385962 0.054243 0.095076 -0.434838 0.245548 0.060747
sent_385 -1.306614 -0.039811 0.400188 0.149242 0.306157 0.590693 0.127677 -0.427154 0.801369 -0.917574 -1.229760 0.356798 0.774259 -0.851637 0.336456 -0.024938 0.737211 0.293234 0.074140 0.463678
sent_386 -0.422529 -0.354533 0.488491 -0.176769 0.078108 -0.036684 0.389086 0.355414 0.060761 0.678932 1.134327 -0.107540 0.295432 -0.090322 0.167153 -0.267422 -0.065212 -0.111150 -0.283537 -0.076490
sent_387 0.425130 0.397745 0.285297 -1.081655 -0.012116 -0.167737 0.169467 -0.382897 0.231396 0.272883 -0.248507 -0.305237 0.196781 0.192509 0.302431 0.191261 0.037515 0.654137 0.013524 -0.235890
sent_388 0.102237 0.498754 0.027278 0.003874 -0.363836 0.716068 -0.360993 -0.431507 0.216552 -0.206656 -0.645126 0.401274 0.332805 -0.350520 -0.070159 0.245863 0.043834 -0.654159 0.110531 1.233760
sent_389 0.453421 -1.289103 0.510696 0.512804 1.257055 -0.582177 0.762441 -0.496005 0.629981 -0.339803 0.075992 -0.291181 0.060591 -0.385442 1.062247 0.142231 0.597091 0.124797 -0.264318 -0.686894
sent_390 1.389390 0.126202 0.111184 0.872378 -0.465330 0.298924 -0.082222 0.117455 -0.177432 0.146185 -1.009198 -0.004322 0.169943 -0.052180 -0.296759 -0.245203 -0.864072 -0.546392 -1.081442 -0.303074
sent_391 0.261103 -0.261935 0.036325 -0.350267 -0.306647 -0.012424 -0.211488 -0.367277 0.144061 0.201718 0.029010 0.379463 -0.062365 -0.078557 -0.425149 -0.063360 0.017072 0.344152 -0.228269 0.006165
sent_392 -0.628510 0.337650 0.321781 0.055701 -0.310076 0.269543 -0.226836 -0.408633 0.276652 0.467786 0.122906 0.161691 -0.043428 0.331703 0.023029 -0.402581 0.131742 0.270532 -0.162275 0.174146
sent_393 -0.371719 -0.528633 -0.245790 -0.329533 -0.165567 -0.301588 -0.360976 -0.601645 1.514556 0.102691 -0.389642 -0.006959 -0.507849 -0.192186 -0.146615 -0.766920 0.195592 -0.062889 0.059697 1.038980
sent_394 0.287057 -0.324283 -0.541267 0.047366 0.048388 0.644640 0.555928 -0.126936 -0.828565 0.361815 0.685740 -0.263278 -0.524994 -0.308601 -0.434840 -0.051219 -0.486435 -1.716910 -0.107050 -0.305227
sent_395 -1.103033 -0.503341 0.108947 0.336194 -0.918033 -0.425514 -0.252750 0.182244 0.440308 0.158992 -0.689186 0.835577 -0.232908 0.125592 0.283545 0.367751 0.349697 -0.658451 0.139875 0.260306
sent_396 -0.239201 -0.485864 -0.671829 -0.069559 0.500993 -0.277158 0.154101 0.660770 -0.234890 -0.056584 -0.934426 1.219223 -0.265131 -0.503712 0.385874 -0.180819 -0.572044 -0.207250 0.105168 -0.635371
sent_397 0.207199 -0.825436 0.602526 -0.251930 -0.236811 0.178311 0.281509 0.555240 -0.286848 -0.034543 0.492562 -0.138935 0.156241 -0.238896 -1.391066 -0.635792 -0.003156 -0.841324 -0.208980 1.005313
sent_398 0.264280 -0.264004 -0.548188 0.882062 -0.236215 1.001554 0.408635 -0.006184 -0.475592 -0.721981 -0.345308 -0.135377 -0.380192 0.388796 0.707515 -0.002984 -1.107170 -0.529358 -0.244522 0.401295
sent_399 -0.192744 0.780168 -0.419953 -0.570133 -0.442117 0.250619 0.237825 -0.039124 0.534967 -0.149558 -0.899619 0.879192 -0.326667 0.997076 -0.012630 0.244439 -0.419139 0.749319 0.842502 -0.497773
sent_400 0.043559 -0.447944 0.848963 -0.064733 -0.127999 -0.120072 0.128759 0.254273 -0.214110 -0.154828 0.580661 -0.189499 -0.162489 -0.489262 -1.103773 -0.547563 0.105739 -0.712722 -0.024503 0.816949
sent_401 0.049783 -1.349695 0.366729 1.141690 -0.104283 0.505912 -0.334999 -0.473084 -0.072832 -0.455876 -0.007186 1.316267 -0.961482 0.610111 -0.340002 -0.791026 -0.113561 0.162526 0.168516 -0.038901
sent_402 1.004541 0.450136 0.308167 0.606917 -0.261225 1.229144 0.291887 -0.399700 -0.712541 -0.321661 -0.861040 0.387892 -0.205742 -0.449882 0.058935 0.675544 -1.599920 -0.456549 -0.198164 -0.308338
sent_403 -0.304122 -0.073663 -0.065968 0.174854 -0.077761 0.554753 -0.230466 -0.300224 0.040540 -0.267521 -0.234976 0.233550 -0.285731 0.357415 -0.077766 -0.135031 -0.537268 -0.630272 0.298591 -0.009569
sent_404 -0.328363 -0.191804 -0.979314 0.092978 -0.388917 -0.154554 0.552607 -0.232977 -0.123213 0.469712 -1.162142 0.531729 0.474755 0.068394 0.113318 0.199153 -0.131075 -0.206588 1.124416 -0.764722
sent_405 0.753050 0.320794 -0.628688 0.654313 -0.603240 1.146722 -0.201899 0.149340 -0.099179 -0.150551 -1.289646 -1.076332 0.228864 0.448843 0.192561 -0.049431 -1.502610 -0.097757 -0.982942 -0.889442
sent_406 0.065466 0.196719 -0.031369 -0.073501 -0.490840 0.649486 0.305408 -0.511212 0.772275 0.781562 0.143810 -0.182308 0.089757 0.548546 -0.172604 -0.052411 0.098964 0.413207 0.405098 -0.057382
sent_407 0.036686 0.203521 0.358979 -0.713970 0.292430 -0.517117 0.106728 0.733282 0.417116 0.645078 -0.372474 -0.185054 0.177814 -0.646734 1.402580 1.007562 0.134595 -0.249383 -0.000606 -0.087559
sent_408 0.435965 -0.283348 0.357901 -0.421017 -0.485407 0.104597 0.545863 -0.199287 -0.534845 -0.435694 -0.064800 -0.203195 0.447674 0.427313 0.149446 -0.359310 0.562914 -0.034695 -0.906867 0.185275
sent_409 0.022078 0.091246 0.002049 -0.736415 -0.533279 0.715955 -0.588470 -0.089507 -0.468344 -0.893888 -0.739119 0.518076 -0.380536 -0.561679 -0.374068 -0.434390 0.171886 -0.257782 0.684004 0.555829
sent_410 0.966633 -0.328430 0.632390 -0.280664 -0.038528 -0.012654 0.447445 -0.532310 -0.168243 -0.070781 -0.174997 0.173757 -0.901324 -0.801624 -0.027496 0.551837 0.669311 -0.007604 -0.263738 -0.567199
sent_411 -0.767965 -0.438330 -0.770560 -0.116818 -0.496049 -0.201460 -0.068373 -1.086808 -0.569096 -0.350178 -0.242173 0.407601 0.150610 -0.751718 0.235223 -0.316362 0.401243 -0.337824 1.233312 0.281348
sent_412 -0.574826 0.517489 -0.107841 -0.039884 -0.465942 0.434452 0.099938 0.191029 0.148452 -0.243383 -0.905477 0.804518 0.263449 -0.866721 0.546247 0.283883 0.144081 -0.203183 0.191048 0.710213
sent_413 0.247396 0.427870 -0.628897 0.055648 0.794179 -0.132910 0.166227 0.376651 -0.263029 -0.112648 -0.291698 0.107894 -0.440250 -0.267165 0.270852 -0.487421 -0.158507 0.454683 -0.042840 -0.013725
sent_414 -0.276938 0.133772 -0.570666 -0.238706 0.008319 -0.410713 0.219068 -0.452732 0.243795 -0.103389 -0.379364 0.365765 -0.439512 -0.690007 0.298673 -0.623574 0.255729 -1.295326 0.336430 0.187574
sent_415 1.147678 0.520072 -0.272582 0.707196 -0.515522 0.679483 0.447884 0.451167 0.067286 -0.290865 -0.246357 0.125160 -0.315175 -0.048720 0.125415 -0.360669 -0.905062 -0.101966 -0.082315 -0.048752
sent_416 0.439845 -1.331102 0.512625 -0.147408 0.695790 -0.306883 0.163195 -0.183007 0.725146 0.221013 -0.378893 0.627857 -0.243883 -0.647819 -0.467702 -0.884012 -0.242088 0.421996 -0.735515 0.250273
sent_417 0.425132 0.057180 0.103831 -0.505748 -0.537577 0.605118 -0.843694 -0.491065 -0.299710 -0.412923 -0.593407 -0.084079 0.271706 -0.268117 -0.234421 0.192173 -0.216978 -0.315728 -0.032900 1.115447
sent_418 0.325630 0.736116 -0.057184 -0.351931 0.000349 0.354726 0.518444 0.209281 -0.675599 -0.591194 0.497602 0.491144 -0.526084 -0.309454 0.680451 -0.328887 -0.744033 -0.419633 0.332410 0.498406
sent_419 0.595850 0.572225 -0.385477 -1.272894 -0.626718 -0.409584 -0.650658 -0.696993 0.112358 -0.179398 -0.038924 0.041798 -0.068974 -0.186861 -0.162891 0.275681 0.898772 -0.726119 0.934108 0.668600
sent_420 0.587931 0.337866 -0.686274 -0.864188 -0.670743 -0.180371 -0.515012 -0.229258 0.273650 0.103491 0.443469 -0.218574 0.388124 -0.320135 0.127822 -0.061009 0.767454 0.115595 0.556562 -0.158729
sent_421 0.378438 -0.703196 -0.113264 0.271621 0.616636 -1.654810 0.546825 -0.709296 0.095768 0.706877 -0.724171 0.772997 -0.275304 -0.655789 -0.487268 0.537576 -0.052739 0.775379 -1.109908 -1.167338
sent_422 0.216424 0.536757 -0.108066 -0.377110 -0.285000 0.556112 0.791794 -0.121383 -0.077542 0.430593 -0.142392 -0.168733 0.404800 0.194252 -0.002209 -0.321417 -0.385745 0.542670 -0.169440 -0.248919
sent_423 0.481192 -0.492827 0.038844 -0.749659 0.287082 0.456505 0.542597 0.014912 0.215118 0.347670 0.050935 0.243856 -0.320689 -0.734586 0.345381 0.315546 0.858295 0.021405 0.381253 -0.562824
sent_424 -0.355139 0.216973 -0.097978 -0.286064 0.190694 0.224959 0.212116 0.277572 -0.156251 0.547951 1.027703 -0.124848 -0.180723 0.151612 -0.311737 0.046819 -0.224263 -1.039168 -0.112676 0.146649
sent_425 -0.197489 -0.719786 -0.062021 -0.727286 -0.267771 -0.139687 -0.411866 0.009463 0.145076 0.379312 -0.154228 0.218574 -0.377723 0.593021 -0.159903 -0.172726 -0.320374 0.031754 0.236779 -0.046121
sent_426 1.032394 0.895024 -0.191264 -0.838309 -0.516318 0.382321 0.327233 0.327914 -0.188822 -0.632702 0.083735 -0.015671 -0.574452 -0.639913 0.451095 -0.167282 -0.656796 -0.284683 0.279819 -0.098011
sent_427 0.722142 -0.136652 0.564111 -0.675128 -0.014795 0.642000 0.413529 0.337163 -0.715972 -0.834637 -0.099450 0.603375 -0.430432 -0.256827 -0.407034 -0.409926 -0.866646 -0.447327 -0.500274 0.728398
sent_428 1.491959 -0.122576 0.153642 0.683092 -0.014450 -0.205036 0.389477 0.273149 -0.504043 0.130062 0.019280 0.281822 0.415575 -0.111692 -1.121469 0.127167 -1.185597 0.729754 0.156468 0.135320
sent_429 -0.151676 -0.043221 0.362824 -0.746256 0.022502 -0.193144 -0.232837 0.170870 0.532310 0.204285 0.424746 -0.602475 -0.493471 -0.080052 -0.088091 -0.719855 0.425258 -1.306093 -0.184131 -0.007208
sent_430 0.339096 -0.224648 -0.151967 0.867795 -0.302069 0.722690 -0.160179 0.713425 -0.820691 0.202249 -0.150323 -1.037213 -0.579605 0.403206 -0.402416 0.513148 -1.389400 -1.499676 -0.734672 -0.318084
sent_431 0.416437 0.840577 0.385363 -0.719101 0.418059 0.699680 0.408316 0.262293 -1.071974 -0.349519 1.159389 0.319315 -0.882351 -0.408207 0.179779 -0.180114 -0.711102 -1.019579 0.538436 0.239568
sent_432 0.150725 0.660789 -0.156920 -0.558769 0.079396 1.011555 -0.254023 0.329736 -0.342980 -0.070501 -0.047572 0.262416 -0.109076 -0.214191 -0.276369 0.230507 -1.440647 0.455820 -0.064793 0.450804
sent_433 0.380073 0.223414 -0.280929 -0.449585 -0.154098 -0.073011 0.061718 -0.385402 0.970419 -0.048191 0.437273 0.116238 -0.142691 -0.150654 -0.124945 -0.213729 0.300922 0.246869 0.458398 -0.065407
sent_434 -0.612623 0.173459 0.259467 0.305212 0.115742 -0.521696 -1.046652 -0.089290 1.186016 -0.072650 0.419742 0.069516 -0.679946 -0.500990 -1.055808 -1.360000 0.195308 -0.103431 -1.192962 1.410980
sent_435 1.033905 0.631891 0.047102 -1.287820 0.104680 -0.052771 1.102254 0.855299 -0.795759 -0.373896 -0.208473 1.033781 0.827585 -0.015334 -0.350290 0.295352 -0.849464 0.421612 0.632387 0.805993
sent_436 0.032035 0.426119 0.286273 0.150430 -0.639989 0.502672 -0.027172 -0.171815 -0.104647 -0.417696 -0.649149 -0.265756 -0.363328 -0.024643 -0.323357 -0.169262 -0.545413 -1.245223 -0.089584 0.600179
sent_437 -0.311729 -0.236769 -0.040879 -0.071313 -0.543720 0.497816 0.398588 0.522112 0.028648 0.381461 -0.344100 0.402723 -0.632588 -0.799492 0.662981 0.760401 -0.329692 -1.040966 -0.013492 -0.017544
sent_438 0.133325 0.342314 0.237727 -0.233503 -0.178402 -0.288362 0.575675 -0.160579 0.621895 0.324808 0.226960 -0.370448 -0.261410 -0.745057 0.125078 0.353059 0.585275 -0.026979 -0.213581 0.151013
sent_439 -0.751993 -0.091624 -0.267066 0.159560 -0.310491 0.284884 -0.307404 -0.237989 -0.032953 0.774879 0.448589 -1.047972 -0.094019 0.217907 0.034822 0.093278 0.026404 -1.048928 -0.593379 0.431783
sent_440 0.518870 -0.555889 0.688850 0.143140 0.055827 -0.166710 0.787867 0.090305 0.051855 0.275417 -0.252245 -0.610778 0.020363 -0.408120 -0.149272 1.175338 0.331229 0.891587 0.053335 -0.743188
sent_441 0.356914 0.371356 0.283779 -0.472395 -0.327341 1.183735 0.869547 0.686701 -0.443176 -0.176106 -0.493718 0.156148 0.348327 0.342821 0.207187 0.127554 -0.991908 0.445245 -0.367828 -0.312700
sent_442 -0.263883 0.617911 -0.170211 -0.213924 0.164218 0.327959 0.477524 0.329642 -0.169308 0.344048 0.619506 0.432493 -1.549340 -0.609695 1.024102 -0.193146 0.803981 -0.749074 0.013903 0.137632
sent_443 -0.124690 -0.574415 -0.408060 -0.379037 0.218012 0.277239 -0.706562 0.119618 0.828706 -0.916684 -0.664070 0.189497 -0.124478 -0.305700 0.024113 -0.283857 -0.392304 -0.476535 0.317220 1.521229
sent_444 0.839817 -0.184368 0.587331 -0.295833 -0.045083 0.997526 0.182459 0.525945 -0.645465 -0.539786 -0.343617 0.152989 -0.367454 -0.340267 0.543839 -0.252113 -1.054688 -0.050806 -0.455832 0.180276
sent_445 0.411086 0.207755 -0.529488 0.046053 -0.288978 0.176638 -0.319124 0.582572 0.419641 0.901707 -0.010624 0.829538 0.415359 0.006809 0.644843 0.222422 -0.060646 -0.242778 0.734695 -0.254616
sent_446 -0.241519 -1.079146 -0.156404 0.022405 -0.110758 0.057573 -0.267886 0.074569 -0.602916 0.396798 0.561463 -0.849668 -0.282319 -0.099121 0.028741 -0.184373 0.015152 -0.696941 -0.514764 0.030189
sent_447 -0.260859 -0.568127 0.379974 -0.061278 0.039792 -0.131529 -0.553608 -0.228839 0.279621 0.980693 -0.239800 -0.471566 0.280221 0.818079 0.157995 -0.305845 0.116859 -0.015216 -0.213717 0.214774
sent_448 0.207426 -1.392315 0.801709 -0.370301 0.035298 0.001062 0.622745 0.182979 -0.324277 0.113497 0.436613 -0.333643 0.074830 0.150805 0.260480 -0.264310 0.682302 -0.588426 -0.854597 0.761315
sent_449 -0.142396 0.096782 0.396374 0.604355 0.893657 -0.824563 0.430382 -0.599631 0.267727 -0.265164 -0.384119 0.317858 -1.197960 -1.064097 -0.293121 -0.442230 0.127169 0.172578 -0.081471 0.015309
sent_450 -0.053986 -0.600284 0.207948 -0.172838 -0.774645 0.633687 -0.350994 -0.337623 -0.722634 0.089985 0.306616 -0.118511 -0.624588 0.402216 -0.598167 0.281316 -0.726440 -1.299879 -0.251160 0.980343
sent_451 -0.577650 -0.099380 0.055120 0.395818 -0.544993 0.217728 0.016090 -0.025338 0.352202 0.746722 0.307286 -0.347079 -0.022072 0.285115 -0.362927 0.234240 -0.086253 -0.531542 -0.131277 0.089466
sent_452 -0.459214 0.030583 -0.022094 -0.151959 -0.056714 -0.140339 0.465794 -0.322570 -0.697879 -0.214895 0.128224 0.216423 -0.567574 -0.645000 0.563122 -0.864673 0.294720 -0.530768 0.374980 0.243504
sent_453 -0.274397 -0.741429 -0.085438 0.154323 -0.202176 -0.123116 0.661472 0.513415 -0.452399 0.467496 0.344882 -0.608069 -1.090702 -0.606348 -0.295972 -0.072500 0.616091 -1.689107 -0.634554 0.275738
sent_454 0.266974 0.549899 0.019028 0.470484 0.214512 0.605881 0.006162 -0.204022 0.151124 -0.027428 -0.145023 0.159933 0.137259 0.263217 0.386427 0.190203 -1.126153 -0.126746 0.156282 0.182054
sent_455 0.128249 -0.371328 0.237704 -0.676770 -0.543056 0.154550 0.242478 -0.511384 0.318030 0.339155 0.365501 -0.059717 -0.132642 0.187782 -0.465293 -0.551848 -0.178602 -0.731071 -1.313666 0.596511
sent_456 0.949907 -1.179450 -0.386632 0.347738 0.055491 -0.663039 -0.405172 -0.465988 -0.284940 0.157258 -0.262476 0.167918 0.079811 -0.438618 0.362704 -0.043908 0.581140 0.308208 -0.448605 -0.295980
sent_457 -1.164776 -0.179126 -0.459659 0.017576 -0.501915 0.144916 -0.463136 -0.074950 -0.163392 0.226200 -0.187769 0.747715 -0.317032 0.784933 0.233652 0.667952 -0.445888 0.071896 0.660562 0.065170
sent_458 -0.913478 0.195074 0.030761 -0.100826 0.051336 -0.154540 0.056160 -0.436015 0.530701 0.217015 -0.007830 0.032361 -0.426642 0.359376 -0.108582 -0.293170 0.324581 0.047452 0.594476 0.270055
sent_459 0.068185 0.544342 -0.180487 -0.159653 -0.433481 -0.364849 0.302275 0.324924 0.573066 0.199222 -0.019074 -0.541346 -0.101485 0.564502 0.211525 -0.175151 0.342180 -0.048863 0.497309 -0.365012
sent_460 -0.131382 -0.291068 -0.357504 -0.035622 -0.158342 0.368049 0.086485 0.158080 -0.154729 -0.315097 0.222641 -0.092487 0.815958 0.413989 -0.181326 0.088846 -0.344515 0.039993 0.338751 0.820340
sent_461 0.578070 0.525507 -0.018148 -0.214939 0.019595 1.163349 0.700183 0.074429 -0.042333 -0.602884 0.052384 0.316403 -0.246920 -0.266528 0.805589 -0.293613 -1.194609 0.148025 -0.120711 0.753301
sent_462 1.413512 -0.956403 0.633617 0.168936 0.155083 -0.659267 0.504889 -0.224216 -0.815064 -0.362610 -0.621628 -0.045099 0.232411 -0.605087 -0.296598 0.034061 0.498816 0.482626 -0.252381 0.266792
sent_463 0.220925 -0.706504 -0.119694 -1.292787 0.123356 0.110806 0.106146 0.079496 0.784614 -0.135017 -0.190349 0.096905 -0.104270 -1.214674 1.101491 -0.546819 0.138497 0.031961 0.349465 -0.379352
sent_464 0.566766 0.254457 -0.218072 -0.058420 -0.315607 0.560705 0.502210 0.214161 -0.237498 -0.693658 -0.240188 -0.015638 0.019631 -0.176005 -0.139892 -0.439965 -1.098568 -0.332542 0.325484 0.723868
sent_465 0.248505 1.445168 0.141800 -0.426280 -0.099496 -0.664430 0.597609 -0.002035 0.392238 0.009600 0.415954 0.223070 -0.086098 -0.294614 0.806661 -0.511580 0.079223 0.179644 0.047581 -1.053736
sent_466 0.270550 -0.874515 0.276213 0.881221 -0.302503 0.816266 -0.390238 -0.188296 0.415626 -0.381621 -0.248783 0.513989 -0.053887 0.371771 -0.425670 -0.895054 0.064178 0.360225 -0.630660 0.014027
sent_467 -0.248103 0.952174 -0.385307 0.279150 0.320398 0.244983 0.095441 -0.087847 0.614338 -0.420829 -0.649072 0.148134 0.138286 -1.431277 0.882567 -0.185464 0.482885 0.469444 0.461325 0.008073
sent_468 0.841659 0.509740 0.312295 -1.360563 0.116198 -1.558016 0.574844 0.440871 0.449427 0.470922 0.048053 -0.717409 0.206507 -0.620076 0.775059 -0.011873 0.254479 0.289776 0.831174 -0.724076
sent_469 -0.023502 0.391517 0.268816 -0.415860 -0.298505 0.919208 0.409892 0.131203 0.037392 -0.095381 -0.280434 0.115193 0.236581 -0.105121 0.335692 -0.165526 -1.153718 -0.186133 0.614250 0.500313
sent_470 0.408391 0.217686 -0.638787 -0.150185 -0.107728 -0.094390 -0.102187 0.559746 0.755875 -0.170064 0.729143 0.445164 0.357490 -0.329794 0.039521 0.299840 0.645788 -0.181168 0.667297 0.420247
sent_471 -0.064192 0.265897 -0.135146 -0.277419 -0.392933 -0.572045 0.427564 -0.389987 0.982806 -1.077441 0.055039 -0.256258 0.168626 -0.285351 -0.347374 0.201832 -0.106758 -0.707723 -0.032341 0.300127
sent_472 0.206699 -0.447869 0.110541 -0.034454 -0.156167 -0.524420 0.996014 -0.804194 -0.633734 -0.073483 0.742023 -0.247641 -0.852600 -0.483723 -0.633945 -0.848653 0.485250 -0.971004 -0.655550 0.056039
sent_473 0.452176 0.479167 -0.524939 -0.170276 -0.164530 -0.366924 0.890170 -0.467749 0.487398 -0.859265 0.553137 0.302544 -0.025523 -0.474259 -0.104295 0.180127 -0.229913 -0.177706 0.293681 -0.242034
sent_474 0.223667 -0.251384 0.102519 -0.064192 -0.137006 -0.170057 0.466732 0.125333 0.361396 0.018375 0.312776 -0.651046 0.010158 -0.048722 0.675143 0.561299 0.115274 -0.217044 0.205203 0.147008
sent_475 -0.717584 -0.128286 -0.277785 -0.025857 -0.469674 0.174530 0.568028 0.416875 0.089841 0.871449 0.257484 -0.070666 -0.571288 0.035094 0.696990 0.417724 0.601393 -0.258073 -0.073842 0.030202
sent_476 -0.120387 -0.535742 -0.082396 -0.003893 -0.383332 -0.506254 0.414654 0.319111 -0.610295 0.308182 0.529213 -0.632979 -0.685266 -0.031681 -0.053972 0.269953 0.219784 -1.106348 -0.211008 0.172874
sent_477 -0.304105 -0.583437 0.261266 -0.076958 -0.461314 -0.282737 -1.176892 -0.226712 1.558358 -0.512044 -0.360658 0.832188 -0.683046 -0.245649 -0.925181 -1.807132 -0.026690 0.804045 -1.224426 0.740909
sent_478 -0.503604 0.163982 -1.116959 0.600217 -0.240598 0.067441 -1.083594 0.123836 1.120839 -0.408385 -1.008715 0.614433 -0.505952 0.043064 -0.394839 -1.154974 0.221703 0.327249 -0.734785 0.978231
sent_479 0.166978 0.742460 -0.428050 0.017305 -0.255857 0.339924 0.329005 0.598814 -0.467305 0.394916 -0.374418 1.091397 -0.361951 -0.366161 0.291324 0.161555 -0.678365 -0.258691 0.898728 0.253498
sent_480 -0.299333 -0.081180 0.489983 -0.035838 -0.116515 -0.067161 0.000832 0.434471 0.128567 0.007702 0.111001 0.077136 0.178419 0.088534 -0.198573 0.180396 0.447229 -0.274950 0.329060 0.343330
sent_481 0.344867 -0.291311 0.352095 0.013924 0.335389 -0.750647 0.223917 0.453539 0.475644 0.444430 0.053964 -0.436588 0.383950 -0.104555 0.947176 0.491016 0.621133 0.077961 -0.403723 -0.687146
sent_482 0.369319 -0.574269 0.250016 -0.213194 0.317443 0.314080 1.027320 -0.585577 -0.026863 -0.389211 -0.732080 0.541336 0.460556 -1.092038 0.426923 -0.376473 0.238674 0.570452 0.457031 0.035215
sent_483 -0.061162 -0.132198 -0.405810 0.510441 -0.613695 0.164040 -0.602580 -0.064763 1.148302 -0.079333 -1.047523 0.656011 0.195859 -0.751733 -0.182699 -0.658247 0.096290 -0.204199 0.410009 0.789571
sent_484 -0.212322 -0.335919 -0.266789 -0.682188 -0.126175 0.326385 -0.406540 0.565754 0.280769 0.049497 0.392676 -0.529410 -0.627765 -0.262046 0.412933 -0.150375 0.462520 -0.549359 0.095866 -0.003189
sent_485 -0.073008 -0.052415 0.040125 0.069501 -0.800248 0.920081 -0.273508 0.545683 0.462504 -0.173459 -0.384354 0.058228 -0.192629 0.251071 0.559019 0.564531 -0.694632 -0.342963 -0.616668 0.008366
sent_486 0.130896 0.858952 -0.716878 1.198945 0.133571 -0.452328 0.427642 -0.500729 0.958292 -0.852669 0.345438 -0.154353 -1.295882 -0.923549 0.814641 -0.678427 0.264856 -0.441783 -0.587163 0.089191
sent_487 0.418445 -0.583079 0.258571 -0.071435 0.311975 0.084489 0.668339 -0.385455 0.166460 0.049227 -0.351248 -0.181381 -0.525781 -1.052439 -0.156055 0.390362 0.795614 -0.274957 -0.021646 0.458484
sent_488 -0.620115 -0.200529 -0.200691 -0.288673 -0.299289 -0.060392 -0.023138 -0.373021 0.809058 0.308354 0.557638 -0.167452 0.029786 0.207927 -0.278706 0.068102 0.198772 -0.349505 0.405563 0.126788
sent_489 0.674161 -0.541421 0.125490 -0.014022 0.190948 -0.062657 0.168123 -0.392172 -0.200375 -0.098843 -0.270643 0.014754 0.346138 -0.302828 -0.422948 -0.071918 0.361838 0.451203 0.240252 0.446198
sent_490 -0.029770 -0.664762 -0.358184 0.117074 -0.150523 -0.122679 -0.682664 -0.439273 0.220942 0.290242 0.160195 0.692555 -0.912947 0.731035 -0.170130 0.240279 -0.020535 0.375504 0.890166 -0.353772
sent_491 0.725228 -0.684822 -0.774964 -0.066833 0.168303 0.464303 0.470312 0.009230 0.358015 0.055879 -0.098248 -0.488099 0.132403 -0.022926 0.207747 0.030080 -0.061468 0.401904 -0.064586 0.109991
sent_492 -0.177021 0.161054 -0.016136 0.755835 0.227849 0.837093 -0.177837 0.108247 -0.313279 -0.039636 0.751748 0.047519 -0.310429 -0.022458 -0.182073 -0.082687 -1.066689 -1.209659 -0.039338 0.604668
sent_493 0.190778 0.250695 0.259757 -0.420377 0.002500 0.756124 0.482474 0.273134 -0.712842 -0.143687 0.438710 -0.058057 -0.340542 0.136399 -0.212028 0.266435 -1.054529 -0.497616 -0.169275 0.285755
sent_494 0.730309 -1.217275 0.721169 -0.630132 0.010698 -0.349541 0.054880 0.040205 0.105099 0.406082 -0.092480 0.776160 -0.804970 0.268011 -0.667901 -0.437654 -0.495940 0.915894 0.642049 -0.315800
sent_495 -0.335933 -0.417573 -0.087273 0.081572 0.279014 0.352629 -0.215521 -0.522762 0.570890 0.014361 -0.234151 0.001387 -0.492902 0.084919 0.294596 -0.388253 -0.062525 0.789535 0.117924 0.208161
sent_496 0.868168 -0.147256 -0.059003 -0.042235 0.111692 0.413751 0.198593 -0.249037 -0.216723 -0.037056 0.325023 -0.421288 -0.019440 0.084128 0.004100 0.287778 -0.163786 0.423307 0.477205 0.372153
sent_497 -1.045366 -0.319937 -0.020112 0.093403 0.109601 0.071661 -0.141219 0.262124 -0.539433 0.353200 0.171446 -0.340398 0.002963 0.654885 -0.143842 -0.418472 0.732311 -0.140083 0.084379 -0.049604
sent_498 0.218119 -1.401502 0.862272 -0.828957 0.294961 0.067343 -1.258059 -0.502258 0.569047 0.523238 -0.474310 0.630692 -0.354871 -0.262251 -0.569887 -0.589862 -0.235782 0.990449 -0.109527 0.979832
sent_499 0.525042 0.387617 -0.050274 -0.135375 -0.172329 -0.838841 0.391409 -0.580547 0.306865 0.057760 0.079204 -0.263309 0.042733 -0.220504 0.638991 0.028387 -0.038176 -0.301859 -0.378116 -0.315621
sent_500 -0.067027 0.047638 0.227555 0.096749 0.040771 0.086452 0.246118 0.380979 0.194329 -0.400610 -0.432851 -0.103572 0.018917 0.475034 -0.493821 -0.127390 0.029480 -0.557057 0.198723 0.387203
sent_501 0.236688 0.101704 -0.419660 -0.570513 -0.357810 -0.006979 0.083409 0.106052 -0.305563 0.529024 0.854989 -0.237982 -0.420229 0.526968 0.165633 -0.078597 -0.243080 -0.816322 0.036455 0.296138
sent_502 -0.202720 -0.294994 -0.378386 -0.064412 -0.295471 -0.725187 0.204149 -0.206923 0.012789 0.276923 -0.106354 0.077335 0.037494 0.185723 0.048392 -0.177219 0.041143 0.174717 -0.310920 -0.406726
