sent_0 0.455331 -0.310491 -0.151073 -0.078287 0.112162 0.125357 0.270548 0.421751 0.021030 0.227846 -0.893775 0.287910 0.135459 -0.093132 -0.649139 0.026498 -0.564948 0.399001 -0.007607 -0.179381 -0.386470 -0.620844 0.341510 -0.351670 -0.352546 0.017222 0.636720 -0.331302 0.456857 -0.059238 -0.039355 0.150038 -0.265607 -0.321821 0.426226 0.075494 0.392600 -0.155024 0.657604 0.040890 -0.235608 0.261894 0.797377 0.380382 0.489531 -0.182565 -0.164830 -0.167209 -0.042856 -0.298092
sent_1 -1.265996 -0.317271 0.768082 -0.602299 0.018976 0.184769 -0.500754 -0.738674 -0.673034 -0.144915 -0.086035 -0.069876 0.131715 -0.018104 0.073327 -0.043471 -0.089355 -0.048540 0.161812 -0.027982 0.191449 0.182177 0.123149 0.234805 0.614326 0.284067 -0.581919 -0.243574 -0.101175 -0.196550 -0.333084 -0.148654 0.704151 -0.852581 0.357984 -0.452081 0.103836 0.252550 -0.443132 0.042406 -0.428234 0.874817 -0.452804 -0.487822 -0.126487 0.006664 0.024150 -0.296888 -0.300698 0.149151
sent_2 0.473591 0.442804 0.250345 0.246011 0.199505 0.355986 -0.362119 -0.103518 -0.380402 -0.380681 -0.297753 -0.224342 -0.048932 -0.489285 0.374335 -0.091627 0.312643 0.211961 0.516598 0.129581 -0.301145 -0.371602 -0.401829 0.320386 -0.349377 -0.132130 -0.508291 0.269782 -0.754453 0.156485 0.107099 -0.186441 -0.396039 -0.095819 -0.334776 0.380855 0.574525 -0.466514 0.740112 0.033647 0.138045 -0.314861 0.365954 0.178566 -0.065310 -0.167508 -0.332784 0.089135 0.069925 0.144687
sent_3 -0.876532 -0.108421 -0.023227 -0.435160 0.222086 -0.520315 -0.452818 -0.254116 0.306121 0.056141 -0.135479 0.696895 0.034752 -0.258766 -0.193003 -0.025820 -0.326316 0.184817 -0.152788 -0.633428 0.531366 -0.150090 0.140415 0.362887 -0.439281 0.050988 -0.186248 0.017029 -0.248813 0.390912 0.047215 -0.391476 0.466384 -0.257687 0.241411 0.373542 0.318101 0.316394 0.019553 0.016458 -0.258833 0.412489 0.191003 -0.046218 0.414056 0.194076 0.606015 -0.183022 -0.293231 -0.176620
sent_4 -0.716858 -0.301223 -0.088761 -0.282234 -0.576782 0.091362 0.113827 -0.036186 0.827178 -0.900077 0.362708 0.208185 0.014902 -0.437342 0.015647 0.361239 0.363617 0.266494 0.005612 -0.205605 -0.408512 -0.461758 0.214201 -0.060165 -0.168199 0.014863 0.765805 0.134234 -0.059456 0.521568 0.016426 -0.032660 0.176756 -0.489380 0.618646 0.876143 0.264211 0.257153 0.371845 0.709555 -0.198693 -0.240349 0.190576 0.702141 0.200132 0.170988 0.288843 -0.082234 -0.387853 -0.054847
sent_5 0.532764 0.216375 0.380866 0.390996 -0.110695 0.224405 0.004430 0.205783 -0.006880 -0.176934 -0.415268 -0.064963 0.190038 -0.364814 0.452644 0.230656 -0.012058 0.084338 -0.279359 0.488802 0.018868 -0.571084 -0.327676 0.356843 0.324736 0.309560 0.372691 0.261568 0.217998 0.001121 0.154103 0.363039 -0.028862 -0.329856 -0.456706 0.212563 -0.022885 0.110381 0.033218 0.194204 -0.099271 0.094207 0.610404 0.188471 -0.593562 -0.193459 0.213083 0.271354 0.244638 -0.149092
sent_6 -0.201257 0.622355 -0.593346 0.271546 -0.688722 -0.681378 0.028113 0.843217 -0.017666 -0.191253 0.478893 0.033182 0.054447 -0.363922 -0.096710 0.552159 0.661650 0.296852 -0.713791 -0.053647 0.334939 0.741955 1.052334 -0.038010 -0.795295 -0.254038 -0.000597 -0.208327 0.220186 0.692496 0.043202 -0.457829 -0.170593 0.371549 -0.625973 -0.501329 0.417134 0.739269 0.216712 -0.359785 0.102543 -0.267550 -0.231544 0.264781 0.437010 0.086402 0.386823 -0.098076 -0.282412 -0.200105
sent_7 0.602303 0.413339 0.526706 0.064625 0.604106 -0.462370 0.215466 -0.768700 -0.773880 -0.275472 1.119745 0.018528 -0.314769 0.136096 -0.358648 0.601257 -0.205154 0.161249 -0.346292 0.002726 0.324614 -0.146295 0.498929 -0.087611 1.005764 0.315395 0.012272 0.195551 0.546559 0.007466 -0.407185 -0.607901 0.183439 -0.192830 0.311065 -0.189405 -0.346458 0.103861 -0.288512 -0.075219 -0.101803 0.654314 0.471883 -0.014830 -0.173367 0.345362 0.038074 -0.195244 -0.148180 -0.172613
sent_8 -0.356131 -0.157025 0.000384 -0.458347 0.033775 -0.199507 0.391544 -0.253561 0.635307 -0.378405 0.047875 0.377745 0.326957 0.048823 -0.318612 0.197648 0.025281 -0.224952 0.372378 -0.377985 -0.202755 -0.204674 -0.126653 -0.207226 -0.026808 -0.380551 0.774231 0.072521 -0.202475 0.048126 -0.014194 0.429503 0.421882 -0.339609 0.307782 0.357703 -0.459972 -0.505764 -0.130875 0.134110 0.034930 0.203380 -0.273818 0.060374 -0.002579 -0.020660 0.565576 0.366699 -0.050328 0.309639
sent_9 0.061850 0.373734 -0.317079 -0.064657 -0.528049 0.091470 0.108053 -0.102713 0.157384 0.027136 0.259947 0.678045 0.676178 -0.327102 0.306374 0.185511 -0.558917 -0.019623 -0.275711 -0.005403 -0.126755 -0.202247 0.352293 -0.584137 0.318285 0.316142 0.342186 -0.324912 0.334374 0.134676 -0.471063 -0.127136 -0.012527 0.041288 0.012846 -0.156680 -0.048819 0.381814 0.158239 -0.085117 0.186896 0.330591 -0.179818 0.159882 -0.041816 0.232133 0.888794 -0.531765 0.434401 0.197172
sent_10 -0.308207 -0.273049 -0.195831 -0.065904 -0.217159 0.047079 -0.140522 -0.585249 -0.154593 0.129157 -0.492142 0.121603 -0.039673 0.059187 0.117757 -0.044376 0.283254 -0.010100 0.135525 0.122590 0.396395 0.235730 0.404110 -0.305640 -0.356902 -0.456881 -0.212864 -0.340366 0.483080 0.577661 -0.209504 -0.196589 0.170326 0.038010 -0.260907 -0.193905 -0.005741 -0.300214 -0.139860 0.099975 -0.453477 0.161234 -0.228682 -0.045768 0.243537 0.316833 0.067637 0.145562 0.252162 0.182449
sent_11 -0.592521 0.476404 -0.541675 -0.085000 -0.216840 -0.825465 0.276881 0.182314 -0.131810 -0.039334 0.638256 -0.123967 -0.154385 0.256435 0.168249 0.125667 0.042997 0.192036 -0.095696 0.427201 0.537198 0.651000 0.113651 -0.183362 -0.601831 0.223488 -0.212694 -0.585782 -0.240241 0.588078 -0.095030 -0.286063 -0.358556 0.497419 -0.539004 -0.230728 0.730443 0.697024 -0.363029 0.262081 -0.557058 0.092552 -0.714021 0.067195 0.089648 0.503441 0.417196 0.034958 -0.178966 0.153914
sent_12 0.563592 0.742982 0.146045 0.842259 0.236324 -0.171494 0.221446 -0.342845 0.034814 -0.305131 0.121932 -0.052992 -0.377618 0.156544 0.662257 0.016835 0.308623 -0.491277 0.924786 0.130071 0.137850 -0.319956 -0.379803 -0.123448 -0.082100 -0.344831 -0.640116 0.747118 -0.264201 -0.570413 -0.020210 -0.347486 -0.222203 0.529369 0.169729 0.224438 -0.508767 -0.041436 0.339109 -0.360256 0.420719 -0.530712 0.353376 -0.142990 0.273918 -0.029116 -0.519243 0.239712 0.276807 0.052751
sent_13 0.234286 0.396120 0.353142 0.201690 -0.016172 -0.490708 0.679401 -0.309164 0.280371 -0.185476 0.803609 0.106238 0.065143 -0.594248 -0.055745 -0.165058 -0.230266 -0.324461 0.035715 0.025923 -0.032319 0.180950 0.487698 -0.461554 0.546689 0.242789 -0.074253 -0.242923 0.538289 -0.239924 -0.100346 -0.052914 -0.513230 -0.282795 -0.028978 -0.175358 -0.487736 -0.652187 -0.161519 0.297285 0.011346 -0.232605 0.194167 0.154898 -0.923228 0.190769 0.800313 -0.000318 0.666600 0.191021
sent_14 0.381617 0.189271 0.497033 -0.220607 -0.006410 -0.332654 0.122889 0.141684 -0.156514 0.199677 -0.284611 -0.279831 -0.231735 -0.229616 0.439223 -0.111934 -0.937747 0.560467 0.157883 0.333196 0.089748 0.249738 -0.443799 -0.270522 0.092021 0.129867 -0.327058 0.152554 0.025986 -0.768980 0.342664 -0.276353 0.012396 0.167039 0.206015 -0.863374 0.062927 -0.135472 -0.381515 0.079243 0.098121 -0.794336 -0.123443 -0.561153 -0.082452 -0.171944 0.269791 0.271368 -0.357183 0.316974
sent_15 0.078915 -0.209451 -0.287694 -0.257900 -0.128688 -0.080270 0.322016 0.293635 0.203690 0.169607 -0.133780 -0.238754 0.050264 -0.069064 -0.224104 -0.215978 -0.047028 0.106242 -0.127178 -0.068260 -0.221562 0.306045 -0.004465 -0.123029 0.042994 0.358676 -0.204721 0.233153 -0.096141 -0.295039 0.235447 -0.139058 -0.027785 0.323140 -0.077049 -0.231095 -0.226188 0.117787 0.251742 -0.113048 0.362478 -0.295071 -0.002669 0.351673 0.416377 -0.233315 -0.195177 -0.273265 0.140227 -0.411274
sent_16 0.989387 -0.365795 -0.118484 -0.265804 -0.506872 0.331142 -0.413036 -0.158352 0.112757 -0.482170 -0.074891 -0.354040 0.185167 -0.569477 0.044851 -0.311387 0.262188 0.107170 -0.318714 0.150068 0.165277 -0.033104 -0.391291 0.489024 0.324798 0.280498 0.116108 -0.078692 -0.223919 -0.435894 -0.124231 0.832785 -0.133017 0.456050 -0.373349 0.264448 0.106757 0.126208 -0.325468 0.312886 -0.078266 -0.165959 0.415168 0.142004 -0.238914 0.170428 0.010386 -0.247799 0.111200 -0.418235
sent_17 0.751411 0.326216 -0.128402 0.628577 0.405791 -0.058518 -0.003076 0.037120 -0.066870 -0.176617 -0.013460 -0.364630 -0.443241 0.325999 0.619932 -0.050225 0.280268 -0.104498 0.852395 0.191666 -0.335001 -0.432336 -0.517467 -0.419736 -0.479721 -0.655725 -0.084901 0.132476 -0.109672 -0.296666 -0.115514 0.009515 -0.641602 0.118344 -0.285937 0.388569 0.344934 -0.251967 0.531796 -0.248629 0.683450 -0.826763 0.328913 -0.111310 -0.025513 0.378406 -0.600565 0.077498 0.029000 -0.065189
sent_18 -1.029729 -0.385804 0.030793 0.359684 -0.710911 -0.531102 0.006671 -0.332356 0.240121 0.936833 -0.014470 0.387153 -0.775523 0.503342 -0.076786 0.062282 -0.172659 0.499074 0.396840 -0.260016 0.900750 0.896042 -0.179716 -0.442222 -0.717912 -0.305577 -0.811962 -0.663689 -0.195452 0.776669 -0.482277 -0.891178 -0.385215 0.317276 -0.373702 -0.288483 0.808847 -0.509152 -0.132987 -0.276718 -0.783454 0.205844 -0.795934 -0.402797 -0.486947 0.553362 1.136526 0.545837 -0.025278 1.068438
sent_19 0.312770 0.468372 0.367901 -0.016581 0.108090 -0.204093 0.132940 -0.012616 -0.088312 -0.131163 0.110959 0.302716 0.434749 -0.239621 -0.271632 0.102925 -0.227202 0.244069 0.269799 -0.100702 -0.362641 -0.370812 -0.128581 -0.215163 0.112495 0.204237 -0.187339 -0.134030 -0.131060 0.018106 0.017980 -0.300983 -0.134007 -0.228844 -0.030919 -0.006279 -0.416590 -0.407685 0.588492 -0.013040 0.217753 -0.244186 0.264845 -0.018804 -0.458895 0.009495 0.329544 0.184929 -0.058739 0.249584
sent_20 0.761034 0.205739 0.388356 0.057178 0.694533 0.041097 -0.033243 -0.512980 -0.277706 -0.103832 0.084567 -0.603066 -0.299105 0.130613 0.076483 0.317358 -0.048253 0.026181 0.289859 0.143622 -0.122827 0.117185 -0.064726 -0.784205 -0.018925 -0.243861 0.650464 0.499685 0.537887 0.112095 -0.099601 0.374260 -0.381894 -0.192427 0.149467 -0.078150 0.317967 0.298443 -0.134933 0.027479 -0.026889 -0.018827 0.769720 0.333726 0.012240 -0.244155 -0.878156 -0.252789 -0.749077 -0.355703
sent_21 -0.052643 0.141760 -0.160980 -0.223440 0.015972 0.164631 0.266241 0.006012 -0.015123 -0.044822 0.060998 0.000605 0.345283 0.260372 -0.028553 0.261123 -0.087224 -0.013465 -0.060968 -0.069325 -0.243427 -0.054243 0.184764 -0.522098 0.054473 -0.131409 0.407209 -0.060972 0.176654 -0.047522 -0.042700 0.061882 0.056827 -0.231662 0.067723 -0.172556 -0.302545 -0.188879 0.091080 -0.195245 0.225397 -0.079348 0.159915 0.154309 0.065552 -0.187295 -0.007394 0.088830 -0.097101 0.053501
sent_22 0.112598 0.272150 0.063020 -0.014827 0.058962 -0.577041 0.290789 0.213607 0.018036 0.095725 0.634940 0.202107 -0.519716 -0.469882 -0.417323 -0.216085 0.474744 0.228325 -0.138867 -0.383017 -0.004744 -0.290723 0.386574 -0.047766 -0.004253 0.044458 -0.174872 0.682091 0.151657 -0.093704 -0.014554 -0.337167 -0.525755 -0.436637 0.334570 -0.163771 -0.642002 -0.068827 0.595652 -0.281868 0.262438 -0.258615 0.728585 0.013066 0.085964 -0.095670 -0.594375 -0.265443 -0.058858 -0.668891
sent_23 0.110578 0.448340 -0.280162 0.350198 -0.173342 -0.519345 0.042826 0.859816 0.352206 0.246380 -0.357584 0.394686 -0.366093 0.095493 -0.338134 0.402314 -0.625128 0.666721 -0.163449 -0.366396 0.381575 -0.026693 0.301107 -0.346719 -0.617525 0.284297 -0.378714 0.387037 -0.180850 0.422204 0.274251 -0.614519 -0.076413 0.025812 0.541145 0.267370 0.380555 0.901560 0.838798 -0.207999 -0.372926 0.604479 0.764678 0.175658 0.582300 -0.106995 0.048520 -0.169045 0.025784 -0.517186
sent_24 0.536934 0.715670 0.087611 0.584314 0.885176 0.123420 -0.232592 0.016363 -0.207796 0.159362 0.048150 0.156657 0.277806 -0.083643 0.236194 0.107789 -0.484053 0.117944 0.388473 -0.555509 -0.492135 -0.737027 -0.523625 0.162852 -0.263098 -0.146037 -0.391865 -0.113934 -0.520957 -0.519094 0.130288 -0.582270 -0.442580 0.003040 0.241999 0.167874 0.141129 -0.716194 0.743631 -0.619761 0.707889 -0.796003 0.550311 -0.006870 -0.612748 -0.059992 -0.222806 0.407091 -0.153635 0.100248
sent_25 -0.059149 -0.116885 -0.691629 -0.018442 0.183075 -0.232843 -0.070262 0.516779 0.591047 0.468581 -0.215543 0.054133 0.243572 -0.376092 -0.167205 -0.432860 -0.096730 0.160278 -0.518623 -0.396447 -0.078567 0.289116 0.022755 0.668584 -0.385075 0.122710 -0.162813 0.419532 0.151613 0.038370 0.103719 -0.345543 0.344404 0.448287 0.021974 -0.120895 0.069125 0.595412 0.306969 -0.398573 0.121909 -0.359037 0.030489 0.278832 0.507731 -0.349584 0.200455 -0.257876 0.323344 -0.201401
sent_26 0.090841 0.001715 0.211132 0.067640 0.312054 0.300179 0.070581 0.177975 -0.317502 -0.022079 0.092836 0.206112 0.266978 0.068361 -0.259754 0.252209 -0.297909 0.183372 0.158763 -0.288096 -0.377821 -0.181072 -0.060264 -0.030644 -0.020529 0.128859 -0.096032 -0.201580 -0.159011 0.055703 0.040758 -0.347292 -0.021826 0.085367 -0.149751 0.192506 -0.234530 -0.547478 0.507129 -0.086755 0.263015 -0.105901 0.177188 0.037609 0.056640 -0.077754 0.016103 0.239609 -0.190225 0.208911
sent_27 0.367309 0.082151 -0.419507 0.355311 0.614322 -0.364026 0.172979 0.691260 0.034483 0.804348 -0.097780 -0.125856 0.029636 0.245633 -0.368514 -0.394913 -0.178140 -0.341617 -0.249624 -0.271816 -0.100480 0.604117 0.163615 0.392458 -0.108053 -0.021728 0.163184 -0.073366 0.424592 -0.693674 0.003185 0.107476 0.180005 0.549281 0.144830 -0.155586 0.056091 -0.066640 -0.014742 -0.278715 -0.030134 -0.463992 -0.251146 -0.333884 -0.190261 -0.164440 -0.142888 0.029874 0.050938 -0.279784
sent_28 -0.020564 0.408560 0.174562 0.023143 0.002121 -0.559555 0.239796 -0.099505 0.267564 0.043340 0.694659 0.284805 0.018277 -0.508717 -0.084576 -0.091440 0.176085 -0.166605 0.085888 -0.061837 0.131722 0.193002 0.568818 0.169096 0.212479 0.056204 -0.039792 0.171236 0.131024 -0.176821 -0.229985 -0.028176 -0.516456 -0.125695 -0.032922 0.132243 -0.241115 -0.320452 -0.070099 0.094874 0.006610 -0.133785 0.153997 0.114553 -0.260778 0.160791 0.519657 -0.326546 0.577259 0.032036
sent_29 -0.402334 -0.206731 -0.075329 -0.178154 -0.247713 -0.143090 -0.182646 0.177299 0.338314 0.313396 -0.066189 0.520459 0.483120 0.096705 -0.266177 -0.201085 0.333633 -0.245862 -0.044698 -0.299551 0.045896 0.422214 -0.100363 -0.042913 -0.189893 -0.087990 0.262158 -0.240497 0.000289 0.044627 -0.123217 0.193471 -0.128551 0.104692 0.047335 -0.000159 -0.144219 0.114472 -0.156129 0.009153 -0.191701 0.006146 -0.362904 -0.220596 0.183615 0.260777 0.214531 0.190592 -0.283288 0.070574
sent_30 0.427726 0.137362 -0.031689 0.594661 -0.168530 0.088109 0.186187 -0.078442 0.429420 -0.546818 0.052417 -0.219275 -0.110492 -0.430674 -0.125584 0.381314 0.408267 0.032490 0.238930 -0.003913 -0.280998 -0.030245 0.012300 0.185157 -0.497943 -0.216532 -0.143349 0.776524 -0.166548 0.342361 0.097316 -0.167544 -0.602686 0.253641 -0.307587 0.430524 0.190792 -0.229739 0.683127 -0.346781 0.373273 -0.259668 0.386362 0.857408 0.132480 -0.425946 -0.054893 0.139198 0.003484 -0.064656
sent_31 0.518987 0.106587 -0.301863 0.473583 0.123066 0.185901 -0.061568 -0.700922 0.014283 -0.553329 -0.238343 -0.309379 -0.267862 0.080777 0.890048 -0.374819 0.127787 -0.127015 0.961125 0.410037 -0.218109 -0.673947 -0.846909 -0.383953 -0.618168 -0.852753 -0.188107 0.126458 -0.521942 -0.279591 0.289598 0.266485 -0.288776 0.044621 -0.207453 0.152644 0.359519 -0.967358 0.435086 -0.275529 0.524217 -0.868527 0.074833 -0.105198 -0.150811 0.168612 -0.468470 0.331984 0.185165 0.282417
sent_32 0.579018 0.072914 -0.125372 0.329134 0.348555 -0.371221 0.121562 -0.104594 0.134462 0.247101 -0.065803 0.050759 -0.079661 -0.076481 -0.037868 -0.163828 0.076039 -0.138292 0.375939 -0.113087 -0.243724 0.034019 -0.096488 -0.134768 -0.184330 -0.421972 0.048677 0.418941 0.122144 -0.156515 -0.104125 -0.235063 -0.162930 0.159282 -0.152449 0.086960 -0.048939 -0.247375 0.234423 -0.340897 0.378867 -0.433534 -0.015741 0.298139 0.267473 0.111711 0.139106 -0.046526 0.255440 0.027352
sent_33 0.418072 -0.167341 0.155418 -0.295893 -0.440210 0.047146 -0.022415 -0.350699 0.486744 -0.858760 0.485382 0.051502 0.160715 -0.675754 -0.466435 -0.086556 -0.025389 0.185236 -0.015438 -0.295324 -0.196845 -0.211212 0.080573 -0.468746 -0.332530 0.055318 0.686233 0.337666 -0.151930 0.291634 -0.136028 0.480072 0.292427 -0.145089 0.566030 0.275901 -0.192677 -0.180269 0.385421 0.239324 0.109095 -0.295068 0.155451 0.167930 0.149318 -0.055120 0.152933 -0.681767 -0.722973 -0.107846
sent_34 0.964875 0.136757 0.374781 0.489348 -0.181403 -0.085240 0.522343 0.013014 0.267730 -0.649434 -0.330542 -0.795204 -0.479270 -0.326692 0.320914 0.160006 0.194759 0.000920 0.225609 0.619371 0.297720 -0.289753 -0.600346 -0.359246 -0.172604 0.328143 -0.399833 0.376222 -0.037860 -0.154904 0.308048 0.319964 -0.430356 0.269191 -0.496619 0.387694 -0.095160 0.048819 0.054646 0.510174 -0.239209 -0.559746 0.844650 0.275642 -0.117915 -0.027879 -0.247036 0.505611 0.060290 -0.517984
sent_35 -0.169747 -0.082499 -0.110003 -0.223156 0.295323 -0.025907 0.318727 0.147381 0.182673 0.205613 -0.019970 0.232973 0.087029 0.087633 -0.030756 0.025000 0.059022 -0.183013 -0.131304 -0.106981 -0.173460 0.134609 0.086347 -0.008456 -0.107007 -0.135754 0.114998 0.030625 0.032495 -0.127747 0.190459 0.156232 -0.013204 0.143474 -0.189768 -0.071718 -0.265387 -0.261504 -0.375786 -0.008481 0.319319 -0.207406 -0.052989 -0.018163 0.377104 -0.110204 0.117074 0.115696 0.008998 0.153168
sent_36 0.399025 -0.275155 -0.254396 -0.048051 -0.223999 -0.137011 -0.240579 0.291475 0.157814 0.195775 0.028187 0.063693 0.479147 -0.160455 -0.312404 0.111461 0.077262 -0.373294 -0.260885 0.168843 -0.259264 0.204439 0.150347 0.307912 0.608464 0.083386 0.678025 -0.000666 0.215492 -0.478944 -0.117455 0.184029 -0.161250 -0.020096 0.032711 -0.141152 0.171024 0.121846 -0.099400 0.001276 0.060492 -0.044443 -0.765876 0.578117 -0.402709 -0.023440 0.070282 -0.111589 0.175827 -0.458649
sent_37 0.692718 0.629935 0.092611 0.822375 0.223629 -0.127910 0.182424 -0.161374 -0.245370 -0.336311 -0.031594 -0.188156 -0.103103 0.249300 0.271923 0.146178 0.279215 -0.161057 0.541058 0.193382 0.196430 -0.529558 0.197815 -0.041929 0.035877 -0.458270 -0.389883 0.579952 0.210090 -0.111396 -0.103629 -0.381191 -0.352295 0.076014 0.145496 0.105176 -0.412665 -0.157998 0.675179 -0.313919 -0.014685 -0.052855 0.522034 0.285255 0.367465 0.104210 -0.718797 0.224682 0.309987 -0.144581
sent_38 0.332957 0.053713 0.201308 -0.699058 -0.301930 0.014881 -0.254889 -0.135888 0.230083 -0.223077 -0.435131 0.157510 0.193218 -0.388858 -0.298593 0.309141 -0.162314 0.215752 0.425440 0.036457 -0.272098 0.252139 0.254747 -0.296816 -0.252032 -0.188564 1.350306 0.416366 -0.077299 0.023932 0.003446 0.370209 -0.082440 -0.127615 0.597315 -0.010607 0.457600 -0.182843 0.097880 0.412533 -0.209774 -0.253444 0.028483 0.406847 0.289739 -0.387998 0.163788 -0.009677 -0.563759 -0.190417
sent_39 0.064349 0.193074 -0.355543 -0.008161 -0.263150 -0.470975 -0.404041 -0.026897 0.347309 -0.423342 0.344178 1.029584 0.364345 -0.319028 -0.448953 0.068644 0.385126 -0.298681 0.322474 -0.078706 -0.111032 -0.238955 0.158368 -0.244738 0.040511 -0.141336 0.377266 -0.085175 0.058162 0.091280 0.015738 -0.049807 0.310142 -0.210566 0.285452 0.167967 -0.214953 -0.062396 0.107954 0.032672 -0.473126 -0.066520 -0.189373 0.099755 -0.202131 0.342498 0.361712 -0.126089 0.073757 -0.082401
sent_40 0.558751 0.253146 0.086849 0.397096 0.301234 -0.462049 0.336084 -0.745875 0.098698 -0.182952 0.584741 0.046834 0.222400 -0.109360 -0.122683 0.502886 -0.173602 -0.016952 -0.374043 -0.369984 0.457244 0.298371 0.392789 -0.268983 0.343539 0.002127 0.414322 -0.130725 0.490338 0.008564 -0.471605 -0.021417 0.149958 0.229886 0.472915 0.216103 -0.404141 -0.228335 -0.351731 -0.013736 -0.095073 0.022121 0.447114 0.143232 -0.353382 0.371905 0.841730 0.005842 -0.000386 -0.083864
sent_41 0.348618 0.674223 -0.125532 0.107747 -0.009863 -0.482662 -0.615751 0.030052 0.234193 0.006476 0.106035 -0.283823 0.588668 -0.301558 -0.218966 0.043550 -0.464102 -0.188870 0.085976 0.153670 0.207824 0.193395 0.409457 -0.628797 -0.312828 0.104341 -0.674817 -0.034984 0.349779 -0.250828 0.693058 -0.070212 -0.053408 -0.038285 -0.571403 -0.185681 -0.115328 0.011445 0.734323 -0.420703 0.270394 -0.196316 0.270789 -0.358803 -0.585166 -0.167505 -0.265684 -0.227779 0.089832 -0.127848
sent_42 0.470534 0.335338 0.204355 -0.062012 -0.143177 0.287309 -0.025297 -0.071560 -0.290463 0.025544 0.190274 0.129828 0.286003 -0.016611 0.108475 0.431830 -0.235912 -0.116025 -0.178041 0.249135 0.305452 0.009797 0.188728 -0.149985 0.248058 0.284547 0.359894 -0.188624 0.147601 0.135878 -0.113631 0.219507 0.094740 0.274436 -0.166013 0.105342 -0.320752 -0.136462 0.095625 0.074753 0.071993 0.162467 0.296225 -0.147770 -0.473934 -0.193631 0.107859 0.118781 -0.003614 -0.063970
sent_43 0.428033 0.338476 0.159371 0.558259 -0.064918 -0.486456 0.058714 0.487424 -0.032969 0.323541 0.194922 0.214934 -0.322373 -0.074794 0.128088 -0.313463 -0.075462 0.409082 0.193623 -0.051736 0.166093 -0.093118 -0.363002 -0.174920 -0.188457 -0.278829 -0.701939 0.730635 -0.218228 -0.198810 0.039238 -0.732660 -0.241129 0.341792 0.194328 -0.784346 -0.329702 0.071820 0.199017 -0.607435 -0.006601 -0.673649 -0.134348 -0.112033 0.495079 0.041940 0.301647 0.151844 -0.003533 0.166791
sent_44 0.951247 0.201045 0.888106 0.380968 0.916475 -0.631609 0.212442 0.057880 -0.774521 -0.042659 0.194674 -0.586704 -0.265007 0.470944 -0.640338 0.128469 -0.356327 -0.364971 0.456708 0.469704 -0.068970 0.030540 0.000980 0.118082 0.691495 -0.028753 -0.169384 0.661227 0.627639 -0.602453 -0.069401 0.068189 -0.181071 -0.123252 -0.168555 -0.768790 -0.121308 0.130094 -0.028997 -0.533763 0.187820 0.288624 -0.301617 -0.049055 -0.259019 -0.240961 -0.532614 0.138888 0.017936 -0.484781
sent_45 0.139023 0.092379 0.220131 0.004092 -0.162074 -0.185827 0.695612 -0.343264 0.573946 -0.460693 0.043421 0.206927 0.365277 -0.027987 -0.325604 0.189924 0.181122 -0.257841 0.105754 -0.332374 -0.150386 -0.280855 0.074558 0.020554 0.045724 -0.402520 0.925287 0.068035 0.401226 0.200107 -0.105175 0.441981 0.389156 -0.058997 0.556787 0.574775 -0.781057 -0.229770 0.101643 0.408819 0.018657 0.326247 -0.115018 -0.028386 0.271368 0.035311 0.001701 0.334849 -0.244261 0.431472
sent_46 0.210832 -0.093856 -0.233676 0.234995 -0.168389 0.026199 -0.036616 -0.613315 0.197876 -0.094841 0.000711 0.077549 -0.547002 0.001254 0.316291 -0.239895 0.492603 -0.196015 0.658655 0.262539 -0.046611 -0.550980 -0.410206 -0.311526 -0.543893 -0.615117 -0.181737 0.303776 -0.357463 0.085253 0.016278 0.054463 -0.395871 0.162973 -0.306540 0.122608 0.157070 -0.421824 0.312599 -0.197479 0.444164 -0.645017 0.048539 -0.030503 0.136929 0.086968 -0.435683 0.016868 0.022582 0.179733
sent_47 -0.101808 -0.116179 -0.483511 0.159543 0.274572 0.069362 0.296501 0.035122 0.069033 0.271724 -0.044650 -0.186907 0.341985 0.297730 -0.011296 0.089370 0.059100 0.065581 -0.644144 -0.478813 -0.150401 0.601799 -0.128887 0.344289 -0.171790 0.021566 0.187724 -0.422765 0.440978 0.418155 -0.161531 -0.351421 0.056150 0.448510 0.008353 0.339027 0.155518 0.477359 -0.117756 0.033402 0.000368 0.195691 -0.071336 0.214641 0.018954 0.069192 0.014768 0.256574 -0.295708 0.294497
sent_48 0.383147 -0.047145 -0.231275 -0.149289 0.524052 -0.294712 -0.051247 -0.447465 -0.021172 0.165323 0.218405 -0.589355 -0.299640 0.225807 -0.224306 -0.112242 0.192329 -0.525788 0.392729 -0.164857 -0.050078 0.717033 -0.021293 0.136362 0.089750 -0.448510 0.643707 0.279432 0.224569 -0.235725 -0.371322 0.221527 -0.058764 0.134215 0.173861 -0.100335 0.460199 -0.043207 -0.216226 -0.196545 0.439862 -0.142577 -0.335181 0.292324 -0.402313 -0.127069 -0.429659 0.071640 0.029644 -0.447627
sent_49 0.774704 0.553998 0.113059 0.531916 0.397657 0.129406 0.255328 -0.067904 -0.048292 0.108491 -0.231762 -0.433075 0.564589 -0.361180 -0.089669 0.047824 -0.369268 0.310633 -0.427802 -0.208700 -0.122465 -0.657855 -0.425732 -0.824051 -0.266324 0.113980 0.087982 0.186456 0.408214 0.496132 -0.153653 -0.161427 -0.304851 -0.291460 -0.019535 -0.335341 -0.033006 -0.010039 0.892208 -0.533407 -0.219279 -0.025988 0.817140 0.456846 -0.191268 -0.266568 -0.288527 0.113303 -0.491962 -0.098603
sent_50 0.502498 0.056373 -0.245906 0.467747 0.262053 -0.057207 0.307821 -0.196311 -0.262094 -0.205626 0.067730 -0.642750 -0.528852 0.168201 0.449947 -0.336542 -0.131764 0.190807 0.430652 0.240680 -0.376521 -0.441232 -0.597910 -0.180804 -0.242990 -0.351064 0.004607 -0.388096 -0.043328 -0.252615 0.165207 -0.309459 -0.395085 -0.002651 0.127020 0.060663 0.471114 -0.487270 0.381398 0.009269 0.159811 -0.766706 0.179197 0.257961 -0.240781 0.350115 -0.477292 0.248335 -0.221510 0.198866
sent_51 0.544686 -0.135504 -0.200898 0.185387 -0.102910 0.127864 -0.073411 0.282575 0.099448 0.196291 0.083992 0.130794 0.063224 0.447540 -0.326729 0.214042 -0.382265 -0.195629 -0.236139 -0.065922 -0.300538 0.383259 0.093105 0.112133 0.412524 0.071709 0.288716 0.438033 0.096192 -0.192480 0.084182 0.160453 0.004472 0.262259 -0.133220 -0.074327 0.111124 0.182897 -0.017328 -0.400691 0.441448 0.572810 -0.249999 0.297040 -0.138781 -0.328673 -0.281778 -0.081501 0.202505 -0.104803
sent_52 0.662509 -0.505909 -0.065008 0.260230 -0.247115 0.439688 0.284626 -0.513094 0.037954 -0.632308 -0.184298 -0.847789 -0.475344 -0.373637 0.569558 -0.452874 0.530538 0.146063 0.192269 0.679694 -0.296962 -0.472601 -1.061738 -0.043665 0.017012 -0.159631 -0.004722 0.536426 0.139051 0.222436 0.162582 -0.051717 -0.154228 0.021342 -0.330056 -0.005132 0.248277 -0.358734 0.178717 0.205693 0.018969 -0.772042 0.358422 0.554789 0.021603 0.120290 -0.649180 0.516120 -0.083625 0.008059
sent_53 -0.328545 -0.079039 0.004698 -0.162573 -0.241320 -0.079041 0.094827 -0.027359 0.181788 0.011352 -0.251845 0.156401 0.582481 -0.541789 -0.109177 -0.074074 0.095758 -0.173111 0.070425 0.038938 0.158985 -0.042958 0.184871 -0.045702 -0.233715 -0.064080 0.259243 -0.147550 0.229083 -0.209313 -0.102968 0.160184 -0.022439 -0.107300 0.260335 -0.318883 -0.139237 -0.114986 0.179950 -0.161422 -0.365619 -0.174739 -0.144276 0.134774 0.108755 -0.185276 0.335598 0.129702 -0.030236 -0.146555
sent_54 0.503442 0.001410 0.569660 0.211972 -0.080881 0.443586 0.481654 0.188969 0.114138 -0.560034 -0.447448 -0.431060 0.013754 0.000910 -0.105836 0.351284 -0.075578 0.013702 -0.023102 0.111659 -0.237785 -0.110533 -0.301792 -0.523882 -0.212157 0.092314 0.718722 0.517232 0.244590 0.579313 -0.435915 0.664657 0.132314 -0.291956 -0.170521 0.362800 -0.042468 0.146693 0.106832 0.016458 -0.217593 0.550590 0.127883 0.276872 0.141719 -0.484828 0.050380 0.002404 -0.351918 0.092962
sent_55 0.641288 0.259576 0.256044 0.191696 0.716627 -0.085001 0.220466 -0.443661 -0.194586 -0.281964 0.042562 -0.076481 -0.465094 0.276695 0.080819 -0.102940 0.043684 -0.024863 0.771087 -0.448055 -0.134710 -0.474309 -0.621676 -0.265609 0.081527 -0.535177 -0.473241 0.209448 -0.275765 -0.395649 -0.245547 -0.328751 -0.397488 0.114486 0.234064 0.155020 0.033530 -0.228295 0.351233 -0.257239 0.487068 -0.407892 0.215556 -0.060366 0.410270 0.381982 -0.151100 0.202078 0.225260 -0.054380
sent_56 -0.222029 0.046093 -0.105308 -0.090823 0.199533 -0.454812 -0.341459 0.343255 -0.059812 0.219293 0.125799 0.054055 0.345816 0.013108 -0.221702 -0.110265 -0.125627 -0.158572 -0.181190 -0.160640 0.335043 0.490093 0.172570 0.212695 0.042882 0.205101 -0.371645 -0.044361 -0.129259 -0.562281 0.460513 -0.281655 0.286946 0.141028 0.116800 -0.275123 -0.200504 -0.029597 0.010969 -0.186033 -0.090520 -0.183486 -0.321732 -0.191141 0.292813 0.089410 -0.002760 -0.068794 -0.042855 -0.420884
sent_57 -0.520266 -0.244404 0.153410 -0.456183 -0.590880 0.389841 -0.115746 -0.282817 0.477485 -0.586466 -0.073683 0.295112 0.140366 -0.264648 -0.300811 0.158800 0.396592 -0.036947 0.158135 -0.150910 -0.094663 -0.537687 0.289619 -0.444361 -0.308159 -0.548383 0.478085 0.112716 -0.034792 0.304708 -0.172197 0.500344 0.423080 -0.632072 0.393363 0.193555 -0.443020 -0.700761 0.112703 -0.003183 -0.419585 -0.122903 0.160026 -0.090945 -0.076595 -0.325681 0.191335 0.043744 -0.419361 0.196011
sent_58 -0.040083 0.041283 0.047511 0.008697 0.035062 -0.298165 0.173719 0.230675 -0.117562 -0.172694 0.072204 0.140028 0.368992 -0.179439 0.056126 0.034013 -0.345508 0.231991 -0.277188 -0.330510 0.017951 0.173183 0.022528 -0.330667 0.104030 0.347695 -0.022852 -0.258586 0.095126 -0.026125 -0.110722 -0.343683 -0.039502 -0.113033 -0.103630 -0.134896 -0.067294 0.156385 0.096214 -0.044586 -0.187314 0.305631 -0.040997 0.151132 0.254094 0.326227 0.466836 -0.153442 -0.022995 -0.385505
sent_59 0.036353 0.061547 -0.118648 -0.301450 0.241450 -0.076906 0.458849 0.262356 -0.075633 0.213272 -0.102080 0.277888 0.247269 -0.164994 -0.019443 0.144289 -0.010867 -0.032158 -0.041841 0.158115 -0.305287 -0.026035 0.139644 -0.236097 -0.059253 -0.120792 0.395253 -0.072445 0.099126 -0.289018 0.296607 0.102792 -0.019983 0.075098 0.000949 -0.511619 -0.227061 -0.346767 -0.359904 0.014952 0.174001 -0.427712 -0.158277 -0.031383 0.500353 -0.117498 0.267381 0.098225 -0.154980 0.005160
sent_60 -0.938053 -0.262158 0.244004 0.616750 -0.210936 -0.567226 0.498186 0.013509 0.668861 0.377036 0.563745 0.115408 -1.172042 0.067671 -0.057550 0.136890 -0.280469 0.357701 0.271033 0.040478 0.550991 0.385175 0.151627 -0.439398 -0.563951 -0.065449 -0.971635 -0.278393 0.076931 1.080327 -0.203457 -0.505897 -0.709059 -0.144832 -0.889238 0.120632 0.659379 -0.499510 -0.398313 -0.158769 -0.821020 0.566209 -0.176214 -0.159245 -0.449349 0.318883 1.058733 0.020495 0.268259 1.324518
sent_61 -0.334616 -0.023805 0.499663 0.048774 -0.792087 -0.028565 -0.050680 -0.243013 0.253352 -0.530498 -0.112350 0.568206 0.485866 -0.597940 -0.440444 0.269889 0.637757 0.254922 0.050883 -0.292232 -0.229726 -0.932863 0.312399 -0.082383 -0.240666 -0.427291 0.836677 -0.077741 0.220880 0.647899 -0.444526 0.354042 0.408201 -0.844194 0.738060 0.406608 -0.252850 -0.014437 0.727212 0.266985 0.053237 -0.332541 0.336661 -0.467008 -0.175825 0.183608 0.543527 -0.194937 -0.615977 0.166776
sent_62 -0.429492 -0.122750 -0.467860 -0.108479 -0.011353 -0.014777 0.397936 0.153063 0.201221 0.050851 0.190433 0.344990 0.090611 -0.166842 0.031915 0.227678 -0.230561 0.115666 -0.445376 -0.216774 0.330732 0.086154 -0.247413 -0.333415 -0.537341 0.371287 -0.046633 -0.141783 -0.318461 0.151852 0.049201 -0.293757 -0.277922 0.353732 -0.211750 -0.042353 0.156023 -0.138413 0.078641 -0.402364 -0.625401 0.273113 0.122581 0.500358 0.558726 -0.167637 0.477596 0.032559 -0.111366 -0.146573
sent_63 0.430346 0.308633 0.334044 0.325927 0.151131 -0.464345 0.196524 0.032435 -0.094944 0.141899 0.570096 0.281468 -0.041672 0.029881 -0.347020 0.300714 0.099104 0.018636 -0.308334 -0.242981 0.321129 0.273193 0.192663 0.085210 0.303100 0.207103 0.116318 0.155454 0.219454 0.120704 -0.255233 -0.189670 -0.105586 0.309650 0.135868 0.079332 -0.483591 0.215740 -0.169052 -0.023729 0.070909 0.113745 0.049259 -0.216038 -0.048474 0.216444 0.236197 0.004639 -0.079507 -0.078185
sent_64 -0.146968 -0.056546 0.027468 0.241917 0.241601 -0.007712 0.529839 -0.379166 0.264863 -0.094226 -0.336886 -0.283389 0.493534 -0.158274 0.301570 0.252873 -0.523247 -0.265365 -0.020446 -0.626432 0.071570 -0.144483 0.049870 -0.247966 -0.308386 -0.322775 0.369041 -0.305363 0.390857 -0.111291 -0.101220 0.015147 0.490933 -0.031298 0.291629 0.395667 -0.228477 -0.110260 0.250858 -0.042077 0.299029 0.312428 -0.121229 0.019690 0.428485 0.081322 0.084381 -0.165750 -0.082136 -0.064822
sent_65 0.565644 0.359335 0.261829 -0.318958 0.534139 -0.322703 0.116484 -0.393455 -0.079184 0.013712 -0.199953 -0.369879 0.155628 0.137149 -0.206592 -0.063016 -0.521347 0.171233 0.102356 -0.162030 0.271908 0.262572 -0.099807 -0.855969 0.082149 0.098787 -0.380854 0.009912 0.191906 -0.066226 0.097763 0.085879 0.066421 0.184718 -0.120245 -0.350131 -0.275566 -0.026731 0.239466 0.064914 0.108385 -0.082136 0.322645 -0.496975 -0.097504 -0.031080 -0.126554 0.202129 0.000702 -0.206114
sent_66 0.893621 0.222060 0.079473 0.226798 0.283476 0.360052 0.489256 0.350354 0.106903 0.308231 -0.355011 0.426293 0.670689 0.283855 -0.431963 0.260986 -0.853387 0.253459 -0.102805 -0.338079 -0.232386 -0.618697 -0.303378 -0.331278 0.392090 0.444840 0.281577 -0.125532 0.175035 -0.130584 -0.049297 -0.074603 0.071488 0.191700 0.595086 0.084083 -0.559754 -0.235168 0.966747 -0.039846 -0.016068 0.100911 0.829266 0.267748 -0.281989 -0.270344 0.061910 0.551760 0.298564 -0.219148
sent_67 -0.652791 -0.536474 -0.362963 -0.207624 -0.202985 -0.017724 0.448288 0.028030 0.242529 0.116035 -0.184073 0.237579 -0.302809 0.401380 0.109044 0.079136 -0.228113 0.017998 -0.003303 -0.068049 0.034463 0.278936 0.097455 -0.181558 0.022015 -0.081027 0.134048 -0.532981 0.137721 -0.029813 -0.235022 -0.116489 -0.004382 0.004141 -0.337368 -0.061509 0.357135 -0.222340 -0.460360 0.050729 -0.454118 0.486672 -0.462656 0.277948 -0.201908 0.314819 0.692612 0.291893 0.408297 0.137577
sent_68 0.678730 0.331295 -0.017467 0.527951 0.335839 0.006496 0.271926 -0.441672 0.031669 0.046015 -0.196466 -0.462235 -0.944937 0.058031 0.611101 -0.231153 -0.100412 0.302770 0.667897 0.233612 -0.117632 -0.483987 -0.543727 -0.072502 -0.219523 -0.314644 -0.580065 0.901354 -0.699136 -0.256228 0.159914 -0.517423 -0.316602 0.245633 0.150776 0.048062 0.155077 -0.585755 0.421031 -0.229633 0.273077 -0.695790 0.539387 0.550725 -0.122177 -0.259148 -0.309782 0.221939 0.301564 -0.034721
sent_69 0.132948 0.000688 0.679725 0.103448 0.382836 -0.327852 0.099684 -0.304175 -0.021030 0.021622 0.049853 -0.026555 -0.116312 -0.320156 -0.237531 0.412085 -0.378366 -0.251293 0.094147 0.074416 0.388462 0.202876 0.306316 0.282638 0.002709 -0.103776 0.082164 -0.082205 0.594887 0.238354 -0.158526 -0.091647 -0.231898 0.139044 -0.147684 0.033766 0.222838 0.276235 -0.245022 0.422313 -0.413802 0.525237 -0.287184 -0.026636 -0.148043 0.114204 0.356162 -0.038345 -0.116586 -0.138623
sent_70 -0.170547 0.086082 -0.193555 0.068548 0.493021 -0.369427 0.606808 -0.051709 0.031052 0.133011 0.205405 -0.470261 -0.261393 0.235537 0.022842 -0.348395 0.083262 -0.123825 -0.197345 -0.263367 0.239429 0.370361 -0.112262 0.183657 -0.146271 -0.043053 -0.109594 0.216949 -0.005334 -0.037198 -0.054784 -0.140294 0.376058 0.276693 0.319160 -0.058822 -0.201119 0.169966 -0.167536 -0.118827 -0.125204 0.099725 0.033995 0.200850 0.160898 -0.112799 -0.197790 0.188758 -0.174960 -0.142366
sent_71 0.749284 -0.068646 0.339809 0.109821 -0.201213 0.027293 0.341505 0.238174 0.303609 -0.023152 -0.432500 -0.641121 -0.664584 -0.489084 -0.068284 0.077335 -0.299563 0.483761 -0.037069 0.081203 0.247260 0.486927 -0.208331 -0.414872 -0.375784 0.230596 -0.328523 0.848386 0.015243 0.157906 0.166704 0.182592 -0.665814 0.303345 -0.352571 -0.366740 0.536214 0.059219 -0.029679 -0.099606 -0.061991 -0.053580 0.579699 0.471508 0.271305 -0.559760 -0.113649 -0.169796 -0.113040 -0.300535
sent_72 0.300121 -0.117312 0.107201 0.163934 0.033879 -0.124591 0.400943 0.001169 0.121668 -0.259718 0.186294 -0.175351 -0.249870 -0.127662 -0.051870 -0.091943 0.017312 -0.018557 0.087742 0.169655 -0.163300 -0.244570 -0.255971 0.135472 -0.086982 -0.178676 0.022358 0.285542 0.035036 -0.055848 0.009730 0.086888 -0.072381 0.081390 -0.106238 -0.082450 -0.036204 -0.146637 0.020801 -0.055135 0.146591 -0.165081 -0.195367 0.089702 -0.014575 -0.081404 -0.076339 0.064398 0.007485 0.214054
sent_73 -1.298252 -0.269763 0.873206 0.018174 -0.262379 -0.211330 0.032407 -0.722161 -0.539197 -0.032168 -0.012573 -0.045803 -0.573607 0.335113 0.261134 0.291866 0.106382 0.093470 -0.105791 0.018931 0.055507 0.644956 -0.145908 0.116948 0.381979 0.055152 -0.283186 -0.444758 0.300961 0.434908 -0.315109 -0.777691 0.260105 -0.635109 0.248169 -0.515184 0.376974 0.476834 -1.210792 0.341913 -0.614142 0.720508 -0.836034 -0.465574 -0.305669 0.556422 0.378107 0.381285 -0.747613 0.796324
sent_74 0.619977 -0.079172 -0.065721 0.298568 0.181211 -0.393847 0.400343 0.043942 0.236113 -0.084911 0.092056 -0.293365 0.319097 -0.086899 -0.267850 0.081626 -0.170738 -0.067460 -0.039901 0.061872 -0.048777 0.434904 0.102231 -0.181207 -0.282613 -0.214151 0.150993 0.233857 0.505297 -0.052182 0.319385 0.146247 0.026643 0.387442 -0.354768 0.041308 -0.132206 -0.330190 0.024007 -0.115556 0.136162 -0.352138 -0.061547 0.388431 0.294257 -0.119574 0.099663 -0.056577 -0.034504 0.064055
sent_75 -0.080189 0.557288 -0.181674 -0.049938 0.703507 -0.010606 -0.207168 -0.316010 -0.272420 -0.243353 0.261827 -0.176035 0.579991 0.234875 0.170941 0.437284 -0.167611 -0.363646 0.091392 -0.075523 0.021135 -0.112881 0.348325 -0.896182 0.137020 -0.099145 0.187728 -0.099730 0.538179 -0.175106 -0.084307 -0.124381 -0.077995 -0.395510 0.018238 -0.359388 -0.191323 -0.072793 0.274398 -0.655468 0.021442 -0.103624 0.585244 0.058605 -0.267481 -0.210132 -0.134201 0.292259 0.064536 -0.456598
sent_76 1.049134 0.420692 0.033246 0.545034 0.475850 -0.214426 -0.132115 -0.375051 -0.114938 0.375888 -0.152876 -0.202982 -0.515569 -0.156642 0.413956 0.149210 -0.061466 -0.016261 0.499504 0.345369 -0.012205 -0.657301 -0.124453 -0.206568 -0.113235 -0.357405 -0.207576 0.603357 0.119918 -0.361214 0.039085 -0.036596 -0.697616 0.015326 -0.204819 -0.011392 -0.131868 -0.252102 0.332516 -0.294401 0.497888 -0.517153 0.819532 0.333935 -0.298998 -0.119663 -0.495212 -0.132266 0.064679 -0.482200
sent_77 0.209416 -0.071057 -0.490203 0.089442 -0.008408 -0.077953 -0.084498 -0.169036 -0.185578 -0.263363 0.018351 -0.268584 -0.075962 0.077320 0.180890 -0.528874 -0.080548 0.044864 0.393378 0.415705 -0.313593 -0.169376 -0.636344 -0.057719 -0.452801 -0.176540 -0.136460 -0.189794 -0.253361 -0.100034 0.433509 -0.342423 0.323095 0.288663 -0.124506 -0.095179 0.250938 -0.603941 0.471981 -0.168845 0.084709 -0.907651 -0.340042 0.113992 -0.084088 0.032933 -0.487757 0.177794 -0.267521 0.222020
sent_78 0.414449 0.032821 -0.224473 -0.208974 -0.382798 -0.150640 0.303193 -0.103326 0.258886 -0.133706 -0.333651 0.290806 0.162420 -0.349175 -0.151561 -0.085679 -0.046987 0.104272 -0.122096 0.251189 0.059336 -0.236851 0.110416 -0.591853 -0.006037 -0.046459 0.344226 0.088027 0.225874 0.232032 0.138573 0.166147 0.094377 -0.122289 -0.026649 -0.330435 -0.126870 -0.203765 -0.101749 0.234171 -0.428933 0.117637 0.077613 0.267858 0.210405 0.129612 0.252234 0.057125 0.178999 0.061532
sent_79 0.414166 0.173539 0.207634 -0.129995 0.623406 0.524905 -0.298367 -0.016711 -0.403865 -0.398684 -0.181954 -0.104833 -0.286916 -0.464768 0.191345 0.439637 0.125317 0.407515 0.478948 0.070437 -0.554793 -0.316283 0.310164 0.278881 -0.294592 -0.422207 0.591896 0.395553 0.114553 0.534959 0.046676 -0.123197 -0.337065 -0.159991 0.165498 0.072284 0.536894 -0.623133 0.490121 0.218892 0.131018 -0.498615 0.520476 0.461611 0.472578 -0.407923 -0.217301 0.198713 -0.250847 0.045141
sent_80 0.408080 0.546173 0.069034 0.818754 0.069402 0.087198 0.218312 -0.395137 -0.258577 -0.335504 -0.236129 -0.286247 -0.273605 0.322394 0.359679 0.043746 0.295515 -0.243817 0.631034 0.149899 0.153654 -0.525615 -0.144682 -0.080375 0.073326 -0.251988 -0.502260 0.525257 -0.098566 -0.457603 -0.269831 -0.371491 -0.005060 0.184484 0.670669 0.019892 -0.604827 -0.243975 0.556800 -0.485751 -0.190566 -0.139467 0.511972 0.174317 0.056089 -0.161087 -0.651320 0.368980 0.146132 -0.109708
sent_81 -0.072963 -0.179198 0.572286 -0.215918 0.008220 -0.287642 0.070115 -0.324741 0.283056 0.332594 0.411418 0.494358 -0.239461 0.091877 -0.269266 0.150098 -0.154296 0.086362 0.418121 -0.408549 -0.089066 0.469023 -0.232037 0.328364 0.234670 0.072820 0.233213 0.379573 -0.200649 0.350957 -0.281056 -0.280889 -0.188823 0.311205 -0.157213 0.503890 0.163923 0.527106 0.010182 0.465662 0.256123 0.355867 -0.467190 -0.009361 0.185714 0.177666 0.308602 -0.357753 -0.079306 0.231422
sent_82 -0.873554 -0.566631 -0.094933 -0.172976 -0.241669 0.157107 -0.445062 -0.123290 -0.019845 0.308292 0.043073 0.321159 -0.268749 -0.132714 0.504910 -0.117418 0.059679 0.053008 -0.099919 -0.126108 0.365638 0.432370 -0.251407 0.313640 -0.345956 0.128915 -0.462943 -0.419736 -0.052875 0.457436 -0.473964 -0.157526 -0.096857 0.261732 -0.776828 0.043075 0.763421 0.509714 -0.440014 -0.022231 -0.367359 0.470055 -0.454101 -0.347441 -0.110348 0.369243 0.612502 -0.144946 0.010729 0.129736
sent_83 0.511779 0.316546 0.204441 0.314408 0.629704 0.392819 -0.382042 0.136221 -0.293291 0.431288 -0.218155 0.162848 -0.076939 -0.025989 0.329431 0.036394 -0.314517 0.117000 0.488360 0.215468 -0.647868 -0.589123 -0.182010 0.551646 0.006720 -0.085493 0.073510 0.091318 -0.289005 -0.123044 0.145567 0.015979 -0.155015 -0.065063 0.022216 0.131802 0.154025 -0.585843 0.215977 -0.049375 0.419277 -0.622490 0.492475 -0.035915 -0.900151 -0.350064 0.050610 0.137229 0.184471 0.409565
sent_84 0.181545 -0.045993 0.696798 -0.226396 -0.274754 -0.018635 -0.186769 0.866937 -0.300652 0.069677 -0.006353 -0.394643 0.561089 0.212023 0.135377 0.610737 -0.317619 0.070701 -0.140278 0.194977 -0.446864 0.961697 0.507820 -0.357328 0.987704 0.164119 0.016875 0.079283 0.715750 -0.696704 0.234643 -0.202168 0.068893 -0.022070 -0.335901 -0.931243 -0.619450 0.048400 -0.520482 -0.018284 0.695698 -0.489924 -0.612840 -0.309165 -0.338031 -0.119524 0.436869 0.254918 -0.063279 -0.270400
sent_85 0.527456 0.420824 0.668146 0.207418 0.412413 0.130449 0.123581 0.465626 0.143108 0.055342 -0.654051 -0.340856 0.569244 -0.474214 -0.215341 0.127565 -0.610765 0.076571 0.014178 -0.092165 0.143351 -0.139304 0.135885 -0.296447 -0.323173 0.159996 -0.115746 0.482961 0.052932 0.214518 -0.187776 0.581821 -0.304042 -0.205182 -0.213018 -0.047427 0.119316 0.301456 0.444116 -0.230400 -0.185634 0.633101 0.198231 0.083496 0.448735 -0.675924 0.287331 -0.371187 0.294945 -0.122313
sent_86 0.759919 0.323116 0.205772 0.365693 -0.430901 0.026132 0.358314 -0.550903 -0.024312 0.004902 -0.042134 -0.048939 0.547695 0.163105 0.412973 0.273044 -0.205848 -0.011289 -0.197216 -0.071552 0.203104 0.395990 0.241195 -0.204221 0.384158 -0.157420 0.536628 -0.347215 0.383397 -0.176614 -0.312222 0.344099 -0.070870 0.440304 0.318639 0.236185 -0.458257 -0.128050 -0.378741 0.399745 0.161255 0.077174 0.018573 -0.109666 -0.363857 0.350866 0.374950 0.015060 0.140607 0.213937
sent_87 0.617944 0.096407 0.022074 0.215985 0.487398 0.037180 0.002469 -0.142552 -0.093485 -0.115345 0.296361 -0.301043 -0.819664 0.167609 -0.020156 0.182560 0.199812 -0.010509 0.256530 0.388170 -0.242285 -0.315067 -0.504027 -0.641421 -0.405769 -0.253951 0.520132 0.544502 0.340399 0.262431 -0.171997 0.297205 -0.420647 -0.120983 -0.124043 -0.126050 0.585783 0.493957 -0.173141 -0.300863 -0.283227 0.003144 0.636731 0.322114 -0.310060 -0.350638 -0.853671 -0.175836 -0.854346 -0.134841
sent_88 0.660671 -0.044026 0.627507 0.212311 0.320900 -0.210671 0.279084 -0.683939 -0.452314 -0.045641 0.362846 0.071506 -0.113253 0.637354 -0.014337 0.418874 -0.811315 -0.047552 0.141920 0.081224 -0.135088 0.015147 -0.288724 0.198153 0.650811 -0.283072 0.036056 0.587609 0.467567 -0.147831 0.031562 -0.203681 0.181920 0.072954 -0.485585 -0.293500 0.192505 0.408397 -0.491434 -0.329676 0.391458 1.349321 -0.594279 -0.069818 0.388441 0.049023 -0.265417 -0.337856 0.009568 0.564088
sent_89 0.254741 0.264000 0.137410 0.166304 -0.408355 -0.098310 -0.539430 0.251236 0.229666 0.329639 -0.732968 0.422838 0.658091 -0.030073 -0.355257 0.014692 -0.580095 0.620067 -0.122845 -0.570355 0.306593 0.263357 0.129196 -0.590624 -0.237308 0.150873 -0.300939 0.040020 -0.319454 -0.046981 0.458020 -0.274526 -0.217147 0.108195 0.474142 -0.098414 -0.046254 0.152382 0.846143 -0.121644 -0.069631 -0.049519 0.335347 -0.018616 0.492332 -0.110055 0.219807 -0.002514 -0.200439 -0.281734
sent_90 0.191007 0.052832 0.214483 0.092224 0.527606 0.152499 0.047515 0.131741 0.001018 0.241554 -0.221313 -0.378020 -0.134014 -0.028915 -0.193864 0.426704 -0.605688 0.484314 0.185895 -0.338917 -0.029801 0.436701 0.005809 -0.947588 -0.735420 0.132533 -0.119083 0.329449 0.000823 0.669867 -0.124967 -0.139843 -0.654201 -0.004822 -0.397370 -0.183574 0.731965 0.010954 0.286454 -0.450421 -0.013405 0.245605 0.513299 0.318068 0.520076 -0.483904 -0.002155 -0.365578 -0.425366 0.130204
sent_91 -0.113931 0.272056 -0.056599 0.383821 -0.597778 0.041167 -0.551646 -0.642156 0.176509 0.484617 1.174559 0.333679 -1.308017 -0.445636 0.148100 0.166966 0.631146 0.267325 -1.034214 -0.679422 0.824419 0.405241 0.942795 0.262880 0.784986 0.160851 -0.142953 1.093928 -0.514537 -0.055662 -0.191368 -0.728090 0.265866 0.019429 1.375658 0.423937 -1.182802 -0.714637 -0.708519 -0.130364 0.189223 -0.638779 0.581953 0.351886 -0.620046 -0.181737 0.429198 -0.543520 0.035815 -0.187304
sent_92 0.832904 -0.048948 0.553240 0.148330 -0.419821 0.566968 0.106693 0.048834 0.145538 -0.386049 -0.791248 -0.560600 -0.075579 -0.573851 0.088221 0.269222 -0.064445 0.038593 -0.189732 0.266066 0.217630 -0.173246 -0.264044 -0.025112 0.177163 0.261157 0.708832 0.335335 0.326570 0.048527 -0.055546 0.719862 -0.145488 -0.033670 0.208879 0.080570 0.374524 0.236103 0.054996 0.460449 -0.366824 0.061119 0.739222 0.358204 -0.362073 -0.466681 -0.283165 0.398819 -0.126408 -0.675683
sent_93 0.231234 -0.155646 0.500532 -0.034563 -0.212804 0.116440 0.174879 0.215807 -0.108902 -0.270472 -0.351483 -0.294850 -0.129752 -0.299176 -0.242028 -0.036773 0.267019 0.161463 0.045782 -0.103871 0.168644 0.133856 -0.207395 -0.242593 -0.312133 -0.149726 -0.029547 -0.078733 0.149991 0.159515 -0.179942 0.106764 -0.030026 0.021695 -0.002667 -0.036549 0.035744 -0.164727 0.042421 0.136249 -0.385752 -0.224410 0.126232 -0.189171 0.354478 0.054476 0.073439 0.202278 -0.457889 -0.027971
sent_94 0.213194 0.695871 0.428959 0.165224 0.254957 -0.365566 0.278509 -0.227438 -0.043718 0.221666 0.143931 0.311774 0.420597 0.066644 0.023830 0.228919 -0.503040 -0.034495 -0.045268 -0.009349 -0.076857 0.209172 -0.112086 0.006656 0.800451 0.427801 -0.060761 0.083475 -0.091483 -0.100393 0.089408 -0.161860 0.075469 -0.252332 0.204301 -0.103043 -0.329298 0.019652 -0.266203 0.302855 0.043118 0.475902 -0.394937 -0.129406 -0.506950 0.144878 0.530634 0.043981 0.567133 0.330011
sent_95 0.548387 -0.086411 0.161938 0.256576 -0.020003 0.014698 0.832206 -0.141208 0.081159 0.275040 -0.244723 -0.202882 0.424564 0.103688 0.209981 0.163568 -0.344466 -0.021982 -0.277443 -0.171439 0.002931 0.469469 -0.237258 -0.785578 -0.012469 -0.096874 0.363102 -0.431997 0.566494 0.013379 -0.108788 0.376394 -0.219999 0.383938 -0.200189 -0.246023 -0.415264 -0.247748 -0.396850 0.035937 0.374522 0.081873 0.019791 -0.300285 0.070536 0.127823 0.263390 0.170369 -0.127010 0.311872
sent_96 -0.083524 -0.868958 -0.069539 -0.484591 -0.781039 0.322410 -0.222936 -0.528609 0.324455 -0.975034 0.086127 0.447772 0.115944 -0.363666 -0.625959 0.247091 0.437144 0.318287 -0.073037 -0.506850 -0.197823 -0.474302 0.171502 0.122088 0.215383 -0.124107 0.291392 0.099393 -0.066881 0.349336 -0.510732 0.240526 0.596760 -0.220698 0.015199 0.608437 -0.222729 -0.109646 0.494671 0.067354 0.179129 0.331695 0.339352 0.288944 0.052185 0.169002 0.573963 -0.151631 -0.069285 -0.176028
sent_97 0.166488 0.188482 0.509568 -0.167852 0.418362 -0.151174 0.373920 -0.265278 -0.451389 -0.626232 0.011756 -0.720876 -0.123794 0.251423 -0.180158 -0.250316 -0.074039 -0.054410 0.121114 0.018465 0.249103 0.021251 -0.043914 0.221208 0.116060 -0.006777 -0.370037 0.159789 -0.036331 -0.065471 -0.075788 0.358368 0.162090 -0.116315 -0.042359 0.009726 -0.004815 0.277075 -0.045566 0.225231 -0.235058 0.679510 0.038904 -0.059525 0.099764 -0.064073 -0.564267 0.007660 -0.047004 -0.222588
sent_98 0.498814 -0.028267 -0.217998 0.275139 0.125918 0.184359 -0.006772 -0.424399 -0.125709 -0.179359 -0.016651 -0.484302 -0.347428 -0.085802 0.573996 -0.362788 0.024829 0.095121 0.438892 0.272926 -0.206801 -0.422087 -0.617530 -0.188311 -0.484883 -0.474351 -0.195256 -0.035857 -0.378407 -0.364443 0.097621 0.099616 -0.307885 0.151745 -0.189297 -0.009761 0.277612 -0.657972 0.279666 -0.238411 0.331242 -0.804006 0.148414 -0.031239 -0.166712 0.017689 -0.433113 -0.072855 -0.113599 0.221301
sent_99 0.136937 0.072210 -0.225565 -0.250771 -0.295471 0.038771 0.149928 0.504254 0.063863 0.140228 -0.047308 -0.238740 0.172903 -0.056496 -0.399096 -0.258976 0.185853 0.139368 -0.169084 0.078624 -0.218986 0.275679 0.223555 0.022916 0.042064 0.391534 -0.350930 0.447777 -0.201312 -0.107590 0.238406 -0.159504 -0.031129 0.267061 0.034437 -0.346447 -0.510199 0.151008 0.354942 -0.140485 0.140543 -0.316969 0.004808 0.214378 0.504903 -0.423867 -0.415225 -0.344862 0.169286 -0.287467
sent_100 -0.117480 -0.037354 -0.427056 -0.210493 -0.307539 -0.039039 -0.299345 0.165888 0.306783 -0.506439 0.483096 1.158409 0.080079 -0.040992 -0.524325 0.193310 0.603533 -0.492300 0.230489 -0.001580 -0.360855 -0.474227 -0.188660 0.205767 0.220927 0.054157 0.474901 -0.030560 -0.521841 -0.248213 0.271875 0.182970 0.416074 -0.115323 0.175579 0.388250 -0.372272 -0.088059 -0.110294 0.064691 0.017449 -0.085118 -0.292496 -0.011679 -0.308041 0.092646 -0.047434 0.064750 -0.175898 -0.109268
sent_101 0.223748 -0.020372 -0.015331 -0.000836 0.168664 -0.055710 0.348359 -0.197038 0.209182 0.024893 -0.039492 -0.192857 0.160158 -0.041338 0.048778 -0.033252 0.043568 -0.055507 0.042657 -0.168240 0.056043 0.128788 -0.216022 -0.252671 -0.128548 -0.211690 0.176395 0.087064 0.033241 -0.042582 -0.147742 0.153266 -0.239586 0.130828 -0.028310 0.055038 0.003155 -0.126733 -0.025966 -0.035865 0.033769 -0.095884 0.038729 0.141371 0.334973 0.007142 0.097712 0.077886 0.009663 0.095531
sent_102 0.303293 0.211654 0.223323 0.135883 0.361695 -0.442479 0.692534 0.077052 -0.015577 -0.027569 0.220326 -0.186394 -0.013715 -0.313086 -0.160651 -0.126503 0.139647 -0.239040 0.048345 0.061088 0.140836 -0.029035 0.290983 0.004468 -0.024607 -0.328052 0.120771 0.590971 0.465284 0.150073 -0.323535 0.035617 -0.088330 0.084131 -0.182904 -0.494923 -0.265631 0.000549 0.083084 -0.209743 0.034281 0.146508 -0.285752 0.052796 0.537910 -0.025734 0.135236 -0.046670 0.396280 -0.152131
sent_103 -0.506812 0.073931 0.088935 -0.415855 -0.744862 0.088854 0.242042 0.083569 0.833739 -0.625910 -0.040219 0.669212 0.385907 -0.725211 -0.322483 0.010809 0.590164 0.052982 -0.080234 -0.052883 -0.051783 -0.926466 0.210767 0.002753 -0.217351 -0.184287 0.884100 0.232896 -0.160187 0.472498 -0.386843 0.660153 0.417764 -0.393176 1.176104 0.117387 -0.549528 -0.040237 0.442640 0.574868 -0.317051 -0.406123 0.092863 -0.360804 0.039898 -0.088058 0.633717 0.345052 -0.276321 0.011738
sent_104 0.646150 0.295230 -0.011524 0.674646 -0.246798 0.039350 -0.065302 -0.190035 0.074282 0.169779 0.097409 0.440563 0.664389 0.190780 0.198279 0.159875 0.104249 -0.246107 -0.235574 -0.182403 -0.274609 0.228264 -0.034488 0.387166 0.630843 0.102789 0.264459 -0.228935 0.321755 -0.149816 0.298725 0.002950 0.185740 0.337526 0.035698 0.465806 -0.466547 0.147038 -0.067594 0.249687 0.463445 0.152217 0.026893 -0.126251 -0.467158 0.408235 -0.028420 0.026476 0.210422 0.217737
sent_105 0.395357 0.179781 -0.137359 0.026312 -0.314396 0.042676 -0.103132 0.151059 0.004228 0.101987 0.027839 0.424736 0.277223 -0.195662 0.040211 0.070434 -0.089305 0.091335 -0.354503 -0.168108 0.048806 -0.028825 0.234705 0.142092 0.093806 0.065983 0.367477 0.163328 0.170515 0.210393 -0.323476 -0.188599 0.176346 0.280296 0.076553 -0.077833 -0.055748 0.446321 0.140672 -0.045361 0.049633 0.161227 -0.109810 0.152075 0.139654 0.073491 0.334861 -0.258385 0.178480 -0.117224
sent_106 0.289271 0.249896 0.038162 0.037577 0.615035 -0.313291 0.158660 -0.154782 0.015376 0.558099 0.065353 -0.000318 -0.379523 0.278931 -0.103493 0.334613 -0.392955 -0.393523 0.695137 0.059215 0.054963 0.146484 0.262187 -0.181394 0.069250 -0.267788 0.057071 0.451684 0.103346 -0.158077 -0.047604 -0.105103 -0.168366 0.173806 0.047093 0.154094 0.113854 0.100995 -0.005644 -0.238005 0.299125 0.398471 -0.118652 0.247330 0.429596 -0.256656 -0.227477 -0.514162 0.311620 -0.139835
sent_107 -0.098491 0.099809 0.436413 0.031366 0.647099 -0.262512 0.457215 0.175349 -0.007071 0.016304 -0.131611 -0.250463 -0.061319 0.150385 0.290051 0.382111 -0.398696 -0.201730 0.262814 -0.230237 -0.243381 0.056090 -0.291765 -0.329770 0.263991 -0.189837 0.058114 0.332423 0.569268 -0.471779 0.117396 -0.302544 0.279167 -0.170963 0.099224 -0.299009 -0.335216 0.110080 -0.145745 -0.169956 0.419343 -0.157157 -0.099521 -0.336242 0.326960 -0.115936 0.075250 0.360450 -0.011574 -0.099159
sent_108 0.260762 0.525975 -0.008158 -0.131808 0.752570 -0.176205 -0.279377 -0.300335 -0.441135 -0.251222 0.175216 -0.464344 0.549947 0.412181 0.044802 0.265985 -0.285295 -0.201071 0.114909 -0.188513 0.136827 0.008576 0.250639 -0.838220 0.288122 -0.253213 0.175614 -0.114482 0.381749 -0.555073 0.198443 -0.125027 -0.032180 -0.330770 0.205617 -0.307525 -0.156893 0.037409 0.187509 -0.423123 0.143611 -0.154318 0.491170 0.138837 0.133858 0.003843 -0.449603 0.172413 -0.280239 -0.560605
sent_109 0.084738 -0.178130 0.191481 -0.211309 -0.190328 0.027176 0.152306 0.297882 0.007301 0.345157 -0.389046 0.143938 -0.110251 0.206783 -0.148704 0.142055 -0.397620 0.374293 0.007593 0.035437 0.038484 0.116550 -0.274607 -0.190539 0.060885 0.160109 -0.127419 0.137610 0.031889 -0.076357 0.201625 -0.293343 0.172057 0.200708 0.021076 -0.386505 -0.141888 0.067920 0.138713 -0.101565 0.004266 -0.119948 -0.046881 -0.169605 0.142150 -0.290883 0.124954 0.309936 -0.175959 -0.067165
sent_110 -0.853958 -0.315666 0.051850 0.318163 -0.750781 -0.636835 0.052952 -0.447596 0.237525 0.823867 0.074344 0.382298 -0.824287 0.389233 -0.048159 -0.133700 -0.070444 0.584672 0.432885 -0.131090 1.032924 0.794182 -0.190701 -0.502816 -0.642547 -0.334344 -0.949679 -0.566036 -0.250812 0.876706 -0.436509 -0.816684 -0.426863 0.332233 -0.390292 -0.366391 0.659392 -0.573954 -0.095697 -0.115771 -0.828041 0.118480 -0.747399 -0.444987 -0.393600 0.671797 1.082464 0.543764 0.108035 1.064384
sent_111 0.159781 -0.462629 0.040653 -0.219074 -0.312937 -0.020134 0.831487 -0.298361 0.269710 -0.395658 -0.417693 -0.280106 0.127691 -0.302640 0.275570 -0.379450 0.124798 0.007956 -0.542996 0.203914 0.411246 -0.222388 -0.579807 -0.061769 0.432981 -0.093921 0.425137 0.107474 0.171552 -0.148753 -0.100931 0.640563 0.096340 -0.003799 0.124965 -0.570055 -0.241219 -0.212448 -0.433092 0.428139 -0.413834 0.120836 -0.219446 0.148033 -0.023903 0.139936 0.330050 0.817995 0.250203 -0.238453
sent_112 0.605293 0.427861 -0.122355 0.427153 0.256200 0.200809 -0.491271 -0.202135 -0.359109 -0.289402 0.117822 -0.225043 0.019323 -0.573831 0.558266 -0.154418 0.718600 -0.157567 -0.103759 0.142582 0.057059 -0.346714 -0.051846 0.851261 -0.181057 -0.329045 -0.366093 -0.068659 -0.378586 -0.372005 0.057038 0.127047 -0.379810 0.157729 -0.237230 0.344655 0.445121 0.022238 0.044077 0.145557 0.147719 -0.490893 0.026376 -0.148868 0.166241 0.348733 -0.200591 -0.581053 0.365199 -0.134541
sent_113 -0.118199 -0.148856 0.038564 -0.636439 -0.212685 -0.017765 -0.101343 -0.423074 0.221101 -0.484103 -0.584096 0.277686 0.415315 -0.210798 -0.291610 -0.090264 -0.073407 0.177235 0.149532 -0.114767 -0.001929 -0.206104 -0.038322 -0.249345 0.182830 0.067932 0.121771 -0.007546 -0.224506 0.347081 0.105880 0.301790 0.556917 -0.515068 0.051247 0.124127 -0.063647 -0.294523 0.323703 0.403347 -0.238587 0.383979 -0.015434 0.068224 -0.065777 0.058720 0.305783 0.098956 0.417990 -0.155530
sent_114 0.013770 0.065815 -0.329407 0.099566 0.099705 -0.180962 0.139734 -0.059009 0.317932 0.295776 -0.156489 -0.055269 0.270051 -0.102965 0.061654 -0.188832 0.059210 -0.032372 -0.074925 -0.140090 -0.128029 0.223683 -0.008583 0.046442 0.027545 0.040416 0.018304 0.193445 0.013603 -0.059981 0.150816 -0.128916 0.139137 0.081201 0.162435 -0.127827 -0.154543 0.049047 0.128110 -0.045744 0.208025 -0.318719 -0.114895 0.284932 -0.061940 -0.108371 0.168189 -0.017590 0.412990 -0.156959
sent_115 0.260880 0.050885 0.114325 -0.176760 -0.180893 0.066936 0.099271 0.073117 0.111424 -0.207593 0.027240 0.230531 0.225560 -0.172830 -0.081954 0.136939 -0.066275 0.032403 -0.025016 0.098149 -0.218198 -0.160997 0.077485 -0.246276 0.075594 0.156032 0.352308 0.103872 -0.014359 0.079267 0.058067 0.257363 0.149964 0.001810 -0.118000 0.116045 -0.203302 0.051348 0.074914 0.267837 0.113872 0.040202 -0.001252 -0.003358 0.052305 -0.059791 0.037839 -0.144740 -0.161100 0.053072
sent_116 0.120111 0.779587 0.830831 0.266557 0.627773 -0.349427 -0.192412 0.264006 -0.254796 -0.027265 0.598988 -0.264222 0.179130 -0.450355 -0.128336 0.028325 -0.250102 -0.336814 0.263949 -0.110178 0.147498 0.140979 0.739998 0.029737 0.346746 0.189011 -0.355019 -0.043937 0.586455 -0.566418 -0.040229 -0.011957 -0.415748 -0.461879 0.173450 -0.103652 -0.311704 -0.365513 0.255099 -0.057269 0.225493 -0.553530 0.532249 -0.564489 -0.844270 -0.082695 0.156202 -0.186225 0.405362 -0.239667
sent_117 0.443326 -0.055493 0.027489 -0.136800 0.520922 -0.272967 0.378008 -0.620407 -0.306179 -0.145226 0.205209 -0.465259 0.023277 0.029512 -0.071489 0.072209 -0.143188 -0.084197 -0.276895 -0.221206 0.479532 0.186657 -0.007328 -0.057155 0.315616 -0.203641 0.352503 -0.073250 0.482242 -0.000999 -0.412132 -0.045825 0.306711 0.143751 0.085858 -0.206405 -0.129792 0.004267 -0.191640 0.044453 0.109520 0.180183 -0.006305 0.005772 0.130049 0.253230 0.134808 0.176888 0.161599 -0.405876
sent_118 -0.444121 -0.053779 -0.147665 -0.275894 0.129687 -0.426037 0.616089 0.093276 0.069080 0.167045 0.138237 0.101910 -0.053928 0.043177 0.053261 -0.000155 -0.074453 0.085612 -0.031978 0.138389 0.037664 0.161196 -0.016125 0.039703 -0.299963 0.258150 0.024593 -0.538806 0.137565 0.075869 0.132099 -0.064556 -0.269024 0.174208 -0.498190 0.139041 0.080440 -0.054469 -0.295794 0.345246 -0.205216 0.059997 0.043776 -0.012171 0.150790 0.292526 0.181425 0.102365 -0.052043 0.236750
sent_119 0.620541 0.442568 0.057868 0.508192 -0.010636 0.201723 -0.066225 0.152151 -0.180450 -0.122631 0.033340 0.009786 0.126384 -0.147204 0.056741 0.200329 0.073770 -0.037237 0.323543 0.162173 -0.309916 -0.150304 0.365609 -0.031540 -0.471616 -0.266261 0.483995 0.598807 -0.321866 -0.181579 -0.171561 0.430531 -0.588482 0.284542 0.235984 -0.138057 0.302371 -0.054288 0.285125 -0.446485 0.478169 -0.410781 0.094155 0.509595 0.048690 -0.514070 -0.276731 -0.466025 -0.274886 -0.378439
sent_120 0.449611 0.259222 0.111203 0.048770 0.809624 -0.151170 0.161816 -0.305398 -0.274084 -0.250029 0.248394 -0.572697 0.400345 0.139278 -0.155905 -0.111149 -0.404941 -0.035182 -0.066498 -0.130919 0.034712 -0.127335 -0.156551 -0.426031 0.145721 0.016492 0.244483 -0.116378 0.254984 -0.222127 -0.057199 0.306117 -0.213094 -0.255714 0.187499 -0.107085 -0.040028 -0.055864 0.056806 -0.125237 -0.427339 0.374779 0.255741 0.295724 0.041439 -0.021612 -0.523879 -0.204346 -0.431467 -0.244969
sent_121 0.396326 -0.606194 0.106019 0.554505 -0.499222 0.489125 0.061313 -0.198365 0.559122 -0.227419 -0.026342 0.104140 0.181153 -0.239689 -0.267873 0.298131 0.464052 -0.036762 -0.072102 -0.511671 -0.094523 -0.286436 -0.352869 -0.518162 -0.035361 -0.412145 0.725327 0.304553 0.694827 0.366410 -0.521968 0.135416 0.119488 0.113848 0.512431 0.103694 -0.402866 0.083944 0.503381 -0.503959 0.132868 -0.287987 0.557399 0.220648 0.078833 -0.150295 0.260425 0.243148 -0.323066 -0.186137
sent_122 0.410866 -0.011311 -0.266092 0.016078 -0.493982 -0.269901 -0.197308 -0.516588 0.045627 0.175033 0.327746 -0.541742 -0.955236 0.183119 -0.126269 0.081396 0.441850 -0.135339 -0.165660 0.345786 0.706317 0.224373 0.211008 0.105743 0.231000 -0.251272 -0.148445 1.081857 0.044044 0.228157 -0.414830 -0.030971 0.470217 0.409394 0.199292 -0.481047 -0.307336 0.719145 -0.189841 -0.291230 -0.077462 0.182905 -0.261155 0.407634 -0.298675 -0.255542 -0.423737 -0.305128 -0.102197 -0.615756
sent_123 -1.090444 -0.279170 0.439913 -0.257523 0.086778 0.064318 -0.309999 -0.593874 -0.268276 0.233249 -0.119999 -0.267525 -0.325814 -0.004893 0.214794 -0.104871 -0.356862 -0.009950 0.017418 0.010308 0.183011 0.193747 -0.038240 -0.305102 0.116921 0.347552 -0.784184 -0.283076 0.015221 0.008531 -0.383336 -0.120841 0.394197 -0.536536 0.156108 -0.389797 0.241072 0.305790 -0.593026 0.032226 -0.451076 0.527854 -0.222835 -0.586203 -0.256300 0.141087 0.067993 -0.581728 -0.383963 0.210614
sent_124 0.447655 0.501460 0.470383 0.520193 0.638533 0.115458 0.326752 0.085313 -0.287226 -0.328149 -0.158926 -0.396305 0.159857 -0.140471 -0.031171 0.124417 0.327252 -0.130323 0.144094 -0.166205 0.067698 -0.183200 0.048542 -0.056469 -0.129451 -0.213069 -0.105055 0.508098 0.086971 0.076139 -0.105382 -0.016900 -0.472927 -0.052573 0.181897 -0.008371 -0.313852 -0.430747 0.561238 -0.208012 -0.289636 -0.194367 0.558761 0.171868 0.243983 -0.419809 -0.465430 0.509899 -0.207872 -0.284571
sent_125 0.042642 -0.120814 0.127336 -0.590791 -0.026150 0.214434 -0.116997 -0.275110 0.316567 -0.255340 -0.428033 0.144174 0.518259 -0.495385 -0.003856 -0.066002 0.019097 0.047300 0.113331 -0.039582 -0.107589 -0.092836 -0.053778 -0.542756 0.149680 0.126311 0.305477 -0.032043 -0.010147 0.138992 0.052822 0.602903 0.060098 -0.430273 0.033748 0.078132 -0.035769 -0.181664 0.030329 0.425246 -0.288775 0.040884 0.314669 0.077999 0.213690 -0.051893 0.236523 -0.115003 0.202427 -0.163125
sent_126 0.286623 0.233955 0.427103 0.138040 0.310835 0.288991 -0.350174 0.113034 -0.050262 0.171492 -0.066787 0.036887 0.574551 -0.375229 0.010006 0.397272 -0.317051 0.021541 0.005441 -0.254103 -0.305079 -0.154321 0.366281 0.132420 -0.085295 -0.155169 0.600631 0.282646 0.306009 0.051269 -0.046794 0.045485 0.060481 -0.252576 0.246459 0.425964 0.105208 0.045911 0.301414 0.019293 0.259661 -0.152479 0.327622 0.191495 0.286834 -0.348017 0.069349 -0.518913 -0.367629 0.085720
sent_127 0.629500 -0.379912 0.808634 0.074030 0.223182 0.352731 -0.059928 -0.088568 0.329601 -0.094531 -0.342180 -0.512069 0.300872 -0.144239 -0.855246 0.494351 -0.871572 0.030203 0.074905 -0.407126 -0.326947 0.124708 0.278390 -0.577699 -0.080877 -0.113030 0.905496 0.386339 0.518628 0.269773 0.083897 0.678468 -0.077501 -0.314554 0.430772 0.273214 -0.101668 -0.113926 0.238701 0.014940 0.134375 0.535179 0.083087 0.411644 0.078304 -0.812548 -0.261491 -0.388627 -0.776544 0.001189
sent_128 0.050947 0.129067 -0.072959 -0.021434 0.371785 -0.183878 0.293553 -0.003888 -0.120816 0.075841 0.071244 -0.376662 0.180148 -0.005530 -0.083148 -0.145765 -0.691689 0.076916 0.059931 -0.082023 -0.300072 0.281025 0.457129 -0.372387 -0.243712 -0.214425 -0.027273 0.181752 0.080575 -0.604026 0.434976 -0.229124 0.201728 -0.139724 0.503477 -0.422998 0.035367 -0.619229 -0.018380 -0.183912 0.067268 -0.467643 -0.092104 0.225654 0.353895 -0.299043 -0.177296 -0.451102 -0.333670 0.129802
sent_129 0.427508 -0.054456 0.257114 0.285230 0.174784 0.351655 0.293844 -0.072120 0.134512 -0.544785 0.273792 -0.190679 -0.090247 0.277441 -0.614502 0.474749 -0.311227 0.229494 0.074667 -0.295923 -0.307436 -0.540447 0.137626 -0.687223 -0.208375 -0.344659 0.740915 0.232697 0.206504 0.306949 -0.133311 0.249219 -0.239721 -0.451148 0.774196 0.291250 0.005500 -0.364162 0.059036 -0.238000 -0.571181 0.468789 0.559118 0.565002 0.371736 -0.364925 -0.395475 -0.229758 -0.878928 0.480287
sent_130 0.558131 0.373163 0.050768 0.630689 0.152439 0.058783 -0.175030 -0.261184 -0.124952 0.324681 0.076886 -0.152338 -0.343746 -0.087582 0.462079 0.408057 -0.114189 -0.163128 0.451610 0.242737 -0.062750 -0.563356 0.042372 -0.187314 0.031736 -0.214984 -0.263596 0.400766 0.165225 -0.342607 -0.132330 -0.282067 -0.535204 0.013525 -0.032254 0.007888 -0.052450 -0.133454 0.503995 -0.448597 0.683337 -0.543616 0.625432 0.131184 -0.533874 -0.138027 -0.253674 -0.093447 0.168026 -0.484568
sent_131 0.442540 0.270604 0.200834 0.580572 0.339939 -0.136655 -0.009846 0.126249 -0.098734 -0.001002 0.041130 -0.291904 -0.288793 -0.043589 -0.568741 0.225618 0.130713 -0.035843 0.026258 -0.149755 -0.392510 -0.207399 0.479211 0.137322 -0.097076 -0.292924 0.263150 0.274375 0.517699 0.178896 -0.285127 -0.100324 -0.446901 -0.466615 0.382619 0.035260 0.112078 0.042677 0.147104 -0.386513 -0.250197 0.259982 0.268008 0.460656 -0.202811 -0.261018 -0.405091 -0.262259 -0.359940 0.030824
sent_132 0.117989 -0.303287 0.381400 -0.007953 0.504943 0.308640 0.082302 -0.191041 -0.219142 -0.254564 0.085684 -0.224441 0.490729 -0.334531 -0.507499 0.231604 -0.480254 0.109125 -0.276632 -0.501999 -0.203373 -0.046054 -0.065438 0.362883 -0.075654 0.226468 0.370194 0.024679 0.122955 0.316806 -0.390933 -0.058760 0.166556 -0.261639 -0.094496 0.276814 0.473485 -0.124626 0.445007 -0.303862 0.001325 0.662757 0.082772 0.288521 0.051511 -0.365311 0.214459 -0.302065 -0.204175 0.040576
sent_133 0.085847 0.286814 -0.060646 -0.341995 0.329627 -0.324435 -0.078269 0.012904 -0.178239 -0.158184 0.066522 0.410903 0.767516 -0.509408 -0.563515 -0.500302 0.146797 -0.051319 -0.327563 -0.081940 0.015182 -1.006761 0.186783 0.976184 -0.074779 -0.134797 0.363858 -0.477043 0.187729 0.019394 -0.336501 0.385149 0.395433 -0.590143 0.050488 0.370501 0.074939 0.066130 0.613306 0.360864 -0.486339 0.288155 -0.058130 -0.421838 -0.333324 0.345627 0.134587 -0.442061 0.321281 0.149475
sent_134 0.010020 0.635845 0.727731 0.131595 0.293854 -0.467435 -0.124486 0.461026 -0.280399 0.166940 0.559245 -0.048670 0.178554 -0.423122 -0.264848 0.064333 -0.196307 -0.272961 0.191981 -0.201530 0.105108 0.066092 0.893632 -0.047171 0.263432 0.146032 -0.245103 -0.264495 0.817114 -0.759427 -0.138893 -0.144633 -0.264948 -0.408252 0.271773 -0.190670 -0.428620 -0.160015 0.334770 -0.052191 0.320487 -0.640180 0.378065 -0.742450 -0.621417 0.082422 0.047631 -0.413238 0.174764 -0.405499
sent_135 0.401651 0.308871 0.182278 -0.130371 0.271046 -0.087533 0.145116 -0.243108 -0.067338 -0.405778 0.224894 -0.240625 0.309561 -0.344528 -0.205620 0.120992 -0.113133 -0.141764 0.104090 0.119102 -0.099115 -0.020377 0.238165 -0.764923 0.230794 0.166931 0.225370 0.104906 0.345292 -0.115915 0.004782 0.093753 -0.228820 -0.342734 0.098229 -0.406469 -0.174049 -0.272933 0.091653 -0.097358 -0.196880 -0.202174 0.405059 0.342910 -0.181776 -0.145791 -0.007341 -0.031954 -0.001609 -0.408992
sent_136 0.392062 0.030241 0.625176 0.001397 -0.033362 0.024692 0.549144 -0.071903 -0.107736 -0.251815 -0.193386 0.236764 0.347022 0.154569 -0.354597 0.265698 -0.212414 -0.168323 0.533138 0.122556 -0.159858 -0.147502 0.320724 -0.334908 0.242269 -0.147917 0.275384 0.406203 0.344907 0.117173 -0.191551 0.355221 -0.208169 0.001915 -0.146327 -0.159061 -0.423092 -0.093381 0.327899 -0.115653 0.338913 0.624534 0.027069 0.147336 0.509138 -0.245161 -0.009630 0.105706 0.327497 0.092142
sent_137 0.129252 0.105785 0.095287 0.163239 -0.308294 0.081335 0.189915 -0.055520 0.105282 0.221890 -0.043344 0.085901 -0.615246 -0.070573 0.325149 0.255941 0.121548 -0.101194 0.078767 0.267121 -0.054042 0.066389 0.477757 0.368869 0.069956 -0.477219 0.233274 0.921257 0.124857 0.046201 -0.164845 -0.106203 0.399034 0.085232 0.208938 -0.094895 -0.349618 -0.082224 -0.377937 -0.059180 0.392585 -0.170968 -0.323147 0.201727 0.068577 -0.449400 0.170966 -0.328340 0.348512 0.218964
sent_138 0.106866 0.190285 0.701194 0.960391 -0.212688 0.193168 -0.104609 -0.270463 -0.309112 -0.146627 -0.114204 0.065332 0.046435 -0.172780 0.398533 0.380105 -0.280690 -0.082595 -0.298602 -0.063091 -0.113864 0.056766 0.041379 0.658311 0.497151 0.265610 -0.252874 -0.712996 0.419381 0.314627 0.442362 -0.100895 0.570615 -0.351428 -0.098059 0.623688 0.062893 0.116309 -0.450568 0.621156 0.282693 0.439066 0.075872 -0.419957 -1.307996 0.470632 0.813610 -0.070879 0.242638 0.532781
sent_139 -1.025457 -0.214736 0.198323 0.646018 -0.306476 -0.523629 0.310598 0.143717 0.607109 0.461593 0.490957 0.370860 -1.108772 0.066030 -0.068560 0.186969 -0.269274 0.401621 0.143587 -0.030423 0.675023 0.318279 0.167906 -0.339904 -0.753093 -0.002606 -0.978403 -0.232398 -0.092114 1.154113 -0.195361 -0.553678 -0.645664 0.005648 -0.848943 0.117188 0.655436 -0.334291 -0.343813 -0.291564 -0.816284 0.485309 -0.115429 -0.258056 -0.313672 0.263300 1.107004 0.028860 0.032286 1.210160
sent_140 -0.621643 -0.039780 0.068736 -0.063306 0.105324 -0.246945 -0.123820 0.146268 0.123331 0.117178 -0.029415 0.332432 0.029823 0.024690 0.384701 -0.021533 -0.272170 0.267980 -0.177850 -0.265777 -0.059988 0.264431 -0.298080 -0.215396 -0.086625 0.297154 -0.139226 -0.406175 -0.141080 0.426440 0.084645 -0.354215 -0.170451 -0.213302 -0.617373 0.189861 0.389723 0.173203 -0.291740 0.189633 -0.163054 0.392093 -0.248751 -0.167128 0.023025 0.474409 0.477529 -0.096935 -0.050353 0.384508
sent_141 -0.614064 0.539529 -0.269184 0.195949 -0.319231 -0.756337 -0.136375 0.081502 0.007941 0.279984 0.272454 0.131866 -0.397297 0.019661 0.224618 0.188501 0.272309 0.158301 -0.195069 0.231517 0.571287 0.442371 0.110445 -0.139499 -0.703963 -0.112007 -0.339719 -0.524587 -0.253302 0.713483 -0.057904 -0.285786 -0.339640 0.088835 -0.481881 -0.025877 0.721948 0.537816 -0.499435 0.263718 -0.584962 0.065954 -0.668995 -0.324571 -0.175630 0.514057 0.455928 -0.167638 -0.362240 0.485754
sent_142 -0.548422 -0.213012 -0.726181 0.288770 -0.067000 -0.011119 -0.012883 0.405183 0.166834 0.470027 0.328110 0.366183 -0.407351 0.369542 0.549640 0.720916 0.035561 -0.246444 -0.329421 0.040543 -0.460180 0.373928 0.129141 -0.029838 0.040041 0.146621 0.394423 -0.334213 0.555699 0.571315 -0.302327 -0.773256 -0.092068 0.202294 -0.581102 0.397505 0.354678 0.698262 -0.533318 -0.008863 0.195202 0.293220 -0.349065 0.638661 -0.330156 0.348001 0.543998 0.090937 0.059171 -0.099273
sent_143 -0.530862 -0.295753 -0.394099 -0.245382 -0.044337 -0.078870 0.126895 -0.548384 0.036870 0.290527 -0.186765 -0.058904 -0.175181 0.268366 0.253832 -0.161732 -0.220141 0.258503 -0.039641 -0.052128 0.570950 0.374748 -0.407284 -0.536606 -0.198110 -0.078206 -0.431310 -0.768701 -0.361522 0.203893 0.149945 -0.264704 0.162382 0.167604 -0.202645 -0.225266 0.200206 -0.784522 -0.409234 0.198242 -0.455083 -0.130864 -0.343360 -0.078578 -0.218561 0.399025 0.579382 0.546940 0.101159 0.509713
sent_144 0.344243 -0.397125 0.048096 0.539068 -0.626984 0.369581 0.124861 -0.514457 0.499224 -0.542190 0.024782 0.093050 0.247017 -0.542201 -0.065669 0.246531 0.342829 -0.074911 -0.032496 -0.488322 -0.165623 -0.549232 -0.395213 -0.168063 -0.250369 -0.534143 0.690635 0.268123 0.469755 0.257650 -0.463912 -0.064153 0.291714 0.087347 0.549241 0.354558 -0.355555 -0.315331 0.688009 -0.418424 0.414247 -0.465503 0.289460 0.171548 -0.097399 0.012922 0.413401 0.282784 -0.283390 0.072739
sent_145 0.441730 0.842015 0.839197 0.114350 0.949097 -0.302477 0.077193 0.347089 -0.532846 -0.071546 0.536376 0.023731 0.019785 -0.357993 -0.290500 0.141859 -0.178566 -0.133181 0.145695 -0.197576 -0.061948 -0.429825 0.808164 0.065776 0.568831 0.204237 -0.490449 0.003643 0.446709 -0.471268 -0.133409 -0.029221 -0.491337 -0.524091 0.108365 -0.248345 -0.542905 -0.321892 0.219069 0.000341 0.598567 -0.506843 0.784856 -0.512041 -0.640467 0.031737 0.292250 -0.220576 0.547014 -0.408300
sent_146 0.025819 0.056514 0.176886 -0.261403 0.320428 0.108892 0.117836 -0.060018 0.354030 -0.065878 -0.261710 -0.222501 0.382726 -0.065679 0.035827 0.154515 -0.550822 -0.074160 0.404639 -0.041581 -0.358272 -0.226457 -0.085741 -0.682969 0.239692 0.041551 0.205847 0.100128 0.234880 -0.339724 0.024686 0.263353 0.059718 -0.452294 0.322115 -0.141206 -0.201632 -0.151310 0.331040 -0.206248 0.356266 -0.129536 0.337113 -0.030505 -0.105999 -0.297255 0.142272 0.039938 0.299386 -0.114194
sent_147 0.552929 0.084510 -0.115217 -0.442743 -0.221990 0.178475 0.031600 -0.106329 0.219217 0.276988 -0.368492 0.359990 0.280237 0.225272 -0.546756 0.389609 -0.714888 0.322255 -0.032656 -0.110009 0.232121 -0.319161 0.540517 -0.819527 0.177062 0.087967 0.785841 -0.111852 0.185036 0.020621 0.049026 0.294903 -0.196763 -0.028615 0.832985 0.186900 0.030858 0.024723 0.450304 0.233761 -0.350360 0.453898 0.747077 0.375191 0.434762 -0.329696 -0.485640 -0.057500 -0.065224 -0.364326
sent_148 0.413544 -0.105653 0.094415 0.202934 -0.047774 -0.197906 0.785950 -0.261590 -0.006694 -0.718351 0.007533 -0.539540 -0.263648 -0.060100 0.074694 -0.027001 -0.199550 0.153451 0.043467 0.462187 -0.034501 -0.202351 -0.377858 0.155882 -0.142188 0.019949 -0.235027 0.334090 0.091944 0.076728 0.316748 -0.154535 0.210186 0.197428 -0.409111 0.109165 0.039587 -0.209452 0.227136 0.136237 -0.151286 0.103892 -0.060119 0.498385 0.196575 -0.098236 -0.282383 0.301266 -0.021107 0.163015
sent_149 0.323270 0.112179 -0.399929 0.036837 0.478787 -0.420265 0.138096 0.906170 0.122883 0.584689 0.200391 0.207827 0.303215 0.140557 -0.423526 -0.241527 -0.088769 -0.380687 -0.151354 -0.161689 -0.368859 0.616234 0.410597 0.528648 -0.365446 -0.125461 0.522375 0.173040 -0.045944 -1.073135 0.578892 0.358007 0.155391 0.656761 0.137405 -0.199197 -0.276618 -0.237829 -0.504167 -0.441023 0.400642 -0.742631 -0.041889 -0.044554 0.556898 -0.457221 -0.028383 -0.260730 -0.449203 0.036192
sent_150 -0.237136 0.185105 0.632733 0.131301 0.361625 0.123904 -0.279000 -0.296770 0.104033 -0.607124 0.020531 0.040572 0.164958 -0.636007 0.182729 -0.067558 -0.126682 -0.410907 -0.081504 -0.197890 0.297218 -0.479856 -0.007111 0.146445 -0.022955 0.047080 0.150447 0.132732 0.011387 -0.034100 -0.368026 0.635644 0.425397 -0.812628 0.318252 0.490846 0.127714 -0.209854 -0.186260 -0.118320 -0.469451 0.328676 0.496720 -0.343564 -0.501108 -0.211822 0.467705 -0.233292 -0.015742 0.012837
sent_151 0.080533 0.142908 0.412578 0.116977 -0.205068 0.093283 0.033282 0.424774 -0.272149 0.256199 0.097011 -0.075350 0.392995 -0.048884 -0.000013 0.207293 0.123042 -0.255089 -0.167427 0.085557 -0.279342 0.387395 0.471109 0.013009 0.392647 -0.014872 0.050554 -0.085645 0.749101 -0.332964 -0.114956 -0.051491 -0.082541 -0.091898 -0.188401 -0.460040 -0.476668 -0.007240 -0.270125 -0.201086 0.233234 -0.143228 -0.148860 -0.312628 -0.185218 -0.125850 -0.006513 -0.060365 0.020490 0.066664
sent_152 -0.078040 -0.354489 0.166635 0.096965 -0.713031 0.039928 -0.109335 -0.234137 0.592541 -0.219824 -0.119058 0.252829 0.181317 -0.508750 -0.368394 -0.093251 0.381706 -0.064117 0.065776 -0.229871 -0.151871 -0.769277 -0.116389 -0.073924 -0.243708 -0.309985 0.554212 0.266138 0.147678 0.063920 -0.249932 0.381883 0.205307 -0.509398 0.604788 0.224912 -0.331243 -0.155696 0.555788 -0.197933 0.039928 -0.394784 0.286138 -0.050508 -0.333797 -0.154014 0.166285 -0.187098 -0.414588 -0.085347
sent_153 -0.565123 -0.055220 0.134398 -0.046473 0.154501 -0.020950 0.025129 -0.085846 -0.000170 0.345938 0.261231 0.149698 -0.238766 -0.158028 0.076196 0.497871 -0.214271 -0.051691 -0.210222 0.019320 0.367971 0.166646 -0.127781 0.071804 -0.115017 0.254567 0.126555 -0.193662 -0.038655 0.111749 -0.005155 -0.279809 -0.053961 0.091398 -0.005700 0.005930 0.274930 0.018518 -0.355214 -0.048448 -0.380688 0.088301 -0.069125 -0.059463 -0.288626 -0.157764 0.485765 0.254562 -0.358163 0.011883
sent_154 0.814019 0.408644 -0.125827 0.453889 0.518805 -0.110460 -0.048740 0.111827 0.060361 -0.294547 0.426347 -0.219618 -0.073564 -0.020311 0.202354 -0.260283 -0.135145 0.190199 0.308722 -0.034747 -0.035174 -0.174238 -0.305844 -0.012884 -0.379300 -0.264369 0.039240 0.259841 -0.379019 0.018961 -0.047279 0.071051 -0.332621 0.327955 0.213757 0.431345 0.250801 -0.239270 0.131700 0.043362 -0.208747 -0.503433 0.159580 0.166394 0.320807 0.223611 0.042945 -0.132438 0.024026 0.307304
sent_155 -0.091160 -0.001906 -0.003429 -0.334152 -0.710518 -0.149600 0.248240 -0.570851 0.541396 0.215992 0.020222 0.837630 0.088312 -0.051599 0.160715 0.183296 0.219098 -0.098623 0.144519 -0.195265 -0.025508 0.108829 -0.188408 -0.323818 0.380948 -0.138362 0.445043 0.086147 0.010225 0.050213 -0.085867 -0.137814 0.039429 0.122570 0.192536 -0.009109 -0.512145 -0.005228 -0.181822 0.294810 0.346661 -0.070256 -0.214247 0.049116 -0.132726 0.293002 0.539068 0.258354 0.127352 -0.011902
sent_156 0.183019 -0.454298 0.740332 0.267973 -0.270278 0.591592 0.035169 -0.152597 0.405874 0.009983 -0.335232 0.138780 0.371065 -0.645429 -0.449667 0.653581 0.102013 -0.202065 0.080389 -0.479708 -0.202983 -0.379505 0.035704 -0.296478 -0.012323 -0.275547 0.830196 0.345392 0.693670 0.209350 -0.524119 0.098542 0.054576 -0.235947 0.640705 0.234483 -0.417106 -0.176085 0.298010 -0.166713 0.127605 -0.191458 0.397956 0.364283 0.104603 -0.449649 0.495387 -0.042105 -0.463582 -0.131687
sent_157 -0.040186 0.073032 0.574847 -0.141725 0.060857 -0.217952 0.410582 0.029845 -0.215456 0.311014 -0.204945 -0.052512 -0.081865 0.136583 -0.036014 0.008511 -0.250239 0.007811 -0.101165 -0.072079 0.249240 0.235588 0.218885 -0.254974 0.341638 -0.038318 0.074008 0.309828 0.742793 -0.142371 -0.028407 -0.132110 0.076717 -0.168925 0.342752 -0.708294 -0.507421 0.109498 -0.081744 -0.031063 0.043190 0.155056 0.204394 -0.429750 0.102558 -0.208889 -0.252291 0.324456 -0.074975 -0.248908
sent_158 0.427707 0.338134 -0.341366 0.424738 0.521231 0.122293 -0.470970 -0.278986 -0.230608 -0.166842 0.010790 -0.295939 -0.701746 0.005010 0.656935 -0.547389 0.529309 0.144615 0.686642 0.322884 -0.108329 -0.548743 -0.801623 0.396347 -0.565717 -0.254498 -0.758664 0.183054 -1.183152 0.029352 -0.024769 -0.188589 -0.277078 0.254517 -0.063912 0.503754 0.650825 -0.374977 0.373168 -0.007100 0.270860 -0.889409 0.225913 -0.162373 -0.046724 0.285888 -0.370028 -0.106323 0.206428 0.266566
sent_159 0.297266 -0.051629 0.114873 -0.373545 0.000003 0.105106 -0.205480 0.024343 0.056513 -0.059427 -0.195853 0.341498 0.148660 0.012059 -0.680167 0.362102 0.233443 0.067137 0.420684 -0.219491 -0.030820 -0.204748 -0.012322 -0.450561 0.034280 -0.054838 0.678560 -0.280961 0.318933 0.609668 -0.810935 0.226499 0.103380 0.043803 0.230565 0.022680 -0.093203 0.186216 0.615267 -0.085672 0.208554 -0.222369 0.373331 -0.154202 -0.332260 0.076896 0.526598 0.469405 -0.025657 -0.253711
sent_160 -0.167287 0.089583 0.253252 -0.082196 0.025566 0.166973 -0.063857 -0.490089 -0.154105 -0.605904 -0.155475 -0.416713 0.511307 -0.433869 0.007775 -0.196820 -0.400088 0.100305 -0.258071 -0.537870 -0.129975 -0.207723 0.038442 0.031700 -0.119278 0.144584 -0.125932 0.187975 0.145663 0.225898 -0.564069 0.297620 0.556595 -0.521141 0.300807 0.018930 0.226178 0.549164 0.520585 -0.357561 0.342343 0.706936 -0.026029 -0.155498 -0.195881 -0.226655 0.078027 -0.819384 -0.176006 -0.315576
sent_161 0.605419 0.147003 0.095818 0.331332 -0.143132 0.234144 0.077929 -0.169431 -0.159153 -0.374976 0.111419 -0.605910 -0.085232 0.082514 -0.121741 -0.160729 -0.168337 0.325505 0.128360 0.138605 -0.109443 -0.303030 -0.447561 -0.399599 -0.207888 0.019072 -0.166090 0.414892 -0.165650 0.271227 0.099217 -0.148073 -0.046745 0.069860 0.164851 0.141310 0.127049 0.079654 0.940937 -0.106852 -0.010546 -0.084107 0.340368 0.184419 0.172194 -0.244953 -0.964004 -0.109770 -0.504845 -0.044007
sent_162 0.143932 -0.071117 -0.217774 0.211406 -0.041586 0.321708 -0.053029 -0.284561 -0.105925 -0.216208 0.120674 -0.070464 -0.346277 -0.081877 0.491269 -0.224096 0.306516 0.090893 0.319581 0.447661 -0.460038 -0.446213 -0.414382 0.160410 -0.179043 -0.315286 -0.077749 0.002674 -0.446759 -0.093114 0.229363 -0.071962 -0.201441 0.006034 -0.014883 0.124613 0.277762 -0.643802 0.037159 0.104170 0.115927 -0.841815 0.056093 0.193484 -0.228756 0.020293 -0.170949 0.187714 -0.073384 0.370344
sent_163 -0.115155 0.047062 -0.667534 -0.375707 0.484679 -0.208636 -0.017056 0.759884 0.377100 0.759962 -0.429453 -0.106210 0.895535 -0.337824 -0.659074 -0.504908 0.546673 -0.116681 -0.371286 -0.283732 -0.602748 0.804160 0.652237 0.846921 -0.454869 0.296362 -0.252480 0.259435 0.065916 -0.053826 0.506558 -0.030937 0.184029 0.581761 -0.330267 0.091695 -0.189898 0.361326 0.522614 0.004255 0.673630 -1.013157 0.028243 0.334557 0.650125 -0.601996 -0.072427 -0.555687 0.602703 -0.379125
sent_164 0.254396 -0.195527 0.022425 -0.007604 -0.174154 -0.021801 0.351281 -0.259030 0.279640 -0.042448 0.116050 0.058850 -0.028631 -0.413386 -0.021560 0.147664 -0.060398 0.151019 -0.180166 -0.077114 0.081960 0.041076 -0.186782 -0.271917 0.037269 0.086178 -0.085868 0.469073 0.220581 0.171803 -0.326500 -0.248155 0.032398 0.293790 -0.110252 -0.174658 -0.283400 -0.053148 0.168746 -0.176717 0.156258 -0.277247 0.034211 0.281882 0.190962 -0.092416 0.512470 -0.069334 0.134374 -0.117599
sent_165 0.931517 0.408611 0.701072 0.353152 0.967053 -0.212558 -0.030055 -0.132812 -0.626143 -0.486121 0.138228 -0.722070 -0.071381 -0.105081 -0.342137 0.044412 0.029199 0.105899 0.442657 0.067931 -0.196569 -0.119301 -0.159822 -0.342924 -0.296251 -0.329031 0.304333 0.618710 0.445321 0.414034 -0.447768 0.255606 -0.331479 -0.218070 0.127070 -0.289579 0.445723 0.436051 0.221297 -0.120629 -0.390020 0.116643 0.066339 0.239265 0.227002 -0.086525 -0.647194 -0.419861 -0.802039 -0.314159
sent_166 0.313962 0.412987 0.667452 0.426946 0.138131 0.018353 -0.110774 -0.744470 -0.284665 -0.234200 -0.116622 0.335595 0.201855 -0.274121 0.472686 0.314219 -0.629162 -0.552766 0.202887 0.352679 -0.352287 -0.525238 0.306535 0.644211 0.615012 0.368454 -0.247911 0.004545 0.407184 -0.623669 0.054088 0.295636 0.596463 -0.321361 -0.142449 0.329954 -0.014175 0.015863 -0.237444 0.018591 0.677552 0.604601 0.178661 -0.464809 -0.922575 0.006396 0.127505 -0.719006 0.423515 0.196828
sent_167 -0.495999 0.003706 0.004727 -0.027071 -0.195662 -0.138550 0.391647 0.131309 0.170617 -0.173023 0.248072 -0.001357 0.259056 0.216847 0.071804 0.254136 0.163822 0.151384 -0.369828 -0.405918 0.033433 0.343213 -0.119346 0.098521 -0.166723 -0.100702 0.468967 -0.271986 0.001686 0.327417 -0.105908 -0.156119 0.006106 0.063351 0.046614 0.420845 0.097840 0.276497 -0.270217 0.359383 -0.235204 0.268277 -0.321202 0.120613 0.318263 0.323653 0.254711 0.284824 -0.473724 0.251545
sent_168 -0.110795 0.261874 0.166051 0.002363 -0.039170 -0.193225 0.109612 -0.581418 0.070585 -0.379471 0.190838 -0.169734 0.134164 -0.686571 -0.129822 -0.415546 0.000652 0.155197 -0.102445 -0.301106 0.192744 -0.309122 0.046902 0.338730 -0.332302 -0.072703 -0.025714 0.324083 -0.317748 0.312999 -0.342945 0.110699 0.478818 -0.418813 0.366794 0.262355 -0.030782 -0.175873 0.315295 -0.083320 -0.088512 0.180969 -0.035572 0.079511 -0.192911 -0.057961 0.256133 -0.623510 -0.151748 0.207204
sent_169 0.548819 0.015783 0.342097 0.732234 0.119817 -0.072898 0.124766 -0.211847 -0.047090 -0.386393 -0.199145 -0.321580 -0.091195 -0.030585 0.146007 0.144558 0.155650 -0.168799 0.489603 0.090901 0.024693 -0.540434 -0.413663 -0.095462 0.054653 -0.125652 -0.306676 0.171447 0.042407 -0.142295 0.125904 -0.227344 -0.151353 0.004381 0.018145 0.372199 -0.378740 -0.426413 0.609119 -0.088822 -0.007788 -0.343295 0.524125 0.277720 -0.239891 0.179008 -0.163137 0.536027 0.020014 -0.341291
sent_170 0.205526 0.202600 -0.740449 -0.034519 0.247397 -0.200470 -0.523611 0.323412 -0.218807 0.555468 -0.554906 0.930622 0.211722 0.177904 -0.424818 -0.252456 -0.456277 0.277920 0.564404 0.106816 -0.069634 -0.055363 -0.126804 -0.452332 -0.711528 0.134380 -0.262688 -0.299151 -0.700706 0.238771 0.185127 -0.361080 -0.027266 0.172706 -0.363296 -0.268852 0.636643 -0.166983 0.743363 -0.449594 -0.148506 -0.067929 -0.294545 -0.016488 -0.011577 -0.098810 0.573561 0.158296 0.454827 0.206410
sent_171 0.336452 0.120817 0.140316 0.428639 -0.107535 0.031517 0.067520 -0.014946 -0.249755 -0.243839 0.042362 -0.272383 0.061533 -0.371552 0.097015 -0.075352 -0.246818 0.293134 -0.420496 0.207530 0.200469 -0.495469 -0.033054 0.386299 0.073087 0.139357 -0.092944 -0.084208 0.081872 -0.002467 -0.126457 -0.095752 0.034569 -0.141287 0.060893 -0.089747 0.173120 -0.050035 -0.047229 0.010999 -0.601509 0.156184 0.160978 0.313067 -0.329966 0.145021 0.318264 0.002338 0.050692 0.061694
sent_172 -0.043225 0.423678 0.400936 0.245445 0.057915 0.045560 -0.292258 -0.490325 0.348546 -0.201210 -0.055941 0.730160 0.592196 -0.547582 0.352277 0.407820 -0.339206 -0.724790 0.167090 -0.115761 0.049206 -0.510513 0.276919 0.391268 0.273572 0.182889 -0.003372 -0.288552 0.214055 -0.518644 -0.038151 0.627490 0.376663 -0.215162 -0.048689 0.747489 -0.181392 -0.160321 -0.160187 0.012869 0.481094 0.297200 0.250683 -0.569114 -0.721957 0.028417 0.458518 -0.482207 0.452297 0.150692
sent_173 -0.662142 -0.165656 0.000518 0.129234 -0.749343 -0.926882 0.386590 -0.101131 0.420241 0.585034 0.084605 0.400486 -0.654065 0.307926 -0.311156 -0.244989 -0.219074 0.487657 0.585317 0.205225 0.601815 0.576675 -0.194526 -0.586609 -0.650183 0.018817 -0.778605 -0.750056 -0.118899 0.578030 -0.395326 -0.648718 -0.636081 0.135991 -0.588872 -0.006728 0.665408 -0.303597 0.027983 0.168601 -1.072326 0.163234 -0.623655 -0.256899 -0.175357 0.717009 0.863201 0.167549 0.079855 0.996122
sent_174 0.427165 0.192916 -0.116455 -0.004238 0.034345 -0.209142 0.397091 -0.513194 -0.068009 0.159260 0.669327 0.601691 -0.116032 0.303801 -0.136913 1.024251 -0.078077 -0.021960 -0.483979 -0.212746 0.607661 0.297166 0.471435 -0.494327 0.655348 0.133441 0.520211 -0.089471 0.404919 0.137803 -0.429869 -0.324349 0.382805 0.548889 0.250836 -0.021406 -0.679854 -0.122586 -0.547118 -0.172111 -0.001719 0.335815 0.410751 0.083137 -0.255045 0.204040 0.829496 0.340106 0.071307 -0.243168
sent_175 -0.320646 -0.202929 0.168610 -0.700914 0.247835 0.282392 0.119509 -0.301486 -0.153678 -0.871918 -0.143294 -0.139404 0.288919 0.058809 -0.030009 -0.136155 -0.257106 0.019210 -0.098309 -0.031183 0.120813 -0.146460 -0.106054 0.341001 0.112196 0.174507 -0.163102 -0.074386 -0.271280 0.281762 0.026561 0.587351 0.658219 -0.228863 -0.479488 0.500673 0.192172 0.136625 -0.145969 0.442517 -0.150866 1.086508 0.009493 -0.132477 0.333847 -0.029721 -0.031439 -0.062680 0.272227 0.218584
sent_176 -0.923491 -0.077271 -0.049805 0.567518 -0.423636 -0.368248 0.232911 0.674946 0.279223 0.561297 0.326921 0.594108 -0.473802 0.182066 0.439178 0.325975 0.253436 -0.102159 -0.189126 -0.102416 0.005216 0.357070 0.207855 0.140986 -0.505438 0.068397 -0.135758 -0.416314 0.233420 0.575472 -0.232855 -0.667342 -0.608837 0.186386 -0.486291 0.430843 0.392867 0.598779 -0.453805 0.149317 -0.140366 0.376134 -0.378902 -0.086064 0.297490 0.639387 0.438007 -0.151791 -0.259564 0.413872
sent_177 -0.095115 -0.048855 0.093187 0.019815 -0.228632 -0.351606 0.539527 -0.417241 0.278889 0.175950 -0.244286 -0.253953 -0.059264 0.190329 0.034949 0.098892 -0.084091 -0.006852 -0.218882 -0.084522 0.241839 0.390832 -0.182830 -0.399302 0.031257 -0.101078 0.160496 0.044819 0.305662 -0.029693 0.229492 -0.132583 0.133050 0.067224 0.486447 -0.138256 -0.100126 0.215978 -0.175361 0.416770 -0.023595 -0.148356 -0.139926 0.101457 0.164963 0.133829 -0.207871 0.283590 -0.536346 -0.230608
sent_178 -0.320498 -0.306925 -0.196951 0.001093 -0.499011 -0.215519 -0.051196 -0.297499 0.213564 0.260870 -0.367941 0.193215 -0.242601 0.120149 0.000787 -0.212048 0.014821 0.202178 0.159253 0.005346 0.496459 0.222748 -0.122524 -0.206033 -0.230370 -0.272913 -0.192184 -0.122602 -0.050715 0.322525 -0.351853 -0.142323 0.324689 0.127790 0.222456 -0.371315 0.042561 -0.074935 -0.099175 0.013222 -0.469224 -0.047084 -0.440867 -0.173843 -0.105268 0.262092 0.651977 0.291927 0.182200 0.266144
sent_179 -0.248413 -0.072051 -0.137925 -0.684030 0.363870 -0.277685 -0.339433 0.798246 -0.011822 0.788168 0.241493 0.583607 0.000077 -0.323778 -0.362037 -0.198791 -0.477366 -0.213554 -0.154286 0.021284 -0.370502 0.459354 0.323717 0.704204 -0.232449 0.240917 0.099365 0.279937 -0.318429 -1.405209 0.764940 -0.049599 0.402077 0.633612 0.079981 -0.500009 -0.170541 -0.220569 -0.973106 -0.437490 0.135313 -0.861015 -0.318963 -0.237050 0.958573 -0.749221 0.128764 -0.694262 -0.761702 0.287446
sent_180 0.404737 0.186312 0.148044 -0.329261 -0.159049 -0.043350 -0.071809 -0.487294 -0.011777 0.485308 0.118313 0.244977 0.129375 0.350472 -0.582372 -0.105128 -0.831808 0.468630 0.382882 -0.338225 -0.056077 -0.337180 0.007798 -1.131002 0.111390 0.172094 0.324388 -0.159005 -0.210804 0.158021 0.042414 -0.062255 -0.391044 -0.302635 0.534819 0.008464 0.179588 0.050522 1.080949 0.088837 0.490996 0.123247 0.804612 -0.042769 -0.170839 -0.113306 -0.594942 -0.213955 -0.365409 -0.183230
sent_181 -1.032706 -0.169490 0.176663 0.211691 -0.638518 -0.752832 0.298610 -0.292853 0.364521 0.729266 0.001695 0.470827 -0.723555 0.216885 -0.179016 -0.092525 -0.324826 0.475624 0.558959 0.129856 0.703526 0.336392 -0.195231 -0.465594 -0.689167 -0.050248 -0.775423 -0.697396 -0.216908 0.607029 -0.419136 -0.761545 -0.504165 -0.134889 -0.533548 0.090406 0.688606 -0.552545 0.023665 0.091451 -1.069602 0.193207 -0.557326 -0.313332 -0.285813 0.570617 1.010808 0.184130 -0.030674 1.187807
sent_182 0.219927 0.145066 0.212281 0.353246 0.269631 -0.479685 -0.471012 1.056136 -0.092809 0.792780 0.040566 -0.265407 0.667174 0.003824 -0.492937 -0.122278 -0.392373 -0.084561 -0.411645 -0.483440 -0.134320 1.018778 0.054783 0.663739 -0.133972 0.329981 -0.159041 -0.130208 0.448691 -0.759732 0.637564 -0.381767 -0.238238 0.490679 0.137910 -0.151334 0.105691 0.502310 0.347836 -0.219426 0.305046 -0.528302 -0.276571 -0.595984 0.170823 -0.162879 -0.458652 -0.111497 -0.763037 -0.383313
sent_183 -0.222182 -0.190342 -0.187173 -0.170543 -0.053155 0.090188 -0.040421 0.409495 0.113334 0.241859 -0.079620 -0.102694 0.067459 -0.142211 -0.056746 -0.001260 -0.055127 -0.128967 -0.330588 0.115874 -0.327311 0.331544 0.253249 0.307584 0.121364 0.147748 -0.006443 0.182631 0.086158 -0.561263 0.565514 0.012253 0.149036 -0.091791 -0.021269 -0.187395 0.046908 -0.082464 -0.285553 -0.081420 0.256908 -0.405356 -0.066118 -0.000655 0.095519 -0.504323 -0.202135 -0.264991 -0.073214 -0.061998
sent_184 -0.104689 -0.189545 0.455405 -0.440197 -0.547530 0.017332 -0.138167 -0.284305 0.032973 -0.412948 -0.020478 0.109765 0.396641 0.314117 -0.551206 -0.182355 0.521053 -0.219112 0.052490 0.172748 0.484552 -0.183918 -0.217138 -0.220500 0.317913 -0.321856 0.068308 0.253636 -0.116758 0.287115 0.187753 0.798171 0.951770 -0.356500 0.022459 -0.265271 -1.003480 0.217776 0.106061 0.439220 0.046754 0.154433 -0.567860 -0.827715 0.029855 0.059385 -0.260727 0.221839 0.015997 0.166615
sent_185 0.203017 -0.004946 0.119210 0.325724 0.354840 0.171761 -0.007904 0.381468 -0.271948 0.036169 0.315968 -0.169272 0.417413 -0.135807 -0.593650 0.153791 -0.039848 0.153746 -0.749791 -0.157087 -0.063692 -0.144662 0.117054 0.448214 -0.016951 0.330695 0.145274 -0.389850 0.304762 0.107399 -0.332477 0.236447 -0.417477 -0.143855 -0.228972 0.008736 0.245034 0.063920 -0.131810 -0.210335 -0.294613 0.358174 0.032419 -0.029760 -0.426649 -0.035602 0.108224 -0.203363 -0.272964 0.129958
sent_186 -0.300179 -0.314613 -0.209678 0.037577 -0.532612 -0.201544 -0.110112 -0.352546 0.210782 0.240204 -0.388814 0.131767 -0.273351 0.104655 0.058427 -0.219208 0.048871 0.186163 0.168774 0.015819 0.557461 0.186352 -0.156449 -0.232419 -0.255751 -0.371344 -0.198481 -0.123918 -0.028298 0.327500 -0.415691 -0.124292 0.383464 0.107928 0.258219 -0.432197 0.055263 -0.081555 -0.143670 -0.032179 -0.523907 -0.073557 -0.506428 -0.190673 -0.172667 0.266911 0.687217 0.323246 0.167621 0.273029
sent_187 0.717983 0.389600 -0.017920 0.005563 -0.072094 -0.294582 -0.009926 -0.299463 -0.239075 0.203324 0.513688 0.366414 -0.169179 0.196152 -0.548119 0.237032 0.110577 0.252400 -0.403186 -0.087883 0.110833 0.096110 0.447680 -0.516488 0.591567 -0.043130 0.312151 0.442100 0.283125 0.302831 -0.237165 -0.253041 -0.001730 0.017027 0.435928 -0.570154 -0.643126 0.169289 -0.285180 -0.165773 -0.009536 0.227200 0.133037 0.066995 0.078640 0.025335 -0.121676 -0.227506 -0.259781 -0.007174
sent_188 0.462652 0.402132 0.628668 0.109549 0.174453 -0.139899 0.255195 -0.608137 -0.673693 -0.320160 0.411728 -0.060348 0.158239 0.207145 0.026756 0.407734 -0.505205 0.065512 0.154793 -0.003296 -0.492444 0.056510 0.002070 -0.222885 0.973327 0.385529 -0.243171 0.052346 0.270996 -0.401199 -0.116652 -0.445463 0.233382 -0.162368 -0.037975 -0.410138 -0.143058 0.073478 0.040181 -0.160360 0.668802 0.335197 -0.033621 -0.109426 -0.587607 0.127973 0.006627 -0.054374 0.049110 0.031986
sent_189 0.443801 0.322502 0.731894 -0.063649 0.486295 0.542868 -0.074691 -0.128920 -0.291535 -0.466096 -0.411820 -0.290921 0.805387 -0.766872 0.030730 -0.127213 0.251953 -0.007138 -0.012818 -0.027653 -0.163420 -0.827268 0.288697 0.228207 -0.024241 -0.156443 0.888063 0.231757 0.355309 0.496083 -0.571975 0.904992 0.162066 -0.724361 0.000288 0.498435 0.214807 0.027250 0.638668 0.436782 -0.289936 0.206688 0.473531 -0.048268 0.172562 -0.248392 -0.158985 -0.497923 0.127629 -0.019975
sent_190 -0.659051 -0.133084 -0.196767 -0.216728 0.438677 0.007273 0.515661 0.762961 -0.270539 0.423331 0.197446 0.327360 0.136070 0.097809 -0.328991 -0.083157 0.089287 -0.586586 0.055191 -0.193456 -0.346097 0.244654 0.930819 0.477288 -0.317508 -0.001035 0.160757 0.119654 -0.430992 -1.326467 0.417045 0.343278 -0.006067 0.169398 0.164151 -0.113449 -0.359391 -0.490258 -0.516945 -0.539682 0.035561 -0.080942 0.001108 0.334186 1.233406 -0.732941 -0.400649 -0.808266 -0.287097 -0.200773
sent_191 0.351878 0.484039 0.218493 -0.144899 0.316572 -0.744223 0.211745 -0.078611 0.215102 0.406067 0.283137 -0.608401 -0.251919 -0.101580 -0.336339 -0.128173 0.204726 -0.350673 0.734546 0.256863 0.270330 0.550882 0.481996 0.234515 0.053966 -0.279711 0.046968 1.026078 0.124267 -0.170087 -0.194080 0.073665 -0.388305 0.203635 0.362747 -0.159491 -0.033029 0.270559 0.267574 -0.064235 0.001905 -0.167996 -0.097857 0.334798 0.314707 -0.423684 -0.430196 -0.427013 0.407149 -0.422964
sent_192 -0.152005 0.003895 -0.214589 -0.218259 0.688191 -0.324914 0.152526 0.233433 -0.188767 0.447618 -0.407569 -0.263861 -0.222573 -0.095029 -0.041580 -0.002987 0.215807 -0.294371 -0.001512 0.182830 -0.139641 0.260366 0.164883 0.298828 -0.334810 -0.250677 0.352342 0.194894 0.365063 0.261831 0.124492 -0.046584 0.170393 -0.193380 -0.110713 -0.376096 0.469737 0.197160 -0.060954 -0.114449 -0.029861 0.089651 -0.029054 0.157753 0.206782 -0.375537 -0.244435 0.121064 -0.076302 -0.353494
sent_193 0.735750 0.531481 -0.380270 0.874317 0.466959 -0.373328 -0.131954 0.548545 0.251501 0.333732 0.355878 0.045520 -0.083854 0.409822 0.186279 -0.185120 -0.034777 -0.292139 0.555669 -0.031244 -0.270128 0.372284 -0.369085 -0.133394 -0.486200 -0.287831 -0.577538 0.654175 -0.535615 -0.225398 0.297861 -0.418497 -0.575796 0.746243 -0.229671 0.286562 0.099185 -0.035171 0.434411 -0.586372 0.454823 -0.375219 -0.106444 0.235460 0.461981 -0.075311 -0.427205 -0.079505 0.072811 0.262877
sent_194 -0.657353 0.158771 0.088382 -0.343425 -0.059806 -0.598526 -0.872044 -0.027973 0.289897 0.067875 -0.120582 1.231733 0.002445 -0.159280 -0.548908 0.176536 0.138311 -0.172994 0.179796 -0.252900 0.166714 -0.301985 0.231918 0.757764 -0.284554 0.079579 -0.238736 -0.164358 -0.472786 0.150617 0.255775 -0.144788 0.378698 -0.279639 -0.160305 0.663704 0.068323 0.213191 -0.159537 0.118016 -0.075918 0.293687 -0.095401 -0.421141 -0.282805 0.204842 0.348132 -0.193347 -0.339408 0.107665
sent_195 0.099606 -0.165436 0.342292 0.126361 -0.333893 -0.095780 0.488701 -0.160495 0.183020 -0.208607 0.242629 -0.417235 -0.432370 -0.087173 0.240475 -0.324311 0.250915 0.087570 -0.324930 0.419705 0.255422 0.048805 -0.481981 0.059837 -0.070800 -0.067407 0.140617 0.398914 -0.166190 0.058797 0.044289 0.533312 -0.120586 -0.027160 -0.086734 -0.117239 -0.102805 -0.268421 -0.581337 0.249461 -0.163324 -0.000792 -0.184267 -0.138614 -0.098332 0.074311 -0.072422 0.171799 -0.245885 0.354024
sent_196 0.175380 0.262623 -0.590617 -0.343867 0.532598 -0.373243 -0.494836 0.892524 -0.071354 0.870523 -0.376027 -0.440256 0.331873 0.011553 -0.635684 -0.286445 0.571847 0.070841 -0.421136 -0.046101 -0.358924 0.576386 0.597157 0.869122 -0.253073 0.038982 -0.084918 0.583162 -0.057797 0.034075 0.225875 0.057424 0.467731 0.367035 -0.086116 -0.412499 -0.121414 0.986339 0.261278 -0.173454 0.699321 -0.715566 -0.280860 0.282875 0.167513 -0.617176 -0.206779 -0.599422 0.368475 -0.793577
sent_197 0.595666 0.329293 0.130662 0.024295 0.278231 0.059888 0.030869 -0.508119 0.072018 -0.303373 0.182307 -0.625874 -0.084954 -0.265462 0.162103 0.146015 0.486344 0.134414 -0.076459 -0.169031 0.127789 0.379910 -0.234487 -0.329296 0.207762 -0.031672 0.104684 0.235855 -0.166439 -0.049971 -0.029537 0.190981 -0.552863 0.044329 0.177734 0.057557 -0.000784 -0.258012 -0.373787 0.099197 -0.155735 -0.550451 0.764461 0.525920 -0.332555 -0.054555 -0.058082 0.233193 -0.124077 -0.269264
sent_198 0.412475 0.529622 0.444692 0.097727 0.249899 -0.407434 0.030061 0.360878 -0.159963 0.305510 0.218371 0.146883 0.581335 -0.035486 -0.081949 0.124888 -0.103036 -0.303244 0.337181 0.263516 0.049569 -0.019913 0.209624 0.222653 0.053863 -0.119766 0.186199 -0.131174 0.388476 -0.344078 -0.194746 0.329453 -0.269701 -0.006338 -0.485919 -0.108080 -0.460470 -0.379481 0.058899 -0.190236 0.288856 -0.287035 -0.027099 -0.543501 -0.333385 -0.084278 0.357430 -0.002164 0.433600 0.293762
sent_199 -0.441791 -0.246855 0.264837 -0.249871 0.139806 0.158143 -0.158452 -0.405645 -0.012661 -0.295340 0.243111 0.059027 -0.175880 -0.136708 0.062124 -0.082774 -0.191401 -0.074683 0.192409 0.009621 0.122313 0.124788 0.114830 0.523702 0.095016 0.326968 -0.445041 -0.167321 -0.143869 0.136534 -0.311834 0.248332 -0.012881 -0.088329 -0.568767 0.509695 0.440069 0.013794 -0.433888 0.167275 -0.277709 0.773701 0.070777 -0.046089 -0.220690 0.085561 0.379566 -0.529921 0.355648 0.398163
sent_200 -0.538058 -0.131201 -0.206265 -0.119089 0.406318 0.009654 0.598367 0.868189 -0.339421 0.317806 0.143277 0.329185 0.146721 0.070532 -0.349008 -0.003088 0.190897 -0.567735 0.017572 -0.128934 -0.383933 0.085652 0.849471 0.648941 -0.366819 -0.091064 0.227688 0.152186 -0.305714 -1.160206 0.471402 0.280784 0.058407 0.189860 -0.032652 -0.123159 -0.331547 -0.471726 -0.336285 -0.510701 0.109827 -0.013786 -0.016323 0.324263 1.191273 -0.727981 -0.454542 -0.585198 -0.252105 -0.206406
sent_201 -0.693293 0.053365 0.264419 0.283246 -0.180708 -0.662627 -0.231465 0.215533 0.090216 0.123243 0.711746 0.359130 -0.281584 0.000048 -0.155657 0.435122 0.275628 -0.045392 -0.042418 -0.084010 0.437298 0.646900 -0.086893 0.133959 -0.377835 0.151698 -0.456684 -0.521414 0.183153 0.646104 -0.162862 -0.664455 -0.617645 0.238334 -0.602679 -0.017616 0.579670 0.609140 -0.449325 -0.046852 -0.596379 0.196520 -0.638007 -0.188273 -0.187937 0.554746 0.488052 0.071167 -0.552510 0.343026
sent_202 -1.021758 -0.609896 0.258659 -0.050326 -0.370954 -0.073245 -0.051630 -0.641663 -0.266433 0.405955 -0.049655 0.182279 -0.820838 0.373019 0.255783 -0.105118 -0.522744 0.486599 0.385127 0.182782 0.731115 0.164312 -0.276362 -0.050128 0.008660 -0.017611 -0.833125 -0.619896 -0.226953 0.144399 -0.451462 -0.585079 0.042404 -0.008851 -0.215949 -0.557802 0.594243 -0.499452 -0.465950 -0.072770 -0.762530 0.423677 -0.637327 -0.388634 -0.422791 0.472859 0.851729 0.261758 0.220978 0.798652
sent_203 -0.098329 -0.315931 0.457942 -0.259505 0.234209 0.078739 -0.451070 -0.344760 -0.136463 -0.378421 -0.382150 -0.292946 0.527534 -0.047591 -0.243333 -0.142165 -0.603844 0.106236 0.361528 -0.020597 0.117058 0.112276 -0.063522 0.346862 0.069947 0.156594 -0.159825 -0.409163 -0.108861 -0.099680 -0.243934 0.552693 0.648450 -0.252983 -0.061520 0.291165 0.349102 -0.313835 0.012993 0.228443 -0.124913 0.238664 -0.254502 -0.217801 -0.446156 -0.005836 0.537211 -0.217653 0.187008 0.218385
sent_204 -0.157437 -0.151098 -0.346241 -0.190958 -0.156728 -0.004136 -0.297251 0.288386 0.380938 -0.556488 0.567741 1.232884 0.066177 -0.031594 -0.587059 0.217102 0.464136 -0.540946 0.228460 -0.037814 -0.303719 -0.477131 -0.179060 0.295847 0.244510 0.189674 0.264918 -0.037044 -0.522164 -0.299799 0.333990 0.249408 0.437736 -0.039470 -0.033045 0.435979 -0.432257 -0.064101 -0.117254 -0.007255 0.133182 -0.058110 -0.182921 -0.127244 -0.329216 0.000045 0.042703 0.031747 -0.050168 -0.093944
sent_205 0.569336 -0.218235 0.362440 0.607217 0.857429 -0.020720 -0.443265 0.373226 -0.103278 0.391836 -0.526863 -0.655512 0.279711 -0.227172 -0.083031 -0.428653 -0.626759 -0.076650 -0.074900 -0.344046 -0.068616 0.272954 -0.198813 0.501841 0.064228 -0.144697 -0.310205 -0.139528 0.357878 -0.510426 0.180961 0.248190 -0.136142 -0.057574 -0.078025 0.060892 0.497557 -0.233630 0.027493 -0.225605 0.039193 -0.074876 -0.014695 -0.193072 -0.359234 -0.074114 -0.092158 -0.055251 0.098101 -0.210348
