sent_0 -0.420623 -0.126201 -0.120680 -0.078338 0.688300 0.277671 -0.149478 0.099188 0.056494 -0.350249 -0.223754 -0.081421 0.204129 -0.192106 0.135827 -0.604908 0.147585 0.351023 -0.162158 -0.109646 -0.544327 -0.577861 -0.122597 -0.089878 0.494068 -0.389410 0.859906 0.120039 -0.983246 -0.152977 0.393133 -0.952083 -0.300904 0.280506 -0.087519 -0.401941 0.390565 -0.555103 0.322562 0.506303 -0.048051 0.072696 0.560548 -0.735983 0.600889 -0.384278 -0.390547 0.706147 0.205398 0.619102
sent_1 0.546060 0.315222 -0.779865 0.847286 0.010112 0.290587 0.341076 -0.113234 -0.134669 -0.213198 0.375950 -0.256706 -0.427042 -0.230807 -0.276918 0.583208 0.327352 -0.549921 0.381340 0.219386 -0.732137 -0.250740 0.542012 0.183516 0.304142 0.281393 0.487633 -0.537184 0.424112 0.656581 0.752990 -0.242420 -0.019753 -0.198220 0.140112 -0.051848 -1.547301 -0.066141 0.456470 -0.103778 0.017978 0.553825 -0.110084 -0.470761 -0.120329 -0.151877 0.705975 0.274678 0.434412 0.062150
sent_2 -0.210856 -0.190293 0.139027 0.068832 0.383551 0.403223 -0.328096 0.255279 0.907457 -0.080828 0.045039 0.166536 -0.044421 -0.139331 -0.172283 -0.055737 -0.195901 -0.189787 0.555480 -0.169491 -0.047385 -0.058292 0.318350 -0.446736 0.541233 -0.632805 0.149904 0.305004 -0.755252 -0.034816 0.378080 -0.378054 0.095616 -0.335257 -0.163775 -0.171106 0.367382 0.101524 0.794825 -0.170466 0.122525 -0.358064 0.395087 -0.311665 0.167894 -0.457349 -0.051031 -0.357635 0.007901 0.344264
sent_3 0.548158 0.318438 0.400185 0.684364 0.757578 0.053291 0.310282 -0.305140 -0.236013 -0.009222 -0.015203 0.212398 0.024972 0.137073 -0.252853 0.635716 0.273001 -0.408316 -0.379143 -0.027164 -0.352733 -0.302634 -0.088018 0.165983 0.281202 0.248827 0.352845 -0.622235 0.464458 -0.154180 0.699137 -0.170223 0.181181 -0.605863 -0.189540 0.528782 -0.430414 -0.087750 -0.038414 0.251446 -0.153978 -0.436297 -0.470048 -0.142199 -0.406593 -0.103196 0.183960 -0.149299 0.169771 -0.087272
sent_4 0.254345 1.118732 -0.260115 0.286580 0.311295 0.254863 0.201855 -0.180187 -0.056796 -0.222973 -0.864868 0.162927 -0.531998 -0.608506 0.143422 0.489717 0.060846 0.748462 -0.076279 0.299772 -0.309090 0.068980 -0.368776 -0.092990 0.149385 -0.006371 0.042327 0.428641 0.147245 0.240215 0.984019 -0.249675 0.386348 -0.000417 -0.132689 0.050469 -0.596236 0.274505 0.161526 -0.278090 -0.023552 0.067552 -0.247291 -0.160415 -0.454078 0.011332 -0.977063 0.231377 0.773165 0.388822
sent_5 -0.378504 0.171578 -0.177272 0.040299 -0.172621 -0.004050 -0.440253 -0.060938 -0.083016 0.660563 0.289741 -0.252705 -0.369769 -0.484567 -0.517907 0.023674 -0.136388 0.127378 0.149512 -0.295003 0.026097 0.364237 0.427423 -0.248682 -0.333008 0.121264 -0.174669 -0.133005 -0.129873 -0.280787 0.202196 0.191003 0.054409 0.275522 -0.144353 0.693080 0.470367 0.699463 0.302052 -0.000268 0.453156 0.056201 0.307247 0.310126 -0.126915 0.217401 -0.258761 -0.780313 -0.295993 0.088484
sent_6 -0.403197 0.240392 0.611558 -0.291623 0.482691 -0.087180 -0.663219 0.280478 -1.064717 -0.327005 0.704465 -0.238027 0.846117 0.012678 0.089250 0.344941 -0.002327 -0.522698 0.359345 0.188685 0.294315 0.100476 0.024936 0.114659 -0.182852 -0.299048 -0.429445 -0.667103 0.181388 -0.471055 -0.355781 0.122497 -0.274794 -0.528477 -0.535469 -0.035226 0.619525 -0.074742 -0.592622 0.805381 0.150037 0.660927 0.209797 -0.434250 0.287666 -0.019690 -0.827984 -0.483779 -0.516013 0.420587
sent_7 0.685351 0.236083 -0.510457 -0.153717 0.163614 0.193268 0.004711 0.429986 0.389029 0.427535 -0.423298 0.211764 -0.108628 0.516736 0.655342 -0.489577 0.292158 0.292319 -0.744637 -0.517299 0.661308 0.044316 -0.359316 -0.070022 -0.332366 0.544472 -0.420893 0.660427 -0.123825 0.177331 -0.197850 0.063823 -0.167739 -0.038402 0.329145 -0.332124 -0.872386 -0.218675 0.183499 -0.278692 -0.065703 -0.220715 -0.538108 0.553983 0.276936 0.702858 0.469652 0.213995 -0.003480 0.189530
sent_8 0.499804 0.107773 -0.509496 0.062093 0.118420 0.266653 0.486843 -0.044566 0.273831 -0.089449 -0.144047 0.110950 -0.294234 -0.083935 0.115650 0.150087 0.396122 -0.047777 0.085576 -0.115449 -0.300770 0.021115 0.081876 0.014623 0.411192 0.260127 0.016459 0.110353 0.160501 0.437278 0.361711 -0.139900 0.084633 -0.211166 0.155343 0.119859 -0.604118 -0.126821 0.196353 -0.364918 0.145807 -0.016522 -0.071135 -0.111267 -0.152032 0.103096 0.262986 0.244579 0.418498 -0.199910
sent_9 0.007048 0.200500 -0.186706 0.176849 -0.109459 -0.014663 0.104824 -0.263308 -0.292206 0.028258 -0.006911 0.239330 0.018694 0.015071 0.161088 0.224695 0.190582 -0.292706 0.121945 0.272766 -0.017911 0.080227 -0.217604 0.092884 -0.194569 -0.223458 -0.093277 -0.421200 -0.002913 0.217123 0.046771 0.016516 -0.073394 0.002502 0.004151 0.153573 -0.223134 -0.011135 -0.009739 -0.175193 0.065561 0.133445 -0.113617 -0.161296 -0.044082 -0.126973 0.235510 0.252167 0.158713 -0.181958
sent_10 -0.954739 0.277344 0.365600 0.371524 0.109770 -0.714554 -0.572041 0.617897 -0.488454 -1.009835 0.091189 -0.172099 0.711942 0.282494 0.124261 0.052691 0.037984 -0.077783 -0.440458 -0.620397 0.231471 0.877353 -0.519515 -0.210481 -0.480247 -0.124032 0.088324 -0.167124 0.824131 -0.094863 -0.262376 0.536520 -0.137310 -0.459960 0.031570 -0.642674 0.189517 -0.822842 -0.725602 1.058521 -0.896708 0.353447 0.059608 -0.127148 -0.309156 0.729041 0.368772 -0.575347 -0.704807 0.596535
sent_11 -0.302608 0.229175 0.620025 -0.092641 0.114995 -0.200416 -0.119371 -0.200647 -0.165684 -0.060979 -0.323551 0.158953 0.218375 0.104281 0.154706 0.431789 0.006566 -0.163721 -0.264223 -0.068905 0.279368 -0.253942 -0.507888 -0.545935 -0.016893 -0.120117 -0.242922 -0.000874 0.183278 -0.332853 -0.183496 -0.074051 0.106189 -0.325206 0.095555 -0.273736 0.543436 -0.213989 -0.296456 0.159781 -0.061052 -0.196247 -0.139435 -0.163779 -0.226819 0.101586 0.076329 -0.132110 -0.358965 0.317858
sent_12 -0.591330 0.164747 -0.153602 -0.558122 0.064911 0.018703 -0.404693 0.504844 0.202474 0.459659 0.401191 -0.137838 -0.271840 -0.414495 -0.615371 -0.089874 -0.509300 0.219223 0.368746 -0.455794 0.061754 0.363595 0.874048 -0.155983 -0.087303 0.040873 0.054168 0.532801 -0.173080 0.288653 -0.093812 0.581099 -0.478076 0.285470 0.298804 0.192675 0.493460 0.337799 0.246756 -0.124344 -0.089974 -0.258594 0.763942 0.991924 -0.166321 0.243860 -0.591670 -0.347643 -0.321042 0.413739
sent_13 -0.089686 0.226805 -0.276686 0.588416 -0.232166 0.183318 -0.027135 0.157227 0.258759 -0.102947 -0.045683 -0.143347 -0.531096 0.029692 0.180500 0.160010 -0.085538 -0.253090 0.393288 -0.342759 -0.286233 -0.196332 0.046267 -0.849106 0.138915 0.047938 -0.198729 0.452937 -0.030833 0.494499 -0.557140 0.224496 -0.160719 0.193551 -0.042684 -0.612846 -0.229538 0.336007 0.451743 -0.514153 -0.032959 0.530069 0.208734 0.039023 -0.278508 0.043598 0.176747 -0.115032 0.005989 -0.100311
sent_14 -0.130630 0.161265 0.103369 -0.120002 -0.229129 -0.134651 -0.338832 0.202687 -0.235582 0.126014 0.177236 -0.247234 0.139417 -0.215545 -0.160368 -0.069780 -1.050722 -0.075903 -0.194489 -0.362601 -0.094940 0.129524 0.459499 -0.299881 -0.530611 0.189620 0.203419 0.013690 -0.149966 -0.486282 -0.375760 0.656435 -0.052458 0.439744 -0.114235 0.480728 0.253979 0.200284 -0.037642 0.797472 0.206111 -0.104068 0.417139 0.623135 -0.080247 0.494233 -0.174916 -0.512352 -0.659258 0.503979
sent_15 -0.511396 0.188148 0.047952 -0.222124 0.009152 0.078991 0.184173 0.365634 0.345511 -0.180638 0.072456 0.013874 0.095805 -0.183434 -0.199290 0.077493 -0.018522 -0.093946 -0.058981 -0.149089 0.203252 0.152753 0.086859 0.170826 0.358204 0.156890 0.279937 0.417071 -0.063319 -0.033339 -0.244877 0.158136 -0.392162 0.317060 -0.285246 0.220049 -0.031201 -0.066687 -0.057885 0.103960 -0.052990 -0.196303 0.581651 0.663102 -0.639356 -0.145117 -0.199930 -0.005893 0.000823 0.092268
sent_16 -0.156355 0.627584 0.426618 -0.095535 -0.169660 -0.106630 -0.257075 -0.004842 0.199068 0.763778 0.401161 -0.367640 -0.531286 -0.628925 -0.584288 -0.010972 0.034004 0.262172 -0.117745 -0.098052 0.075119 0.128705 -0.218048 0.537122 -0.296151 0.402068 -0.222685 -0.215328 -0.045511 -0.272246 0.570628 0.302332 -0.629307 0.260173 -0.066722 0.483970 0.119215 0.843887 0.197948 -0.173530 0.303852 -0.055697 0.361763 0.417688 -0.586622 0.153285 -0.280643 -0.775285 -0.262155 0.448655
sent_17 -0.429759 0.652186 0.124434 -0.246276 0.007976 0.188285 -0.315864 0.367778 0.130648 0.406631 0.568738 0.314337 -0.131256 -0.685810 -0.634232 -0.215378 -0.250962 0.175873 0.488686 0.058323 0.032346 0.269104 0.190691 0.131964 -0.522957 0.051722 0.414246 0.272165 -0.659553 0.174842 -0.379353 0.206222 -0.545260 0.367675 0.011091 0.377116 0.070102 -0.510573 -0.123379 -0.084438 -0.266261 -0.282572 0.397385 0.804129 0.441519 0.208768 -0.363526 -0.249474 -0.101288 0.628394
sent_18 -0.532181 0.198213 0.638322 0.480465 0.294763 -0.135037 -0.351347 -0.141268 -0.048943 -0.628071 0.269561 -0.255244 0.013235 -0.114825 0.455695 0.447968 0.329669 -0.336868 -0.814747 -0.917440 -0.203876 0.534950 -0.442355 -0.031968 -0.051691 -0.196004 0.431981 -0.398214 0.126630 -0.057612 0.342723 0.058422 -0.044789 -0.218231 0.129141 -0.524334 0.234760 -0.257399 -0.110146 0.850059 -0.473074 0.357243 0.176875 -0.274406 -0.597293 0.236861 0.578328 -0.376552 -0.333712 -0.469314
sent_19 -0.686582 -0.343797 -0.298141 0.320703 0.403241 0.416876 -0.256105 0.097393 0.542063 0.170093 0.862261 -0.156964 -0.405950 -0.306556 -0.765233 0.132379 -0.174262 -0.158874 0.417568 -0.887359 -0.331150 -0.317416 0.661334 -0.371888 0.240451 0.380579 0.324614 -0.199658 -0.559885 0.273921 0.391281 0.320506 -0.331183 -0.069394 -0.191102 0.307695 0.637420 0.165833 0.574622 0.409678 0.426331 0.216062 1.044041 -0.196973 0.124754 0.409543 0.001727 -0.701727 -0.419899 -0.129549
sent_20 -0.356120 -0.277706 0.350233 -0.373245 0.126742 0.055429 -0.140209 0.087028 0.146615 0.085043 0.007731 -0.210387 0.153347 -0.245588 -0.239369 0.160763 0.263144 0.001196 -0.263477 0.103442 0.075409 0.558027 -0.060205 -0.049885 -0.406263 -0.155852 0.384081 0.192156 -0.242250 -0.245389 -0.127941 -0.150929 -0.370977 0.168353 0.141594 0.159790 0.221597 -0.104656 -0.088132 0.108430 -0.351091 -0.312265 0.162584 0.709068 -0.141024 -0.065750 -0.278958 -0.192419 0.358037 -0.017038
sent_21 0.352253 0.586091 0.221045 -0.092249 -0.004562 0.575021 0.008870 -0.138011 0.289472 0.245366 -0.284413 0.583267 0.115892 -0.159980 0.264371 0.082228 -0.472543 -0.162028 -0.349520 -0.127524 -0.271949 -0.160610 -0.022421 -0.038529 0.291322 0.071686 -0.008326 0.187191 -0.189573 0.050430 0.172725 0.257788 0.072482 0.013142 -0.308079 0.131583 -0.133238 0.009078 0.088664 -0.183140 -0.028041 -0.430170 0.025525 0.367226 -0.072002 0.161362 -0.005299 0.328807 0.122526 -0.205740
sent_22 -0.847653 0.102231 -0.041758 -0.069022 0.155618 0.066644 -0.340628 0.321341 -0.057963 0.173988 0.335076 0.021306 0.413230 -0.342331 -0.083385 -0.372035 -0.481111 0.314899 0.019369 -0.125303 -0.540266 -0.294549 0.222209 -0.134158 0.047572 -0.513705 0.841706 0.057787 -0.779765 -0.226202 -0.071285 -0.418130 -0.534416 0.276760 -0.085079 -0.284026 0.308277 -0.516581 0.212775 0.412786 -0.065552 0.038950 0.576173 -0.271977 0.544674 -0.278023 -0.724049 0.509339 -0.045896 0.939630
sent_23 -0.616068 -0.015448 -0.292055 -0.087913 0.510807 0.312414 -0.270386 -0.079592 0.047049 -0.082970 0.086659 -0.067934 0.357759 -0.310912 -0.052764 -0.084833 0.154363 -0.118807 -0.138077 -0.082648 -0.298112 -0.286419 -0.082844 -0.186798 0.351683 -0.389981 0.665029 0.128742 -0.671069 0.027780 0.102032 -0.633556 -0.259590 0.111850 -0.046064 -0.392031 0.230454 -0.289116 0.459950 0.309624 -0.096097 -0.087841 0.392468 -0.105254 0.291227 -0.026003 -0.356195 0.458581 0.165942 0.435723
sent_24 -0.231159 -0.188077 -0.099716 0.242819 0.514626 0.273391 -0.195134 0.301044 0.400720 -0.231276 0.344597 -0.135097 -0.114344 0.235283 0.108265 -0.101965 -0.044081 -0.104487 -0.090322 -0.843626 -0.195495 -0.032712 0.341677 -0.130851 0.583048 0.139072 0.180028 0.234558 -0.100587 0.480471 0.040022 -0.029319 -0.002259 0.224979 -0.097277 -0.147191 -0.095193 0.253598 0.523422 -0.138800 -0.246890 0.080679 0.416653 0.320735 -0.221176 -0.194377 0.342396 -0.271458 -0.279193 0.025409
sent_25 0.816601 -0.306098 0.177501 -0.555544 -0.547098 -0.307845 0.722186 -0.087114 -0.130132 -0.044943 0.066382 -0.283295 0.033123 0.000999 -0.035935 -0.007278 0.282752 -0.152253 0.385746 0.855529 0.572168 -0.464643 -0.051193 0.498406 0.321167 -0.045360 -0.039121 -0.241725 0.280332 -0.327171 -0.302392 -0.243089 0.132149 -0.091547 0.188024 0.023368 -0.051768 -0.518698 -0.681800 0.292361 0.440616 0.187444 -0.270635 -0.686646 0.455997 -0.516829 -0.278130 0.240072 0.034279 -0.102519
sent_26 -0.658008 -0.406236 -0.295728 0.275081 0.316589 0.414322 -0.209167 0.078934 0.546779 0.250848 0.865241 -0.179266 -0.494400 -0.408644 -0.933817 0.113035 -0.052732 -0.147327 0.451645 -0.932999 -0.349803 -0.300234 0.770425 -0.497111 0.362301 0.382505 0.397023 -0.271542 -0.530827 0.362343 0.431861 0.292735 -0.177722 -0.148744 -0.131513 0.217501 0.737539 0.259744 0.670201 0.240322 0.400683 0.408226 1.050644 -0.268466 0.256306 0.349217 -0.127653 -0.709340 -0.385666 -0.287110
sent_27 0.173844 0.160830 -0.148957 -0.364364 -0.435945 0.057183 0.190367 0.017986 0.306294 0.462767 0.078831 0.162272 -0.086713 -0.284483 -0.078504 0.243152 0.016053 -0.181939 0.179775 -0.047215 0.134884 -0.042083 -0.139282 0.140305 0.200844 0.161428 -0.113640 0.191157 -0.178596 0.095222 -0.295147 0.209841 -0.296042 0.512617 -0.112208 -0.002263 0.027324 -0.275022 -0.057619 0.009445 0.170770 0.079445 -0.039769 0.448585 0.032184 -0.306891 -0.244367 0.158249 0.136298 -0.645159
sent_28 0.329842 0.704713 -0.128231 0.832216 0.025671 0.575176 0.057497 0.480642 0.245453 0.352315 -0.309100 -0.091958 -0.656031 -0.019507 0.051887 0.231658 -0.136202 -0.445477 0.347992 -0.115760 -0.310199 -0.097462 -0.064509 -0.932002 -0.211547 0.173250 -0.041443 0.748523 0.048277 0.512981 -0.416133 0.356683 0.202325 -0.053201 -0.080913 -0.581980 -0.771433 0.463746 0.769226 -0.522898 -0.460918 0.377954 -0.093155 0.017322 0.003436 0.047537 0.047523 -0.070241 0.090318 0.191070
sent_29 -0.198521 0.125143 -0.322831 -0.121902 0.174154 0.730094 0.031311 -0.471726 -0.520916 -0.505629 -0.517798 -0.159032 -0.109474 -0.069327 0.388055 -0.001074 -0.015004 -0.111907 0.101798 0.531230 -0.393595 -0.188576 -0.085671 0.072422 -0.116683 0.013343 -0.435020 0.302658 0.203113 0.141618 0.141562 0.119370 0.161894 0.133503 -0.096578 -0.310306 -0.454279 0.327496 -0.363176 -0.043214 -0.069166 0.080491 -0.080012 -0.091252 0.210871 0.289947 0.062734 0.673075 0.200166 -0.216978
sent_30 -0.320778 -0.083763 0.655757 -0.027146 -0.281153 -0.358453 -0.222266 -0.237145 0.216672 -0.314619 -0.249145 -0.086197 -0.170944 -0.323836 0.067484 -0.631875 -0.905937 0.128844 -0.037464 -0.558802 0.306413 0.262642 -0.337071 -0.009308 0.039864 0.001060 -0.220499 0.323593 0.028117 0.102102 -0.209234 0.416465 -0.028104 0.492019 -0.101304 -0.058255 0.797784 0.301313 -0.128643 -0.002765 -0.474521 -0.001110 -0.236885 0.605582 -0.463281 -0.606564 -0.357164 -0.532047 -0.166337 0.138839
sent_31 -0.643901 -0.092792 -0.903678 0.244199 -0.468585 -0.514036 -0.785495 0.154764 0.102845 0.024380 0.170470 -0.197434 -0.158906 -0.346667 -0.420049 0.092150 0.075671 0.397229 0.737070 0.333932 -0.543525 0.889543 -0.132611 0.216728 -0.029048 -0.422438 -0.291765 0.197284 -0.091710 -0.384800 0.299116 -0.094495 -0.086364 0.713500 -0.293037 0.101225 0.004808 0.691055 0.327435 -0.239110 0.293458 0.397372 0.247446 0.157655 0.037142 -0.021211 -0.757491 -0.791252 0.157132 -0.169035
sent_32 -0.863016 0.239603 -0.130585 0.099696 -0.038686 0.152544 -0.124321 -0.036547 0.004435 0.672371 0.721322 0.154770 -0.171474 -0.548275 -0.810259 -0.065650 -0.400900 0.040675 0.598223 -0.333172 -0.349315 0.017002 0.713909 0.328879 0.016253 0.130524 0.210389 0.338738 -0.068071 0.394411 0.024812 0.494748 -0.216846 0.188542 -0.184801 0.455443 0.282059 0.265309 0.310130 0.048885 0.016765 0.030306 0.462496 0.415332 -0.131499 -0.150410 -0.604723 -0.477316 -0.374404 -0.246805
sent_33 -0.373320 0.157712 0.085024 0.072363 0.168205 0.243102 0.112132 -0.078506 0.374197 0.475052 0.255759 -0.363670 -0.427926 -0.455724 -0.824769 -0.118362 -0.004880 0.027223 0.225231 -0.398138 0.144204 0.143069 0.652874 -0.306845 -0.321755 0.562816 -0.232239 0.284735 0.002063 -0.240768 0.303043 0.282035 -0.380046 0.080198 -0.320009 0.878829 0.272915 0.851404 0.278238 0.233806 0.360157 -0.275916 0.527941 0.574140 -0.539373 0.202139 0.095299 -1.084049 -0.114826 0.374039
sent_34 0.017526 0.355077 -0.184159 0.111029 -0.003776 0.180218 0.003763 0.729826 0.549132 0.198565 0.541827 -0.684011 -0.539475 -0.254426 -0.700478 0.454059 0.008451 -0.058440 0.174726 0.287570 0.374410 -0.358531 0.365938 0.193768 -0.008594 0.222193 0.006514 -0.237847 0.287834 -0.020592 0.856250 -0.202099 -0.598325 -0.206443 0.074408 -0.372106 -0.826790 0.469712 -0.042480 -0.141327 0.131178 0.032791 0.446888 -0.006965 0.046728 -0.045760 0.429751 -0.215939 0.008366 1.288894
sent_35 0.278689 0.300558 0.224695 -0.394944 -0.221485 0.212715 0.143739 0.250775 -0.028356 -0.728398 0.350144 -0.019441 0.148811 -0.280198 0.332663 0.109772 -0.149405 -0.084263 0.042712 0.177289 0.081834 0.532627 -0.487479 0.439083 0.512628 0.187912 0.081200 -0.135466 -0.019317 0.125252 -0.409316 0.243352 0.188547 0.250915 -0.243057 0.042489 0.214084 -0.334656 -0.608815 -0.165275 0.138735 0.347147 0.223945 0.019428 -0.100265 -0.230568 -0.673033 0.313781 0.167172 -0.123074
sent_36 0.301381 -0.072379 0.359829 -0.693854 0.274802 0.124669 0.392195 -0.155253 0.151726 0.307494 -0.149928 0.643508 -0.031265 0.061382 -0.232819 0.603180 0.985508 0.343547 0.023825 0.207726 0.283529 -0.346872 -0.133310 -0.363854 0.200607 0.091953 -0.403360 0.134486 -0.340681 0.351309 -0.388115 -0.383190 -0.163063 0.211714 -0.181469 0.229841 0.368304 -0.495805 -0.266925 -0.478547 -0.026538 0.071223 0.021345 0.528396 0.195602 -0.600998 -0.447003 0.147645 0.430617 -1.091736
sent_37 -0.718255 -0.320039 -0.165479 -0.095697 -0.388265 0.065166 -0.197341 -0.449075 -0.198433 -0.204391 -0.107217 -0.105026 -0.278625 -0.296225 0.011528 -0.353763 0.008440 0.889381 0.205774 0.408635 -0.434245 0.771531 0.036685 0.058744 -0.365145 -0.321913 -0.180324 0.205881 -0.053809 -0.051576 -0.242010 0.366275 0.011135 0.193651 0.112250 0.371439 0.355841 0.637224 -0.141841 -0.505122 0.218618 -0.068811 0.398945 0.079902 -0.154602 0.166065 -0.453640 0.220446 0.208775 -0.195431
sent_38 -0.014372 0.592771 0.425820 -0.365432 0.356770 1.038750 0.113798 -0.274790 -0.224090 -0.276813 -0.578276 -0.070214 -0.010135 0.029054 0.284717 0.062040 0.019021 -0.028649 -0.427731 0.334759 -0.234164 -0.330536 -0.177275 -0.104776 0.145657 -0.077300 -0.349727 0.200181 0.032028 -0.205470 0.722460 -0.223521 0.275353 -0.078492 -0.174583 -0.024069 0.093314 0.718041 -0.206611 -0.257399 0.051127 -0.019790 0.062313 -0.284312 -0.256723 -0.100144 -0.203156 0.365509 0.481865 0.343234
sent_39 0.358340 -0.116506 0.034906 0.118046 0.178309 0.555159 0.482089 -0.915595 0.090948 -0.394310 -0.258985 -0.579919 -0.539967 -0.139409 0.580296 0.333064 -0.084758 -0.232179 -0.009825 0.354857 -0.465181 -0.471491 -0.073054 0.022230 0.230831 0.316849 -0.336882 0.156654 0.220758 0.303452 0.363684 -0.154928 0.139243 0.143279 0.249125 -0.499269 0.294430 0.553213 -0.346980 -0.345772 -0.078871 0.029671 -0.089246 -0.528154 -0.151347 -0.101456 0.420689 0.581165 0.451976 -0.218838
sent_40 0.508621 0.272579 -0.612049 0.188547 0.521739 0.764256 0.155871 0.269844 0.255120 -0.081266 -0.211769 -0.352050 -0.284283 0.236751 0.261789 -0.111190 0.319850 -0.483532 0.059719 -0.219610 0.220589 -0.337377 -0.136390 0.164746 -0.085685 0.659527 -0.190387 0.768606 -0.081696 0.845936 -0.278773 0.040334 -0.816775 -0.056895 0.094849 -0.759697 -0.439649 -0.051710 0.029769 -0.173658 -0.367362 0.111227 -0.048831 0.572328 0.222144 0.525050 -0.066204 0.649130 0.541258 -0.110201
sent_41 0.263865 -0.104427 -0.310687 0.091097 -0.495435 0.147764 0.091053 0.834193 0.541277 -0.156974 0.146063 -0.050370 0.178341 0.020471 -0.359251 -0.504129 -0.348870 -0.413946 0.957234 0.182494 0.704443 0.116203 0.326099 -0.200878 0.169818 0.176143 -0.102317 0.530741 -0.057441 0.334982 -0.664651 0.176371 0.099330 -0.265774 -0.289537 -0.540417 -0.291551 -0.078814 0.142165 -0.194795 0.082966 0.404419 -0.127468 0.118248 0.762235 -0.498628 -0.568806 -0.037413 0.211486 0.652857
sent_42 -0.118533 0.174115 0.670129 0.040588 0.260829 0.313523 0.115182 0.071694 -0.100545 -0.031802 -0.159147 0.266745 0.271240 0.039797 0.132876 0.213730 0.213763 -0.061705 -0.359294 -0.135057 0.074923 0.156841 -0.269983 -0.327283 0.137972 0.196622 0.032211 -0.025020 0.230366 -0.040210 -0.167071 -0.072270 0.479947 -0.391024 -0.370405 0.002183 0.157183 -0.051223 -0.067029 -0.100678 -0.206985 0.105638 -0.254418 -0.115637 -0.207014 -0.307643 -0.163140 -0.047562 0.051195 -0.142607
sent_43 0.498758 0.562821 0.383968 0.307133 -0.180239 0.247669 -0.154708 0.376886 0.012572 0.509419 0.010140 0.065096 0.128498 -0.235281 0.290276 -0.150016 -0.857446 -0.351006 0.293239 -0.140637 0.043885 -0.237444 0.221237 -0.816284 -0.499856 0.065596 0.334771 0.771328 -0.162331 0.338540 -1.202316 0.781298 -0.263640 -0.130635 -0.192346 -0.623274 -0.660271 -0.328176 0.609821 -0.159182 -0.441570 0.273298 -0.124678 0.256399 0.251921 0.378828 -0.569107 -0.092614 -0.284290 0.116816
sent_44 0.904115 0.126832 -0.106607 -0.425196 0.045619 0.120468 -0.126341 0.830079 0.791017 0.122136 -0.504685 0.803219 0.189825 0.767596 0.458272 -0.133773 0.168297 0.487931 -0.051657 -0.083251 0.546609 0.274295 0.050263 -0.587483 -0.202831 -0.285826 -0.830716 0.931199 -0.548879 0.201695 -0.114337 0.252058 -0.410543 0.209166 -0.143957 -0.214393 -1.105097 -0.524179 -0.032427 -0.398111 -0.088469 0.141609 -0.057264 0.382797 0.310351 0.436595 0.044677 -0.290240 0.088064 -0.282487
sent_45 0.343198 0.171431 -0.648828 0.078287 0.180436 0.498786 0.340641 -0.307724 0.352067 0.058585 -0.434351 -0.101905 -0.250175 -0.129507 0.394542 0.068368 0.444861 -0.125099 0.077139 -0.099095 -0.211652 -0.092539 0.202339 0.318929 0.245663 0.238745 -0.018366 0.316659 0.315403 0.273128 0.777568 -0.026388 0.134653 -0.304514 -0.086883 0.259886 -0.539031 0.251977 0.233966 -0.202549 0.222986 -0.179009 -0.065467 -0.064698 -0.128028 0.489879 0.237635 0.095813 0.354478 -0.133663
sent_46 -0.002474 -0.045803 -0.282467 0.029276 -0.204478 -0.286274 0.077710 -0.212746 -0.020538 0.325663 0.338626 -0.469218 -0.244222 -0.430192 -0.684223 -0.191903 0.028888 -0.013792 0.196952 -0.419291 -0.217198 0.490148 0.620082 0.155381 0.027639 0.254508 -0.069196 0.049800 0.103492 -0.036213 0.181991 0.491256 -0.419687 0.234349 -0.193479 0.635953 0.274878 0.595764 0.161068 0.143113 0.378189 0.026098 0.341158 0.444564 -0.547761 0.156788 -0.299203 -0.554862 -0.060402 -0.162847
sent_47 0.085929 -0.014890 -0.125377 0.747939 -0.108134 -0.272466 0.049016 0.166300 0.557567 0.019627 -0.058623 0.393259 -0.217060 0.119259 -0.339596 -0.114599 -0.185370 0.019271 0.421903 -0.277870 0.189587 -0.332707 -0.189662 0.083459 0.453859 0.111168 0.051178 -0.003611 -0.080368 0.135892 0.195687 -0.151287 0.037130 0.150224 -0.214125 0.084635 -0.507301 -0.155734 0.339589 -0.010727 0.231746 0.080625 -0.275521 -0.163136 -0.087596 -0.537284 0.027616 -0.637610 0.201548 -0.070356
sent_48 -0.357620 -0.162010 -0.336511 -0.036936 -0.330877 -0.136186 -0.540991 -0.208342 -0.157496 0.483305 0.042704 -0.260023 -0.284824 -0.454420 -0.083304 0.073532 -0.488681 0.025277 0.386988 0.078090 0.019338 0.176795 0.322952 -0.083984 -0.528235 -0.255004 -0.343903 -0.232553 -0.232732 -0.463526 0.151968 0.430825 -0.079602 0.600951 -0.124296 0.708987 0.284612 0.603394 0.184096 0.276010 0.552202 -0.031269 0.292561 0.241551 0.048224 0.322867 -0.379019 -0.748738 -0.229025 -0.438441
sent_49 -0.378729 0.183271 0.430628 -0.140045 0.254872 0.092359 -0.417623 0.457743 0.633007 0.065925 0.310683 0.049506 -0.169829 -0.217622 -0.235050 -0.605816 -0.204164 0.255758 0.320080 -0.283080 -0.017915 -0.119101 0.272441 0.132305 0.115251 -0.207776 0.265901 0.734426 -0.488175 0.059726 0.452978 -0.150772 -0.668866 0.549734 0.159825 -0.191565 -0.055538 -0.444634 0.039636 -0.274426 -0.429816 -0.231832 0.431872 0.329509 0.168501 0.035198 -0.090897 -0.774993 0.227271 0.520053
sent_50 -0.056212 0.150796 0.112755 -0.146830 0.186797 0.127455 -0.048462 0.057540 -0.018726 0.296461 0.297661 -0.261761 -0.491326 -0.366290 -0.519650 -0.376073 -0.314052 -0.077626 0.376045 -0.235073 0.126828 0.515635 0.736681 0.176657 -0.274516 0.224383 -0.087711 -0.047025 -0.229518 0.001600 0.259226 0.548696 -0.391136 0.235232 0.038132 1.004429 0.158317 0.567458 0.225486 0.253086 0.091682 -0.129023 0.267561 0.556863 -0.489675 -0.401862 -0.269808 -0.550079 -0.087668 0.297493
sent_51 0.291303 0.143328 -0.023520 0.074969 -0.164118 -0.045710 0.220990 -0.219012 0.116523 -0.170193 -0.281110 0.310231 -0.552528 -0.004216 -0.160101 -0.028298 0.172097 0.330430 0.425252 0.385614 0.506516 -0.444517 -0.102184 0.383033 0.152281 0.240846 -0.271420 0.708084 -0.127620 0.253777 -0.324399 -0.172046 -0.305358 0.581886 -0.175344 0.447720 -0.004360 -0.270409 -0.598737 -0.407537 0.117925 0.002866 0.008551 0.423164 -0.029652 0.093277 -0.301258 -0.122061 0.521509 -0.467237
sent_52 -0.533756 -0.236480 -0.686719 0.245835 -0.105976 -0.238982 -0.184898 -0.399564 0.468828 -0.134919 -0.251826 -0.494846 -0.442615 -0.045737 0.385733 0.273332 -0.239108 0.488107 0.048565 -0.042286 -0.036118 -0.279231 -0.410032 0.243113 -0.148207 0.210903 -0.230935 -0.142148 0.217414 -0.047220 0.706190 -0.325956 -0.424948 0.335189 0.285421 -0.239327 0.338908 0.339686 -0.225837 0.157406 0.453998 -0.179220 0.156224 -0.015191 -0.266178 0.001928 0.338003 0.052080 0.140426 0.676255
sent_53 0.093181 -0.058605 -0.214095 -0.047066 0.045058 -0.244000 0.113441 0.198844 -0.099795 -0.374184 0.010864 0.225910 -0.134911 0.127911 0.055054 0.187319 0.086767 0.461001 0.376812 0.529906 0.251132 -0.443943 -0.287372 0.503434 0.036441 0.017700 0.083754 -0.162201 -0.167337 0.242856 0.062538 -0.224653 -0.041416 0.218545 0.263872 -0.052213 -0.203606 -0.573556 -0.360383 -0.099167 0.002969 0.240386 -0.120114 -0.174133 0.116571 -0.089583 -0.618681 0.319141 0.518623 -0.405393
sent_54 -0.157841 0.043081 -0.512021 0.777824 0.856539 -0.778397 -0.358338 0.264213 0.633038 0.145542 -0.532679 0.112818 -0.343925 0.032506 -0.408574 -0.271687 0.089922 0.415225 0.304672 0.049589 -0.034086 -0.162897 -0.185640 0.694555 0.153143 -0.524083 0.183474 0.288150 -0.164556 -0.458872 1.184175 -0.577790 -0.270825 0.156901 -0.177881 -0.047997 -0.330136 0.366754 0.941153 0.341318 -0.517070 -0.663493 -0.581155 0.149073 -0.358662 -0.568453 -0.152711 -0.692549 0.233677 0.350417
sent_55 -0.205147 0.053414 0.006742 -0.323948 0.043690 0.037141 -0.143471 0.153642 0.068411 0.733957 0.656162 -0.206318 -0.427486 -0.531569 -0.902048 -0.655897 -0.038359 0.501421 0.319268 -0.636103 -0.157328 0.507634 0.857496 0.385919 0.183050 0.435573 -0.026144 0.092122 -0.122104 0.200720 0.134086 0.515249 -0.524022 0.066276 -0.114863 0.944522 0.626681 0.517688 0.188651 -0.175195 0.228947 -0.060328 0.546019 0.618257 -0.145855 -0.032321 -0.800699 -0.570297 -0.273765 0.191750
sent_56 0.185695 -0.145644 0.132283 -0.626817 -0.143575 0.308051 0.753963 -0.367846 -0.083328 0.542288 -0.080915 0.160357 0.438047 -0.015952 -0.363218 0.314849 0.118633 -0.257940 0.355771 -0.104725 0.350728 -1.033110 0.453688 -0.327945 0.125936 0.498959 0.058661 0.245143 0.187956 0.520093 -0.295420 0.131737 -0.232495 -0.180086 -0.001260 -0.050894 -0.080756 -0.576738 -0.232270 -0.030629 0.143890 0.231872 -0.103914 0.483877 0.444270 -0.522243 -0.553660 0.148526 0.361974 -0.572728
sent_57 0.101690 -0.061912 -1.024015 0.578391 0.354193 0.172425 0.023325 -0.312799 -0.013978 -0.036892 -0.516025 -0.329411 -0.182400 0.008134 0.105489 -0.170412 0.383666 0.120336 -0.249987 0.114115 -0.162052 -0.410217 -0.048378 0.140148 -0.091161 0.007608 -0.239508 0.059066 0.430128 -0.184321 0.543909 -0.145051 0.140407 -0.290444 -0.307871 -0.232572 -0.114916 0.637278 0.272926 0.023564 0.042262 -0.215506 -0.168152 -0.354155 0.097013 1.005273 0.565758 0.042410 -0.004137 0.098096
sent_58 -0.034357 -0.023472 0.033266 0.322322 0.171420 -0.174045 -0.208748 -0.149777 -0.192087 0.082242 0.069192 -0.031340 -0.051989 0.185854 0.217044 -0.066302 -0.103460 -0.164335 -0.227790 -0.191050 -0.167717 0.096060 -0.264798 0.041043 -0.013646 -0.060411 -0.004379 -0.080964 -0.210901 -0.099794 -0.210964 -0.297487 0.041604 0.151870 0.042329 0.041760 0.318367 0.028824 0.161660 0.106437 -0.133634 -0.021186 -0.279169 -0.154570 0.040689 -0.243803 0.261224 0.045921 -0.242720 0.046396
sent_59 0.808704 0.062298 -0.442733 -0.338822 -0.523925 -0.075543 0.550681 0.319977 -0.184114 -0.410948 -0.358835 -0.067889 0.109363 0.259751 0.042670 0.355142 -0.249212 0.489248 0.122411 0.873278 0.264314 -0.204972 0.064254 0.203088 0.420730 -0.239155 -0.008945 0.035343 0.109535 0.057004 -0.490363 0.083220 -0.108570 0.847694 -0.194376 0.482094 -0.597858 -0.311033 -0.468159 -0.246357 0.464609 0.033182 0.042549 0.118731 -0.185254 -0.254150 -0.402429 0.717571 0.370926 -0.042602
sent_60 -0.070334 0.108010 0.265451 0.468429 0.392035 -0.467447 -0.661661 0.108993 -0.628427 -0.306107 0.658200 0.034827 -0.055493 -0.265152 0.316755 0.418286 0.065136 -0.341543 0.414029 -0.009415 0.136797 0.469580 -0.421840 -0.160223 -0.705292 -0.030183 -0.400659 -0.506333 -0.072925 -0.371672 -0.455886 0.199828 -0.005126 -0.702322 -0.147581 -0.040658 0.212396 -0.324311 -0.185362 0.805782 -0.213881 0.423418 -0.043815 -0.401176 0.170019 0.404406 -0.357747 -0.889381 -0.373543 -0.314987
sent_61 -0.209096 -0.469711 -0.579674 0.559216 0.047910 1.071346 0.060563 -0.782230 0.208806 -0.188807 -0.594747 -0.059661 -0.137502 0.050336 0.865113 0.012770 0.345923 0.235041 -0.151975 0.253631 -0.555209 -1.007432 -0.391094 -0.055984 0.634672 0.160814 -0.056370 0.157822 0.262851 0.223931 0.372818 -0.332903 0.390739 -0.374180 -0.394785 -0.102687 0.115324 0.145014 -0.026109 -0.804305 0.363923 -0.115597 0.120614 -0.711532 0.069218 0.727583 0.737779 0.358367 0.420079 -0.117818
sent_62 -0.360506 0.341051 0.790110 0.355447 0.650022 -0.453560 -0.398965 0.364925 -0.807607 -0.428434 0.546163 -0.150151 0.361304 -0.033873 -0.100172 0.138898 -0.256358 -0.341365 0.147685 -0.268408 0.339272 0.170185 -0.068588 0.284828 0.241632 -0.024585 0.078079 -0.231632 0.652859 -0.265955 -0.284103 0.124783 0.083107 -0.466009 -0.362227 0.192727 0.293517 -0.038106 -0.292954 0.533669 -0.418061 0.038804 -0.284406 0.005741 -0.654818 -0.250432 -0.608309 -0.717899 -0.553544 0.593392
sent_63 0.234218 0.054073 -0.379421 0.044018 0.249027 0.051670 -0.108161 0.067132 0.210128 0.048705 -0.264808 0.085003 0.326846 0.191510 0.566504 0.222796 0.148002 -0.206118 -0.227438 -0.208573 -0.325288 -0.103300 -0.383061 -0.228614 -0.102231 0.217516 -0.236671 0.413580 -0.028843 -0.064024 -0.144131 0.262007 -0.604267 0.106501 -0.144744 -0.625832 -0.485114 -0.148211 0.020037 0.209352 -0.096781 -0.112935 -0.056056 0.533953 0.121139 0.738469 -0.000740 0.058624 0.105362 -0.489208
sent_64 -0.315100 0.331149 -0.248875 -0.112100 -0.035018 0.588062 0.047810 -0.100878 -0.246217 -0.403366 0.036337 -0.260840 -0.162028 -0.304069 0.054408 -0.384645 -0.549669 -0.124389 0.232310 0.223887 -0.477758 -0.246597 0.618873 0.076928 0.299182 -0.097146 -0.050939 0.203781 -0.090423 0.220657 0.023473 0.386921 -0.079074 0.221619 -0.262012 0.205663 -0.069674 0.256259 -0.057102 -0.010858 0.149559 0.118792 0.597985 -0.321857 -0.205544 0.281260 -0.175246 0.456274 -0.279369 0.327059
sent_65 -0.039327 0.032808 -0.388920 -0.221196 -0.454667 -0.099427 -0.246676 0.530283 0.400694 0.078563 0.095415 -0.127188 0.181146 0.118767 -0.041653 -0.377803 -0.414309 0.029058 0.596246 -0.193755 0.637748 0.159795 0.454798 -0.017786 -0.130050 0.053239 -0.091426 0.415404 -0.047367 0.470648 -0.418017 0.211395 -0.116740 0.287558 0.126455 -0.423685 -0.419921 -0.293450 0.285129 -0.157731 0.020006 0.126561 -0.085426 0.748568 0.486287 -0.244814 -0.286762 0.000226 0.033433 0.458837
sent_66 -0.264698 0.204173 -0.032543 0.146405 0.558597 0.695395 -0.230920 0.108918 0.484940 -0.479902 -0.027632 0.371651 -0.258663 0.054246 0.254388 0.057427 -0.139717 -0.272707 0.288995 -0.338558 -0.060729 -0.510236 0.019218 -0.316549 0.461386 -0.203034 0.071320 0.082921 -0.677497 0.563859 0.394694 -0.091769 -0.232220 0.398936 0.039214 -0.101645 -0.245313 -0.025558 0.465444 -0.113286 -0.016306 0.203840 0.720711 0.008993 -0.038837 -0.244628 0.255599 -0.098323 0.145282 -0.095014
sent_67 -0.435490 0.636639 0.826797 0.029706 0.248335 -0.435120 -0.781455 0.175180 -0.785118 -0.419251 0.141449 0.120919 0.111435 -0.400532 0.432687 0.621025 0.202679 -0.276746 -0.269137 -0.572440 0.448767 1.302950 -0.997017 -0.809828 -1.136331 -0.131675 -0.483751 -0.758151 0.330656 -0.368991 -0.048396 0.441788 0.603119 -0.714004 0.383830 -0.229509 0.268335 -0.381921 -0.322291 0.762471 -0.608157 0.395990 -0.480887 -0.023123 -0.201294 0.080003 -0.162663 -0.975689 -0.197774 -0.134177
sent_68 -0.346475 0.374265 0.358037 -0.524649 -0.247855 0.046880 -0.257777 0.231976 0.121641 0.705727 0.551238 -0.003136 -0.234570 -0.475477 -0.572206 -0.344496 -0.362197 0.026124 0.433596 -0.388698 0.374156 0.068853 0.543197 0.109248 -0.068491 0.424554 -0.219965 0.207330 -0.118243 0.014074 0.168409 0.190640 -0.253823 0.345296 0.039486 0.557557 0.059498 0.105366 0.009805 0.012357 0.290881 0.232554 0.210843 0.502628 0.038215 -0.418635 -0.542969 -0.955434 -0.331745 0.474433
sent_69 0.026393 0.643773 0.204823 0.206645 0.342759 0.093387 -0.229330 0.253939 0.162663 -0.081167 -0.593773 0.549295 -0.134853 -0.001877 0.255403 0.054917 0.060070 0.112951 -0.133713 0.086176 -0.325050 0.031059 -0.332624 -0.029238 0.170128 -0.518009 -0.014494 0.522467 -0.345075 -0.380086 0.145190 0.010093 -0.245602 0.480149 -0.189534 0.147408 -0.510431 0.038744 0.336469 -0.118293 -0.247166 -0.172794 0.107304 0.376092 -0.486266 0.034260 -0.095711 -0.304506 0.218432 -0.293980
sent_70 0.409976 -0.268725 0.062315 -0.554874 0.167294 -0.539891 -0.125367 0.282198 0.314791 0.188092 0.453737 0.277133 0.357334 0.274947 0.317308 0.121683 -0.135042 0.234006 0.076700 -0.039593 -0.005062 0.465602 -0.147176 0.116295 -0.022869 0.334555 -0.376658 0.257039 -0.160771 -0.193146 -0.106492 -0.159765 0.155918 0.287601 0.155011 0.013610 0.082042 -0.065557 -0.070693 0.030274 -0.016676 -0.235694 -0.269206 0.454116 0.236795 -0.414554 -0.560527 -0.412830 -0.073985 -0.231692
sent_71 -0.491584 0.769431 0.168974 -0.964417 -0.118746 0.048861 -0.369818 0.054812 0.300835 0.343612 -0.143706 -0.419020 -0.136823 -0.633151 0.161077 -0.002537 0.122639 0.617567 -0.054528 -0.028647 -0.113241 0.155949 -0.345673 -0.174752 -0.260356 -0.290187 -0.444310 0.411700 -0.214809 -0.134735 0.269999 -0.016559 -0.835918 0.713001 0.511506 -0.294491 0.258101 0.640856 0.173178 -0.628311 -0.015313 -0.172840 0.654651 0.976305 -0.443590 -0.035146 -0.265552 -0.203725 0.148245 0.903943
sent_72 -0.313805 0.026573 0.162073 -0.470745 -0.101634 -0.106843 0.251254 0.110995 -0.291296 -0.511713 0.132668 -0.286849 -0.310868 -0.838542 -0.419959 -0.545226 0.035031 0.013956 0.836480 0.440343 0.632635 0.085924 -0.010432 0.832121 -0.375587 0.228487 0.258900 -0.155474 0.049169 -0.003970 -0.658625 0.375125 -0.137023 0.059479 0.081904 0.784295 0.864225 -0.296532 -0.945413 0.459329 0.102910 0.103760 0.344364 0.395374 0.151792 0.282041 -0.672501 -0.307549 0.076398 0.562825
sent_73 0.172469 0.091261 0.330492 0.600003 -0.207815 -0.050213 -0.231060 0.055234 0.019094 0.308115 -0.128352 -0.195289 0.242058 0.625487 0.021026 -0.184908 -0.310162 -0.423591 -0.111755 -0.505176 0.516275 0.016748 -0.642505 -0.024257 -0.594439 0.175319 -0.695865 0.362721 0.577088 0.510159 -0.290240 0.637860 -0.118988 -0.500418 -0.279574 -1.081226 0.312579 -0.048079 -0.424562 0.128816 -0.378782 0.404747 -0.665038 -0.284283 0.389145 0.595957 0.100001 -0.438165 -0.638102 0.238848
sent_74 0.011436 0.137400 0.060218 0.371698 0.071536 -0.370568 -0.123035 0.371207 0.268259 0.271069 0.202130 0.336191 -0.155148 0.402234 -0.157498 0.173453 -0.101004 0.233033 0.126482 -0.178627 0.531605 -0.175609 -0.069003 -0.239007 -0.217607 0.044903 -0.213115 0.441934 -0.098628 0.182870 -0.372234 0.000086 -0.151721 0.207694 -0.079469 -0.021577 -0.274170 -0.095827 0.245082 -0.245357 -0.044288 -0.063166 0.009680 0.099994 -0.210621 0.107092 0.223880 -0.519767 -0.230799 -0.101868
sent_75 0.141320 0.375793 0.482819 0.095692 0.126481 0.278122 0.366233 0.443967 -0.092399 -0.309388 -0.391496 -0.013390 0.012826 0.153958 0.208718 0.257116 -0.382843 0.027646 -0.440055 -0.084374 -0.195914 -0.202822 0.140267 -0.598085 -0.102772 -0.291308 0.363318 0.031278 -0.119900 0.229523 -0.207809 0.370155 -0.176100 0.708597 0.094947 -0.401553 -0.375585 -0.096374 0.084277 0.108763 -0.517381 0.364358 0.392524 0.046623 -0.124295 -0.106860 0.105146 0.310132 -0.018486 -0.247594
sent_76 -0.349158 -0.003541 0.597966 -0.716521 0.205850 -0.483819 -0.185602 0.336178 -0.293246 -0.101821 0.838804 -0.283132 -0.080569 -0.320986 -0.469963 -0.509269 -0.099907 0.045717 0.784947 0.069482 0.391750 0.362283 0.454767 0.567883 0.097783 0.269061 0.019026 0.276373 -0.098014 -0.432763 -0.447807 -0.036817 -0.290584 0.041151 0.057331 0.801017 1.157365 -0.040623 -0.644017 0.098574 0.140036 0.000160 0.318598 0.460679 -0.052918 -0.327136 -1.070490 -0.816318 -0.249404 0.569425
sent_77 -0.347309 -0.067800 -0.324058 0.421935 -0.472089 -0.052553 -0.518526 -0.056969 -0.126731 0.268067 0.498373 -0.273049 -0.369336 -0.346603 -0.274206 -0.254873 -0.258150 0.153148 -0.024600 -0.292094 -0.323123 0.678152 0.067086 0.419515 0.032256 0.097766 0.155848 -0.060033 -0.119464 -0.224673 -0.007010 0.043221 0.215808 0.735099 -0.338787 1.027381 0.524056 0.534136 0.188963 -0.046745 0.375273 0.371990 0.244509 -0.000209 -0.354241 -0.013679 -0.184632 -0.756907 -0.222797 -0.232062
sent_78 0.332219 -0.202997 -0.180277 0.199426 0.188866 -0.212910 -0.125517 0.094920 0.375916 -0.374110 -0.018114 -0.191614 -0.071964 0.095904 0.187158 0.340631 0.028228 0.219643 -0.107382 -0.281037 -0.111963 0.133376 -0.175301 -0.250095 -0.008210 0.185434 -0.061876 -0.170420 0.209600 -0.290799 0.254539 0.032860 -0.019431 -0.022406 0.107274 -0.154985 -0.442400 0.111760 0.043476 0.194295 0.180300 0.012887 0.090422 0.175845 -0.207332 0.198011 0.211064 -0.509219 -0.095094 0.237258
sent_79 0.098001 1.080001 -0.143972 -0.227670 0.265423 0.136446 0.039330 -0.181087 -0.137064 -0.285901 -0.768851 0.213017 -0.280032 -0.526786 0.420748 0.116969 -0.045386 0.875794 -0.059219 0.200113 -0.152917 0.599060 -0.280226 0.275864 0.117162 -0.146788 -0.212504 0.534608 0.140056 0.250466 0.945386 -0.005380 0.391035 -0.059198 -0.261696 0.059644 -0.318893 0.288365 0.054589 -0.155007 -0.097059 -0.038823 -0.309331 -0.142390 -0.464910 -0.113024 -1.080405 0.481064 0.572168 0.396304
sent_80 0.179106 -0.030122 -0.385996 0.104991 0.025523 -0.031808 0.098084 -0.182027 -0.047199 0.353493 0.235060 -0.466189 -0.287701 -0.577710 -0.805637 -0.229134 0.059196 0.022566 -0.143917 -0.314986 -0.163191 0.512528 0.550108 0.455359 0.264852 0.193735 0.205157 0.168425 0.024361 -0.263873 0.168016 0.288691 -0.027306 0.164220 -0.481757 0.754536 0.390230 0.719874 0.357977 0.438589 0.177613 -0.194467 0.366865 0.378297 -0.387111 0.294152 -0.330353 -0.427715 -0.292233 -0.202114
sent_81 -0.111809 0.110664 0.613572 -0.225011 0.439155 0.293543 -0.299663 -0.088003 -0.665056 -0.188958 0.220786 0.078934 0.398488 -0.052224 0.422204 0.560807 -0.543617 -0.870275 -0.374739 0.117183 -0.265061 0.127820 -0.263714 0.089347 0.565582 -0.273760 -0.210898 -0.474945 0.267203 -0.604106 0.288670 0.142645 0.441690 -0.685622 -0.147142 -0.048896 -0.026167 0.206693 -0.071738 0.275552 -0.001556 -0.474157 -0.396539 -0.338506 -0.494143 -0.182950 -0.208990 0.374361 -0.249579 -0.134066
sent_82 -0.780866 -0.179921 -0.129683 0.070443 0.039788 -0.021762 0.146882 -0.290611 0.025904 -0.729995 -0.031527 -0.275003 0.286747 0.054408 0.372594 0.294177 0.435375 -0.020975 -0.293952 0.182610 -0.077134 0.393263 -0.379835 0.083351 -0.138238 -0.040152 0.246662 0.141560 0.368823 0.000620 0.008754 -0.023864 -0.174047 -0.083701 -0.078657 0.057374 -0.211926 -0.274554 -0.426881 0.251774 -0.063037 -0.240007 0.165039 -0.091361 -0.785701 0.424166 0.572833 0.072534 0.099961 0.047821
sent_83 0.758251 0.233876 -0.054160 -0.143655 -0.573247 -0.378245 0.564695 0.449831 0.147408 -0.310373 -0.184141 0.050007 -0.061691 0.276073 0.162950 0.458731 0.142267 0.613690 -0.050922 0.482119 0.529107 0.100642 -0.315584 0.278290 0.315309 0.055256 0.009032 -0.174530 0.132777 -0.074937 -0.288235 -0.119798 0.263369 0.419632 0.009220 0.324292 -0.242060 -0.529943 -0.575018 -0.061931 0.486539 0.055835 -0.040257 -0.149406 -0.279451 -0.435519 -0.202703 0.296712 0.170569 -0.006237
sent_84 0.394114 0.307923 0.766865 0.644826 -0.489220 0.262251 0.230171 0.380723 0.002938 0.345249 -0.290505 -0.113504 0.114181 -0.047638 0.117445 0.383396 -0.805576 -0.315189 0.037322 0.088289 0.173896 -0.554913 0.349512 -1.132616 -1.016019 -0.043474 0.868702 0.581457 0.069876 0.365633 -1.167541 0.785651 -0.236804 0.031284 -0.055908 -0.568046 -0.806850 -0.416129 0.325232 -0.034497 -0.548466 0.467911 0.009646 0.015521 0.206386 0.502731 -0.027512 -0.051285 -0.057910 -0.023558
sent_85 -0.287021 0.112989 -0.221352 -0.024641 -0.000300 0.311761 -0.306455 0.138657 0.257143 -0.219664 -0.128183 0.141575 -0.207855 -0.073065 -0.058411 -0.053146 -0.460532 0.198722 0.324341 0.025769 -0.540337 0.108425 0.065012 -0.254035 0.005218 0.141047 -0.323351 0.315994 -0.134676 -0.067699 0.135657 0.385504 0.129616 0.554502 -0.202965 -0.192602 -0.233373 0.472624 0.198667 -0.226370 -0.029110 -0.088405 0.241827 0.518131 0.000135 0.139930 0.066092 -0.148650 0.027571 -0.148245
sent_86 -0.229691 0.121368 -0.782407 0.431719 0.598116 0.478512 0.144294 0.373876 0.469084 -0.174563 0.050509 -0.291793 -0.429091 0.109539 -0.131788 0.424823 0.518224 -0.245826 0.469676 0.193811 0.008007 0.056155 0.310499 -0.295564 0.287533 0.213136 0.200280 0.610545 -0.084255 0.625678 -0.241730 -0.465596 -0.322002 0.041472 -0.058239 -0.325329 -0.536617 0.101205 0.401853 -0.401083 -0.299622 -0.217549 0.221985 0.529843 -0.229375 -0.039879 0.213184 0.425892 0.365878 0.014887
sent_87 -0.180032 -0.347402 0.286679 -0.649207 0.357000 -0.343010 -0.215336 0.409531 0.035531 0.217188 0.075963 -0.436967 0.038243 -0.190393 -0.109097 0.034101 0.021073 0.178643 -0.066810 0.073837 0.283127 0.415224 0.316494 0.047327 -0.359114 -0.427699 0.032274 -0.231784 -0.145438 -0.674361 0.361963 -0.109050 -0.311987 -0.116214 0.309458 0.344130 0.539447 0.250619 0.046515 0.335528 -0.087040 -0.493371 0.279220 0.347924 -0.235834 -0.258147 -0.378890 -0.333089 -0.015955 0.544987
sent_88 0.591097 -0.128226 -0.450876 -0.495943 0.310239 0.144851 -0.291433 0.729722 0.266539 -0.342902 -0.480226 0.313516 0.382488 0.936012 0.887715 -0.141910 0.279098 0.200127 -0.174341 -0.348250 0.378875 0.055229 0.093791 -0.716282 -0.088785 0.304034 -0.890909 0.425657 -0.169322 0.184677 -0.246766 0.435254 -0.527986 -0.281217 0.133613 -0.356823 -1.055296 -0.737917 -0.243700 -0.171897 0.137933 -0.011699 -0.112370 0.509211 0.274036 0.982241 0.368195 0.297515 0.119998 -0.039633
sent_89 -0.102019 -0.230565 -0.418238 0.267527 0.327066 0.185916 0.055543 0.369535 0.542924 -0.759898 -0.446590 -0.052177 -0.006051 0.148740 0.069477 -0.285753 -0.169923 0.392574 0.599553 0.216369 0.379711 -0.039244 0.188463 0.238555 0.659564 -0.199719 0.249504 0.364206 -0.158307 0.305595 0.237767 -0.513884 0.281624 0.002170 -0.256558 -0.141574 -0.297436 -0.417831 0.210917 -0.097515 -0.101910 -0.136707 -0.280203 -0.296809 0.107465 -0.639303 -0.286741 0.419824 0.506425 0.584595
sent_90 -0.626818 -0.001751 0.145965 0.264252 0.333103 -0.261733 0.050467 0.341383 0.648750 0.904543 0.354808 -0.376893 -0.333162 -0.375130 -1.204441 -0.159402 0.085248 0.368232 0.175119 -0.406118 0.032722 0.157426 0.532519 -0.134031 -0.281178 0.235665 -0.137653 0.248659 -0.118168 -0.398530 0.463909 0.060016 -0.844607 0.396427 -0.412507 0.648879 0.275927 0.637626 0.346793 0.356718 0.097582 -0.582620 0.472697 0.592209 -0.438123 -0.115713 0.190688 -1.247262 -0.281789 0.604855
sent_91 0.117198 0.303321 -0.602247 -0.522346 0.283223 -0.549647 -0.339409 0.385917 -0.586369 0.356954 -0.419295 0.140278 0.092370 -0.040625 0.697040 0.528495 -0.207322 -0.612891 0.039419 -0.247585 0.155096 -1.485086 0.251531 -0.610579 0.022276 0.268418 0.366502 0.337067 -0.300436 -0.114656 -0.248946 -0.377547 -0.348077 -0.003502 0.438642 -0.772507 0.055105 -1.016992 0.154029 0.475886 -0.228525 0.623937 0.067266 0.408368 0.572736 0.414508 -0.889440 0.321227 -0.020999 -0.503572
sent_92 -0.462607 -0.196151 -0.335834 -0.276016 -0.061805 0.315987 -0.433434 0.717533 0.820356 0.327009 0.443829 -0.602331 0.348695 0.081076 -0.347744 -0.584028 0.166595 0.286482 0.277675 0.121327 0.728072 -0.206615 0.168831 0.109701 -0.146516 -0.278487 0.033116 0.425219 -0.400383 0.170313 0.011325 -0.695566 -0.741659 0.219560 0.057576 -0.931807 -0.430878 0.081824 0.315688 -0.509059 0.050929 -0.127790 0.408095 0.295356 0.773167 -0.087594 0.131814 0.106847 0.236018 1.304921
sent_93 -0.811057 0.128194 0.043216 -0.025206 -0.536663 0.017796 -0.389245 -0.224983 -0.055414 0.574306 0.256218 -0.045435 -0.380607 -0.589364 -0.472627 -0.071423 -0.148634 0.320728 0.059238 0.034617 0.035932 0.297229 0.123710 0.313167 -0.178192 -0.036454 0.218038 0.135485 -0.334754 -0.353812 0.193025 0.017678 0.298865 0.731782 -0.255820 0.894386 0.589833 0.529201 0.120272 -0.117444 0.319621 0.190772 0.303496 0.195743 -0.144239 -0.162854 -0.559369 -0.634400 -0.130417 -0.405685
sent_94 0.546662 0.167290 -0.829462 0.531943 0.319206 0.222231 0.249308 0.136242 -0.030864 -0.042873 0.650007 -0.268898 -0.327876 0.145319 0.002121 0.401112 0.421504 -0.603105 0.409031 -0.069772 -0.501274 -0.480379 0.709235 -0.184965 0.299484 0.679456 0.377545 -0.361316 0.288690 0.713523 0.424221 -0.401589 -0.298794 -0.010248 0.496138 0.100962 -1.684101 -0.200823 0.567699 -0.377404 0.112891 0.419319 0.047561 0.094031 -0.125731 -0.071385 0.880431 0.018075 0.353223 0.259289
sent_95 -0.070286 0.210710 -0.177500 0.144465 -0.032102 0.290047 0.409186 0.239312 0.380562 0.085304 -0.522139 0.154452 -0.361197 -0.197800 -0.000534 0.711471 -0.017983 -0.010693 0.072719 0.067850 -0.186169 -0.581895 0.118123 -0.348359 0.515184 0.105598 0.326202 0.073969 0.089749 0.134067 0.440093 -0.337520 -0.139341 0.145125 0.015814 -0.376231 -0.626075 -0.269931 0.032143 -0.273872 0.089702 0.135701 0.018681 0.093927 -0.036109 -0.553646 0.081516 0.488156 0.560034 -0.273830
sent_96 0.011312 -0.245533 -0.600405 0.340461 0.135696 -0.006522 -0.108670 -0.046748 0.279257 -0.258031 -0.135478 -0.091605 -0.260600 -0.097390 0.362466 -0.047756 -0.021139 0.384079 -0.117705 -0.147777 -0.336444 0.113893 -0.206417 0.189902 -0.006687 -0.140142 0.144701 0.030288 -0.043737 -0.071033 0.190569 0.048368 0.204418 0.115905 -0.003556 0.051685 -0.299535 0.282219 0.464506 0.004542 -0.036982 0.017943 0.091460 -0.001514 -0.279629 0.183264 0.260486 -0.163757 -0.026590 -0.114120
sent_97 0.295805 0.604283 0.413695 -0.384806 -0.048250 0.220132 -0.505119 0.275473 0.047887 0.327402 0.146313 0.648703 0.014498 -0.188778 0.325726 0.160893 -0.570496 -0.164345 -0.280363 0.070715 -0.172711 0.026840 0.043545 0.058328 -0.529207 -0.329306 0.058845 -0.212973 -0.549303 -0.510264 0.577953 0.165445 0.029678 0.441254 0.339016 0.116333 -0.977709 0.145466 0.375639 -0.105248 -0.031621 -0.142720 0.065864 0.524279 0.048753 0.155575 0.334118 -0.246810 0.044913 -0.077672
sent_98 -0.382070 0.149617 0.005272 -0.091194 0.014583 -0.128224 -0.087439 0.114218 0.199510 0.102175 -0.108225 -0.177613 -0.114961 -0.156069 -0.081308 -0.020221 -0.256804 0.088980 -0.086519 -0.079813 0.082663 0.083945 -0.066002 0.319237 0.126904 -0.175080 0.052522 0.176585 -0.056809 -0.157067 0.146237 0.084609 -0.294950 0.324155 -0.120643 0.007206 0.522223 0.342670 0.102093 0.140796 -0.024100 -0.218929 0.212455 0.303952 -0.477990 -0.149117 -0.190935 -0.083619 -0.139758 0.135658
sent_99 0.153672 0.385372 -0.056586 -0.086690 -0.289386 -0.123103 0.003143 0.126031 0.044688 -0.062790 -0.216714 0.022869 0.023405 0.044972 0.018127 0.418365 -0.162260 0.007600 0.080681 0.306161 0.303490 0.115861 -0.181792 0.008800 0.166654 -0.265669 -0.392855 0.107840 0.057347 -0.215830 -0.197253 -0.048526 -0.049604 0.514542 -0.089577 -0.102953 -0.257936 0.102995 -0.172851 -0.054971 0.261763 -0.100180 -0.017077 0.346167 -0.179666 -0.138003 -0.092168 0.056344 0.010542 0.039196
sent_100 0.270885 -0.094826 0.013465 0.676996 0.064690 0.863690 0.190686 -0.727201 -0.451936 -0.358894 0.111535 -0.282365 -0.197067 0.082249 -0.071138 0.436361 0.329441 -0.716792 0.174473 0.586816 -0.126034 -0.338070 0.393772 -0.261635 -0.036741 0.091568 -0.074252 0.276938 0.136912 0.217294 -0.186759 -0.453705 0.315839 0.100039 -0.298261 -0.063984 -0.144716 0.553080 -0.183536 -0.580423 -0.091709 0.172730 -0.020601 -0.244425 0.053596 0.359112 0.841356 0.274577 0.399663 -0.432507
sent_101 -0.217730 -0.128788 -0.039447 0.236915 0.099647 -0.123402 -0.142088 -0.061391 0.210163 -0.288935 -0.115797 -0.192237 -0.230442 -0.162289 -0.005083 0.222286 -0.236473 0.016294 0.184100 0.119943 -0.102750 0.185650 -0.145924 0.230438 0.052241 -0.235601 -0.009918 -0.105736 0.069769 0.004623 0.299990 0.093212 -0.035981 0.005713 -0.040278 -0.209254 0.106484 0.320199 0.134906 0.020765 -0.186972 -0.089312 -0.107251 0.118127 -0.460289 -0.252781 -0.114611 -0.051172 0.156696 -0.136200
sent_102 -0.161897 -0.010082 -0.431716 -0.055127 -0.049245 -0.273269 0.037375 0.255224 0.261463 -0.313657 -0.340957 0.108731 -0.049948 0.087551 0.233277 0.382744 -0.067939 0.436109 0.121910 0.006769 0.303751 0.112529 -0.041029 -0.034656 0.114123 -0.032844 0.133120 0.301667 0.037606 0.258343 0.055168 0.099688 -0.168381 0.204588 -0.025270 -0.193219 -0.223814 -0.084723 -0.029666 -0.235530 -0.062437 0.091331 0.120414 0.328800 -0.309024 -0.017958 -0.510160 0.226566 0.287870 -0.202134
sent_103 0.254741 -0.403700 -0.153245 0.125128 0.555787 0.639055 0.050847 -0.899981 0.115573 -0.286097 -0.357531 0.156672 -0.474873 -0.021108 0.136314 -0.108872 0.309250 0.007335 -0.044316 0.099968 -0.278488 -0.234309 -0.452094 0.561922 0.523417 -0.090644 -0.390998 -0.373400 0.215357 0.396035 0.807403 0.030442 0.155027 -0.537238 0.168713 0.118055 -0.023151 0.270102 0.001431 -0.381343 -0.075845 -0.355575 -0.416316 -0.361639 -0.270537 0.091102 0.107892 0.193074 0.544511 -0.409156
sent_104 0.528021 0.055512 -0.120042 -0.336366 0.319873 0.698285 0.146827 -0.324872 -0.136222 -0.089233 -0.463319 0.327375 -0.210559 0.323198 0.475859 -0.015439 0.129633 -0.053138 0.033793 0.349878 -0.446731 -0.805938 0.056059 -0.650007 0.127730 -0.071821 -0.584676 0.021736 -0.034243 0.205622 0.389327 0.144145 0.318815 -0.354145 0.447618 -0.292179 -0.806128 0.237032 0.131989 -0.634198 0.016633 0.131394 0.023252 -0.362223 0.275903 0.325470 0.383176 0.445320 0.278752 -0.150855
sent_105 0.282814 0.213910 -0.094258 0.108207 0.304670 0.102982 0.160550 -0.100358 -0.081290 0.357233 -0.083430 0.326828 -0.346374 0.065398 -0.176460 0.063046 0.569406 0.116893 -0.042719 -0.030848 -0.092610 -0.213361 -0.013547 -0.160612 -0.042299 0.095336 -0.111898 0.284455 -0.267222 0.253835 -0.140162 -0.306445 -0.018051 0.034146 0.013144 0.170874 0.267315 -0.081803 0.006695 -0.253901 -0.166584 -0.000240 0.066835 0.105808 0.317711 0.205048 0.063971 0.102158 0.096123 -0.293008
sent_106 0.176819 -0.038835 -0.384162 0.581997 0.197678 -0.300011 0.159837 0.087869 0.275856 -0.224284 -0.323626 -0.037319 -0.167821 -0.067290 0.094148 -0.061933 -0.195714 0.243598 0.294731 0.059826 0.021501 -0.337838 -0.008405 -0.079859 0.491273 -0.251231 0.335709 0.186725 0.038100 -0.059575 0.029040 -0.291440 -0.096311 0.301272 -0.206797 0.429324 -0.579445 -0.133400 0.512599 0.026264 0.223280 -0.219436 -0.150458 -0.185839 -0.573450 -0.405743 -0.128906 -0.447741 0.250161 0.224025
sent_107 0.222531 0.209183 0.437412 -0.310771 -0.167179 -0.058482 0.217696 0.066003 0.301746 0.012707 0.084473 0.158215 -0.111136 -0.319335 0.119666 0.045309 -0.441186 -0.143395 -0.072215 0.101853 -0.354438 0.066528 0.048248 0.109109 -0.097977 0.127489 0.424269 0.030535 -0.068626 0.183042 0.289364 0.157913 -0.341086 0.260658 0.564243 -0.177541 -0.419834 -0.135927 -0.058840 -0.251604 -0.326514 -0.113200 0.073470 0.391059 -0.076378 -0.208060 -0.039405 0.239043 0.256451 0.230551
sent_108 -0.046903 0.151036 0.045626 -0.193953 -0.546946 -0.077896 -0.231285 -0.161847 0.536393 0.217769 -0.349054 0.512830 -0.174508 -0.184597 0.166897 0.109026 -0.641959 0.271521 -0.183541 -0.214428 0.003273 -0.035244 0.049130 -0.365378 -0.491893 0.004994 0.131239 -0.067570 -0.639715 0.062040 0.398464 -0.011637 -0.141595 0.699399 0.334295 -0.117489 -0.110062 -0.060655 0.182217 -0.176078 0.043805 -0.004108 0.030131 0.681216 0.197557 -0.253433 0.117355 0.062513 0.376328 -0.197254
sent_109 -0.290207 0.234774 0.031964 -0.004260 -0.107013 -0.011345 -0.463254 -0.154186 -0.116334 0.557687 0.516615 -0.093150 -0.062610 -0.693073 -0.160037 -0.436554 -0.409333 0.035456 0.176615 -0.327677 -0.425649 0.535582 0.332268 0.174399 -0.196553 0.336184 0.081386 -0.219520 -0.229318 -0.247099 -0.312052 0.277457 -0.375958 0.079065 -0.118113 1.040388 0.425064 0.092930 0.091331 0.065583 0.445824 -0.263026 0.319639 0.512733 -0.306679 0.243516 -0.263938 -0.614770 -0.402953 0.667683
sent_110 -0.777639 0.310373 0.541341 0.424140 0.459114 -0.125431 -0.406457 0.172252 -0.408230 -0.622545 0.057442 -0.299984 -0.017247 0.108919 0.447708 0.543624 0.199024 -0.131875 -0.628198 -0.701296 0.053290 0.736133 -0.534302 -0.473191 -0.249693 0.069188 0.154345 -0.005685 0.276111 -0.062521 -0.078002 0.040854 0.420424 -0.318766 0.184779 -0.429063 0.473711 -0.156052 -0.342513 0.740855 -0.619838 0.405855 -0.001728 -0.328194 -0.380205 0.110887 0.143255 -0.298235 -0.558833 0.015513
sent_111 -0.456161 -0.042794 -0.240711 0.091765 0.067138 -0.434282 -0.271450 -0.033992 0.611065 -0.189107 -0.014533 -0.199166 -0.059700 -0.300912 0.172297 0.451548 0.059098 0.354341 0.084202 0.056253 -0.357614 0.116315 -0.548088 0.158028 0.042889 -0.137736 0.037263 -0.154166 -0.100261 -0.237033 0.433467 -0.290473 -0.531672 0.149522 0.133332 -0.566137 0.226977 0.173406 0.081337 0.104149 0.097071 -0.214178 0.221278 0.087486 -0.212035 -0.184852 0.046187 -0.075571 0.042096 0.304889
sent_112 -0.430708 0.253029 0.422902 -0.074950 0.040340 -0.263835 -0.105085 -0.038800 0.177912 -0.005723 -0.340017 0.035099 0.023388 -0.100523 -0.246205 0.112633 -0.355788 0.299868 -0.031679 0.265853 -0.433841 -0.216926 0.007672 0.296177 0.010154 -0.205523 0.335643 0.376886 -0.135288 -0.401780 0.544375 -0.105866 -0.481593 0.551459 -0.045093 -0.272822 0.225638 0.117365 -0.161641 0.123162 -0.291681 -0.242600 0.195080 0.350425 -0.071957 -0.151752 -0.435591 0.055101 0.213833 0.119287
sent_113 -0.234031 0.039818 -0.372325 0.564579 0.494906 0.945775 -0.122812 -0.489243 0.145548 -0.019219 -0.405222 -0.136461 -0.222822 -0.386963 0.703887 0.063597 0.583288 -0.024283 -0.569957 -0.103669 -0.363582 -0.706245 -0.664822 0.111582 0.280427 0.197983 0.101684 0.217760 0.108922 -0.343819 0.355272 -0.128164 0.097264 -0.545790 -0.327225 -0.314967 -0.221308 0.269048 0.270275 0.003986 0.155355 -0.246460 0.183992 -0.443598 -0.060905 1.039534 0.551497 0.042818 0.124581 -0.098370
sent_114 0.027906 0.301017 -0.468621 -0.081475 -0.228363 -0.115022 0.307352 -0.198485 -0.265576 0.058324 0.097088 -0.092946 0.040246 -0.118861 0.145698 0.148470 0.359423 -0.327149 0.170373 0.454036 0.316386 0.109899 -0.306013 0.528869 0.161958 -0.140833 -0.219460 0.016051 0.132021 0.106454 -0.292950 -0.101149 -0.286086 0.167498 -0.097543 0.249196 0.081316 -0.126968 -0.384668 0.126680 0.423879 -0.019116 0.219829 -0.143687 -0.205472 0.083647 -0.271267 0.315171 0.115010 -0.089159
sent_115 -0.095240 -0.146409 -0.448337 0.048023 -0.094073 0.547124 -0.007873 -0.449421 0.777459 -0.074737 -0.547302 -0.132859 -0.325433 0.108246 0.457358 0.257788 0.429254 -0.183381 -0.122053 -0.041269 -0.297366 0.006732 -0.476574 0.294315 -0.346654 0.408498 -0.095083 0.192193 -0.166065 0.080500 0.835143 -0.180857 -0.158266 0.241994 0.053483 -0.274209 0.074920 0.409793 0.032546 0.025736 -0.030803 -0.095333 -0.055848 0.395401 -0.081087 -0.425127 0.549668 0.143163 0.786955 -0.555317
sent_116 0.115603 0.071318 0.543144 0.233192 -0.201136 0.311096 0.139091 0.030206 -0.123784 -0.047451 -0.476135 0.152435 -0.182227 -0.027385 -0.056133 0.080388 -0.190768 0.077979 -0.458619 0.079766 -0.202377 -0.313102 0.273733 -0.506890 -0.050003 0.008857 0.645885 0.061260 -0.188570 -0.169924 -0.148494 -0.126700 0.234050 0.186595 0.097968 0.018624 -0.252945 -0.227368 0.062246 0.075219 -0.283477 0.110836 -0.108352 -0.021920 -0.034179 -0.163150 -0.054464 0.290260 0.356412 -0.387087
sent_117 -0.041722 -0.084074 0.370922 -0.808752 -0.013377 0.030755 -0.049624 -0.176027 -0.387749 0.102839 0.051352 0.269905 0.604204 0.135449 0.440184 0.313908 -0.347428 0.290672 -0.240803 -0.177722 -0.253728 -0.406945 0.219328 -0.286618 -0.084656 -0.050900 -0.098631 -0.128510 -0.257160 -0.036663 -0.119339 0.383147 -0.417912 0.215146 0.189705 -0.242689 -0.108677 -0.375381 -0.263052 0.018303 0.306453 -0.085211 0.238145 0.418354 0.115954 0.097551 -0.213441 0.494144 0.088292 -0.319729
sent_118 -0.445931 0.626411 0.900736 -0.310738 0.418476 -0.576885 -0.718573 0.014577 -0.854667 -0.342328 0.366056 0.147487 0.504938 0.203856 0.488967 0.269277 -0.250249 -0.475764 -0.342713 -0.749463 0.399480 0.746877 -0.111903 -0.450329 -0.659804 0.043781 -0.310596 -0.529916 0.247787 -0.274684 0.259209 0.072835 -0.040123 -0.212923 0.807066 0.092815 0.058210 -0.673071 -0.652927 0.908644 -0.272327 0.100480 -0.197780 0.182282 -0.193775 0.209838 0.127445 -0.757222 -0.454322 0.716450
sent_119 -0.048615 0.310808 -0.424363 -0.102306 -0.168447 -0.132220 0.143756 -0.127517 -0.017387 -0.419141 -0.226858 -0.021431 0.029089 -0.107079 0.503079 0.144449 0.209466 0.107473 -0.082787 0.253522 -0.359098 0.322147 -0.312550 0.191148 0.322695 -0.009281 0.184461 0.206855 0.165339 -0.010707 0.130109 -0.268055 0.289432 0.329716 -0.008123 -0.080480 -0.161185 0.022352 -0.020157 -0.077534 -0.024849 0.013141 -0.108338 0.042409 -0.269082 -0.135364 -0.161322 0.361447 0.279304 -0.065720
sent_120 0.148501 0.655606 0.394776 0.145382 0.427193 0.006575 -0.459942 0.396584 0.155174 0.180931 -0.059055 0.718431 -0.313158 -0.170043 0.041192 -0.186074 -0.312297 0.281335 0.043963 -0.186504 -0.228081 -0.198946 0.020283 -0.293445 -0.141077 -0.014459 0.094048 0.713995 -0.466461 -0.046945 0.121816 0.029070 0.021484 0.505922 0.088741 -0.013403 -0.575428 -0.112057 0.482701 -0.368454 -0.581898 0.067865 -0.031951 0.614050 0.174345 0.164811 -0.400822 -0.856767 0.126333 -0.161162
sent_121 -0.439342 0.159842 -0.118386 0.290061 0.198741 -0.191174 -0.182020 0.279502 0.343175 0.257481 -0.072817 0.034972 0.213512 -0.148631 -0.186675 -0.390384 -0.119188 0.201078 -0.462859 -0.241685 -0.197283 0.140107 -0.244844 0.111971 -0.031399 -0.131065 0.478985 0.610840 -0.451517 -0.159562 -0.058428 -0.371177 -0.621028 0.858874 -0.314621 0.020631 -0.049183 -0.224565 0.233840 0.396691 -0.415950 -0.263023 0.246547 0.216994 0.088932 -0.031471 -0.036138 -0.167978 -0.096313 0.268602
sent_122 -0.477106 0.273045 -0.068528 -0.517470 -0.227567 0.004993 -0.598372 -0.446509 -0.004102 0.623175 -0.203489 0.292486 -0.173746 -0.396183 0.285438 0.152221 0.428282 0.276636 0.177860 0.321367 -0.022097 -0.110440 -0.522272 0.007838 -0.726650 -0.068323 -0.437929 0.122045 -0.224469 -0.346168 0.542518 -0.473553 -0.044256 0.321445 0.626015 -0.055111 -0.097014 -0.376120 -0.340493 -0.205305 -0.011987 -0.004463 -0.276332 0.315020 0.606133 0.132143 -0.054294 -0.574331 0.348847 -0.151158
sent_123 -0.118854 -0.171204 0.938034 -0.018937 0.487184 -0.430274 -0.404816 -0.379586 -0.780328 0.193136 0.145642 0.166441 0.197590 0.152520 0.196716 0.389083 -0.113769 -0.212312 -0.642157 -0.127240 -0.513757 0.803345 -0.545384 -0.330839 -0.089036 -0.195375 -0.165230 -0.411115 0.405841 -0.235663 -0.128727 0.207533 0.419575 -0.345726 0.339993 0.305369 0.480064 0.591574 0.186925 -0.500043 -0.697187 -0.437376 -0.697473 0.278936 -0.758485 0.131079 -0.197102 -0.358069 -0.276617 -0.177055
sent_124 -0.470925 -0.205735 -0.059544 0.113358 0.115448 -0.278077 -0.266480 0.085628 0.014818 -0.163309 -0.517810 -0.276029 -0.049755 -0.024096 0.391649 -0.130235 -0.165168 0.984098 -0.354361 0.173619 -0.450206 0.004975 -0.352566 0.128641 0.093503 -0.492824 0.282768 0.183659 -0.246959 -0.353380 0.160622 -0.238587 -0.271966 0.814369 -0.124256 -0.097613 0.160342 0.300853 0.132424 -0.229170 -0.299591 0.094190 0.278363 0.176496 -0.226484 -0.277996 -0.386022 0.163189 0.112894 0.100851
sent_125 -0.334117 -0.014453 -0.514777 0.298189 0.387780 0.140516 -0.142421 -0.475923 -0.245277 -0.088897 -0.298694 0.200546 -0.046483 -0.172135 0.589795 0.408019 0.230420 0.026895 -0.196810 0.187330 -0.465226 -0.193404 -0.457422 0.320425 -0.215379 0.060193 0.185109 0.137702 0.137237 -0.358984 0.431201 -0.192630 0.132383 -0.086075 0.116041 0.214539 -0.468595 0.292133 0.194714 0.206098 0.172516 -0.365062 -0.120325 0.183141 -0.356496 0.402172 0.290637 -0.065684 0.409078 -0.211601
sent_126 -0.498412 -0.267912 -0.095630 0.093823 0.340517 -0.051564 0.011368 -0.445137 0.109157 -0.447537 -0.415084 -0.069802 -0.170537 0.036114 0.488604 0.001999 -0.129482 0.474780 0.069789 0.104839 -0.109924 -0.023542 -0.268381 0.115260 0.008873 -0.297660 -0.087137 0.478589 0.073075 0.311634 -0.069466 -0.010630 -0.474685 0.342839 0.213090 -0.033384 -0.185292 0.086823 -0.090943 -0.221598 -0.091596 -0.447562 0.045119 0.233868 -0.607522 0.007884 0.034988 0.247523 0.340901 -0.025992
sent_127 -0.367940 -0.036067 0.108447 0.107381 0.162660 -0.296140 0.095352 0.313041 1.065990 -0.015086 -0.583728 0.396964 0.282087 0.210325 0.052006 0.036798 -0.177845 0.665299 -0.095338 0.065394 0.241493 0.018152 -0.013159 0.120498 0.136117 -0.771172 0.554554 0.563024 -0.595077 -0.226646 0.600917 -0.485502 -0.271332 0.499041 -0.145659 -0.274957 -0.052004 -0.149230 0.445716 0.005055 -0.038470 -0.772278 0.233536 -0.043322 -0.271286 -0.564117 0.039045 0.206719 0.393937 0.124238
sent_128 -0.251968 -0.197262 -0.465247 -0.214130 -0.349980 -0.282061 -0.193379 -0.142423 -0.248328 0.071699 0.022763 -0.090055 0.279200 0.014424 0.357958 0.099778 -0.409765 -0.072713 -0.168960 0.029591 0.044465 -0.046446 0.126688 0.242216 -0.264199 -0.132605 0.243032 -0.131107 -0.217071 -0.126663 -0.356517 -0.115983 -0.045506 0.677727 0.137054 0.030240 0.136562 -0.200309 0.024885 0.344574 0.109871 -0.062325 -0.056776 0.323223 0.184847 0.026251 0.235370 0.441539 -0.081838 -0.357458
sent_129 0.231780 -0.067384 -0.456391 0.067131 0.622550 -0.415899 -0.195204 0.242487 0.178839 0.073234 -0.378590 0.148345 -0.046445 0.246986 0.191685 -0.403536 0.589505 0.519274 -0.451076 -0.078500 -0.190990 0.099129 -0.035670 -0.115383 -0.145451 -0.157544 -0.061480 0.266853 -0.398918 -0.144013 0.274701 -0.659452 -0.329902 0.286419 0.120412 -0.007030 -0.489589 -0.002852 0.371171 -0.081536 -0.503653 -0.238954 -0.092050 0.446926 0.217693 0.002208 0.386175 -0.010319 0.081520 0.301439
sent_130 0.169573 0.027608 -0.571115 0.786155 -0.011322 0.178098 0.319864 -0.073168 0.222137 -0.341740 0.383596 -0.004088 -0.597094 -0.062214 0.177905 0.390782 0.519940 -0.346771 0.537784 0.053130 0.064299 0.029740 0.040280 -0.100356 -0.209991 0.476822 0.550146 -0.033776 0.054314 1.068748 -0.063343 -0.264180 -0.484681 -0.254665 0.306905 0.029039 -0.612801 -0.285414 -0.083257 -0.623127 -0.173410 0.443308 0.153583 0.130683 -0.046018 0.128420 0.447323 0.258942 0.753031 0.034220
sent_131 -0.369080 0.115796 0.096464 -0.369789 0.110849 -0.446490 -0.309785 0.108962 0.120647 0.203277 0.203381 0.028860 -0.313381 -0.303272 -0.143125 -0.396893 -0.032293 0.694836 0.030257 0.014795 0.169883 0.175548 0.321274 0.413381 -0.358694 -0.211085 0.107647 0.243178 -0.409279 -0.514829 0.206920 -0.210288 -0.678125 0.563909 0.249650 0.666756 0.224453 -0.038667 -0.016180 0.055410 -0.049138 -0.420648 0.449326 0.581456 -0.368458 0.021109 -0.015885 -0.586452 0.019636 0.340184
sent_132 -0.380557 0.061289 -0.194494 0.069197 -0.110973 -0.294828 -0.146652 0.025800 0.320287 -0.434166 -0.071704 0.133292 0.089813 -0.051351 0.104880 0.066567 -0.320339 0.542599 0.123855 -0.102727 -0.169034 0.296155 -0.365155 0.382618 0.182558 -0.095121 0.181669 -0.046896 -0.019385 0.269824 0.301351 0.124882 -0.211194 0.265687 -0.018356 -0.234366 0.018272 -0.188705 -0.040289 -0.054771 -0.018869 0.048033 0.006228 0.140110 -0.300228 -0.253344 -0.403183 0.170922 0.271149 0.181390
sent_133 0.336517 0.141800 0.228419 0.051674 0.434110 0.033812 0.192878 -0.047949 0.273714 -0.371800 -0.155923 0.359516 -0.037087 0.196452 -0.284156 -0.097724 0.072616 -0.314118 0.101430 -0.320013 -0.389276 -0.324920 -0.033302 0.341976 0.503659 0.426017 -0.178353 0.278817 0.175606 -0.151456 0.507380 0.226283 -0.139463 0.056744 -0.292401 -0.012510 -0.240198 0.188829 -0.087243 0.377830 -0.144079 -0.195582 -0.340460 0.405836 -0.087827 -0.282676 0.308212 -0.397949 0.085301 -0.307111
sent_134 0.717040 0.488607 0.345712 0.321248 -0.102755 0.258027 0.275033 0.408789 0.167621 0.278864 -0.246327 0.118199 -0.452125 -0.133858 -0.175709 -0.118780 -0.336864 0.066690 0.166389 0.053921 -0.185103 -0.360252 0.318357 -0.634572 -0.362102 0.337404 0.280083 0.874286 -0.135677 0.353726 -0.687634 0.405849 0.041520 0.036304 0.009575 -0.559280 -0.586478 -0.015970 0.459322 -0.407530 -0.764511 0.387559 -0.181964 0.250753 0.406320 0.055418 -0.288107 0.111788 0.111057 -0.213946
sent_135 0.120987 0.192591 0.071365 0.280370 -0.058515 0.027694 -0.190656 0.258360 -0.098077 -0.116160 -0.159544 0.146269 -0.157380 0.090796 0.055202 -0.088237 -0.184866 0.128521 -0.098843 0.107428 -0.098605 -0.025364 0.031276 -0.367103 -0.169724 -0.352977 0.149676 0.151196 -0.355531 -0.000702 -0.337159 -0.019791 0.014946 0.536323 -0.055230 -0.053113 -0.363952 0.177471 0.405402 -0.354064 -0.324030 0.301337 0.134470 0.133423 0.003693 0.012559 0.166963 -0.018703 0.042431 -0.203116
sent_136 0.112765 0.008070 -0.532469 0.560306 0.495891 -0.154923 0.035546 -0.006233 0.406147 -0.859104 -0.538557 -0.144207 -0.423964 0.030714 0.197460 -0.301708 0.120209 -0.122980 0.476964 -0.040827 0.115608 -0.173490 -0.027884 0.278215 0.318377 0.215377 0.083510 0.385008 0.120868 0.026090 0.377562 -0.348238 -0.152802 0.095981 -0.166291 0.202798 -0.429298 -0.024049 0.268972 0.347523 -0.138929 -0.152951 -0.430112 0.186215 -0.440542 -0.416623 0.215900 -0.348567 0.532198 0.135030
sent_137 0.020935 0.152242 0.323816 -0.386277 -0.584451 -0.153849 -0.020436 0.080921 0.554712 -0.321312 -0.076831 0.055685 0.282962 -0.192025 0.280615 -0.033040 -0.264026 0.478467 -0.164679 -0.347858 0.308879 -0.125056 -0.208421 0.186194 0.187377 0.199144 0.111327 0.365635 -0.228803 -0.039292 0.040866 0.332579 -0.439517 0.533859 -0.294770 -0.266486 -0.110636 -0.354998 -0.439959 0.047196 0.331938 0.266090 0.276789 0.447079 -0.158045 0.237497 -0.526166 -0.111111 0.168283 -0.313434
sent_138 0.489660 0.096761 0.551445 0.334126 0.246623 -0.353598 -0.113943 -0.082645 -0.438107 0.189216 -0.070572 0.109267 0.040929 0.049436 0.094992 0.472629 -0.381986 -0.295495 -0.695752 -0.281707 -0.165094 0.386341 -0.326199 0.071259 -0.224208 0.063809 0.015470 -0.585188 0.269537 -0.395359 0.284941 0.093355 0.431665 -0.096599 0.026394 0.066384 0.013475 0.391426 0.176224 0.324479 -0.361580 -0.120821 -0.695469 0.299167 -0.397664 -0.401602 0.017524 -0.160773 -0.099041 -0.322917
sent_139 0.107690 0.227481 0.253705 0.162398 0.944603 -1.070472 0.000120 0.490566 -0.462359 0.173464 0.669282 0.159490 0.190843 0.363398 0.294323 0.830588 0.143943 -0.594522 -0.069808 -0.493829 0.399187 -0.171784 -0.117553 0.061087 -0.162643 0.422441 -0.179545 -0.638420 0.499134 -0.225019 0.187595 -0.169683 -0.304768 -0.810836 0.187301 0.074597 0.164596 -0.266151 -0.011166 0.603740 -0.167408 -0.267173 -0.294825 0.087276 -0.550442 0.004926 0.022333 -0.566156 -0.395205 0.005630
sent_140 -0.272673 -0.298884 0.605514 0.058543 0.174819 -0.291156 -0.131782 -0.357698 -0.796953 -0.675675 -0.233335 -0.161963 0.491670 0.141045 0.293225 0.323353 -0.220847 -0.346206 -0.892221 -0.110917 -0.064222 0.784585 -0.311846 -0.046123 0.041819 -0.601818 0.443903 -0.555533 0.601106 -0.352833 0.009551 0.151515 0.498769 -0.314240 0.354914 0.008572 0.082709 -0.049454 -0.197985 0.440256 -0.480444 -0.293975 -0.574940 -0.237328 -0.772837 0.058535 -0.014351 0.213027 0.054882 -0.219901
sent_141 0.757914 0.502406 1.046737 0.783785 0.104971 -0.149220 0.063794 0.190789 -1.072181 0.189735 0.267441 -0.092424 0.193513 0.443871 0.171634 -0.125227 -0.532621 -1.142010 0.110377 0.113031 0.229732 -0.057231 -0.408687 0.194659 -0.400433 0.338828 -0.398481 0.177718 0.933110 -0.022788 -0.878598 0.828636 0.082344 -1.114521 -0.296656 -0.001914 -0.012522 0.104567 -0.443948 0.145330 -0.620604 0.336164 -0.898715 -0.636556 -0.279622 0.059939 -0.372271 -0.326086 -0.432282 0.167171
sent_142 0.191997 0.042468 0.073466 -0.236973 -0.015603 -0.041540 0.298368 0.109599 -0.251749 -0.124048 0.042282 -0.104454 -0.116882 -0.114749 0.453314 0.065901 -0.179879 -0.380594 -0.230821 -0.343088 -0.028908 0.199108 0.032478 -0.420049 0.247052 0.260044 0.142402 0.177198 -0.026251 -0.002316 -0.543659 0.197919 0.252690 -0.036861 0.221681 0.230896 0.141817 -0.116977 0.038704 0.110659 -0.061582 0.014959 -0.091773 0.182180 -0.388778 -0.191015 -0.118853 0.303213 -0.136532 -0.240259
sent_143 -0.768559 0.677422 0.587301 0.067422 0.428104 -0.288063 -0.395548 0.117751 -0.569943 -0.983907 0.107863 -0.593390 0.222633 0.063123 0.568763 0.456306 0.576139 -0.284094 -0.304851 -0.431274 0.091759 1.111108 -0.465528 -0.629488 -0.342895 0.120553 -0.247072 -0.337648 0.734567 -0.249474 0.301963 0.309042 0.622191 -0.771062 0.123362 -0.336614 0.383078 -0.029617 -0.511622 1.077416 -0.383407 0.530163 0.303957 -0.843255 -0.393430 0.449347 0.245548 -0.665020 -0.769771 0.808516
sent_144 -0.299089 0.028647 0.124272 -0.040819 0.170357 0.121618 -0.133389 0.474479 0.337828 0.177927 0.392395 -0.069810 -0.159742 -0.319465 -0.559140 -0.142577 -0.458751 0.112853 0.410288 -0.099897 -0.316975 0.162966 0.448386 0.101739 0.187185 0.014339 0.098769 0.425679 -0.164016 -0.093045 0.024877 0.492608 -0.431523 0.355234 -0.207867 0.230496 0.101069 0.356749 0.324963 -0.078252 0.006281 -0.134117 0.577734 0.320156 -0.319788 0.141418 -0.459841 -0.590723 -0.107631 -0.036737
sent_145 -0.262493 0.143034 -0.266523 0.039433 0.087936 0.024541 -0.208168 -0.092359 -0.138853 -0.434144 0.201980 -0.218422 0.024897 -0.495692 -0.068933 0.190671 0.193090 -0.076372 -0.194056 0.185552 -0.234382 0.402322 -0.107578 0.218177 0.172924 -0.327928 0.596242 0.112708 -0.246628 -0.183733 0.077968 -0.277043 -0.055885 0.194930 -0.079093 -0.179543 -0.379297 0.191639 0.338494 0.262201 -0.150653 0.165624 0.344357 0.054735 -0.306026 0.157753 -0.245225 0.221519 0.100256 -0.267927
sent_146 0.130341 0.113978 -0.000768 0.216316 0.374485 0.173564 0.022866 0.373570 0.039307 -0.635015 0.130816 -0.018650 -0.272293 0.061779 -0.076156 0.194261 0.159092 0.285553 -0.008212 0.194978 0.159008 0.493001 0.157251 0.203730 0.198224 -0.321713 0.367060 0.077617 -0.132386 0.282176 -0.032441 -0.070009 -0.025558 0.098780 -0.070664 0.051711 -0.353549 0.017418 0.098245 -0.280329 -0.300956 0.098358 0.244185 -0.054618 -0.523442 0.093438 -0.273704 0.266078 0.310886 -0.258850
sent_147 -0.473930 -0.150154 -0.133544 0.143885 0.275604 0.312067 -0.219498 -0.258643 0.368822 -0.231644 -0.584627 -0.024141 0.268666 0.151552 0.253321 -0.217843 -0.383246 0.319799 -0.130803 0.157311 -0.073409 -0.535188 -0.147109 -0.052646 0.229124 -0.470631 0.242478 0.536688 -0.526408 -0.161887 0.430982 -0.634869 -0.092065 0.767665 -0.331225 -0.194176 -0.119478 0.009874 0.286927 0.182905 0.137761 -0.370756 0.089566 -0.223653 0.061516 -0.381821 0.185343 0.257176 0.161911 0.317794
sent_148 -0.995569 -0.091855 -0.179818 -0.296585 0.029553 -0.156596 -0.559338 0.019114 0.477856 0.346073 0.059688 -0.177179 -0.125120 -0.420489 -0.128391 -0.185880 -0.119670 -0.028848 0.161807 -0.634064 0.077434 0.282421 0.026034 -0.038224 0.014992 -0.066683 0.159608 0.336982 -0.209417 -0.079292 0.361508 -0.162865 -0.563705 0.376564 0.234275 0.238637 0.742750 0.309349 0.346092 -0.151034 0.041207 -0.064219 0.493702 0.841232 -0.378420 -0.371479 -0.289956 -0.797860 -0.001657 0.349072
sent_149 0.351811 0.264266 0.108554 -0.296888 -0.101870 -0.254274 0.117566 -0.097368 -0.136051 0.147893 0.001934 0.358421 -0.126338 -0.285272 -0.119349 0.118081 -0.397883 0.097359 0.286625 0.071342 0.019016 -0.206528 0.417198 0.044821 -0.396475 0.003388 -0.007937 0.166979 -0.255415 0.236422 0.030983 0.151817 -0.417253 0.602470 0.173897 -0.084147 -0.324489 -0.239690 -0.189679 -0.026335 -0.268553 0.205167 -0.081025 0.734375 0.247170 -0.202122 -0.423783 -0.035261 0.289764 -0.581619
sent_150 0.569706 0.166936 -0.162029 0.333067 0.408212 0.119612 -0.198799 0.130408 0.051689 -0.280283 -0.068116 0.283946 -0.012272 0.134702 0.195087 0.250753 -0.096324 0.401916 -0.018375 0.145756 -0.766463 0.139826 0.136813 0.019049 0.042437 -0.064325 0.016391 -0.466942 0.015445 -0.004134 0.473040 0.113133 0.215625 -0.086427 -0.059952 -0.094035 -0.863424 0.262991 0.440812 -0.324015 -0.199635 0.131304 -0.064190 0.113495 -0.054879 0.064140 0.018541 0.010829 0.031698 -0.013525
sent_151 -0.207756 0.473112 0.096751 -0.067232 -0.290955 0.292912 0.141239 -0.092336 -0.119690 0.038881 -0.415343 0.159031 0.157410 -0.297275 -0.059977 0.197203 -0.192507 -0.107786 0.163089 0.257015 0.297966 -0.444940 0.175913 -0.387588 -0.162203 -0.103133 0.373839 0.491463 -0.131764 0.224221 -0.457854 0.000441 -0.125718 0.149641 -0.217594 -0.005089 -0.283680 -0.289814 -0.050803 -0.302449 -0.222252 0.125039 0.106833 0.524084 0.064299 0.023288 -0.385280 0.212798 0.409745 -0.073513
sent_152 -0.292943 -0.510824 -0.691164 0.342857 0.277114 0.560748 -0.065964 -0.570191 0.053000 -0.366063 -0.723951 -0.408067 -0.442998 -0.230038 0.330017 -0.416875 0.451542 0.219228 -0.338651 -0.060441 -0.067634 -0.402446 -0.399027 0.214773 -0.108635 0.004977 0.008234 0.479470 -0.011883 -0.033191 -0.128799 -0.120710 -0.035763 -0.054713 0.034139 -0.197234 0.271135 0.392688 0.144596 0.153249 -0.011376 -0.278303 0.279299 0.037545 0.075663 1.030257 0.428594 0.081811 0.215185 -0.262474
sent_153 -0.260151 0.184756 0.560742 0.117156 0.309644 -0.394714 0.061881 0.223743 -0.595757 -0.292053 0.202099 -0.062741 0.206145 0.198727 0.303471 -0.052817 -0.764354 -0.282934 -0.439088 -0.459412 0.196183 0.353579 -0.080673 0.021081 -0.233775 0.327636 0.048073 0.190395 0.528253 0.159137 -0.475400 0.608380 0.171371 -0.119992 0.097978 -0.043321 0.007994 0.325911 -0.108385 0.225137 -0.594919 -0.101689 -0.423620 0.411806 -0.740105 -0.162495 -0.189892 0.097250 -0.357055 0.408139
sent_154 -0.197512 0.161106 -0.352268 0.022967 0.107380 0.521112 -0.046227 -0.175878 0.181953 -0.148426 -0.083248 -0.237699 -0.019713 -0.168411 0.105606 0.497048 0.114750 -0.123902 -0.434251 -0.143561 -0.475749 -0.122633 -0.230349 0.050264 0.199912 0.112781 0.039472 -0.489979 -0.014974 0.004566 0.442287 0.006670 -0.244687 0.077897 -0.199659 -0.253348 -0.123074 0.333209 0.121786 0.040743 0.229398 -0.045055 0.240186 0.152213 -0.231663 0.261681 0.319060 0.448690 0.164220 -0.215466
sent_155 -0.069160 0.251214 -0.102542 -0.223337 0.335776 0.369664 -0.057898 -0.317380 -0.361339 -0.068781 -0.292559 -0.090817 -0.086149 -0.043946 0.291699 -0.000958 0.072504 -0.148033 -0.218692 0.226556 -0.224314 -0.184627 -0.087896 0.342921 -0.052715 0.082109 -0.224855 0.084035 0.231962 -0.039992 0.422576 0.183575 -0.120853 -0.152871 0.068145 -0.305214 -0.347546 0.317577 -0.174558 0.062328 -0.177306 -0.194245 -0.113669 0.102717 0.013190 0.353054 0.136364 0.507063 -0.050488 -0.043767
sent_156 -0.092718 -0.125817 -0.646572 0.495126 0.664857 0.359253 0.198398 0.096665 0.475828 -0.507294 -0.213725 -0.466898 -0.476288 0.056155 0.049445 0.062105 0.162771 -0.414619 0.621936 0.056419 0.011870 -0.429269 0.420336 -0.227588 0.272399 0.129597 0.255340 0.684934 0.130119 0.810770 0.090289 -0.255100 -0.451926 0.005451 0.102444 -0.354115 -0.653224 0.230104 0.553703 -0.282740 -0.332898 -0.074559 0.138455 0.263664 -0.396975 0.056545 0.271013 0.110100 0.554366 0.173570
sent_157 0.568627 0.817960 0.855398 0.322614 -0.319841 0.179555 0.140542 0.681095 0.227138 0.413719 -0.047649 0.091333 -0.350987 -0.143435 -0.006660 -0.039776 -0.678985 -0.020180 0.023795 0.011392 0.227598 -0.123766 0.110862 -0.760350 -0.818419 0.317680 0.312469 0.893205 0.073017 0.253868 -0.792247 0.857984 -0.030502 -0.122962 -0.016275 -0.773049 -1.067868 -0.167056 0.308016 -0.224299 -0.812319 0.416411 -0.235977 0.115546 0.208362 0.180981 -0.345819 -0.250641 -0.213981 0.073263
sent_158 -0.114851 0.100083 0.088983 -0.045886 0.111290 -0.054683 -0.060350 -0.100963 0.211882 -0.013048 -0.066784 -0.188600 -0.223320 -0.304948 0.027314 -0.180265 -0.076133 0.156836 0.007395 -0.375578 -0.072105 0.146080 -0.047233 0.017640 0.065590 0.193440 0.020684 0.101594 0.158457 0.159064 0.239336 0.297360 -0.174514 -0.039160 0.145766 -0.055496 0.007416 0.227221 0.213940 -0.048257 -0.106836 -0.108760 0.012853 0.325550 -0.396129 -0.029561 -0.169115 -0.289587 0.060984 0.184063
sent_159 -0.315750 -0.178633 -0.159508 0.259034 0.295523 0.340417 -0.042168 -0.074304 0.146828 -0.359219 -0.031954 0.062428 -0.460421 -0.214812 0.051463 -0.209302 0.189547 0.113322 0.270967 -0.080546 -0.271324 -0.030096 -0.296650 -0.072266 0.286922 0.100039 -0.098607 0.257924 -0.104199 0.255800 -0.129177 -0.013229 0.036512 0.029058 -0.010500 -0.003119 0.143759 0.181619 0.136490 -0.287290 -0.148109 0.025857 0.118117 0.059125 -0.244149 -0.117904 -0.062222 -0.162924 0.399011 -0.400559
sent_160 0.120158 0.376148 -0.230959 0.171290 -0.231748 -0.099399 -0.089314 0.117890 0.421295 -0.007020 -0.073658 0.169780 -0.318634 -0.437842 0.139678 0.588287 -0.075037 0.260432 0.138247 0.242831 -0.727951 0.021614 -0.342118 0.508404 0.242809 0.169712 0.101111 -0.010599 0.080796 -0.265833 0.627980 -0.079381 -0.211801 0.163756 -0.075944 -0.225935 -0.241930 0.191297 -0.065861 -0.251547 0.130505 0.051866 0.048007 0.196177 -0.160307 0.061208 -0.338190 0.001508 0.488230 -0.403697
sent_161 -0.406191 -0.379239 -0.138701 0.121998 0.133853 -0.034632 0.150881 -0.806510 0.380629 0.312178 -0.861360 0.051348 -0.469382 -0.114953 0.090689 -0.431325 -0.019658 0.361875 0.238352 -0.024261 0.136766 -1.035675 -0.058327 -0.061445 -0.023344 -0.083674 -0.050839 1.130551 -0.044258 -0.137052 0.237244 -0.213314 -0.213273 0.470878 0.091711 -0.028927 0.591396 0.184626 0.085648 -0.024068 -0.067034 -0.364717 0.052554 -0.071305 0.058739 0.284691 -0.080547 -0.561579 0.304268 -0.657580
sent_162 -0.306968 -0.260498 -0.070183 0.053989 -0.107019 0.233931 0.014381 -0.254310 0.096698 -0.526724 -0.335826 -0.331483 -0.214210 -0.195393 0.318066 -0.058657 0.015637 0.040630 0.185095 0.542377 -0.485877 -0.093838 -0.226989 -0.153307 -0.180737 -0.131031 -0.026168 0.263884 0.074267 -0.191557 0.018674 -0.176702 -0.081521 0.158081 0.062211 -0.298162 0.069096 0.366154 -0.270279 -0.283697 -0.167353 -0.014171 0.132577 -0.001657 0.025307 -0.008049 0.204647 0.164246 0.413015 0.114958
sent_163 -0.237616 -0.082489 -0.132964 0.732111 0.403823 0.135971 0.000755 0.216098 0.663194 -0.021647 -0.867731 0.269414 -0.150050 -0.002226 0.048809 0.208393 -0.229623 0.184342 0.086924 0.080036 0.018103 0.107530 -0.366176 -0.162690 -0.343672 -0.292442 0.194879 0.764697 -0.431586 -0.199801 0.238430 -0.033317 -0.055680 -0.089697 -0.599020 -0.206065 0.109159 0.186950 0.476006 0.318993 -0.313404 -0.496972 -0.285878 0.003012 -0.046767 -0.431935 -0.301859 0.090154 0.619870 -0.375145
sent_164 0.156504 0.012874 -0.404631 0.550143 0.163610 -0.344391 -0.044769 0.171201 0.153874 -0.132604 0.023737 0.020466 -0.479559 0.117706 -0.009115 -0.098633 -0.078212 0.279426 0.178466 0.023020 -0.203116 0.146306 -0.277904 0.304698 0.095627 0.165183 -0.080272 -0.113349 0.226296 0.140345 0.339606 -0.074542 0.148352 0.016029 0.265304 0.085647 -0.405794 0.178671 0.233358 -0.085975 -0.019461 -0.075561 -0.354029 -0.184988 -0.294107 -0.172333 0.055183 -0.183620 0.130355 0.276697
sent_165 -0.047779 0.026664 -0.081578 0.564166 0.756096 -0.739530 -0.493708 0.320905 0.478774 0.185163 -0.234660 0.458204 -0.273213 0.034397 -0.283920 -0.432951 0.012474 0.355685 0.264633 -0.013356 -0.484662 0.100891 -0.121292 0.076223 0.168408 -0.236232 0.037564 0.312688 -0.326328 -0.765751 0.679370 -0.613589 -0.027465 0.528912 0.001665 0.425781 -0.511102 0.214192 0.872141 0.029661 -0.498939 -0.661052 -0.495877 0.636007 -0.188550 -0.722786 0.208958 -1.293634 0.139353 0.451677
sent_166 0.732915 -0.100700 -0.517780 -0.459380 0.107513 -0.202922 -0.087924 0.736543 0.423421 -0.202822 -0.511490 0.448034 0.291917 0.939764 0.743574 -0.132066 0.297454 0.602574 -0.133993 -0.296080 0.502573 0.419374 -0.150378 -0.571861 -0.164288 0.258482 -0.934613 0.516273 -0.115973 0.219768 -0.233085 0.259778 -0.237359 -0.024915 0.107991 -0.214730 -0.783550 -0.518768 -0.281684 -0.356829 0.160107 0.179690 -0.209294 0.485909 0.352680 0.593669 0.036739 -0.003266 0.119689 0.059932
sent_167 0.373291 0.099844 -0.148930 0.469380 0.508978 0.456517 0.066182 -0.110324 0.087070 -0.140557 0.109156 -0.048711 -0.500287 0.014536 -0.254344 0.319746 0.800597 -0.195778 0.007933 0.103470 -0.166674 -0.214402 -0.060710 -0.030869 -0.022138 0.335155 0.067358 -0.198549 -0.004622 0.199224 0.495466 -0.412361 0.061752 -0.190275 0.028375 0.106923 -0.682616 0.299466 0.327085 -0.425362 -0.122026 0.096565 0.014512 0.117943 -0.003532 0.310129 0.627808 -0.308137 0.413283 -0.058318
sent_168 0.135701 0.248426 0.055270 0.009452 -0.092783 0.406631 -0.282158 -0.096604 -0.007617 0.066356 -0.079228 0.177874 0.113651 -0.098733 0.587511 0.241251 -0.664236 -0.229019 -0.036111 0.021395 -0.381540 -0.125104 -0.321820 0.528976 -0.269841 0.217342 -0.284786 -0.065012 0.121116 -0.366059 0.563994 0.294936 0.188934 0.214892 -0.136036 -0.080295 -0.309835 0.372637 -0.082751 0.024124 0.182043 -0.043230 -0.241670 0.285736 -0.096772 0.059746 0.215773 -0.144554 0.162307 -0.098100
sent_169 0.060764 0.029391 -0.277967 0.055536 -0.073288 0.183062 0.391098 0.148349 0.221657 0.102687 -0.379652 0.138953 -0.253800 -0.119062 -0.043016 0.459106 0.106180 0.073572 0.192664 0.132056 -0.540060 -0.318512 -0.187147 -0.370435 0.634721 0.114906 -0.130775 -0.197519 0.149335 0.084301 0.283601 -0.345704 0.050474 0.086106 0.130810 -0.303084 -0.604136 -0.231902 0.022273 -0.476835 0.248179 0.246698 -0.222091 -0.108625 0.075994 -0.958139 -0.029503 0.334124 0.498150 -0.097906
sent_170 -1.048894 -0.102691 -0.016367 0.165135 0.911103 -0.918851 0.285671 0.712821 -0.180395 -0.155795 0.663037 0.453968 -0.050885 -0.144457 -0.493904 -0.515291 0.557621 -0.840002 0.657055 -0.103475 1.417696 -0.075906 -0.256506 1.008504 0.118453 -0.090747 0.357606 -0.412876 -0.184288 -0.128692 -0.262509 -0.078432 -0.667590 -1.325795 -0.244098 0.615123 1.086098 -1.014973 0.077135 1.100771 -0.410514 -0.570984 -0.529099 -0.681864 -0.620583 -0.668164 -0.205804 0.094543 -0.134096 -0.109958
sent_171 -0.360525 -0.036525 0.120448 -0.120072 -0.293538 -0.256596 -0.349336 -0.107763 -0.072092 0.548271 0.685435 -0.416083 -0.608752 -0.816007 -0.880947 -0.470329 -0.097603 0.437473 0.138001 -0.294844 0.066008 0.484107 0.474605 0.393548 -0.366078 0.491795 0.039355 -0.128219 0.052838 -0.622034 0.402322 0.017590 0.002731 0.268698 0.050121 1.053802 0.538597 0.736716 -0.060386 0.109659 0.567196 0.116162 0.363386 0.405401 -0.270302 0.095718 -0.464933 -1.375285 -0.304041 0.410878
sent_172 -0.082294 -0.084903 -0.504597 0.407413 0.138429 0.342217 -0.021411 -0.172384 0.032128 -0.405407 -0.058277 0.078275 -0.268309 0.034448 0.330705 -0.045889 0.094718 -0.050448 -0.017428 -0.044386 -0.290615 -0.014573 -0.227256 0.139872 0.501946 0.217090 0.061524 0.316880 -0.015335 0.183711 0.115268 -0.471581 0.423255 0.394424 -0.222582 0.058994 -0.447704 0.059647 0.059794 -0.214603 0.047125 0.125127 -0.184782 -0.075200 -0.094181 -0.114578 0.202353 0.047537 0.252638 -0.363940
sent_173 -0.684265 0.730430 0.622006 -0.072761 0.422351 -0.404341 -0.438492 0.097080 -0.740112 -0.960570 0.084870 -0.558736 0.238492 -0.077155 0.688245 0.378005 0.591671 -0.106386 -0.456526 -0.419693 0.160405 1.241357 -0.598453 -0.700932 -0.458318 0.153274 -0.352896 -0.369698 0.791217 -0.398330 0.197109 0.368871 0.659144 -0.638854 0.189690 -0.206052 0.214246 0.083382 -0.512510 1.043126 -0.377004 0.536559 0.290947 -0.667585 -0.493905 0.560099 0.084302 -0.820473 -0.755012 0.744101
sent_174 0.311933 -0.072734 -0.606022 0.006710 0.382753 0.456125 0.387353 -0.109829 0.109696 0.137331 -0.518214 0.013893 -0.307156 0.223267 0.602738 0.011597 0.754745 -0.093293 -0.144160 -0.354604 0.333983 -0.338337 -0.094780 -0.223923 -0.141672 0.487007 -0.082563 0.735155 -0.189160 0.605355 -0.526595 0.059423 -0.551624 -0.348275 0.308855 -0.258399 -0.114530 -0.486824 0.073005 0.046579 0.026767 -0.207847 -0.095478 0.370217 0.039621 0.664421 -0.007383 0.680936 0.484628 -0.894208
sent_175 0.541906 0.052275 -0.850866 0.531257 0.349689 0.098303 0.117233 -0.033278 0.192183 -0.154492 -0.100635 0.092989 -0.188849 0.080698 0.507729 0.394711 -0.043106 0.058288 -0.246505 -0.169411 -0.679371 -0.329410 -0.047247 0.537088 -0.130893 0.555666 0.244002 -0.488333 0.178620 -0.333374 0.978446 -0.008057 0.228329 -0.260226 0.060679 0.164419 -0.788469 0.134050 0.367899 0.462047 0.289928 -0.202143 -0.168206 0.080023 -0.120886 0.353624 0.608509 0.085193 0.263389 -0.122875
sent_176 -0.273027 -0.022828 0.543185 -0.245436 0.453095 0.035016 -0.471345 0.092317 -1.058017 -0.328064 0.326313 -0.085727 0.388976 -0.049636 0.221699 0.195063 0.008067 -0.432238 0.123383 0.160939 0.117759 0.575939 -0.187237 -0.414057 -0.319615 -0.169902 -0.600750 -0.139055 0.342350 -0.590700 -0.518545 0.425165 0.462200 -0.710280 -0.041471 -0.077741 -0.026891 0.154095 -0.182200 0.495771 -0.157324 0.134725 -0.259911 -0.337633 -0.063763 0.240369 -0.471864 -0.431992 -0.327813 -0.219102
sent_177 0.285059 0.296704 0.312269 -0.864932 -0.032332 -0.299062 -0.114245 -0.311705 -1.210845 0.539335 -0.033754 0.231283 0.364977 -0.196107 0.281148 -0.088132 -0.461426 -0.137656 -0.334842 0.334683 -0.271024 -0.615748 0.148219 -0.081953 -0.154759 -0.241373 0.052546 0.047145 -0.063983 -0.302875 -0.461869 0.234517 -0.321042 0.381621 0.540013 0.082915 -0.224179 -0.118661 -0.102696 -0.170528 -0.170453 0.135237 -0.248650 0.509259 -0.007241 0.176133 -0.801016 0.301070 0.026793 -0.333885
sent_178 -0.798047 0.770564 0.632876 0.032375 0.414085 -0.298833 -0.422746 0.071663 -0.686421 -1.063978 0.075413 -0.450889 0.309080 0.000574 0.641840 0.469701 0.509786 -0.181815 -0.373862 -0.408268 0.152483 1.193486 -0.521857 -0.711499 -0.432362 0.147967 -0.255286 -0.363107 0.748396 -0.262803 0.272354 0.301324 0.690534 -0.688611 0.157223 -0.189879 0.188225 -0.116499 -0.583576 1.015266 -0.320631 0.567362 0.305199 -0.770874 -0.415984 0.506057 0.154384 -0.725544 -0.704991 0.840841
sent_179 0.020691 0.163576 -0.221469 -0.250090 -0.356341 -0.171943 -0.042356 0.723250 -0.338772 -0.629455 0.225144 -0.199764 0.404640 0.480236 0.435274 0.224206 -0.567515 0.023962 -0.008804 0.028548 0.338551 -0.074443 0.362308 0.083761 0.011846 0.145193 0.013424 0.159480 -0.026279 -0.131861 -0.832466 0.219114 -0.209501 0.519122 -0.327613 0.041214 -0.054903 -0.641019 -0.714940 0.662017 0.390709 0.371093 0.448453 0.072846 0.045418 0.453325 -0.240244 0.345632 -0.355860 0.081226
sent_180 -0.076580 -0.060125 -0.511051 0.113517 1.043449 0.305277 -0.006041 0.425625 0.101701 0.170632 -0.394465 0.062912 -0.332567 0.159421 -0.004624 -0.069117 0.208960 -0.231453 0.334857 -0.052038 -0.147330 -0.608623 0.574807 -0.795177 -0.139215 -0.100194 0.517723 0.153915 -0.693247 0.203367 0.182999 -0.788386 -0.152258 -0.051357 0.605849 0.112590 -0.524046 -0.210817 1.076220 0.199985 -0.317320 -0.284406 -0.032606 0.180847 0.149322 -0.641482 0.114308 0.367953 0.510413 0.288734
sent_181 -0.638578 0.820744 0.609703 0.132548 0.405339 -0.376916 -0.534321 0.115197 -0.735953 -1.019174 0.223955 -0.562311 0.112966 -0.165031 0.583450 0.433133 0.321706 -0.247347 -0.342992 -0.468588 0.046641 1.171585 -0.512906 -0.555842 -0.383973 0.237242 -0.256385 -0.336916 0.761282 -0.418346 0.326751 0.432403 0.668625 -0.602512 0.102976 -0.184456 0.106312 0.087877 -0.469567 1.180734 -0.362135 0.627983 0.267482 -0.725542 -0.465347 0.483142 0.069437 -0.905388 -0.858763 0.769063
sent_182 0.439817 -0.333946 -0.522104 0.051814 0.128970 -0.001486 -0.034984 0.063735 0.544609 0.064424 0.521379 -0.157167 -0.238311 -0.489267 -0.358295 -0.195018 0.164871 -0.443046 0.858235 0.014552 -0.160269 0.177225 0.554710 0.273296 0.157040 0.342219 -0.138001 -0.140308 -0.177515 -0.197583 0.247908 -0.180105 -0.317796 -0.530916 -0.120042 0.156867 0.005325 0.252661 0.429495 0.290291 0.347421 -0.066622 0.147608 0.197797 0.246574 -0.340523 0.063632 -0.477948 0.283470 0.102594
sent_183 -0.236606 0.101900 -0.500318 -0.204958 -0.383499 -0.167388 -0.009731 0.296340 -0.331095 -0.446137 0.096795 -0.177456 0.397671 0.174992 0.125870 -0.027995 -0.184759 0.001787 -0.122115 -0.139958 -0.001047 -0.001343 0.231391 0.379330 0.309286 0.144504 0.060068 0.179602 0.212456 0.102853 -0.185556 0.025678 -0.068607 0.733894 -0.327129 -0.212351 -0.159949 -0.289907 -0.437565 0.385621 0.174772 0.512842 0.217023 0.141249 0.132282 0.282682 0.028492 0.291320 -0.240312 -0.182647
sent_184 -0.174815 -0.605978 0.538071 -0.001093 -0.079388 0.169092 -0.171896 -1.192999 0.053710 0.921730 -0.272464 0.429008 0.062007 0.317723 0.180457 0.542253 0.105976 -0.292679 -0.220331 0.232137 -0.664142 0.328249 -0.927114 0.160054 -0.334515 0.002495 -0.471405 -0.056307 0.740668 0.120182 0.748380 0.259490 0.458789 -0.634862 0.521919 -0.311860 0.127592 0.391325 -0.128201 -0.773482 -0.557947 -0.578305 -1.137256 -0.257242 -0.037400 -0.077364 0.303561 -0.288650 0.067691 -0.705780
sent_185 0.252646 0.189851 0.345418 -0.059405 0.485175 -0.065617 0.258846 0.544117 0.413567 0.184052 -0.140638 -0.137637 -0.040013 0.523167 -0.271665 0.016705 0.158628 0.602892 -0.267923 0.064100 0.684495 -0.508108 -0.170749 0.214323 -0.282296 -0.096283 0.011137 0.487808 0.018651 0.108195 0.280144 -0.030811 -0.189190 -0.155251 -0.106919 -0.456242 0.342190 0.055022 -0.068078 0.081130 -0.440395 -0.290493 -0.018314 -0.378913 0.039753 0.242394 -0.296121 0.028653 -0.124316 0.181101
sent_186 -0.855489 0.424286 0.770211 0.285326 0.545902 -0.126168 -0.635728 0.284977 -0.816403 -0.741990 0.272265 -0.249394 0.078847 -0.115118 0.415162 0.522379 0.265925 -0.286334 -0.383977 -0.613116 0.205908 1.232127 -0.595844 -0.830406 -0.577358 0.082289 -0.258872 -0.123218 0.581632 -0.584250 -0.379346 0.235906 0.730401 -0.459603 0.177814 -0.220784 0.022469 -0.236529 -0.342717 0.793146 -0.557673 0.251391 -0.276848 -0.187847 -0.575781 0.222880 0.080755 -0.887558 -0.497447 -0.123375
sent_187 0.381461 0.325052 -0.705266 0.937338 0.402130 0.103636 0.252618 0.179351 -0.075187 -0.091573 0.404050 -0.235846 -0.636260 0.013493 -0.162046 0.421660 0.347832 -0.369291 0.257225 0.060718 -0.157587 -0.479901 0.702128 -0.087516 0.243687 0.310773 0.607996 -0.094968 0.189206 0.770332 0.485283 -0.420375 -0.521703 0.050845 0.320903 0.017382 -1.559001 -0.073399 0.538586 -0.066424 0.000642 0.441008 0.213113 -0.287941 -0.234605 0.200503 0.502511 0.045335 0.411982 0.051008
sent_188 0.219534 0.081687 -0.848542 0.710716 0.182049 0.184034 0.421658 0.007804 0.113673 -0.310678 0.749491 -0.281329 -0.333454 -0.081993 -0.119120 0.447248 0.226378 -0.563357 0.538371 -0.222541 -0.855638 -0.130044 0.745936 -0.251910 0.432671 0.605782 0.640564 -0.295160 0.291920 0.804252 0.518328 -0.068916 -0.107748 -0.163018 0.156677 -0.141783 -1.315818 -0.112359 0.694946 -0.075392 0.147636 0.453395 0.335639 -0.304529 -0.126101 -0.172665 0.639445 0.069009 0.314671 0.014957
sent_189 -0.024551 -0.141742 -0.140364 0.050457 0.220240 -0.025968 -0.043629 0.162575 0.527592 0.331520 -0.627699 0.104348 -0.266461 0.088517 -0.135357 -0.156577 0.304061 0.486537 0.108163 0.124823 -0.127566 -0.342653 -0.031106 -0.002493 0.079792 -0.129614 -0.034104 0.355726 -0.199904 -0.210794 0.657548 -0.512530 -0.174588 0.223806 -0.128257 -0.214253 0.208945 0.026225 0.186299 -0.232478 -0.273843 -0.067884 -0.077708 0.156769 0.336834 -0.333251 -0.146513 -0.195616 0.424187 -0.117100
sent_190 0.691135 0.054734 -0.437054 -0.516329 -0.781850 -0.555271 0.353923 -0.262180 -0.304333 -0.279301 -0.029602 -0.240112 -0.162577 0.072580 0.028612 0.013126 -0.605935 0.162843 1.061965 0.039168 0.263404 -0.609011 0.515578 -0.157969 0.133690 0.990523 -0.766954 0.053652 0.285458 0.683439 -0.227936 0.077511 -0.332012 1.034283 0.329360 0.128082 -0.202791 -0.535945 -0.947266 0.115559 0.646026 1.249838 -0.057323 0.444524 0.938566 -0.642703 -1.088997 -0.194449 0.299874 0.164153
sent_191 0.341532 -0.179509 0.100804 -0.251417 -0.375292 -0.226858 0.142671 0.032337 0.195707 -0.095295 -0.095412 0.017141 0.127132 -0.009094 0.284359 0.119174 -0.117111 0.466150 -0.132795 0.130504 -0.021536 -0.165898 0.064006 0.109486 0.077015 0.016385 0.318262 0.176575 0.017829 -0.081763 -0.023923 0.186302 -0.131829 0.123971 0.043075 -0.224203 -0.296540 -0.092349 -0.126447 -0.144884 0.095922 0.092339 0.106887 0.157339 -0.119525 0.088607 -0.373510 0.180376 0.178170 -0.454554
sent_192 -0.606527 0.314955 0.058215 -0.596268 -0.304894 0.073644 0.025438 -0.131750 -0.094056 0.495195 0.446585 0.086373 0.050391 -0.548578 -0.280143 -0.469471 0.273898 0.561042 0.369247 -0.042159 -0.162228 0.160091 0.291359 0.308813 0.087480 0.396239 -0.150268 0.525674 -0.148699 -0.258804 0.052754 0.041710 0.193649 0.691819 -0.400412 0.743015 0.302354 0.209694 -0.085880 -0.014818 0.664671 0.185786 0.621555 0.216306 0.103877 0.016758 -0.760493 -0.857069 -0.150843 -0.527670
sent_193 -0.220632 0.535706 0.295640 0.134111 -0.068254 -0.732020 -0.028835 0.436559 -0.445172 -0.384391 -0.063436 0.030929 0.405728 0.238171 0.205006 0.085028 0.216279 0.061609 -0.370084 -0.647757 0.508761 0.308932 -0.139406 -0.383149 -0.583724 0.448666 0.185119 0.529191 0.469669 0.111072 -0.451311 0.286849 -0.128097 -0.058355 0.204729 -0.201240 -0.005734 -0.902408 -0.679937 0.703908 -0.563647 0.413731 0.044530 0.350825 -0.013879 0.688571 0.013815 -0.640218 -0.426985 0.350795
sent_194 0.262292 0.225574 0.114982 0.527847 0.084196 0.601717 0.274351 -0.493176 -0.399106 -0.285487 0.093351 -0.219382 -0.079714 -0.020450 -0.044519 0.584393 0.075777 -0.834137 0.309952 0.452407 -0.082097 -0.293388 0.414621 -0.209636 -0.062994 0.074567 0.066182 0.310931 0.277022 0.285947 -0.118151 -0.128343 0.148693 0.020983 -0.297337 -0.079037 -0.218046 0.425610 -0.151161 -0.327080 -0.260119 0.269317 -0.027714 -0.023423 -0.150494 0.153521 0.410094 0.199050 0.296926 -0.296114
sent_195 0.187911 0.122559 0.002073 0.127057 -0.090295 -0.460676 -0.091199 0.137176 0.156463 -0.107247 -0.137782 -0.442381 -0.233971 0.195476 0.078395 0.382251 -0.380675 0.187917 -0.091213 -0.252721 -0.156361 -0.217423 0.030688 -0.227458 -0.202228 0.109881 0.068825 -0.024530 0.391370 -0.169245 0.404329 0.152747 -0.128966 0.005015 0.442033 -0.633073 0.011932 0.409188 -0.000305 0.050156 -0.173220 0.233217 0.040866 0.136275 -0.154592 0.065030 0.041873 -0.164712 -0.167911 0.480277
sent_196 0.240080 0.317147 -0.317104 -0.774063 0.285191 -0.690125 -0.221761 0.450725 -0.991536 0.423761 -0.330396 0.347711 0.290640 0.065378 0.554684 0.542668 -0.493138 -0.511819 0.208763 0.339797 0.180508 -1.680560 0.755605 -0.563729 -0.302451 0.040844 0.366861 0.187938 -0.263286 -0.178265 -0.252241 -0.169409 -0.757090 0.134786 0.608493 -0.700291 -0.430312 -0.930839 0.053641 0.175522 -0.282555 0.537615 0.041247 0.306049 0.538678 0.547267 -0.888025 0.630589 0.135200 -0.818651
sent_197 -0.933035 0.117136 0.173117 -0.225471 0.107597 0.145056 -0.506207 -0.005550 0.488908 0.655548 0.300482 -0.017127 -0.153580 -0.460961 -0.528634 0.012492 0.123820 -0.008869 0.195848 -0.307894 -0.046312 0.321449 0.066239 -0.061411 -0.287180 -0.196047 0.132991 0.375790 -0.288082 0.042049 0.401144 -0.212167 -0.861116 0.461804 0.355485 0.348309 0.283283 0.294309 0.186100 -0.465419 -0.136619 -0.253427 0.612817 1.050245 -0.200530 -0.124301 -0.090043 -0.895471 0.169048 0.552332
sent_198 0.154103 0.661016 0.105561 0.202192 -0.191862 -0.052455 0.389087 0.175047 0.344670 0.217482 -0.070461 0.141589 -0.180284 -0.172334 0.084537 0.384513 -0.191413 -0.066503 -0.085290 -0.390383 0.037779 -0.186842 -0.063229 0.193066 0.271790 0.166715 0.253956 0.327483 -0.042910 0.381014 -0.063308 0.236884 -0.510480 0.639298 -0.078854 -0.146466 -0.250590 -0.220203 -0.079421 0.149460 -0.048150 0.198806 0.235787 0.427089 -0.304406 -0.329367 -0.214214 0.034120 0.027402 -0.238471
sent_199 0.325317 0.728938 0.033122 0.484793 0.249636 0.224775 0.012528 0.269733 -0.254781 0.034431 -0.111836 0.280451 -0.299468 -0.098750 -0.026541 0.460357 -0.366625 -0.120735 -0.245080 0.157922 -0.422783 -0.250421 -0.038364 0.507767 -0.114484 0.047719 0.004623 -0.316454 0.264795 -0.399107 0.586292 0.320831 0.081769 -0.074448 -0.151565 0.190179 -0.918874 0.294103 0.066140 0.180260 -0.065916 -0.155404 -0.090623 0.129747 -0.340665 0.154165 0.424972 0.040472 -0.163061 0.155532
sent_200 0.207564 -0.011233 -0.410395 -0.146534 -0.727485 -0.485175 0.259974 -0.218865 -0.159955 -0.562673 -0.042106 -0.506779 -0.114683 0.102092 0.395517 -0.065624 -0.717852 0.212820 0.877038 -0.076371 0.091145 -0.566496 0.349930 0.333788 0.366444 0.588602 -0.408326 -0.159761 0.546646 0.592244 0.120925 0.218017 -0.497268 0.764992 0.127793 -0.282087 0.000922 -0.376124 -0.949491 0.253802 0.550405 1.105908 0.007150 -0.072084 0.545035 -0.622100 -0.830451 0.090530 0.207879 0.297868
sent_201 0.761116 0.451958 1.310238 0.654859 0.400071 -0.160016 -0.016432 0.288723 -1.278369 0.092402 0.325482 -0.152628 0.460028 0.601832 0.005609 -0.101944 -0.699373 -1.177951 -0.147543 0.039070 0.299378 -0.115976 -0.370227 0.229452 -0.140856 0.111641 -0.492159 0.011590 0.951646 -0.162750 -0.949902 0.832932 0.015504 -1.079085 -0.424108 -0.072091 0.067910 0.215768 -0.465539 0.178653 -0.683752 0.266341 -0.912692 -0.535333 -0.449256 0.051532 -0.442891 -0.316122 -0.672175 0.307029
sent_202 -0.606554 0.385873 0.645694 0.492529 0.568507 -0.166851 -0.658575 0.350528 -0.637818 -0.739129 0.048781 -0.243601 -0.025946 0.113118 0.487922 0.570229 0.050982 -0.175089 -0.577352 -0.729411 0.188013 0.918566 -0.455987 -0.717191 -0.501212 0.087909 0.024184 -0.340665 0.329347 -0.340989 0.001324 0.130796 0.691175 -0.460630 0.182365 -0.279777 0.199365 -0.121762 -0.265281 0.767612 -0.622209 0.512657 -0.161890 -0.285007 -0.357494 0.190507 0.028475 -0.644715 -0.559214 0.041770
sent_203 0.010198 0.375861 0.112751 0.334502 0.121346 -0.288435 -0.398732 0.220585 -0.176863 0.038631 0.070039 0.093793 -0.040367 -0.090752 -0.195516 0.216444 0.112979 0.107098 -0.420643 -0.150259 -0.012145 0.688137 -0.247020 -0.110931 -0.415422 -0.108151 0.093451 -0.596486 -0.041515 -0.545813 0.205431 -0.016435 0.351873 -0.132179 0.006901 0.229396 -0.120177 -0.060104 0.169907 0.435576 -0.163378 -0.167256 -0.239899 0.032753 -0.088629 0.147751 0.234432 -0.301720 -0.291003 0.159301
sent_204 0.362755 -0.199936 -0.073922 0.451069 0.015140 0.927889 -0.051198 -0.926841 -0.182659 -0.123770 0.111704 -0.377054 -0.301624 0.021691 0.222364 0.002686 0.019390 -0.454882 0.210406 0.314340 -0.370313 -0.649876 0.084449 -0.184906 -0.160358 0.291930 -0.405036 -0.068744 -0.105040 0.573428 0.041934 -0.371300 -0.048223 0.234325 0.023064 -0.308871 0.125327 0.353156 -0.230806 -0.694202 -0.040223 0.343680 -0.001040 -0.332024 0.567425 0.011063 0.760449 0.238392 0.379435 0.017511
sent_205 -0.117339 0.135639 0.070052 -0.105473 0.450648 -0.008798 -0.094741 0.476539 -0.342906 -0.122096 0.656736 -0.259482 -0.117845 -0.086600 -0.520195 -0.127247 0.109284 -0.175482 0.522267 0.039145 -0.030414 0.257960 0.666220 0.424291 0.000281 0.257749 0.112764 -0.280737 0.085099 -0.391984 0.289749 -0.004334 0.048023 -0.187711 -0.062484 0.857254 0.189781 0.187346 -0.242072 0.421129 0.175438 0.160906 0.256313 0.136241 -0.188699 -0.207852 -0.521566 -0.678239 -0.214402 0.392235
sent_206 0.314080 0.199379 -0.204790 0.250476 -0.019864 0.333919 0.121465 0.691407 0.501709 -0.495660 -0.022277 -0.115129 -0.339132 0.215220 0.046637 0.494568 -0.152267 0.399637 -0.003722 -0.092915 -0.091255 0.008345 0.265746 -0.472965 0.026712 0.210893 0.140325 -0.063786 -0.020303 0.485905 0.042939 0.323173 -0.155130 0.358996 -0.048894 -0.305967 -0.789169 0.070368 0.110442 -0.257983 -0.058906 0.461132 0.576013 0.281479 -0.024070 0.181898 0.169841 0.163255 0.222647 -0.027299
