sent_0 0.204843 0.136061 0.056001 -0.340529 0.236107 -0.296215 -0.066305 -0.418364 0.126859 0.187152 -0.177847 0.130721 0.615472 -0.447261 0.294877 -0.160460 0.269636 0.241503 -0.503967 -0.020697 0.161836 0.073132 -0.595670 -0.052027 -0.126288 -0.025166 -0.059173 0.084341 0.031316 -0.529996 0.030903 0.590679 -0.192617 -0.056397 0.243162 0.201352 0.430778 0.037395 0.191159 -0.428165 0.477830 0.084580 0.366328 0.120422 0.392183 0.546504 0.001641 -0.156036 0.212681 -0.457142
sent_1 -0.151581 0.039356 0.179395 0.387138 -0.115794 0.431707 -0.050128 -0.129034 0.327823 -0.273970 0.303964 -0.265562 -0.270960 0.738731 -0.022267 0.009995 -0.223714 0.058152 0.410754 0.373598 -0.291273 -0.101025 0.549768 0.027285 0.237296 0.045572 -0.683061 -0.206628 0.308154 0.538923 0.380932 0.144987 -0.236488 0.114473 0.064740 -0.090816 -0.102843 0.179548 -0.433063 -0.522141 -0.786306 -0.615237 0.175527 -0.576741 -0.051263 -0.337544 -0.374269 -0.003525 0.399226 -0.156917
sent_2 -0.060643 0.348819 -0.062223 -0.211611 -0.106036 -0.100125 -0.056383 -0.234804 0.092751 -0.006413 -0.144626 -0.276406 -0.026962 -0.132702 0.132046 -0.254875 -0.004958 0.087515 -0.185194 -0.233616 -0.024116 0.384623 -0.072345 -0.089232 0.037516 0.207122 0.129384 -0.110741 -0.215473 -0.016491 -0.020116 0.088253 0.177030 0.065959 -0.233120 0.134184 0.122862 -0.195617 0.321369 0.243285 0.213716 -0.002073 0.040427 -0.030965 -0.040221 0.427801 -0.377133 0.142108 0.260625 0.198484
sent_3 -0.093143 -0.013204 0.417931 0.173659 0.387627 -0.138701 -0.217665 -0.343718 0.708447 0.065560 -0.350898 0.042305 0.004851 0.022608 -0.060018 0.031781 -0.309303 -0.257623 -0.448126 0.034966 -0.373211 0.253252 0.097524 0.328075 0.138999 -0.088005 -0.075777 0.275583 -0.137530 -0.409610 0.008169 0.285000 -0.271328 0.098537 0.303070 -0.019621 -0.101709 0.160896 -0.197210 0.223531 0.113812 -0.035731 -0.219249 0.170531 0.122241 0.245985 0.302406 -0.016828 0.055057 -0.105749
sent_4 0.023342 0.370355 0.386081 0.075841 -0.082234 -0.124991 -0.114053 0.143512 -0.236988 0.128504 -0.216980 0.058629 0.287691 -0.100435 -0.514677 -0.343864 0.114048 -0.152517 -0.095692 -0.542557 0.259636 -0.170751 0.611904 0.464908 -0.453032 -0.405049 -0.233815 0.410050 0.064447 0.110695 -0.101862 0.202997 -0.485275 0.225816 0.382077 0.072159 0.117253 0.032125 0.009095 0.500696 0.340134 -0.087795 -0.484251 -0.031918 0.064312 -0.106585 0.110293 -0.197000 0.346919 0.057302
sent_5 0.033260 0.339499 -0.142342 -0.140070 -0.158827 -0.118110 0.178809 0.107413 -0.210141 0.197676 0.192926 0.124721 -0.115459 0.050918 -0.101275 -0.354326 0.004204 -0.291610 -0.170072 0.209408 0.251604 0.109938 -0.072407 0.245435 -0.236614 -0.187402 0.108829 -0.061557 -0.074326 -0.098090 0.352061 0.160508 -0.178564 -0.107140 0.122027 0.126374 -0.558960 0.055682 -0.020511 -0.214525 0.074572 -0.100931 0.019987 -0.028791 0.074568 0.286915 -0.061268 -0.077293 -0.013671 -0.267810
sent_6 -0.431571 0.488849 0.028352 -0.035945 -0.508360 -0.213368 0.060086 -0.344003 -0.181288 0.037063 0.003679 -0.005097 0.376473 -0.236363 -0.220377 -0.069535 -0.045066 -0.003938 0.744723 0.275850 0.263141 0.046829 0.270565 -0.130505 0.124481 -0.199072 -0.333101 0.278906 -0.093131 0.708027 0.000425 -0.471459 -0.426468 0.248789 0.467831 0.077332 0.237499 0.394720 0.363306 -0.285387 -0.217417 -0.393046 0.066204 0.151213 0.064697 -0.423299 0.201357 -0.150655 -0.067724 0.117139
sent_7 0.047421 0.244328 0.564140 0.746361 0.238824 -0.214820 0.063655 0.357975 0.595708 0.028791 -0.017284 -0.015800 0.010805 0.087016 -0.082964 -0.241893 -0.528281 0.143901 0.090213 0.099765 -0.321612 0.149443 -0.538405 -0.481956 -0.099347 -0.149734 0.153018 -0.004941 -0.082106 0.371324 -0.183221 -0.639905 0.394165 0.100599 0.201115 -0.025870 0.126036 -0.503859 -0.547257 0.225725 -0.279487 0.203410 -0.075123 0.068048 -0.315722 -0.162535 -0.516209 -0.025628 -0.438659 0.095638
sent_8 0.210061 -0.298440 0.326024 0.338011 -0.073648 0.491278 -0.176926 0.659442 -0.051496 -0.520675 0.176100 -0.152868 0.105849 0.358763 -0.625470 -0.262616 0.525742 0.020729 0.291870 -0.306538 -0.286908 -0.396820 0.139577 -0.458139 -0.490335 -0.385141 -0.156501 -0.303214 -0.159801 0.499705 0.120057 0.485700 -0.070028 0.077998 -0.458444 -0.265095 0.195489 0.230766 -0.407632 -0.159229 -0.068728 -0.100422 -0.120652 -0.041146 0.228635 -0.108818 0.521439 -0.069747 0.138450 -0.449426
sent_9 0.075594 -0.282433 0.201154 -0.019638 0.239950 -0.045349 -0.198026 0.240912 0.034975 0.381214 0.026535 0.315648 0.507426 0.138060 0.292161 -0.006493 0.040592 0.293391 -0.230251 -0.417336 0.055935 -0.131434 -0.038468 -0.065888 0.254274 0.073030 -0.227555 0.291138 0.125781 -0.106650 0.075977 0.100997 -0.007998 0.079397 0.042994 -0.442314 0.176098 -0.074525 0.198587 0.374287 0.288254 0.312906 0.274770 0.364617 0.215650 0.412564 0.266221 0.249587 -0.242614 0.003496
sent_10 -0.169364 0.028947 -0.205351 0.025263 -0.114111 -0.059016 -0.002740 0.002901 -0.048214 -0.042426 -0.082893 -0.381016 -0.224242 -0.171245 -0.225930 0.074343 -0.270709 -0.214325 0.193317 0.115219 -0.050043 0.383120 -0.223688 -0.289132 -0.092392 -0.360938 0.575092 -0.178379 -0.096497 0.192724 -0.135781 -0.272348 -0.249049 0.024630 -0.039749 0.493341 -0.583878 0.014019 -0.021228 -0.421083 -0.195663 -0.096288 -0.248960 0.444414 0.239771 -0.078468 -0.076256 0.002586 -0.106133 0.153332
sent_11 0.208909 0.071596 0.169586 0.087111 -0.168016 0.055769 -0.090154 0.355110 -0.254264 -0.310858 -0.104994 -0.054428 -0.068435 0.076671 0.096552 0.034081 0.043774 0.093834 0.075125 -0.203557 -0.178122 0.146506 -0.160603 -0.387016 -0.000206 -0.220345 -0.174941 -0.076143 -0.317347 0.011648 0.171872 0.062636 0.198325 0.123720 -0.207200 -0.224213 0.102241 -0.163488 -0.073319 0.189270 -0.103238 -0.119514 -0.104756 0.205603 -0.059077 -0.236762 -0.102668 0.144904 -0.032009 0.144882
sent_12 -0.798769 0.341589 0.833423 -0.625896 -0.553507 -0.140020 0.415861 0.604782 -0.298496 0.797997 0.248315 0.325200 1.112480 -0.500155 -0.577039 0.175267 -0.578238 0.079870 0.951035 -0.025571 0.929181 -0.707655 0.443103 0.543024 0.048307 -0.133209 -0.162611 0.756775 -0.470282 0.486382 -0.387969 -1.215087 -0.604158 -0.066385 0.499827 -0.002683 0.624975 -0.003138 0.176451 0.171576 -0.126069 -0.187889 0.247860 0.333685 -0.502719 -0.098224 0.828054 -0.016790 -0.676467 0.153294
sent_13 -0.041513 -0.398950 0.142641 0.193796 0.293089 0.061740 0.049862 0.137674 0.158177 0.002942 -0.049257 -0.068750 -0.146343 0.146431 0.270856 0.147045 0.098281 0.068283 0.163032 0.046310 -0.329483 0.009952 0.240093 -0.241630 -0.036480 0.030249 -0.452847 0.009221 0.235226 -0.391677 0.436202 0.485873 -0.212066 -0.086761 0.094150 -0.596068 0.069079 0.060229 -0.060105 -0.157728 -0.179340 -0.126298 0.016672 -0.035346 0.060795 -0.412206 0.203122 0.082102 -0.132354 -0.053058
sent_14 0.060398 0.466404 0.390360 0.132299 0.499627 -0.103178 -0.050710 -0.387165 0.456656 0.129036 0.504760 0.034881 0.263008 0.415671 0.337320 0.181219 0.025417 0.352985 0.379847 0.069006 -0.005594 -0.156115 -0.498192 -0.341974 0.129583 -0.031867 0.179266 0.246102 -0.325912 0.247427 -0.740887 -0.511929 0.349043 -0.122291 -0.018256 -0.439294 0.322516 -0.972259 -0.680617 -0.059173 0.064766 0.022066 0.145221 0.496283 -0.299354 -0.111660 -0.419596 0.316197 -0.581430 -0.079924
sent_15 -0.062676 0.004630 -0.001848 -0.097038 0.146839 -0.045906 0.391598 0.366919 -0.019726 0.380336 0.230891 0.129821 -0.020465 -0.050575 -0.235061 -0.300076 0.038047 -0.267563 -0.281664 0.443328 0.430618 -0.194789 -0.109195 0.517623 -0.109841 -0.144777 0.327330 -0.354208 -0.023638 -0.328520 0.546329 0.266966 -0.317276 -0.149735 -0.163967 0.089375 -0.034533 0.342481 0.021098 0.122734 0.166720 0.291212 0.068257 -0.272810 -0.111113 0.216746 0.336963 -0.092056 -0.190107 -0.168477
sent_16 -0.155985 0.325313 -0.045955 -0.096485 -0.082555 0.064582 0.148374 -0.284548 0.050654 -0.042821 -0.304366 0.278311 -0.036004 -0.231868 -0.237207 -0.437338 0.037061 -0.194573 -0.551913 0.029768 -0.020073 0.445977 -0.175663 0.419932 0.094888 0.189534 0.136364 -0.327400 -0.012947 0.171118 0.342080 0.212541 -0.097285 -0.283665 0.127047 0.015395 -0.265616 -0.093044 0.495092 0.241846 0.293682 -0.008673 0.143305 -0.447073 -0.002380 0.457745 0.019683 -0.157901 -0.149194 -0.453056
sent_17 0.014802 0.316048 0.164476 -0.662015 -0.202254 -0.262775 -0.130551 -0.297566 -0.332713 0.711107 0.545053 0.048858 0.116698 0.279611 -0.124850 -0.057296 -0.094097 0.199464 -0.278163 0.402938 0.292134 -0.146072 0.010087 0.177607 -0.229508 -0.309710 0.074340 0.108451 -0.342021 0.084449 0.118080 0.125010 -0.315547 0.028476 -0.101180 -0.197885 -0.035818 -0.278989 0.176531 -0.149505 0.577162 -0.524398 -0.009193 0.486138 0.329618 0.240710 -0.068174 -0.226996 0.191079 0.210135
sent_18 0.167475 0.180328 -0.039004 0.197808 -0.229720 0.008130 0.235258 -0.109726 -0.371555 -0.051888 -0.356990 -0.153295 -0.008364 -0.296641 -0.234012 -0.104828 0.450852 -0.055212 0.351837 -0.366711 -0.111031 0.641114 -0.184370 -0.682779 -0.058639 0.024828 0.296081 0.108593 0.092737 0.612100 -0.401419 -0.248994 -0.031235 -0.048028 -0.124643 -0.004524 -0.304582 -0.456213 0.630736 -0.204709 0.141958 -0.259608 -0.077232 -0.046008 0.308169 -0.369338 -0.098903 0.137878 -0.255715 0.015991
sent_19 0.040919 0.054399 0.205235 -0.477771 0.327303 0.146614 -0.127451 0.167524 0.023244 -0.001986 0.747041 -0.162194 -0.037103 0.441096 -0.073636 -0.221766 -0.097607 0.361302 -0.272836 0.471585 0.166950 -0.292897 -0.556142 -0.040651 -0.054462 -0.098797 -0.028497 0.155975 -0.270675 0.147929 -0.222135 0.262602 -0.488131 -0.268113 -0.065262 -0.215695 -0.043126 -0.523342 -0.281821 -0.042095 0.354827 0.098679 -0.117863 0.194554 -0.101708 0.322032 -0.012976 -0.120766 -0.031785 0.056133
sent_20 -0.363070 -0.153257 -0.193490 -0.078488 -0.041683 -0.139256 -0.516644 -0.369915 0.310193 0.131287 0.266421 0.105378 -0.124262 0.275742 -0.018245 0.028751 -0.327109 -0.301897 -0.499248 0.041962 -0.142392 0.253340 0.188494 0.230215 -0.047398 0.313660 0.069331 0.354166 -0.008455 -0.440516 -0.045675 0.046023 -0.169683 0.308787 -0.059008 0.137361 -0.446025 0.135817 0.193314 0.239573 -0.098436 0.233423 -0.280825 0.422986 -0.008263 0.407327 0.024744 -0.070667 0.070697 0.226542
sent_21 -0.079820 0.044421 0.511315 -0.215974 0.220441 0.005533 0.336197 0.200741 -0.148487 0.494651 0.352898 -0.206535 0.085529 0.001660 0.015569 -0.356838 0.122211 -0.028352 -0.290010 0.220576 0.331845 -0.095660 -0.241434 0.273065 0.190039 -0.027627 0.254382 -0.022740 0.223795 -0.140419 0.124261 0.375020 -0.464429 -0.029706 0.245881 0.113582 -0.119444 -0.429305 -0.275237 -0.134092 0.386147 0.108525 -0.242218 -0.103076 0.045763 0.444362 0.258444 0.058210 -0.017310 -0.194895
sent_22 0.319911 0.498672 -0.225217 -0.466302 -0.022749 -0.152500 0.157808 -0.103586 0.065057 0.353010 0.386889 0.121390 -0.216796 -0.081380 0.320111 0.073285 -0.167308 -0.030992 -0.593437 0.149056 0.563980 0.053719 -0.053540 0.724429 -0.126647 -0.112144 0.430769 -0.103033 -0.283692 -0.548173 0.162081 0.055522 -0.048029 -0.202655 -0.162033 0.081628 -0.025108 -0.104842 -0.046083 -0.094947 0.603139 0.057995 -0.001574 0.027306 -0.212017 0.500895 -0.503066 -0.136379 0.048267 0.145472
sent_23 0.206798 -0.084691 -0.130666 0.328843 -0.144019 -0.341336 -0.309580 -0.598179 -0.038130 0.279987 0.316034 0.449051 0.411349 0.079648 0.300412 0.377206 0.495664 0.129446 -0.037604 0.421906 -0.129152 -0.157720 -0.308939 -0.183043 -0.358990 0.258179 0.013066 0.685630 0.551871 -0.122309 -0.301619 -0.261310 0.062857 0.092131 0.278846 0.097533 0.058526 0.462046 0.048963 -0.451822 -0.126704 0.009818 0.323707 -0.285481 0.613915 -0.204753 0.014560 -0.308562 0.148130 -0.532767
sent_24 -0.062925 0.140052 0.514359 -0.422424 0.430923 -0.139365 0.052317 0.100744 0.150012 0.128253 -0.048230 -0.437364 -0.154156 -0.135574 0.133613 -0.371525 -0.089822 0.281007 -0.477800 0.093135 0.073887 0.195124 -0.497235 0.081940 0.088267 0.039447 -0.110474 0.176770 -0.316295 -0.464367 0.162286 0.526278 -0.347663 0.040500 0.289263 -0.118806 0.293173 -0.159047 -0.028299 0.383686 0.447749 0.159425 0.012695 0.372133 0.081530 0.371387 -0.025063 0.007265 0.131166 0.099352
sent_25 0.173835 0.234139 0.340650 -0.040257 -0.031644 0.382298 0.290130 0.374244 0.202745 0.186414 0.185034 -0.411693 -0.196398 -0.290254 -0.529301 -0.420400 -0.053662 0.135392 -0.160960 -0.093527 0.635575 -0.494378 0.031705 0.762406 -0.223846 0.264862 0.135058 0.088370 0.170121 0.490690 0.100957 -0.035577 -0.260178 0.022201 0.183923 0.210066 0.004530 0.222182 -0.222555 0.253560 0.161724 0.190304 0.215149 -0.466798 -0.188143 0.226909 -0.142112 -0.249901 -0.148053 -0.334635
sent_26 0.122802 0.003191 -0.149181 -0.622422 0.124994 0.198152 0.107279 -0.037081 -0.180359 0.179505 0.103987 0.038424 -0.075064 -0.108363 -0.312926 -0.220932 -0.126283 0.016146 -0.271360 0.235495 0.358189 -0.172263 -0.088308 0.168794 0.082026 -0.058896 0.247989 -0.089304 -0.349961 -0.386203 0.040367 0.630579 -0.370300 -0.197537 -0.050825 0.086834 0.036656 -0.273424 0.344676 -0.021543 0.239243 -0.165797 -0.081567 -0.114032 -0.094496 0.483736 0.023781 -0.148041 0.270978 0.063268
sent_27 -0.053712 -0.307275 -0.068363 -0.086697 0.079961 0.040030 -0.169963 -0.231306 0.103201 0.147777 0.325342 -0.063320 0.027887 0.266664 -0.018309 0.106362 -0.144447 -0.166518 -0.159635 0.317989 -0.021252 -0.129904 0.117472 0.124083 -0.023887 0.010558 -0.013629 0.175660 0.199354 0.137497 0.019314 -0.198874 -0.210996 0.048157 -0.206320 0.178478 -0.168359 -0.080389 -0.291022 -0.097015 -0.159685 0.124943 0.093955 -0.053444 0.194095 0.187831 -0.063256 -0.102493 0.005562 0.078805
sent_28 -0.249057 0.122567 0.075838 -0.952822 -0.355637 0.281423 0.550829 0.246361 -0.516748 0.755599 1.106888 -0.301545 -0.038218 -0.363224 -0.020082 0.348573 0.128951 -0.024088 0.144775 0.281474 1.057961 -1.080859 0.466197 0.988502 0.044163 0.342512 0.541964 -0.141091 0.216515 0.127479 -0.508300 -0.315042 -0.076215 -0.222433 0.038985 0.086600 -0.122017 0.108082 -0.279510 0.027106 0.219344 0.421697 0.166016 -0.198838 -0.277083 -0.131850 0.482608 0.182801 -0.185427 0.081760
sent_29 -0.007262 0.145983 -0.285337 -0.207933 -0.215511 0.117444 -0.081058 -0.155774 -0.140829 0.348466 -0.758787 -0.274435 0.158248 -0.342298 -0.534190 0.192567 -0.308478 -0.254790 0.692837 -0.451629 -0.254313 0.434815 0.223886 -0.208117 -0.593582 -0.384936 0.346927 0.199670 -0.046520 0.856001 -0.549277 -0.547700 -0.246492 -0.247642 -0.257783 0.258619 -0.317809 -0.444268 0.372843 -0.372252 -0.119130 -0.656963 -0.057759 0.423045 0.148585 -0.552879 0.058266 -0.077883 -0.024441 0.357083
sent_30 -0.171783 -0.070936 0.217800 -0.385938 0.020623 0.052104 0.057809 -0.147767 -0.050037 0.312577 0.339571 -0.154917 -0.120238 0.163327 0.242558 -0.505007 -0.113686 0.287454 -0.372449 0.313816 0.150529 0.285229 -0.223822 0.193481 0.102039 0.392905 -0.352165 0.285277 0.168622 -0.103686 0.317996 0.129960 -0.561682 0.014081 0.052734 0.184738 -0.155197 -0.298491 0.356059 0.142137 0.174821 0.011430 0.003902 -0.326584 0.176070 0.330232 -0.498993 -0.202722 0.350673 0.299937
sent_31 -0.058987 0.175054 0.433448 0.114259 0.113200 0.025919 0.664210 -0.082042 -0.293790 -0.147664 -0.360400 -0.137569 -0.253026 -0.469425 -0.222438 -0.408465 0.376685 -0.246425 0.078060 -0.230677 0.232753 -0.054066 0.231495 0.422002 -0.418814 -0.490149 0.057133 -0.026651 0.037832 -0.067178 0.300505 -0.333254 -0.294152 0.009832 0.280893 0.356137 -0.362083 0.110974 -0.445335 0.361889 0.187707 0.053947 -0.173261 -0.354205 0.363835 -0.154479 -0.204785 -0.199553 -0.007296 -0.428517
sent_32 0.387918 0.320565 0.049506 -0.302060 -0.147553 0.508441 0.545667 0.423304 -0.286600 0.714151 0.357051 -0.252300 -0.122514 -0.186941 -0.326627 -0.036262 0.106691 -0.079545 -0.071517 0.043491 0.815444 -0.313241 0.448639 1.136252 0.019104 0.113131 0.813237 -0.058623 0.053571 -0.202298 0.320455 0.295577 -0.232182 -0.168334 0.030064 0.014845 -0.082473 -0.088794 -0.178165 0.081110 0.405978 -0.113556 -0.105955 -0.781820 -0.270010 0.335820 -0.273026 0.065950 -0.062820 -0.226599
sent_33 -0.027511 0.257326 -0.220286 0.124333 -0.088768 -0.001772 -0.116776 0.071266 -0.304006 0.034119 -0.331601 0.150650 -0.378632 0.105856 -0.144959 0.016550 -0.076040 -0.060040 -0.122856 -0.460731 0.081718 -0.099039 0.160172 0.342806 -0.326168 -0.211005 -0.075932 -0.137905 -0.027714 -0.198405 0.118818 -0.002009 -0.151868 0.180039 -0.138041 0.101133 -0.079303 0.227791 0.139513 0.528453 -0.156022 -0.095961 -0.113069 0.400273 -0.112010 -0.370148 -0.133473 -0.090918 0.384441 0.327883
sent_34 -0.197658 0.177476 -0.298390 0.115231 -0.227360 0.150708 -0.096044 -0.170736 -0.145841 0.259882 -0.346905 0.071301 0.025045 -0.061808 -0.413165 -0.153876 0.073542 -0.465956 -0.171477 -0.413479 0.029695 0.517712 0.305769 0.367941 0.389923 0.414053 0.067789 0.190088 0.327237 0.207938 0.525053 0.313419 -0.249736 0.273289 0.157556 -0.082000 -0.171241 0.177063 0.788163 0.401864 -0.038445 -0.027358 0.144617 -0.327984 0.105055 0.293817 0.201405 0.158876 -0.305180 -0.251974
sent_35 0.125081 -0.014272 0.102021 0.187458 -0.044527 0.267798 -0.066521 -0.117070 0.349115 0.164819 -0.141593 -0.233548 -0.044028 -0.087371 -0.240878 0.157010 -0.003159 0.059079 -0.222181 0.092647 -0.115174 0.209661 -0.235689 0.164040 0.157975 -0.055170 0.355993 -0.154267 0.107952 0.159172 0.053418 0.125671 -0.174132 0.055892 -0.246527 -0.083302 0.029475 0.304619 -0.141607 0.065625 -0.084173 -0.012495 0.313463 -0.148872 0.133871 0.068369 -0.039758 0.004888 0.083617 -0.188332
sent_36 -0.069983 0.139024 0.057909 0.223766 0.128747 0.111722 -0.574326 0.364554 0.310811 -0.389740 0.117172 0.057280 0.040166 0.090172 -0.076084 0.165023 -0.678670 0.079228 -0.146870 0.229008 -0.136518 -0.299110 -0.351029 -0.313897 0.302126 0.062818 -0.285507 0.198912 0.131854 0.641509 -0.410666 -0.382183 -0.072342 -0.029162 0.229857 0.204497 -0.003905 -0.182913 -0.404705 0.156737 -0.656329 0.228883 0.312932 0.292188 -0.189462 0.144623 0.158090 0.064243 0.103339 0.063169
sent_37 0.130164 0.306529 0.062523 0.021643 -0.067059 -0.065965 0.028194 0.521103 -0.108181 0.103412 0.208039 0.084910 -0.063582 -0.117896 -0.282259 0.162738 -0.497072 -0.077481 -0.079515 -0.186525 0.222243 -0.085113 -0.239147 0.056451 -0.327813 -0.172381 -0.157171 -0.139040 -0.282794 -0.192843 0.213802 0.134659 0.040833 0.036734 0.263686 0.221836 -0.005734 -0.017431 0.101682 -0.374212 -0.251873 -0.113443 -0.192304 -0.015499 -0.289499 -0.111000 -0.052290 -0.158492 -0.147530 -0.065282
sent_38 -0.075570 -0.329881 -0.054484 0.054976 -0.199763 -0.092469 -0.107880 0.126401 -0.375275 -0.176405 -0.131078 -0.052209 0.008803 -0.029480 -0.380246 0.033269 0.177128 -0.049828 0.227206 -0.136892 -0.147039 -0.417622 0.546989 -0.079547 -0.315526 -0.278686 0.085983 0.177921 0.093330 0.020849 -0.052449 0.134384 0.005746 0.094626 0.036030 -0.430994 -0.047621 0.145639 -0.163556 0.445426 -0.079773 -0.024769 -0.391470 0.226921 0.306642 -0.172907 0.536331 0.021378 0.156294 -0.059363
sent_39 -0.179746 -0.378045 0.166549 0.338579 0.307818 0.371641 0.098541 -0.053289 -0.311339 -0.756806 -0.731129 0.152585 -0.257519 0.273837 0.101548 -0.165287 0.407734 -0.052279 0.332731 -0.672837 -0.429120 -0.103249 0.448686 0.226929 0.417600 0.138191 -0.736963 0.215303 0.279877 -0.082298 0.143834 0.285175 0.037088 0.028876 0.280296 -0.981600 0.384222 -0.300785 -0.149093 0.836933 -0.245143 -0.115739 0.089042 -0.273909 -0.469373 -0.620466 0.219382 0.189998 -0.277018 -0.064489
sent_40 -0.407707 0.924949 0.122042 0.541587 0.018264 0.305204 0.100012 0.097188 0.302158 0.264998 0.086265 0.136470 0.227530 -0.001486 0.062657 -0.404800 0.419193 0.450162 0.095211 0.113914 0.089033 0.001481 -0.393690 -0.044484 0.179968 0.197778 0.184961 0.314333 -0.102400 0.272354 -0.300605 -0.330790 -0.106786 0.273745 0.281113 -0.165337 0.319234 0.357928 0.163388 0.524579 -0.289511 0.079291 -0.264924 -0.144363 -0.140739 -0.616668 -0.109503 0.067020 0.413766 0.030485
sent_41 -0.124733 0.041727 0.443848 -0.233103 0.186153 -0.010760 -0.024346 0.082365 -0.182124 -0.155915 0.061671 -0.075354 0.266686 0.092424 0.203964 0.125878 0.254986 0.480712 -0.031138 0.092683 0.092294 -0.292407 0.016435 0.015462 0.452057 -0.359666 -0.380220 0.374700 -0.109919 0.084589 -0.308895 0.047890 -0.374227 -0.108278 0.161324 -0.546372 0.357722 -0.120994 -0.451790 0.635508 0.383701 0.183997 -0.018613 0.462022 -0.025793 -0.074487 0.297914 0.276980 0.083427 0.232033
sent_42 -0.071881 -0.060366 0.284212 0.251017 0.139938 -0.053026 0.142381 0.286365 0.094934 -0.170586 -0.186631 -0.194714 -0.231515 0.300089 0.235332 0.078572 0.005283 -0.015766 0.456028 0.003626 -0.259455 0.032661 0.336542 -0.293267 0.458889 -0.236900 -0.429283 -0.003057 -0.265360 -0.139437 0.566559 0.295680 0.084964 0.302700 -0.225828 -0.606874 0.247419 -0.009206 -0.228516 0.061063 -0.497121 -0.344917 -0.187123 0.180437 -0.033741 -0.228633 0.285063 0.384364 0.231936 0.212037
sent_43 0.231202 -0.033439 0.074164 0.511761 0.035320 -0.042238 -0.141501 -0.224099 0.207157 -0.195948 0.991405 0.262784 0.011776 0.352237 0.287183 0.325160 0.247689 0.146420 0.162690 0.492999 -0.013886 -0.220876 -0.297884 -0.462758 0.219800 0.592752 -0.330688 0.446723 0.478630 0.478185 -0.271293 -0.489454 0.095965 0.017235 0.099879 0.371909 0.068818 -0.007756 -0.015917 -0.376344 -0.377402 0.366263 0.071223 -0.533371 0.313493 -0.252333 -0.210491 -0.142732 -0.300567 -0.301422
sent_44 0.284483 0.134341 0.459028 0.064607 0.218597 -0.168402 -0.299501 0.233824 0.220370 0.016132 -0.047160 -0.015433 0.279144 0.116625 0.039051 -0.259705 -0.468114 0.329353 -0.313214 0.352849 -0.188315 0.042740 -0.228620 -0.393518 0.398328 0.141695 -0.082691 0.606599 0.244693 0.748328 -0.166241 -0.245723 0.173471 -0.206681 0.385929 0.242572 -0.073896 -0.672345 -0.347759 0.335647 0.016252 0.261678 0.193339 -0.064465 0.160292 0.888149 -0.310983 0.179778 0.164696 -0.020209
sent_45 -0.169666 -0.409382 0.206114 0.179986 0.072509 -0.020793 0.090518 0.269054 0.198403 -0.588208 -0.698066 0.055830 -0.186519 -0.145549 0.026485 -0.182140 -0.049579 -0.434453 0.019332 -0.444468 -0.546252 0.361467 -0.110216 -0.096181 -0.192493 -0.118859 -0.263775 -0.201596 -0.041940 -0.070758 0.375532 -0.265871 0.353435 -0.174559 -0.096104 -0.020495 -0.110026 0.303323 -0.462855 0.443891 -0.210643 0.364463 0.316126 0.278773 -0.123767 -0.041677 0.281423 0.131381 -0.533972 -0.369081
sent_46 0.009513 -0.343324 0.431687 -0.230303 0.142281 0.170436 0.336738 -0.206085 0.060831 -0.001577 -0.472489 -0.139605 -0.049161 -0.195550 -0.032975 -0.227863 0.215613 -0.036974 0.094930 -0.063226 -0.230477 0.046340 0.186104 0.341238 -0.194718 -0.089302 -0.040138 0.264991 0.055040 0.095176 0.024158 -0.342231 -0.129892 -0.351255 -0.029782 0.171654 0.109354 0.008471 -0.503627 0.232605 0.180864 0.021694 0.215434 -0.288909 0.193213 0.043882 -0.120925 -0.099653 0.073886 -0.231652
sent_47 -0.132915 0.184860 0.278727 0.247516 -0.072455 -0.198296 -0.036274 0.252241 0.189416 -0.007473 -0.032030 -0.189561 -0.116827 -0.024032 0.107696 -0.021835 -0.282984 -0.040749 0.058371 0.102628 -0.172579 0.207987 -0.079146 -0.183924 -0.090039 -0.248199 -0.147775 0.105601 -0.128300 -0.049022 0.232092 -0.135113 -0.189791 0.140867 0.060394 0.195358 -0.010504 0.212336 -0.152997 -0.119323 -0.280688 -0.120367 -0.225735 0.156324 0.125530 -0.057012 0.028721 -0.021156 0.249795 0.037378
sent_48 -0.027709 0.170985 -0.308475 0.003128 0.087413 -0.066847 0.044288 0.089312 -0.025173 -0.059153 0.216723 -0.008199 -0.065430 0.125120 0.146726 0.241967 -0.248271 -0.046860 -0.174355 0.803880 -0.339629 0.492689 -0.540926 -0.306102 0.486285 -0.123275 0.268936 0.038572 0.035529 0.416782 -0.006935 -0.330932 0.056917 -0.421809 0.038629 -0.193275 -0.394435 -0.288324 0.000871 0.064705 0.017247 0.315388 -0.139393 0.007269 -0.063430 0.030981 0.002838 0.171364 -0.408106 0.210004
sent_49 0.397412 0.175800 0.313873 -0.181417 0.355561 0.127865 -0.276395 -0.232484 0.309718 0.104490 -0.126249 0.129819 0.306922 0.071413 0.174235 -0.351747 0.274334 0.490387 -0.977339 -0.179525 -0.146892 0.359026 -0.508555 0.307255 -0.068680 -0.114284 -0.018817 0.102897 0.038271 -0.098336 -0.220274 0.515571 -0.416365 -0.398675 0.016020 -0.299562 -0.028660 -0.412419 -0.204407 0.263781 0.869411 0.153627 0.181045 0.186214 0.127521 0.531041 -0.317463 -0.034752 0.091405 -0.240822
sent_50 -0.135585 0.497353 0.291270 -0.539040 0.281974 0.069210 0.434086 0.483500 0.068745 0.367361 0.292308 -0.109516 0.036233 -0.417066 -0.571048 -0.772360 -0.286610 -0.255683 -0.524064 0.254245 0.781639 -0.490942 -0.016717 0.924757 -0.282261 -0.228709 0.339233 -0.297987 -0.149113 -0.159718 0.201987 0.568455 -0.652528 -0.168218 0.540202 0.299044 -0.139785 -0.322014 -0.395765 -0.149796 0.502082 0.147199 -0.227395 -0.158123 -0.364363 0.532883 0.300380 -0.250819 -0.161762 -0.321034
sent_51 -0.144525 -0.219855 0.039416 -0.265448 0.010508 -0.281151 0.001549 -0.208137 -0.208918 -0.045715 0.516238 -0.045008 -0.160599 -0.020106 -0.050211 0.328846 -0.429273 0.073238 -0.291839 0.799529 0.015481 -0.312049 -0.429160 0.058318 0.013848 -0.117230 -0.055569 0.147916 0.157761 -0.192172 -0.055290 0.038550 -0.343690 -0.061180 0.275546 0.587984 -0.342543 -0.044346 -0.159793 -0.116908 -0.112990 0.198640 -0.137151 -0.220448 0.243007 0.298247 0.052164 -0.349976 0.416902 0.131055
sent_52 -0.385217 -0.007824 0.097313 0.339293 0.324023 -0.071460 -0.274419 -0.480828 0.128746 -0.165011 -0.967336 0.446887 -0.024488 0.132004 -0.341693 -0.875043 0.350708 -0.174186 -0.611877 -0.417225 -0.122437 0.023435 0.180750 0.601365 -0.314909 -0.108966 -0.350930 0.444688 0.028756 -0.217416 0.256507 0.117507 -0.254214 0.339046 0.307644 -0.023893 -0.018500 0.311003 0.116933 1.091822 0.075342 0.114846 0.121344 0.142275 0.105876 0.253600 0.007394 -0.526301 0.439724 -0.155787
sent_53 -0.399553 0.075990 -0.125137 0.163436 -0.131194 -0.151969 -0.167222 -0.268231 -0.047312 -0.212991 -0.059609 -0.017300 0.128175 -0.002435 -0.104416 -0.134099 0.266157 0.039849 0.126903 0.029019 -0.062323 0.149064 0.110022 -0.208917 0.151691 -0.224747 -0.116809 -0.055971 0.065277 0.368289 -0.249189 -0.061324 -0.246105 0.296372 0.080486 -0.121572 -0.040831 0.301473 0.272757 0.169463 0.229307 0.078379 -0.280027 0.430661 0.136189 -0.247675 0.433386 -0.057402 0.062721 0.171178
sent_54 -0.240775 -0.295934 0.474146 0.220225 0.087464 -0.139268 -0.325940 -0.402520 0.489247 -0.228223 -0.149610 0.594623 0.370394 -0.126406 -0.185126 -0.284415 -0.198819 -0.169521 -0.528972 0.025042 -0.267809 0.171887 0.360443 -0.013123 -0.516893 -0.031711 -0.330186 -0.116716 -0.057374 -0.178042 -0.568585 -0.229416 -0.053308 -0.037633 0.405117 0.508591 -0.180169 -0.012167 0.038185 -0.135930 0.144145 -0.069520 -0.232261 -0.040195 0.007587 -0.244859 -0.231865 -0.454681 -0.079863 0.006052
sent_55 0.393654 0.214608 0.251060 -0.821323 0.047537 0.300252 0.321380 0.781436 -0.212816 0.419882 0.827720 -0.204888 0.009142 0.017216 -0.231854 -0.678891 0.156473 0.210545 -0.485579 -0.466002 0.769243 -0.415700 -0.083416 0.584392 -0.362253 0.297305 0.326888 -0.289893 -0.360410 -0.281942 0.252298 0.763304 -0.036275 -0.317937 -0.299030 -0.237879 -0.007657 -0.580041 -0.128746 0.040262 0.935833 0.264892 0.043618 -0.164944 -0.268747 1.001714 -0.020111 0.240597 -0.389487 -0.458763
sent_56 -0.162801 0.310561 0.073172 -0.661309 -0.421360 0.136300 0.536381 -0.048372 -0.355100 0.727755 0.761441 -0.288445 0.003914 -0.640617 -0.021600 0.124894 0.194882 -0.081405 0.028307 0.342866 1.003192 -0.893665 0.204706 0.890376 -0.018727 0.257053 0.453841 -0.302182 0.415819 0.169514 -0.291029 -0.223268 -0.112877 -0.030220 0.285614 0.297565 0.033047 0.344746 -0.276885 -0.214342 0.167477 0.102498 0.390489 -0.298192 -0.092645 -0.178226 0.389954 0.018262 0.003915 -0.200230
sent_57 -0.143467 -0.293253 -0.392758 0.145780 0.316531 -0.027645 0.028893 0.153959 0.265815 0.040733 -0.298684 -0.011031 0.030351 0.014279 -0.041682 -0.099181 -0.210451 -0.315054 -0.271384 -0.604228 -0.072092 -0.093105 0.388554 0.469801 -0.412515 -0.134659 0.073160 -0.381915 0.205401 -0.602300 0.365400 0.252056 0.009141 0.052467 -0.129547 0.049327 -0.008735 0.200484 -0.202247 0.006830 0.051204 0.235412 -0.188249 0.104038 -0.241596 0.008853 -0.012623 -0.054273 -0.117418 -0.116102
sent_58 0.244545 1.014686 -0.530776 -0.207039 -0.013104 0.182799 0.125341 -0.948414 -0.246085 0.861715 -0.447417 -0.371712 -0.034480 -0.359631 -0.274163 0.116742 0.505199 0.196416 0.599772 0.324053 0.847758 -0.483753 -0.257743 0.165862 0.137230 -0.454323 0.675169 0.742117 -0.245988 0.818929 -0.734435 -0.672138 -0.582598 0.344287 0.105473 0.085377 0.179643 0.435139 0.225487 0.005912 -0.282678 -0.774185 0.589119 0.432210 0.786487 -0.770130 -0.472495 -0.351365 0.685333 0.461367
sent_59 -0.204605 0.066295 0.030181 0.075833 -0.053452 0.058560 -0.099813 0.206925 -0.073629 0.011475 0.635383 0.046041 -0.032456 0.373686 0.164866 0.178343 -0.159546 0.174259 -0.058431 0.429131 0.026188 -0.218649 -0.065185 -0.224031 0.200522 -0.161117 -0.374481 0.184082 0.012329 0.133184 0.215096 -0.113381 -0.288101 0.066764 0.112971 -0.112924 -0.348572 0.005347 -0.247412 -0.392633 -0.470049 -0.191609 -0.092224 0.046058 0.292771 -0.048195 0.037407 0.001173 0.229794 -0.147365
sent_60 0.189061 0.042237 0.340361 -0.137096 -0.126152 0.113974 -0.175331 0.218208 -0.327408 -0.220036 -0.186560 -0.287295 0.118279 -0.034376 -0.334641 -0.214216 0.423113 0.060075 -0.204128 -0.226061 -0.023842 -0.033394 0.032770 -0.088864 -0.074685 -0.028123 -0.245985 0.110455 0.040318 0.471402 -0.117833 0.395824 -0.043316 -0.000375 -0.124008 -0.172246 0.262138 -0.380561 0.073225 0.474750 0.269751 0.058084 0.187022 -0.141122 0.119934 -0.060000 0.022176 0.042457 0.155916 -0.039541
sent_61 -0.043024 0.108660 0.222536 0.565772 0.504048 -0.286553 0.473403 0.194012 -0.139877 -0.149909 -0.350379 0.347002 -0.134176 -0.092446 0.109927 0.002742 0.097226 -0.262849 -0.267105 -0.359527 0.223749 -0.433119 0.000445 0.317795 -0.064932 -0.858447 -0.171307 -0.289802 0.031194 -0.442406 0.350087 -0.086245 -0.231847 0.264354 0.319299 -0.209022 -0.188746 0.216863 -0.572226 0.480080 0.067472 0.304885 -0.289757 0.408718 0.094639 -0.459905 0.452249 -0.049535 -0.186713 -0.066870
sent_62 -0.185801 -0.013175 -0.234081 0.006475 0.098203 -0.235621 -0.005767 -0.068202 0.089689 -0.169164 -0.317029 -0.049494 -0.058958 -0.039280 0.109128 -0.173863 -0.065024 -0.143845 -0.011950 -0.097355 -0.171997 0.182061 0.079369 -0.058305 -0.377142 -0.323925 -0.266601 -0.260811 0.045968 -0.282276 0.206199 0.128624 -0.146247 -0.010190 -0.148681 -0.017556 0.104165 0.049826 -0.086729 -0.383129 -0.179077 -0.193699 -0.054188 0.089912 -0.046130 -0.243778 0.007992 -0.136384 0.258601 -0.080986
sent_63 -0.070915 -0.211837 0.405373 0.410735 -0.032982 -0.243883 -0.069278 0.283619 -0.104994 0.463289 0.726821 0.166768 0.354523 0.582982 0.116043 0.182558 -0.057306 0.399327 0.193743 0.808494 -0.081278 -0.484818 -0.228800 -0.479963 0.132906 -0.174049 -0.211595 0.303612 0.216552 0.575291 -0.116542 -0.527681 -0.113776 0.157064 0.206782 0.031991 0.019813 0.302768 -0.237339 0.072833 -0.175733 0.256230 -0.054567 0.100749 0.503940 -0.351403 0.133299 -0.075000 0.059652 0.179613
sent_64 -0.131813 -0.080602 0.482877 0.112518 0.348498 -0.061035 0.061910 0.300332 0.358028 0.072035 0.049329 -0.107894 -0.006005 0.055633 0.145839 0.130097 -0.339654 -0.085022 -0.067516 0.196367 -0.368012 -0.169952 -0.210566 -0.330976 -0.120610 -0.251345 -0.088952 -0.353895 -0.298789 -0.087772 0.149090 -0.049445 0.241432 -0.032495 -0.042536 -0.123698 0.206373 -0.324652 -0.497039 -0.230115 -0.096979 -0.217109 -0.238822 0.272791 0.081914 -0.159417 0.224088 0.010081 -0.093727 0.028167
sent_65 0.071837 0.435981 0.620722 0.096920 -0.434406 0.315200 -0.078427 -0.005055 0.044002 -0.089279 1.375323 0.224572 0.180703 0.656307 0.396689 0.041983 0.751593 0.769179 0.009126 0.423666 0.353738 -0.764059 0.059857 0.237936 0.063689 0.179772 -0.702861 -0.178601 0.287980 0.879918 -0.686203 -0.043235 0.032182 -0.359504 0.116921 -0.608113 -0.273225 0.064071 -0.569348 -0.112069 0.209261 -0.030985 0.366915 -0.202795 0.214185 -0.281659 -0.067784 0.086933 0.173021 -0.446607
sent_66 0.004121 -0.065285 0.347395 -0.159002 0.058608 0.120531 -0.046911 0.220314 -0.025654 0.081656 -0.089087 -0.293877 0.151004 0.021377 0.032588 -0.388754 0.249618 0.351691 -0.244124 -0.288715 -0.132020 0.187908 -0.407437 -0.330228 -0.070784 0.156540 -0.146319 0.206238 -0.334630 -0.265206 0.202288 0.482403 -0.030584 0.097091 0.012072 -0.284285 0.154523 -0.122200 0.226951 0.155412 0.322103 -0.015282 -0.032935 0.085074 0.359727 0.318819 -0.053256 0.140741 0.151087 -0.157023
sent_67 -0.333245 0.322949 -0.244159 -0.452226 -0.487643 -0.005331 0.122465 -0.259172 -0.171766 0.237622 -0.421433 -0.569503 -0.237462 -0.537008 -0.426392 -0.599704 0.357600 -0.330089 0.019051 -0.032421 0.221976 0.306663 0.305192 0.329365 -0.284393 0.096938 0.444406 -0.205826 0.150969 0.247125 -0.145082 0.100959 0.105790 0.192290 0.024241 0.318371 -0.098187 0.281277 0.337757 0.390479 0.237698 0.034626 0.112697 0.191236 -0.181720 -0.364376 -0.098104 -0.116580 0.172860 0.346014
sent_68 -0.113574 0.303331 0.231284 -0.185055 0.192077 0.194747 0.375794 -0.187244 0.314886 0.938904 0.293984 -0.066425 -0.017544 -0.040216 -0.176226 -0.232554 -0.111021 -0.098963 -0.289684 0.442470 0.433724 -0.068325 0.027830 0.913596 0.075079 0.270189 0.581302 0.290340 0.289844 0.064778 -0.029497 -0.158907 -0.456350 -0.073178 0.139063 0.262602 -0.189563 -0.269904 -0.135205 -0.071671 0.214492 -0.048127 -0.114140 -0.502955 -0.185009 0.355669 -0.100513 -0.126520 0.119011 -0.057178
sent_69 0.132041 0.042828 0.210575 0.495306 -0.012292 0.191134 -0.475547 0.013893 -0.132314 -0.452578 -0.175179 0.392871 -0.049404 0.371896 -0.338646 0.019906 -0.002905 0.200011 -0.001879 -0.466777 -0.224097 -0.029076 -0.012267 -0.189210 -0.159479 -0.133685 -0.045647 0.093437 -0.359157 0.211545 -0.283344 0.118921 -0.024280 0.115460 0.248458 0.027196 -0.337515 0.092189 0.242431 0.341357 0.165106 -0.131270 -0.512112 0.314920 0.250664 -0.103756 -0.049368 -0.107294 0.046642 0.139798
sent_70 -0.034661 0.207790 -0.105791 -0.127059 0.093087 -0.133384 -0.151160 -0.422683 0.407153 0.266654 0.458861 -0.128638 0.269284 -0.162905 -0.558435 -0.127327 -0.458265 -0.004756 -0.251207 0.189930 0.219972 -0.167213 0.192887 0.280215 0.028400 -0.150395 0.163963 0.006071 0.164225 0.470367 -0.380830 0.135282 -0.190393 0.228836 0.286735 -0.069410 -0.060135 -0.132021 -0.016069 0.047865 0.397224 0.135975 -0.004143 0.170883 -0.273087 0.167262 0.054443 -0.197642 -0.390109 -0.013964
sent_71 -0.102374 0.356314 0.012815 -0.574777 -0.656645 0.027896 0.024869 -0.312746 -0.279577 0.897282 -0.141173 0.802890 0.483125 -0.179612 -0.763927 -0.360068 -0.201766 -0.284221 -0.462211 0.308505 0.460649 0.444646 0.434589 1.236985 0.081012 -0.276879 0.783195 -0.197920 0.081721 -0.058203 0.409538 0.220021 -0.690929 -0.323668 -0.005905 0.193341 -0.450221 -0.200758 0.602416 0.173074 0.293128 -0.711838 0.435973 -0.635537 -0.222369 1.025032 -0.145747 -0.373047 0.184382 -0.513611
sent_72 -0.343609 -0.013491 0.199850 -0.304640 -0.065092 0.020068 0.370548 0.458517 0.067655 0.370614 0.300245 0.010250 -0.230260 -0.119034 0.031027 -0.301933 -0.190044 -0.045609 -0.451578 0.460439 0.244217 -0.082887 -0.050808 0.732774 -0.122582 0.111143 0.026111 -0.321204 0.126689 -0.382221 0.354502 0.062121 -0.227969 -0.251186 0.217242 0.036321 -0.308657 0.421439 -0.196546 0.190195 0.057187 0.241677 0.096502 -0.221712 -0.333263 -0.102446 0.162783 -0.075306 -0.087754 -0.178030
sent_73 0.189281 0.525689 -0.185626 -0.200332 -0.225942 0.035471 0.096699 -0.556333 -0.096073 0.349466 -0.215504 -0.508997 0.163009 -0.656506 -0.175075 0.243131 0.224184 0.628318 0.377088 -0.056147 0.140072 0.544340 -0.487901 -0.481520 0.090372 -0.115135 0.860669 -0.104328 -0.302438 0.768793 -0.751477 -0.594738 -0.042051 -0.095166 -0.365879 0.117261 0.309288 -0.290022 0.804102 -0.041389 0.311968 -0.250621 0.009816 0.197864 0.513585 -0.457123 -0.616909 -0.043839 -0.037312 0.355135
sent_74 -0.149077 0.283157 0.232649 -0.426083 -0.117513 0.047965 -0.022504 -0.082365 0.212203 0.415078 0.274163 -0.036999 -0.172603 0.217506 -0.214468 -0.349510 -0.086595 -0.259245 -0.085153 0.296149 0.320850 -0.092563 0.424557 0.650661 -0.421978 0.153232 -0.063129 0.323727 -0.203901 -0.087722 0.142439 0.013940 -0.485913 -0.216396 -0.162037 0.106078 -0.324767 -0.003574 -0.192937 -0.097021 -0.193230 -0.387601 0.257719 -0.218726 0.056927 0.349475 -0.116536 -0.094980 0.342057 -0.240412
sent_75 -0.003088 -0.281793 0.278908 -0.000557 0.167896 -0.102051 -0.373700 0.185150 0.134009 -0.692830 -0.026504 -0.153570 -0.438412 0.272978 -0.077066 -0.146866 -0.510683 -0.191217 -0.231218 0.202067 -0.452696 -0.092886 -0.219924 -0.374348 -0.027160 -0.046207 -0.525381 0.001694 -0.359688 0.026025 0.144778 0.165620 0.284533 0.078225 0.102703 0.037312 0.098028 -0.236071 -0.410011 0.291450 -0.089997 0.094828 -0.179526 0.369537 -0.128927 0.050456 -0.030668 -0.151382 -0.116203 0.276229
sent_76 0.145260 -0.228205 0.030923 -0.015061 0.092053 0.434563 -0.435618 0.289449 -0.314223 0.128202 0.170490 0.125986 -0.172076 0.647954 0.205596 0.116095 0.185264 0.029601 -0.267436 -0.764097 -0.207833 -0.352245 0.525250 0.227136 -0.332376 0.411208 -0.375435 0.143012 0.080126 -0.225767 0.070550 0.431329 0.194154 -0.038425 -0.013621 -0.487813 -0.196233 -0.275164 -0.093183 0.236857 -0.028509 -0.176420 -0.145966 0.017811 0.043930 -0.192142 0.014329 0.318619 -0.012209 -0.068279
sent_77 0.300204 -0.052416 0.357504 0.204304 0.391247 0.562100 0.447448 0.459709 -0.243099 -0.033682 -0.677411 -0.484952 -0.060448 0.164351 -0.065328 -0.439555 0.811846 0.133211 0.041560 -0.449425 -0.101426 -0.145225 0.249884 0.207651 0.622453 0.037060 0.148488 0.273253 0.405716 0.498322 0.578219 0.176033 0.053111 -0.014402 -0.067066 -0.557668 0.502413 -0.124686 -0.525337 1.138585 0.465108 0.538919 0.221567 -0.276185 0.214293 0.319825 0.055727 0.491637 -0.113654 -0.188143
sent_78 -0.174028 0.250280 -0.079417 0.267679 -0.394511 -0.009055 -0.400798 -0.096378 0.258361 0.202276 0.387596 0.000388 0.044826 0.294610 -0.436288 -0.113149 -0.143328 -0.135902 -0.292554 0.274677 -0.009843 0.415205 0.063307 0.080667 -0.122517 -0.257287 -0.016057 -0.073424 0.056513 0.430983 0.084841 -0.029208 -0.399057 0.347159 -0.143004 0.001285 -0.542743 0.545987 0.355078 -0.125769 0.003343 -0.132282 -0.092816 0.095058 0.235511 -0.087788 -0.105558 -0.267375 -0.017856 0.056204
sent_79 -0.109364 0.018733 -0.203691 0.106216 0.305329 0.102980 -0.436213 -0.098897 0.234105 0.270978 0.627611 0.069883 0.308492 0.478984 0.177362 0.323221 -0.145247 0.171848 -0.175041 0.136069 0.148747 -0.568544 0.434966 0.218256 -0.150564 -0.018919 -0.197818 0.573367 0.290559 0.005523 -0.298643 -0.213829 -0.598887 -0.097688 -0.007391 -0.115017 0.047411 0.019907 -0.464580 -0.229064 -0.452595 -0.103126 -0.251736 -0.348134 0.371527 0.175396 -0.113362 -0.063524 0.742607 -0.257795
sent_80 -0.269150 0.344837 -0.089370 -0.048437 -0.347582 -0.201466 0.363973 -0.386799 -0.364874 0.239740 -0.504810 -0.314082 0.157705 -0.592772 -0.376299 -0.247570 0.410831 -0.072046 0.687192 -0.022214 0.331073 0.198309 -0.020285 -0.005255 -0.183548 -0.435057 0.578856 0.368983 0.254190 0.428507 -0.131484 -0.436503 -0.681259 0.129182 0.161422 0.348784 -0.341563 0.419661 0.237977 -0.167033 -0.032088 -0.407266 0.101003 0.285312 0.596319 -0.136977 0.193633 -0.093969 0.387008 -0.055098
sent_81 0.209781 0.121814 0.028950 0.504446 0.024248 -0.081350 0.015451 0.024252 -0.009759 -0.111264 0.137136 -0.487323 0.021001 -0.136614 0.125640 0.281028 0.436388 0.191090 0.268688 0.027632 -0.133231 -0.173396 -0.109992 -0.523215 -0.144140 0.234122 0.030342 0.301120 0.445998 0.457684 -0.389283 -0.307261 0.181792 -0.081859 0.312660 -0.021408 0.173487 0.137419 -0.330605 -0.055346 -0.354304 0.464093 0.069430 -0.372824 0.576823 -0.522956 -0.223691 0.215942 -0.123761 -0.385758
sent_82 -0.183419 0.195195 -0.317627 0.008884 -0.322888 0.028064 0.390247 -0.351537 -0.295773 0.604595 -0.614879 -0.445937 0.443153 -0.463946 -0.590749 0.427820 0.131220 0.056513 1.032771 -0.305270 -0.083609 0.249103 0.184801 -0.195534 -0.431526 -0.557634 0.715320 0.278840 -0.021172 0.743529 -0.406132 -0.990811 -0.181972 -0.092930 -0.234806 -0.061021 0.097279 0.230766 0.343224 -0.021619 -0.212654 -0.393732 0.057577 0.387294 0.481894 -0.944877 -0.042574 -0.000918 -0.125843 0.169771
sent_83 0.176222 -0.065714 -0.376762 -0.267195 0.091290 -0.073348 -0.064705 -0.021951 -0.047184 0.287050 0.319509 0.124176 -0.165748 0.063501 -0.472361 -0.348338 0.024959 -0.255244 -0.358818 0.609740 0.394497 -0.508716 -0.361317 0.330723 -0.479560 -0.105245 0.250997 -0.224839 -0.088481 -0.260242 0.252830 0.596487 -0.087056 -0.089833 -0.074122 0.076390 -0.056436 0.300822 -0.016881 -0.305519 -0.056908 -0.153255 0.518199 -0.089889 -0.021820 0.303120 0.057452 -0.548022 0.117769 -0.434727
sent_84 0.008457 -0.052754 -0.286979 -0.053240 0.473906 -0.241069 -0.212374 -0.257828 -0.141594 -0.116164 0.420253 -0.324084 -0.198691 0.350982 0.398136 0.283044 0.314658 0.185061 0.443973 0.252180 -0.078148 -0.178426 -0.469793 -0.935256 0.484474 0.361432 -0.038328 0.453773 -0.102726 0.100516 -0.300105 -0.033719 0.399724 0.072484 0.063818 -0.447139 0.365477 -0.350146 0.057475 0.073115 -0.082413 0.369112 0.042209 0.527066 0.207449 -0.109750 -0.021615 0.327519 -0.474133 0.067838
sent_85 -0.104356 -0.245564 -0.082143 0.325324 0.126426 0.250442 0.025834 0.305651 0.122361 -0.200247 -0.362816 -0.167780 0.008469 0.065035 0.120194 -0.302409 0.031904 -0.089769 -0.146938 -0.200521 -0.340634 0.416666 0.037578 0.087991 0.445642 0.303379 -0.231458 0.131720 0.344751 0.237014 0.583297 0.140896 -0.065778 0.113481 0.060750 0.033217 0.030280 0.019662 0.124125 0.363956 0.271906 0.292505 -0.101085 -0.177401 -0.056183 0.273911 0.131093 0.181091 -0.208137 0.074381
sent_86 0.170439 0.344053 0.630955 0.911330 0.351514 0.003310 0.167440 0.480566 -0.138711 -0.284327 -0.316693 0.122161 0.032672 0.096369 -0.210912 0.050253 0.141238 0.060892 -0.184075 -0.266357 -0.283449 -0.030930 -0.389165 -0.131880 0.323651 -0.290014 -0.175130 0.385043 0.197166 0.131364 0.068650 0.179688 -0.080190 0.389452 0.640129 -0.106936 0.245026 -0.119955 -0.274800 0.586308 0.350447 0.181989 -0.562592 -0.010232 -0.024840 -0.133174 0.333201 0.011337 -0.117516 -0.211714
sent_87 -0.229647 0.057016 -0.101431 -0.517912 0.106971 -0.137667 -0.161254 -0.891882 0.289977 0.315968 0.114196 -0.268342 0.310401 -0.527761 -0.074696 0.185274 -0.085233 -0.146718 -0.717614 -0.156009 0.196997 0.142990 0.138804 0.290857 0.068451 0.074026 0.279067 0.043233 0.160823 -0.179276 -0.311010 0.065680 -0.226600 0.164645 -0.090097 0.403386 -0.243404 -0.115810 0.283557 0.331250 0.423481 0.526818 -0.140914 0.288162 0.465695 0.451604 -0.049209 -0.045242 -0.059757 0.032572
sent_88 -0.353756 0.300101 -0.157542 0.137161 -0.372951 -0.022821 -0.014727 -0.126454 0.395555 -0.286715 -0.084495 -0.114690 0.372837 -0.475137 -0.211177 0.402463 -0.723798 -0.025078 0.375332 -0.128236 -0.198500 0.424357 -0.128929 -0.277025 0.031656 -0.187835 0.294959 -0.235399 -0.319677 0.736678 -0.460487 -1.094904 0.518019 -0.024024 -0.036743 0.359556 -0.178208 0.017274 0.217080 -0.117263 -0.189381 0.204308 0.017074 0.204451 -0.146843 -0.039746 -0.264404 0.028748 -0.617372 0.189973
sent_89 -0.273915 0.408756 0.345815 0.515746 0.151334 -0.484536 -0.260733 -0.114744 0.341951 0.320944 -0.145794 0.127794 0.133239 0.127529 0.062415 0.094486 -0.029399 -0.002989 -0.689885 0.138093 -0.205631 0.313018 -0.374150 0.314078 -0.614014 -0.512698 -0.394520 0.325828 0.004972 -0.723455 0.074893 0.051382 -0.309343 0.317954 0.101127 -0.205915 0.038291 0.569354 -0.094805 0.260612 -0.021651 -0.077343 0.003372 0.200836 0.111173 -0.420012 -0.080706 -0.378550 0.578434 -0.122951
sent_90 -0.201506 -0.120543 0.280141 -0.052839 0.413489 -0.006884 -0.583021 -0.195458 0.330456 -0.102262 0.241744 0.259435 0.100146 0.309326 -0.199230 -0.188805 -0.226632 -0.077949 -0.492015 -0.114545 -0.022809 -0.194330 0.339640 -0.058437 -0.272936 0.291952 -0.452393 0.870510 -0.373589 -0.484402 -0.095474 0.367051 -0.577149 0.090922 0.397693 0.174123 -0.088606 0.030024 0.148555 0.081705 -0.064892 0.040185 -0.478952 0.306104 0.448724 0.591954 0.129262 -0.206367 0.287519 -0.242744
sent_91 0.074391 -0.220034 0.057388 0.521352 -0.074609 -0.052556 -0.349034 -0.271350 0.370376 -0.048902 0.586486 0.403072 0.335922 0.400882 0.109649 0.282171 -0.272095 0.055811 -0.378595 0.692701 -0.048286 -0.062591 -0.136438 -0.118176 0.529369 0.078514 -0.050371 -0.088964 0.308163 0.837203 -0.249485 -0.709483 -0.036907 0.131728 -0.047449 0.446211 -0.137511 0.068327 -0.096338 -0.254222 -0.105486 0.433722 0.078318 -0.273679 0.348780 0.262336 -0.116915 -0.169419 -0.244887 0.107695
sent_92 -0.380850 0.338516 -0.333785 -0.039998 -0.111469 -0.117642 -0.563578 -0.657167 0.440295 -0.003180 -0.202437 0.333050 -0.180199 -0.026171 -0.345765 -0.673602 -0.012683 -0.665574 -1.218829 0.227089 -0.293635 0.974923 0.000870 0.457365 -0.056524 0.403968 0.079372 0.030432 0.115985 -0.297667 0.162029 0.642050 -0.446140 -0.085574 0.102287 0.039666 -0.698515 0.306630 0.745193 0.318418 0.077457 -0.030826 0.205360 -0.268800 0.115333 0.824116 -0.033203 -0.262517 0.221796 -0.555840
sent_93 -0.050688 0.254248 0.781068 0.372814 0.018129 0.463122 0.009771 0.459641 0.540351 -0.026246 -0.330802 -0.074478 -0.003946 0.037297 -0.287659 0.054192 -0.414321 0.217763 0.011223 0.088759 -0.603618 0.358995 -0.186853 -0.115415 0.025716 0.042483 0.201195 -0.447877 -0.161235 0.359997 -0.346009 -0.057315 0.212679 -0.348554 0.177334 -0.026595 0.135818 -0.414852 -0.163494 0.115399 -0.163663 -0.260597 -0.250991 -0.418322 -0.445247 -0.520816 -0.253320 0.080584 -0.011143 0.108427
sent_94 0.035853 0.340216 0.450832 0.583273 -0.244828 0.306028 -0.144405 0.501448 0.344951 -0.199589 -0.294240 0.233416 0.297842 0.152298 -0.415780 -0.411562 -0.242417 0.179152 -0.291767 -0.110335 -0.294823 0.400123 0.020870 0.147509 0.289360 0.001842 -0.041165 -0.015835 0.033294 0.507547 0.099041 -0.032726 0.188704 0.126620 0.316435 0.064922 0.198850 -0.215440 0.006984 0.495268 0.079014 0.025180 -0.215362 -0.416029 -0.600107 0.125829 -0.294765 -0.046997 0.060905 0.020269
sent_95 -0.213136 -0.012042 0.383750 0.515394 0.082526 -0.222299 0.148768 0.108802 0.095778 -0.269258 -0.285400 0.222552 0.307053 0.016919 0.243832 -0.392397 0.074822 0.045769 -0.168586 -0.004958 -0.242778 0.316057 0.010989 -0.011914 0.143635 -0.363706 -0.280331 0.025451 0.171108 -0.005168 0.230881 -0.060152 -0.239491 0.194315 0.289015 0.247193 -0.069511 -0.111795 -0.051242 -0.041734 0.458061 0.019338 -0.604604 -0.138389 0.078962 0.212734 0.108373 -0.138387 0.228062 0.047897
sent_96 -0.092616 0.221885 0.112882 -0.162095 0.193091 -0.170663 0.647398 0.233060 -0.011628 0.600345 0.064304 -0.006440 0.044984 -0.250907 0.176316 -0.300563 0.196854 0.015643 -0.336249 0.386925 0.474167 -0.187065 -0.247327 0.520697 -0.092116 -0.330967 0.221722 -0.549610 -0.025093 -0.627163 0.441778 0.194748 -0.044916 -0.076621 -0.091686 0.150179 0.198450 0.109920 -0.265167 -0.140016 0.170398 0.033335 0.108848 -0.173666 -0.146649 0.030898 -0.062958 -0.157491 0.249878 -0.179199
sent_97 0.180766 0.539399 -0.265044 -0.480249 0.022067 0.146526 0.204631 -0.193177 -0.200720 0.391522 0.641439 -0.037740 0.213143 -0.324147 -0.191372 0.300529 -0.137211 0.199699 -0.312739 0.355156 0.828127 -0.989469 -0.183336 0.856668 0.158288 -0.239206 0.630187 -0.302979 0.314242 0.509544 -0.574913 -0.253051 -0.192621 -0.280431 0.465337 0.407632 -0.197706 0.056933 -0.423997 0.145853 0.340298 0.546490 0.152725 -0.147004 0.018799 0.172484 0.012427 -0.121331 -0.033925 -0.067157
sent_98 -0.282555 -0.153232 0.073374 -0.108885 -0.212703 -0.136891 -0.130423 0.061832 0.134263 -0.113998 0.318562 -0.062269 0.059150 -0.122415 0.034301 0.078364 -0.056426 -0.206218 -0.584236 0.052673 -0.086458 0.302507 -0.023948 0.156393 -0.059135 -0.104899 -0.038936 -0.369290 0.139759 -0.171608 0.020622 0.097799 -0.111642 0.091181 -0.185446 0.195198 -0.287878 0.294603 -0.082065 -0.160109 0.263579 0.296163 -0.110823 0.219695 -0.030671 0.150882 0.278834 -0.030236 -0.143941 -0.121809
sent_99 0.070001 0.354989 0.147773 0.843434 -0.150626 -0.139630 -0.043890 0.191800 0.163426 -0.278770 -0.214121 0.372594 0.126835 0.184136 -0.384257 -0.173796 -0.039349 -0.003326 -0.262137 0.298158 -0.025275 0.200175 -0.217609 -0.081834 0.264002 -0.732123 -0.030024 -0.239434 -0.076212 0.596693 0.257628 -0.159824 -0.308731 0.287780 0.046494 0.055249 -0.178200 0.293532 -0.027493 0.106666 -0.118101 0.043251 -0.163805 -0.044973 0.145434 -0.055983 0.053215 -0.231157 0.124422 0.052311
sent_100 -0.303037 0.163666 0.051199 0.156396 0.289051 0.222669 0.085615 0.206041 -0.125574 -0.390561 -0.229600 0.122688 0.022559 0.241456 -0.287078 -0.056305 0.025937 -0.254241 0.090036 -0.106781 0.093158 -0.520871 0.157586 0.170653 0.514509 -0.264525 -0.253238 0.341046 -0.019147 0.263959 0.157311 -0.141375 -0.219510 0.088362 0.289065 -0.547605 0.144502 -0.112481 -0.603953 0.751889 -0.309083 0.272565 0.086232 0.253605 -0.260698 0.096711 0.427781 0.178477 -0.258958 -0.155430
sent_101 -0.048990 -0.128971 0.135976 0.031975 0.378971 -0.124609 0.141675 -0.389927 0.200032 0.016938 -0.023909 -0.243709 -0.030229 0.011053 0.310947 -0.027339 0.069905 0.004036 0.078682 0.260751 -0.198453 0.111997 -0.208332 -0.264634 0.313945 -0.026023 0.100866 -0.045680 0.121457 0.176374 0.010107 -0.130213 -0.136287 0.019885 0.019302 0.186079 0.084035 -0.361272 -0.217522 -0.255584 0.110942 0.051603 -0.237871 0.116701 0.344849 -0.040431 0.068364 0.067902 -0.090684 0.099479
sent_102 0.023721 -0.016452 -0.087856 0.214897 0.068265 0.085949 -0.022752 -0.041896 0.414262 -0.134262 -0.106548 -0.073190 0.054668 0.075738 -0.031829 0.063746 -0.009689 -0.023539 -0.184154 0.102160 -0.316108 0.283076 -0.091447 0.012256 0.028218 -0.206780 0.042950 -0.171972 0.044234 0.046441 0.094079 0.032833 0.033113 -0.081053 -0.199740 -0.415186 -0.071422 0.203836 -0.217016 -0.049210 -0.075341 0.055790 0.201345 -0.117296 -0.008492 -0.057655 -0.062453 0.085688 -0.092951 -0.185987
sent_103 -0.126310 0.176350 0.232196 0.458426 0.251936 -0.002465 -0.039849 0.242713 0.318794 -0.275823 -0.209909 0.149457 -0.335550 0.327069 0.001712 -0.134643 -0.171653 -0.186084 -0.088905 -0.172184 -0.262265 0.037485 -0.046360 0.046170 -0.140270 -0.196525 -0.059999 -0.100082 -0.206147 -0.055215 -0.117537 -0.211712 0.156007 -0.083053 0.125733 -0.360881 -0.298157 -0.078428 -0.567492 0.385833 -0.242696 0.049756 -0.100946 0.360183 -0.362556 -0.290810 0.085376 0.187277 -0.266153 -0.100366
sent_104 -0.146521 0.116913 0.217247 0.342960 -0.140331 0.130519 -0.238593 0.459159 0.142667 0.044204 0.000404 -0.176225 0.050891 0.233570 0.001212 0.120573 -0.287151 0.115576 -0.106919 0.217165 -0.441255 0.358731 -0.094183 -0.424929 0.082543 -0.095170 -0.234397 -0.347362 -0.103304 0.274057 0.203484 -0.075998 0.109088 0.073002 -0.125501 -0.089953 0.088306 -0.057352 0.034091 0.005160 -0.350428 -0.172925 -0.163414 -0.051231 -0.036381 -0.513962 -0.255327 0.052762 0.082666 0.268083
sent_105 -0.123420 -0.421817 0.314292 0.425175 -0.365474 -0.051478 -0.302636 0.742625 0.184412 -0.052284 0.711240 0.286709 0.339372 0.262512 -0.189855 0.185535 -0.401707 0.484767 -0.456098 0.257901 -0.111008 -0.106605 -0.523556 -0.319702 0.037572 0.022624 -0.168265 -0.250082 0.044119 0.087091 -0.210968 0.035559 0.094778 0.305568 -0.092052 0.011279 -0.137673 0.363507 0.079188 -0.203406 0.161213 0.207640 -0.161350 0.163407 -0.350728 0.154456 0.327778 -0.103999 0.056478 0.141209
sent_106 0.229409 0.183662 0.075252 0.173501 0.312888 -0.126559 -0.151679 -0.296315 -0.094521 -0.270829 -0.612250 0.560897 0.313466 0.364243 -0.012075 -0.381996 0.175360 0.081310 -0.309472 0.116306 -0.447192 0.327024 -0.033002 0.005598 0.094143 -0.467424 -0.450948 0.497825 0.002257 0.174549 0.359544 0.275243 -0.194568 -0.175450 0.347001 -0.535653 0.215430 -0.543956 0.035875 0.375358 0.278796 -0.302808 -0.021198 -0.320513 0.012124 0.129235 -0.107752 -0.201334 0.194754 -0.211297
sent_107 0.241448 0.117003 0.015541 -0.049345 -0.337542 -0.143988 -0.170799 0.308397 -0.162938 -0.331345 0.093002 -0.273717 0.202766 -0.373587 -0.146480 0.031841 -0.104981 0.073031 -0.008059 -0.395130 0.060860 0.103017 0.329477 -0.303772 -0.172807 -0.307216 -0.306405 -0.086133 0.021696 0.194642 0.090676 0.354850 0.080823 0.157191 0.075368 -0.164708 -0.092793 0.137855 0.213875 0.206453 0.456947 0.270089 -0.290612 0.323830 0.314716 0.084139 0.094592 0.138589 -0.259070 -0.021555
sent_108 0.022364 0.041637 0.326161 0.122143 0.250512 -0.305628 -0.165138 0.043003 0.142951 -0.338157 -0.323654 0.478561 0.234520 0.185086 0.056231 -0.602247 0.011924 0.009973 -0.134708 0.260715 -0.226753 0.038983 0.083935 -0.140241 0.058113 -0.270850 -0.658769 0.228600 0.050107 0.007684 -0.140125 0.291894 -0.198485 -0.049681 0.624807 -0.029512 0.292503 -0.010337 -0.064374 -0.003152 0.381255 -0.088264 -0.165502 -0.019877 -0.290947 0.136055 0.214472 -0.268145 0.365209 0.129908
sent_109 -0.297817 -0.257813 0.150632 -0.580219 0.479446 0.118613 0.110277 -0.132792 -0.066392 0.230483 0.048288 -0.230093 -0.137003 -0.121309 0.030088 -0.101804 0.047775 0.150511 -0.081758 0.164966 0.132838 -0.477934 -0.368499 -0.012542 -0.085066 0.217215 0.195037 0.102011 -0.080356 -0.447494 -0.134481 0.128568 -0.302758 -0.185566 0.095664 0.105208 0.280849 -0.516978 -0.323792 -0.017203 -0.159989 0.055874 0.015316 0.289999 0.008563 0.087276 0.084473 -0.142148 0.115734 -0.069182
sent_110 0.016775 0.327506 -0.687767 -0.089062 -0.162183 0.014151 0.208582 -0.618532 -0.300544 -0.031476 -0.949621 -0.289181 -0.095759 -0.559558 -0.636137 -0.319710 0.461487 -0.116202 0.603366 -0.283015 -0.033644 0.663421 -0.097225 -0.261875 -0.048218 -0.183733 0.875984 0.246857 0.001577 0.791121 -0.584523 -0.397386 -0.078147 -0.075345 -0.087224 0.041024 -0.272429 0.059449 0.811340 0.216749 0.228195 -0.220393 0.084278 0.237321 0.197358 -0.376538 -0.056915 -0.097146 -0.096230 0.261411
sent_111 -0.128668 0.273691 -0.058222 0.089154 0.146820 -0.196731 0.017442 0.047414 0.350036 0.133882 0.143122 -0.082869 -0.177492 0.070376 -0.153116 0.027282 -0.543764 -0.421205 -0.225114 0.358807 -0.045040 0.388125 -0.019617 0.064800 0.184267 -0.262495 0.157227 -0.068721 -0.174456 -0.143241 0.403570 0.110081 -0.372021 -0.016038 0.091505 -0.105441 -0.310200 -0.178339 -0.084686 -0.283121 -0.212495 -0.144253 -0.217500 0.068003 -0.100416 0.269496 0.054014 0.064181 -0.252297 -0.074939
sent_112 0.198517 0.081105 0.280536 0.354748 0.384939 0.596170 0.075113 0.357491 0.368485 0.119855 -0.470116 0.005366 0.378111 0.078247 -0.099598 -0.229856 0.314635 0.350711 -0.347182 -0.554798 -0.113170 0.402834 -0.018998 0.191015 0.679863 0.028305 0.129004 0.105876 0.189477 0.054969 0.194244 0.615159 -0.421802 0.174260 -0.195079 -0.382781 0.428527 -0.173369 0.266215 0.280366 0.316706 -0.043005 -0.236523 -0.370320 -0.334599 0.282088 0.201792 0.291793 0.308828 -0.020029
sent_113 0.001174 0.576760 0.189440 0.037753 -0.016200 0.086851 0.615856 0.065384 -0.027116 0.471012 -0.253548 0.314382 0.153604 -0.237808 -0.285455 -0.333150 0.177312 -0.149703 -0.397861 0.175206 0.651507 -0.421444 -0.084591 1.026280 0.365090 -0.353599 0.624164 -0.617316 -0.289578 -0.001248 0.181947 -0.048185 0.005803 -0.086137 0.147656 -0.046334 0.165424 -0.008845 -0.275751 0.471078 0.380306 0.014438 0.103752 -0.385358 -0.416525 0.123724 0.192693 -0.020774 -0.190046 -0.165808
sent_114 -0.028481 0.255091 0.150138 0.126243 0.071957 -0.129386 0.328492 -0.140334 0.090035 0.120260 0.075835 -0.051178 -0.079536 -0.180390 0.220780 0.146494 -0.098990 -0.069465 -0.027536 0.222014 0.167056 0.087323 -0.116304 0.131423 0.191069 -0.259200 0.074151 -0.061149 0.029056 -0.026905 0.044951 -0.264424 -0.282866 0.015346 0.072765 0.131523 -0.098714 0.020119 -0.186938 -0.284227 -0.098462 -0.120200 0.022411 -0.053502 0.191398 -0.025467 -0.018188 -0.005797 0.063394 -0.040083
sent_115 0.077413 0.325650 0.197798 -0.100949 0.303127 0.237246 0.380265 0.405676 0.084893 0.281143 0.049021 0.259086 -0.279986 -0.130334 -0.140702 -0.438324 -0.156213 -0.110921 -0.358354 0.031553 0.563414 -0.366800 -0.054067 0.657020 -0.189591 -0.160989 0.276505 -0.250270 -0.315188 -0.135932 0.093459 -0.071550 -0.345334 -0.246074 0.046797 -0.072384 -0.244372 -0.277120 -0.302254 0.142223 0.091083 -0.075802 0.014111 -0.058728 -0.358974 -0.018955 0.000388 -0.125534 -0.208737 -0.056163
sent_116 -0.007480 0.000145 0.113565 0.055640 0.178467 -0.376497 -0.020716 0.379755 0.054855 -0.015216 0.269414 0.108882 -0.140782 0.179813 0.536514 0.144861 -0.125738 -0.071927 -0.339032 0.439598 -0.135385 0.243816 -0.272317 -0.286873 0.150196 -0.410146 -0.320714 0.010257 -0.227512 -0.460998 0.217892 0.201810 -0.190933 -0.089431 -0.141624 -0.541016 -0.303066 -0.088633 -0.245401 -0.205694 0.116662 -0.024858 -0.233153 0.379185 0.015316 -0.009797 0.457417 0.254535 -0.084468 0.107286
sent_117 -0.137475 -0.289984 0.206401 0.284353 -0.282714 0.050040 0.047406 -0.073034 0.133326 -0.220076 -0.014819 -0.192605 0.218292 -0.187493 -0.210180 0.322369 -0.159617 -0.110087 0.011475 -0.220735 -0.446412 0.263710 0.314575 -0.033956 -0.208093 0.002931 0.104947 -0.138901 0.100486 0.063442 -0.245174 -0.220076 0.261768 0.031384 -0.053953 0.423640 -0.303307 0.033580 -0.133577 0.180800 0.103510 0.350434 -0.621820 -0.222869 0.091511 -0.213315 -0.001981 0.125891 -0.133349 0.086734
sent_118 -0.160381 -0.031513 0.019390 -0.241308 -0.059623 -0.049724 -0.138000 -0.159674 0.238474 0.281499 0.024167 -0.228911 0.147545 -0.318743 -0.112605 0.277770 -0.353460 -0.310461 -0.044541 0.097331 -0.091055 0.159567 0.131150 0.047080 0.020749 -0.026280 0.083977 -0.042075 0.247792 0.241960 -0.269123 -0.156286 -0.143406 -0.027599 -0.066880 0.255345 -0.041240 -0.017204 -0.077900 -0.234188 -0.103778 0.048408 0.195694 0.165435 0.009783 0.020344 0.184589 0.009104 -0.141061 0.021660
sent_119 0.151830 0.361190 -0.048966 0.750174 -0.601790 0.037214 -0.031901 0.280186 0.003337 -0.223338 0.436073 0.173440 0.415094 0.024637 0.063611 0.138997 0.575739 0.371565 0.236717 0.053715 0.275868 -0.133736 -0.189712 -0.181339 0.050836 -0.316196 -0.133138 -0.084279 0.282439 0.364207 -0.093519 -0.067358 -0.027012 0.396508 -0.213270 0.007734 -0.041237 0.895937 -0.033472 -0.342600 -0.194012 -0.144245 0.081185 -0.235628 0.210306 -0.197510 0.127156 -0.080623 0.591596 -0.302211
sent_120 -0.157218 -0.174264 0.283697 -0.077110 -0.079126 -0.102054 -0.135015 0.007621 0.064559 0.253413 0.102319 0.168552 0.898881 -0.222668 -0.104657 0.492942 -0.494168 0.610322 0.329451 -0.390094 0.159079 -0.067499 -0.069459 -0.035022 -0.068666 -0.200013 -0.022142 0.610496 0.009473 0.348121 -0.657683 -0.867581 -0.543234 -0.248821 0.154394 -0.100688 -0.045365 -0.168653 0.175379 0.197282 0.283688 0.179541 -0.037785 0.407283 0.059365 -0.039505 0.085424 0.093126 -0.604438 0.158711
sent_121 -0.380729 -0.152897 0.159900 0.573058 -0.400292 0.048018 -0.088644 0.407903 0.006970 -0.019357 0.028113 0.177792 0.292287 -0.032881 -0.342837 -0.093963 -0.320994 0.315742 0.065763 -0.049275 -0.184038 0.187260 -0.539334 -0.328161 -0.245008 0.025288 0.392234 0.198299 -0.148355 -0.047762 -0.267520 -0.616808 0.390951 0.571565 0.195219 0.528966 -0.012725 0.405678 0.204568 -0.108084 0.048158 -0.095264 -0.430933 0.252212 -0.383911 0.088578 -0.184260 -0.345540 0.249319 0.236095
sent_122 -0.079274 0.146604 -0.490534 0.006516 0.407040 -0.306267 -0.178414 -0.675614 0.318331 0.172512 -0.220385 0.417072 0.471450 0.106121 -0.331751 0.323339 -0.757819 -0.613544 -0.059513 0.246667 -0.173520 0.080205 0.187522 0.216601 -0.060731 -0.463842 0.127970 0.122979 0.067900 0.492799 -0.081113 -0.638981 -0.302461 -0.304129 0.034577 0.126901 -0.317174 -0.535242 -0.166095 -0.191230 -0.257225 -0.099251 0.177689 0.085966 0.082089 0.260798 0.018114 -0.143910 -0.622782 -0.168078
sent_123 0.046031 -0.159734 -0.177381 0.309699 -0.296720 0.209406 -0.157938 -0.058808 -0.452574 -0.274532 -0.776951 -0.804498 -0.131781 -0.132307 -0.822138 -0.021045 0.487118 -0.027582 0.496414 -0.523717 -0.524084 0.339674 0.307552 -0.202206 -0.263527 -0.134452 0.644520 0.399170 0.245872 0.716724 -0.238227 -0.075511 0.050331 0.301418 -0.387549 0.366532 0.260389 0.145048 0.104001 0.829976 0.113379 0.275977 -0.523306 -0.052887 0.309392 -0.248609 0.039020 0.007064 0.426865 0.348303
sent_124 -0.085720 0.182880 -0.505036 0.154727 0.335687 -0.136068 -0.247973 -0.375560 0.405456 0.101803 -0.225896 0.138261 0.114656 0.061856 0.184918 0.019051 -0.150318 -0.147879 -0.395972 0.232270 -0.129594 0.035654 0.002976 0.132582 0.070719 -0.093456 0.054481 0.219256 0.138833 -0.227307 0.027002 -0.069735 -0.073480 0.075597 0.006369 0.099349 0.243262 0.163444 -0.135658 -0.047455 -0.147453 0.009099 0.019019 0.033403 -0.075659 0.257615 -0.135314 -0.205961 0.437243 0.010266
sent_125 0.220438 0.113025 0.263762 -0.056095 0.667518 -0.112953 0.144639 0.086435 -0.081587 0.184203 0.183480 0.194254 0.156191 0.122481 0.260365 -0.242728 -0.122872 0.283832 -0.581806 0.125880 0.406311 -0.403602 -0.377408 0.087662 0.336402 -0.501199 -0.124838 -0.008428 0.023774 0.020335 0.195583 0.113834 -0.558787 0.023459 0.233691 -0.044364 -0.173854 -0.531371 -0.479678 0.156915 0.396914 0.279440 -0.111245 0.582258 0.256257 0.430974 0.050795 -0.091073 -0.083342 0.049922
sent_126 0.078077 0.342604 0.178555 0.324785 0.093202 -0.190643 -0.195468 0.232103 0.095484 -0.287673 0.000015 0.014422 -0.011320 0.014206 0.177916 -0.129346 0.049479 -0.119687 -0.129817 0.389711 0.018861 0.254531 -0.385988 -0.531141 0.438577 -0.421762 -0.169894 0.022421 -0.353115 0.067116 0.202348 0.077265 -0.290071 0.254384 0.011012 -0.105864 0.151079 0.165932 -0.105769 0.002577 -0.072921 0.002610 -0.077065 0.329912 0.223567 0.152779 0.184301 0.066073 0.079382 0.040742
sent_127 -0.024053 -0.203324 0.291331 0.338369 -0.188707 -0.218451 -0.474481 -0.169737 -0.150948 -0.137092 -0.412136 0.209925 0.119440 0.119997 -0.126971 -0.501385 0.309418 -0.034007 -0.329744 -0.316045 -0.293884 0.114964 0.309760 -0.057745 -0.425131 -0.117009 -0.499059 0.428604 0.308095 -0.095985 -0.092106 0.250286 -0.210776 0.427455 0.329179 0.484789 -0.029584 0.292961 0.046326 0.259128 0.167927 -0.020345 -0.300676 -0.020987 0.308841 0.095131 -0.053974 -0.395862 0.834529 0.138994
sent_128 -0.843620 0.171775 0.257453 0.116099 -0.036379 0.274040 0.293640 -0.094229 0.903820 0.278015 0.765147 -0.067205 0.432265 -0.049232 0.235396 -0.241866 -0.323623 0.360669 0.207396 0.339435 0.093168 -0.284745 -0.103437 0.236889 -0.524331 0.523701 0.266463 -0.835652 0.162580 0.620992 -0.638896 -1.275841 0.270561 -0.084689 -0.062556 0.384568 0.516299 -0.088672 -0.271104 -0.601969 -0.329955 0.210159 0.085113 -0.096834 -0.757787 -1.113905 -0.561638 -0.430582 -0.463970 0.215631
sent_129 -0.117846 0.174385 0.261952 0.167375 0.272059 -0.307876 -0.283760 -0.462814 0.637997 0.419569 -0.124834 0.354444 0.351138 0.035451 0.163505 -0.142496 -0.306046 -0.143343 -0.312499 0.431768 -0.122895 0.194349 -0.144011 0.121848 -0.192585 0.081734 0.117658 0.489235 -0.084390 -0.298835 -0.279463 -0.445560 -0.205851 -0.105840 0.285348 0.319668 -0.002685 -0.037721 -0.232087 -0.294714 -0.231891 -0.279081 0.198069 -0.114542 0.044387 0.324717 -0.304305 -0.198588 0.166907 -0.245385
sent_130 -0.028820 -0.069646 -0.068023 0.231952 -0.196175 0.073611 -0.044710 0.204756 -0.054480 -0.243865 -0.412613 0.185685 0.101478 0.181592 -0.147818 -0.087595 0.202427 -0.008804 -0.063555 -0.210936 -0.306067 0.076031 0.247754 0.043185 -0.150909 -0.304194 -0.137458 -0.157268 -0.226675 -0.089287 0.291485 0.092626 0.185211 -0.016505 -0.233771 -0.490298 0.041564 0.131970 -0.081444 0.388640 -0.165842 -0.080053 -0.011310 -0.115966 -0.034791 -0.244963 0.064002 0.097707 0.080979 -0.042437
sent_131 0.008789 0.222782 -0.009870 -0.386871 0.009593 -0.138343 0.058339 -0.520781 0.184797 0.726087 0.438663 -0.186684 0.059085 -0.429562 0.160384 0.071521 -0.074927 -0.029832 -0.539986 0.389671 0.482944 -0.151244 -0.203017 0.463426 -0.132390 -0.046450 0.441473 -0.394863 0.398591 -0.255526 -0.188116 0.206523 -0.354101 0.037068 0.143962 0.644898 -0.129736 0.136583 -0.197228 -0.586473 0.143387 0.083977 0.197025 0.102901 0.249876 0.184877 -0.218875 -0.257620 0.278427 -0.070647
sent_132 -0.367349 0.331586 -0.694599 -0.062949 -0.264808 -0.120694 0.076891 -0.715002 -0.084672 -0.098154 -0.644159 -0.221719 -0.049233 -0.610868 -0.599334 -0.123924 -0.003946 -0.295441 0.382459 -0.156436 0.082346 0.461464 0.233739 0.038771 -0.233063 -0.373728 0.305793 0.043640 0.195889 0.623389 -0.286499 -0.445439 -0.279484 0.239892 0.080213 0.295543 -0.227971 0.475726 0.627738 -0.047003 0.077970 -0.204216 0.061611 0.305758 0.136577 -0.409273 0.037569 -0.378121 0.070285 0.158660
sent_133 -0.019713 0.202718 0.168161 0.248393 -0.071144 -0.005785 -0.206106 -0.163487 -0.080356 -0.326335 -0.350677 -0.180873 -0.026672 -0.379776 -0.177754 -0.080407 0.028966 0.220149 -0.043817 -0.435738 -0.190670 -0.029205 -0.109709 -0.196362 -0.416248 0.038854 -0.114606 0.356402 0.014573 0.046804 -0.322340 -0.074099 0.022521 0.216265 0.504178 0.095525 0.157090 -0.100660 0.108042 0.379237 -0.064716 0.063671 -0.404065 0.007530 0.231516 -0.473879 -0.163916 -0.236324 0.117688 -0.023110
sent_134 0.041448 0.222075 -0.102412 0.269564 0.345115 -0.064115 0.184108 0.251957 0.117204 -0.578977 -0.637537 -0.007899 -0.070042 -0.148584 0.064758 0.016091 -0.298091 0.243207 -0.177866 -0.534053 -0.067512 -0.051718 -0.195059 0.009494 0.160410 -0.651891 -0.281484 -0.554509 -0.124028 -0.045506 0.373574 0.049001 0.167845 0.082335 0.176633 -0.519169 0.237702 0.187706 -0.237340 0.641942 -0.009505 0.217504 0.124592 0.343549 -0.384736 -0.318330 -0.052143 0.126402 -0.274051 -0.071884
sent_135 -0.031993 -0.306593 -0.058639 0.029000 0.282000 0.089614 -0.209398 -0.168362 0.102836 -0.190573 0.106634 0.210268 0.216146 0.285137 0.291366 -0.538701 0.294296 0.407521 -0.227687 0.159135 -0.191889 0.052190 -0.137638 -0.362263 0.176931 -0.047861 -0.470385 0.254657 0.024764 -0.089944 -0.121994 0.261936 -0.322537 0.018919 -0.050155 -0.197262 -0.022462 0.181079 0.105186 0.053335 0.260352 -0.057826 0.071808 0.065079 0.268651 0.291790 -0.105590 -0.145073 0.546272 0.006911
sent_136 0.087132 0.222909 0.169513 0.023424 0.079955 0.147355 0.287108 0.279718 0.149960 0.250157 -0.121880 0.124498 -0.059699 -0.019747 -0.013444 -0.360203 -0.057243 0.020016 -0.407806 0.046702 0.220708 0.064372 -0.121654 0.640295 -0.106509 -0.170276 0.258086 -0.339993 -0.274160 -0.218330 0.330224 0.006100 -0.064957 -0.215662 -0.164812 0.024087 0.049694 -0.132419 -0.176117 0.124293 0.243986 -0.113946 0.025987 -0.393140 -0.323384 0.184518 -0.300961 -0.106953 0.013194 -0.049399
sent_137 -0.076791 0.032786 -0.127535 0.479075 -0.078886 0.099654 -0.406885 -0.004574 0.056107 -0.198741 0.285978 -0.104565 -0.029852 0.391036 -0.302778 -0.046873 0.341111 0.101533 -0.185221 0.130323 0.051019 -0.183465 -0.147413 -0.061729 0.201308 0.063605 -0.002044 0.142472 0.160640 -0.051271 -0.133710 0.392290 -0.072542 0.602957 -0.182411 0.006727 0.471722 0.368074 -0.032160 0.227365 -0.002806 0.224289 -0.209442 -0.143126 -0.212836 0.174789 -0.002779 -0.175128 0.543776 0.074424
sent_138 0.012595 0.404739 -0.376807 0.435512 -0.207121 -0.064206 0.006065 -0.128688 -0.080196 -0.772961 -0.597569 0.133593 0.068461 -0.340394 -0.546750 -0.345120 0.052042 -0.132953 0.208267 -0.337387 0.030106 0.131376 0.003611 -0.216779 -0.022623 -0.337943 0.043812 -0.486065 -0.105603 0.447415 -0.022974 0.077088 0.297165 0.315558 0.378284 0.267450 0.016493 0.148988 0.262300 0.126462 0.018249 0.050451 -0.153403 0.046391 -0.333429 -0.315168 -0.111766 -0.169716 -0.147480 0.021530
sent_139 -0.021454 1.046166 0.290090 0.788794 0.010507 0.428657 -0.019259 0.254442 0.435275 -0.136468 -0.421693 -0.085443 -0.117548 0.288022 -0.629673 -0.404032 -0.133001 0.278607 0.403325 -0.016666 -0.309099 0.402106 -0.602370 -0.472706 0.191325 0.213115 0.434788 0.048366 -0.402757 1.203174 -0.475129 -0.562837 0.369338 0.080318 0.160517 -0.087056 0.281795 -0.279439 0.273335 0.695089 -0.365592 -0.133751 -0.001419 0.038262 -0.478728 -0.661726 -0.644416 0.029388 -0.215814 0.346813
sent_140 0.083923 -0.001297 -0.343986 0.234914 -0.066835 0.239238 0.148371 0.230910 -0.323296 -0.338690 -0.404762 -0.281520 -0.096978 -0.168244 -0.131087 0.152848 0.436600 0.056816 0.427178 -0.569373 -0.036543 0.172332 0.098788 -0.273955 0.277157 -0.096165 0.217080 0.347905 0.104286 0.240946 0.126407 -0.051524 -0.075453 0.313686 -0.392690 -0.234237 0.017490 0.202899 0.363665 0.418036 -0.001307 0.112728 -0.346727 0.172717 0.163512 -0.146653 0.293078 0.241555 0.153672 0.253403
sent_141 0.357842 0.320306 -0.148503 0.377496 0.027520 0.068816 -0.085096 -0.207795 -0.047365 0.099192 -0.427607 0.169311 0.236878 -0.167845 -0.357980 -0.103983 0.363742 -0.134644 0.033634 -0.532718 0.116277 -0.003871 0.379886 0.073503 -0.059138 0.108564 0.194124 0.275460 0.335777 0.407863 -0.343937 0.195049 -0.027635 0.117695 0.162284 0.135856 -0.117369 -0.010496 0.427280 0.380557 0.333806 0.185389 -0.131845 -0.106521 0.254253 -0.019776 -0.022049 0.023559 0.038098 0.025427
sent_142 -0.018294 -0.213432 0.386501 0.091319 -0.211703 0.068672 -0.166978 0.409678 0.074581 0.002701 0.128425 -0.131765 0.326047 -0.278252 -0.146744 -0.101615 -0.059862 0.695942 0.281380 -0.200222 -0.110284 0.135123 -0.252019 -0.561729 -0.328014 0.074186 0.208943 0.057568 0.019537 0.201943 -0.468798 -0.306189 0.195178 0.075056 -0.081156 0.083253 0.114904 -0.070224 0.173885 -0.159156 0.104540 -0.002918 -0.010627 0.298454 -0.130553 -0.128389 -0.250384 -0.083062 0.053232 0.135261
sent_143 0.059042 0.069289 0.209143 0.120555 -0.253861 0.198886 -0.025438 0.006285 0.155260 -0.373868 -0.688585 -0.063387 -0.152389 -0.136186 -0.319203 -0.366768 0.050667 0.179283 0.473979 0.053620 -0.440521 0.585499 -0.427128 -0.552220 0.045472 -0.062729 0.165841 -0.066288 -0.413205 0.690440 -0.360535 -0.316981 0.168250 -0.193744 -0.202751 -0.093706 -0.016804 0.045986 0.261179 -0.068358 -0.184762 -0.460498 0.460770 0.139961 -0.108699 -0.223479 -0.128613 -0.037956 0.079516 0.071173
sent_144 -0.197843 -0.200244 0.100499 -0.071068 0.091958 -0.122708 -0.113815 -0.219234 0.259446 0.273708 -0.009981 0.038459 -0.009017 0.136968 -0.156877 -0.163218 -0.110016 -0.295553 -0.152179 0.258708 -0.106233 0.150456 0.135999 0.145847 -0.010054 -0.127144 0.044602 0.022782 0.023432 -0.092811 0.069795 0.039284 -0.270368 0.025686 0.012303 -0.009184 -0.275188 0.151094 -0.048564 -0.034108 -0.091289 -0.038691 0.090058 0.185417 0.152966 0.079127 0.132522 -0.074676 -0.107593 -0.022407
sent_145 0.119682 0.270607 0.200397 0.191650 -0.037504 -0.058141 -0.014025 0.303374 0.102008 -0.041946 0.226868 0.117712 0.121396 0.028840 0.212302 0.170106 0.060946 0.210175 -0.126672 -0.049258 0.056763 0.063964 -0.249846 -0.166912 0.010508 -0.126473 -0.190413 -0.184346 -0.121665 -0.169584 0.130647 0.160833 0.011293 -0.059162 -0.097425 -0.318071 0.032049 0.011329 -0.026010 -0.274905 -0.128145 -0.123951 0.151396 -0.042391 0.092305 0.029850 -0.009753 0.151271 0.021933 -0.349077
sent_146 0.035475 0.334724 0.401876 0.365402 -0.130719 -0.109133 0.123749 0.433741 -0.168622 -0.138625 -0.364067 0.114520 0.104227 0.118894 0.287859 -0.020608 0.394263 -0.159260 -0.192833 -0.127671 -0.009687 -0.046498 0.441229 0.240624 0.299294 -0.579544 -0.576275 -0.018404 0.026796 -0.058008 0.443014 0.133915 -0.022405 0.182008 0.139253 -0.464393 0.032639 0.381379 -0.505268 0.566800 0.011032 0.087295 0.038057 -0.051717 0.153695 -0.139677 0.236529 0.438304 0.302300 0.000158
sent_147 0.032331 -0.010591 0.379665 0.057068 0.132418 -0.294367 -0.102709 0.034253 -0.111871 -0.527349 -0.797969 0.068522 0.218219 -0.443272 0.063803 -0.055029 -0.005477 -0.020759 -0.000538 -0.042353 -0.534462 0.180894 -0.131992 -0.259802 -0.496348 -0.131237 -0.446896 0.746364 0.004446 -0.749969 -0.000122 0.325589 -0.100318 -0.176864 0.730726 0.318662 0.227659 0.120308 -0.219229 0.021754 -0.125594 -0.178369 -0.144834 -0.341569 0.096611 -0.023129 0.002915 -0.180872 0.654225 -0.226224
sent_148 -0.310791 0.271276 -0.284721 -0.110533 -0.204065 -0.238525 -0.013661 -0.301970 -0.011616 0.094596 0.067149 -0.126189 -0.143678 -0.188761 -0.296398 -0.362161 -0.085194 -0.435990 -0.056143 0.382146 0.077736 0.373869 -0.111493 -0.033779 -0.168526 -0.020575 0.288322 -0.095686 0.086489 0.199512 0.063739 0.022207 -0.215749 0.061659 0.042763 0.271769 -0.423075 -0.053632 0.301819 -0.299714 -0.020463 -0.153902 -0.049247 0.146484 0.060850 0.104770 0.036659 -0.209835 -0.110489 -0.060505
sent_149 -0.048183 0.768100 0.107568 -0.084158 -0.319392 -0.214828 0.156884 -0.203694 -0.249544 0.341388 0.453736 -0.306073 -0.323094 -0.110168 0.544694 0.103798 0.113868 0.078063 -0.024177 0.348933 0.511633 -0.036941 -0.022825 0.272937 -0.190421 -0.209438 -0.164566 0.396093 0.174819 0.196880 0.187223 -0.442219 -0.536383 0.189770 0.228956 0.122300 -0.234556 0.221998 -0.282550 -0.300953 -0.148745 -0.374590 0.125559 0.009629 0.584888 -0.225030 -0.331230 -0.080066 0.597470 -0.011090
sent_150 0.286923 0.315037 -0.028332 0.232348 0.141370 0.001843 -0.035160 0.167786 0.127141 -0.146886 -0.185144 0.096675 0.299670 -0.004939 0.083962 0.188223 0.089407 -0.040823 0.002197 -0.199804 0.081759 -0.205300 0.097257 0.092865 0.191212 -0.076507 -0.149678 0.186168 0.112987 0.161596 0.202947 0.138611 0.189170 -0.026350 0.183675 -0.256689 0.239441 0.078866 -0.242121 0.133457 0.026691 0.146659 0.205226 -0.051154 0.075212 0.303196 0.124892 0.244978 -0.115609 -0.332107
sent_151 0.056767 0.396741 -0.135981 -0.380879 0.077953 0.210126 0.232557 -0.374728 -0.147198 0.400954 0.142885 -0.291557 -0.055114 -0.274625 0.172743 0.398202 0.065619 0.458489 0.282815 0.223183 0.458249 -0.387486 -0.485559 -0.126541 0.081513 -0.440637 0.254389 0.145652 -0.369073 0.195414 -0.329747 -0.299639 -0.457663 -0.019366 -0.079980 0.038445 -0.006520 0.193386 0.050742 -0.305915 -0.020887 -0.401995 0.135186 0.492243 0.600789 -0.346485 -0.127908 -0.153360 0.459479 0.275596
sent_152 -0.452176 0.256466 0.177586 0.305288 0.325342 -0.389305 -0.023982 -0.000035 0.045185 -0.265213 -0.047400 0.243598 -0.116047 0.153912 0.641692 0.296183 0.035499 -0.269733 -0.481529 -0.321502 0.104168 -0.120113 0.038279 0.374488 -0.213546 -0.531776 -0.743015 -0.050856 0.093992 -0.679800 0.248156 -0.197481 -0.200023 0.138642 0.235078 -0.391206 -0.189087 0.535042 -0.600800 0.226051 -0.141145 0.303449 0.121385 0.642451 0.069339 -0.386077 0.327577 0.066345 -0.116011 -0.259777
sent_153 -0.132594 0.144635 -0.154570 0.279579 0.213698 0.436592 -0.108195 0.038504 0.086066 -0.185654 -0.391113 -0.032946 0.083498 0.179382 -0.305035 -0.705360 0.344214 0.311943 -0.042296 -0.306247 -0.035839 -0.105179 0.168617 0.251589 0.303312 0.223849 -0.182334 0.502768 0.311439 0.384947 -0.012254 0.278789 -0.198045 0.392289 0.349422 -0.225838 0.407643 0.107281 0.292558 0.638284 0.219257 0.051826 -0.238730 -0.284508 -0.348198 0.035368 -0.003666 -0.212756 0.544428 0.196082
sent_154 -0.054707 -0.409914 0.153236 0.089462 -0.207409 -0.171848 -0.200935 0.484901 -0.303141 -0.560291 0.199564 0.035393 -0.149262 0.201570 0.148744 -0.355879 0.096756 -0.063237 0.166635 -0.119026 -0.150102 0.051215 0.282496 -0.511313 0.140932 0.066693 -0.765271 0.301768 0.212335 0.168295 0.159161 0.221876 -0.095642 0.205121 0.302293 0.123018 -0.287071 0.391203 0.004086 -0.034522 0.042302 0.263464 -0.252089 0.339495 0.115987 0.004633 0.321251 0.063686 -0.057346 0.079549
sent_155 0.081893 -0.256270 0.396649 0.037528 -0.078214 0.177459 0.231566 0.416486 -0.222188 -0.225968 -0.406943 0.097722 -0.014097 -0.056311 0.031762 -0.250150 0.157079 0.084186 0.035319 -0.260127 -0.205169 -0.017097 0.196722 0.078544 -0.066754 -0.033982 -0.417986 0.155765 0.096597 0.148825 0.161551 -0.185447 0.106214 -0.250918 0.115238 -0.163399 0.076242 0.036308 -0.235667 0.558848 -0.012470 0.157167 0.155180 -0.270427 -0.098353 -0.249779 -0.007016 0.079129 -0.041138 -0.084971
sent_156 0.350789 0.305379 0.297401 0.313202 0.062450 0.273622 -0.151310 0.091627 0.229723 0.023990 0.079581 0.099049 0.011786 0.395713 -0.243107 -0.107133 0.167423 0.127845 -0.139534 0.061237 -0.178938 -0.170749 0.025000 0.137912 -0.241161 0.060388 -0.065673 0.364937 0.009942 0.363054 -0.155585 0.129183 0.088105 -0.213015 0.238061 -0.203647 -0.125797 -0.124948 -0.217260 0.195274 0.093385 -0.071300 0.108108 -0.430816 0.162628 0.142889 -0.224490 -0.068069 0.238252 -0.257644
sent_157 0.361207 0.087837 0.161846 0.369082 -0.169031 0.383946 -0.080211 0.110669 0.274744 -0.660432 0.269167 0.257969 0.055798 0.299553 -0.058311 -0.002304 -0.077997 0.374992 -0.103149 0.233088 -0.145070 0.166912 -0.252887 -0.230473 0.381023 -0.482144 -0.107573 -0.338632 -0.001569 0.463515 -0.115916 0.240486 -0.218836 -0.162623 0.041544 -0.086810 -0.566977 -0.086367 -0.398766 -0.458329 0.050276 -0.082633 -0.049665 -0.085138 -0.144765 0.181876 -0.254773 -0.002718 0.066252 -0.077516
sent_158 -0.072279 0.026921 0.014673 -0.059563 -0.122769 0.161963 0.283479 0.000049 -0.062513 -0.068802 0.021294 -0.111841 -0.245841 -0.233178 -0.281801 -0.269378 -0.050701 -0.007944 0.052662 0.161830 -0.026984 0.203885 0.006406 0.067406 -0.383515 0.012280 0.192441 -0.338696 -0.084734 0.027290 0.024989 0.000424 -0.128380 -0.187094 0.174444 0.437041 -0.285419 0.154662 0.197396 -0.247510 0.082015 -0.122487 -0.278851 -0.347020 -0.049038 -0.440066 -0.240162 -0.239847 0.019015 -0.121054
sent_159 0.019279 0.264581 0.202012 0.223327 0.098355 -0.230798 -0.040412 0.081568 0.116733 0.148768 -0.167817 -0.153695 0.174513 0.067980 0.149904 0.015784 0.222835 0.060481 -0.354970 -0.159694 0.065999 0.046578 0.070929 0.305785 -0.124441 -0.521688 -0.144631 -0.061328 -0.126532 -0.241998 0.292401 0.141601 -0.109805 0.210260 -0.204597 -0.262414 0.087592 0.209857 -0.336799 0.478277 0.252121 0.154827 -0.099002 0.232731 0.165070 -0.042006 -0.060761 0.151157 0.191825 0.102730
sent_160 -0.159483 0.382019 0.127071 0.511404 0.101011 -0.075840 -0.030941 0.008151 0.198787 -0.388101 -0.197689 0.074500 0.060964 0.222205 0.212948 -0.146706 0.190942 0.005969 0.164660 0.066413 -0.150113 -0.005169 -0.229168 -0.221036 -0.188299 -0.666836 -0.462468 -0.247251 -0.190572 0.055873 0.304468 -0.060155 -0.304136 0.143772 -0.079338 0.133573 0.014089 0.421300 -0.518052 -0.381922 -0.582913 -0.196985 0.013883 0.195921 0.342452 -0.398182 -0.039667 -0.091709 0.411865 -0.150249
sent_161 0.213766 -0.153493 0.160456 -0.126347 0.253732 -0.065164 -0.052230 -0.419197 0.119989 -0.235215 0.276063 0.334795 0.242981 -0.076479 -0.054904 0.182125 -0.380651 0.178391 -0.190949 0.503617 0.087300 -0.710390 -0.057814 0.241456 -0.079076 -0.086818 -0.323749 0.333863 0.166664 0.060055 -0.250091 -0.137926 0.095475 -0.156121 0.475988 0.409102 0.214077 -0.233840 -0.428388 -0.259114 0.069410 -0.046803 0.185396 -0.372993 0.106351 0.394604 -0.066332 -0.521558 0.280456 -0.296583
sent_162 -0.203091 0.054957 0.043207 0.087385 0.092870 -0.168683 -0.052145 0.075507 0.285232 -0.073002 -0.217372 -0.163070 -0.092999 -0.179329 0.097890 0.066612 -0.150148 -0.392711 -0.087430 -0.199984 -0.120943 0.049739 0.179619 0.211760 -0.072311 -0.070266 0.036626 -0.053056 -0.086379 -0.464474 0.105032 0.091453 0.179606 0.208074 0.034979 -0.023909 0.001224 0.275256 -0.352023 0.101268 -0.070468 0.031900 -0.123463 0.353516 -0.173597 0.101092 0.344894 0.189411 -0.056406 -0.103162
sent_163 -0.011917 -0.071803 -0.128069 0.377634 0.180591 -0.302687 -0.147245 0.090742 0.434374 -0.176966 -0.088802 -0.086184 -0.154986 0.016360 0.247865 0.189499 -0.163520 -0.199843 -0.168232 0.077487 -0.271006 0.452863 -0.155945 -0.328810 0.209253 -0.175063 0.070753 -0.087396 -0.094455 -0.459090 0.129502 0.091577 -0.032085 0.251065 -0.204142 0.001620 -0.030274 0.385991 -0.100351 -0.226647 -0.206280 0.194545 -0.210900 0.303530 -0.003913 0.088228 0.112528 0.144890 0.022963 0.036503
sent_164 -0.078948 -0.370400 -0.039025 0.223346 0.049879 -0.019387 -0.321822 -0.202489 -0.215819 -0.086244 -0.069459 0.120446 0.389331 0.134939 -0.253234 0.089628 0.335514 -0.072660 0.044290 -0.075047 -0.315453 -0.012548 0.167777 -0.334598 0.118672 0.011630 -0.241104 0.368713 0.297050 0.207643 -0.141008 0.236598 -0.164068 0.196791 0.215812 -0.158751 0.171552 -0.025446 0.260403 0.046140 -0.027675 0.263078 -0.229799 -0.029155 0.361445 -0.201558 0.402845 0.027720 -0.238323 -0.134669
sent_165 0.199318 -0.400386 0.208593 -0.135869 0.091725 0.021182 -0.345996 -0.181624 -0.037682 0.275455 0.422280 0.257584 0.155807 0.238983 0.456818 -0.174529 0.073261 0.672265 -0.372296 -0.194558 0.196707 -0.321336 -0.352183 0.092347 -0.338348 0.268809 0.069274 0.155651 0.143311 -0.514219 -0.797891 -0.152898 -0.279814 0.049155 0.062029 0.778300 -0.138939 -0.222387 -0.260691 -0.116100 0.269204 0.176406 -0.101150 0.297934 0.003957 0.155988 -0.676953 -0.284786 0.515493 0.486598
sent_166 0.008869 0.150080 0.026518 0.146925 -0.182114 -0.311564 -0.454433 -0.104126 0.304797 0.118313 0.512960 0.016367 0.208510 0.222329 0.013920 0.342132 -0.520959 0.026117 -0.128614 0.305392 -0.102815 0.130465 -0.407084 -0.387413 -0.226972 -0.249504 0.050379 0.131285 -0.215313 0.162459 -0.322911 -0.406629 0.117516 0.280799 -0.191569 0.328082 -0.154232 -0.095076 -0.112793 -0.423097 -0.146708 0.006526 -0.026920 0.506062 0.103485 0.122053 -0.274563 -0.122375 0.019466 0.312449
sent_167 -0.351090 -0.450749 -0.059090 0.142880 -0.686482 0.032691 -0.277132 -0.066602 -0.354928 -0.298430 -0.389834 -0.744108 0.210733 -0.645669 -0.936652 0.407799 0.172612 -0.078983 0.447128 -0.951062 -0.324956 0.083925 0.601538 -0.178299 -0.563724 -0.129348 0.489750 0.126892 0.206746 0.069092 -0.397271 -0.016278 0.114513 0.688776 -0.219112 0.258309 0.141623 0.395515 0.378775 0.887103 -0.027281 0.443731 -1.015819 0.371508 0.267720 -0.643919 0.495473 -0.006060 0.034594 0.285105
sent_168 -0.102084 0.380756 -0.156027 -0.165888 0.072303 0.078715 0.245922 0.057526 -0.226653 0.243611 0.368788 0.005220 0.170683 0.073991 0.231939 0.182895 0.134555 0.335431 0.302056 0.462232 0.265423 -0.312783 -0.260993 0.022081 0.200077 -0.125377 -0.065818 0.274748 0.110415 0.352411 -0.202235 -0.320573 -0.210364 -0.170341 0.353622 -0.452743 0.265035 0.094234 -0.130169 -0.137749 0.067864 0.026099 0.168636 -0.067937 -0.144254 -0.379555 0.142213 0.018288 -0.003321 0.019990
sent_169 -0.143147 0.030915 0.082794 -0.177996 0.024866 -0.315690 -0.099259 0.130126 0.040374 -0.058203 0.387905 0.462992 -0.202802 0.100832 0.186630 -0.083188 -0.516357 -0.306049 -0.353204 0.297884 0.045540 0.167908 0.034671 0.001227 0.071622 0.084673 -0.425795 0.188673 -0.198293 -0.334659 0.323111 -0.210918 0.032843 -0.161604 0.311713 0.077497 -0.518551 -0.137118 -0.005532 -0.183644 -0.288040 0.097557 0.091312 0.161407 -0.025561 0.426010 -0.028136 -0.063009 -0.419168 -0.254665
sent_170 -0.049022 -0.499104 0.036982 -0.182958 -0.449169 0.401927 0.065374 -0.008998 -0.148189 0.096890 0.279400 -0.487919 0.012665 -0.171495 -0.501151 -0.134031 0.074454 0.502773 0.168904 0.267045 -0.013114 -0.129433 0.164630 -0.067557 -0.101650 -0.110049 0.253290 -0.080714 0.141367 0.456526 -0.182335 0.097012 -0.185474 0.229751 -0.247345 -0.038317 0.123109 0.592403 0.296453 0.140646 0.524772 -0.181092 -0.309729 -0.230915 -0.045236 -0.330020 0.070839 -0.396101 0.500829 0.531617
sent_171 -0.213387 -0.440826 -0.034188 -0.007008 -0.013658 0.155193 -0.221481 -0.030289 0.101249 0.435933 0.179223 0.124575 -0.014478 0.189928 -0.274745 -0.071492 -0.228350 -0.265969 -0.342384 -0.126484 -0.158760 0.215268 0.339701 0.140871 -0.180927 0.263069 0.024885 0.157060 0.206254 -0.031735 0.193214 0.037774 -0.302116 0.059018 -0.048108 0.273897 -0.397881 0.066267 0.279607 -0.128326 -0.072837 0.111257 -0.204423 -0.013794 0.225785 0.228187 -0.009982 -0.174572 -0.251691 -0.113922
sent_172 -0.005710 0.223868 0.149500 0.164133 -0.076149 -0.124817 -0.093585 -0.005605 0.046754 0.144073 -0.100070 -0.107711 0.048715 0.171930 0.001486 0.026182 0.182062 0.019830 0.247158 0.091131 -0.060631 -0.035307 -0.105386 -0.152848 -0.148668 -0.201499 -0.056956 0.113091 -0.209292 0.110397 -0.078132 -0.089079 0.075479 0.129440 -0.149360 -0.320452 0.166486 0.067727 -0.120382 0.040854 -0.093453 -0.288766 0.122390 0.205912 0.130263 -0.272279 0.018910 0.051835 0.166284 0.056822
sent_173 -0.335152 0.054533 0.448765 0.564000 -0.528766 -0.043370 -0.120064 0.355332 0.135795 0.290221 -0.141261 0.151178 0.424123 0.126819 0.014799 -0.188765 0.062318 0.098404 0.052379 -0.093111 -0.315162 0.610508 0.149336 -0.097588 -0.144269 0.020219 -0.038349 0.078456 -0.025301 0.277094 -0.001091 -0.556627 -0.041668 0.213052 -0.055611 0.120682 0.007775 0.291375 0.375806 -0.223009 -0.082275 -0.395831 -0.225539 -0.113111 0.085894 -0.432088 -0.121807 -0.045102 0.059137 0.090283
sent_174 -0.196509 0.447244 0.565745 0.633825 0.135846 -0.054045 -0.097554 0.220037 0.606791 0.062722 -0.123990 -0.051120 -0.138934 0.330906 0.076753 -0.229160 -0.296394 -0.107366 0.031407 0.195371 -0.419359 0.456244 -0.037477 -0.253363 0.253570 0.004548 -0.192644 0.155630 -0.170524 0.166004 0.038183 -0.085050 0.036075 0.205795 0.273000 -0.165153 -0.127397 -0.084756 -0.202183 0.211001 -0.251035 -0.208608 -0.322251 0.186411 -0.226663 -0.251578 -0.108715 0.181895 0.027077 0.224180
sent_175 0.265489 -0.110719 -0.041740 0.424921 0.019153 -0.135017 -0.109931 -0.058023 0.081382 -0.007191 -0.390886 -0.047079 0.056460 0.361251 -0.050886 0.370772 0.029612 -0.056996 0.120555 0.298683 -0.401129 0.313541 -0.186541 -0.421665 0.279484 -0.553126 0.088962 -0.236669 -0.193298 0.096167 0.242828 0.050595 0.092047 0.005243 -0.384709 -0.645939 0.149480 -0.111136 -0.296615 -0.074221 -0.252794 -0.307165 0.240691 -0.008195 0.047054 -0.255341 -0.084411 0.201873 -0.139820 0.013870
sent_176 0.149795 -0.427740 0.324240 -0.302704 0.460082 0.261221 0.095017 0.274232 -0.299490 0.272890 0.475433 -0.425120 0.204136 0.076781 0.300673 0.175327 0.574627 0.489679 0.122935 -0.476815 0.058462 -0.564549 0.508399 -0.300276 -0.004867 0.572630 -0.130309 0.233896 0.337933 0.061157 -0.454917 0.305160 0.226435 -0.373376 0.299924 -0.619270 0.325182 -0.762736 -0.194719 0.296718 0.532670 0.613121 -0.407599 -0.090595 0.212991 -0.357962 0.101309 0.504270 -0.584821 -0.063826
sent_177 -0.045221 0.146524 -0.012452 0.542530 -0.169947 0.021952 -0.337672 0.288973 0.427731 -0.135110 -0.548556 -0.011093 0.073356 -0.071490 -0.436944 -0.484222 -0.130857 -0.106694 -0.140765 -0.246280 -0.167179 0.368695 -0.532858 -0.084171 -0.054993 -0.215949 0.084364 -0.045621 -0.097654 0.268984 0.176307 0.176581 -0.164406 0.427171 0.013783 -0.059117 -0.114270 0.379351 -0.185410 -0.003026 -0.374814 -0.094171 0.270207 0.416167 -0.234214 0.014089 0.198532 -0.160770 -0.134261 -0.211717
sent_178 -0.218459 -0.421307 0.686393 0.202366 -0.260140 0.076967 -0.061842 0.350170 0.115751 -0.034814 -0.414717 -0.157733 -0.119049 0.027826 -0.175637 -0.468318 -0.316421 0.295474 0.242009 -0.025336 -0.489892 0.528866 -0.260177 -0.695315 0.035184 -0.333439 0.073648 -0.236504 -0.133687 0.509490 -0.166415 -0.433236 -0.250948 0.171216 -0.451925 0.212830 -0.371208 -0.289473 -0.063464 -0.109555 -0.300845 -0.501602 0.025445 0.555115 0.091874 -0.187927 0.068560 0.063789 0.349455 0.603401
sent_179 0.057772 -0.159916 -0.390470 0.052068 0.286396 -0.144340 -0.236616 -0.604458 0.068616 -0.258170 0.629387 -0.391038 -0.209392 0.303969 0.364659 0.280300 0.597113 0.299885 0.640539 0.429327 -0.054815 -0.454230 -0.403862 -0.916167 -0.024130 0.314863 0.020399 0.392354 0.016754 0.397776 -0.594024 -0.407889 0.357008 0.085635 -0.032334 -0.381951 0.428980 0.218209 -0.243693 -0.311578 -0.311115 0.324005 0.325811 0.349909 0.504152 -0.521283 -0.199172 -0.032369 -0.258554 -0.198218
sent_180 -0.148853 0.197109 0.421420 -0.138134 0.452448 -0.364331 -0.217169 -0.453369 0.344120 0.165040 -0.331317 -0.460160 -0.199244 -0.212691 0.131378 0.497995 -0.434491 -0.113429 -0.150973 -0.049327 -0.357855 0.103521 -0.364445 0.037157 -0.272134 0.098762 -0.183922 0.910007 -0.122534 -0.469832 -0.006213 -0.109067 -0.132091 0.026257 0.477685 0.005108 0.130405 -0.024769 -0.293773 0.254948 -0.153764 -0.135078 0.047304 0.454316 0.546922 0.201458 0.033875 -0.056977 0.000355 -0.328289
sent_181 0.059365 -0.049897 -0.212300 0.280819 -0.163716 -0.044708 0.038852 -0.300890 -0.067255 0.009553 -0.341862 -0.452356 -0.033228 0.043707 -0.245337 -0.290867 0.642828 -0.120557 0.290268 0.280818 -0.308813 0.673123 -0.353547 -0.559503 0.170104 -0.169171 0.457301 0.217844 -0.080100 0.477531 -0.008199 -0.074285 -0.042813 0.179018 -0.415980 -0.190602 -0.099187 0.278301 0.269038 -0.041234 0.041240 -0.036760 0.053546 0.098503 0.507596 -0.188311 -0.047657 0.059156 -0.098427 0.093504
sent_182 -0.318376 -0.337919 0.724319 0.659113 -1.104773 0.021429 -0.292981 0.745470 0.097141 0.265048 0.360251 0.278208 0.356785 -0.211153 0.000777 0.938796 -0.595642 0.617603 0.005962 0.228959 -0.214652 0.397226 -0.424795 -0.590026 0.085324 0.623957 0.017325 0.013271 -0.031717 0.119038 -0.506228 -1.092074 1.089219 0.654946 0.266331 0.313578 0.505618 0.899626 0.533857 -0.395443 -0.230738 -0.114891 0.112264 -0.123390 -0.571388 -0.415416 -0.187545 -0.146695 0.109625 0.352931
sent_183 0.053009 -0.002306 -0.180526 0.318552 0.036886 -0.163936 -0.177696 -0.045799 0.189235 -0.075825 0.318321 -0.080886 0.062578 0.169188 0.323135 0.100680 0.084183 0.141961 0.058740 0.374129 -0.158707 0.196771 -0.247092 -0.576421 0.374993 0.136328 -0.112979 0.115123 0.365829 0.362423 0.004405 -0.064237 -0.025517 0.103604 -0.029620 -0.151611 0.055931 -0.053483 0.070096 -0.426412 -0.211032 0.032145 0.045922 -0.088877 0.232705 -0.010813 -0.015864 0.057338 -0.002916 -0.114932
sent_184 0.361984 0.407212 0.107594 0.685146 0.620078 0.125327 0.202415 0.322525 0.217739 -0.561500 -0.825487 0.500941 -0.515870 0.329030 0.045609 -0.121902 -0.320868 -0.290904 -0.193540 -0.358838 -0.244994 -0.108315 0.092398 -0.059337 0.351952 -0.555513 -0.534233 -0.698395 -0.068342 0.393509 0.537328 0.023085 0.083801 -0.302657 0.110720 -0.474694 -0.074842 -0.556158 -0.462172 0.276931 -0.620492 -0.181074 0.217623 0.044609 -0.300243 -0.506000 -0.046632 0.188406 -0.282961 0.060205
sent_185 0.153831 -0.016330 0.234319 0.895543 -0.127131 0.481640 -0.204320 0.045414 0.493861 -0.599774 -0.069127 0.681682 0.275295 0.491973 -0.382828 -0.643134 -0.118949 0.571457 -0.057675 -0.501128 -0.099410 -0.349667 0.279214 0.389581 0.063113 -0.028461 -0.340205 0.152083 0.206915 0.736220 -0.186108 -0.185182 -0.240556 0.434657 0.412261 0.182437 0.029791 0.084957 -0.070251 0.345199 0.053566 -0.101058 -0.462205 -0.353302 -0.379699 -0.006736 -0.255333 -0.569267 0.410892 0.136735
sent_186 0.162913 0.506094 0.746063 0.778852 -0.019876 0.118603 0.323932 0.189184 -0.012650 0.028966 -0.387002 -0.029300 -0.003512 0.184038 -0.063820 -0.256608 0.466933 0.157235 0.373412 0.180434 -0.387110 0.392802 -0.601991 -0.471531 -0.118468 -0.659992 0.359699 -0.299201 -0.214903 0.414164 -0.245313 -0.198430 0.020451 0.024960 -0.007893 0.153023 -0.229362 -0.288011 -0.455663 -0.229268 0.034722 -0.587665 -0.288106 0.160033 0.166420 -0.758499 -0.258916 0.028250 0.332192 0.107175
sent_187 -0.140289 0.449618 0.114286 -0.811864 -0.306007 0.074912 0.569779 -0.060005 -0.303917 0.801749 0.977087 -0.229509 0.185111 -0.520205 0.032345 0.489176 0.084187 -0.000441 0.091360 0.637956 1.102453 -0.931121 0.146301 0.922679 0.297676 0.027077 0.562714 -0.057337 0.254513 0.034740 -0.559069 -0.324244 -0.195776 -0.045908 0.096619 0.290356 -0.046711 0.222062 -0.340132 -0.169265 0.102500 0.265804 0.354342 -0.268499 -0.143218 0.043443 0.342093 0.140360 0.223960 0.082105
sent_188 0.040422 0.116597 0.247465 0.100511 -0.038388 -0.067192 -0.323108 0.286453 -0.075903 -0.086896 0.734041 0.060776 0.446946 0.289827 0.273957 0.064438 0.361830 0.242602 -0.141707 0.051913 0.092948 -0.056647 -0.138861 -0.569677 0.175650 0.044340 -0.343203 0.069038 0.035114 -0.044069 -0.163754 0.332481 -0.027490 0.186244 0.059847 -0.228762 0.217234 -0.127882 -0.044501 -0.432550 0.174964 0.141893 -0.172628 0.206803 0.201134 0.128387 0.167070 0.225629 -0.072221 -0.234340
sent_189 0.222214 0.369546 0.014762 -0.461312 0.251501 -0.016806 0.153953 -0.359353 -0.177605 0.536525 0.241856 0.317819 0.071147 -0.201304 0.271959 -0.321978 0.295630 0.104646 -0.645822 0.043276 0.864359 -0.537312 -0.003066 0.828508 -0.042143 0.082807 0.052684 0.003470 0.098350 -0.338705 -0.240298 0.223866 -0.255363 -0.200533 0.469922 -0.031750 0.082893 0.077700 0.023311 0.332078 0.669586 0.124707 0.345278 -0.070382 0.068672 0.269732 -0.203094 -0.265772 0.100151 -0.177416
sent_190 -0.013853 -0.403232 0.255989 0.279595 -0.209126 0.451715 -0.043845 0.144485 -0.015616 0.244961 0.595944 0.097311 0.277258 0.515401 0.023373 0.065618 0.416295 0.613709 0.335377 0.480205 0.027068 -0.161816 -0.073184 -0.135947 0.358851 0.376795 0.112543 0.037180 0.343447 0.511655 -0.252262 -0.373596 -0.255782 0.019963 -0.263221 -0.190805 0.255806 0.241221 0.122195 -0.081618 -0.279468 0.074550 0.181054 -0.480736 0.062827 -0.350808 -0.085861 -0.049303 0.003981 0.022257
sent_191 0.269149 0.677210 0.226548 0.394495 -0.146010 0.315098 0.161328 -0.123038 0.031911 -0.566361 -0.033254 0.187213 0.641377 0.190729 -0.002389 -0.315696 0.349594 0.550833 0.024875 -0.054149 0.034599 -0.179380 0.204979 0.125247 0.475774 -0.424658 -0.494198 -0.007431 0.104215 0.972394 0.141797 0.173714 -0.059960 -0.088927 0.263661 -0.582797 0.519976 -0.362774 -0.321512 0.155002 0.214091 -0.188859 0.075192 -0.812154 0.014612 0.219040 -0.296078 0.094485 0.401256 -0.479245
sent_192 -0.196125 0.692727 -0.359960 -0.540175 -0.116927 0.231303 -0.236727 -0.492587 0.405939 0.691730 0.377683 -0.196235 0.281722 0.153240 0.180612 0.402961 -0.110393 0.378440 0.287724 0.280994 0.518065 -0.368512 0.174400 0.158083 -0.237265 0.070472 0.031309 0.106475 -0.403750 0.360026 -0.349137 -0.469062 -0.416701 -0.230301 -0.437149 -0.468067 0.480963 -0.124118 0.178229 -0.523718 -0.593456 -0.798039 0.435334 -0.093561 0.219945 -0.373461 -0.453617 -0.011395 0.701968 0.110634
sent_193 -0.086470 -0.043364 0.118597 -0.211240 -0.007066 0.140278 -0.424071 -0.224261 0.098951 0.007667 0.371677 -0.237713 0.031161 0.389787 -0.061499 0.102788 -0.223184 0.195959 -0.105568 0.119165 0.050641 -0.258545 0.074076 -0.029469 -0.000265 -0.011183 -0.212869 0.280345 -0.136770 0.262126 -0.045808 -0.050766 -0.288909 0.243457 -0.242290 0.094353 0.116786 -0.293182 -0.295199 -0.056720 -0.127325 -0.144461 0.007100 0.297257 0.239053 0.367241 -0.225671 -0.084915 0.416422 0.205137
sent_194 -0.013796 0.182614 0.164100 0.144802 0.181303 0.178007 0.049646 0.288052 0.003714 -0.209192 -0.265107 -0.166795 -0.099779 0.072907 -0.209796 0.034466 -0.029912 -0.066404 0.071247 -0.052600 -0.157661 -0.053206 -0.172633 -0.156730 0.272385 -0.276371 -0.115726 0.003452 -0.129638 0.232185 0.284995 0.115833 -0.097491 0.030088 0.000614 -0.311363 0.205156 -0.096438 -0.356384 0.247367 -0.297200 -0.066196 0.129490 0.207748 -0.092842 -0.088342 0.215580 0.178416 -0.093064 -0.110517
sent_195 -0.187049 0.196844 -0.148595 -0.405788 0.036021 0.177190 0.330128 -0.115189 -0.005204 0.303979 -0.132947 -0.085073 -0.409948 -0.303051 -0.537609 -0.414349 -0.239210 -0.493202 -0.053860 0.150800 0.302092 0.112684 0.219699 0.603779 0.049209 0.222292 0.463525 -0.090783 -0.123739 0.187416 0.269009 0.013298 -0.464738 -0.056256 0.051879 0.277988 -0.172357 -0.112879 0.317680 0.234843 0.137328 -0.056176 -0.094211 -0.310131 -0.279196 0.139074 0.195363 -0.200440 -0.359253 0.059900
sent_196 -0.124224 -0.317594 0.102949 0.009505 -0.086373 0.010055 -0.022198 -0.144295 -0.410991 -0.121656 0.259559 0.151964 -0.308690 0.483649 -0.419737 -0.361042 0.066307 0.019615 0.024881 0.775540 -0.286930 -0.005898 -0.202215 -0.168707 0.007440 -0.082214 -0.083234 0.696591 0.092799 -0.013087 0.184022 0.192943 -0.442100 0.243859 0.552836 0.150961 -0.490203 0.284626 0.028672 0.228627 0.015312 -0.048430 -0.482253 -0.181726 0.052441 0.157942 0.178203 -0.473204 0.607837 0.165652
sent_197 -0.052427 0.142262 0.020981 -0.363366 0.068977 0.259507 0.105050 -0.240043 0.250264 0.571717 0.052848 0.147698 -0.028091 -0.101038 -0.383244 -0.397982 -0.147879 -0.134450 -0.674778 0.210233 0.281437 -0.039380 0.010316 0.921019 -0.194653 0.263103 0.596057 -0.247352 -0.088722 -0.170701 -0.071380 0.198437 -0.192837 -0.256142 0.017304 0.269013 -0.211721 -0.226860 0.042886 0.070490 0.370297 -0.131048 0.042176 -0.447937 -0.293012 0.422533 -0.174216 -0.258676 0.026539 -0.193986
sent_198 -0.032275 0.104477 0.045862 0.224934 -0.088644 0.102134 0.035723 -0.332071 0.277339 0.046526 0.727428 -0.124386 0.074450 0.203297 0.220756 0.402203 0.139794 0.278376 0.194164 0.408150 0.131589 -0.478839 0.206478 -0.114118 0.081714 0.085142 -0.271556 -0.159792 0.275315 0.473501 -0.210713 -0.226426 0.072110 0.070214 0.004837 -0.133831 0.078627 0.159604 -0.228413 -0.448298 -0.302220 -0.054268 0.158438 -0.312024 0.421931 -0.378760 -0.146797 -0.044203 0.153899 -0.137670
sent_199 0.161792 0.066716 0.051082 0.440512 -0.128216 0.186886 0.245373 0.131705 -0.337220 -0.522819 -0.497839 0.124045 -0.005297 0.165386 -0.244658 0.009588 0.372170 -0.047798 0.181985 -0.220639 -0.312114 -0.056607 0.201811 0.197459 0.278742 -0.346831 -0.151925 0.156378 -0.002336 0.510407 0.162504 -0.193794 0.443817 -0.057030 0.146983 -0.800550 0.388284 -0.040468 -0.312439 0.885868 0.311663 0.102501 0.020322 -0.460266 -0.306905 -0.270561 0.084298 0.139515 -0.266564 -0.204508
sent_200 0.120183 0.044696 0.082657 0.529323 0.116698 0.053356 -0.140096 0.173877 0.386614 0.266980 0.161374 -0.131393 -0.075706 0.114802 -0.037139 0.246960 -0.146686 -0.133973 -0.161230 0.241197 -0.074005 0.093280 -0.001967 -0.000403 0.499142 0.590536 0.001256 0.334834 0.531330 0.398211 0.157697 -0.093205 -0.099442 0.289196 0.236688 0.056623 0.322300 0.243504 0.141742 0.108251 -0.296133 0.316219 0.054838 -0.451083 0.057936 -0.051451 0.094588 0.030968 -0.221571 -0.059780
sent_201 -0.158729 -0.055246 -0.449818 -0.202334 -0.169575 -0.082857 0.222557 -0.270483 -0.343468 0.183109 -0.240821 -0.343895 0.105134 -0.778931 -0.521666 0.154922 0.126554 -0.217894 0.315937 -0.166186 0.127459 0.335108 -0.084174 -0.188796 -0.263207 0.056235 0.593673 0.051002 0.231518 -0.002348 -0.201616 -0.094175 -0.217097 0.048563 -0.046830 0.442015 -0.039856 0.231354 0.678138 -0.002811 -0.004286 0.194635 -0.077840 0.044430 0.171034 -0.389124 0.108870 -0.155548 -0.250981 -0.002605
sent_202 -0.069740 0.175492 -0.387229 -0.076008 -0.021909 0.120167 0.059853 -0.496398 -0.168796 0.031688 -0.640711 -0.263740 -0.267691 -0.079003 -0.523809 -0.582142 0.452888 -0.041083 0.409833 -0.043204 -0.055535 0.468326 -0.098269 -0.275004 -0.199417 -0.138153 0.564809 0.053493 -0.223227 0.726433 -0.460086 -0.271341 -0.181169 -0.091025 -0.283886 -0.006967 -0.234405 -0.191198 0.545402 0.142517 0.136128 -0.312834 0.070643 0.282596 0.182313 -0.439297 -0.292515 -0.186141 0.005529 0.393112
sent_203 0.026940 0.177563 0.053040 0.461460 -0.082646 0.187424 -0.012491 0.223490 0.250112 -0.084297 -0.175312 -0.209808 0.027824 0.024456 -0.366080 -0.219994 -0.139444 0.096106 -0.147241 0.192969 -0.301709 0.420678 -0.254566 -0.057014 0.139846 -0.460634 0.377494 -0.298552 0.036420 0.288157 0.001385 0.280495 -0.237219 0.105078 -0.072858 0.011217 -0.274227 -0.040761 -0.045145 -0.110523 0.031614 -0.196677 -0.390770 -0.154871 -0.161664 0.025853 -0.017334 -0.063703 0.373694 0.076849
sent_204 -0.235032 0.227267 0.203445 0.088125 0.147044 0.032498 0.173302 0.441394 -0.239667 -0.367068 -0.268528 0.100524 -0.159913 0.114714 -0.136910 -0.323974 0.086000 -0.346402 0.154771 0.198017 0.099973 -0.383891 -0.014803 0.032880 0.350247 -0.176382 -0.478003 0.197992 0.003438 0.285141 0.291341 -0.086141 -0.139262 0.010441 0.374125 -0.415273 0.284637 -0.032056 -0.589521 0.412579 -0.344841 0.024035 0.310347 0.159985 -0.367539 -0.165456 0.410862 0.061500 -0.157795 -0.147552
sent_205 0.332268 0.473334 0.081559 0.002051 0.117806 0.459682 0.434533 0.476809 -0.057983 -0.017585 -0.015470 0.116186 -0.284122 0.073131 -0.276263 -0.538536 0.173988 -0.050761 -0.269290 0.014543 0.570036 -0.509798 0.102041 0.901464 0.051504 -0.384911 0.414823 -0.194759 -0.183502 0.124881 0.289401 0.296569 -0.179301 -0.055375 -0.051703 -0.055995 -0.243440 -0.108800 -0.610199 0.378564 0.323482 -0.118937 -0.172245 -0.147948 -0.420330 0.302527 0.036011 -0.002032 0.298085 -0.040472
