sent_0 0.236713 0.598755 -0.113886 0.494524 0.181827 0.112050 0.050374 0.135387 -0.347832 0.294365 -0.000180 0.358264 -0.532295 -0.737167 -0.190925 -0.243029 0.654545 0.684052 -0.238999 0.335527 0.395903 -0.531902 0.152792 -0.054163 -0.732333 0.748301 0.200799 0.487541 0.086472 0.412080 0.074475 0.418297 0.148602 0.384404 -0.146763 -0.051331 -0.090423 0.055928 -0.168032 -0.327345 0.214701 0.314280 -0.052617 0.179429 0.306679 -0.159572 0.170933 0.018309 -0.341738 -0.004560
sent_1 -0.078768 -0.263840 -0.117251 -0.487651 -0.176572 -0.391947 -0.155908 -0.062798 -0.136304 0.084134 -0.129919 -0.521334 0.211442 0.321446 -0.255467 -0.012333 0.421073 0.057264 -0.088298 0.497797 -0.182507 -0.307307 -0.037618 0.405770 -0.211003 0.119318 -0.430636 0.271068 -0.152335 0.242135 -0.457039 -0.259214 -0.169111 -0.106542 0.247012 0.179511 -0.513566 0.202472 0.306903 -0.357452 0.122932 0.436897 0.162639 0.165848 -0.202278 -0.668413 0.227779 -0.750027 -0.227450 0.450758
sent_2 -0.144061 -0.014217 -0.098304 0.233344 0.319035 0.485386 0.196786 0.209497 0.418217 -0.236298 -0.216755 -0.519436 0.518983 0.196644 0.356323 0.099701 0.009053 -0.137123 0.177924 -0.134754 0.184544 0.080580 0.136707 0.422382 -0.210101 -0.243711 -0.099056 -0.567320 0.373112 -0.335040 0.004973 -0.197390 0.218271 0.148601 0.248726 0.133749 0.694202 0.053574 -0.848360 -0.301113 0.239864 -0.677991 -0.621702 -0.280234 -0.052953 0.425938 0.122235 0.494188 -0.064958 -0.971878
sent_3 0.112764 -0.057364 -0.314250 -0.037582 0.003257 -0.188552 0.469464 0.388191 0.002726 -0.222590 0.009407 -0.103900 -0.258594 0.042548 -0.595794 0.246355 0.029039 -0.040668 -0.280330 0.070989 -0.093199 -0.064957 -0.029545 -0.288634 0.037414 0.079880 0.188340 0.335095 0.246310 0.050658 -0.142640 0.381645 0.173163 -0.030946 -0.480865 -0.057599 -0.230554 -0.145712 -0.285555 -0.035143 -0.179276 -0.119532 -0.107454 0.235596 -0.158688 -0.288500 -0.095877 -0.304473 -0.077393 0.492966
sent_4 0.834916 -0.104387 0.351656 0.982728 0.150306 -1.270749 0.053599 0.296018 0.121865 0.406707 -0.524611 -0.075726 0.037234 -0.173275 0.070967 -0.242563 -0.373015 0.596993 -0.325859 -0.919182 -0.352290 -0.651229 0.362873 -0.381056 -0.226331 0.233756 0.305442 0.684940 -0.847066 0.314336 0.367109 0.585082 -0.013638 0.121948 -0.046052 0.300770 0.415675 0.317618 -0.302533 -0.141348 -0.115452 -0.158402 -0.150531 0.786634 0.257351 -0.552447 -0.357925 -0.455153 -0.572212 0.431654
sent_5 0.062541 0.207634 -0.395852 0.448955 0.044149 -0.060493 -0.077063 -0.412233 0.180139 0.325438 -0.045992 0.191915 -0.157443 0.020105 -0.145374 -0.184891 0.249859 0.117440 -0.122951 -0.125613 -0.385179 -0.264242 -0.366292 -0.468078 -0.262329 0.027653 0.309899 -0.439688 -0.202284 -0.129480 -0.179646 -0.031747 -0.054814 0.388972 0.469710 -0.238457 0.022222 0.031975 -0.143069 -0.118441 0.206890 -0.038566 0.387728 -0.070009 -0.161276 -0.005473 -0.114416 0.389022 0.155046 -0.138022
sent_6 -0.019918 -0.115545 -0.220359 0.545362 -0.541329 0.415111 -0.397070 -0.411410 0.024236 0.574249 0.325722 -0.423448 -0.404661 0.157860 0.207080 0.081850 0.029287 0.608361 -0.067339 0.355417 0.140117 -0.271443 0.443235 0.360135 0.138051 -0.116807 -0.279399 0.230127 0.261960 0.269936 0.759201 0.185144 -0.081970 0.049648 -0.511160 0.651728 -0.079553 0.187580 -0.272995 -0.412726 0.284535 -0.214577 0.047233 -0.205532 0.416294 -0.353654 -0.196843 -0.637071 -0.231329 -0.076986
sent_7 -0.275020 -1.304214 0.062071 0.263677 -0.237063 0.554184 0.095940 0.088494 -0.136540 -0.313213 0.972541 -0.174882 0.299934 -0.769167 -0.633210 0.769375 -1.929475 -1.269439 0.292920 0.751745 -0.097860 0.361849 -0.180495 -0.385618 -0.340417 -0.436671 -0.514850 -0.077691 -1.235221 0.432040 -0.294483 0.074384 -0.389037 0.093209 -0.867170 1.101221 -0.527432 0.255272 0.355502 0.331002 -0.463995 -0.176359 -0.381225 -0.403012 -1.447046 0.573973 0.483311 -0.051157 0.261473 0.054294
sent_8 0.152359 -0.164635 0.058760 0.275992 0.117777 -0.400275 -0.011571 0.648216 -0.326407 -0.008648 0.473955 0.440902 -0.651594 0.343575 -1.231090 0.358793 0.730515 0.765589 -0.042109 0.723521 -0.278765 -0.500262 -0.986831 -0.279709 -0.600821 0.400813 0.231283 0.488021 0.114917 0.486705 -0.074687 0.665017 0.057355 0.392597 -0.141029 -0.878151 -0.106349 0.394006 -0.156196 -0.022839 0.004829 0.302527 -0.076074 0.596588 -0.035407 -0.583538 -0.042842 -0.001614 0.202964 0.193464
sent_9 -0.439218 0.410575 0.615798 -0.242893 -0.452030 0.020756 -0.007158 0.492304 -0.417669 -0.115887 0.289769 0.307021 -0.390083 0.419489 -0.609884 0.115573 -0.005046 0.148088 -0.040397 0.409711 0.236105 -0.351101 -0.239267 0.393752 -0.145756 0.073155 -0.247520 1.030368 0.835750 0.474615 -0.304606 0.190129 -0.215225 0.061172 -0.355733 0.013990 -0.092933 0.250699 -0.463733 -0.325576 -0.075410 -0.273722 -0.253493 0.815080 -0.635514 0.211839 0.131370 -0.007593 0.540140 -0.058040
sent_10 -0.032732 0.874615 0.130114 -0.018212 -0.741497 -0.305634 -0.831023 -0.384412 -0.012607 -0.627521 0.237960 -0.244283 0.615176 0.264230 0.571363 -0.036552 -0.490804 0.055305 -0.164032 -0.073677 -0.043970 -0.281088 0.046181 0.804543 0.248196 -1.016497 -0.200291 -0.116628 0.431972 0.718700 0.429193 0.102284 -0.164674 -0.386487 -0.506679 0.591085 -0.842859 0.070680 0.267103 -0.135002 -0.633448 0.556544 0.377725 -0.094382 -0.267541 0.351268 0.308486 -0.459518 0.314671 0.582062
sent_11 -0.150892 0.497245 -0.076899 -0.157194 -0.125854 -0.074245 -0.237759 -0.286004 -0.277797 -0.081399 0.381905 -0.054649 -0.388267 -0.072460 0.512271 -0.118564 -0.065107 0.133011 -0.187766 0.175257 0.194504 -0.270746 0.201278 0.145490 0.146687 -0.486822 -0.245941 -0.036129 0.103714 0.495513 0.350908 -0.066635 0.187869 0.122314 -0.117888 0.068546 -0.435057 -0.236522 -0.238161 -0.526902 0.217147 -0.148877 0.019128 -0.160939 -0.184985 0.454622 -0.104159 -0.222638 0.354085 -0.026547
sent_12 0.131522 -0.250939 -0.560359 0.612229 -0.168177 0.048228 0.458249 -0.415512 0.177196 0.021184 -0.660957 -0.672525 0.555270 0.103138 0.473674 -0.118899 0.183716 -0.326355 -0.146198 -0.080962 -0.623899 0.515980 0.194262 -0.459086 -0.496960 -0.252895 0.126539 -0.630789 0.428980 -0.593739 -0.236614 -0.588752 -0.122617 -0.032620 0.833944 0.157677 0.260208 0.051525 -0.663787 -0.292148 0.275706 -0.317403 -0.011998 -0.113036 -0.407380 0.101380 -0.019741 0.109443 0.093731 -0.393323
sent_13 -0.052773 -0.799193 0.168052 0.079966 0.018522 0.103932 0.358371 0.361265 -0.190517 -0.108343 -0.002562 -0.384243 -0.288190 -0.415714 0.161408 -0.358974 -0.439536 -0.107214 0.219697 -0.154229 0.255496 -0.193206 0.076744 -0.528553 0.286415 0.346921 -0.218159 0.676513 -0.470566 -0.113392 -0.141464 0.061970 -0.095284 0.142230 -0.085454 0.166743 0.032521 -0.386149 0.314925 -0.058632 -0.181774 -0.514195 -0.054439 0.041927 -0.042939 0.018260 -0.290758 0.141143 -0.246838 0.214946
sent_14 -0.434222 0.464463 -0.025284 0.097191 -0.545599 0.140323 0.008483 -0.489989 -0.138979 -0.082549 0.225741 0.442836 -0.186388 0.325423 0.767589 0.520016 -0.370031 -0.261676 0.145079 -0.059703 -0.078217 0.289093 0.217586 0.440849 0.391062 -0.764475 -0.112962 -0.033322 0.502634 0.381709 0.243961 -0.105676 0.303779 -0.738619 -0.186586 0.228038 -0.082265 -0.192585 -0.287386 0.081224 -0.256355 -0.070781 0.042999 0.049816 0.358180 -0.032651 0.232164 0.068419 0.090633 -0.153957
sent_15 0.222333 0.147977 -0.170325 0.267997 -0.022800 -0.211107 0.624926 -0.183841 0.017242 -0.009420 -0.233726 -0.158841 0.078074 0.106155 -0.226101 -0.095044 -0.011475 -0.161114 0.011822 -0.282425 0.060846 0.286813 0.041232 -0.073810 -0.133395 -0.020852 0.069802 -0.269548 -0.008041 -0.311582 0.127210 -0.088377 -0.056488 -0.401009 -0.068085 -0.047304 -0.190880 -0.225724 0.269625 -0.322583 -0.148373 0.013486 0.102379 -0.091846 0.276393 0.031420 -0.084356 -0.110900 -0.477748 0.319042
sent_16 0.063045 0.129797 -0.370957 0.369129 0.047634 0.237078 0.114973 0.065608 0.522403 0.064912 -0.324518 -0.082383 0.677963 0.102670 0.091597 -0.499494 0.352796 0.192605 0.125891 -0.758366 -1.157314 -0.159720 -0.459395 -0.089573 0.022528 -0.642591 0.554100 -0.800119 0.158623 -0.697820 -0.339489 -0.178237 -0.018333 0.332200 0.715407 -0.005303 0.437050 0.141893 -0.464219 -0.108378 0.045554 -0.037167 0.399525 -0.060035 -0.227012 0.224417 -0.265509 0.683356 0.739856 -0.127804
sent_17 -0.167605 -0.167415 -0.300964 0.323428 -0.416276 0.507528 0.461409 -0.197559 -0.284692 0.100379 -0.155615 -0.425545 0.034659 -0.278204 0.220484 -0.211613 -0.154326 -0.265282 0.037167 0.302085 -0.636671 0.059002 -0.154309 -0.339814 -0.255119 -0.056511 -0.267917 -0.408737 0.436924 -0.838870 -0.069939 -0.508548 -0.390799 -0.071031 0.308848 -0.285316 0.185441 0.140386 0.013952 -0.091637 0.226343 -0.456462 0.076315 -0.345289 0.236321 0.185698 -0.207018 0.497397 0.056681 -0.200482
sent_18 -0.466427 0.032880 0.051709 -0.087360 -0.620400 0.103024 -0.665229 -0.447278 -0.262806 0.090854 0.410214 0.253732 0.206857 -0.299198 0.187023 0.492131 -0.649836 0.065457 -0.239597 0.235209 0.300471 -0.345088 0.121428 0.193864 0.281719 -0.171953 -0.371848 0.362459 0.206108 0.886570 0.211659 0.573925 -0.339134 0.143798 -0.478981 0.538748 -0.288068 0.271307 0.148232 -0.085330 -0.269623 0.055710 -0.028256 -0.159409 -0.875129 0.509765 0.212292 -0.282015 -0.001617 -0.084095
sent_19 -0.336549 0.348486 0.213317 -0.181847 0.217260 0.066190 0.257633 0.501349 -0.468237 -0.342482 0.128488 0.017056 -0.044965 0.052254 -0.797225 0.536125 0.054648 -0.063931 -0.343036 -0.193371 0.004747 -0.186827 -0.320497 0.320542 -0.185363 0.021561 -0.164304 0.523195 0.358246 0.224679 0.404707 -0.154614 0.306164 0.254344 -0.105860 -0.338124 0.231810 0.698823 -0.648035 -0.085916 -0.842788 0.037630 -0.639552 0.101297 -0.079183 -0.010824 -0.351872 0.499186 -0.357944 -0.197499
sent_20 0.098345 -0.390520 -0.035504 0.693292 -0.559068 -0.241594 0.471418 -0.030650 -0.246057 -0.079961 -0.071709 0.455980 -0.579032 -0.235674 0.281061 -0.044487 -0.112317 0.363750 -0.516846 0.198424 -0.456845 -0.027587 0.094380 -0.619496 -0.102166 0.205392 0.257853 -0.106898 0.100925 -0.094485 0.678070 -0.523732 -0.047134 -0.358161 -0.002666 -0.517985 0.421810 -0.497437 -0.342769 0.147711 0.227024 -0.905010 0.197932 0.544344 0.934744 -0.361216 0.203747 0.440768 0.044895 0.267979
sent_21 -0.009952 -0.254105 -0.155652 0.426198 0.431747 0.590349 0.658887 -0.378924 -0.369693 -0.035040 -0.047399 -0.353013 -0.088824 -0.174992 0.034525 0.111607 0.351250 -0.006113 0.163834 0.158655 -0.314659 0.021143 -0.019869 -0.371545 -0.052703 0.294719 -0.050945 -0.058818 0.244755 -0.196396 -0.011514 -0.316645 -0.011463 -0.099940 0.053334 -0.655859 -0.251677 -0.255666 0.299841 0.046574 0.110532 0.370746 0.163306 -0.671315 0.478964 -0.197941 -0.188921 0.051833 -0.300387 0.378015
sent_22 -0.092442 -0.696678 0.402298 0.911346 -0.282830 0.862160 0.104829 -0.143194 -0.163744 0.120105 0.149592 0.328098 0.464245 -0.777669 -0.058459 0.294480 -1.522540 -0.560914 0.301381 0.275482 0.030588 -0.020481 0.130014 -0.150716 -0.387318 -0.189539 -0.113589 -0.052916 -0.279495 0.082827 -0.323994 0.094738 -0.600320 -0.114844 -0.920476 0.546206 0.095029 0.043946 -0.504514 0.256783 -0.018705 -0.074571 -0.469152 -0.747067 -0.860841 0.608600 0.442236 0.325177 0.271759 -0.514372
sent_23 0.342792 0.395275 0.012128 0.179504 0.062204 0.573485 -0.137328 -0.237520 0.038595 0.274770 0.308424 0.165115 -0.031126 0.066814 0.540815 0.119566 -0.118156 0.287554 0.313312 -0.250403 0.670361 -0.225327 0.199119 0.602525 0.241464 -0.108845 0.083945 0.000706 0.584682 0.169963 0.279432 0.467237 -0.069308 0.121261 -0.319193 0.156868 0.373873 0.111853 -0.571284 -0.094248 0.608641 0.131976 -0.420319 -0.238754 0.063940 0.562053 0.103602 0.155073 -0.073520 -0.579276
sent_24 -0.130724 0.395737 0.097252 0.165282 0.484823 0.205121 0.370793 0.122890 -0.111275 -0.455640 -0.166193 -0.502340 0.664891 0.551972 0.028420 0.559220 -0.215736 -0.350450 -0.112040 -0.723557 -0.884634 0.028432 -0.347954 0.712408 0.095874 -0.301378 0.298086 -0.289928 0.275010 0.059084 0.040813 -0.326757 0.350565 0.382519 0.444767 -0.182671 0.784138 1.019336 -1.035550 -0.340538 -0.202769 -0.104769 -0.406567 0.000334 0.104222 0.739721 -0.591045 0.902605 0.102988 -0.666113
sent_25 0.247560 -0.157674 0.262109 0.597708 -0.099659 0.035736 0.164447 0.034611 0.388651 0.039987 -0.177506 -0.777330 0.348792 0.133991 -0.103169 -0.403206 -0.017692 0.139700 -0.058033 -0.006244 0.085292 0.428746 0.618493 0.170694 -0.048847 -0.070264 0.060442 -0.565067 0.287817 0.000183 0.124907 -0.153078 -0.306032 -0.195226 -0.666645 0.177051 -0.033763 -0.018526 -0.278558 -0.421752 0.186593 -0.239544 -0.436108 -0.042612 0.127870 0.171901 -0.030511 -0.423057 -0.116870 -0.096797
sent_26 -0.180253 -0.071009 0.022820 0.291665 -0.022952 0.114123 0.342089 0.166387 -0.214044 -0.171941 -0.089910 -0.458244 0.201159 0.225477 -0.237116 0.390265 -0.389272 -0.484142 0.014752 -0.161691 0.124540 -0.317894 -0.126194 0.119553 -0.250637 0.022240 -0.073315 -0.156654 0.510890 -0.195636 0.008192 -0.058721 0.266312 0.062139 0.450645 0.287546 0.391608 0.404967 -0.717913 -0.214653 -0.192850 0.033381 -0.321288 -0.155997 0.079239 0.121831 -0.209705 0.528431 -0.332642 -0.500426
sent_27 -0.263872 0.351793 0.096315 -0.202982 -0.852007 0.092892 0.135042 -0.265059 -0.083258 0.608903 0.188643 -0.402220 -0.650378 -0.192044 -0.091952 -0.396620 0.213589 0.113503 0.457171 -0.733673 1.219252 0.256413 0.613408 0.186427 0.308411 -0.003741 -0.421758 -0.613224 0.222611 -1.199796 0.166526 0.135782 -0.640546 -0.221260 -0.537462 -0.602332 0.364637 0.786310 0.083290 0.168127 0.185220 -1.149274 -0.221709 0.245221 0.132331 0.072463 -0.865409 0.720844 -0.260099 0.048621
sent_28 -0.286827 -0.513821 0.811255 -0.053424 0.028705 -0.162339 0.019423 0.327752 -0.465097 -0.188060 0.314584 0.109667 -0.249040 -0.539039 -0.016797 -0.020925 -0.714274 -0.530403 0.011122 0.163329 0.417055 -0.264782 -0.234424 -0.248623 0.157102 0.427367 -0.274956 0.536682 -0.238101 0.315019 0.196008 0.363822 -0.214102 0.359564 -0.048951 0.346396 -0.213207 0.314889 0.199058 -0.188914 -0.732603 -0.103579 -0.314674 0.157715 -0.054433 0.408669 -0.478362 0.238747 0.052422 -0.046058
sent_29 -0.217622 -0.472989 0.408595 0.079647 0.040666 0.009003 -0.377488 0.783708 0.225008 0.253202 0.097036 -0.218676 -0.114100 0.184854 -1.160614 0.201477 -0.130381 0.132358 0.012223 0.020019 -0.230841 -0.076776 -0.275066 -0.125655 -0.141227 0.535343 -0.197909 0.562094 0.169399 -0.191730 -0.122421 0.151219 0.005717 0.345434 -0.173795 -0.137532 0.259728 0.371150 0.152262 0.165495 0.041514 -0.108982 -0.223431 0.135327 -0.106919 -0.617089 0.006778 -0.457245 0.059258 0.424093
sent_30 0.282318 -0.030073 -0.362135 0.334485 0.073308 -0.029215 0.220878 0.111506 0.569500 0.176236 -0.074047 -0.383740 0.128815 0.215980 -0.088523 0.162488 0.181645 0.218952 0.434708 -0.855629 -0.376952 -0.226496 -0.243196 0.154193 -0.149541 -0.524378 0.294100 -0.647259 0.006332 -0.775726 0.326483 0.110394 0.555868 0.261067 0.791658 0.033285 0.488582 0.178022 -0.172999 -0.050045 0.073155 -0.042232 0.343997 -0.284486 0.292773 -0.080446 -0.041009 0.304010 0.026792 -0.000190
sent_31 0.012543 -0.066709 -0.281017 0.213587 -0.162243 -0.048809 -0.185345 -0.338884 0.318525 -0.168204 -0.219792 -0.700494 0.556252 0.514052 0.408273 0.325074 -0.046202 -0.002758 0.119213 -0.648320 -0.855299 -0.325800 -0.190284 0.110032 0.016360 -0.375450 0.244499 -0.700641 0.087021 -0.102982 -0.215910 0.057374 -0.045559 0.200739 0.808999 -0.081909 0.750182 0.712551 -0.380465 0.000551 -0.007823 0.079413 0.238563 0.047845 0.043422 0.134810 -0.305650 0.672110 0.381641 -0.313153
sent_32 -0.604881 0.013411 -0.205636 0.271967 0.120042 0.347083 0.360577 -0.087759 0.296319 -0.293928 -0.380369 -0.199865 0.368861 0.318023 -0.101127 0.282262 0.015682 -0.335504 0.041373 -0.244235 0.536107 0.056325 -0.109918 0.183515 -0.133182 -0.111107 -0.228347 -0.348756 0.568524 -0.560917 0.208362 -0.209770 0.199557 0.193125 0.326889 -0.130414 0.128149 -0.148995 -0.417187 -0.367709 -0.286951 -0.249134 0.054513 -0.445326 0.081693 0.323280 -0.374178 0.302045 -0.320569 -0.499872
sent_33 0.230580 -0.000292 0.628784 0.168340 0.352970 -0.449959 -0.049105 0.815652 0.157680 0.150819 0.150974 0.301859 -0.424114 0.227341 -0.628972 0.209622 -0.521454 0.002793 -0.197271 -0.460368 0.244511 -0.122187 -0.276237 0.092120 -0.267580 0.359641 0.053660 0.050590 -0.210783 -0.279108 0.629956 0.339536 -0.039376 0.277532 -0.193424 -0.102428 0.463724 0.349774 -0.391256 -0.230859 -0.030570 -0.473318 -0.440842 0.550479 0.582176 0.152037 -0.152067 0.089034 0.075085 0.044213
sent_34 -0.258389 0.066480 -0.205561 0.611509 0.120565 0.285328 -0.287969 -0.123347 0.698852 0.015250 -0.320711 -0.069153 0.725223 0.575522 -0.026463 -0.368823 0.282731 0.387409 -0.088475 -0.796031 -0.686571 0.325067 -0.313775 -0.076443 -0.092241 -0.427034 0.690605 -1.136979 0.022025 -0.249819 -0.236253 -0.125440 -0.094921 0.283228 0.538263 -0.037700 0.730572 0.314030 -0.709677 -0.159222 0.037074 -0.359006 0.085093 -0.012980 -0.205003 0.094516 0.064741 0.736618 0.592206 -0.293004
sent_35 -0.087591 0.139632 0.101990 0.357735 -0.449302 0.248238 0.606037 -0.129400 -0.357793 0.082222 -0.121121 -0.305304 0.088975 -0.185924 -0.088954 -0.050999 0.274441 0.184317 0.300838 0.020584 -0.007792 0.293801 0.212325 -0.278169 -0.223847 -0.107148 -0.147904 -0.052354 0.361773 -0.376677 0.129848 -0.364624 -0.031518 -0.560140 0.059458 -0.144607 0.015537 -0.357067 0.147950 -0.131431 0.160455 -0.040796 0.271685 -0.356142 0.174896 -0.115221 -0.325451 -0.212715 -0.330851 0.452877
sent_36 0.058498 0.333529 -0.020000 -0.199893 -0.033396 -0.563006 0.184824 0.373542 0.148764 -0.380263 0.021532 -0.008318 -0.218027 -0.198005 -0.727358 0.098879 0.162036 -0.524729 -0.153775 0.411090 -0.267150 0.229900 -0.367319 -0.228751 -0.369515 0.059984 -0.196951 -0.082424 -0.113812 -0.210427 -0.132445 0.409979 -0.465663 0.080632 -0.401580 -0.455044 -0.304308 0.247540 0.509527 -0.144062 -0.165339 -0.335880 -0.394906 0.189799 -0.563790 -0.015165 -0.054192 -0.335494 -0.084670 0.332113
sent_37 0.097012 -0.114193 -0.233238 0.254747 0.479880 -0.283604 -0.097871 0.091919 0.708478 0.048047 -0.398801 -0.266454 1.034684 0.583666 0.263504 -0.371304 -0.300074 0.060592 -0.029384 -0.867033 -0.287252 0.373541 0.015418 0.204345 0.272532 -0.212177 0.479781 -0.944489 0.159654 -0.255203 -0.378141 0.196061 -0.224849 0.180862 0.206459 0.349284 0.388979 0.266792 -0.661554 -0.238869 0.275888 0.361023 -0.080255 0.154882 0.060462 0.456933 -0.407506 -0.117854 0.048779 -0.485682
sent_38 0.273178 -0.194139 0.550740 0.738194 0.106317 -0.654621 0.102576 -0.067202 -0.055791 0.066787 -0.159063 0.230185 0.422875 -0.024838 -0.123157 0.288530 -0.479555 -0.071142 -0.176880 -0.541159 -0.319135 -0.366563 0.299718 -0.100720 0.269177 -0.195549 0.402395 0.059826 -0.137176 0.052051 0.659151 0.426462 -0.370376 0.035753 -0.146220 -0.061863 0.662994 0.377222 -0.254984 0.194116 -0.160827 0.043559 -0.094373 0.422227 -0.044928 -0.066218 -0.094879 -0.390708 -0.007507 0.205415
sent_39 -0.136038 -0.202101 -0.423762 0.180279 -0.514885 0.303002 0.123375 0.161374 0.124295 0.054829 -0.205271 -0.353323 -0.427650 0.031317 0.034892 -0.044482 0.432635 0.413068 0.161590 0.197224 -0.451185 -0.131263 -0.079798 -0.250794 -0.059095 0.164688 -0.018727 0.421864 0.025317 0.365520 -0.241854 -0.184988 0.252026 0.116812 0.006918 0.338710 0.208579 -0.197990 0.018602 -0.293337 0.122836 -0.438210 -0.018422 0.060593 0.171052 -0.413606 -0.392107 0.220449 -0.013887 -0.057329
sent_40 -0.347247 -1.253374 0.411157 0.043762 -0.112948 0.605541 0.186329 0.354720 -0.215353 0.044486 0.665000 0.378202 0.681428 -1.029842 -0.893157 0.581401 -1.680256 -0.929281 0.334349 0.490236 0.547456 0.448754 -0.223832 -0.041872 -0.149825 -0.320268 -0.481628 0.445508 -0.974323 0.278547 -0.109404 0.466620 -0.588656 0.063916 -0.874604 0.981092 -0.536294 0.024550 0.133602 0.369559 -0.911644 0.344952 -0.518467 -0.491390 -1.338643 0.443758 0.344304 -0.499407 -0.233263 0.111094
sent_41 0.258045 -0.089334 0.389895 0.107238 0.033323 0.242139 -0.010458 0.270822 -0.003071 0.075572 0.244213 -1.136305 -0.588100 0.099714 -0.599820 0.189320 0.057219 0.008284 0.250785 0.059222 0.184514 -0.311116 -0.005552 -0.077560 0.079884 0.308480 -0.267116 0.289843 -0.184887 -0.318098 0.188845 0.431752 0.109258 0.253891 -0.407273 -0.031376 0.256378 0.249247 0.362550 -0.500407 0.196294 -0.483783 -0.276709 -0.503823 0.321108 -0.278137 -0.451347 -0.190177 -0.201388 0.183878
sent_42 -0.204670 0.020125 0.015210 -0.916606 0.372363 0.317187 -0.023735 0.765732 -0.201495 -0.073105 0.358026 0.244598 -0.204800 -0.772279 -0.561245 0.271996 0.079169 -0.203781 -0.300723 0.117465 0.704158 0.437674 -0.551009 -0.009007 -0.289643 -0.023423 -0.456979 0.473263 -0.436941 -0.170428 0.474583 0.092858 0.313966 0.260837 0.077869 -0.458367 -0.136610 0.160907 -0.420690 0.314484 -0.874617 -0.033765 -0.632628 -0.256940 0.119543 -0.144369 -0.436477 0.425615 -0.500536 -0.208506
sent_43 0.121717 0.490333 -0.253434 -0.065497 -0.102944 -0.154196 -0.295771 -0.322345 -0.041451 -0.325921 -0.128119 -0.257918 0.056451 0.136494 0.134051 0.453311 -0.454244 -0.622698 -0.051622 -0.518696 0.301080 -0.183803 0.213825 0.208381 0.005645 -0.551815 -0.061195 -0.874905 0.219449 -0.162601 0.386966 0.495670 -0.141400 0.018866 -0.044142 -0.420357 0.415944 0.325183 0.047672 0.010459 -0.413564 0.135795 -0.113492 -0.218421 -0.004825 0.297957 -0.257542 0.313811 0.411233 -0.215766
sent_44 -0.307096 -0.363367 -0.641869 0.285968 -0.355811 0.364861 0.653269 -0.541056 -0.536874 -0.305469 0.169287 -0.092598 -1.107068 -0.352674 -0.203110 0.253685 -0.069818 -0.626968 -0.100236 0.824259 -0.250799 -0.659153 -0.120475 -0.511402 0.163288 -0.210699 -0.308291 0.168762 -0.152403 -0.522629 0.724090 -0.051397 -0.057435 0.382571 -0.620459 -1.170557 0.126264 0.177191 0.463902 0.202798 -0.242797 -0.955140 0.158480 0.045281 0.180373 -0.146356 -0.126306 0.570812 0.062705 -0.273486
sent_45 -0.425551 -0.727782 0.596096 -0.156916 0.225851 -0.356165 -0.286262 0.691296 0.432017 0.438717 0.340376 -0.333619 0.095531 0.516139 -0.849180 0.036133 0.332614 0.897558 -0.013098 -0.285341 0.104349 -0.339799 -0.508261 -0.083747 -0.107870 0.669734 -0.304141 0.636883 0.088279 0.008551 -0.367715 0.281580 -0.212505 0.393036 0.279438 -0.406870 0.209604 0.540756 -0.069363 0.171290 -0.110181 -0.438039 -0.025611 0.688802 -0.473183 -0.502876 -0.075109 -0.137746 0.088906 0.569089
sent_46 -0.364363 -0.057829 -0.436245 0.349421 -0.455461 0.160862 0.218523 0.009772 0.304408 -0.188281 -0.452399 -0.451775 1.033163 0.337921 0.540300 -0.077209 -0.147371 0.020702 0.368160 -0.618784 -0.568799 0.106038 -0.235574 0.241139 0.010835 -0.531878 0.311246 -0.662085 0.411082 -0.621992 -0.457208 -0.137870 -0.043359 -0.097033 0.733301 0.463870 0.535417 0.458325 -0.664846 -0.050235 -0.109294 0.072363 0.346385 0.237320 -0.039507 0.337373 -0.350282 0.598498 0.008591 -0.538895
sent_47 -0.104187 -0.252379 -0.211138 0.335788 0.459742 -0.170622 -0.022586 -0.455240 0.076456 -0.060756 0.276228 0.396523 -0.282435 -0.370844 -0.446611 0.161929 -0.466599 -0.759908 -0.413978 0.464789 -0.574145 0.132747 -0.288603 -0.318132 -0.181672 -0.393090 -0.004503 -0.087514 -1.128816 0.797545 0.108446 0.018893 0.049418 0.411171 -0.611389 -0.295575 -0.771299 -0.041523 0.548864 -0.076279 -0.912236 0.172895 -0.055921 -0.224638 -0.890980 -0.124216 -0.080522 -0.296964 0.427253 0.375244
sent_48 0.048441 0.470009 -0.509176 0.106125 -0.240897 -0.027217 0.104494 -0.482217 -0.120490 -0.288885 -0.182172 0.058524 -0.100516 0.427875 0.167060 0.236285 -0.002134 -0.386367 0.153535 -0.042917 -0.213006 0.134987 0.134505 -0.315237 0.000166 -0.345983 0.074255 -0.124254 -0.012769 0.173796 -0.076211 -0.254694 0.286826 -0.608211 0.152647 0.042317 -0.143915 -0.535232 0.280542 0.004841 -0.073598 0.390428 0.373002 -0.062677 0.172268 -0.246627 0.044620 -0.093043 0.060021 0.034675
sent_49 0.274066 0.044505 -0.016396 0.233819 0.140455 -0.535692 0.817290 -0.080932 0.095310 -0.515288 -0.121339 0.126270 -0.571337 0.159735 -0.105012 0.387060 0.113789 -0.004097 -0.036531 0.056989 -0.121454 -0.909048 -0.328508 -0.073600 -0.059461 0.055589 0.034904 -0.195700 -0.038265 -0.258876 0.774038 -0.214327 0.469482 0.163132 0.264155 -0.646536 0.424518 -0.188415 -0.023920 -0.244310 -0.001586 -0.754167 0.097793 -0.152445 0.444390 0.219581 0.005438 0.606878 -0.148635 -0.168419
sent_50 -0.362973 -0.179818 0.125981 0.550283 0.101490 0.047215 0.027817 -0.034162 0.463240 0.043278 -0.496097 0.024894 0.393229 0.156918 0.005498 -0.119068 0.202631 -0.175603 -0.165086 -0.275041 -0.160986 0.038004 -0.198264 0.054132 -0.266951 -0.087062 0.385340 -0.420323 0.194441 -0.202165 -0.054123 0.000168 -0.090641 0.722814 0.686878 -0.321377 0.632195 0.169671 -0.743126 -0.304373 -0.441498 -0.347084 0.238275 0.315208 -0.192298 0.320414 -0.392690 0.592703 0.547896 -0.487148
sent_51 0.292402 0.106817 -0.297469 -0.308070 -0.289714 -0.092436 0.495702 0.011037 -0.299464 -0.127480 0.234777 -0.267828 -0.616990 -0.208220 -0.105455 -0.052379 0.191006 -0.044634 0.185898 0.423518 0.187097 0.285245 -0.224238 -0.405426 -0.077854 0.081864 -0.167638 -0.006098 0.255570 -0.894657 0.102719 0.431418 -0.399971 -0.333211 -0.381386 -0.273152 -0.269842 0.092805 0.649416 -0.196113 0.167840 -0.289571 0.168798 -0.024205 0.058606 0.361697 -0.252019 -0.066000 -0.144546 0.235343
sent_52 -0.015593 0.242512 0.046775 0.515715 0.040377 0.056768 -0.175889 -0.178168 0.641806 0.156381 -0.423200 -0.123055 0.577195 0.598498 0.170082 0.046819 0.238110 0.261584 0.055624 -0.902056 -0.839647 0.355295 -0.085666 0.088299 -0.161036 -0.312853 0.756327 -0.887558 0.112359 0.036308 -0.371540 -0.315554 0.033104 0.160941 0.668331 0.038696 0.899806 0.664185 -1.047209 -0.021350 0.206717 -0.228655 -0.077624 0.262204 -0.068492 0.045618 0.088441 0.788826 0.529568 -0.456630
sent_53 -0.252325 -0.558133 -0.340496 0.265572 -0.196895 0.513823 -0.072256 -0.159095 0.041510 0.569887 0.230951 0.172919 -0.407066 0.328233 0.280197 -0.058965 0.908661 0.924878 0.089463 0.503554 -0.278178 -0.036300 -0.583795 -0.271282 -0.165204 0.285827 -0.095139 0.497790 0.248332 0.588910 -0.384928 -0.123392 0.037275 0.288789 0.525664 -0.049069 0.029944 -0.082735 -0.330466 -0.199893 0.262910 -0.381548 0.131997 0.273094 -0.292922 -0.330066 0.119267 0.398954 0.224546 -0.262007
sent_54 0.403560 -0.297260 0.027975 0.792296 0.458246 -0.378154 0.562106 0.080666 -0.112636 0.172176 -0.164451 0.155989 -0.392929 -0.040049 -0.523785 0.074444 0.517521 0.446111 -0.420511 -0.243815 -0.560526 0.067263 -0.051430 -0.396457 -0.529378 0.402943 0.430789 0.050993 -0.125942 0.039235 0.746833 -0.090000 0.062117 0.158235 -0.018986 -0.793897 0.149473 0.137593 -0.225135 0.084401 -0.275584 0.020406 -0.042535 0.601801 0.392924 -0.727209 0.190708 -0.049278 0.092582 0.831472
sent_55 -0.471404 0.057978 0.294026 0.219920 0.213770 0.200421 0.139192 0.077389 0.480167 -0.350209 -0.548562 -0.370029 1.032788 0.233281 -0.091632 0.139542 -0.240924 -0.454202 0.118514 -0.813314 -0.290324 -0.067214 0.011952 0.293297 0.206025 -0.221362 0.471616 -0.467586 -0.011354 -0.688735 -0.076571 0.128289 -0.368101 0.731677 0.539515 -0.222638 1.122721 0.486449 -0.388912 -0.047924 -0.260562 -0.349539 0.229713 0.088819 -0.134443 0.640457 -0.602636 0.328921 0.338670 -0.270243
sent_56 -0.460914 -1.204609 0.405841 0.277174 -0.282598 0.407187 -0.205672 0.207841 -0.085919 0.138330 0.472839 0.320238 0.516427 -1.164592 -0.538541 0.331753 -2.049996 -0.958811 -0.061706 0.403601 0.423551 0.452597 0.040619 -0.498372 -0.017481 -0.235759 -0.282269 0.152309 -0.594523 0.084867 -0.363055 0.356593 -0.576784 0.091251 -1.061254 0.939777 -0.529968 0.031568 -0.171352 0.481970 -0.475180 0.052437 -0.364600 -0.567828 -1.464360 0.580307 0.270371 -0.259516 0.134145 -0.100838
sent_57 -0.224693 -0.562365 0.121931 0.264395 0.022475 -0.277987 0.082348 -0.099880 0.179309 0.170614 -0.083060 0.037723 0.071704 0.130172 -0.409326 0.102981 0.173652 0.415353 -0.197976 -0.158027 0.218077 -0.324391 -0.074032 -0.039199 -0.017734 0.424263 0.114480 0.092501 0.010753 0.126852 0.211842 0.023860 0.035338 0.437100 0.306040 -0.248518 0.248232 0.245547 -0.037489 -0.060169 -0.051492 -0.249116 0.201973 0.229324 -0.033171 -0.062664 0.028470 0.104431 -0.058730 0.064107
sent_58 0.082245 -0.003804 -0.025100 0.387332 0.126208 0.254376 0.508180 0.359760 -0.365830 0.072710 0.109421 -0.168541 -0.034638 -0.456759 -0.008565 -0.334502 -0.304309 -0.055239 0.318713 -0.087819 -0.091823 -0.135697 -0.228247 -0.056046 -0.151413 -0.229676 -0.110969 0.168052 -0.059970 -0.336643 -0.005621 0.155505 -0.117686 -0.067553 -0.245471 0.133300 -0.047672 -0.135484 -0.148185 -0.194326 -0.226513 0.062596 -0.177847 -0.048809 0.062516 0.033446 -0.326628 0.063922 -0.218040 0.058290
sent_59 -0.004208 -0.048360 0.242886 0.312674 -0.186368 0.094219 0.144518 0.131447 -0.079233 -0.028395 -0.152622 -0.469479 0.205304 -0.410736 -0.139652 -0.434527 -0.168306 -0.167596 0.053646 0.017047 -0.034232 0.501228 0.226028 -0.075563 -0.264919 0.033752 0.029750 -0.541913 -0.137776 -0.030131 -0.058665 0.052644 -0.240146 -0.214123 -0.263040 0.023246 -0.284684 -0.175049 0.108039 -0.274959 -0.273086 0.223319 0.030662 -0.117474 0.379917 0.040548 -0.267944 -0.258666 -0.017054 0.603777
sent_60 -0.066018 0.632699 -0.165954 0.177543 -0.847329 0.560524 -0.728278 -0.918717 0.149441 -0.033286 0.362987 -0.270645 0.061967 0.225430 0.232185 0.231485 -0.075865 0.399759 -0.142185 0.211596 -0.111835 -0.421504 0.339413 0.279175 0.633023 -0.547349 0.203493 0.383835 0.864421 1.124230 -0.109178 0.312016 0.338340 0.121555 -0.459685 0.373352 -0.503588 0.168886 -0.189163 -0.049459 0.250570 0.463382 0.565963 -0.017616 -0.338279 0.223342 -0.013188 0.033753 0.598195 -0.152462
sent_61 -0.410828 -0.470861 0.234377 0.952175 -0.444462 -0.674312 0.055845 0.266756 0.001905 0.544581 0.001627 -0.117711 -0.202767 0.217165 -0.247956 -0.128873 0.604548 1.088226 -0.061678 0.015498 0.067983 -0.668315 -0.109637 -0.861363 -0.466206 1.027806 -0.022878 0.399218 0.192827 0.281928 -0.452905 0.033181 -0.052763 0.168079 0.875423 0.268468 0.112603 0.171471 -0.074254 0.005878 0.218048 -0.126288 0.521615 0.415258 0.071844 -0.725790 -0.389761 -0.098275 -0.532980 0.301204
sent_62 0.035074 0.225068 0.186205 0.413570 -0.068050 -0.441676 0.444129 0.146744 0.107053 -0.378971 -0.021316 -0.064747 -0.184900 0.045608 -0.126555 0.198240 0.243482 0.350285 -0.141052 -0.056288 0.005242 -0.450059 -0.090835 -0.177747 -0.181984 -0.074800 0.193380 0.219219 0.102907 0.225282 0.113217 0.017046 0.605219 -0.315275 0.200083 -0.066530 -0.248484 -0.636349 -0.206603 -0.110103 -0.165792 -0.323167 0.366956 -0.224105 0.240196 -0.431720 0.014364 -0.057152 -0.405324 0.764332
sent_63 -0.072656 -0.801094 -0.275078 -0.066440 0.052769 0.354563 0.535239 0.218680 -0.228979 -0.136829 0.386456 -0.216164 0.008148 -0.447068 -0.246306 0.585885 -0.452866 -0.588687 0.516863 0.541725 -0.158589 0.521250 -0.246128 -0.228924 -0.480532 -0.420583 -0.376079 0.164700 -1.267443 0.111471 0.122854 0.321690 0.095091 -0.200668 0.079964 0.653199 -0.127622 -0.075992 0.502647 -0.213419 -0.764421 -0.000257 -0.048807 -0.049260 -0.298693 -0.201332 0.243266 -0.262385 -0.231362 0.099811
sent_64 0.351035 0.160143 -0.105370 0.149261 -0.178556 -0.908090 0.193163 0.263538 -0.339319 -0.314583 -0.194410 -0.415375 -0.099131 -0.052707 -0.088567 -0.166421 0.104782 -0.031311 -0.185954 0.021612 -0.285359 -0.351976 -0.183352 -0.101274 -0.304041 0.113994 -0.136371 0.247125 0.296363 -0.079873 0.201748 -0.123677 -0.087408 -0.195769 0.267084 0.110413 -0.094533 0.260674 0.030133 -0.066457 -0.302654 0.190342 -0.245681 0.370845 0.144617 -0.444582 -0.200024 -0.172400 -0.568334 0.237955
sent_65 0.439213 -0.207780 -0.002440 0.168335 -0.028076 0.072448 0.516195 -0.046469 -0.271837 -0.377662 -0.100904 -0.445131 -0.320197 0.240838 -0.152517 0.211554 0.109179 -0.458424 0.298249 0.301207 -0.453119 -0.051589 -0.161093 -0.167577 -0.138281 -0.172683 -0.195391 -0.132624 0.025023 -0.251681 0.180071 -0.381358 0.049948 -0.298965 -0.041305 -0.238513 0.255449 0.026676 0.201277 -0.066127 -0.090122 -0.143103 -0.350752 -0.194936 0.118853 -0.222066 0.079260 0.403599 0.142520 -0.107763
sent_66 -0.308692 0.469197 -0.318101 -0.713448 0.465424 -0.302647 0.544146 0.639521 -0.691265 -0.688773 0.491489 -0.580137 0.004399 -0.361838 -0.674352 0.894911 -0.309436 -0.527417 -0.155023 -0.007980 0.264371 -0.548024 -0.224318 0.270147 -0.736031 0.289494 -0.554716 -0.179987 -0.324697 0.265934 0.271845 0.243333 0.591709 0.157421 0.410807 -0.339302 0.023381 0.626364 -0.366702 -0.042391 -0.450279 0.522655 -0.710812 -0.348477 0.566436 0.005249 -0.510721 0.417884 -1.037825 0.008311
sent_67 -0.212771 0.060308 -0.108638 0.136628 -0.510825 0.140549 -0.606011 -0.622527 -0.019353 -0.017624 0.315871 0.048302 0.298999 -0.000275 0.602611 0.083582 -0.652478 0.139659 -0.084637 -0.001317 0.623746 -0.481179 -0.035967 0.208617 0.588693 -0.435413 -0.107624 0.222597 1.154117 0.321324 0.292355 0.238204 -0.122004 0.161356 -0.180429 0.597596 -0.292997 0.152104 -0.272474 0.053809 0.103889 0.428921 0.227143 -0.234934 -0.794589 0.662242 0.276459 -0.183366 -0.059267 -0.263866
sent_68 0.062470 -0.163928 -0.703720 0.441645 -0.237340 -0.084220 0.397546 -0.154403 0.806357 -0.394708 -0.265318 -0.577033 0.622275 0.802565 0.620123 0.075152 -0.003006 -0.364336 0.141285 -0.634062 -0.608739 0.178851 0.260706 0.157351 0.215726 -0.747039 0.630768 -0.885368 -0.048434 -0.370514 -0.160137 -0.084004 0.030509 0.168260 0.515438 0.214057 0.747336 0.368190 -0.656747 0.135199 -0.119294 -0.617264 0.326724 0.701043 0.085256 0.075528 -0.315771 0.445977 0.317973 -0.408491
sent_69 0.050753 0.078179 -0.077494 0.606780 -0.007990 -0.020035 0.387903 -0.086828 -0.192096 0.045476 -0.000333 0.036162 -0.334269 0.142773 -0.111451 0.104567 0.235308 0.101477 0.164891 0.153535 -0.237501 -0.102903 -0.204191 0.105873 -0.131582 0.066147 0.103546 0.052231 -0.039074 0.145557 0.313730 0.253318 0.085817 0.006061 -0.178273 -0.156181 -0.020249 0.189881 0.203349 -0.282791 -0.280926 0.065244 0.128951 0.132005 0.541658 -0.228588 -0.395584 -0.157120 -0.252074 0.227301
sent_70 0.020273 0.214173 -0.210922 0.364992 -0.126858 0.055545 0.379501 -0.091888 -0.048360 -0.128744 -0.039288 -0.047687 -0.218674 0.551345 -0.233039 -0.096808 -0.302903 -0.603095 0.125527 -0.044796 -0.259555 -0.102985 0.156639 0.103923 0.161568 -0.385388 0.284110 -0.339518 -0.111238 0.104332 -0.040915 0.015934 -0.078296 -0.077118 -0.496628 -0.327479 0.112195 -0.184999 -0.339656 -0.300923 -0.038551 -0.093305 -0.144514 0.498033 0.100061 -0.001668 -0.105411 0.174398 0.573935 -0.173846
sent_71 0.679509 -0.271811 -0.219223 1.022652 0.338993 0.463226 -0.029332 -0.481936 0.642734 0.934805 -0.109580 0.487023 -0.357515 -0.079325 -0.226460 -0.506056 0.178734 0.340839 -0.024623 -0.514762 0.091185 -0.297922 -0.130659 -0.700134 0.132025 -0.073222 0.352414 -0.589085 0.055439 -0.437174 0.601486 0.412935 -0.359944 0.290547 -0.216930 0.004237 0.386437 -0.449881 -0.249593 -0.231322 0.374268 -0.082055 0.077265 -0.347388 0.319101 -0.345224 0.138504 0.163534 0.237677 -0.197515
sent_72 -0.109299 -0.224536 -0.253687 0.632192 0.203388 0.614267 0.244691 -0.138586 0.713619 0.049345 -0.405928 -0.162944 0.567145 0.267482 0.783743 -0.146405 -0.066278 -0.066553 0.217803 -0.293220 -0.045325 0.761906 0.086968 -0.003064 -0.215473 -0.146407 0.061946 -0.578902 0.398044 -0.476744 -0.234573 -0.448223 -0.150565 0.042044 0.297051 0.329016 0.709912 -0.093131 -0.975457 -0.227598 0.519641 -0.718624 -0.462971 -0.033994 -0.083748 0.548387 -0.008976 0.535177 -0.017716 -1.259088
sent_73 -0.355847 -0.354325 -0.333997 0.124483 -0.576217 -0.007424 -0.706185 -0.635466 -0.166556 0.275027 0.056264 0.616021 0.137468 -0.215702 0.595702 0.341706 -0.114671 0.554799 -0.387328 0.076738 -0.721011 -0.188581 -0.055710 0.154059 0.460838 -0.424955 -0.349647 0.451882 0.476724 0.978404 0.608883 -0.400753 0.102459 -0.218990 -0.160734 0.372947 -0.422211 0.329456 0.353908 0.524123 -0.870267 0.543124 0.138071 0.106655 -0.124443 -0.645763 0.562570 -0.120697 -0.061658 0.211773
sent_74 -0.190482 0.195540 0.003244 0.608421 -0.621484 -0.315825 0.077409 -0.056069 0.003005 0.044043 0.030041 0.096529 0.202798 -0.134602 0.033952 -0.261464 -0.687562 -0.188866 0.467153 -0.539636 -0.067282 0.126234 -0.218138 -0.062793 0.188500 -0.368969 0.014490 -0.633281 0.117231 -0.247471 -0.065897 0.236235 -0.439742 -0.422952 -0.262317 0.017688 0.135947 -0.007220 0.012171 0.103817 0.215666 0.249822 -0.031623 -0.054447 0.147363 0.109567 -0.370751 -0.051722 -0.528140 0.161605
sent_75 0.558724 -0.451389 0.174426 -0.146743 0.141878 -0.401588 0.105688 0.233308 -0.370036 0.168433 -0.005425 -0.151930 -0.113739 0.090776 -0.095365 -0.306644 -0.508404 -0.180513 -0.069483 -0.449803 0.085109 0.194288 0.055584 -0.340411 0.265454 0.004247 -0.036698 -0.133488 -0.618863 -0.801235 0.395865 0.159984 -0.530066 -0.315620 -0.257907 -0.043924 0.220475 0.107755 0.269949 -0.097883 -0.162600 -0.071988 -0.096994 0.292909 0.384523 -0.081190 -0.450567 -0.177051 0.143416 0.346437
sent_76 0.091975 0.486910 0.166765 0.692583 0.347088 0.563517 0.867576 -0.167308 -0.265396 -0.325443 0.085018 -0.274217 0.345334 0.514810 -0.458488 0.630257 -0.333319 -0.493468 0.541462 -0.015215 -0.311900 -0.347717 -0.283391 0.586454 -0.326079 -0.067167 0.382088 -0.389481 0.439896 -0.012911 0.187923 -0.169660 0.264693 0.168642 0.204279 -0.048483 0.614670 0.884875 -0.552670 -0.363696 0.136745 0.008819 -0.408451 -0.410611 0.137360 0.816434 -0.227360 0.702619 -0.167238 -0.945427
sent_77 0.303385 -0.308340 -0.299269 0.091898 -0.689653 0.323920 0.544128 0.177142 0.416321 -0.284949 -0.333732 -0.771785 0.916731 0.028509 1.079668 -0.382501 0.025106 -0.039943 0.402040 0.248779 0.382545 0.958871 0.266778 0.812702 -0.393232 -0.920440 -0.181044 -0.790136 1.079392 -0.746467 -0.256237 -0.403410 -0.587367 -0.603617 0.214049 0.230475 0.014939 0.022598 -0.720129 0.004269 0.038829 0.148214 -0.404091 0.187175 0.196899 0.576344 0.101225 0.536922 0.001655 -1.264485
sent_78 0.046956 -0.357199 -0.713600 0.103940 -0.381080 -0.024855 0.229656 -0.374335 -0.012814 0.122894 -0.060389 0.368965 -0.271834 -0.389363 -0.178283 0.215721 -0.237307 -0.040782 -0.077308 -0.076062 0.057175 -0.191093 0.303498 -0.386905 0.096648 -0.020492 0.117907 0.122337 -0.168962 -0.086635 0.374585 0.541175 -0.424394 0.159273 -0.345677 -0.138377 0.389944 -0.019223 -0.010094 0.118931 -0.055042 -0.216309 -0.039905 0.488618 -0.400604 0.112778 0.220605 0.177306 0.027841 -0.315591
sent_79 0.349495 0.145231 0.081502 0.403515 0.069046 -0.799827 -0.039986 0.177083 -0.335836 0.279975 0.097990 0.611411 -0.159356 -0.312006 0.455451 -0.149639 -0.246199 -0.074325 0.085122 0.092066 0.100058 -0.087688 0.149736 -0.211876 -0.071765 0.149985 0.162582 -0.117295 -0.231886 0.037210 0.358082 0.466361 -0.139178 -0.105256 -0.005827 0.120599 -0.200506 0.113086 0.003982 0.369488 0.146284 0.674479 -0.050241 0.310989 0.522623 -0.127218 -0.045771 -0.547845 -0.606269 0.151863
sent_80 0.229076 0.151967 -0.172714 0.403941 0.077594 -0.298037 -0.008576 -0.211349 0.255730 -0.106576 -0.434062 -0.234597 0.562370 -0.032850 0.514830 -0.111227 0.042568 -0.270218 0.007883 -0.216247 -0.624063 0.031618 0.014866 -0.238504 -0.220606 -0.486863 0.066083 -0.288338 -0.201348 -0.351275 0.175733 -0.227354 0.160072 -0.111076 0.700546 0.129458 0.275739 -0.330051 -0.151384 -0.005882 0.049268 -0.221609 0.112301 -0.400758 -0.322796 -0.122145 0.316607 -0.319642 -0.219867 0.200684
sent_81 -0.534452 -0.608076 0.315096 0.276094 0.709764 0.089211 -0.081797 -0.063109 -0.165851 -0.034673 0.102538 -0.090237 -0.163165 -0.166616 -0.816206 0.072909 -0.659649 -1.115569 -0.743076 0.418375 -0.337100 0.268503 0.084632 -0.666877 -0.662493 0.327508 -0.278148 0.082266 -0.209423 0.694480 -0.329854 -0.333242 -0.298958 0.412994 -0.452500 -0.109658 -0.630788 -0.091597 -0.013909 -0.136245 -0.718808 0.172333 -0.567172 -0.290595 -1.213656 -0.351568 0.383098 -0.395381 0.254384 0.764670
sent_82 -0.347893 0.100196 -0.013084 -0.002893 -0.335559 -0.359554 -0.005721 -0.279013 -0.373307 -0.490856 0.023560 -0.337953 0.133155 0.219427 0.382037 0.099255 -0.058320 0.179383 -0.010012 0.322806 -0.131771 -0.310845 -0.104312 0.056703 0.003261 0.058019 -0.301426 0.116148 0.235511 0.568911 -0.034439 -0.002189 -0.169893 -0.239998 0.077716 0.097734 -0.559684 -0.167744 0.575085 -0.447675 -0.185648 0.421860 0.415806 0.067959 0.158563 0.188383 0.039089 -0.275824 -0.087605 0.365639
sent_83 -0.426285 0.108124 -0.259841 0.467138 -0.110420 0.441504 0.302686 0.076726 -0.357053 0.011119 0.091893 -0.146792 -0.104706 -0.141713 -0.143628 0.537449 -0.162877 -0.286449 0.055231 0.012816 0.001628 -0.095368 -0.243950 0.029611 -0.242949 -0.042043 -0.429984 -0.013045 0.653848 -0.184122 0.289472 -0.005855 -0.034329 0.168739 0.101523 0.100805 0.067274 0.335893 -0.391522 -0.248220 -0.110304 0.112294 -0.361329 -0.371707 0.156598 0.084887 -0.469347 0.187449 -0.406707 -0.455233
sent_84 -0.351681 0.418878 0.473393 -0.337329 0.122704 -0.434708 -0.397483 -0.094724 -0.419101 -0.162890 0.209470 0.553432 -0.936524 0.082286 0.859864 0.681485 -0.251571 -0.184816 -0.150657 -0.288720 0.104847 0.336566 0.185988 -0.289178 0.444973 0.018737 -0.447085 0.300198 -0.004124 0.075642 0.452628 0.179098 0.081952 -0.727213 -0.297350 -0.160119 0.180295 0.018807 0.579583 0.274844 -0.428287 -0.513161 -0.309793 0.000998 0.303293 -0.189830 -0.338224 -0.031584 0.284071 0.259977
sent_85 0.078544 0.104274 -0.167917 0.555707 -0.236106 -0.227038 0.299258 -0.084049 -0.077421 -0.172347 -0.056607 -0.618722 -0.228207 0.000539 -0.007429 0.288214 -0.036059 0.172540 -0.081917 -0.270833 -0.082909 -0.143084 0.266539 -0.304270 -0.099075 0.080298 -0.069994 -0.108955 0.096509 0.145553 0.231046 -0.035676 0.360687 -0.202672 -0.038184 -0.065070 0.031911 -0.143817 -0.045730 -0.157604 0.157882 -0.068418 0.052378 -0.193008 0.707207 -0.288661 -0.390037 -0.003406 -0.466208 0.224864
sent_86 -0.261819 -0.126103 -0.174115 -0.779104 0.142845 0.140061 0.467566 0.417767 -0.413047 -0.038743 0.252024 0.039591 -0.102753 -0.240243 -0.630666 0.920727 -0.232927 -0.321079 -0.168366 -0.188594 0.228083 0.676112 -0.108629 0.309114 -0.706872 -0.179245 -0.429388 0.486209 -0.798073 -0.057698 0.506938 -0.175753 0.398084 -0.140893 0.341550 -0.132480 0.067781 0.589298 -0.189424 0.036284 -0.804070 -0.142866 -0.512889 0.491234 0.263107 -0.371185 0.001946 0.218324 -0.482358 -0.080146
sent_87 0.198417 -0.006968 0.149775 0.779726 -0.820778 -0.228944 -0.020393 -0.346101 0.007395 -0.012493 -0.295867 0.341029 -0.478970 -0.023740 0.167865 -0.341192 -0.150538 0.413682 -0.303345 0.085301 -0.112084 -0.250876 0.225194 -0.432450 -0.033834 0.006455 0.289922 0.059697 0.218661 0.331280 0.267982 -0.998488 0.209250 -0.200483 0.093793 -0.015935 0.104269 -0.643212 -0.236806 -0.078674 0.462828 -0.345690 0.472801 0.430427 0.584370 -0.251088 0.311907 0.592675 0.219758 -0.251322
sent_88 -0.180539 -0.806328 -0.201583 0.004347 -0.384552 0.151328 -0.144873 -0.396959 -0.126837 0.294738 0.689517 0.202808 -0.441307 -0.224372 -0.156751 0.265884 -0.387212 -0.461933 0.085847 0.822039 -0.516614 0.351018 -0.541074 -0.191265 -0.113177 -0.508408 -0.434724 -0.390819 -0.134244 0.163054 0.123079 -0.198999 -0.501688 -0.020272 -0.464731 -0.035545 -0.884220 0.206335 0.338735 -0.039303 -0.165716 0.173272 -0.022691 -0.254483 -0.706539 0.158121 0.430404 -0.224379 0.478266 0.223546
sent_89 0.252350 0.064800 -0.223014 0.143587 0.173779 -0.386225 0.245630 0.293554 0.015405 -0.106832 -0.011962 0.204435 -0.323024 -0.277339 -0.187651 0.145623 0.287113 0.019468 -0.111623 0.270556 -0.131160 -0.036473 -0.072807 -0.160430 -0.154409 0.334840 0.076987 0.090625 -0.047289 0.095533 0.171563 0.286618 0.189925 0.014132 -0.087811 0.002229 -0.147839 -0.192476 0.038588 0.012636 0.190552 0.103893 -0.245534 -0.048913 0.422588 -0.367673 -0.029487 -0.378025 -0.519164 0.176606
sent_90 0.650032 -0.518794 0.149602 1.050014 0.525435 0.303479 0.558874 -0.157196 0.290189 0.329079 -0.062800 0.391552 -0.410437 -0.043047 -0.116635 -0.131312 0.288762 0.266264 -0.109462 -0.035761 0.107621 -0.012511 -0.004942 -0.487449 0.056859 0.370901 0.611448 -0.388734 0.339536 -0.130499 0.793069 0.137275 -0.010154 0.242396 -0.194004 -0.457628 0.537117 -0.250126 -0.530934 -0.003675 0.198754 -0.054595 -0.043256 0.146145 0.995844 -0.225121 0.031290 0.294058 0.225396 -0.130304
sent_91 0.052948 0.125146 -0.425606 0.020687 -0.693814 0.273770 -0.376737 -0.414590 -0.015469 -0.197867 -0.045181 -0.058988 0.112288 0.361605 -0.246815 0.659685 -0.390225 0.029350 -0.143897 -0.041955 0.011817 0.061247 0.032460 0.472895 0.315494 -0.777227 -0.247182 0.510126 0.618902 0.310572 0.481444 0.026978 -0.770211 -0.190361 -0.994902 0.150566 -0.239675 0.197887 0.283416 0.054230 -0.451562 0.381022 0.034132 0.539005 -0.269181 -0.304395 0.330264 -0.289270 0.296723 0.124421
sent_92 0.321427 0.113989 0.062793 0.706270 0.460789 -0.081101 0.134799 0.074369 0.128607 0.336763 0.012053 1.255980 -0.518456 0.112362 -1.465753 -0.123621 0.851636 0.693425 -0.282249 0.286458 -0.180292 -0.662038 -1.023216 -0.477778 -0.304969 0.046368 0.624186 0.013941 0.089954 -0.040841 0.349106 0.508372 0.106723 0.349056 -0.341791 -0.841974 -0.073431 -0.319363 -0.166666 -0.301158 -0.018914 0.116710 0.092988 0.016433 -0.064227 -0.479860 0.432907 0.251176 0.419475 -0.010904
sent_93 -0.051454 0.252413 -0.102146 0.380935 0.011709 0.114996 -0.035686 0.029342 0.033683 0.018176 0.089575 0.535947 -0.375022 0.209217 -0.059355 0.068193 0.232290 0.231120 0.106445 0.545105 -0.129784 0.012731 -0.799445 -0.069663 -0.465340 -0.207781 0.026133 -0.036960 0.216443 0.152848 0.201860 0.403477 0.098887 -0.059626 -0.046754 -0.245062 -0.222518 -0.321080 -0.038931 -0.371717 -0.285619 0.066392 0.146867 -0.194642 0.133877 -0.069139 -0.029061 0.039783 -0.036741 -0.028304
sent_94 -0.223117 0.101041 0.181646 0.355204 0.270259 -0.398481 0.265029 0.213372 -0.102001 -0.598023 -0.232933 -0.305396 0.232187 -0.070220 -0.603912 -0.049174 -0.370057 -0.498169 -0.335134 -0.274735 -0.618638 -0.177494 -0.206854 0.138982 -0.581619 -0.227996 0.225937 -0.639532 -0.378511 -0.124320 0.460895 -0.526613 -0.026851 0.453140 0.147461 -0.278712 0.187715 0.513989 -0.121413 -0.309531 -0.778408 -0.150515 -0.162331 0.181439 -0.004985 0.222092 -0.137114 0.386595 0.432323 0.110512
sent_95 -0.296505 0.092465 -0.189684 -1.178735 0.195626 0.269636 -0.029032 0.826486 -0.123107 -0.301504 0.389353 0.364099 -0.120769 -1.101087 -0.784949 0.350240 0.330636 0.010046 -0.475637 0.298018 0.915053 0.535271 -0.600031 0.059655 -0.362008 -0.241634 -0.399866 0.288086 -0.645157 -0.060552 0.760934 0.032878 0.565540 0.235841 0.143168 -0.573535 -0.336763 -0.004704 -0.409406 0.425250 -1.129809 0.164915 -0.498297 -0.187579 0.474048 -0.416088 -0.327198 0.568856 -0.628656 -0.165836
sent_96 0.143186 0.084633 0.099012 0.345188 -0.087185 -0.497448 -0.103244 0.393137 -0.153101 0.337233 0.476083 0.835908 -0.900566 0.183384 -1.113949 0.308257 0.727793 0.850236 -0.204950 0.466460 -0.258197 -0.367687 -0.971433 -0.537825 -0.518162 0.611253 0.361143 0.320970 0.111677 0.342536 -0.156942 0.565112 0.144106 0.388555 -0.088863 -0.671517 -0.196688 0.599061 -0.210186 0.037692 0.063146 0.127121 0.026511 0.468050 -0.185867 -0.366654 -0.173475 0.380871 0.149721 0.032527
sent_97 -0.208136 -0.364808 -0.533834 -0.134118 -0.331704 -0.200150 0.408977 -0.123949 -0.770456 -0.269662 -0.060975 0.290710 -0.345218 0.407643 -0.256587 0.333108 -0.120343 0.130829 0.262945 0.432221 0.218282 -0.647326 -0.296429 -0.083976 0.087012 -0.114331 -0.311159 0.372761 -0.094011 -0.335450 0.389714 -0.084222 -0.445128 -0.294224 -0.187333 -0.335796 0.046428 -0.190264 0.415884 0.011497 -0.039850 0.291450 0.420773 0.504618 0.446605 -0.051935 0.208787 0.087373 -0.118375 -0.441223
sent_98 -0.365810 -0.127367 -0.294555 0.625442 -0.399203 -0.130946 0.489824 -0.126780 0.075083 -0.028692 -0.338722 -0.280122 0.202640 0.201923 0.106861 0.273836 -0.058547 0.028760 -0.055505 -0.394316 0.085324 -0.332385 -0.132301 -0.276894 -0.169453 0.024521 0.012671 -0.745690 0.757246 -0.361221 0.025106 -0.505922 0.453668 0.011045 0.884531 -0.271060 0.399784 -0.080865 -0.756361 -0.086693 -0.025860 -0.095585 0.333406 -0.367177 0.516645 0.239351 -0.618098 0.882055 -0.353380 -0.632096
sent_99 0.428913 0.224534 -0.217976 0.210048 0.294508 -0.298015 0.413104 -0.336254 0.281348 0.013127 -0.245832 -0.040118 0.155330 0.057362 -0.355787 -0.075933 0.023514 -0.188107 -0.227762 -0.427076 0.122601 0.461683 0.243200 -0.208053 -0.093015 -0.022618 0.322430 -0.421417 -0.300171 -0.146449 0.176507 0.072544 0.070266 -0.272719 -0.158969 -0.211973 -0.199176 -0.313976 0.354681 -0.154820 -0.173736 0.244877 0.148726 -0.144906 0.205430 -0.063303 -0.140938 -0.293035 -0.200498 0.350037
sent_100 0.324541 -0.565180 -0.385985 0.067552 -0.268286 0.296446 0.295296 0.298945 -0.112661 0.388522 0.116296 0.297615 -0.943544 0.282081 -0.194460 0.682295 0.186683 0.167804 0.204028 0.301004 -0.319621 0.008138 -0.284886 -0.497970 -0.296274 0.363314 -0.196893 0.555240 -0.107208 0.395605 -0.230204 0.384193 -0.331864 -0.078851 -0.096690 0.152893 0.433315 -0.178096 -0.131145 -0.263987 0.375622 -0.437845 -0.457138 0.479434 0.028820 -0.317939 -0.097792 0.155272 0.310005 -0.330983
sent_101 0.107884 0.164275 0.068040 0.416789 0.108260 -0.230057 0.139503 0.234039 0.320529 -0.286813 -0.299972 -0.153342 0.181031 -0.111063 0.158541 -0.184446 0.123840 0.137170 -0.173906 -0.192909 -0.260085 0.253492 -0.021067 -0.290868 -0.233030 0.131594 0.077878 -0.207699 0.063136 -0.189095 0.101052 -0.387358 0.262589 -0.142232 0.227523 -0.141506 0.035707 -0.382338 -0.117964 0.032645 0.001670 -0.119126 0.083959 -0.126299 0.430507 -0.110792 -0.155417 0.021975 -0.361494 0.280079
sent_102 -0.109511 0.238555 0.082574 -0.148757 -0.406552 -0.085825 0.213810 0.230393 -0.453650 -0.065602 0.161549 -0.184836 -0.193512 -0.389692 0.205114 0.000817 -0.286352 -0.183537 0.228684 0.020326 -0.070425 0.333489 0.004330 0.074046 -0.145094 -0.385571 -0.446347 0.008893 -0.224691 -0.505564 0.422442 -0.440935 0.208485 -0.537980 0.231510 -0.180273 0.011311 -0.311689 0.148074 0.042976 -0.083230 -0.172226 -0.043383 -0.263446 0.563211 -0.120604 -0.227326 -0.065446 -0.557723 0.317176
sent_103 -0.389853 0.104849 -0.161049 -0.070120 -0.329756 -0.093452 -0.515688 0.504039 -0.058727 -0.046597 0.430446 0.374258 -0.306881 -0.717213 -0.291825 0.347942 -0.374162 0.089846 -0.183816 0.132940 0.303151 -0.436708 -0.192942 -0.677282 -0.571137 0.219753 -0.364299 0.059236 -0.234044 0.481705 -0.196290 0.617213 -0.146339 0.301495 0.009838 -0.225563 0.031473 -0.058174 -0.048121 0.616184 0.014005 -0.087474 -0.124059 -0.075969 -0.566515 -0.209150 0.015708 0.089336 0.044585 0.396499
sent_104 -0.167047 0.189440 0.059012 -0.466731 -0.039520 0.077802 0.061182 0.366643 -0.037805 -0.230960 -0.028874 -0.073045 -0.160821 -0.089700 -0.313911 0.384852 0.033251 0.014758 -0.166311 -0.097802 0.511902 0.107068 -0.090709 -0.163726 -0.098604 -0.043646 -0.337733 0.725958 0.104671 -0.069481 0.144759 -0.436620 0.412639 -0.074515 0.019803 -0.219600 -0.138089 -0.206604 -0.227874 0.215870 -0.325826 -0.101929 -0.111574 -0.115664 0.019985 -0.265212 -0.229110 0.245504 -0.500287 -0.098882
sent_105 -0.404032 0.043345 -0.005485 -0.183913 0.215023 -0.115171 0.228958 0.405131 -0.115420 -0.070637 -0.021416 0.501905 -0.133434 -0.205526 -0.470682 0.237558 0.007047 -0.316987 -0.168697 -0.137162 0.090827 0.390498 -0.443117 -0.201586 -0.185535 0.091333 -0.194513 0.218566 0.002101 -0.296545 0.240079 0.035214 -0.172444 0.138352 0.059947 -0.351689 0.061445 0.218982 -0.211488 -0.001467 -0.704464 -0.086380 -0.417004 0.380178 -0.106083 -0.013856 -0.397004 0.151532 -0.161040 -0.095048
sent_106 0.170589 0.228851 0.038874 0.213398 -0.283271 -0.404525 0.066650 0.519106 -0.188971 -0.331480 0.024998 -0.496709 -0.169026 -0.173384 -0.056132 -0.045746 0.059959 -0.043779 0.138982 0.271644 0.034047 -0.141145 -0.038467 -0.099729 -0.494675 -0.109701 -0.177706 -0.297377 0.154704 -0.008676 0.087541 0.311254 0.150356 -0.382477 0.113664 -0.068974 -0.029827 -0.108572 0.146810 -0.071839 -0.102650 0.167507 -0.234766 0.006593 0.382017 -0.446065 -0.251895 -0.118279 -0.167509 0.238102
sent_107 -0.020816 -0.132377 -0.041785 0.012889 0.199547 -0.457026 0.297042 -0.009471 -0.313809 -0.512070 -0.286039 -0.007607 -0.155723 -0.112665 0.124590 0.063603 -0.271093 -0.281136 -0.221466 -0.217585 0.264179 -0.062321 0.155445 -0.202150 -0.104370 0.168046 -0.190073 -0.023051 -0.140706 -0.165290 0.398056 -0.291297 -0.015430 -0.251357 -0.114476 -0.238105 -0.140497 -0.142320 0.412385 0.157983 -0.538237 0.049636 -0.058227 0.125928 0.590641 -0.115621 -0.305304 0.248613 -0.170536 0.029453
sent_108 0.772291 -0.261351 0.273583 0.255030 0.213377 -0.405293 0.412451 0.085683 -0.380318 -0.034129 -0.045974 -0.424380 -0.239719 0.270677 -0.441896 -0.128431 -0.420479 -0.357037 0.092254 -0.489723 -0.019058 -0.075077 0.113313 -0.241552 0.193029 -0.208537 0.051443 -0.125444 -0.533174 -0.786154 0.513258 -0.101730 -0.172614 -0.344060 -0.245435 -0.299432 0.364095 0.091202 0.272933 -0.145586 -0.121309 -0.037653 -0.153177 0.212570 0.588977 -0.249150 -0.483509 0.058040 0.197979 0.140703
sent_109 -0.107976 0.229816 -0.101144 -0.162261 -0.065240 0.108487 -0.036289 0.135699 0.104392 -0.182448 0.146430 0.291915 0.091101 0.114253 -0.390607 0.504097 -0.008133 0.085809 -0.079077 0.017834 -0.169852 0.287131 -0.428567 0.018756 -0.049769 0.094786 0.030770 0.029259 0.599636 -0.178208 -0.009166 0.201786 -0.251319 -0.020970 -0.174924 -0.392874 -0.058293 0.212553 -0.100384 0.173172 0.115458 0.244484 -0.041615 0.158027 -0.012463 0.183772 -0.007631 -0.045801 0.066490 0.111111
sent_110 -0.198608 0.039189 0.046259 -0.067842 -0.577121 0.156794 -0.626165 -0.349730 -0.270358 -0.112430 0.360968 0.141182 0.258531 -0.409563 0.192893 0.502099 -0.660676 -0.036015 -0.171125 0.373422 0.186352 -0.298063 0.037556 0.183562 0.300270 -0.064721 -0.323809 0.347099 0.284163 0.840945 0.210213 0.719153 -0.455096 0.142732 -0.636722 0.595796 -0.285902 0.312839 0.251765 -0.080336 -0.123174 0.199430 -0.098517 -0.296158 -0.811618 0.634259 0.181035 -0.356857 -0.069169 -0.052869
sent_111 0.054951 0.259817 -0.202956 0.274494 -0.161797 -0.003493 -0.434026 -0.323440 0.289764 0.299252 -0.298415 0.267842 -0.032705 -0.003213 0.035776 -0.027036 0.354771 0.413697 -0.388196 -0.164386 -0.450459 -0.320530 0.001466 -0.314489 -0.209432 -0.105700 -0.106865 -0.230674 0.024173 0.226502 0.034389 -0.194643 0.099148 -0.218043 -0.013406 -0.321751 -0.175362 -0.298027 0.327562 0.083392 -0.093132 0.136656 0.269979 -0.638876 -0.072984 -0.650964 0.223679 -0.082985 -0.261285 0.458882
sent_112 -0.188506 -0.043561 -0.158563 0.279474 -0.180369 -0.349366 0.033563 -0.093934 0.271244 -0.151941 -0.091655 0.165693 0.295650 -0.018292 0.084077 -0.012189 0.146581 0.315700 -0.210243 -0.012487 -0.227304 -0.049783 -0.335431 -0.125767 -0.082473 -0.046881 0.201941 -0.294019 0.128715 -0.088161 -0.008452 -0.055681 0.227698 0.112310 0.350707 -0.114805 -0.096962 0.005541 -0.080234 0.038785 -0.110672 -0.028594 0.395972 -0.189815 -0.037430 0.215643 -0.126296 0.212538 -0.159102 -0.042484
sent_113 -0.233041 -0.371103 0.140832 0.278644 -0.087256 0.063275 0.129141 0.044928 0.203352 0.337309 0.361618 0.059824 -0.142904 0.550611 -0.344854 0.568669 0.267094 0.328334 -0.044288 0.317722 0.187294 -0.384409 -0.035457 0.241656 0.489005 0.187529 -0.019723 0.552103 0.622217 0.580036 -0.285623 0.514061 0.242551 0.116987 -0.332531 0.420549 -0.013986 0.289345 -0.533457 -0.306170 0.191933 -0.302371 -0.278071 0.069161 -0.606128 -0.199263 0.257472 -0.244198 -0.299996 -0.295222
sent_114 0.433081 0.306790 0.105136 0.431620 0.163620 0.098590 0.049157 0.122978 -0.017103 0.019906 -0.187563 -0.469278 -0.430707 0.079032 -0.122654 -0.151702 0.246573 0.069653 -0.066055 0.086137 -0.132145 0.468112 0.126595 -0.343550 -0.556167 0.394694 0.110390 -0.088490 -0.085717 -0.003166 -0.038487 -0.109893 -0.115070 -0.122150 -0.103145 -0.011237 -0.064717 -0.246741 0.011265 -0.438542 0.317790 0.120769 -0.110514 0.163863 0.692849 -0.264675 -0.067178 -0.204637 -0.008778 0.092949
sent_115 -0.207144 -0.227054 -0.319585 0.346136 -0.002731 -0.036945 0.260569 -0.232144 0.368040 -0.070469 -0.307630 -0.314792 0.374116 0.469522 0.105582 0.499330 -0.055870 -0.292347 0.011793 -0.403010 -0.735112 -0.190337 -0.024642 -0.030792 0.054929 -0.165762 0.291231 -0.517872 0.018195 0.032597 -0.327371 0.139396 -0.069246 0.162502 0.371695 -0.053373 0.609682 0.380986 -0.425298 -0.098891 0.014846 -0.296287 0.065516 0.082096 -0.244758 0.023126 0.061861 0.269897 0.196818 -0.037191
sent_116 0.073996 -0.003237 0.040551 0.266926 -0.144384 -0.354494 0.047408 0.009732 0.024291 -0.117807 -0.133883 -0.081650 -0.019980 -0.204583 0.012693 0.003936 0.001430 0.046287 -0.094705 0.035062 0.060523 -0.039013 0.038304 -0.096047 -0.063287 -0.005614 -0.136223 -0.017549 0.110801 -0.022758 0.240247 -0.097821 -0.056951 -0.087918 -0.092774 0.031897 -0.221054 -0.099031 0.178243 0.005942 -0.058915 0.062031 0.000582 -0.067484 0.219510 -0.212237 -0.070783 -0.158639 -0.331041 0.197057
sent_117 -0.090247 -0.164163 -0.330969 0.076284 -0.318691 0.154261 0.333219 -0.135761 -0.192239 -0.024305 0.202569 0.026366 -0.148128 -0.014767 -0.029150 0.182954 -0.252250 -0.336145 0.216428 -0.102304 -0.124154 0.321505 -0.029160 -0.162014 -0.046091 -0.567353 -0.135912 -0.053679 -0.375387 0.148133 0.052852 -0.371866 0.370282 -0.512513 0.038938 0.013905 -0.328622 -0.386440 0.202789 0.135810 -0.534549 0.203172 0.150989 -0.141474 0.160879 -0.431236 0.059245 0.114536 -0.080753 0.360199
sent_118 -0.169110 0.104353 0.170139 -0.005056 -0.382720 -0.214336 -0.588515 -0.320963 -0.083242 -0.250086 -0.004026 0.031444 0.448507 0.209250 0.269337 0.046872 -0.431397 0.262923 -0.345509 -0.032563 0.064014 -0.680723 -0.109592 0.239912 0.331186 -0.199829 -0.081935 0.423868 0.698836 0.607663 0.039700 -0.067561 -0.158945 0.180031 -0.041259 0.251082 -0.279922 0.033525 -0.210577 -0.135183 -0.077717 0.588016 0.294651 0.079356 -0.482551 0.390311 0.207790 -0.069134 0.156730 -0.014570
sent_119 -0.128307 0.033731 0.085423 -0.175780 0.041079 0.053326 -0.510155 0.193959 0.084076 0.029980 -0.463180 -0.410136 0.661061 0.184778 0.130303 -0.220060 0.189196 0.193206 -0.034264 -0.116262 -0.453739 -0.021145 -0.071884 0.387277 -0.256580 -0.015464 -0.179805 -0.277062 0.389553 -0.343307 0.079714 -0.151562 -0.696359 0.322380 0.161375 -0.450914 0.460253 0.498101 -0.005565 0.068396 -0.093384 0.200928 0.089167 0.007862 -0.230570 0.120124 -0.267687 -0.262929 0.088424 0.240863
sent_120 0.284707 0.509590 -0.105172 0.136302 -0.044729 0.068580 0.442162 -0.209386 -0.403781 -0.475828 -0.221434 -0.135347 -0.478594 -0.041867 -0.388393 0.456953 0.300357 -0.332436 -0.034211 -0.009384 -0.368589 -0.455268 -0.182983 -0.295590 -0.216041 -0.171508 0.000887 0.448547 -0.112644 -0.100445 0.169116 -0.295956 0.248183 -0.049081 0.147653 -0.852200 0.089550 -0.050740 0.352660 0.170332 -0.263692 0.067813 0.235525 -0.168780 0.266885 -0.354772 -0.373285 0.491446 0.203215 0.245345
sent_121 0.015755 0.411035 -0.112335 0.052074 0.037085 -0.253246 0.121377 0.100680 0.077075 -0.250719 0.262560 0.114764 -0.231111 -0.235736 -0.083812 0.366372 0.235447 0.287254 -0.116998 0.053222 -0.336196 -0.138655 -0.258123 -0.098740 -0.257476 0.105644 0.129996 -0.098604 -0.089008 0.272499 0.187118 0.034106 0.483240 0.122139 0.307145 -0.250212 -0.026115 0.048193 0.040082 0.018277 0.196201 -0.000170 0.152038 -0.097524 0.360496 -0.021789 -0.100794 0.052009 -0.069364 0.266677
sent_122 0.035328 -0.352182 -0.897308 0.590571 -0.343499 -0.125038 0.353137 -0.452742 -0.355016 0.133506 -0.110676 0.126753 -0.459153 0.238468 -0.006513 -0.081731 -0.068456 -0.365919 0.232526 -0.005253 -0.308332 -0.431747 0.183892 -0.817970 0.015909 -0.330451 0.129688 -0.536143 -0.153819 -0.013597 -0.074976 -0.060525 0.044202 -0.363638 0.151443 -0.087360 0.201093 -0.355215 -0.014557 0.111710 0.189553 0.182360 0.115637 0.258854 0.075157 -0.540747 0.204268 0.300955 0.603118 -0.285444
sent_123 -0.458493 0.402810 0.437175 -0.077571 -0.323200 0.045804 -0.417619 0.152028 -0.442640 -0.073142 0.367602 0.546571 -0.026692 0.373594 -0.280069 0.114973 -0.067350 0.441197 -0.265982 0.245757 0.176002 -0.481741 -0.255189 0.471333 0.061518 -0.246077 -0.144067 0.489855 0.620731 0.539514 0.079593 0.119706 -0.109925 0.093750 -0.281504 -0.128170 -0.011328 0.160170 -0.637018 -0.279777 -0.073338 -0.007615 -0.065994 0.629207 -0.430224 0.301976 0.380791 0.035942 0.570607 -0.181212
sent_124 0.000851 -0.357437 -0.006828 0.510925 -0.047564 -0.004595 0.078457 -0.140038 0.439734 -0.245558 -0.527587 -0.085404 0.447609 0.450455 0.546764 0.237308 -0.229062 -0.128538 -0.080061 -0.534562 -0.844962 0.093863 -0.068401 0.295066 0.205397 -0.559474 0.553455 -0.285424 -0.361924 0.325302 -0.023184 -0.115595 0.174790 0.283920 0.377514 -0.106371 0.808776 0.272516 -0.697907 -0.186354 -0.317911 -0.518549 0.159110 0.598558 0.175641 0.098561 -0.013055 0.573713 0.579684 -0.334866
sent_125 -0.082425 -0.323013 0.439472 0.279120 0.059229 -0.039436 0.175190 0.087786 0.238584 0.233416 0.394953 0.174271 -0.276556 0.179608 -0.469432 0.506196 0.376613 0.435077 0.055003 0.128301 0.241989 -0.302786 -0.173118 0.146921 0.531387 0.221980 0.101236 0.688225 0.306620 0.490948 -0.040454 0.437769 0.430385 0.326273 -0.206554 0.186249 0.096153 0.286739 -0.481625 -0.162289 0.174100 -0.459033 -0.302935 0.030997 -0.552442 -0.118272 0.235249 0.001955 -0.290370 -0.200682
sent_126 0.056630 0.267617 0.183111 0.157527 0.160753 -0.586529 -0.146759 0.479262 -0.151372 -0.283505 0.294811 0.469405 -0.770090 -0.034931 -1.045080 0.340416 0.622883 0.465200 -0.208783 0.714916 -0.514840 -0.092971 -1.029635 -0.360197 -0.669148 0.565364 0.258737 0.368879 0.039460 0.269021 -0.042583 0.360788 0.050861 0.483567 -0.051312 -0.775998 -0.357591 0.618905 0.047249 -0.046276 -0.116176 0.259413 -0.049073 0.479785 0.014646 -0.265009 -0.237248 0.087086 0.158314 0.109369
sent_127 0.265152 0.220899 -0.481209 0.502802 -0.027823 0.373614 -0.167155 -0.229050 0.646675 0.253380 -0.016514 0.123511 -0.441905 -0.473903 -0.535501 0.321009 1.166625 0.593580 -0.332544 0.630220 0.343965 -0.042435 -0.190288 0.097928 -0.362163 0.288547 -0.150577 -0.019512 0.389533 0.336304 0.729573 0.450073 -0.082201 0.771808 -0.156886 -0.527128 0.288717 -0.369028 -0.228904 -0.463163 0.476308 -0.224241 -0.370021 -0.287838 0.641094 -0.329397 -0.063426 -0.123728 -0.490528 -0.545614
sent_128 0.683944 -0.075309 0.072503 0.089722 -0.163412 -0.270490 0.476145 -0.060058 0.086001 -0.041784 0.021254 -0.498718 0.032822 -0.310493 0.007877 0.062239 -0.306898 -0.084575 0.323278 -0.043468 0.632842 -0.048086 0.254153 -0.166755 -0.376170 0.089026 -0.142220 0.251809 0.003898 -0.429430 0.091055 -0.193898 0.116634 -0.192154 0.218362 -0.012963 0.183215 -0.235402 0.077098 0.335293 0.502268 -0.135600 -0.130920 -0.283456 -0.094784 0.154011 0.277951 0.124332 -0.922237 -0.200807
sent_129 0.195808 -0.403478 -0.234560 0.720351 0.166142 -0.201175 0.717204 0.291215 0.047664 -0.168215 0.131579 0.468964 -0.286672 0.053426 0.014639 -0.086610 -0.078402 0.389942 0.282520 -0.074157 -0.407702 -0.276006 -0.719688 -0.132646 -0.058386 -0.215611 0.435716 0.026945 -0.152683 -0.053439 0.310659 -0.224117 0.398468 0.005448 -0.025298 -0.336829 -0.079309 -0.231152 -0.319059 0.213542 -0.223065 0.166824 0.292135 0.240585 0.538660 -0.222309 -0.079940 0.343666 -0.373132 0.148092
sent_130 0.096248 0.535873 0.459695 0.260991 0.707480 0.346287 0.529912 0.030439 -0.048771 -0.537459 0.106367 -0.633182 0.226830 0.494666 -0.606942 0.731199 -0.382845 -0.735620 0.229695 -0.098799 -0.142177 -0.274353 -0.213240 0.503572 -0.271063 0.265313 0.229303 -0.128320 0.297525 0.050927 0.000847 -0.053166 0.357448 0.402331 0.216734 -0.030041 0.471418 0.800808 -0.353161 -0.402950 0.211416 -0.058653 -0.453449 -0.476931 0.072996 0.728468 -0.213180 0.381094 -0.113533 -0.520457
sent_131 0.184599 0.251165 -0.270875 0.547067 -0.129862 -0.018148 0.442798 -0.361602 -0.028029 -0.055984 -0.003290 0.143391 -0.562591 -0.093166 0.093641 0.033240 -0.012811 0.188045 0.045111 -0.286377 0.206371 -0.619324 -0.032977 0.056947 -0.240389 0.084307 0.275679 -0.372167 0.036470 -0.271113 0.658787 -0.445452 0.329496 0.364826 0.267098 -0.652830 0.379979 -0.048155 -0.432142 0.124012 0.186991 -0.444034 0.363823 0.052981 0.866228 0.237423 -0.282538 1.064905 -0.114422 -0.247064
sent_132 -0.036835 0.524774 -0.037006 0.348227 -0.082350 -0.312727 0.266289 0.004828 -0.017485 -0.272539 0.000940 -0.093606 0.113390 0.055481 -0.168193 0.066455 0.206922 0.244277 0.022963 -0.067882 -0.015094 -0.205692 -0.094387 -0.009789 -0.344065 -0.059615 0.167245 -0.183468 0.167392 0.106416 0.005803 -0.044253 0.498777 -0.222372 0.201163 -0.182161 -0.314278 -0.266447 0.054775 -0.048715 -0.126323 0.290053 0.347758 -0.216741 0.228899 -0.055508 -0.162914 0.031911 -0.342331 0.379150
sent_133 -0.454215 0.389273 -0.238552 0.435345 0.050720 -0.010744 -0.019459 -0.519762 0.061304 0.101388 -0.056432 0.441381 -0.178678 0.404718 -0.288830 0.077964 0.492125 -0.047712 -0.089262 0.399101 -0.090359 -0.278439 -0.186792 0.070181 -0.138665 -0.196399 -0.039132 -0.001521 -0.145971 0.701441 0.210159 -0.026432 0.100012 0.359826 -0.051643 -0.414607 -0.489736 -0.428664 0.426015 -0.562315 -0.574761 0.151264 0.451701 -0.347670 -0.517412 -0.002840 -0.171696 -0.541354 0.165976 0.256019
sent_134 0.131011 0.018625 0.038703 0.077631 -0.161689 -0.541127 0.288521 -0.012536 0.035500 -0.094736 -0.250458 0.058767 -0.014671 -0.184562 -0.064055 -0.155209 0.076019 0.138911 0.045581 -0.133621 0.184316 0.030709 0.134019 -0.056379 -0.033762 -0.077177 -0.061995 0.055395 -0.085699 -0.273683 0.368188 -0.211030 -0.034626 -0.199058 -0.044736 0.062988 -0.067757 -0.072968 0.361566 -0.054625 -0.158902 -0.132839 0.064045 0.122702 0.007441 -0.060284 -0.035433 -0.172698 -0.443328 0.094640
sent_135 0.288789 -0.354356 -0.373407 0.124007 -0.305636 0.013621 0.579828 -0.013921 -0.239039 -0.143674 0.006452 -0.100436 -0.647746 -0.238069 -0.164851 0.265402 -0.197011 -0.077303 0.141436 -0.012207 0.049102 -0.180284 0.073855 -0.331289 0.017309 0.045985 0.173568 0.260559 -0.370253 -0.090021 0.466251 0.594189 -0.195935 0.250662 -0.331218 -0.390591 0.495174 0.059118 0.107400 -0.123254 -0.254768 -0.446287 -0.000386 0.494150 0.157184 0.204990 -0.340591 0.334551 0.066577 -0.068668
sent_136 -0.044460 0.150278 0.042754 -0.236133 -0.248668 -1.022708 -0.122818 0.451725 -0.591874 -0.366560 0.159491 0.155977 -0.376868 -0.255863 -0.108125 0.061005 -0.121967 -0.190481 -0.246244 0.309112 -0.693368 -0.070712 -0.391980 -0.162441 -0.413983 0.306567 -0.315235 -0.138054 -0.297317 0.318275 0.104931 -0.071133 -0.048488 -0.242453 0.279162 -0.217685 -0.038433 0.266379 0.180589 0.068603 -0.114813 0.040560 -0.390870 0.381565 0.202989 -0.182354 0.029714 0.124283 -0.428906 0.549735
sent_137 -0.066124 -0.073423 0.158125 0.263265 0.024047 -0.205206 0.157949 -0.016954 -0.431192 0.098902 0.066475 0.486194 0.398665 -0.192520 -0.073483 -0.077562 -0.383363 -0.153730 0.056816 -0.186459 0.156994 0.291362 0.011094 0.141133 0.334966 -0.018330 -0.043954 0.086532 0.295158 -0.067225 0.271847 0.091892 -0.402698 -0.170460 -0.527275 0.151480 -0.469178 -0.012861 0.475861 0.186473 -0.332451 0.769232 0.004057 -0.180637 -0.274018 0.311678 -0.314304 -0.594372 -0.315919 0.482889
sent_138 -0.050380 -0.040670 -0.360555 -0.139974 -0.122978 0.365004 -0.260575 -0.455951 0.437598 0.079016 -0.030996 0.233677 0.140102 0.527494 0.369755 0.245761 0.329093 0.567763 -0.131855 0.157654 0.616772 0.073710 -0.050014 0.494881 0.521343 -0.358625 0.131498 0.538382 0.710394 0.581407 0.194872 0.254773 0.070648 0.192611 -0.238895 0.226082 -0.094460 -0.048330 -0.739707 -0.282816 0.122990 0.066269 -0.040813 0.381941 -0.108844 0.053036 0.238428 -0.258108 0.021814 -0.822037
sent_139 -0.184419 0.475321 -0.152800 0.116166 -0.458543 0.837357 -0.445718 -0.582703 0.133390 -0.018237 0.274471 -0.084477 0.216412 0.247397 0.291166 0.167934 0.057735 0.525498 -0.007637 0.247574 -0.130709 -0.286787 0.324525 0.447356 0.596250 -0.514412 0.253452 0.544425 0.878293 0.889168 -0.002984 0.444066 0.181522 0.080699 -0.617169 0.384020 -0.300276 0.040102 -0.487451 -0.077263 0.126501 0.314376 0.355336 0.037078 -0.363614 0.252053 0.154755 -0.239678 0.579168 -0.070740
sent_140 -0.301627 0.489563 0.041817 -0.119053 -0.180807 -0.202924 -0.409301 -0.257411 -0.012073 0.026288 0.106595 0.494808 -0.210835 0.286466 -0.132927 0.179426 0.152289 0.272530 -0.223942 0.117061 0.169298 -0.126085 -0.062600 0.260769 -0.109428 -0.004213 0.156338 0.179794 0.090860 0.674824 -0.019257 -0.063999 0.154677 0.183128 -0.016821 0.263288 -0.334551 0.209629 -0.197306 -0.295858 -0.014441 0.228677 0.179024 0.342931 -0.224485 0.144525 0.287878 -0.006026 0.281030 -0.201036
sent_141 -0.313062 0.419366 0.186841 -0.394295 -0.113317 0.122871 -0.404102 -0.194136 0.133231 0.057433 0.248177 0.259381 -0.188781 0.058388 0.011891 -0.192469 0.298195 0.344546 -0.229360 0.228483 0.694920 -0.001377 0.040772 0.314916 0.141255 -0.549986 0.051045 0.321890 0.019590 0.413167 0.073771 0.143667 0.246743 0.226934 -0.160009 0.312769 -0.573082 -0.187080 -0.348307 -0.602502 -0.110226 -0.165218 0.190039 0.126151 -0.536631 0.380358 0.151122 -0.042568 0.625412 -0.395445
sent_142 -0.086181 0.341082 0.513852 0.243966 -0.275408 0.243757 -0.394731 -0.149995 -0.288326 0.342194 -0.128092 0.047499 -0.433198 0.083970 0.094879 0.177099 0.144604 0.071728 -0.064301 0.379668 0.319321 -0.136521 0.226730 0.220239 -0.085451 -0.043601 -0.544714 0.627811 0.151018 0.485740 0.253049 -0.635963 0.112876 -0.122123 -0.076188 0.291074 -0.209694 -0.418137 0.010941 -0.442281 0.157081 0.001821 -0.021577 -0.225500 0.256527 -0.474861 0.050984 -0.271719 -0.309102 -0.172588
sent_143 -0.174120 0.633369 0.002365 -0.424821 -0.626131 0.018755 -0.927889 -0.471667 -0.203784 -0.549987 0.539642 0.273383 0.426739 0.421867 0.458295 0.463544 -0.456459 0.239815 -0.136750 0.076316 -0.382801 -0.565177 -0.085274 0.790820 0.592717 -0.998182 -0.041703 0.401760 0.733987 0.926579 0.413844 0.356516 0.023812 -0.269664 -0.578667 0.444032 -0.364368 0.532518 0.226423 0.267257 -0.690047 0.376590 0.232944 0.186481 -0.994116 0.374150 0.772746 -0.163991 0.644526 0.343281
sent_144 -0.370153 0.072535 -0.181226 0.231849 0.220604 0.139834 0.507527 -0.096464 -0.349837 -0.646611 -0.182308 -0.434794 0.584395 0.334918 0.216509 0.468350 -0.779621 -0.529364 -0.097132 -0.354417 -0.600913 -0.458552 -0.311375 0.049996 -0.226411 -0.092895 0.145135 -0.318254 0.100682 -0.298741 -0.294237 0.233832 -0.168269 0.004985 0.240734 -0.010237 0.470123 0.609835 -0.449520 -0.189375 -0.412160 -0.034914 0.091458 0.123490 0.143155 0.646080 -0.331454 0.923121 0.137106 -0.415491
sent_145 -0.573212 0.323560 -0.148911 -0.158185 0.174795 0.020117 0.605410 0.096826 -0.480328 -0.835038 -0.233708 -0.298183 0.394341 0.300031 0.006396 0.685360 -0.520365 -0.839323 -0.095455 -0.216995 -0.566596 -0.276845 -0.082395 0.185249 -0.188270 0.065335 0.131374 -0.301449 0.209390 -0.086587 -0.328461 -0.080643 0.076329 0.053805 0.300865 -0.312041 0.652650 0.703731 -0.579391 0.033281 -0.266930 0.020579 -0.262097 0.175840 0.181099 0.494630 -0.351702 0.880382 0.052639 -0.461949
sent_146 0.062251 -0.334589 0.227737 0.507733 0.307342 0.143722 -0.206294 -0.168563 0.435031 0.038091 -0.197155 -0.152434 -0.623310 -0.238422 -0.129151 0.326276 0.092128 -0.261399 -0.251345 0.398391 0.102245 0.044006 -0.185874 -0.556440 -0.192823 0.264613 -0.276418 0.011257 0.135187 0.354636 0.384226 -0.005132 -0.318456 0.622608 0.030843 -0.582271 0.174119 -0.481425 0.110012 -0.254528 -0.123891 -0.253707 -0.243640 -0.408847 0.371998 -0.237858 -0.502755 -0.132049 0.128411 -0.160164
sent_147 0.211947 0.764092 0.319272 0.245240 0.269485 -0.130640 -0.364264 0.372504 -0.453085 0.270641 0.503310 0.551198 -0.854044 -0.640889 0.040554 0.116005 0.316266 0.347099 -0.212027 0.141054 0.384634 -0.271722 0.153882 -0.101208 -0.323511 0.424355 0.068730 0.290280 0.054543 0.487089 0.336783 0.371108 0.281850 0.189035 -0.105277 -0.002898 0.008505 0.011597 -0.343822 0.145748 0.480211 0.229074 -0.406334 0.044507 0.615689 -0.435163 0.256377 -0.083022 -0.186574 0.277913
sent_148 0.149971 0.420042 -0.090539 0.458581 -0.092784 -0.032823 0.040775 0.351197 -0.124231 0.121693 0.231097 0.789874 -0.560848 0.011983 -1.029789 0.134683 0.760208 0.607235 -0.053828 0.389633 -0.400264 -0.199785 -0.934900 -0.417720 -0.731604 0.036467 0.423030 0.116425 0.380136 0.092257 -0.153256 0.239467 0.128920 0.210253 -0.034811 -0.688784 -0.157943 0.238407 -0.325860 0.062979 -0.114883 0.331517 0.011751 0.222106 -0.326118 -0.397026 -0.067119 0.499215 0.372933 -0.044228
sent_149 0.302880 -0.081833 0.049786 0.033757 -0.516691 -0.148126 0.287214 0.107509 0.063148 -0.216057 0.079585 -0.623354 -0.100785 -0.260952 -0.165247 -0.205608 -0.314425 -0.240977 -0.060822 -0.042499 0.355618 -0.056480 0.380362 -0.381750 0.218160 -0.126030 -0.101784 -0.113079 0.057203 -0.278627 -0.123031 -0.146228 0.036789 -0.385601 -0.273942 -0.027995 -0.223122 -0.416875 0.182772 0.204796 0.195154 -0.267337 0.105502 -0.120159 0.214154 -0.219419 -0.430878 0.225588 -0.195004 0.301224
sent_150 -0.313343 -0.520952 -0.191187 0.021349 -0.263954 -0.357372 0.080213 0.185965 -0.051617 0.357999 -0.016016 0.136961 -0.242644 0.018136 -0.250428 0.193725 0.564753 0.729202 -0.065712 0.068429 0.121940 -0.134811 0.144359 -0.508242 -0.362857 0.438894 0.113745 0.012624 -0.394489 0.112414 -0.170017 0.111905 0.212323 -0.111243 0.352995 -0.107927 0.400706 0.360166 -0.074186 0.231519 -0.067647 -0.584610 0.112212 0.411761 -0.117377 -0.517211 0.273381 0.269257 -0.120732 -0.108600
sent_151 0.106319 0.364972 0.032551 0.165464 -0.466796 0.021251 0.313601 -0.062647 -0.217336 -0.034513 -0.132477 0.075088 -0.414140 -0.003323 -0.145330 -0.097272 0.050172 -0.052833 0.323441 0.106132 0.270116 0.179807 -0.049193 -0.090431 -0.196771 -0.254138 -0.117705 0.053761 0.240617 -0.403489 0.304416 -0.206772 -0.088337 -0.384225 -0.166160 -0.075435 -0.156249 -0.290474 0.270812 -0.300675 0.029802 0.036699 0.190608 -0.147954 0.238758 0.036235 -0.186821 -0.059874 -0.247642 0.086515
sent_152 -0.338502 -0.409442 -0.110788 0.297390 -0.377564 -1.101649 -0.345621 0.462118 0.038425 0.224211 -0.001855 -0.042538 -0.343925 0.078332 0.019960 -0.056367 0.261328 0.711634 -0.216316 -0.242852 -0.088745 -0.837317 -0.177743 -0.671188 0.119622 0.744824 -0.167192 0.135054 0.204443 0.014655 -0.147126 0.118587 0.054032 0.119492 0.659708 0.130235 0.390675 0.064957 0.292158 0.392489 0.201759 -0.352654 0.325229 0.002662 -0.033099 -0.654329 -0.375778 -0.156797 -0.637635 0.600308
sent_153 -0.053538 0.149507 -0.258477 -0.122496 -0.546588 0.245734 0.176184 -0.144140 0.147173 -0.186463 0.065072 -0.164854 0.178176 0.035381 0.375333 -0.075640 0.340354 0.477199 0.192809 0.134885 0.369009 -0.025240 0.133939 0.225557 0.292828 -0.675135 0.202605 0.521231 0.267112 0.635009 -0.329232 0.023155 0.704051 -0.187293 0.138479 0.286395 -0.594861 -0.637979 -0.115352 -0.082380 -0.258203 0.207792 0.712815 0.045897 -0.207907 -0.044802 -0.163595 -0.083236 -0.054586 0.226574
sent_154 -0.212466 0.315739 -0.097315 0.185790 0.195686 -0.060948 0.223754 -0.197920 -0.129271 -0.122554 -0.110889 0.063840 0.136990 0.221439 -0.065257 0.486072 -0.134396 -0.101859 0.161294 -0.177434 0.495477 -0.605927 -0.039594 0.308517 -0.167148 0.058255 -0.032389 0.042742 -0.021275 0.285785 0.146066 0.160081 0.420759 0.138167 0.159481 -0.137524 0.096621 0.099917 -0.155759 -0.089239 -0.190519 0.171853 -0.010256 -0.318983 0.219215 0.104092 -0.226308 0.198567 -0.639752 -0.357039
sent_155 -0.234341 -0.198721 -0.027545 0.066408 -0.172795 -0.318711 0.091098 0.067484 0.031319 0.071621 -0.029812 -0.067999 -0.139046 -0.003508 -0.307255 -0.002947 -0.039905 -0.130178 -0.053527 0.104827 0.140720 -0.145447 -0.010235 -0.060710 -0.056922 0.116049 -0.183617 0.023159 0.126683 -0.194532 0.090783 0.036937 -0.115500 0.020337 -0.063917 -0.013084 -0.111549 0.060234 0.392901 -0.063184 -0.212527 -0.233164 0.045855 0.045570 -0.191563 -0.209014 -0.000507 -0.259372 -0.266176 0.235460
sent_156 -0.155951 0.279716 0.026619 -0.769258 0.085115 0.079629 -0.095546 0.968132 -0.067393 -0.209107 0.354553 0.233487 -0.406835 -0.886968 -0.737259 0.380562 0.323310 -0.091544 -0.328114 0.370509 0.369030 0.596179 -0.657269 0.021451 -0.690216 -0.034517 -0.499935 0.246189 -0.428856 0.004724 0.566654 -0.019112 0.282597 0.144224 -0.003061 -0.576189 -0.254703 0.119563 -0.268077 0.224941 -0.845317 0.005401 -0.675224 -0.090664 0.518511 -0.387141 -0.359457 0.371224 -0.516560 -0.003480
sent_157 0.048628 -0.164154 0.012581 0.200546 -0.212650 -0.088315 -0.009808 -0.134716 -0.314126 0.013429 0.129760 -0.215799 -0.201027 -0.067783 0.164346 0.067128 -0.679342 -0.193729 0.010476 -0.269499 -0.014671 -0.153899 0.002191 -0.044681 0.119936 -0.108604 -0.322971 -0.001835 -0.150900 -0.144287 0.486630 -0.127536 -0.107767 -0.196573 -0.189916 -0.009979 0.061956 0.116961 0.230449 0.019037 -0.287690 -0.103621 -0.100380 -0.073890 0.339991 -0.035904 -0.095666 0.063179 -0.261095 0.189161
sent_158 -0.187861 0.172697 0.032031 0.238494 0.260870 -0.172961 0.186362 0.094713 0.253800 -0.283363 -0.613266 -0.200564 0.883203 0.292086 0.079284 0.164801 -0.098152 -0.356505 -0.171046 -0.561154 -0.590640 -0.180115 0.034021 0.196405 -0.243557 -0.013586 0.444452 -0.286081 0.157968 -0.114509 -0.431546 -0.167520 0.006439 0.181988 0.609167 0.080540 0.524445 0.242011 -0.551655 0.066280 -0.166317 0.246210 0.167414 0.088124 0.013530 0.015556 -0.296900 0.217128 0.101950 0.048315
sent_159 -0.267015 0.059730 -0.152523 0.147639 -0.269852 -0.175817 -0.036207 -0.073777 -0.061986 0.126427 -0.205261 -0.177124 0.013436 -0.179455 -0.184508 0.115395 0.012087 0.012105 -0.107148 -0.078109 0.069133 -0.164221 0.276317 -0.262077 -0.118297 0.376806 -0.126375 0.062744 0.130422 0.185971 -0.127303 -0.004655 0.138607 -0.013394 0.131723 0.161016 -0.177148 0.090608 0.132142 0.003732 -0.011205 0.473936 0.225502 -0.069342 0.288487 -0.376723 -0.554844 -0.106356 -0.352856 0.122797
sent_160 0.053049 -0.170369 0.066174 0.221972 -0.113256 -0.223611 -0.089735 0.062863 -0.006795 0.054627 -0.204590 -0.135397 -0.048810 0.151857 -0.819243 0.316509 -0.078292 0.059802 -0.429920 0.231291 -0.236036 0.034249 -0.310346 -0.499733 -0.354297 0.684524 -0.009881 0.176807 0.289174 -0.266831 0.013423 -0.019864 -0.567019 0.069464 0.033963 0.020738 0.064036 0.273286 -0.094020 -0.180126 0.293524 0.085498 0.115915 0.314692 0.149492 -0.243327 0.117746 -0.324691 -0.188136 0.257036
sent_161 0.302031 -0.047159 -0.080307 0.772241 0.089912 0.418482 0.211075 -0.143757 0.653126 0.257657 -0.187809 -0.267927 0.092787 0.123396 0.429901 -0.082187 0.238210 0.068788 0.313023 -0.204364 -0.172900 0.469216 -0.137653 0.127805 -0.227253 -0.227459 0.202711 -0.514592 0.219310 -0.283211 0.093808 -0.249481 0.034246 0.422675 0.433432 0.053126 0.724424 -0.009770 -1.043433 -0.404771 0.736378 -0.580623 -0.315789 0.034155 0.381853 0.375598 -0.093586 0.552627 0.106333 -1.077150
sent_162 -0.363733 -0.120047 0.166834 0.216661 0.207981 -0.295554 -0.188459 0.102972 0.507222 0.167360 -0.558733 -0.072127 0.440781 0.606695 0.035053 0.392385 0.293159 0.301655 -0.097679 -0.772905 -0.201207 -0.108808 -0.264977 -0.115369 -0.054593 0.390478 0.365940 0.083811 0.117288 -0.033819 -0.297345 -0.089591 0.385211 0.513437 1.080822 -0.000954 0.866725 0.415734 -0.666951 -0.112594 -0.235424 -0.102978 0.301540 0.241697 0.145164 -0.109262 -0.412095 0.382027 -0.181565 -0.423585
sent_163 0.233714 0.135484 0.038350 0.091905 -0.040016 -0.145978 -0.089646 0.017778 -0.030288 -0.054357 -0.132918 -0.204366 -0.033942 0.008735 0.009011 -0.168720 0.037804 0.077923 -0.146973 0.016040 -0.166832 0.127028 0.162461 -0.109683 -0.226358 0.262734 0.063911 -0.224022 -0.004157 0.191861 -0.145362 -0.107717 -0.156829 -0.197263 -0.113061 -0.061897 -0.125971 -0.015728 -0.007013 -0.001408 0.254301 0.248135 -0.046083 0.058970 0.349767 -0.213512 0.031315 -0.133960 -0.017584 0.312684
sent_164 0.274190 -0.177128 -0.064405 0.407926 0.070495 0.292659 0.274001 0.313909 0.133361 -0.016549 -0.269289 -0.257731 0.135941 0.254042 -0.208874 -0.220792 0.038498 0.117997 0.150639 0.060270 -0.275244 -0.204990 -0.404712 -0.386569 -0.144915 0.199040 -0.208559 0.412858 0.189130 -0.047224 -0.328303 -0.162069 -0.305861 -0.257913 -0.047300 0.225457 -0.068591 -0.730436 0.185944 -0.233645 0.180012 0.171333 -0.022505 -0.399179 0.202194 -0.409993 -0.134448 -0.172250 -0.522716 0.125353
sent_165 0.598043 -0.186619 0.008700 0.773175 -0.488216 0.079851 0.660007 -0.103138 -0.072232 -0.100807 -0.222337 0.112117 -0.451169 0.314221 -0.219515 0.092127 0.114272 0.179860 0.145702 -0.249274 -0.386842 -0.414211 0.123635 -0.381805 0.104636 -0.315917 0.492926 0.012150 -0.079744 -0.103511 0.684284 -0.280915 0.175181 -0.290059 0.018667 -0.549580 0.789412 -0.521967 0.007641 -0.047346 -0.008052 -0.594961 0.401178 0.463843 0.712161 -0.507498 0.177817 0.471358 0.274412 0.245865
sent_166 0.160761 -0.020889 -0.455882 -0.222824 -0.376594 -0.293306 -0.027870 -0.015987 0.269519 -0.404859 0.188844 -0.121237 -0.295425 -0.241662 -0.594282 0.359453 -0.048437 -0.297944 -0.239913 0.190793 -0.317641 0.239155 -0.353535 -0.557445 -0.102343 -0.497951 -0.048058 -0.160733 -0.261573 -0.133505 0.009067 -0.450973 0.249417 -0.176619 -0.052134 -0.394300 -0.597011 -0.108865 0.375253 0.433776 -0.152094 0.137032 0.244371 -0.092338 -0.021920 -0.517870 0.102685 0.217721 0.174259 0.168222
sent_167 -0.402161 0.122645 0.437941 0.096029 0.171322 -0.025231 -0.831686 -0.407092 -0.004920 0.348157 0.075681 0.758401 -0.384580 0.195080 0.412829 -0.442038 -0.089124 0.355090 -0.390832 0.219212 0.229378 -0.318009 -0.100431 -0.111347 0.289175 -0.193066 -0.209587 0.449438 0.116517 0.844267 0.028989 -0.299377 0.016147 0.114407 -0.303941 0.116265 -0.468278 -0.688106 -0.281606 -0.209915 0.036810 -0.199431 -0.010434 -0.299139 -0.669415 -0.008675 0.662058 -0.330946 0.354288 -0.004168
sent_168 -0.380121 -0.254156 -0.434304 0.253683 -0.549962 0.197966 0.085815 -0.187180 -0.168048 0.093423 -0.107165 0.167122 -0.176944 0.088831 -0.152837 0.331961 -0.118400 0.047141 0.067594 0.012970 -0.206707 -0.016641 -0.058578 -0.507827 0.128099 0.099288 -0.108652 0.157659 0.146334 -0.082979 -0.187925 0.107815 -0.447479 -0.186912 -0.045764 -0.161173 0.238859 -0.212532 0.125488 0.031961 0.169793 0.044000 0.261631 0.233272 0.107662 -0.226523 -0.245639 0.011323 0.051034 -0.016779
sent_169 -0.219014 0.024660 0.006124 0.248714 -0.525533 -0.325431 -0.072942 -0.017409 0.394022 -0.125769 -0.068863 -0.586028 0.255064 0.672925 0.174859 0.532710 -0.167005 -0.270503 0.229174 -0.498900 -0.766147 -0.106652 -0.162476 0.005417 0.038848 -0.244655 0.238583 -0.470577 0.100101 0.037910 -0.649534 -0.197742 0.306607 0.012079 0.911181 0.174010 0.654756 0.583075 -0.555436 0.050840 0.238490 -0.223579 0.348301 0.209388 0.120506 -0.026743 -0.179215 0.559061 0.162124 -0.252902
sent_170 -0.101539 -0.353562 0.447630 -0.396272 -0.199026 0.465062 -0.285820 0.099510 0.391134 -0.106594 0.177607 -0.836132 0.618360 0.373472 0.221106 -0.654631 0.061552 0.291408 0.171016 0.186126 1.708030 -0.737352 0.188786 1.065959 0.685750 -0.105803 -0.376428 0.210577 1.413309 -0.517130 -0.008561 0.433921 -0.267355 0.657660 -0.086962 0.275318 0.055304 0.177189 -0.062527 -0.347274 0.299544 -0.279040 -0.012513 -0.264183 -0.526892 0.960164 -0.252493 0.074398 0.049908 -0.838367
sent_171 -0.336797 0.039231 -0.489002 -0.496292 0.105704 0.381586 0.139338 0.380646 0.328675 0.165934 0.082448 0.507261 -0.248779 0.359153 -1.169118 0.400958 -0.261413 0.249438 -0.564230 -0.877032 -0.227616 0.403631 -0.656196 -0.102647 -0.307161 0.155294 0.006867 0.645319 0.180523 -0.413740 -0.021992 -0.463822 -0.193167 0.278841 -0.060191 -0.006405 -0.034894 0.537127 -0.479174 0.106291 -0.250602 -0.133126 -0.195956 0.584253 0.276519 -0.117760 -0.223053 0.858345 -0.092692 -0.321761
sent_172 0.107414 0.246231 0.025273 -0.024529 0.073250 -0.307473 0.086008 0.438479 -0.047534 -0.276688 0.096076 -0.084364 -0.177202 -0.125014 -0.504359 0.260202 0.040139 -0.153668 -0.186888 0.100473 -0.167577 -0.045836 -0.175804 -0.280927 -0.354308 0.062318 -0.073932 0.090073 0.148821 0.053721 -0.052978 0.069385 0.036639 0.008564 -0.209596 -0.230347 -0.374379 0.041548 0.064903 0.094040 -0.150841 0.222946 -0.197723 -0.083235 -0.191332 -0.283705 -0.126697 -0.202913 -0.077594 0.309053
sent_173 -0.145963 0.011008 0.021881 -0.184969 -0.131570 -0.212897 0.017762 -0.230752 -0.134107 0.003153 0.276293 0.094465 0.208784 0.183895 -0.179246 0.240293 -0.200455 -0.063456 0.020571 0.160169 0.222004 -0.152101 0.125782 0.081585 0.146800 0.202459 -0.005506 -0.165557 0.253506 0.403802 -0.075957 0.258348 0.113202 -0.106275 -0.018211 0.225921 -0.237067 0.040564 0.148751 -0.150136 0.126433 0.353324 0.073620 -0.132507 -0.370656 0.443893 0.188619 -0.281241 -0.160142 -0.006232
sent_174 -0.286668 -1.475440 0.431418 0.044648 -0.038774 0.497284 -0.127954 0.102265 -0.139691 -0.035593 0.333434 0.168556 0.792053 -1.036161 -0.691952 0.444659 -1.732592 -1.210705 0.095698 0.621128 0.310808 0.604370 0.131122 -0.233702 0.026401 -0.265186 -0.431672 0.363394 -1.061391 0.449442 -0.141466 0.275329 -0.513876 -0.024789 -0.850681 1.165501 -0.509632 -0.003423 0.395987 0.340483 -1.003299 0.313659 -0.496979 -0.527166 -1.418646 0.244975 0.632425 -0.715390 -0.040424 0.128193
sent_175 -0.420764 -0.345886 -0.550579 -0.557069 -0.027443 -0.305713 0.112009 0.138190 -0.554729 0.102400 0.140509 0.485808 0.186061 0.473067 -0.313160 0.500962 0.122538 0.595029 -0.100093 0.280853 0.200120 -0.556565 -0.246078 -0.004677 0.169907 0.558262 -0.371851 0.801335 0.313029 0.194321 -0.245088 0.222395 -0.450278 -0.316278 -0.013616 -0.000962 -0.084016 -0.007588 -0.138425 0.219250 0.345769 0.707555 0.079678 0.672026 0.185312 -0.420186 0.366532 -0.561940 -0.739789 -0.117246
sent_176 -0.109677 0.411972 0.268530 -0.356436 0.013348 0.348829 -0.685003 -0.085370 -0.084762 0.429417 0.050656 0.479996 -0.461790 0.137169 0.545918 -0.227340 0.284640 0.342457 -0.048569 0.119528 0.065578 0.016591 0.147081 0.255910 0.124590 0.047001 -0.130248 0.400073 -0.055308 0.378320 0.026657 -0.219074 0.011286 0.060929 0.042061 0.236853 0.044454 -0.277331 -0.152123 -0.202276 0.363796 -0.191397 -0.010094 0.047485 0.041490 -0.004274 0.255767 -0.100795 0.423671 -0.093692
sent_177 -0.278910 -0.559968 -0.246047 -0.016325 -0.134199 0.274548 -0.174502 -0.238053 0.107486 0.048182 0.284361 -0.357298 0.016334 0.418044 -0.017710 0.005835 -0.278703 0.060249 0.088229 0.693178 0.095417 -0.288645 -0.090090 0.120352 0.162676 0.186829 -0.142737 -0.106509 0.089548 0.126057 -0.065506 0.601440 -0.157682 0.262572 -0.319648 0.414885 -0.157066 0.009296 0.281072 -0.498531 0.164840 -0.035920 0.268937 -0.228694 -0.170486 0.498974 -0.270908 -0.246623 0.020355 -0.315194
sent_178 0.017260 0.574705 0.093907 -0.444790 -0.462666 -0.330728 -0.251854 -0.086598 -0.516383 -0.395404 0.343390 -0.176656 0.115674 0.302372 0.356222 0.185377 -0.107467 0.030329 -0.057562 0.332866 0.165139 -0.587566 0.308094 0.368072 0.026927 -0.221281 -0.056282 0.134331 0.452462 0.658855 -0.012336 0.355030 -0.027306 -0.334392 0.067443 0.485437 -0.209128 0.011738 -0.150179 -0.212635 0.119859 0.215083 0.138868 0.212549 -0.377009 0.322809 0.428673 -0.348782 0.325831 0.328020
sent_179 0.872503 0.456725 0.230313 0.072713 -0.771221 -0.151084 0.007250 -0.193354 0.061229 0.129024 0.502680 0.172351 -0.223950 -0.079342 0.342769 0.429447 -0.562312 -0.191437 0.437311 -0.434019 0.251107 1.177953 0.185119 0.501221 0.610024 -0.837170 -0.248359 0.013001 0.456294 -0.577761 0.718112 0.091300 -0.194845 -1.173963 -0.916718 0.571137 -0.390739 0.028363 0.438744 0.404963 0.170136 0.098559 -0.488343 -0.103220 0.451808 -0.028535 0.101469 -0.349393 -0.603238 0.334690
sent_180 0.173399 0.388687 0.008701 0.310658 0.151700 0.453676 0.173580 0.185564 -0.268686 0.321570 0.216454 0.356099 -0.735681 -0.248345 -0.175583 0.404124 0.411266 0.382264 -0.018907 0.057314 -0.008420 0.136309 0.071585 -0.326617 -0.496102 0.148208 0.250937 0.539334 0.165337 0.012265 0.241033 0.020352 0.267087 0.087204 -0.047719 -0.198755 0.224737 -0.075708 -0.643414 0.035630 0.388424 -0.152891 -0.071353 0.186014 0.273906 -0.302928 0.087956 0.044286 0.153717 0.038347
sent_181 -0.124771 0.147035 0.000933 -0.200906 -0.287370 -0.172700 -0.090253 -0.223562 -0.169575 -0.065627 0.294799 0.243267 0.216439 0.285933 -0.212175 0.385967 -0.254279 0.204748 -0.048031 -0.027618 0.078333 -0.120147 0.031978 0.184206 0.230014 0.106988 0.085478 0.221321 0.512065 0.670295 -0.033563 0.361729 -0.036139 -0.120389 -0.336608 0.316352 -0.230314 0.344328 -0.093589 -0.082976 -0.046586 0.421631 -0.002683 0.264942 -0.636046 0.460415 0.275592 -0.213181 -0.111963 0.081374
sent_182 0.259546 0.069817 -0.198340 0.013678 -0.312911 0.256698 0.546515 -0.027324 -0.376416 0.389144 0.509769 -0.456958 -0.422877 -0.092470 0.036976 -0.020423 -0.094666 0.017895 0.709538 -0.213362 0.470144 -0.315358 0.332872 0.306649 0.182490 0.155829 -0.254257 -0.103026 0.073319 -0.547989 0.120188 0.582884 -0.254127 -0.211767 -0.338327 -0.135636 0.575555 0.610906 -0.077740 0.062699 0.686046 -0.434905 -0.654178 0.043150 0.246944 0.063012 -0.304207 0.131043 -0.723620 -0.213493
sent_183 0.261176 0.003614 0.208459 0.066358 -0.291450 0.108061 0.257520 -0.080412 -0.083560 0.019121 -0.200194 -0.462589 0.124113 -0.291808 0.000080 -0.337358 -0.012056 -0.176934 0.399284 -0.168622 -0.025829 0.214951 0.201777 -0.006213 0.203810 -0.416669 -0.084648 -0.180346 -0.159264 -0.836677 0.207127 0.010047 -0.313272 -0.425067 -0.115207 0.170225 0.065362 -0.098688 0.611700 -0.073614 -0.058334 -0.100180 0.198334 -0.226377 0.308175 -0.100726 -0.184597 -0.158967 0.033843 0.228814
sent_184 -0.318518 -0.808010 -0.591806 0.232298 -0.291727 -0.170007 -0.488520 -0.470189 0.077875 1.005260 -0.085432 0.413612 -0.434285 0.156794 0.298450 0.485559 0.224190 -0.085243 -0.609438 0.171407 -0.619836 -0.370832 0.618830 -0.277273 0.550271 0.357971 -0.234086 -0.021739 0.318244 0.616585 0.215763 0.107954 0.094218 0.026351 -0.027362 0.244380 0.064088 -0.028838 0.152517 0.400619 -0.085013 -0.476376 0.105837 -0.342117 -0.233750 -0.980492 0.789192 -0.792885 -0.040951 0.755778
sent_185 0.244727 0.198758 -0.059918 0.197677 -0.254819 -0.178792 0.159186 0.304711 0.020855 -0.013674 0.307376 -0.191890 -0.431370 0.071932 -0.784829 0.532902 -0.103106 0.020594 0.065019 0.018747 -0.038889 -0.181323 -0.413953 -0.376476 -0.390870 0.156450 0.006292 0.165168 0.005284 0.218948 -0.076174 0.520863 -0.075859 0.182108 -0.168993 -0.406383 0.066304 0.130015 -0.428198 -0.251020 0.215476 -0.091907 -0.295649 0.172973 -0.170309 -0.041852 -0.244334 -0.052566 -0.241796 0.121384
sent_186 0.023321 0.606912 0.063525 -0.485620 -0.503698 -0.260038 -0.249705 -0.129020 -0.599944 -0.373751 0.334839 -0.189167 0.140959 0.319194 0.520939 0.166987 -0.096662 0.030686 -0.078396 0.343477 0.208593 -0.573217 0.383463 0.340424 0.113987 -0.209675 -0.087755 0.146285 0.575584 0.684612 -0.036926 0.435276 -0.085366 -0.407885 0.045220 0.517715 -0.187688 -0.020806 -0.195620 -0.224637 0.106857 0.240474 0.157817 0.248706 -0.358317 0.367645 0.390196 -0.382618 0.387460 0.351226
sent_187 0.144622 -0.437612 0.283809 -0.203100 0.180561 0.649231 -0.294240 -0.041806 0.244565 0.470099 0.407637 -0.169406 -0.274177 -0.163624 0.045537 -0.030552 -0.244066 0.036388 0.376351 0.273106 0.393369 0.016344 0.364653 0.109697 0.204240 0.225148 -0.246429 0.479158 0.106025 0.292306 -0.063589 0.224511 0.047728 0.368553 -0.491231 0.344589 0.176496 -0.066952 -0.025634 0.159367 0.500712 -0.307197 -0.404275 -0.555229 -0.640123 0.326025 0.306470 -0.271076 0.052230 -0.238848
sent_188 -0.297531 -0.307907 -0.365126 -0.106398 -0.182534 0.060054 0.408239 0.327057 0.003079 -0.105845 0.063314 -0.298420 -0.162663 -0.311760 -0.448604 0.536573 -0.356374 -0.320236 0.341919 0.015764 -0.012029 -0.097371 -0.287154 -0.340541 -0.373662 0.073336 -0.345504 0.415232 -0.427102 0.022297 -0.170570 0.155416 0.121846 0.110173 0.303243 0.275118 0.054415 -0.009340 0.326891 -0.104726 -0.271820 -0.080899 -0.109481 0.025856 -0.126077 -0.257834 -0.143245 0.071640 -0.503654 -0.073957
sent_189 0.184518 -0.209342 -0.089967 0.947080 -0.053485 -0.537507 0.339931 -0.013559 0.158309 0.006895 -0.151133 0.166575 -0.770791 -0.270234 0.234255 0.216498 0.227293 0.374536 -0.343789 -0.164166 -0.211995 -0.386232 0.054521 -0.549175 -0.188096 0.230386 0.260960 -0.036038 -0.154970 0.191082 0.644078 -0.138290 0.524633 0.284207 0.159866 -0.575962 0.446539 -0.201626 -0.301388 0.194917 -0.141575 -0.728645 0.150606 0.273877 0.647861 -0.523577 -0.077231 0.464948 -0.178033 0.200440
sent_190 0.705465 -0.206315 0.034713 -0.119267 -0.365547 0.250427 -0.248850 0.156794 -0.223200 0.093819 0.534083 -0.637827 0.052327 -0.331246 0.091921 0.230749 -0.572877 0.630221 -0.018668 -0.471451 -0.330003 0.291752 0.405417 0.061298 0.578363 -0.248470 -0.182365 0.342553 0.300001 -0.319984 0.566115 0.380507 -0.511606 -0.330507 -1.151962 -0.222402 0.593363 0.589856 -0.157400 0.754703 0.580717 -0.396680 -0.701108 -0.051186 -0.012802 -0.104444 0.098040 -0.118279 -0.468350 0.616373
sent_191 0.008118 -0.031414 -0.361171 0.646838 -0.361195 0.097894 0.870950 -0.251141 -0.441804 -0.186189 -0.027842 -0.663723 -0.064850 -0.039870 0.237393 -0.164243 -0.368452 -0.242810 0.603346 -0.458090 0.221778 -0.129977 0.500882 -0.325772 0.041159 -0.199170 -0.193584 -0.346317 0.140435 -0.600330 0.040797 -0.139377 -0.278913 -0.690934 -0.234197 -0.068011 0.090173 -0.147734 0.258209 0.074110 0.019363 -0.029127 0.005392 0.000921 0.322708 -0.096251 -0.498399 0.157645 -0.345105 0.179004
sent_192 -0.073082 -0.378562 0.011593 0.337647 -0.076733 -0.196641 -0.034816 0.039536 0.056965 0.346432 0.166056 0.013059 -0.209495 0.074126 0.063032 -0.050154 -0.074148 0.477201 0.089557 0.024054 -0.438174 -0.066657 -0.241993 -0.094111 0.124577 0.168962 -0.091211 0.084234 -0.064658 -0.441072 0.202662 -0.092559 0.085074 0.028759 0.008483 -0.228482 0.158966 0.109645 0.000635 0.079411 0.344028 -0.562658 0.144612 -0.012423 0.131495 -0.172792 0.157319 -0.231511 -0.462094 0.327774
sent_193 -0.046748 -0.079626 -0.319445 -0.123202 -0.726566 -0.703803 0.099996 -0.048535 0.238145 0.317508 0.073429 -0.226596 -0.702620 -0.161132 0.007906 0.173249 0.602588 0.370320 0.128581 0.195785 -0.083577 -0.070978 0.075194 -0.606239 -0.476466 0.362927 -0.097663 -0.098314 -0.299998 -0.417618 -0.292162 0.215944 0.041036 -0.124075 0.618491 -0.021030 0.362488 0.306062 0.391079 0.028244 0.528977 -1.236689 0.348209 0.204303 -0.522830 -0.344626 0.189777 0.002944 -0.277345 0.382237
sent_194 -0.428905 -0.577914 -0.035945 -0.154913 -0.407545 0.194001 -0.139695 0.195331 0.206062 0.378318 0.287944 -0.178260 -0.851411 0.079901 -0.272605 0.339511 0.534647 0.587722 -0.148062 0.307646 -0.002615 -0.092234 -0.142910 -0.373582 0.252634 0.551391 -0.275802 0.701144 -0.004855 0.630098 -0.398238 0.405084 0.158496 0.248791 -0.068109 -0.054744 0.137425 0.114973 -0.157896 -0.284690 0.284645 -0.969571 -0.079100 0.162056 -0.094538 -0.445097 -0.247383 0.140792 0.053760 0.227391
sent_195 -0.429251 0.209531 0.375381 0.236630 0.045138 0.530810 -0.585279 -0.573553 0.503199 0.583177 0.057243 0.681633 0.074582 -0.239286 0.046900 -0.346258 0.180379 0.564946 -0.250377 -0.104150 0.467516 0.159402 -0.135351 0.113587 0.108808 -0.451341 -0.077199 -0.025497 0.086130 0.436977 0.232660 -0.316828 0.276671 0.209965 -0.015052 -0.088828 -0.614672 -0.784682 -0.184821 -0.255706 -0.397576 0.094418 0.568458 -0.580215 -0.138389 0.070139 0.302678 0.024516 0.013278 0.127394
sent_196 -0.252396 -0.012036 -0.324602 -0.238963 -0.261762 0.135787 0.403861 0.236711 -0.074793 -0.209462 0.073149 0.180040 -0.388418 0.221579 -1.093820 0.540272 -0.810696 -0.273784 -0.276928 -0.559160 -0.020791 0.283131 -0.429132 -0.004393 -0.023739 -0.004623 -0.050167 0.594789 -0.073007 -0.245728 0.152754 -0.409042 -0.087315 0.033987 -0.468008 -0.084783 -0.042921 0.515677 -0.080950 0.022519 -0.493092 -0.096253 -0.196014 0.837371 0.549068 0.046739 -0.485545 0.994779 -0.056007 -0.476479
sent_197 0.027844 0.039148 -0.481916 0.399803 0.274718 0.119818 0.483515 -0.230987 0.303795 -0.327882 -0.420125 0.203753 0.076423 0.032807 -0.297029 0.181715 0.367074 0.045271 -0.356740 -0.062970 -0.201265 0.042685 -0.311405 -0.320421 -0.084953 -0.016377 0.352019 -0.293245 0.113569 -0.151473 0.370890 -0.017953 0.064592 0.145411 0.085336 -0.332586 0.066577 -0.426218 -0.223801 -0.356674 -0.252264 0.071862 0.265071 0.006276 0.560083 -0.105081 -0.190471 0.287447 -0.005713 -0.192476
sent_198 -0.308531 0.018690 0.318891 -0.366591 -0.007544 -0.291453 0.157337 0.170507 -0.112721 0.180125 0.304307 0.048138 -0.097796 0.425909 -0.554841 0.138447 -0.273091 -0.186701 0.109629 -0.393901 0.179532 0.155745 -0.192841 0.133983 0.141836 0.599091 -0.413167 0.089293 0.194355 -0.716383 -0.091284 -0.123429 -0.565670 -0.035836 0.031531 -0.169865 0.008804 0.558695 0.462148 -0.089517 0.244735 -0.197895 -0.172530 0.333496 -0.187362 0.380738 -0.471226 -0.069698 -0.329064 0.368637
sent_199 -0.254973 -0.398225 -0.378574 -0.521975 -0.349890 -0.030276 -0.261698 0.044302 -0.052361 0.098791 0.309662 0.378864 0.007659 0.151137 0.037955 0.253405 -0.133134 0.610051 -0.387068 0.552662 -0.009129 -0.205534 -0.559060 -0.082376 0.258998 0.179348 -0.306877 0.518569 0.450063 0.330870 -0.007789 0.276612 -0.522986 0.253871 -0.071181 -0.023275 -0.181226 -0.039146 -0.571519 -0.259794 0.431671 -0.011936 0.121675 0.423845 -0.344421 0.585249 0.147331 -0.173996 -0.047975 -0.377607
sent_200 0.658226 -0.308097 -0.032625 -0.080055 -0.250206 0.103443 -0.182983 0.144965 -0.215622 0.120172 0.343091 -0.564180 0.104316 -0.239120 0.159662 0.029070 -0.427411 0.701408 -0.039287 -0.504809 -0.383271 0.394001 0.430475 0.105392 0.568303 -0.220961 -0.057856 0.280601 0.186124 -0.349503 0.609163 0.240142 -0.458411 -0.354946 -1.115804 -0.172779 0.522824 0.619980 -0.072761 0.682088 0.320604 -0.291753 -0.649750 0.090331 0.003695 -0.195093 0.102679 -0.183812 -0.513076 0.530717
sent_201 -0.413480 0.529358 0.169700 0.054824 -0.060598 0.272185 -0.612644 -0.411936 -0.073828 0.312543 0.262967 0.680484 -0.441040 0.274229 0.430127 0.066121 0.298150 0.534094 -0.194979 0.099683 0.379728 -0.169893 0.108508 0.258209 -0.021259 -0.353163 -0.073641 0.421615 0.279077 0.970787 0.048170 -0.132310 0.209694 0.193759 -0.033025 0.314833 -0.267721 -0.227051 -0.706514 -0.480561 0.114452 -0.099270 -0.022185 0.284703 -0.420792 0.095762 0.486524 0.062058 0.661460 -0.477110
sent_202 -0.364803 0.680061 -0.134235 0.021548 -0.778934 0.265099 -0.582230 -0.824840 -0.289385 -0.311251 0.331093 -0.226226 0.024435 0.278804 0.493223 0.345432 -0.022304 0.435806 0.047971 0.323972 -0.101796 -0.744075 0.259490 0.414409 0.361541 -0.661579 -0.072440 0.348932 0.714004 1.073082 0.078843 0.374803 -0.001181 0.069191 -0.269163 0.627585 -0.360635 0.172090 -0.168680 -0.610467 0.070161 0.315799 0.436584 0.036073 -0.777048 0.587873 0.426861 -0.177418 0.727972 -0.133941
sent_203 -0.335347 -0.337179 -0.794006 -0.230067 0.257099 -0.000651 0.218446 -0.327115 0.016996 -0.184261 0.086002 0.222469 -0.108337 0.633793 -0.158615 0.482455 0.199994 -0.040882 -0.169285 0.312671 0.186883 -0.109057 -0.322406 -0.192758 0.111879 0.200518 -0.207935 0.408651 0.167542 0.308834 -0.294383 -0.068691 -0.101960 -0.090125 -0.069856 -0.016349 -0.532918 -0.231611 0.028581 0.001863 -0.017422 0.313907 0.164039 0.421465 0.025669 -0.483594 0.258709 -0.224381 -0.291328 -0.198941
sent_204 0.189870 -0.771536 -0.458941 0.189695 -0.353131 0.297285 0.372856 0.222595 -0.065561 0.439505 0.209246 0.265627 -0.746867 0.120014 -0.023316 0.611540 -0.036306 0.274513 0.156037 0.312468 -0.270134 0.064515 -0.146028 -0.459361 -0.176964 0.253750 -0.169882 0.543862 -0.006319 0.415211 -0.216978 0.521432 -0.314706 -0.097336 -0.275848 0.188567 0.415965 -0.107774 -0.355838 -0.098733 0.366090 -0.518816 -0.486772 0.495141 -0.073642 -0.257609 -0.057769 0.092336 0.104449 -0.385959
sent_205 -0.201632 0.277685 -0.267668 -0.126571 -0.283492 -0.270410 0.112549 0.186423 0.045407 -0.369712 -0.379223 0.136670 0.087285 0.065461 -0.415299 0.608103 -0.170149 -0.222868 -0.312788 -0.112134 -0.105697 0.210503 -0.148993 -0.231995 -0.116142 0.283247 0.123741 0.158973 0.311430 -0.208156 -0.097902 0.137680 -0.335853 -0.237806 0.005623 0.098331 0.244528 0.133072 -0.304770 0.104240 0.069136 0.029008 -0.090782 0.401954 0.215953 -0.339155 -0.061059 -0.148981 -0.375635 0.065783
