sent_0 -0.423779 0.442131 0.207886 -0.186798 -0.442239 0.315473 0.074933 -0.329958 -0.272412 0.518811 0.402767 -0.342547 -0.143296 -0.018718 0.190176 0.059797 -0.117987 -0.233617 -0.468837 -0.135242 0.492714 0.157328 -0.252698 0.204233 -0.665939 0.270329 -0.159804 0.423066 -0.020780 -0.221670 0.212017 0.189805 0.340283 -0.115314 0.921151 -0.210879 0.112719 0.238572 0.318308 -0.471309 -0.279740 0.197671 0.245071 0.013122 0.729994 0.543638 0.071271 0.540397 0.042501 0.054705
sent_1 0.012528 -0.183618 0.092482 -0.011134 0.019373 -0.746630 -0.582948 0.163709 -0.149369 0.090164 -0.331143 -0.052700 0.492142 -0.346861 -0.490025 0.277091 -0.063826 0.443687 -0.253926 -0.106384 0.179022 -0.158449 0.024672 -0.380376 0.405945 -0.329377 -0.459782 0.028840 -0.560373 -0.180193 -0.455248 -0.463844 0.110377 -0.363429 0.071673 -0.344481 0.559768 -0.748116 0.331720 0.468156 0.238633 0.284501 0.328063 -0.454797 0.228459 0.088133 -0.421679 -0.525939 -0.222750 -0.269011
sent_2 0.134140 0.119650 0.104896 -0.107134 0.273062 0.601292 -0.085122 -0.272159 -0.468283 0.290488 -0.070278 -0.182584 -0.442268 0.008822 -0.265077 0.136625 -0.161336 -0.333522 -0.031753 0.400949 0.485020 -0.235526 -0.082406 -0.084095 0.252333 0.387361 -0.302779 -0.172481 0.075998 0.008066 -0.118793 0.053922 0.032260 -0.257560 0.125152 -0.287799 0.055089 0.102988 -0.013453 -0.010694 -0.293548 -0.172411 -0.054896 -0.120170 0.093987 0.109996 0.072581 0.121966 -0.192331 0.052107
sent_3 0.487832 0.168344 -0.415712 -0.465824 -0.056340 -0.203630 -0.553936 0.134344 -0.403156 -0.024503 -0.167815 0.310821 0.691201 0.175773 -0.442688 0.137583 0.078051 0.809761 0.025009 -0.100458 -0.163912 0.092874 -0.154839 -0.305263 -0.141626 -0.126989 -0.936045 0.584397 -0.752225 -0.269615 -0.090711 -0.504888 0.335856 -0.759557 0.239663 0.445676 0.063573 -0.294097 0.523004 0.608334 -0.071920 -0.448608 0.105099 -0.593487 0.471450 -0.130737 -0.327651 -0.252911 0.375975 0.150978
sent_4 0.334893 0.671101 0.377816 -0.393079 0.258061 -0.544863 -0.509506 0.319543 -0.645214 -0.160630 -0.460512 0.862323 0.101716 -0.079771 -0.029279 0.164410 -0.621342 0.660147 0.023884 -0.182141 0.465893 0.015132 -0.606703 0.137039 0.312630 -0.190043 -0.634181 0.128424 -0.252547 -0.047128 -0.278762 -0.629097 0.393978 -0.258872 -0.054520 0.312552 0.282333 0.159986 0.039955 -0.317276 -0.022598 -0.190689 0.580887 -0.203502 -0.047714 0.024804 0.481112 -0.313115 0.120441 0.287031
sent_5 -0.213953 0.430554 -0.351551 -0.155786 0.739259 0.167369 -0.666506 -0.320101 -0.050796 0.662147 0.042378 0.488356 -0.341862 0.491536 0.468243 0.417203 0.290134 -0.714778 0.836015 -0.090680 0.624868 -0.176201 -0.367350 0.336009 -0.342563 0.295546 -0.758967 -0.421371 -0.208547 0.578826 0.392427 0.938260 -0.598709 -0.846349 -0.262780 -1.205218 0.335870 0.573047 -0.440186 -0.282288 0.486199 0.078831 -0.052798 -0.550746 -0.566253 0.091868 -0.404552 0.317031 -0.216452 0.138203
sent_6 0.121157 0.056019 -0.228340 0.227205 -0.289145 -0.509311 0.294681 0.028228 0.359039 -0.086458 0.641142 0.122625 -0.243259 0.104737 0.295657 -0.184491 0.362371 0.380309 -0.109145 0.004890 0.270921 0.689650 0.512095 0.288943 -0.441616 0.206437 0.227227 -0.327993 0.110395 0.158118 -0.283140 -0.098179 0.244237 -0.144388 -0.114374 -0.133983 0.306250 -0.161630 -0.185459 -0.022836 0.242064 0.610703 0.542365 -0.605513 0.334461 -0.017453 -0.035564 -0.110274 0.504646 -0.404250
sent_7 -0.173257 -0.659099 0.554156 0.353518 -0.001146 -0.761508 -0.099847 -0.024051 -0.077041 -0.100394 -0.141992 0.381238 0.544529 -0.387216 -0.552572 0.423760 -0.457888 -0.205999 0.289741 -0.378714 0.361767 0.440740 -0.305239 -0.373393 0.286814 -0.634100 0.376862 0.457937 0.093468 0.316569 -0.284179 -0.015078 -0.528178 0.724668 -1.057545 0.325351 -0.410751 -0.073877 -0.968196 -0.055091 0.073986 -0.275128 0.126281 -0.215282 0.056574 -0.073711 0.019368 -0.151769 -0.127024 0.157410
sent_8 0.229054 0.822355 0.388245 -0.870744 -0.458969 -0.168557 -0.500727 -0.115352 -0.046611 -0.228907 0.045644 0.736196 0.642224 0.240016 -0.299958 -0.006713 0.106530 1.155553 -0.450446 -0.284875 0.396327 -0.053965 -0.501788 -0.376242 -0.303962 0.092181 -0.447495 0.657846 -0.628843 -0.066019 -0.311557 0.088166 0.334116 -0.045295 -0.238557 0.464864 0.369440 0.433547 -0.456061 -0.122804 0.022421 -0.698172 0.008156 -0.743724 0.407206 -0.512148 0.342615 -0.402431 -0.404375 0.252125
sent_9 0.438977 0.454888 0.577545 -0.201532 0.387687 -0.221553 -0.605493 0.177186 -0.920939 -0.765441 0.007196 0.346314 0.175442 -0.333928 -0.193438 -0.264730 0.034897 0.784870 0.210914 0.028336 -0.253157 -0.039820 0.175582 0.064949 0.422950 -0.522491 -0.682916 0.387069 -0.061073 0.063182 -0.348926 -0.741611 0.703462 -0.440897 0.301874 0.558914 0.521588 0.264302 0.236125 -0.128798 -0.020427 -0.549407 0.336508 -0.379452 0.259949 -0.389431 0.137157 -0.424153 -0.020211 0.336807
sent_10 -0.348816 -0.259965 0.341718 0.558176 0.018655 -0.161453 0.073114 0.502555 0.330383 -0.671423 0.211369 -0.231131 -0.148030 -0.372207 -0.083118 0.237097 0.210324 0.420973 -0.098986 0.000518 0.009732 0.215009 0.205409 0.227961 -0.017112 0.082566 0.036624 -0.659598 -0.046623 0.007433 -0.451761 -0.311010 0.316960 0.126786 0.067257 0.364263 0.290678 0.070928 0.030320 -0.007652 0.104224 0.096983 0.008109 0.278415 0.024929 0.038115 0.005384 -0.287094 0.168992 -0.079847
sent_11 0.920718 -0.028019 0.241039 0.317478 -0.076680 -0.575689 -0.836942 0.287771 -0.567232 -0.432462 0.082285 0.188720 -0.051020 -0.005917 -0.043619 0.251536 -0.281274 -0.261277 0.750214 0.352900 0.231347 0.106763 0.016468 0.037439 0.942760 -0.978347 0.063247 0.236656 0.063103 0.482468 -0.647011 -0.519740 -0.136650 0.176975 -0.138098 0.402332 0.445737 -0.342940 -0.390976 -0.518674 -0.200251 -0.649269 0.134474 -0.318152 0.425197 -0.110374 0.654675 -0.728887 0.148229 0.055576
sent_12 0.426455 -0.260370 -1.024159 0.244278 0.363886 0.873185 -0.613820 -1.378535 -0.205311 0.590737 0.313137 -0.481284 -0.517590 -0.106694 -0.382081 -0.238883 0.414403 -0.849347 0.425677 0.198220 0.082715 -0.206545 0.232476 0.332968 -0.215404 0.313684 -0.436060 -0.057886 0.480426 0.063603 -0.145365 0.533281 -0.013412 -0.545242 -0.097315 -1.310055 -0.071143 0.356585 0.099178 0.157818 0.394807 0.234840 -0.301541 -0.093201 0.352622 -0.112281 -0.401870 0.545776 0.176295 -0.237028
sent_13 0.227687 0.353068 0.016480 -0.194961 -0.491168 0.104621 -0.471871 -0.035007 0.087023 -0.335482 -0.106238 0.179099 0.324389 -0.184338 -0.136235 -0.049977 -0.536276 0.449171 -0.544012 -0.080481 0.014010 0.338855 -0.250675 -0.022648 -0.122172 -0.193941 0.233483 -0.253742 -0.314086 -0.211105 -0.108448 -0.103003 -0.327250 0.595568 0.164616 0.583736 -0.112615 0.059192 0.265306 0.374899 0.151344 0.091348 0.210862 0.007311 -0.172781 0.145689 0.210590 -0.314277 0.013602 0.418334
sent_14 -0.357263 -0.368273 -0.236821 0.525018 -0.110947 -0.243260 -0.000276 -0.295799 -0.129869 -0.092134 0.097261 -0.046006 -0.811315 -0.114791 -0.353193 -0.314970 -0.288194 -0.938708 0.255819 0.534367 0.228269 0.001969 -0.013355 -0.076914 -0.052939 -0.456490 0.106346 -0.163592 0.230849 -0.090764 -0.109397 0.428394 0.170509 0.231328 -0.070687 -0.074783 -0.518757 -0.071376 -0.123887 -0.469579 0.122325 0.516657 -0.191618 0.305632 -0.231309 0.154980 0.277026 0.335595 -0.288360 -0.026765
sent_15 -0.030129 0.147809 0.163895 -0.040255 -0.166827 0.339511 -0.100083 -0.292894 -0.083655 0.035397 0.133494 0.010882 -0.076578 -0.411823 -0.208675 0.052804 -0.272293 0.156735 -0.143610 0.029772 0.022819 0.145075 -0.041893 -0.053295 0.104877 -0.000894 -0.009728 -0.154576 0.027842 0.131592 -0.173174 0.009000 0.146611 0.261238 0.059803 0.067283 0.045832 0.134086 0.367268 0.072901 0.017176 -0.244080 0.030704 0.045275 0.040737 0.061053 0.180272 -0.143891 -0.161012 0.039146
sent_16 -0.565408 0.504764 -0.349902 -0.116404 0.621515 0.324007 -0.815826 -0.319883 0.004777 0.443652 0.263901 0.197653 -0.581484 0.315992 0.524295 0.482973 0.236087 -0.634613 0.727790 0.117926 0.795054 0.119088 -0.400827 0.155725 -0.491041 0.522044 -0.847010 -0.530189 -0.443515 0.757664 0.053583 1.157105 -0.599817 -0.463967 -0.433116 -1.177238 0.272989 0.449393 -0.206685 -0.485993 0.569135 0.353198 0.013435 -0.581448 -0.372677 0.430930 -0.324592 0.680710 -0.259687 0.016669
sent_17 0.529642 0.276940 -0.447902 0.326914 -0.096502 0.513595 -0.457532 -1.067281 -0.322413 0.416210 -0.205904 0.061103 -0.647465 0.220451 -0.280555 -0.671176 -0.276990 -1.159097 0.427398 0.649733 1.008860 -0.019711 -0.139307 0.057083 -0.071535 -0.346235 -0.315316 0.405821 0.345754 -0.072021 -0.081576 0.458868 -0.105194 -0.154623 0.061954 -0.986594 -0.598107 0.361252 -0.218362 -0.750320 0.156946 0.471118 -0.139376 -0.684698 -0.018312 0.232561 0.181094 0.128179 -0.037882 0.152689
sent_18 -0.556871 -0.654446 0.067665 0.764069 -0.720295 -0.621693 0.170139 0.524943 0.608816 0.109558 0.321447 0.066689 0.336827 -0.647887 -0.195080 0.461705 0.563638 0.442580 -0.527614 -0.327991 0.222379 0.386271 0.039281 0.339692 -0.034944 -0.032118 0.059223 -0.719788 0.202003 -0.499450 -0.909746 -0.361621 0.046320 -0.415886 0.115247 -0.263338 0.884336 -0.609660 0.131624 -0.129122 0.377450 0.248201 0.386036 -0.062409 0.317691 -0.150600 -0.302934 -0.532587 -0.139807 -0.313445
sent_19 0.388074 0.151536 -0.069711 0.027657 -0.200605 0.249492 -0.529341 -0.399930 0.049432 -0.048373 0.140512 -0.063513 -0.496076 0.026837 -0.640729 -0.218506 -0.077620 -0.434012 0.063804 0.652113 0.118582 -0.295958 0.081234 -0.213039 0.110650 -0.440799 0.146518 -0.092700 0.178377 -0.179843 -0.163907 0.382321 0.251076 -0.040057 -0.077821 0.236543 -0.145167 0.147000 -0.128529 -0.012534 -0.102665 -0.353833 -0.279331 -0.071967 0.058920 -0.066676 0.432131 -0.174515 -0.120250 0.173040
sent_20 -0.185891 0.246392 -0.093525 0.303733 -0.000741 0.525306 -0.301233 0.030551 0.003627 -0.210112 -0.372500 -0.377613 -0.191157 -0.354300 -0.075747 0.112111 0.004884 0.166089 -0.024108 0.104334 0.233506 -0.276370 -0.374824 0.081849 0.114683 -0.102409 -0.231250 0.114480 0.448372 -0.314323 -0.424296 0.171761 -0.210561 0.434965 -0.001029 -0.311868 -0.372742 0.147606 0.063804 -0.619297 0.177596 0.092688 -0.082707 0.070947 0.164367 -0.255711 -0.104973 0.379412 -0.093209 -0.078233
sent_21 0.040649 0.161930 0.024517 -0.347120 -0.364994 -0.138739 0.171653 -0.039001 0.054983 -0.093728 0.038400 0.182664 0.433614 -0.087345 -0.233653 0.289282 -0.184304 0.110849 -0.445775 -0.066548 0.070481 -0.222952 -0.111226 -0.303831 -0.003814 -0.299438 0.195827 0.107743 0.228200 -0.128796 -0.195488 -0.077144 -0.137085 0.227716 -0.001782 0.200375 0.151199 0.135779 -0.061824 0.309699 0.121815 0.137495 0.036071 0.101931 -0.163303 -0.321091 -0.176929 -0.156754 -0.003361 0.001194
sent_22 -0.462576 -0.014977 -0.906827 -0.069935 0.456393 0.579742 0.172988 -0.325035 -0.067728 0.444199 -0.085300 0.038820 -0.721021 0.186473 0.098505 -0.169441 0.158912 -0.153422 0.300195 0.407344 0.423421 -0.295626 -0.259210 0.084841 0.050323 0.454865 -0.781261 0.212119 0.204373 0.305228 -0.070310 0.412827 0.139380 0.045124 -0.310424 -0.748049 -0.079145 0.512816 -0.166199 -0.571878 0.076134 0.355753 -0.589005 0.221856 0.007562 0.281633 -0.090456 0.397482 -0.160777 -0.562286
sent_23 -0.331220 0.393623 0.006796 0.458942 -0.484006 0.208690 0.241311 -0.047997 -0.342018 0.578518 0.880855 -0.023236 -0.749585 0.073570 0.378077 0.056804 -0.053395 -0.479831 -0.026767 -0.073089 0.444295 0.679063 0.332721 0.370390 -0.701843 0.030783 -0.311530 0.539921 0.303629 0.166146 0.423909 -0.053744 0.548909 -0.175449 1.068551 -0.315290 0.398099 0.158703 0.342810 -0.572537 -0.223081 -0.265743 0.031685 -0.188293 0.612962 0.557152 0.374287 0.609361 0.041649 -0.037544
sent_24 0.924081 0.198111 -0.557075 0.348056 0.183385 0.180836 -0.940965 -0.400488 -0.319964 -0.083167 -0.218190 0.477138 -0.475217 0.648862 -0.418215 -0.576806 -0.337812 -0.868759 0.769485 0.740012 0.848528 0.020327 -0.251305 0.238433 0.442988 -0.198352 -0.459380 0.062390 0.093173 -0.360283 -0.124069 0.662573 -0.094058 -0.512806 -0.133933 -0.436409 -0.218361 0.449686 -0.845630 -0.358418 0.047427 0.094324 -0.389364 -0.359662 -0.443764 0.073287 0.160373 0.093144 0.023059 0.336992
sent_25 0.082268 0.134682 -0.191042 -0.507996 -0.250684 0.396620 0.480570 -0.055047 -0.584253 0.317666 0.489917 -0.278558 -0.169571 -0.113730 0.713784 -0.093333 -0.158747 -0.428781 0.142891 0.340145 -0.348343 0.302396 0.793086 0.396050 -0.565203 0.737150 0.317058 -0.067601 0.208764 0.361099 -0.052603 -0.043249 0.022324 -0.192469 0.554315 0.207932 -0.284840 -0.616520 0.347241 0.150069 -0.097820 -0.018725 0.417780 -0.140008 0.290863 0.202194 0.052455 0.641234 0.395318 0.216954
sent_26 0.321573 0.167822 -0.358549 0.249659 -0.322023 0.279775 -0.392186 -0.517064 -0.098022 0.199026 -0.014181 -0.005607 -0.701657 0.136177 -0.343844 -0.201578 -0.275990 -0.571159 0.094072 0.516837 0.333267 -0.280442 0.075584 -0.240785 0.007582 -0.313104 -0.135371 0.394443 0.287301 -0.238362 -0.067329 0.387259 0.406544 0.005262 0.274824 -0.321503 -0.263931 0.148642 -0.067274 -0.308187 -0.131739 -0.135892 -0.697204 0.022914 -0.053147 -0.060926 0.363503 0.086442 -0.085648 0.024969
sent_27 0.210828 0.033476 -0.060231 -0.092843 -0.003782 0.493143 0.190980 -0.108696 -0.203449 -0.134403 0.092258 -0.271609 -0.123030 0.132372 0.028489 -0.020243 0.055566 -0.009669 0.026299 0.257391 0.014786 -0.291183 -0.236428 -0.041425 0.114416 0.032279 0.016877 0.023728 0.186660 -0.054483 -0.026870 0.187787 -0.204762 0.144034 0.288207 0.155503 -0.286983 0.013670 -0.002603 -0.190238 -0.233706 -0.297954 -0.052652 0.146221 0.159264 -0.251029 -0.027079 0.066463 -0.087844 -0.012645
sent_28 0.762522 0.493253 0.124231 0.574823 -0.766830 -0.056667 -0.434037 -0.139840 0.266163 -0.154750 -0.258266 0.220262 0.463756 0.403559 -0.322482 0.165152 -0.635240 -0.088699 -0.162030 0.002398 0.627461 0.541373 0.305241 -0.504506 0.130766 -0.504156 -0.105212 0.016337 0.284944 -0.715514 -0.477812 -0.128311 -0.606470 0.129708 0.418531 0.464798 -0.599430 -0.313126 0.069624 0.567613 0.325475 -0.434656 0.412832 -0.725549 0.101571 -0.025121 0.494788 0.052202 0.373078 0.600087
sent_29 0.182716 -0.807542 0.315779 -0.174666 -0.103657 -0.439500 -0.425341 0.401180 0.134615 0.291405 -0.097330 -0.037592 0.549343 -0.075943 -0.418584 -0.144715 -0.536617 0.290270 -0.277789 0.458243 0.091816 0.288110 -0.059213 -0.007639 0.632925 -0.110054 -0.225830 -0.089837 -0.490328 -0.319970 -0.402720 -0.315908 0.271560 -0.230941 -0.066549 -0.352817 0.747802 -1.165160 0.166196 0.531845 -0.062481 0.240602 0.132697 -0.340945 0.655416 0.331823 -0.315901 -0.442245 -0.396270 -0.300532
sent_30 0.032679 0.430493 -0.441363 0.047271 0.673922 0.543633 -0.844372 -0.179258 0.064927 0.403983 0.067723 0.266606 -0.575762 0.374032 0.547826 0.142905 0.234705 -0.536276 0.685803 0.105815 0.514653 -0.049365 -0.397122 0.295824 -0.337449 0.197354 -0.784197 -0.266615 -0.158546 0.541850 0.165528 0.571379 -0.323212 -0.541176 -0.112504 -0.908910 0.367622 0.693781 0.116149 -0.575386 0.391045 0.081894 -0.002633 -0.557433 -0.290841 0.349775 -0.116355 0.395966 0.231095 0.325682
sent_31 0.445087 0.407216 -0.382268 0.076131 0.355381 0.478552 -0.608851 -0.534098 -0.376004 0.260810 -0.149135 0.329478 -0.337232 0.438714 -0.062962 -0.004229 -0.188495 -0.915275 0.588654 0.469416 0.834776 0.103007 -0.417992 0.283614 0.083100 0.008426 -0.455903 -0.019420 0.176868 -0.045026 0.047132 0.629990 -0.390708 -0.381223 -0.243626 -0.855864 -0.080677 0.768729 -0.576513 -0.552075 0.156147 0.123306 -0.255817 -0.319945 -0.377007 0.217429 -0.104566 0.258387 -0.035178 0.187366
sent_32 0.223193 -0.565653 -0.892633 0.292063 0.325429 0.732061 -0.150757 -0.912134 -0.364773 0.472551 0.363552 -0.466691 -0.476861 -0.157540 -0.292035 -0.266767 0.141705 -0.952253 0.313442 0.205429 -0.083310 0.146335 0.270615 0.261538 -0.226360 0.596246 -0.317107 0.026409 0.380283 0.039947 -0.149106 0.318213 -0.006914 -0.338362 -0.096375 -1.068962 0.107976 0.101791 0.050798 0.405986 0.303566 0.399364 -0.207897 -0.198726 0.162377 0.034420 -0.589304 0.841802 0.260494 -0.163680
sent_33 0.242253 0.182964 -0.473454 0.092109 0.138682 0.411779 -0.500557 -0.537087 0.209061 0.468754 0.131529 0.097315 -0.337921 0.451479 0.171036 -0.431675 -0.001410 -0.587164 0.238235 0.322326 0.477779 0.186364 -0.438506 0.010905 -0.030898 -0.059687 -0.424650 0.578349 -0.055974 -0.132645 0.154194 0.497575 0.012287 -0.055860 -0.260100 -1.014916 0.090827 0.595175 -0.321818 -0.346697 0.007686 0.100146 -0.506495 -0.668916 -0.168732 0.058128 -0.084689 0.145956 -0.229940 -0.006242
sent_34 -0.290449 0.225149 -0.295713 0.178020 0.663026 0.835575 -0.332615 0.005353 -0.081930 0.103925 0.114756 0.143126 -0.427683 0.189871 0.192085 0.171619 0.212857 -0.642247 0.532223 0.237908 0.961197 0.212120 -0.189466 0.031883 -0.126773 0.238162 -0.671481 -0.251716 -0.055032 0.143642 -0.225600 0.882941 -0.371546 -0.555657 -0.022825 -0.869372 0.007381 0.311490 -0.264441 -0.521445 0.449285 0.634067 -0.093788 -0.663050 -0.518744 0.355050 -0.848048 0.639006 -0.282488 0.329752
sent_35 0.050901 0.253750 0.159879 0.020019 -0.038019 0.339397 0.386610 0.020782 -0.033815 -0.174215 -0.022551 -0.158650 0.099475 -0.037307 -0.294927 0.134284 0.066902 0.011666 -0.046263 0.062720 0.043600 0.000540 0.254575 0.031820 0.143187 0.135745 0.179886 -0.271291 0.240106 -0.060556 -0.186847 -0.013105 0.152715 -0.025752 0.085521 0.177934 -0.152584 0.204429 -0.115863 0.193404 0.081899 -0.067880 0.136922 0.048929 -0.045105 -0.052729 -0.057923 0.149507 0.100745 -0.046948
sent_36 -0.061087 -0.712825 -0.013213 -0.095268 -0.008569 -0.459527 -0.354470 0.029822 -0.096311 0.306614 -0.291478 0.081451 0.806692 -0.462015 -0.042385 -0.064074 -0.255193 0.505693 -0.226429 -0.018495 -0.192416 0.343822 -0.386578 -0.234739 0.138149 -0.124783 -0.296025 0.267843 -0.442147 -0.397377 -0.147442 -0.602762 -0.146576 -0.129815 -0.162463 -0.439589 0.199800 -0.783912 0.324863 -0.054733 0.016499 0.055253 0.367802 -0.058348 0.680023 0.255879 -0.620117 -0.297156 -0.669196 -0.006289
sent_37 0.470957 0.417715 0.050680 -0.284683 0.474869 0.528879 -0.833050 -0.245129 -0.018340 0.171823 0.043506 0.240888 0.077025 0.230758 0.321715 0.257716 0.247697 -0.360145 0.294506 -0.056007 0.461765 -0.352068 -0.111497 0.212742 -0.125162 0.027988 -0.229178 -0.639875 -0.172292 0.260230 0.206342 0.459962 -0.515160 -0.712645 0.064203 -0.849640 0.422045 0.392255 0.089582 0.061689 0.338794 0.381005 0.243480 -0.430658 -0.596069 -0.067036 -0.487324 0.045836 0.418866 0.286859
sent_38 0.112584 -0.184711 -0.372492 -0.092647 0.028318 0.040250 0.145387 -0.120713 -0.131459 0.318512 -0.208701 0.116680 -0.165853 -0.085162 0.369615 0.206371 -0.376444 0.015466 0.067220 -0.238675 0.265886 0.099390 -0.661432 0.063131 0.094317 0.143197 0.007303 0.175028 -0.171711 0.093118 -0.030675 -0.274616 -0.103499 0.057414 -0.326055 -0.488266 0.074068 0.077409 -0.053282 -0.227930 -0.095208 0.115438 -0.047213 0.041688 -0.138308 0.059087 -0.160710 0.051829 0.086623 -0.055380
sent_39 0.101276 0.329632 -0.191643 -0.529698 -0.512539 0.374268 0.199010 -0.191940 -0.071441 0.141961 0.018968 0.894148 0.949138 -0.184698 -0.431281 -0.258644 -0.147480 0.806136 -0.319599 -0.406334 -0.407175 0.441083 0.012483 0.097267 -0.536192 0.213789 -0.058360 0.248936 0.188496 0.011153 0.015350 -0.331452 0.159653 0.249693 -0.181764 0.497154 -0.309561 0.345452 0.269128 0.611152 0.311942 -0.272816 0.177983 -0.100025 -0.299852 -0.296439 -0.010948 -0.253695 -0.286892 0.307895
sent_40 0.112052 0.017512 0.479865 -0.086078 -0.108021 0.031117 -0.343842 -0.202785 0.000614 -0.073208 -0.320518 -0.003847 0.397549 -0.427628 -0.375503 0.128085 -0.414447 0.186380 -0.058799 0.041783 0.137192 0.034167 -0.085442 -0.162345 0.415190 -0.278307 0.171376 0.458045 0.155690 0.122291 -0.528180 -0.273621 -0.051136 0.686134 -0.382692 0.221686 -0.027464 0.125536 -0.219054 -0.010594 -0.051418 -0.472586 0.054550 -0.123404 0.370859 -0.028295 0.276528 -0.289843 -0.111053 0.077422
sent_41 0.540106 0.190176 -0.351084 0.170268 -0.352158 0.164011 0.047515 -0.681266 0.020512 -0.267592 0.356038 -0.234076 -0.196700 0.025287 -0.215801 -0.274004 -0.231622 0.212565 -0.424421 0.097720 0.201988 0.270549 -0.134897 -0.586776 -0.228385 -0.671024 0.278723 0.464991 -0.231536 -0.405184 0.020735 0.025112 0.209185 0.267146 0.145261 0.381524 -0.769181 0.183470 0.369667 -0.154724 -0.191244 -0.019239 0.036110 0.064027 0.434776 0.282940 0.125368 -0.031331 0.113517 0.223376
sent_42 0.752769 0.570641 -0.128840 0.562436 -0.700613 -0.351690 -0.589413 -0.015990 0.258507 -0.382847 -0.438232 0.164514 0.556363 0.207226 -0.288321 0.266088 -0.524143 -0.003331 -0.468709 -0.050424 0.532913 0.253736 0.248486 -0.105848 0.164004 -0.845347 0.052410 0.167034 0.559294 -0.730500 -0.377499 -0.263774 -0.623388 0.178103 0.531550 0.422915 -0.277779 -0.009295 -0.069903 0.487359 0.396826 -0.542828 0.087783 -0.229754 0.134716 0.158836 0.300488 -0.234375 0.280813 0.630275
sent_43 -0.417677 -0.205984 0.336270 -0.262414 -0.020871 -0.311852 0.226371 -0.071986 -0.145406 -0.074526 -0.077469 -0.172575 -0.004721 -0.375131 -0.181361 0.045883 -0.349312 -0.221998 0.005598 0.156952 0.121385 -0.068812 0.070363 -0.345318 -0.049988 -0.268388 0.222370 0.224736 -0.095902 -0.003249 -0.116668 -0.016175 0.289272 0.223710 -0.114154 0.224753 -0.293090 -0.201757 0.051246 -0.249066 -0.093566 0.547636 0.087192 0.339317 0.220794 0.397609 -0.066520 0.243886 0.129889 -0.075464
sent_44 -0.474776 -0.563528 -0.322236 0.533060 0.104675 -0.383165 0.369364 -0.864407 -0.101561 -0.072479 -0.332047 -0.358261 -0.484627 -0.399404 -0.557800 -0.344357 -0.171795 -0.440605 0.224373 -0.104948 0.268074 0.091117 -0.291221 -0.125634 0.353972 0.060635 0.050111 0.283692 0.408943 -0.024055 -0.155557 0.384754 0.182573 0.421984 -0.593018 0.021286 -0.811213 0.068898 -0.454233 -0.436674 0.066394 0.250059 -0.222322 0.446825 0.190976 0.190571 0.074298 0.360282 -0.186219 -0.222481
sent_45 0.167666 0.504727 0.038550 -0.193791 0.649252 -0.664966 -0.433203 0.454201 -0.371304 -0.983346 -0.087051 0.382403 -0.165244 0.422492 -0.032954 -0.321984 0.125680 0.882836 0.147043 -0.451140 0.187216 -0.613579 -0.158145 -0.635351 -0.048799 -0.401004 -1.086416 0.769547 -1.295628 -0.391800 0.503373 0.196383 0.924376 -0.522882 0.388292 0.308223 0.165233 -0.001944 0.327334 0.206982 -0.234124 0.127153 -0.664626 -0.261838 -1.005584 -0.187339 -0.186338 0.014771 0.075188 0.325386
sent_46 0.130401 0.165186 -0.381031 0.261774 0.639611 0.453359 -0.900157 -0.123395 -0.211812 0.349264 0.157344 0.469209 -0.321749 0.457994 0.298693 0.250859 0.278220 -0.587851 0.537273 0.128161 0.256444 0.007539 -0.324821 0.188416 -0.338639 0.255238 -0.696684 -0.456544 -0.209630 0.273691 0.393375 0.422570 -0.482001 -0.783612 0.007241 -0.801008 0.441053 0.793504 -0.024645 -0.165667 0.341512 0.003780 -0.063511 -0.275547 -0.452763 -0.057722 -0.268690 0.388360 -0.043861 0.327202
sent_47 0.368635 -0.061120 -0.506393 -0.018969 0.064909 -0.310240 -0.548554 -0.317510 -0.292350 -0.129296 -0.373263 0.082456 0.495097 -0.018457 -0.452697 -0.425214 -0.210000 0.092343 0.511099 0.473305 -0.539255 0.223113 -0.134786 -0.303248 0.216601 -0.412062 -0.340026 0.173645 -0.345827 -0.208786 -0.056428 -0.114876 -0.149363 0.002425 -0.445296 0.118378 -0.659959 -0.313320 0.133668 0.030341 0.134411 -0.001568 0.118586 0.120479 0.588272 0.294385 0.106858 0.250303 -0.165233 -0.003343
sent_48 -0.278548 -0.303436 -0.499167 0.164205 -0.052916 -0.230673 -0.100595 0.294137 0.041893 -0.363934 0.083984 -0.251091 -0.386853 -0.371925 -0.208808 0.103266 0.148526 -0.240004 0.494786 0.272571 -0.284865 -0.068046 -0.416899 0.169105 0.236737 -0.250560 -0.282353 0.025236 0.016983 0.066438 -0.306359 0.107642 0.269202 -0.073420 -0.019799 0.401863 0.343989 0.020480 0.158129 -0.209294 0.080826 -0.363505 -0.174084 0.191135 0.039458 0.045928 -0.016632 0.145455 0.349782 -0.078316
sent_49 -0.060126 0.221655 -0.169067 0.156952 0.039158 -0.030226 -0.327213 -0.381614 0.310060 -0.132289 -0.183867 -0.455277 -0.693426 0.202415 -0.404186 -0.091280 -0.246877 -0.073700 0.019491 0.507126 0.243811 -0.476364 -0.396448 -0.571326 0.188979 -0.778253 -0.346463 0.684149 0.584952 -0.446517 -0.137094 0.796010 0.473313 0.096757 0.121480 0.020576 -0.219594 0.270291 -0.146402 -0.769448 -0.062778 -0.249615 -0.716752 -0.007255 0.293108 -0.014975 -0.042993 0.268977 0.078070 -0.262377
sent_50 0.040182 0.379303 -0.444756 0.174048 0.192713 0.205777 -0.734662 -0.704655 0.023287 -0.325845 -0.090297 0.058932 -0.343122 -0.063062 -0.419552 -0.503502 0.304109 -0.089090 0.310858 0.277370 -0.030452 -0.149930 -0.128361 -0.050369 0.234500 0.006092 -0.441058 -0.117165 0.442217 -0.276090 -0.144889 0.675296 0.035743 -0.171517 -0.223724 -0.292212 0.063827 0.690915 -0.117044 -0.170129 0.603276 0.083839 -0.200433 0.075101 -0.259081 -0.046238 0.069699 0.468543 0.027978 -0.097926
sent_51 -0.079518 0.274868 -0.096103 -0.044203 -0.145410 0.068778 0.241833 -0.272936 0.052036 -0.323938 0.264209 -0.267703 -0.374971 -0.121515 0.224267 -0.005407 -0.064467 0.162254 -0.192917 -0.302205 0.186229 -0.037270 -0.199739 -0.140709 0.057565 -0.263865 0.192513 0.102170 0.071357 0.019737 0.101481 0.396815 -0.286481 0.429753 0.372929 0.455188 -0.179748 -0.186448 -0.059746 -0.208952 -0.149754 -0.466922 -0.155909 0.278835 0.022614 0.219928 0.169729 -0.023298 -0.450288 0.181501
sent_52 -0.579231 0.110309 0.159196 0.007901 -0.237043 -0.160435 -0.107926 -0.222452 0.398840 0.421615 0.256372 0.261984 0.076172 -0.152631 -0.128836 0.243654 0.480017 0.044592 0.112038 -0.052264 0.667515 0.104274 0.157059 -0.371317 -0.368813 0.080783 -0.339087 0.042304 -0.045243 0.384335 -0.384721 -0.028339 0.053603 -0.144848 -0.321407 -0.113290 0.216205 0.502969 -0.140726 -0.179898 0.225182 0.072851 0.383824 -0.702654 0.347235 0.082909 0.115073 -0.202613 0.170342 -0.058794
sent_53 -0.235596 -0.308833 -0.129878 -0.086928 -0.010688 0.077387 0.374976 -0.162051 -0.156924 -0.096701 -0.019759 -0.093187 -0.090884 -0.144421 0.023113 -0.246745 0.138667 0.145944 -0.182802 0.035770 -0.045536 -0.095026 0.078080 -0.221691 0.022323 0.396322 -0.104295 0.006135 -0.216020 -0.005903 -0.078165 -0.274004 0.126736 0.067004 0.035968 0.120178 -0.109855 0.033674 0.046890 0.204036 -0.200162 0.038532 -0.014988 0.169408 -0.198363 0.063659 -0.059544 0.016333 -0.082160 0.081553
sent_54 -0.766637 0.499526 -0.029104 0.117985 -0.022535 0.432569 -0.116834 0.013203 0.476391 -0.013982 -0.206836 -0.198510 -0.120551 -0.309134 0.255460 0.214040 0.116284 0.587340 -0.253932 -0.376006 0.289667 -0.256516 -0.319639 -0.524792 -0.019041 0.061177 -0.502234 0.544621 0.055103 -0.051358 -0.339608 0.288945 -0.060659 0.641795 -0.090761 -0.306596 -0.198303 0.368812 0.320472 -0.327424 0.268529 -0.177186 -0.215734 -0.188989 -0.349385 -0.040259 -0.069483 0.335906 -0.355584 -0.045212
sent_55 0.428593 -0.272066 -0.910666 0.215993 0.355919 0.798897 -0.293254 -1.171461 0.139040 0.498139 0.474235 -0.585585 -0.589890 0.040297 -0.366088 -0.453822 0.301476 -1.153715 0.430707 0.218316 -0.183993 0.032289 0.241710 0.185442 -0.170911 0.284320 -0.103239 -0.000688 0.396771 -0.160189 -0.110624 0.800530 0.140167 -0.478714 -0.202767 -0.917661 -0.012968 0.152011 0.182102 0.196185 0.133156 0.490218 -0.314802 -0.304992 0.120272 -0.079670 -0.369667 0.845254 0.357964 -0.221067
sent_56 0.056685 -0.014368 0.116373 -0.007333 0.054133 -0.056350 -0.150162 -0.030484 0.052217 -0.029768 -0.137318 -0.063336 0.197427 -0.209888 -0.237519 0.123042 -0.162715 -0.071418 0.056294 0.050867 -0.066571 0.000239 -0.074860 -0.002636 0.132040 -0.236952 0.077149 -0.155687 -0.065421 -0.135532 -0.064153 -0.044913 -0.011053 -0.102505 0.001309 0.066808 0.045558 -0.142653 0.112391 0.013864 0.009634 0.047264 0.071925 0.166016 0.015894 0.223194 -0.075851 -0.091743 -0.018278 0.053669
sent_57 0.211969 0.336693 0.284597 -0.142928 0.089026 -0.023124 -0.172331 0.272220 -0.114607 -0.518170 -0.002605 0.068154 0.238375 -0.178741 -0.189012 0.035918 0.052980 0.515332 -0.198919 -0.259020 0.185127 -0.158622 -0.409356 -0.018244 0.179199 -0.411647 -0.321780 0.277719 0.025420 -0.267941 -0.259893 -0.146392 0.114399 -0.008117 0.167847 0.179854 0.400102 0.137881 0.004623 -0.253952 0.027516 -0.107717 0.153827 -0.320843 0.004555 -0.323784 -0.163636 -0.250122 -0.001751 0.122052
sent_58 0.059134 0.205851 0.050523 -0.220857 -0.552605 0.043881 0.045552 -0.210792 0.044628 0.284283 -0.092848 0.203628 0.533837 -0.147828 -0.667863 -0.155749 -0.469394 -0.036523 -0.434302 0.192568 0.246700 0.416432 -0.116905 -0.125727 0.203846 -0.113566 -0.034242 0.239375 0.118749 -0.202017 -0.532765 -0.115451 0.020216 0.223844 0.148919 0.378001 0.439065 -0.107759 -0.052265 0.223877 0.084081 -0.367299 0.175975 -0.376633 0.414421 0.342943 0.277307 -0.042189 -0.326890 0.245715
sent_59 0.111498 0.036156 -0.036295 -0.116771 -0.082660 0.163498 0.186820 -0.296834 -0.086702 0.083179 0.158606 -0.215831 -0.278754 -0.295263 -0.174102 0.084483 -0.074651 -0.084202 -0.079479 -0.127275 0.212750 -0.079771 -0.319402 0.103850 0.157354 0.053206 0.184951 -0.460916 -0.284087 0.034556 -0.215277 -0.028642 0.021124 -0.115959 0.167060 0.161024 0.263156 -0.095334 0.118668 0.015342 -0.163487 -0.024756 0.443904 0.078426 0.085212 0.057206 0.176489 0.006181 0.077084 0.071966
sent_60 -0.939064 -0.813325 0.194124 0.450659 -0.543207 -0.590630 0.099113 0.496459 0.339960 -0.380333 0.450667 -0.128942 -0.122102 -0.626420 -0.478935 0.412051 0.520955 -0.467368 -0.055332 0.058223 0.124046 0.437224 0.169701 -0.127184 0.263422 -0.024675 0.341125 -0.765944 -0.212714 -0.199129 -0.520089 -0.014422 0.373268 -0.442995 -0.098860 0.397160 0.953851 -0.194459 -0.242686 0.208688 0.490313 0.493845 0.216170 0.517649 -0.372066 0.372977 -0.269551 0.242743 0.033353 -0.159156
sent_61 0.303033 0.693272 0.098598 -0.381606 -0.129989 -0.178850 -0.123591 0.049132 -0.081024 -0.570527 0.046821 0.717697 0.460076 0.354251 -0.327024 -0.209029 0.185269 0.882947 -0.196604 -0.249395 0.383336 -0.060382 -0.246035 -0.296262 -0.091477 -0.108584 -0.451569 0.445893 -0.466657 -0.199645 -0.264134 -0.185091 0.467993 -0.058492 -0.095838 0.270730 0.236926 0.625728 -0.475400 -0.043311 0.011390 -0.098881 -0.115933 -0.322625 -0.276450 -0.581508 0.003635 -0.314297 -0.313315 0.236406
sent_62 -0.681305 0.119940 0.395496 -0.095168 -0.158387 -0.027841 0.321170 0.179279 0.112947 -0.205986 0.042638 0.020818 -0.002485 0.094146 -0.244698 0.250361 0.078154 0.614724 -0.447593 0.009225 0.148535 -0.056143 -0.037436 -0.905236 0.072986 0.059935 -0.195550 -0.282147 -0.734728 0.026985 0.095125 -0.114186 0.270609 0.176195 -0.031893 0.258415 -0.086210 0.212011 0.070486 0.339959 -0.032770 0.056190 -0.049537 0.403793 -0.200015 0.213374 -0.017412 0.011701 -0.458786 -0.215252
sent_63 -0.097768 -0.317052 0.044943 0.104795 -0.314678 -0.578574 0.138365 -0.484957 0.573113 0.183785 -0.263465 -0.209858 0.461801 -0.399319 -0.379270 -0.440372 0.147545 0.424450 -0.498634 -0.494877 0.058033 -0.095137 0.199990 0.113442 0.403211 -0.130835 0.385440 0.236776 0.296029 -0.318068 -0.526043 -0.055433 -0.138325 0.483745 -0.292868 -0.337427 0.232010 -0.591517 -0.436658 0.325426 0.016138 0.020664 0.001041 -0.077647 0.435963 -0.390356 0.163516 -0.335290 -0.510255 -0.317803
sent_64 -0.103057 0.066508 0.216467 -0.317799 -0.024122 0.339084 -0.229877 -0.227232 0.097740 0.011146 -0.191705 -0.031872 0.066067 -0.082401 -0.459190 -0.007165 -0.048798 0.137453 -0.169754 0.083971 -0.323811 -0.637146 0.048819 -0.469467 0.093055 -0.076176 -0.113074 -0.043327 0.165107 0.062767 0.085158 -0.020336 0.101052 0.132450 0.018147 0.377459 -0.163534 0.399936 0.324273 0.437591 -0.055333 -0.299172 -0.099932 0.261570 -0.181868 -0.341866 0.199032 -0.183062 0.087481 0.003114
sent_65 0.021511 -0.003056 -0.040943 -0.198080 0.164468 -0.056510 0.000632 -0.566139 -0.087276 0.133037 -0.234943 -0.204679 -0.037676 -0.006696 -0.537956 -0.159034 -0.333393 -0.038566 -0.177635 0.047479 -0.020826 -0.130126 -0.437066 -0.523872 -0.256279 -0.506915 -0.162257 0.575286 0.293317 -0.291016 0.023695 0.309631 0.055582 0.077019 -0.131927 0.142999 -0.462620 -0.012346 0.133432 -0.231964 0.062141 0.083433 -0.011025 -0.370173 0.393884 -0.125987 -0.283902 0.081372 0.057704 0.057074
sent_66 -0.184683 0.238986 -0.035798 0.087135 -0.188337 0.270145 -0.152958 -0.217771 0.296015 0.189059 -0.354539 -0.117971 -0.388483 0.302779 -0.635976 -0.036875 -0.209616 -0.684531 0.131431 0.747153 0.466520 -0.394877 -0.415647 -0.561640 0.026893 -0.566116 -0.158371 0.226277 -0.066197 0.069711 0.166240 0.138250 0.287503 0.224777 0.083013 0.190624 -0.273048 0.518832 -0.091554 -0.538634 -0.269462 0.183165 -0.453674 0.110940 -0.209941 0.467338 0.265995 -0.234415 0.148841 -0.071307
sent_67 -0.338288 -0.298155 0.676564 0.252164 -0.057940 -0.243924 0.001013 0.532475 0.403048 -0.301410 0.582850 -0.100546 0.152193 -0.279991 -0.450913 0.074268 0.600739 0.285675 -0.564282 -0.148668 0.106503 0.323210 0.354094 0.022428 0.153400 -0.058608 0.452994 -0.793890 -0.375183 -0.402866 -0.195961 0.034506 0.647021 -0.497030 -0.221925 -0.114902 0.799518 -0.098224 0.080429 0.497845 0.396990 0.697394 0.381622 0.002413 -0.237665 0.162676 -0.308428 -0.148427 0.018940 -0.307730
sent_68 0.051052 0.131528 -0.393138 0.020082 0.323187 0.552271 -0.587063 -0.531638 -0.174853 0.492204 0.210203 0.090688 -0.428627 0.119221 0.509870 0.378586 0.261649 -0.608151 0.749350 -0.127519 0.307462 0.009479 -0.392135 0.357812 -0.434463 0.431281 -0.323835 -0.121902 -0.121211 0.264178 0.346325 0.572903 -0.402827 -0.407925 -0.319720 -0.959535 0.242241 0.794760 -0.279640 -0.641601 0.252967 -0.001461 -0.099265 -0.024852 -0.032847 -0.065302 -0.152354 0.748528 0.175145 -0.034074
sent_69 -0.281989 0.250982 -0.423101 -0.052615 0.272707 0.155550 0.301522 0.012131 -0.230338 -0.041304 -0.282038 0.367941 -0.335355 0.236998 -0.291513 -0.191359 -0.374426 0.215775 -0.045003 0.148227 0.137030 0.000486 -0.536411 -0.533390 0.012193 -0.054233 -0.460766 -0.098327 -0.387753 -0.226238 0.409432 -0.086371 0.232318 0.007505 0.025747 0.609427 -0.535313 0.251859 0.441883 0.024478 -0.195343 0.110384 -0.122804 0.536870 -0.752569 0.693152 0.324570 0.262523 -0.038011 0.200571
sent_70 -0.132949 -0.023559 -0.103602 0.368721 0.218110 0.055038 -0.035100 0.089692 -0.246348 -0.427533 0.270280 -0.127976 -0.285247 -0.084819 -0.232176 0.009640 0.378838 0.356812 0.246651 -0.024943 -0.153762 0.164693 -0.258252 0.140272 -0.108054 0.108597 -0.188549 -0.285210 -0.143709 -0.029652 0.005838 0.414304 0.182303 -0.133157 -0.146077 0.057773 -0.161416 0.142111 -0.004565 -0.284432 0.208350 -0.005802 0.030398 -0.020925 0.099954 -0.301454 -0.239223 0.120015 -0.239102 -0.189121
sent_71 -1.149953 -0.084624 0.159240 0.449460 -0.020524 0.077009 0.002813 0.061618 0.040073 0.017009 0.230495 -0.115291 -0.584468 -0.280318 0.342147 0.547791 -0.020153 -0.015612 0.192337 0.087529 0.549157 0.331561 -0.500531 -0.776351 -0.194032 0.036198 -0.341522 -0.183635 -0.362735 0.406144 -0.343862 0.469367 -0.299218 0.434703 -0.420646 -0.426008 -0.313917 0.078811 0.199156 -0.826633 0.338507 0.348707 0.127789 -0.214555 -0.037685 0.366553 -0.205952 0.519819 -0.402145 -0.276271
sent_72 -0.161059 0.637224 -0.317889 0.253333 0.025558 0.255961 -0.895673 -0.445518 0.412681 -0.145543 -0.181262 0.144337 -0.625442 0.072740 -0.188048 -0.175261 -0.043431 -0.178199 0.146750 0.516123 0.127726 -0.381901 0.021560 0.033223 -0.072419 -0.145464 -0.541534 -0.070235 0.559408 -0.101414 -0.099992 0.703687 0.123342 0.177944 -0.074515 -0.570412 0.139880 1.085145 -0.277238 -0.138047 0.616760 -0.186141 -0.601912 0.042060 -0.567601 -0.018711 0.235148 0.412919 0.095019 -0.037774
sent_73 -0.837432 -0.474887 -0.165378 0.350972 -0.385262 -0.735281 0.548877 0.647644 0.822147 -0.288500 0.080162 -0.425931 0.297630 -0.891143 -0.555466 -0.002218 0.329183 0.225849 -0.571137 -0.148324 -0.491213 0.412309 0.321682 0.316970 -0.108260 -0.122832 0.475172 -0.379226 -0.029803 0.008156 -0.506684 -0.477357 0.414581 0.387985 -0.221749 0.298753 0.472194 -0.369654 0.453427 0.336496 0.422025 0.595916 0.282894 0.281467 0.278019 0.599312 -0.196961 -0.242488 -0.002588 -0.348287
sent_74 -0.773846 0.417282 0.408948 -0.253745 -0.036704 0.554700 0.244915 0.072070 -0.044409 0.135448 0.254529 -0.098825 -0.130763 -0.051581 0.106255 0.276575 0.022692 -0.197536 -0.089669 0.113738 -0.037978 0.076341 -0.195259 -0.225910 -0.102081 0.154294 0.015920 -0.335031 -0.135376 0.451882 0.176272 0.351773 -0.045521 0.182025 0.112835 0.112452 0.070777 0.301767 0.295802 -0.297960 0.109796 -0.136276 0.079043 0.272421 -0.090642 0.266972 0.086992 0.258889 -0.655555 -0.031493
sent_75 -0.054217 -0.181977 0.180167 -0.159486 -0.305049 0.196717 0.023227 -0.323748 0.052380 0.172385 0.100059 0.352249 0.360745 -0.161454 -0.266779 0.003590 -0.398492 0.143011 -0.168253 0.098041 0.037722 0.156715 -0.213805 -0.561176 0.116578 -0.144744 0.051604 0.023993 -0.060509 0.239023 -0.008582 -0.271614 -0.294197 0.576735 -0.285232 0.171690 -0.180453 0.077716 0.447256 0.284490 -0.030753 0.053157 0.175780 0.025705 -0.187100 -0.260740 0.306176 -0.263416 -0.042862 -0.093206
sent_76 -0.637472 -0.339282 -0.278233 0.070951 0.096683 0.218175 -0.180629 -0.356016 -0.133555 0.179209 -0.232150 -0.274169 -0.446082 -0.404002 -0.029458 -0.233962 -0.241895 -0.102760 -0.068373 0.320136 -0.284035 -0.243692 -0.517595 -0.367023 -0.089372 -0.045080 -0.511229 0.404230 0.126055 -0.249788 -0.174909 0.249309 0.117651 0.265204 -0.061367 -0.629769 -0.183586 -0.013685 0.317941 -0.299902 0.377693 -0.090594 -0.368749 0.164888 0.023737 0.036542 -0.288365 0.583900 -0.527469 0.057977
sent_77 0.005996 -0.117014 -0.080394 0.005506 0.146899 0.396025 -0.591593 -0.322204 -0.005969 0.078199 0.272228 0.211003 -0.381224 0.468837 -0.234982 -0.486266 -0.127046 -0.510972 0.352444 0.700592 0.198903 0.053267 -0.206789 0.230580 0.300951 0.096703 -0.396672 -0.305413 0.381017 -0.110115 0.429606 0.871990 -0.152412 -0.122003 -0.190203 -0.315259 0.117716 0.560085 -0.433620 0.048845 0.122380 -0.229496 -0.393097 0.156551 -0.173400 0.117786 0.268335 0.276529 -0.081160 -0.183365
sent_78 0.086832 -0.248289 0.056440 0.413373 0.111397 -0.663451 -0.368314 0.242662 -0.103345 -0.352977 -0.212699 0.062385 -0.204686 -0.292516 -0.025720 -0.068275 -0.073129 -0.260254 0.284260 0.402694 0.237142 -0.468874 -0.007749 -0.260877 0.445822 -0.826253 -0.143128 0.224774 0.133719 0.176487 -0.362013 -0.647597 -0.072822 0.386515 -0.181647 0.369626 0.003686 0.192338 0.081035 -0.452685 -0.065035 0.041149 0.342893 -0.015356 0.132884 -0.051750 0.483881 -0.387410 0.334570 0.174199
sent_79 -0.193054 0.054223 0.322116 -0.045848 0.332623 0.401223 0.009578 0.307045 -0.063027 0.364537 -0.217224 -0.095350 0.250868 0.075469 0.225906 0.434478 -0.292609 -0.182557 -0.184709 -0.150016 0.122980 0.248093 -0.489990 -0.262189 -0.062808 0.364352 -0.144837 0.079771 -0.597041 0.020444 0.232132 -0.251515 -0.241767 -0.138588 -0.125917 -0.786975 0.233714 0.081517 0.192673 -0.085499 -0.085651 0.325341 0.040415 -0.346099 -0.270082 0.252529 -0.513657 0.183554 -0.378077 -0.035132
sent_80 0.199216 0.114330 -0.422042 0.086417 0.831941 0.555701 -0.600520 -0.081415 0.076313 0.671775 -0.058609 0.302009 -0.295012 0.580852 0.291204 0.129485 0.401203 -0.923069 0.796932 0.025209 0.284778 -0.070526 -0.326121 0.542480 -0.205375 0.342766 -0.493828 -0.416023 -0.240731 0.473534 0.406432 0.521829 -0.378448 -0.890690 -0.224400 -1.129283 0.428658 0.539945 -0.299957 -0.207331 0.144304 0.196936 -0.180328 -0.553038 -0.494374 -0.006446 -0.349218 0.223744 -0.021353 0.143374
sent_81 0.171620 0.074172 -0.064349 -0.576387 -0.482008 -0.429244 0.135363 0.209018 -0.011933 0.215814 0.408736 0.571293 1.079229 -0.165870 -0.508842 -0.252537 0.257060 -0.136688 -0.500032 -0.492271 -0.125207 0.111359 0.103101 -0.078937 0.069566 -0.613452 0.107899 0.080759 -0.090532 0.005575 -0.004966 -0.681668 -0.136272 -0.276297 0.425484 0.534466 1.184754 -0.170969 0.156810 0.400957 0.001884 -0.122941 0.563732 -0.048688 0.029614 0.161264 0.335358 -0.399898 -0.146517 0.371336
sent_82 -0.840610 -1.022843 0.292587 0.774657 -0.427047 -0.754442 0.046996 1.088544 0.157873 -0.868023 0.831074 -0.305398 -0.119221 -0.432814 -0.414799 0.499873 0.615896 -0.359843 0.045211 0.449959 -0.078106 0.547166 0.551609 -0.033155 0.061863 -0.209974 0.252666 -0.562613 -1.177791 0.014208 -0.550473 -0.456429 0.946287 -0.075907 -0.091565 -0.132719 0.950392 -0.493391 -0.210286 -0.034296 0.032777 0.657270 -0.619208 0.986686 -0.144515 0.366050 -0.263123 0.008983 -0.383513 -0.581111
sent_83 0.333036 0.042059 0.494668 0.063749 -0.129952 -0.366065 0.460176 -0.213987 -0.247016 -0.063041 -0.009109 0.056545 -0.034985 0.109885 -0.255131 0.281595 -0.410481 0.054151 -0.135479 -0.330691 0.133286 0.243374 0.038925 -0.237624 0.133776 0.113084 0.726364 -0.408451 -0.304941 -0.401035 0.126459 0.303965 0.211523 -0.353203 -0.215709 0.154559 -0.407047 -0.162698 -0.284695 0.368082 -0.013064 0.388317 0.251245 -0.068135 -0.363084 -0.294442 -0.124423 0.001218 0.097037 -0.052979
sent_84 -0.217309 0.228709 -0.087071 0.044452 -0.476854 -0.425485 0.501192 0.082719 -0.046799 0.018371 -0.091200 0.192782 -0.187978 0.158562 0.133611 -0.128977 -0.123000 -0.241313 -0.322466 0.166499 0.748077 0.048794 0.290030 0.000207 0.093994 -0.171091 0.316452 0.097401 0.492914 -0.223790 -0.432249 -0.025517 -0.120800 0.005026 0.254979 0.286109 -0.395020 -0.328188 -0.451849 -0.413136 0.041852 0.005723 0.256073 0.210613 0.123630 0.702873 0.561774 0.142889 -0.322793 0.209754
sent_85 -0.036709 0.107496 -0.186625 0.347925 0.097206 0.299783 0.258744 -0.235702 -0.165493 -0.250821 -0.213220 -0.209325 -0.484564 -0.345695 -0.343839 0.193840 -0.116946 0.103718 0.075938 -0.008455 -0.180572 -0.316350 -0.254343 -0.267192 0.230532 -0.021553 0.018682 -0.187720 0.398017 -0.046998 -0.219529 0.252917 -0.051875 0.399596 -0.230283 0.149419 -0.393954 0.294434 0.161255 -0.054427 0.108184 -0.142381 -0.107048 0.154339 -0.198157 -0.438771 0.038391 0.167284 0.029310 -0.207563
sent_86 0.332390 0.144515 0.342196 0.219517 0.037722 -0.520118 -0.941790 -0.430193 -0.348214 -0.188267 -0.861691 -0.272790 -0.254394 -0.358337 -0.091414 0.035002 -0.515673 0.022567 0.130811 0.549552 -0.080885 -0.815533 0.246036 -0.381269 0.860125 -0.826896 0.100489 0.445354 1.048521 -0.108254 -0.344504 -0.727370 -0.641364 0.850422 -0.139051 0.676026 -0.553960 0.246918 -0.287037 0.169316 -0.009948 -1.354585 0.415322 0.303114 0.653430 -0.212966 1.193975 -0.286827 -0.117936 0.335306
sent_87 -0.260989 0.200168 -0.375052 0.817615 0.029627 0.027925 -0.321441 -0.216902 0.349957 0.279380 -0.587770 -0.475898 -0.537440 -0.079255 -0.300265 0.097004 0.045587 -0.153450 -0.114282 0.168783 0.101432 -0.419880 -0.226887 0.160641 0.113168 -0.381863 -0.526016 0.145541 1.083473 -0.601577 -0.122090 0.482057 0.126501 -0.094329 0.392084 -0.666517 0.017394 0.383397 0.187909 -0.416897 0.516270 -0.217552 -0.418214 -0.234055 0.246914 -0.388061 -0.313558 0.218568 -0.161867 -0.238275
sent_88 -0.315161 -0.968356 -0.034599 0.211762 -0.248642 -0.535055 0.105680 -0.224514 0.341700 -0.009593 0.105056 -0.292738 0.356753 -0.428178 -0.768140 0.291189 -0.049559 -0.513589 0.106732 0.094493 0.255587 0.216298 -0.480445 -0.207632 -0.107016 -0.718038 0.377592 0.464341 0.192042 0.164089 -0.439857 -0.240805 -0.151114 0.723420 -0.937551 0.083329 -0.129229 -0.059983 -0.781058 -0.197178 0.071153 0.110389 -0.066564 0.101230 0.654110 0.214985 -0.276757 -0.103369 0.286310 -0.066728
sent_89 -0.247902 -0.036313 -0.075380 -0.169700 -0.001915 -0.235008 0.061511 0.125957 -0.496388 -0.016600 -0.175835 0.279855 -0.063181 0.170923 0.132757 -0.064076 -0.198660 0.238579 -0.062856 0.068923 0.138086 -0.028138 -0.330176 -0.377543 -0.022998 -0.127312 -0.477795 0.341656 -0.300314 0.086652 0.266836 -0.463323 0.016541 0.048904 0.193268 0.288942 -0.237977 -0.148572 0.106460 -0.277213 -0.319468 -0.162071 0.029312 0.204640 -0.076398 0.307044 0.225870 -0.026345 -0.190507 0.212805
sent_90 -0.519105 0.214150 -0.105227 0.074883 0.110229 0.239057 -0.020802 0.099668 0.320309 -0.105284 -0.203838 -0.592811 -0.270814 -0.167312 0.043884 0.205041 0.168660 0.206664 -0.440377 -0.419779 0.440367 -0.511696 -0.672881 -0.436678 0.277688 -0.309084 -0.279529 0.339537 0.035496 -0.419634 -0.332512 0.187701 -0.091276 0.408561 0.079660 -0.291959 0.123906 -0.015944 0.021102 -0.396727 0.053210 0.121355 -0.087914 0.097056 -0.170538 0.000081 -0.222506 0.401656 -0.346975 -0.045630
sent_91 0.050340 0.027645 -0.271614 0.346544 -0.281946 0.380871 -0.016310 -0.163450 -0.029723 -0.351206 0.046455 -0.158800 -0.155143 -0.237808 -0.224498 0.003513 0.177912 0.388797 -0.105212 -0.185509 -0.236473 0.066364 -0.595889 0.096352 0.012069 -0.068095 0.001115 -0.170139 0.136480 -0.175535 -0.263437 0.106841 -0.179879 0.237308 0.157609 0.460419 -0.225768 0.091548 0.192832 -0.404151 0.009647 -0.522594 -0.052778 0.316753 0.195121 -0.316210 0.166656 -0.057694 -0.216362 0.079517
sent_92 -0.753256 0.178491 -0.084390 0.256345 0.165914 -0.071266 -0.061365 -0.119877 0.312642 0.020735 -0.040487 -0.296153 -0.381781 0.156177 0.054951 0.093380 0.092713 0.141589 -0.005004 0.058269 0.778380 -0.102464 -0.618061 -0.798684 0.373703 -0.314398 -0.674771 0.136602 -0.096830 0.158567 -0.327259 0.560647 -0.337485 0.254176 0.148283 -0.324125 -0.035658 -0.207014 0.059101 -0.560159 0.201015 0.196351 0.021079 -0.198641 -0.133941 0.656137 -0.163526 0.336026 -0.152361 -0.223346
sent_93 0.145647 0.078407 -0.449019 -0.222464 0.514120 0.774493 -0.590160 -0.581107 0.015436 0.438848 -0.064099 -0.112494 -0.427101 0.027081 -0.229114 0.113844 0.207741 -0.864732 0.347705 0.107365 0.274240 -0.474168 -0.516874 0.064985 -0.253272 -0.221194 -0.335124 -0.499444 -0.274813 0.134185 0.313847 0.291332 -0.206193 -0.549197 -0.200705 -1.020414 0.206704 0.566547 -0.040125 -0.206513 0.211901 0.404890 -0.167922 0.288586 -0.413045 0.252585 -0.342465 0.497280 0.029664 0.253183
sent_94 0.149819 -0.099678 0.146096 0.055629 0.108291 0.029999 0.103871 -0.608197 -0.220280 -0.197494 -0.321474 -0.016890 0.317989 -0.364837 -0.875441 0.094897 -0.071216 -0.011536 0.372306 -0.187446 0.017713 -0.134778 -0.039264 -0.454792 0.640005 -0.217000 0.086391 -0.012135 0.493468 -0.058472 -0.388874 0.068171 -0.144540 -0.035644 -0.390285 0.708981 -0.334915 0.232957 -0.287058 0.162152 -0.035404 -0.421095 0.169480 0.075561 0.049716 -0.084857 0.081109 -0.112453 0.116160 0.055716
sent_95 0.382631 0.594752 0.452899 0.027591 0.211530 -0.444301 -0.859223 0.002735 -0.601103 -0.737143 -0.300935 0.078337 -0.181524 -0.396468 -0.284619 0.084425 -0.133275 0.453078 0.240514 -0.146369 0.315455 -0.421599 -0.361947 -0.123481 0.709685 -0.775140 -0.519437 0.251681 0.137279 -0.152635 -0.540216 -0.343750 0.154625 -0.111543 0.180389 0.452408 0.340792 0.031068 -0.157145 -0.389086 0.054845 -0.695621 0.322211 -0.123170 0.237783 -0.205711 0.549038 -0.213548 -0.110033 0.309701
sent_96 -0.710539 -0.074827 0.118548 0.465533 -0.784821 -0.212250 -0.063075 0.335384 0.482047 -0.419751 0.386285 0.203660 -0.073042 0.174535 -0.711706 0.219705 0.377402 0.361510 -0.134700 -0.057790 -0.228317 0.464701 -0.341844 -0.323529 -0.438241 0.100391 -0.330987 -0.452560 -0.474623 -0.380530 -0.069384 0.372486 0.489366 -0.177871 0.056618 0.901207 0.290820 0.305742 -0.080649 0.131988 0.218046 -0.683042 -0.308695 0.095803 -0.303235 -0.412237 0.258611 0.040973 -0.309993 0.050913
sent_97 0.127921 0.357983 -0.224529 0.313915 0.498842 -1.111694 -0.538586 -0.032593 -0.859041 -0.641378 -0.504592 0.540500 -0.343289 -0.258128 0.068684 0.004622 -0.283550 0.722985 0.790319 -0.669105 -0.134837 -0.219317 -0.385572 -0.168315 0.257465 -0.564695 -0.874157 0.333620 -0.032180 -0.049787 -0.012044 -0.173184 0.101968 -0.151628 -0.093919 0.564181 -0.431685 -0.127026 0.362403 -0.422710 0.224243 0.035018 0.518148 -0.208254 -0.361257 -0.895502 0.266839 0.040215 0.375633 0.106608
sent_98 0.308854 -0.391769 -0.853705 0.167398 0.463835 0.814639 -0.283903 -1.156625 -0.224684 0.862417 0.031687 -0.355324 -0.555880 -0.129999 -0.312077 -0.196006 0.323435 -0.732523 0.365137 0.204614 -0.001455 -0.294412 0.269873 0.306851 -0.111694 0.538559 -0.335869 0.100039 0.711605 0.148290 -0.155342 0.301106 0.226483 -0.586000 -0.207904 -1.116134 0.008605 0.473020 -0.003783 0.052836 0.309321 0.111814 -0.335784 -0.135673 0.426999 -0.109348 -0.364358 0.451664 0.178733 -0.281454
sent_99 -0.144367 0.026513 -0.028241 -0.064540 0.004238 0.205822 0.197492 0.006402 0.123675 -0.169667 0.057513 -0.135758 -0.275354 -0.167028 -0.347813 0.085477 0.034183 0.233080 -0.142077 0.191693 0.198438 -0.462522 -0.138755 -0.268001 0.385409 -0.214493 -0.117129 -0.426620 -0.056017 -0.003656 -0.335968 0.050945 0.217859 0.052337 0.115255 0.177351 0.230821 -0.024577 0.170285 -0.018160 -0.178086 -0.020489 -0.067286 0.369854 -0.218996 -0.060454 0.132885 -0.084188 -0.034285 -0.186372
sent_100 0.113636 0.147339 -0.322430 -0.122225 -0.190411 -0.252528 -0.225773 -0.140233 -0.257116 -0.385414 0.426228 0.733144 0.292688 -0.029069 -0.132143 -0.059521 0.261505 1.033952 0.127029 -0.619999 0.187772 0.522081 -0.140918 -0.318944 -0.513510 0.058446 -0.565685 0.439455 -0.626024 0.253891 -0.247777 -0.466273 0.317042 0.152722 -0.354241 0.907531 -0.381993 0.229492 0.030996 0.063335 -0.067775 -0.334773 0.384717 -0.323668 0.201209 -0.181963 0.202881 -0.170272 0.168656 0.521244
sent_101 0.181425 0.276731 -0.006891 -0.002280 0.156105 0.171720 -0.282668 -0.073149 0.132652 -0.133398 0.041149 0.068521 -0.212982 -0.258279 0.071946 0.217994 0.044376 0.075877 0.224228 -0.060273 0.143518 -0.378362 0.071027 0.065661 0.209502 -0.107088 -0.131902 -0.231883 -0.000846 0.239097 -0.279553 -0.057279 0.073022 0.019829 -0.090566 -0.301033 0.462109 0.388237 -0.068934 -0.049587 0.167300 -0.058858 -0.062186 0.037754 -0.333322 -0.241208 0.123629 -0.019231 0.172407 -0.036356
sent_102 -0.174778 0.059492 0.084451 0.151164 -0.072079 0.306259 0.168333 -0.089260 -0.060849 -0.286336 0.011236 -0.393758 -0.226238 -0.405724 0.009650 0.279504 -0.017012 -0.165652 -0.009758 0.109536 -0.128383 -0.142341 0.224248 -0.245644 0.136542 0.069781 0.312459 -0.112809 0.217587 0.165383 -0.413843 -0.052177 -0.069473 0.434897 -0.036711 0.225025 -0.158474 0.228802 0.163111 0.135451 0.212080 -0.007257 0.066764 0.065223 -0.138819 -0.171824 -0.097039 0.221112 0.109228 0.037072
sent_103 0.293242 0.182464 0.179686 -0.419954 -0.116975 -0.526982 -0.574833 0.082362 -0.377040 -0.335056 -0.290332 0.539732 0.490662 0.158013 -0.089920 0.148182 -0.347031 0.320092 0.078844 0.015146 -0.041505 0.082843 -0.123396 -0.240902 -0.031657 -0.119171 -0.046859 0.364841 -0.363241 -0.345160 0.005622 0.148210 -0.019619 -0.214080 -0.397538 0.301766 -0.104194 -0.125125 -0.603054 0.117960 -0.028580 -0.298646 -0.210046 -0.010514 -0.037395 -0.219510 -0.087695 0.042355 -0.022504 0.255481
sent_104 0.226506 0.048264 0.055342 -0.113516 -0.030801 0.186804 -0.188845 -0.243019 0.138179 -0.048604 0.243681 0.049238 -0.126804 0.090895 -0.157680 -0.016491 -0.070693 0.175536 -0.061083 0.126871 -0.286437 0.031585 -0.185524 -0.266017 -0.191726 -0.093340 0.067057 -0.260436 -0.113584 0.035643 0.227621 0.003856 0.048708 -0.012563 -0.041672 0.316942 0.093804 0.339239 0.324332 0.207823 -0.043300 -0.203122 0.058777 0.007357 0.054303 -0.146016 0.183448 -0.109580 0.214614 0.076139
sent_105 0.581586 0.385707 0.070304 -0.264525 -0.181228 0.060784 -0.056885 -0.143570 0.149504 0.095012 -0.285357 0.229242 0.772718 -0.133896 -0.592797 -0.068117 -0.637230 -0.113348 -0.194917 -0.383318 -0.027227 0.733388 -0.415812 -0.031880 0.286800 -0.764393 0.204777 0.586200 -0.313614 -0.157788 0.045436 -0.352462 -0.134376 0.355593 -0.033569 0.026369 0.212697 -0.460377 -0.002318 -0.016724 -0.153723 -0.340121 -0.077603 -0.166259 0.003653 0.697604 -0.095576 -0.423332 -0.649000 0.314972
sent_106 -0.187286 0.316592 0.292757 -0.403949 0.345179 0.039348 0.081778 0.002318 0.047987 0.121041 -0.031483 0.387372 -0.131320 0.164744 0.093957 -0.165182 -0.222947 0.202680 -0.212712 -0.092227 0.123105 -0.325830 -0.302691 -0.257775 0.063221 -0.017013 -0.250794 -0.189679 -0.087861 0.364647 0.362092 0.062282 -0.107744 0.166814 -0.038913 0.029490 0.116599 0.243135 0.176431 0.027229 -0.189726 -0.065984 0.134975 0.146955 -0.433506 0.173899 0.414540 -0.166975 -0.026433 0.026657
sent_107 0.086565 0.436405 -0.352053 0.621558 -0.110289 0.100568 -0.392803 -0.011770 0.374166 -0.533056 -0.183549 -0.271037 -0.432726 -0.095382 -0.335382 -0.510985 -0.173898 -0.760860 0.290900 0.309324 -0.047502 -0.043426 -0.045211 0.131819 0.297164 -0.684766 0.029651 0.457235 0.532569 -0.233392 -0.266752 0.786435 0.074788 0.474004 0.099457 0.331936 -0.455117 0.347307 0.149799 -0.196960 0.214184 -0.237644 -0.353349 -0.362240 -0.539398 0.034542 0.274012 0.342686 0.207205 0.291507
sent_108 -0.357315 0.128294 0.052092 0.122087 0.250361 -0.204490 0.155864 -0.063763 -0.072484 -0.111302 -0.395132 -0.113495 -0.248152 -0.243390 -0.068330 -0.202551 -0.388877 0.254142 0.180349 0.184195 0.032676 -0.175588 0.183272 -0.176381 0.197736 -0.184971 -0.272457 0.292896 0.239372 -0.079727 -0.091581 0.286602 0.176983 0.450717 -0.238404 -0.096482 -0.598420 -0.097524 0.175487 -0.167580 0.150479 0.352950 -0.026233 -0.041494 -0.111565 -0.156131 0.022252 0.346590 0.053570 -0.348476
sent_109 -0.421285 -0.075593 0.128098 -0.111299 -0.369844 -0.310861 0.635897 0.059863 0.520436 0.329551 -0.135035 -0.137055 0.100006 -0.240793 -0.485990 0.263633 0.229895 -0.041124 -0.691497 -0.189149 0.125568 -0.233479 0.434283 0.083620 -0.149739 -0.000126 0.709013 -0.295768 0.408613 -0.033552 -0.254096 -0.055670 0.423076 -0.016468 -0.196892 0.104786 0.202610 0.086659 -0.162430 0.314152 0.289557 0.454448 0.097168 0.156121 0.163093 -0.002467 -0.092227 -0.204694 0.007208 -0.293991
sent_110 -0.177031 -0.128303 0.375927 0.730661 -0.564851 0.164036 -0.015081 0.739640 0.166057 -0.604926 0.310972 0.060226 0.351806 -0.259408 -0.444569 0.580572 0.254926 0.060453 -0.231232 -0.275586 0.020416 0.674055 -0.311181 0.068074 0.003523 -0.160348 0.181935 -0.404975 -0.359055 -0.413830 -0.536145 -0.099018 0.058737 -0.137728 0.397651 0.529230 0.425922 -0.218103 0.113269 -0.199857 0.065735 -0.327655 -0.177498 0.138399 -0.234885 -0.156350 -0.115715 -0.153421 -0.372785 0.279721
sent_111 -0.570255 0.068248 0.094842 -0.192760 -0.096599 0.286065 0.004067 -0.232826 0.056570 -0.128884 0.052645 -0.061978 -0.215700 -0.270791 -0.038785 0.208741 -0.185456 0.350081 -0.156815 0.199875 0.403262 -0.120165 -0.270051 -0.583632 0.217827 0.217279 -0.381922 -0.179478 0.118805 0.211015 -0.444419 0.157210 -0.155604 0.329897 0.048561 0.307113 0.010776 0.169374 0.253953 -0.006377 0.005856 -0.063792 0.145498 0.077287 -0.091937 0.228336 -0.003010 0.102751 0.026500 -0.106756
sent_112 0.103236 0.076227 -0.170442 -0.179983 0.028005 0.376887 -0.091499 -0.417762 -0.018030 -0.194457 0.002098 0.239512 -0.025026 -0.354802 -0.000835 -0.234251 -0.097090 0.261241 -0.083291 0.110512 -0.222157 -0.312222 -0.115200 -0.370086 0.052697 0.001241 0.039852 -0.129998 -0.038200 0.260670 -0.206855 -0.321609 -0.094378 0.564045 -0.535836 -0.336702 -0.046074 0.603108 0.177705 0.038246 0.185488 0.454743 0.162155 0.268797 -0.407423 -0.190360 0.089062 0.057423 0.114682 -0.239521
sent_113 -0.114185 0.088732 0.080831 -0.421961 -0.103609 -0.001581 0.047908 -0.158470 0.090801 -0.151288 0.186218 0.184939 0.169728 -0.016927 -0.351002 -0.244577 -0.110389 0.352981 -0.068966 -0.023239 -0.181562 0.030921 -0.215493 -0.574668 -0.082174 -0.195651 -0.099398 0.124632 -0.611134 0.114462 0.124712 -0.099979 0.464161 0.122131 -0.269000 0.377742 -0.010139 0.246196 0.308109 0.084967 -0.172993 0.230995 -0.024868 0.143679 -0.215639 0.066922 0.083093 -0.118630 -0.005640 -0.086145
sent_114 0.097478 0.162682 0.195114 -0.466493 0.086531 0.197444 0.493299 -0.243624 -0.469760 0.058698 0.599854 -0.144132 -0.387848 -0.155652 0.011359 -0.099253 -0.119311 -0.089699 -0.044793 0.145590 -0.425710 -0.215887 0.466135 -0.149038 -0.314751 -0.117100 0.393986 -0.239075 0.178670 0.407319 0.178604 0.118218 0.182340 0.080989 0.188018 0.412867 -0.133904 -0.142901 0.335867 0.093331 -0.142811 -0.024570 0.346317 0.074715 0.083015 -0.285205 0.232611 0.089841 0.016357 0.133218
sent_115 -0.048023 0.355479 -0.357804 -0.447986 0.027259 -0.187622 0.174846 -0.502289 0.020927 0.077833 -0.130525 0.378940 0.332209 0.199258 -0.665528 -0.281563 0.125990 0.268242 -0.010227 -0.237135 -0.192950 -0.037570 -0.299020 -0.142147 -0.190863 0.051804 -0.204913 -0.014565 0.262099 -0.064447 0.243595 0.135415 -0.029066 -0.088414 -0.385685 0.522191 0.050173 0.592103 -0.325276 0.276482 0.284365 -0.188876 0.099724 0.142446 0.119385 0.056980 0.293807 0.011357 -0.135548 0.048422
sent_116 -0.183478 0.265765 0.041851 -0.073035 -0.087260 0.507462 0.247822 0.013364 -0.093625 -0.091217 0.061656 -0.160896 -0.006106 -0.141764 -0.234701 0.295658 -0.048764 0.134189 -0.410753 -0.018775 0.198622 0.002527 -0.315501 -0.000860 -0.043975 -0.099863 0.035244 -0.196135 -0.091542 -0.075075 -0.119694 0.019506 0.060514 0.183591 0.230755 0.180104 -0.026812 0.199129 0.281893 -0.014796 -0.067906 -0.019108 -0.026263 0.279078 -0.040380 0.045114 -0.196619 -0.019144 -0.278311 0.050171
sent_117 -0.344759 -0.443857 0.193446 0.334230 -0.333087 -0.082838 0.384153 -0.100516 0.158583 -0.156015 0.099133 -0.216609 -0.047667 -0.456735 -0.292048 0.250369 -0.391067 -0.271838 -0.198442 0.066927 0.087979 0.381618 -0.677369 0.082787 -0.355780 -0.450464 0.425119 0.023627 0.041778 -0.191969 -0.040687 -0.068883 -0.034102 0.885588 -0.248155 0.059903 -0.278781 0.036497 0.061961 -0.165520 0.092992 0.042034 0.004525 0.198468 -0.017426 -0.088961 -0.087465 -0.012898 -0.074942 0.051185
sent_118 0.462648 -0.018110 0.165017 0.265772 0.183544 -0.173277 -0.269874 0.090236 -0.304715 -0.385106 -0.171747 0.027876 -0.010195 -0.023131 -0.273672 -0.094115 0.090343 -0.054302 0.358631 0.025615 0.107142 -0.213714 0.171402 0.053661 0.344344 -0.348036 -0.063623 -0.054934 0.072617 -0.085946 -0.257295 -0.198905 0.041141 -0.185206 -0.059048 0.193248 -0.119889 -0.111428 -0.211678 -0.071708 0.003560 -0.161245 0.131680 -0.029768 -0.245146 -0.188458 0.264923 -0.042327 0.391943 0.181796
sent_119 0.016866 0.009621 0.153007 -0.247049 -0.040416 0.020660 -0.181780 0.114360 0.211698 -0.004053 -0.175410 0.041663 0.241539 -0.092721 -0.197234 0.203499 -0.292065 0.176593 0.034638 0.261292 -0.236075 -0.169502 0.065907 -0.208586 0.078545 -0.187636 0.023986 -0.143055 -0.052999 0.033677 0.040764 -0.094069 0.119821 0.137262 -0.147326 0.197500 -0.008571 0.027397 0.265606 0.302299 0.005149 0.023116 -0.104738 0.256633 -0.024086 0.025849 0.049170 -0.112371 0.351384 -0.174422
sent_120 -0.217735 0.092579 0.149705 -0.175527 0.160338 -0.222248 0.246833 -0.291307 -0.197242 -0.258466 -0.060596 -0.114171 0.082361 -0.068178 -0.400884 -0.355807 0.129593 0.249094 -0.052540 -0.060231 0.074017 -0.347402 -0.036994 -0.468324 0.193416 -0.178368 -0.055397 0.229883 -0.240276 -0.142370 -0.105923 0.503931 0.128716 0.161235 -0.310010 0.081710 -0.677328 -0.211097 -0.119638 -0.170208 -0.111374 0.311870 -0.002830 0.005731 0.018378 -0.222570 0.076944 0.044842 -0.389525 -0.180525
sent_121 -0.167902 -0.048504 -0.590909 -0.257879 -0.169427 0.220668 0.329895 -0.112430 0.056703 -0.100980 0.064933 -0.161722 -0.230066 -0.003960 -0.224838 -0.164975 0.005239 0.112580 -0.300328 0.191104 0.151865 -0.297855 -0.121484 -0.184834 0.264712 0.043389 -0.128186 0.092854 0.036668 -0.092425 -0.350232 0.006901 0.024310 0.258090 0.072888 0.175699 0.032078 -0.111583 -0.343589 0.174163 -0.178885 -0.039469 -0.342658 0.533430 -0.075768 0.117516 0.043163 0.199653 -0.301348 -0.109886
sent_122 -0.175234 0.585770 -0.136885 -0.158176 -0.092614 -0.548699 -0.648186 0.088166 0.054845 -0.386023 0.253457 0.546921 0.541591 0.182657 -0.230867 -0.214732 0.145604 0.986010 0.497822 -0.036558 -0.154074 0.495387 -0.369559 0.034554 -0.389536 -0.114115 -1.148794 0.255421 -0.628920 -0.214488 0.127253 0.585249 0.365335 -0.300077 -0.221404 -0.028223 -0.085902 -0.047503 0.114983 -0.249685 0.354876 0.061257 0.033551 -0.497127 0.315018 -0.384314 -0.028250 0.068726 -0.036124 -0.460586
sent_123 0.076753 0.176350 -0.099949 0.036231 -0.052250 0.163843 -0.287095 -0.054752 -0.220247 -0.302801 -0.096327 -0.042902 -0.032817 -0.355648 0.063320 -0.041625 0.131092 0.441212 -0.089587 0.191068 -0.382774 0.022961 -0.154096 0.132124 0.212067 0.179345 -0.048426 -0.194066 -0.160366 0.152696 -0.325520 -0.417155 0.019291 0.235306 -0.056626 -0.052696 0.378674 0.311644 0.197646 -0.175943 0.078909 -0.158544 0.041973 0.210520 0.136361 -0.053942 0.207162 -0.253011 -0.164658 -0.142473
sent_124 -0.324576 0.343467 -0.299622 0.236780 -0.001661 0.238896 -0.343428 -0.245646 0.389454 -0.185458 -0.280017 -0.557080 -0.568910 -0.060671 -0.210508 -0.032116 -0.000075 -0.163415 0.174012 0.101791 -0.084320 -0.504811 -0.245016 -0.135981 0.248165 -0.120818 -0.294439 0.000103 0.492136 -0.296390 -0.143118 0.752519 -0.069884 0.237259 0.100653 0.060758 -0.092563 0.198796 -0.089713 -0.152555 0.177254 -0.398899 -0.332364 0.131507 -0.163915 -0.106547 0.119897 0.492158 0.030838 -0.104372
sent_125 -0.316284 0.193489 0.522258 -0.480216 -0.278665 0.053538 0.039217 -0.193649 -0.096332 0.100018 -0.178435 0.114153 0.007655 -0.070369 -0.338929 0.164217 -0.060928 0.342697 -0.234745 -0.011395 0.346395 -0.413645 -0.144948 -0.610247 0.009116 0.306985 -0.151793 -0.213951 -0.675979 0.140958 0.009683 -0.060766 0.454815 -0.140158 -0.194372 0.144336 -0.094517 0.326611 0.017329 0.042683 -0.092548 0.053412 0.055593 0.096797 -0.052268 -0.076138 0.262938 -0.146056 -0.157192 -0.115618
sent_126 0.005229 0.116117 0.072190 -0.475350 -0.133615 0.442901 0.129942 -0.021416 0.273203 -0.009738 -0.020443 0.060855 0.192947 -0.321476 -0.302732 0.163275 -0.508880 0.370212 -0.199403 0.087895 -0.208755 -0.352795 -0.176847 -0.001709 0.280825 -0.116250 -0.133723 -0.084770 0.315102 -0.096466 -0.018120 -0.011974 0.273261 0.175649 0.203861 0.307682 0.394685 0.224654 0.438494 0.387199 -0.118560 -0.395128 -0.297455 0.648614 -0.441389 -0.001995 0.052693 -0.014256 0.331568 -0.131507
sent_127 -0.209229 0.425766 -0.228708 0.339403 0.106368 0.043096 0.191196 0.061819 0.111846 -0.143941 -0.658152 -0.167798 -0.232089 0.147135 0.029665 -0.223000 0.230768 0.527044 -0.350389 -0.104976 0.180633 -0.608188 -0.615983 -0.474594 0.318886 -0.123431 -0.405016 0.097402 -0.076925 -0.229232 -0.050518 -0.327179 -0.252513 0.356717 0.275350 0.000699 -0.202800 0.209374 0.156965 -0.406779 -0.078550 -0.272590 0.065994 0.183835 -0.135649 0.207745 0.389049 0.026538 -0.328797 0.069931
sent_128 -0.143228 0.194824 0.111880 -0.053828 -0.288392 0.316400 0.146991 -0.497859 -0.332850 -0.216754 0.043108 -0.226460 0.010632 -0.321477 -0.071857 0.057793 -0.189249 0.336724 0.063304 0.111553 -0.508593 -0.064568 -0.427484 -0.153131 -0.090843 0.025781 0.084131 -0.309768 0.242161 -0.064494 0.136821 0.362338 -0.170648 0.276965 0.018860 0.154726 -0.635195 0.148151 0.467394 -0.197118 0.230657 -0.313975 0.248523 0.391412 -0.013266 -0.313275 -0.031599 0.338056 -0.124016 -0.192002
sent_129 -0.738519 -0.133768 -0.377038 0.004139 0.143924 0.317620 0.471764 0.547263 0.318911 -0.028393 -0.491205 -0.510026 -0.131551 0.113314 -0.319223 0.380605 0.158197 0.158197 -0.042536 0.354851 0.326375 -0.500333 -0.532906 -0.368193 0.424378 0.167216 -0.686200 0.601236 0.052165 0.098478 -0.609713 0.212006 0.069496 0.482280 -0.283300 -0.033823 -0.032372 -0.019119 -0.653330 -0.418721 -0.350125 -0.332850 -0.808055 0.184675 0.226849 0.159139 -0.231176 0.469786 -0.289669 -0.500474
sent_130 0.046086 0.425969 0.290640 0.091481 -0.120642 -0.232835 -0.176913 0.189073 0.515439 0.023675 0.003174 0.151150 0.392005 -0.045251 0.126055 -0.169289 -0.009037 0.531359 -0.477951 -0.108215 -0.102100 0.239938 0.445755 0.119191 -0.061521 -0.156111 0.114063 0.034893 -0.109326 0.048335 -0.118359 -0.127609 0.120368 0.289055 -0.063846 -0.238779 0.115350 -0.107290 0.392577 0.143009 0.158452 -0.001386 -0.024257 -0.363016 0.196927 0.140603 0.284607 -0.517512 -0.159435 -0.089367
sent_131 -0.425710 0.539287 -0.028130 -0.017334 -0.336710 0.260651 0.073679 -0.582202 -0.017524 0.282105 -0.348992 -0.498805 -0.689620 -0.628891 0.119764 0.210290 -0.516981 0.003561 -0.158396 0.158890 0.259721 -0.367653 -0.543925 -0.115368 -0.230693 -0.170091 -0.090367 0.264673 0.410457 -0.154381 -0.121373 0.206956 0.180282 0.600367 0.175936 -0.469434 -0.479308 0.064724 0.635634 -1.009402 0.051264 0.102625 0.026211 0.197894 0.428291 0.193971 0.237868 0.371852 -0.214867 -0.218502
sent_132 -0.289008 -0.100401 0.053753 -0.089509 0.238655 0.212853 0.205755 0.081095 -0.456690 -0.255090 -0.255935 -0.151912 -0.065861 -0.090583 -0.155840 0.330738 0.068657 -0.042505 0.344749 0.228265 -0.090578 -0.491414 -0.159102 -0.610251 0.274886 0.050325 -0.137524 0.003912 -0.380313 0.458497 -0.137099 -0.088385 0.022974 0.226960 -0.356687 0.296687 -0.439877 0.159927 -0.044728 -0.326656 -0.248205 -0.118178 -0.334787 0.371596 -0.170220 -0.195614 -0.000327 -0.001492 -0.165876 -0.144087
sent_133 0.054771 -0.378161 0.047849 0.212186 -0.106664 -0.922708 0.436154 -0.344099 0.491386 -0.240292 0.017594 0.162875 1.068635 0.051968 -0.927427 -0.379096 0.348353 -0.569491 -0.107628 -0.440196 -0.217555 0.337616 0.001048 -0.383059 0.465027 -0.462568 0.476696 0.283380 0.112815 -0.395322 -0.371227 -0.044640 0.048081 -0.239592 -0.656597 0.146266 0.232599 0.128533 -1.064543 0.189443 0.033854 0.193152 0.006435 -0.001456 -0.031725 0.049751 -0.208551 -0.376971 -0.507521 0.145159
sent_134 -0.033503 0.292104 -0.079226 -0.163312 -0.013986 0.427275 0.062527 -0.024987 0.027421 -0.120404 0.110324 0.005971 -0.231254 -0.099839 -0.226639 0.054659 -0.356021 0.008287 0.053174 0.301093 -0.271133 0.075202 -0.227490 -0.109939 -0.105257 -0.339517 0.103836 -0.101799 0.038103 0.019338 0.163268 0.212194 0.041108 0.353343 -0.130639 0.252126 -0.394111 0.116628 0.225821 -0.100986 -0.036693 -0.159961 -0.221286 0.415650 -0.161731 0.266286 0.145663 0.094115 -0.309097 0.024261
sent_135 -0.032779 0.215765 -0.114583 0.318996 -0.128866 -0.043768 0.290924 -0.292037 -0.234252 0.115594 -0.330460 0.176900 -0.128973 0.142706 0.058644 -0.101701 -0.255007 0.114274 -0.089658 0.094416 0.510420 0.234814 -0.362749 -0.267842 0.306214 0.087416 -0.061814 0.055705 -0.040701 -0.035343 -0.233166 0.051547 -0.323188 0.329375 -0.105059 0.004219 -0.590394 -0.038807 -0.065546 -0.343443 -0.069783 0.009481 0.246267 -0.234321 -0.103957 0.058431 0.383620 -0.023778 -0.225248 -0.094241
sent_136 -0.104189 -0.252914 -0.083203 -0.048193 0.039675 -0.177217 -0.225653 -0.165934 -0.221577 0.062937 -0.176046 0.335438 0.081034 -0.371467 -0.344826 0.122241 -0.098768 0.059881 0.223701 -0.310060 0.257690 -0.225440 -0.129678 -0.530912 0.528660 -0.158668 -0.388710 -0.017765 -0.055162 0.118725 -0.129382 -0.269381 -0.165464 -0.218922 -0.092770 0.270681 0.128998 -0.225738 -0.044739 0.205608 0.008601 -0.220315 0.112541 0.334181 -0.379634 0.213804 0.162620 0.014662 0.058180 0.158937
sent_137 0.177226 0.266973 -0.086470 -0.269734 -0.206982 0.362842 0.538666 0.517247 0.055156 -0.060658 0.004464 -0.205301 -0.048641 -0.018038 -0.022925 0.241867 -0.378593 -0.348773 -0.050730 -0.098003 -0.073021 -0.083104 -0.669170 -0.022591 0.021746 -0.650809 0.292404 -0.158422 -0.191433 -0.264171 0.025260 -0.154664 0.123001 -0.165492 0.455795 0.478839 0.123484 -0.296600 0.398501 -0.292705 -0.127756 0.126388 0.119095 0.267693 -0.269917 0.038175 -0.187716 0.112607 0.014677 0.416803
sent_138 -0.101117 -0.284508 0.251476 0.130699 -0.319261 -0.664567 -0.184485 0.426125 0.322446 -0.173563 0.198467 0.140203 0.285268 -0.470826 0.459237 -0.041344 0.404745 0.695958 -0.458436 -0.401245 -0.344367 0.119091 1.014564 0.056462 0.134693 0.155269 0.189959 -0.115908 0.105975 -0.394335 -0.146060 -0.222488 0.266069 -0.427845 0.288187 -0.193807 0.505612 -0.610832 0.439477 0.684975 0.407429 0.215254 0.053788 -0.048128 -0.278337 -0.043207 -0.238878 -0.328423 0.290257 -0.180725
sent_139 -0.293468 -0.908625 0.508391 0.209289 -0.449018 -0.719863 -0.585386 0.185265 -0.399531 0.047537 1.039841 -0.065323 -0.284615 -0.196058 -0.119607 0.433813 0.650372 0.074020 -0.428807 0.384106 0.445630 0.336412 0.312351 0.054390 0.124738 0.529773 0.192137 -1.082857 -0.697592 -0.055912 -0.564434 0.075173 0.299240 -1.077353 0.211905 -0.189118 1.319493 -0.664620 -0.193951 0.219165 0.110481 0.401163 0.466818 0.102451 0.730627 -0.005730 -0.131922 -0.266181 -0.105654 -0.521624
sent_140 -0.153581 -0.590775 0.116390 0.530065 -0.068324 -0.925440 -0.009568 0.254805 0.090388 -0.094010 0.413295 -0.056181 -0.327714 -0.213099 0.158136 -0.023847 0.588331 0.313525 -0.245990 -0.240420 0.300456 0.101144 0.595693 0.305187 0.365438 0.166863 -0.104649 -0.390029 -0.218660 -0.082775 -0.380844 -0.342871 0.433896 -0.585995 0.307014 -0.364012 1.091966 -0.643342 -0.065369 0.046277 -0.089594 0.323357 -0.097081 -0.137841 0.322376 -0.162519 0.028627 -0.820537 -0.377793 -0.417009
sent_141 -0.097853 -0.324168 -0.038618 0.300509 -0.360847 -0.880911 0.025222 0.096881 -0.125201 0.099999 0.370339 -0.006189 -0.308325 -0.390833 0.253523 0.245372 0.088235 0.179391 -0.413612 -0.325890 0.499538 -0.019751 0.070468 0.295892 0.418082 0.023970 -0.263471 -0.255423 -0.101617 -0.170008 -0.416416 -0.189048 0.138170 -0.501993 0.575435 -0.659736 1.232504 -0.665952 0.042704 0.121465 0.114430 0.031262 0.000196 -0.097396 0.167734 -0.065750 -0.055631 -0.542025 -0.487723 -0.271993
sent_142 0.665024 0.505368 -0.215345 0.711330 -0.345904 -0.419205 0.062708 -0.028303 -0.176290 -0.024757 -0.480477 0.129092 0.265526 0.364550 -0.302954 -0.532557 -0.380467 -0.046386 -0.275720 0.382158 0.250954 0.793797 0.135785 0.203494 0.435170 -0.170073 0.373801 0.015300 -0.091089 -0.525110 -0.464611 -0.133059 -0.100855 -0.073151 0.288214 0.278968 -0.607833 -0.339508 0.057711 -0.023927 0.011849 0.029918 0.408706 -0.693221 0.245901 0.339713 0.631484 -0.392353 -0.270954 0.175871
sent_143 -0.077773 -0.185850 0.329274 0.637833 -0.664847 0.136821 -0.034559 0.761987 0.042531 -0.455736 0.251561 0.050120 0.437345 -0.311605 -0.291960 0.723102 0.202826 0.017311 -0.307031 -0.328522 0.034426 0.625014 -0.308876 0.152045 -0.059190 -0.178462 0.254485 -0.278983 -0.312066 -0.564082 -0.510148 -0.226449 -0.065215 -0.190484 0.450996 0.367557 0.493775 -0.316978 0.028699 -0.181510 0.010334 -0.391618 -0.164253 0.118976 -0.146259 -0.252799 -0.209408 -0.138901 -0.369305 0.339492
sent_144 0.221128 -0.167605 -0.489765 0.099264 0.116405 -0.038582 -0.566762 -0.165966 -0.299942 -0.131686 -0.175932 0.056278 0.095670 -0.148593 -0.318353 -0.217816 -0.157092 0.052778 0.477802 0.392316 -0.343786 -0.111322 -0.304832 -0.314080 0.030386 -0.446652 -0.504900 -0.140361 -0.291362 -0.086108 0.012872 0.061521 -0.358929 -0.006167 -0.155428 0.215661 -0.731622 -0.432064 0.646934 -0.170693 -0.024628 0.138345 0.184544 0.067355 0.308837 -0.030700 0.118830 0.084275 0.081854 0.055235
sent_145 0.044872 0.037733 0.143856 0.373770 0.049430 0.059668 -0.444455 -0.125224 0.007483 -0.159287 0.033841 -0.156527 -0.279604 0.138626 -0.505128 -0.346145 -0.252830 -0.221613 0.144023 0.602728 -0.142555 -0.004441 -0.171748 -0.106404 0.327811 -0.437308 -0.209856 -0.039036 0.078173 -0.239190 0.195523 0.381878 0.288489 0.029246 0.120014 0.172242 -0.158747 0.342684 0.277412 -0.035326 -0.097329 -0.345556 -0.255123 0.031200 0.062351 -0.021389 0.287484 -0.090300 -0.081604 -0.096147
sent_146 0.177038 0.071935 -0.110049 0.378561 -0.197635 -0.256221 0.187172 0.051248 -0.079147 -0.048664 -0.669822 0.101822 0.320009 0.531268 -0.015876 -0.496786 -0.045855 -0.197633 -0.329179 0.096302 0.029982 -0.058402 0.116939 -0.457025 0.273497 -0.040721 -0.129711 0.424238 0.045337 -0.240326 0.011868 -0.380936 -0.509815 0.018811 0.526917 0.610554 -0.580012 -0.332982 -0.083731 0.083101 -0.358177 -0.601353 -0.022335 -0.225918 -0.069430 0.308854 0.537106 -0.195485 -0.158034 0.509256
sent_147 -0.553986 -0.035674 0.088804 0.193745 0.217860 0.222985 0.384462 0.358705 -0.004833 0.150646 -0.540533 0.055181 -0.069986 0.364666 -0.066686 -0.161042 -0.100921 0.252128 -0.058831 -0.155495 0.161283 0.063409 -0.829708 -0.463120 0.232669 0.273696 -0.820113 0.386103 -0.590594 0.019445 0.402476 -0.460938 0.190048 -0.119114 0.466415 0.155803 0.395945 0.221801 0.283523 -0.073169 -0.272366 -0.244605 -0.157507 -0.141965 -0.562005 0.572430 -0.110867 0.069698 -0.132631 0.155857
sent_148 -0.262521 0.041628 0.093148 0.345386 -0.065258 0.326840 -0.395500 -0.380398 0.368195 0.191345 0.181658 0.011368 -0.630111 0.129059 -0.288305 0.126498 -0.041974 -0.412660 0.278146 0.316172 0.178925 -0.218699 -0.210054 -0.409223 0.115603 -0.171648 -0.291009 -0.227002 0.295408 0.016797 0.133923 0.905961 0.003197 -0.086263 -0.073577 -0.256561 0.108305 0.614547 0.121629 -0.010741 0.340856 -0.382610 -0.409565 -0.120643 -0.384363 -0.077632 0.128694 0.325415 0.282700 -0.233744
sent_149 0.044630 0.446723 -0.219311 -0.209195 -0.017541 0.298413 -0.001568 0.273547 -0.559340 0.133386 -0.172372 0.123471 -0.278372 0.232400 -0.287438 0.274485 -0.037967 -0.194713 0.256055 0.301815 0.220487 -0.290872 -0.351802 -0.319612 0.038482 -0.107674 -0.367486 -0.270786 -0.689890 0.106326 -0.236605 0.011918 0.030352 -0.530977 0.296573 0.290865 0.072569 -0.250553 -0.021869 -0.162928 0.073321 -0.344631 0.154586 -0.134007 -0.061470 0.177392 0.129078 0.303511 -0.386009 0.338787
sent_150 0.108367 0.053434 0.165106 -0.034291 -0.024889 -0.190174 -0.482750 -0.218427 -0.517743 -0.168833 0.004439 0.032644 0.158884 -0.183301 -0.399478 0.010314 -0.172122 0.078135 0.176036 0.118656 -0.107442 -0.266890 0.172191 -0.690532 0.170380 -0.321735 -0.323967 0.125835 -0.375196 -0.096944 0.029290 -0.067218 0.002481 -0.032060 0.139538 0.369261 -0.474420 -0.265920 0.597584 0.272464 -0.173466 0.020552 0.252015 -0.011543 0.148154 -0.316482 0.221304 -0.053034 0.037384 -0.042726
sent_151 -0.211535 -0.019108 -0.093362 -0.315114 0.008743 0.145058 0.061009 -0.237015 -0.233397 -0.071719 0.140687 0.034027 -0.117381 -0.114219 -0.034090 -0.037256 -0.266666 -0.002248 -0.059307 0.195371 0.024902 0.023580 -0.199443 -0.193279 0.023527 0.041311 -0.075401 -0.050430 -0.130210 0.061854 0.056728 0.054050 -0.079463 0.254494 -0.005056 0.150393 -0.123621 0.020138 0.059396 0.017769 -0.172962 0.049456 -0.095306 0.422186 -0.012298 0.242618 0.064768 0.082691 -0.311187 0.022422
sent_152 0.101468 0.580879 0.167896 -0.410952 -0.274276 0.422951 -0.058839 0.314569 -0.038371 -0.169675 -0.178292 0.369861 0.644909 0.158789 -0.367754 -0.025943 0.103685 0.329071 -0.082983 0.264557 0.050269 0.027538 -0.232787 -0.251777 -0.176728 -0.216776 -0.349106 0.373325 -0.220819 0.218054 -0.248558 -0.370489 0.235647 0.074955 0.000741 0.230830 0.145016 0.436194 0.046026 -0.410990 0.059448 -0.072052 -0.027467 -0.401177 0.167702 -0.113879 0.017453 -0.264790 -0.033911 0.005536
sent_153 -0.026360 -0.053018 -0.185993 0.281830 -0.373332 -0.243882 0.184304 0.089556 0.064749 0.002449 0.337481 0.104887 -0.178041 -0.174201 0.076532 -0.161335 0.260087 -0.057175 -0.206400 -0.100603 0.059733 0.188512 0.328733 0.230778 -0.015889 0.019408 0.200004 -0.127447 -0.025249 -0.002978 -0.314256 -0.224378 0.240869 -0.060209 0.221100 0.018819 0.326133 -0.102138 0.037284 0.002934 -0.036806 0.040056 0.052164 -0.044073 0.014343 -0.030308 0.329841 -0.165890 -0.108054 0.035784
sent_154 0.147028 0.172278 0.121717 -0.055403 0.413418 -0.369900 0.003828 0.430684 -0.387801 -0.213973 -0.257508 0.425742 0.334166 -0.003300 0.017146 -0.023429 -0.087063 0.451583 0.219075 -0.222899 0.077848 -0.020026 0.038228 -0.209555 0.119023 -0.191637 -0.516005 0.428218 -0.611967 0.152139 0.177262 -0.477245 0.467569 -0.260866 0.036874 0.028831 -0.095271 -0.162588 0.471892 -0.015710 -0.190434 0.090921 0.022606 -0.304231 -0.249549 0.077720 -0.142195 -0.232654 0.029337 0.064140
sent_155 -0.026795 0.212016 0.329280 -0.370423 -0.149115 0.440940 0.482756 -0.113484 0.004302 0.038849 0.259722 0.188330 0.470320 -0.273821 -0.674228 -0.052159 -0.123838 0.197677 -0.481982 -0.212657 -0.268316 0.483473 -0.053174 0.117365 -0.134911 0.028196 0.200207 -0.167379 -0.197566 -0.113538 0.164706 -0.446670 0.469241 0.115616 0.014234 0.251390 0.553003 0.198288 0.261073 0.449409 -0.036365 -0.040864 0.055746 0.293353 -0.004639 0.252762 0.206017 0.017788 -0.367794 0.017647
sent_156 -0.367520 0.134799 -0.381909 -0.610152 0.166758 0.155891 0.173937 -0.065695 0.157905 0.063186 -0.353632 0.318176 -0.063397 0.259204 -0.251169 -0.282903 -0.109726 0.274564 -0.316120 -0.002687 0.395137 -0.691916 -0.752071 -0.589156 0.080389 -0.038523 -0.619522 0.093224 -0.266896 0.150794 0.093575 -0.262713 -0.102159 0.223536 0.075653 0.370585 0.187018 0.396862 -0.036726 0.144540 -0.162914 -0.080946 -0.138811 0.412289 -0.653551 0.385254 0.200933 -0.155539 -0.311031 0.405576
sent_157 0.120637 0.346188 0.269103 0.378560 -0.334953 0.236998 0.268460 -0.085479 -0.168038 -0.148429 0.068357 0.166791 -0.308466 -0.399947 0.123663 0.186190 -0.518465 -0.273309 0.008848 -0.148377 0.192891 0.416811 -0.293732 0.244156 -0.206747 -0.182743 0.689004 -0.001078 0.314340 0.049824 0.096598 0.218781 0.030985 0.436791 -0.111898 0.143612 -0.564713 0.408353 0.146409 -0.564253 0.139836 0.194320 0.133982 -0.011248 -0.274491 0.055515 0.171146 0.023609 -0.066912 0.107992
sent_158 0.015305 -0.052628 -0.519829 -0.154920 -0.177808 0.170938 0.033279 -0.396362 0.421179 -0.034842 0.023237 -0.129411 0.086435 -0.104192 -0.324238 0.078298 0.188300 -0.325673 0.199142 -0.135777 0.256656 -0.126859 -0.704028 -0.506674 0.222834 -0.398754 0.068257 0.025617 -0.384129 0.158496 -0.359519 0.159616 -0.370225 0.127709 -0.436758 -0.111992 0.269769 0.156596 -0.541008 -0.395091 0.046385 0.160393 -0.011546 0.092242 -0.113845 0.236710 -0.193431 0.186183 -0.067632 -0.017100
sent_159 -0.073919 0.890967 0.365339 -0.587087 -0.444183 -0.093305 -0.083086 -0.093673 0.058118 -0.138759 -0.041888 0.521499 0.422461 0.134797 -0.001642 0.092003 -0.016440 0.678700 -0.550346 -0.272423 0.127955 0.076339 0.038860 -0.659445 -0.575299 0.060071 -0.372009 0.369144 -0.674310 -0.255635 0.106418 -0.273805 0.204368 -0.039238 0.176809 0.115437 0.202644 0.359813 -0.039811 0.103140 0.209201 -0.411520 -0.056098 -0.275914 -0.092362 0.035978 0.197639 -0.014552 -0.468444 0.507468
sent_160 0.419578 0.922622 0.100231 -0.587602 -0.296736 -0.404277 -0.214934 0.564654 0.163331 -0.494058 0.306215 0.673890 0.496756 0.298382 0.656132 -0.397585 0.274062 0.971227 -0.330597 -0.454384 -0.170990 0.044231 0.311673 -0.003738 -0.390805 -0.143607 -0.196765 0.321012 -0.353029 -0.174605 0.166520 -0.099676 -0.032154 -0.257399 0.313657 0.022171 0.510163 -0.262178 -0.056103 0.395772 0.492309 -0.028319 0.303647 -0.582616 -0.295722 -0.232600 0.016284 -0.113206 -0.046602 0.275342
sent_161 -0.549013 0.074878 -0.336425 0.172474 -0.003132 -0.121310 -0.309879 -0.269269 0.120157 0.008817 -0.442132 -0.120291 -0.482997 -0.007640 -0.063820 -0.112368 -0.162645 0.244392 0.021772 0.454123 0.150760 -0.209675 -0.347133 -0.025323 0.021148 0.133505 -0.666518 0.325309 0.695950 -0.300658 -0.129893 0.200904 0.306676 0.056421 0.103958 -0.013074 -0.045428 0.565384 -0.207598 -0.455701 0.190144 -0.409933 -0.496115 0.404976 0.370793 0.403152 0.110724 0.353374 -0.015240 -0.067368
sent_162 -0.330145 0.658475 0.200158 -0.492937 -0.193037 0.410372 0.043894 -0.075445 0.049648 -0.045552 0.076894 0.151718 0.113050 0.098910 -0.205108 0.003791 -0.022995 0.130456 -0.081858 0.229521 -0.087139 -0.140632 0.057683 -0.602567 -0.399873 0.130360 -0.258191 0.010472 -0.616649 0.304726 0.091905 0.103072 0.310066 0.045693 0.094253 0.432167 -0.155201 0.502367 0.442392 0.096071 -0.020810 -0.216299 -0.084134 -0.157884 -0.363675 0.173829 0.196471 -0.003289 -0.119622 0.210784
sent_163 -0.156870 0.484905 0.039071 -0.898545 -0.146828 0.602671 0.283252 -0.087771 0.174826 0.268607 -0.354660 0.142353 0.118722 -0.263780 -0.467591 0.288878 -0.242714 0.237859 -0.471403 -0.262862 0.104186 -0.788303 -0.241747 -0.122110 -0.002459 0.198244 -0.019231 -0.214729 0.088477 0.164319 -0.179092 -0.030832 0.271523 0.052242 -0.023890 0.314897 0.257111 0.434004 0.207954 0.394435 0.038839 -0.034934 0.028691 0.255559 -0.438135 -0.137115 0.024786 -0.099073 0.133157 0.120145
sent_164 -0.345019 0.224402 0.154819 -0.570097 -0.077148 0.565027 0.226085 -0.189933 -0.226432 0.127445 0.119637 0.078701 -0.230673 0.005718 -0.173251 0.005515 -0.041793 0.381422 -0.372909 0.042220 0.321291 -0.436621 -0.050828 -0.526890 0.076220 0.359135 -0.312533 -0.244339 -0.380695 0.069651 -0.160459 0.119149 0.221678 -0.034438 0.030956 0.183062 -0.099336 0.176903 -0.013598 0.232826 -0.215676 -0.238958 -0.018710 0.325038 -0.154721 -0.135674 0.273694 0.326070 -0.464465 0.124558
sent_165 -0.185319 -0.193068 -0.260465 0.067780 -0.138324 -0.134116 -0.033217 -0.200700 0.267675 0.020788 -0.085648 -0.144607 -0.147097 -0.127063 -0.116368 -0.380199 0.037696 -0.263678 -0.104835 -0.260598 0.092515 -0.472462 -0.658136 -0.217662 0.407208 -0.565060 0.019859 0.225147 -0.069503 -0.200439 0.005062 0.387816 -0.174936 0.318451 -0.095363 -0.337767 0.074344 -0.336133 -0.146456 -0.527769 -0.189466 0.176648 -0.330511 0.326966 -0.359893 -0.211546 0.096348 -0.009791 -0.692420 -0.045666
sent_166 -0.162518 -0.245931 -0.303007 0.466773 -0.068586 -0.572980 -0.007560 -0.333587 0.413214 -0.230269 -0.235810 -0.127521 -0.280838 -0.093764 -0.564113 -0.198919 -0.123227 0.038489 0.409264 0.158695 0.144154 -0.171743 -0.422252 0.037997 0.406519 -0.432550 0.115294 -0.163089 0.312384 -0.152605 -0.220617 0.538900 0.044755 0.359543 -0.533594 0.103097 -0.393253 0.029953 -0.643961 -0.419834 0.152219 -0.092200 -0.282909 0.544961 0.191135 0.062963 0.365087 0.074791 -0.093894 -0.316076
sent_167 0.512679 0.655504 -0.042362 -0.463339 -0.056915 -0.119746 -0.298949 0.367372 0.066785 -0.294822 0.132864 0.478419 0.840809 0.282934 -0.242354 0.039525 0.038223 0.977751 -0.107410 -0.236764 0.238106 0.199968 0.316480 -0.198927 -0.128842 -0.237344 -0.773723 0.614862 -0.295745 -0.308680 -0.208403 -0.403807 0.446779 -0.380843 0.151575 0.246455 0.205404 0.071291 0.132104 0.443385 0.029906 -0.293405 0.123787 -0.577265 0.258274 -0.140860 -0.160604 -0.136103 0.461247 0.060722
sent_168 0.320673 -0.156238 -0.036386 0.466957 0.041086 -0.451818 0.082201 -0.014057 -0.201391 -0.276587 -0.189471 0.551775 0.063152 -0.009192 -0.151375 -0.017399 -0.095797 0.279071 0.146658 -0.214657 -0.020822 0.183269 -0.074830 -0.056554 0.210453 -0.136040 0.035437 -0.423923 0.399468 -0.100388 0.054903 -0.277174 -0.342500 -0.201872 -0.119079 0.282407 -0.086202 0.136826 -0.122029 0.080604 0.282421 0.077321 0.430851 0.091452 -0.409348 -0.192538 0.014142 -0.226562 0.327065 -0.000784
sent_169 -0.066070 0.362410 0.212369 -0.317794 0.136816 0.378949 -0.054229 -0.132052 0.142547 0.150782 -0.065887 -0.188371 -0.064573 0.011632 0.217693 0.252292 0.018076 0.064298 -0.031315 -0.170530 -0.002757 -0.260178 0.156145 0.189966 -0.251174 0.422167 0.137498 -0.009851 -0.175996 0.377676 0.236639 0.243210 0.197769 0.053957 -0.067710 -0.037584 -0.162924 0.621811 0.133656 0.144929 -0.077465 -0.177009 -0.105649 0.012957 0.029104 -0.044093 -0.001570 0.037235 0.318372 -0.041151
sent_170 -0.471869 -0.404754 -0.055887 0.258317 -0.298723 0.922532 -0.055510 0.597569 -0.025610 0.557960 0.364515 -0.491610 0.050224 0.077205 -0.299740 -0.527507 -0.121467 -0.681395 -0.096487 1.280353 -0.860893 0.669739 1.167219 0.040397 -0.116300 0.307617 -0.500682 -0.031981 -0.117051 -0.322381 -0.129817 -0.426479 0.891806 -0.549275 0.925585 -0.400861 0.649305 -0.527538 0.968812 0.794939 0.139502 -0.061174 -0.498576 -0.274124 0.131841 0.458330 -0.218796 0.699968 -0.283689 -0.104278
sent_171 -0.290658 0.059769 -0.082740 0.379784 0.012451 0.019623 -0.511424 -0.128403 0.334499 0.010135 0.111142 -0.198030 -0.703616 0.096818 -0.000145 0.025320 -0.209969 -0.435808 0.310016 0.486498 0.376092 -0.075827 -0.279518 -0.169233 0.038507 -0.463709 -0.342102 -0.040704 0.493455 -0.058341 0.067311 0.836675 -0.165619 0.094146 0.130082 -0.126998 -0.137913 0.205872 0.016350 -0.397616 0.254589 -0.143440 -0.299188 -0.275440 -0.058239 0.182508 -0.024853 0.130423 0.096914 0.008399
sent_172 0.037304 0.252064 0.306020 -0.279610 -0.368994 0.430296 -0.065410 -0.052491 0.229076 0.325671 -0.067743 0.186647 1.015454 0.087793 -0.272357 -0.243741 -0.140033 -0.085662 -0.527809 -0.026053 -0.218160 0.227131 0.350358 -0.235996 0.001706 -0.042534 -0.051867 0.044778 0.235340 -0.223558 0.058070 -0.177316 -0.239384 -0.151992 0.454122 -0.096857 0.135886 -0.001349 0.307402 0.481698 0.152209 0.119392 0.205598 -0.238995 0.000530 0.107447 -0.246059 -0.126590 -0.248460 0.169262
sent_173 -0.060619 -0.114865 0.321094 0.533864 -0.178622 -0.651021 -0.536087 0.519448 0.296151 -0.326419 0.073088 0.256032 0.038675 0.018178 0.018341 0.227120 -0.030752 0.355510 -0.171904 -0.115959 -0.158705 0.121427 0.003701 -0.070918 0.104556 -0.310412 -0.160119 0.079411 -0.330615 -0.565862 0.116251 -0.001047 0.444471 -0.122215 -0.009860 -0.121098 0.360695 0.004604 0.195726 0.102614 -0.059364 -0.204404 -0.518413 0.092065 -0.266191 -0.428448 0.105363 -0.354455 -0.093403 -0.100709
sent_174 -0.311240 -0.891984 0.301531 -0.131128 -0.310879 -0.072274 0.138805 -0.159645 -0.158367 0.078020 0.044087 -0.020995 0.733020 -0.681607 -0.767743 0.298200 -0.217487 -0.211397 -0.110328 -0.277736 -0.089091 0.177216 -0.472623 -0.038174 0.066036 -0.411174 0.430773 0.973415 0.207014 0.209908 -0.393937 -0.398847 -0.044105 1.059820 -0.675817 0.123394 0.003825 0.035786 -0.735271 0.110957 -0.201079 -0.453348 -0.282964 0.119229 0.211784 -0.385336 -0.279202 -0.224884 -0.259385 0.005480
sent_175 0.261055 0.169394 -0.289102 -0.100792 0.117580 -0.297776 -0.275422 0.354402 -0.007510 0.087921 -0.407581 0.158320 0.421768 -0.117745 0.120919 0.068971 -0.149509 0.456795 0.290486 -0.347598 -0.348072 0.291770 0.106659 0.109265 0.155838 -0.187067 -0.418096 0.339880 -0.112414 -0.303651 -0.093837 -0.253443 -0.053328 -0.424051 0.272454 0.441515 -0.042824 -0.718124 0.560251 0.342813 0.160396 -0.294695 0.257266 -0.384784 0.044607 0.131221 -0.195307 0.030305 0.470742 0.195110
sent_176 -0.266142 -0.217963 -0.049683 0.550968 -0.572793 -0.814672 0.059343 0.267284 0.074380 0.181759 0.617101 0.272660 -0.093554 -0.253150 0.174293 0.281355 0.500173 0.306560 -0.392416 -0.400456 0.317251 0.492675 0.376611 0.326594 -0.011612 0.347312 -0.218176 -0.499026 -0.425262 -0.035137 -0.341801 -0.539325 0.384670 -0.595656 0.425990 -0.575399 1.418376 -0.271118 0.205941 0.116083 0.245033 0.344792 0.213559 -0.067419 0.204250 -0.134613 0.160805 -0.436112 -0.249967 -0.515639
sent_177 -0.198400 -0.297379 -0.007758 0.666028 -0.297145 -0.446859 0.277957 -0.224485 -0.146416 0.122213 0.878371 0.276825 -0.459083 -0.098910 -0.095857 -0.350577 0.721345 0.360615 -0.086645 -0.421996 -0.097299 0.625025 0.227887 0.434323 -0.557272 0.290022 0.138063 -0.357152 0.283372 0.185066 -0.045526 0.239676 0.473404 -0.410060 0.161347 -0.293866 0.604627 0.059041 -0.069137 -0.384428 0.288645 0.220646 0.382000 -0.522104 0.388832 -0.836358 0.003013 -0.165920 -0.252656 -0.422273
sent_178 0.254916 -0.373236 0.210429 0.486260 -0.058536 -0.224513 -0.030069 0.232160 -0.205142 -0.420128 0.185253 0.025637 0.018000 -0.330185 -0.267784 0.219024 0.099366 0.163355 0.113469 -0.008956 -0.278879 0.167538 0.176374 0.011969 0.098275 -0.311856 0.130032 -0.122100 -0.176481 -0.211381 -0.182360 -0.452752 0.484836 -0.285037 0.152072 0.250960 0.288854 -0.101336 0.393190 -0.043918 -0.095160 -0.032462 -0.090345 0.162823 -0.002063 -0.255686 -0.094617 -0.333543 0.185310 -0.076785
sent_179 -0.401813 -0.764647 0.015305 0.287233 -0.222786 -0.204178 1.051846 0.091447 -0.516504 0.014783 0.418562 -0.233756 -0.358221 -0.102416 -0.437034 0.257470 0.276839 -0.657257 -0.063187 -0.136381 -0.045553 0.408508 -0.120096 0.262821 -0.761146 0.356947 0.747924 -0.636776 -0.334912 -0.125526 0.289794 -0.157038 0.373041 -0.239955 -0.231119 0.358383 -0.493710 -0.093739 -0.310165 0.030812 -0.004181 0.682258 0.502676 0.456258 -0.042457 0.053967 -0.296019 0.616396 0.160767 0.000359
sent_180 -0.509414 -0.016099 -0.277793 -0.188603 -0.291683 0.458544 0.837975 -0.195538 0.101366 0.739263 -0.208696 -0.116357 -0.176436 0.322378 -0.030108 -0.192492 -0.011110 -0.234253 -0.261106 -0.017549 0.583582 -0.025027 -0.594893 -0.334414 -0.128627 0.228426 -0.497228 0.695241 0.019976 0.019852 -0.113563 -0.305199 0.077415 0.149359 0.214622 -0.157695 0.012447 0.217938 -0.185744 -0.211034 -0.207898 -0.181646 0.254547 -0.329121 0.163025 0.217090 0.014706 0.570007 -0.146530 0.031126
sent_181 -0.012341 -0.532670 0.115379 1.007557 -0.697911 -0.489166 0.068765 0.323707 -0.229007 -0.249868 0.607378 0.231616 -0.187847 -0.106392 -0.226694 0.365089 0.602850 0.125229 0.170773 -0.168521 0.234298 0.608760 0.047335 0.336764 0.158593 0.173693 0.057975 -0.708988 -0.346926 -0.221654 -0.546221 -0.238326 0.526697 -0.716674 0.316653 -0.217585 0.934749 -0.217947 -0.169623 -0.327485 0.136811 0.074081 -0.002056 0.112075 -0.024990 -0.693113 -0.008953 -0.287152 -0.145240 -0.513536
sent_182 -0.212651 -0.124858 -0.182478 0.300250 -0.066428 -0.294094 0.221788 -0.180230 -0.126737 0.318843 0.170266 0.077253 -0.624858 0.263519 0.224695 -0.008419 -0.081854 -0.047592 0.167932 0.168665 0.299466 0.237906 0.264840 0.132545 -0.156564 0.400427 -0.235612 0.024124 0.427831 0.058785 0.017216 0.183341 0.187046 -0.171828 0.067120 -0.116112 -0.044645 -0.080625 -0.332862 -0.368059 -0.121644 -0.175950 -0.142221 0.052318 0.539014 0.052850 0.300230 0.274756 -0.052068 -0.300015
sent_183 -0.120934 0.034071 -0.089356 -0.129342 -0.144701 0.293366 0.397537 -0.084779 -0.474704 -0.169389 0.165307 -0.128845 -0.179564 -0.443327 0.041550 0.137515 -0.215768 -0.422132 0.172479 0.261899 -0.151760 0.286570 0.175026 0.242022 -0.133777 0.176881 0.355358 -0.353528 -0.043513 0.520760 -0.185388 -0.368778 -0.063282 0.477255 -0.120085 0.180829 -0.123553 0.046761 0.082948 -0.044763 0.159727 0.205229 0.265671 0.526585 0.118269 0.344659 0.179609 0.464831 0.066730 0.072568
sent_184 -0.437888 0.308616 0.259764 -1.014432 0.015350 -0.413974 -0.142002 -0.272416 0.304543 0.182050 0.150519 0.672650 0.985688 -0.251884 -0.844926 -0.222478 0.217175 0.290058 0.076803 -0.238458 -0.261158 0.438982 0.196155 -0.053107 -0.691815 0.444329 -0.002630 -0.078497 -0.325254 -0.039591 0.324871 0.067376 0.406102 -0.150002 -1.164073 0.888123 0.006551 0.718483 -0.438214 0.607728 0.296784 0.232493 0.585927 0.158947 0.446976 0.681930 0.513919 0.314077 0.307618 0.104115
sent_185 -0.139393 0.605075 0.266197 0.180009 0.046334 -0.050433 0.188288 0.129170 -0.081306 -0.063329 -0.457407 -0.092491 0.233167 0.310956 0.458866 0.093192 -0.003445 0.057000 -0.095999 -0.273966 -0.273022 0.043893 0.237430 -0.339510 0.007592 0.272277 -0.243603 0.315362 -0.149510 -0.013887 0.155014 -0.399635 -0.201681 -0.036622 0.338982 -0.218816 -0.155840 0.027701 -0.005385 -0.056197 0.082384 -0.423141 -0.111968 -0.233104 -0.233022 0.218920 0.093450 0.099674 -0.514977 0.256708
sent_186 -0.237156 -0.637503 0.231302 0.714115 -0.630009 -0.517862 0.049327 0.844348 0.143331 -0.610441 0.153970 -0.214053 -0.065514 -0.515727 -0.338907 0.495308 0.329269 0.249713 -0.214848 0.169878 -0.020598 0.271104 0.241249 0.301199 0.115882 -0.053118 0.367079 -0.652787 -0.503105 -0.251314 -0.638424 -0.586272 0.721667 -0.216108 0.155573 0.216046 0.725468 -0.345451 0.131052 -0.130613 0.148129 0.411777 -0.168585 0.554323 0.058226 -0.116174 -0.134628 -0.334970 0.321069 -0.420399
sent_187 0.056389 0.038425 0.238351 0.107935 0.088055 -0.154860 -0.635362 -0.005387 -0.047149 -0.125985 -0.803567 -0.285261 0.013234 -0.176205 -0.132766 -0.091360 -0.272921 0.052304 0.011431 0.526704 -0.190873 -0.770635 0.105159 -0.232582 0.664815 -0.726669 -0.093939 0.547030 0.923476 -0.016922 -0.188484 -0.729698 -0.364430 0.822786 0.041169 0.615733 -0.285583 0.348061 -0.160052 -0.014883 -0.167817 -0.975399 0.130623 0.350249 0.542405 -0.152047 0.718031 -0.251725 0.059570 0.191786
sent_188 0.306127 -0.033659 -0.182583 0.176999 -0.002594 0.037264 -0.403455 0.133899 0.029391 0.083368 -0.138260 0.233600 0.011897 0.462611 -0.031405 -0.185501 0.171674 -0.112496 0.269971 0.233259 -0.246032 -0.088744 -0.136822 0.097868 0.272880 -0.008477 -0.007232 -0.288174 -0.011936 0.094817 0.276486 0.171190 -0.297500 -0.339856 0.074193 0.046497 0.160198 0.039346 -0.124901 0.034050 0.008894 -0.318456 -0.150801 0.010398 -0.130853 -0.176765 0.189421 -0.294422 -0.060369 -0.092401
sent_189 0.076803 0.805172 -0.146398 -0.060226 0.427167 0.201037 -0.149953 0.171411 -0.103549 -0.351901 -0.920855 -0.255614 0.027381 -0.188932 -0.244032 0.167228 -0.128556 0.416626 -0.333686 -0.448874 0.325974 -0.798008 -0.568594 -0.283928 0.420506 -0.069659 -0.375381 0.144825 -0.026652 -0.513509 -0.525704 -0.152796 -0.188974 0.143833 -0.214834 -0.172811 -0.210649 0.158592 -0.260317 -0.275771 0.156622 0.070314 0.043924 0.072061 -0.526859 -0.030731 -0.060949 0.222175 -0.510770 0.319012
sent_190 0.323954 -0.272003 0.190027 -0.283211 -0.220535 0.029254 -0.220450 0.200421 -0.595873 -0.185153 0.759539 -0.352043 -0.316649 -0.468549 0.735962 0.206975 -0.205669 -0.286643 0.091362 0.391200 -0.114279 -0.054830 0.382200 0.601178 -0.077748 0.197957 0.612684 -0.374384 -0.027693 0.237706 -0.005488 0.057509 -0.237204 0.331625 0.130547 -0.041630 -0.213556 -0.580214 0.422767 0.162699 -0.027827 0.178096 0.484697 0.277029 0.431791 -0.161089 0.116457 0.159646 0.347254 0.024150
sent_191 0.062020 -0.052180 0.202044 0.377106 0.115152 0.210137 0.330179 -0.329481 -0.223606 -0.141655 -0.036453 -0.037581 -0.414775 -0.014993 -0.489912 0.244297 -0.420973 -0.044835 0.027723 -0.146103 0.216757 0.250007 -0.385686 -0.222002 0.031100 -0.193608 0.156183 -0.201499 0.406556 -0.485263 0.212104 0.250809 0.118155 -0.012210 -0.134159 0.434499 -0.599048 0.273088 -0.187908 -0.280708 -0.194390 -0.119204 0.033242 0.368805 -0.010506 -0.153937 -0.012667 0.261011 -0.099311 0.108815
sent_192 -0.429223 0.084751 -0.230577 0.413609 -0.128364 0.600173 0.220451 -0.266465 -0.441875 0.374968 -0.254025 -0.341389 -0.090836 -0.378659 -0.295956 0.390410 -0.323176 -0.775166 0.283248 0.379903 -0.333827 0.587760 -0.048060 0.203836 -0.603647 0.199977 0.055978 -0.150155 -0.070163 0.293761 0.252271 -0.033892 -0.253495 0.438688 0.138319 -0.020486 -0.687993 -0.064112 0.216820 -0.504461 -0.010959 0.022667 0.072995 0.267818 0.451127 0.280364 -0.117659 0.489007 -0.608934 -0.022217
sent_193 0.085895 0.066943 -0.494800 -0.086453 -0.150431 0.861473 -0.096263 -0.593173 -0.316440 0.056759 0.251692 -0.461244 -0.167828 0.012745 -0.043109 -0.031773 0.042617 -0.301135 0.181807 0.300541 -0.164060 0.081593 -0.336748 -0.246614 -0.121501 0.094083 0.016722 0.138547 -0.116968 0.262658 -0.073276 0.181301 -0.360193 0.292524 0.219315 0.209446 -0.459794 -0.127842 0.360104 -0.411829 -0.319230 -0.256802 -0.134694 0.261020 0.634775 0.076543 -0.019302 0.243597 -0.479259 0.008618
sent_194 0.444687 0.104911 -0.561058 -0.393291 -0.226249 -0.193873 -0.129712 -0.244402 -0.352744 -0.210589 0.232581 0.799093 0.620477 0.021675 -0.388769 -0.200953 -0.018113 0.850616 0.361722 -0.500835 -0.138255 0.424657 -0.271631 -0.120612 -0.110098 -0.083714 -0.557815 0.310022 -0.255871 0.056454 -0.031200 -0.407373 0.006139 0.058867 -0.384069 0.667073 -0.047616 -0.030254 -0.233379 0.333407 0.110466 -0.434531 0.263094 0.037536 0.061495 -0.237764 0.110824 -0.059371 -0.190375 0.330891
sent_195 -0.418885 -0.269793 0.224346 0.179515 -0.235458 -0.673616 -0.464114 0.298194 0.066439 -0.013520 0.033485 -0.103381 0.238414 -0.311369 -0.231412 0.288342 -0.024708 0.467443 -0.337966 0.075656 0.486207 0.173080 -0.085897 -0.369478 0.345864 -0.320569 -0.426301 -0.170237 -0.420422 -0.379933 -0.485441 -0.116826 0.100300 -0.238610 0.192941 -0.372779 0.605985 -0.794399 0.284633 0.080749 0.359574 0.248492 0.259073 -0.352554 0.342669 0.324001 -0.388768 -0.406932 -0.498874 -0.293733
sent_196 0.275051 -0.095097 -0.715298 0.008426 -0.485660 0.338968 0.443005 -0.803480 -0.436639 -0.308496 0.431812 -0.364935 -0.718859 -0.662479 -0.261962 0.110177 -0.116523 0.246117 0.092986 -0.367571 -0.265652 0.038618 -0.886162 0.235273 0.051033 0.003012 0.356774 -0.191638 0.328521 0.136558 -0.363157 0.397068 0.024315 0.502500 0.042876 0.469807 -0.144707 0.092114 0.181182 -0.447975 0.030068 -0.369808 0.067560 0.468402 -0.002515 -0.700935 0.072047 0.175459 0.119594 -0.216690
sent_197 -0.421845 0.174785 0.078747 0.145029 0.213363 0.760871 -0.408801 -0.222638 0.444420 -0.035512 0.103404 -0.373886 -0.289874 -0.081487 -0.077997 0.285361 0.213224 0.231375 -0.143711 0.171682 0.346148 -0.274872 -0.383466 -0.428581 -0.104010 -0.096407 -0.372714 -0.203398 0.249119 -0.160672 -0.112858 0.711851 -0.186228 0.231397 -0.258214 -0.647793 -0.120095 0.594197 0.141946 -0.362626 0.358768 0.221675 -0.274189 -0.040533 -0.107396 -0.140399 -0.424867 0.373508 -0.018812 -0.270435
sent_198 0.355196 0.099867 0.582062 0.046287 -0.084030 0.172565 -0.188672 -0.173659 -0.276872 -0.364569 -0.123227 -0.150024 0.198348 -0.179958 -0.468113 0.247522 -0.391192 -0.273431 0.106054 -0.200670 0.164140 0.048349 -0.048937 -0.235501 0.468989 -0.410342 0.631602 0.076474 0.246834 -0.180286 -0.128089 0.468822 -0.163408 0.089345 -0.110317 0.515143 -0.684978 -0.095215 -0.244843 0.135735 0.021876 -0.144660 0.078241 -0.118462 -0.268666 -0.173290 -0.146411 -0.154776 -0.009571 0.243541
sent_199 0.288411 -0.300349 -0.155270 -0.285596 -0.015912 -0.556079 -0.271710 -0.100656 -0.161987 0.173435 -0.174107 0.407315 0.515220 -0.221570 -0.143766 0.299749 -0.112634 0.360925 0.314690 -0.418144 -0.204812 -0.130161 -0.148542 -0.221171 0.215360 -0.250343 -0.224005 0.038662 -0.254103 -0.205201 0.134539 -0.423676 -0.060862 -0.409359 -0.232270 0.233017 0.206452 -0.231204 0.257669 0.439694 -0.022797 0.004028 0.292126 0.216242 -0.105345 -0.134291 -0.064042 -0.161662 0.620889 -0.103105
sent_200 0.031323 -0.121522 0.034448 -0.139022 -0.174015 -0.039878 -0.009117 -0.172343 -0.285517 -0.167536 0.536602 -0.242364 -0.373138 -0.202047 0.345597 -0.126457 -0.119467 -0.238641 0.214613 0.312684 -0.247413 0.039365 0.276981 0.196967 -0.016299 0.153961 0.186271 -0.204939 0.320329 0.006181 0.064590 0.238830 -0.039074 0.066068 0.199613 0.047967 -0.065083 -0.272187 0.170067 0.080744 0.044717 -0.130520 0.226933 0.239305 0.159251 0.025262 0.188862 0.326546 0.130899 -0.044711
sent_201 -0.285262 -0.040820 -0.009615 0.547063 -0.491949 -0.625139 0.335133 0.138334 0.628881 0.292793 0.036672 -0.149789 0.079893 -0.809462 -0.100884 0.023548 0.408936 0.482409 -0.938025 -0.503338 -0.187511 0.076911 0.643794 0.671030 0.465393 0.205081 0.354227 -0.679975 0.521178 -0.237197 -0.729775 -0.604650 0.333409 -0.157789 0.292830 -0.660659 1.379021 -0.345380 0.423357 0.437516 0.518054 0.150087 0.273273 0.004515 0.102378 -0.102081 0.205619 -0.670130 -0.551331 -0.504999
sent_202 -0.198731 -0.768604 0.272245 0.720230 -0.388726 -0.135223 -0.642104 0.436031 -0.421360 -0.350181 0.649426 0.064850 -0.253543 -0.505336 -0.116106 0.336551 0.347969 -0.074276 -0.268808 0.341545 0.174967 0.431294 0.355717 0.393472 0.186019 0.104315 0.040432 -0.886863 -0.309808 -0.292043 -0.680014 -0.321497 0.418028 -0.580402 0.253213 -0.392224 1.056267 -0.220437 0.058458 -0.014847 0.326913 0.430117 0.003229 0.460657 0.062124 -0.184148 -0.312542 -0.092826 -0.348590 -0.122371
sent_203 -0.082108 -0.543298 0.108031 -0.012950 -0.220621 -0.582998 -0.471026 -0.056238 -0.046143 -0.032883 0.151546 0.273720 0.153155 -0.394952 -0.209609 0.162852 -0.021208 0.035323 0.275459 -0.044196 -0.338589 -0.119694 0.056359 -0.185058 -0.075848 -0.225186 -0.057362 -0.021677 -0.121807 -0.101136 0.125089 -0.068507 0.229953 -0.217609 -0.144762 0.187296 0.140649 -0.167772 0.276950 0.248790 -0.002946 0.128676 -0.061638 0.155764 -0.161004 -0.422163 -0.104097 -0.314812 0.366202 -0.156569
sent_204 0.309113 0.308648 -0.201401 -0.468493 -0.191887 -0.126942 -0.181102 -0.314063 -0.273143 -0.241561 0.422038 0.468747 0.569765 -0.121012 -0.112459 -0.091359 -0.071118 0.820016 0.180078 -0.297033 0.289134 0.591831 -0.076112 -0.093033 -0.323077 -0.067811 -0.281825 0.598970 -0.519677 0.286599 -0.252305 -0.222480 0.208077 0.361751 -0.368677 0.465608 -0.394682 0.072757 -0.034131 0.037450 0.006642 -0.135226 0.364922 -0.343030 0.423097 0.118006 -0.002451 -0.202826 0.015488 0.285994
sent_205 0.168368 -0.181488 -0.192135 -0.195746 0.050813 -0.454598 -0.379056 -0.281116 -0.144170 0.064285 -0.187698 0.236964 0.214994 -0.109179 -0.541510 0.361943 -0.234597 -0.116945 0.611462 -0.145776 -0.310020 -0.268807 -0.454953 -0.551250 0.236686 -0.339551 -0.257663 -0.283014 -0.424030 0.010043 -0.001801 0.068133 -0.330851 -0.350583 -0.218914 0.363352 0.133125 -0.426050 -0.012689 0.251047 -0.005539 -0.320879 0.080646 0.225928 -0.094701 -0.147767 0.132039 -0.001650 -0.107277 0.007628
